FANN_FLO_2.1
num_layers=3
learning_rate=0.700000
connection_rate=1.000000
network_type=0
learning_momentum=0.000000
training_algorithm=2
train_error_function=1
train_stop_function=0
cascade_output_change_fraction=0.010000
quickprop_decay=-0.000100
quickprop_mu=1.750000
rprop_increase_factor=1.200000
rprop_decrease_factor=0.500000
rprop_delta_min=0.000000
rprop_delta_max=50.000000
rprop_delta_zero=0.100000
cascade_output_stagnation_epochs=12
cascade_candidate_change_fraction=0.010000
cascade_candidate_stagnation_epochs=12
cascade_max_out_epochs=150
cascade_max_cand_epochs=150
cascade_num_candidate_groups=2
bit_fail_limit=3.49999994039535522461e-01
cascade_candidate_limit=1.00000000000000000000e+03
cascade_weight_multiplier=4.00000005960464477539e-01
cascade_activation_functions_count=10
cascade_activation_functions=3 5 7 8 10 11 14 15 16 17 
cascade_activation_steepnesses_count=4
cascade_activation_steepnesses=2.50000000000000000000e-01 5.00000000000000000000e-01 7.50000000000000000000e-01 1.00000000000000000000e+00 
layer_sizes=203 12 101 
scale_included=0
neurons (num_inputs, activation_function, activation_steepness)=(0, 0, 0.00000000000000000000e+00) (0, 0, 0.00000000000000000000e+00) (0, 0, 0.00000000000000000000e+00) (0, 0, 0.00000000000000000000e+00) (0, 0, 0.00000000000000000000e+00) (0, 0, 0.00000000000000000000e+00) (0, 0, 0.00000000000000000000e+00) (0, 0, 0.00000000000000000000e+00) (0, 0, 0.00000000000000000000e+00) (0, 0, 0.00000000000000000000e+00) (0, 0, 0.00000000000000000000e+00) (0, 0, 0.00000000000000000000e+00) (0, 0, 0.00000000000000000000e+00) (0, 0, 0.00000000000000000000e+00) (0, 0, 0.00000000000000000000e+00) (0, 0, 0.00000000000000000000e+00) (0, 0, 0.00000000000000000000e+00) (0, 0, 0.00000000000000000000e+00) (0, 0, 0.00000000000000000000e+00) (0, 0, 0.00000000000000000000e+00) (0, 0, 0.00000000000000000000e+00) (0, 0, 0.00000000000000000000e+00) (0, 0, 0.00000000000000000000e+00) (0, 0, 0.00000000000000000000e+00) (0, 0, 0.00000000000000000000e+00) (0, 0, 0.00000000000000000000e+00) (0, 0, 0.00000000000000000000e+00) (0, 0, 0.00000000000000000000e+00) (0, 0, 0.00000000000000000000e+00) (0, 0, 0.00000000000000000000e+00) (0, 0, 0.00000000000000000000e+00) (0, 0, 0.00000000000000000000e+00) (0, 0, 0.00000000000000000000e+00) (0, 0, 0.00000000000000000000e+00) (0, 0, 0.00000000000000000000e+00) (0, 0, 0.00000000000000000000e+00) (0, 0, 0.00000000000000000000e+00) (0, 0, 0.00000000000000000000e+00) (0, 0, 0.00000000000000000000e+00) (0, 0, 0.00000000000000000000e+00) (0, 0, 0.00000000000000000000e+00) (0, 0, 0.00000000000000000000e+00) (0, 0, 0.00000000000000000000e+00) (0, 0, 0.00000000000000000000e+00) (0, 0, 0.00000000000000000000e+00) (0, 0, 0.00000000000000000000e+00) (0, 0, 0.00000000000000000000e+00) (0, 0, 0.00000000000000000000e+00) (0, 0, 0.00000000000000000000e+00) (0, 0, 0.00000000000000000000e+00) (0, 0, 0.00000000000000000000e+00) (0, 0, 0.00000000000000000000e+00) (0, 0, 0.00000000000000000000e+00) (0, 0, 0.00000000000000000000e+00) (0, 0, 0.00000000000000000000e+00) (0, 0, 0.00000000000000000000e+00) (0, 0, 0.00000000000000000000e+00) (0, 0, 0.00000000000000000000e+00) (0, 0, 0.00000000000000000000e+00) (0, 0, 0.00000000000000000000e+00) (0, 0, 0.00000000000000000000e+00) (0, 0, 0.00000000000000000000e+00) (0, 0, 0.00000000000000000000e+00) (0, 0, 0.00000000000000000000e+00) (0, 0, 0.00000000000000000000e+00) (0, 0, 0.00000000000000000000e+00) (0, 0, 0.00000000000000000000e+00) (0, 0, 0.00000000000000000000e+00) (0, 0, 0.00000000000000000000e+00) (0, 0, 0.00000000000000000000e+00) (0, 0, 0.00000000000000000000e+00) (0, 0, 0.00000000000000000000e+00) (0, 0, 0.00000000000000000000e+00) (0, 0, 0.00000000000000000000e+00) (0, 0, 0.00000000000000000000e+00) (0, 0, 0.00000000000000000000e+00) (0, 0, 0.00000000000000000000e+00) (0, 0, 0.00000000000000000000e+00) (0, 0, 0.00000000000000000000e+00) (0, 0, 0.00000000000000000000e+00) (0, 0, 0.00000000000000000000e+00) (0, 0, 0.00000000000000000000e+00) (0, 0, 0.00000000000000000000e+00) (0, 0, 0.00000000000000000000e+00) (0, 0, 0.00000000000000000000e+00) (0, 0, 0.00000000000000000000e+00) (0, 0, 0.00000000000000000000e+00) (0, 0, 0.00000000000000000000e+00) (0, 0, 0.00000000000000000000e+00) (0, 0, 0.00000000000000000000e+00) (0, 0, 0.00000000000000000000e+00) (0, 0, 0.00000000000000000000e+00) (0, 0, 0.00000000000000000000e+00) (0, 0, 0.00000000000000000000e+00) (0, 0, 0.00000000000000000000e+00) (0, 0, 0.00000000000000000000e+00) (0, 0, 0.00000000000000000000e+00) (0, 0, 0.00000000000000000000e+00) (0, 0, 0.00000000000000000000e+00) (0, 0, 0.00000000000000000000e+00) (0, 0, 0.00000000000000000000e+00) (0, 0, 0.00000000000000000000e+00) (0, 0, 0.00000000000000000000e+00) (0, 0, 0.00000000000000000000e+00) (0, 0, 0.00000000000000000000e+00) (0, 0, 0.00000000000000000000e+00) (0, 0, 0.00000000000000000000e+00) (0, 0, 0.00000000000000000000e+00) (0, 0, 0.00000000000000000000e+00) (0, 0, 0.00000000000000000000e+00) (0, 0, 0.00000000000000000000e+00) (0, 0, 0.00000000000000000000e+00) (0, 0, 0.00000000000000000000e+00) (0, 0, 0.00000000000000000000e+00) (0, 0, 0.00000000000000000000e+00) (0, 0, 0.00000000000000000000e+00) (0, 0, 0.00000000000000000000e+00) (0, 0, 0.00000000000000000000e+00) (0, 0, 0.00000000000000000000e+00) (0, 0, 0.00000000000000000000e+00) (0, 0, 0.00000000000000000000e+00) (0, 0, 0.00000000000000000000e+00) (0, 0, 0.00000000000000000000e+00) (0, 0, 0.00000000000000000000e+00) (0, 0, 0.00000000000000000000e+00) (0, 0, 0.00000000000000000000e+00) (0, 0, 0.00000000000000000000e+00) (0, 0, 0.00000000000000000000e+00) (0, 0, 0.00000000000000000000e+00) (0, 0, 0.00000000000000000000e+00) (0, 0, 0.00000000000000000000e+00) (0, 0, 0.00000000000000000000e+00) (0, 0, 0.00000000000000000000e+00) (0, 0, 0.00000000000000000000e+00) (0, 0, 0.00000000000000000000e+00) (0, 0, 0.00000000000000000000e+00) (0, 0, 0.00000000000000000000e+00) (0, 0, 0.00000000000000000000e+00) (0, 0, 0.00000000000000000000e+00) (0, 0, 0.00000000000000000000e+00) (0, 0, 0.00000000000000000000e+00) (0, 0, 0.00000000000000000000e+00) (0, 0, 0.00000000000000000000e+00) (0, 0, 0.00000000000000000000e+00) (0, 0, 0.00000000000000000000e+00) (0, 0, 0.00000000000000000000e+00) (0, 0, 0.00000000000000000000e+00) (0, 0, 0.00000000000000000000e+00) (0, 0, 0.00000000000000000000e+00) (0, 0, 0.00000000000000000000e+00) (0, 0, 0.00000000000000000000e+00) (0, 0, 0.00000000000000000000e+00) (0, 0, 0.00000000000000000000e+00) (0, 0, 0.00000000000000000000e+00) (0, 0, 0.00000000000000000000e+00) (0, 0, 0.00000000000000000000e+00) (0, 0, 0.00000000000000000000e+00) (0, 0, 0.00000000000000000000e+00) (0, 0, 0.00000000000000000000e+00) (0, 0, 0.00000000000000000000e+00) (0, 0, 0.00000000000000000000e+00) (0, 0, 0.00000000000000000000e+00) (0, 0, 0.00000000000000000000e+00) (0, 0, 0.00000000000000000000e+00) (0, 0, 0.00000000000000000000e+00) (0, 0, 0.00000000000000000000e+00) (0, 0, 0.00000000000000000000e+00) (0, 0, 0.00000000000000000000e+00) (0, 0, 0.00000000000000000000e+00) (0, 0, 0.00000000000000000000e+00) (0, 0, 0.00000000000000000000e+00) (0, 0, 0.00000000000000000000e+00) (0, 0, 0.00000000000000000000e+00) (0, 0, 0.00000000000000000000e+00) (0, 0, 0.00000000000000000000e+00) (0, 0, 0.00000000000000000000e+00) (0, 0, 0.00000000000000000000e+00) (0, 0, 0.00000000000000000000e+00) (0, 0, 0.00000000000000000000e+00) (0, 0, 0.00000000000000000000e+00) (0, 0, 0.00000000000000000000e+00) (0, 0, 0.00000000000000000000e+00) (0, 0, 0.00000000000000000000e+00) (0, 0, 0.00000000000000000000e+00) (0, 0, 0.00000000000000000000e+00) (0, 0, 0.00000000000000000000e+00) (0, 0, 0.00000000000000000000e+00) (0, 0, 0.00000000000000000000e+00) (0, 0, 0.00000000000000000000e+00) (0, 0, 0.00000000000000000000e+00) (0, 0, 0.00000000000000000000e+00) (0, 0, 0.00000000000000000000e+00) (0, 0, 0.00000000000000000000e+00) (0, 0, 0.00000000000000000000e+00) (0, 0, 0.00000000000000000000e+00) (0, 0, 0.00000000000000000000e+00) (0, 0, 0.00000000000000000000e+00) (0, 0, 0.00000000000000000000e+00) (0, 0, 0.00000000000000000000e+00) (0, 0, 0.00000000000000000000e+00) (0, 0, 0.00000000000000000000e+00) (0, 0, 0.00000000000000000000e+00) (0, 0, 0.00000000000000000000e+00) (203, 5, 5.00000000000000000000e-01) (203, 5, 5.00000000000000000000e-01) (203, 5, 5.00000000000000000000e-01) (203, 5, 5.00000000000000000000e-01) (203, 5, 5.00000000000000000000e-01) (203, 5, 5.00000000000000000000e-01) (203, 5, 5.00000000000000000000e-01) (203, 5, 5.00000000000000000000e-01) (203, 5, 5.00000000000000000000e-01) (203, 5, 5.00000000000000000000e-01) (203, 5, 5.00000000000000000000e-01) (0, 5, 0.00000000000000000000e+00) (12, 5, 5.00000000000000000000e-01) (12, 5, 5.00000000000000000000e-01) (12, 5, 5.00000000000000000000e-01) (12, 5, 5.00000000000000000000e-01) (12, 5, 5.00000000000000000000e-01) (12, 5, 5.00000000000000000000e-01) (12, 5, 5.00000000000000000000e-01) (12, 5, 5.00000000000000000000e-01) (12, 5, 5.00000000000000000000e-01) (12, 5, 5.00000000000000000000e-01) (12, 5, 5.00000000000000000000e-01) (12, 5, 5.00000000000000000000e-01) (12, 5, 5.00000000000000000000e-01) (12, 5, 5.00000000000000000000e-01) (12, 5, 5.00000000000000000000e-01) (12, 5, 5.00000000000000000000e-01) (12, 5, 5.00000000000000000000e-01) (12, 5, 5.00000000000000000000e-01) (12, 5, 5.00000000000000000000e-01) (12, 5, 5.00000000000000000000e-01) (12, 5, 5.00000000000000000000e-01) (12, 5, 5.00000000000000000000e-01) (12, 5, 5.00000000000000000000e-01) (12, 5, 5.00000000000000000000e-01) (12, 5, 5.00000000000000000000e-01) (12, 5, 5.00000000000000000000e-01) (12, 5, 5.00000000000000000000e-01) (12, 5, 5.00000000000000000000e-01) (12, 5, 5.00000000000000000000e-01) (12, 5, 5.00000000000000000000e-01) (12, 5, 5.00000000000000000000e-01) (12, 5, 5.00000000000000000000e-01) (12, 5, 5.00000000000000000000e-01) (12, 5, 5.00000000000000000000e-01) (12, 5, 5.00000000000000000000e-01) (12, 5, 5.00000000000000000000e-01) (12, 5, 5.00000000000000000000e-01) (12, 5, 5.00000000000000000000e-01) (12, 5, 5.00000000000000000000e-01) (12, 5, 5.00000000000000000000e-01) (12, 5, 5.00000000000000000000e-01) (12, 5, 5.00000000000000000000e-01) (12, 5, 5.00000000000000000000e-01) (12, 5, 5.00000000000000000000e-01) (12, 5, 5.00000000000000000000e-01) (12, 5, 5.00000000000000000000e-01) (12, 5, 5.00000000000000000000e-01) (12, 5, 5.00000000000000000000e-01) (12, 5, 5.00000000000000000000e-01) (12, 5, 5.00000000000000000000e-01) (12, 5, 5.00000000000000000000e-01) (12, 5, 5.00000000000000000000e-01) (12, 5, 5.00000000000000000000e-01) (12, 5, 5.00000000000000000000e-01) (12, 5, 5.00000000000000000000e-01) (12, 5, 5.00000000000000000000e-01) (12, 5, 5.00000000000000000000e-01) (12, 5, 5.00000000000000000000e-01) (12, 5, 5.00000000000000000000e-01) (12, 5, 5.00000000000000000000e-01) (12, 5, 5.00000000000000000000e-01) (12, 5, 5.00000000000000000000e-01) (12, 5, 5.00000000000000000000e-01) (12, 5, 5.00000000000000000000e-01) (12, 5, 5.00000000000000000000e-01) (12, 5, 5.00000000000000000000e-01) (12, 5, 5.00000000000000000000e-01) (12, 5, 5.00000000000000000000e-01) (12, 5, 5.00000000000000000000e-01) (12, 5, 5.00000000000000000000e-01) (12, 5, 5.00000000000000000000e-01) (12, 5, 5.00000000000000000000e-01) (12, 5, 5.00000000000000000000e-01) (12, 5, 5.00000000000000000000e-01) (12, 5, 5.00000000000000000000e-01) (12, 5, 5.00000000000000000000e-01) (12, 5, 5.00000000000000000000e-01) (12, 5, 5.00000000000000000000e-01) (12, 5, 5.00000000000000000000e-01) (12, 5, 5.00000000000000000000e-01) (12, 5, 5.00000000000000000000e-01) (12, 5, 5.00000000000000000000e-01) (12, 5, 5.00000000000000000000e-01) (12, 5, 5.00000000000000000000e-01) (12, 5, 5.00000000000000000000e-01) (12, 5, 5.00000000000000000000e-01) (12, 5, 5.00000000000000000000e-01) (12, 5, 5.00000000000000000000e-01) (12, 5, 5.00000000000000000000e-01) (12, 5, 5.00000000000000000000e-01) (12, 5, 5.00000000000000000000e-01) (12, 5, 5.00000000000000000000e-01) (12, 5, 5.00000000000000000000e-01) (12, 5, 5.00000000000000000000e-01) (12, 5, 5.00000000000000000000e-01) (12, 5, 5.00000000000000000000e-01) (12, 5, 5.00000000000000000000e-01) (12, 5, 5.00000000000000000000e-01) (12, 5, 5.00000000000000000000e-01) (12, 5, 5.00000000000000000000e-01) (0, 5, 0.00000000000000000000e+00) 
connections (connected_to_neuron, weight)=(0, 1.71902332305908203125e+01) (1, -8.98985683917999267578e-01) (2, -7.15212154388427734375e+00) (3, -1.52700281143188476562e+00) (4, -7.88273239135742187500e+00) (5, 5.62651634216308593750e+00) (6, -4.75219678878784179688e+00) (7, -3.14236044883728027344e+00) (8, 6.49356126785278320312e+00) (9, -1.30563008785247802734e+00) (10, 4.66098308563232421875e+00) (11, -3.15189123153686523438e+00) (12, -3.08200860023498535156e+00) (13, 3.67072224617004394531e-01) (14, 6.22855710983276367188e+00) (15, -9.65889036655426025391e-01) (16, 1.41504335403442382812e+00) (17, -9.29554879665374755859e-01) (18, -6.20124578475952148438e+00) (19, -3.02070116996765136719e+00) (20, 8.58459949493408203125e+00) (21, 3.02322340011596679688e+00) (22, -4.28021335601806640625e+00) (23, -1.61261379718780517578e+00) (24, -6.01893484592437744141e-01) (25, 3.51935911178588867188e+00) (26, -8.22592926025390625000e+00) (27, 5.32369315624237060547e-01) (28, 2.97825169563293457031e+00) (29, -2.73094415664672851562e+00) (30, 4.03299808502197265625e+00) (31, 4.16072785854339599609e-01) (32, 5.80619287490844726562e+00) (33, 7.67677879333496093750e+00) (34, 1.53113853931427001953e+00) (35, -3.05526733398437500000e+00) (36, 1.29183769226074218750e+00) (37, 3.60535740852355957031e+00) (38, -1.06733150482177734375e+01) (39, -3.07610464096069335938e+00) (40, -7.16887044906616210938e+00) (41, -2.89849162101745605469e+00) (42, 3.32228124141693115234e-01) (43, 5.18026471138000488281e-01) (44, 7.09952545166015625000e+00) (45, -2.80777597427368164062e+00) (46, -2.32626080513000488281e+00) (47, 5.75801706314086914062e+00) (48, 4.64354467391967773438e+00) (49, 3.37876844406127929688e+00) (50, 1.33737647533416748047e+00) (51, -3.79731267690658569336e-01) (52, -3.58444952964782714844e+00) (53, -3.77861285209655761719e+00) (54, -5.37134265899658203125e+00) (55, -3.53385424613952636719e+00) (56, 2.02906966209411621094e+00) (57, 8.53634476661682128906e-01) (58, -4.19824171066284179688e+00) (59, 8.99337679147720336914e-02) (60, 5.79667186737060546875e+00) (61, -4.01638776063919067383e-01) (62, 4.28356266021728515625e+00) (63, 4.40268135070800781250e+00) (64, -3.28880667686462402344e+00) (65, -3.21838307380676269531e+00) (66, 6.46081045269966125488e-02) (67, -8.24955523014068603516e-01) (68, 5.87357854843139648438e+00) (69, 3.34320640563964843750e+00) (70, -5.96126270294189453125e+00) (71, -3.50278854370117187500e+00) (72, -2.51271915435791015625e+00) (73, 6.24261569976806640625e+00) (74, 3.17298340797424316406e+00) (75, 2.05345487594604492188e+00) (76, -5.73622751235961914062e+00) (77, -4.41404533386230468750e+00) (78, -2.70155692100524902344e+00) (79, 3.85069322586059570312e+00) (80, -4.06417274475097656250e+00) (81, -1.47008526325225830078e+00) (82, 1.14885199069976806641e+00) (83, 1.22129440307617187500e+00) (84, -3.47920942306518554688e+00) (85, -1.70643174648284912109e+00) (86, -3.93542718887329101562e+00) (87, 7.13168323040008544922e-01) (88, 1.30595550537109375000e+01) (89, 2.67389345169067382812e+00) (90, -2.56116461753845214844e+00) (91, -4.53669834136962890625e+00) (92, -5.48568630218505859375e+00) (93, 5.50776338577270507812e+00) (94, -8.41470527648925781250e+00) (95, 6.02485418319702148438e-01) (96, 6.68389606475830078125e+00) (97, -2.14826011657714843750e+00) (98, 3.52949142456054687500e+00) (99, 3.25278735160827636719e+00) (100, 3.04350566864013671875e+00) (101, -2.62140083312988281250e+00) (102, -3.39483469724655151367e-01) (103, 4.29110288619995117188e+00) (104, 2.34539240598678588867e-01) (105, -1.11720895767211914062e+00) (106, 6.31459999084472656250e+00) (107, 6.31153011322021484375e+00) (108, 1.92830371856689453125e+00) (109, -2.45878744125366210938e+00) (110, 1.67862129211425781250e+00) (111, 3.02768647670745849609e-01) (112, -2.02232241630554199219e+00) (113, -1.40045988559722900391e+00) (114, -3.22538423538208007812e+00) (115, -6.11915946006774902344e-01) (116, -6.19221019744873046875e+00) (117, -3.30691099166870117188e+00) (118, -2.09703397750854492188e+00) (119, -2.20250272750854492188e+00) (120, 3.56388956308364868164e-01) (121, -8.93810987472534179688e-02) (122, 6.49715709686279296875e+00) (123, 4.41955447196960449219e-01) (124, -4.98321485519409179688e+00) (125, -2.60369151830673217773e-01) (126, -4.21314620971679687500e+00) (127, 6.10078692436218261719e-01) (128, 1.54754388332366943359e+00) (129, 1.30600655078887939453e+00) (130, -5.41640233993530273438e+00) (131, -3.98704743385314941406e+00) (132, 1.10062417984008789062e+01) (133, -3.41950821876525878906e+00) (134, 2.31983375549316406250e+00) (135, 1.16600954532623291016e+00) (136, 2.35236263275146484375e+00) (137, 5.22268962860107421875e+00) (138, 6.39176273345947265625e+00) (139, -2.10130023956298828125e+00) (140, -3.58671808242797851562e+00) (141, 1.40100407600402832031e+00) (142, 4.29051145911216735840e-02) (143, 1.44319105148315429688e+00) (144, 8.87229728698730468750e+00) (145, -2.30780172348022460938e+00) (146, -9.58847641944885253906e-01) (147, 3.29635667800903320312e+00) (148, 5.46113634109497070312e+00) (149, -1.71520745754241943359e+00) (150, -1.27451270818710327148e-01) (151, -3.17374157905578613281e+00) (152, -5.46434497833251953125e+00) (153, -3.40251117944717407227e-01) (154, 2.81223773956298828125e+00) (155, -4.64926958084106445312e+00) (156, -8.20010375976562500000e+00) (157, 5.04182577133178710938e-01) (158, 2.33442163467407226562e+00) (159, -4.54487591981887817383e-01) (160, -2.93655300140380859375e+00) (161, 7.90028050541877746582e-02) (162, -7.10411369800567626953e-01) (163, 1.04238636791706085205e-01) (164, 6.47856283187866210938e+00) (165, -1.89116239547729492188e+00) (166, 3.27599525451660156250e+00) (167, -2.48342132568359375000e+00) (168, -7.50579118728637695312e+00) (169, -1.12588787078857421875e+00) (170, 3.49893951416015625000e+00) (171, 7.02044606208801269531e-01) (172, 5.01130819320678710938e+00) (173, 7.05194997787475585938e+00) (174, 5.13607788085937500000e+00) (175, 3.78242373466491699219e+00) (176, -6.92589402198791503906e-01) (177, -1.56703376770019531250e+00) (178, -4.13023138046264648438e+00) (179, 4.47817850112915039062e+00) (180, -1.06914501190185546875e+01) (181, 2.43108034133911132812e+00) (182, 6.85747337341308593750e+00) (183, 2.63249659538269042969e+00) (184, -8.36149597167968750000e+00) (185, 2.23048537969589233398e-01) (186, 1.63300704956054687500e+00) (187, -1.80770325660705566406e+00) (188, -4.42459821701049804688e+00) (189, 2.43508028984069824219e+00) (190, -1.90232253074645996094e+00) (191, 4.46522235870361328125e-01) (192, 5.49267101287841796875e+00) (193, 3.25915718078613281250e+00) (194, 3.13333201408386230469e+00) (195, 1.54000520706176757812e+00) (196, 1.50000000000000000000e+03) (197, 1.50000000000000000000e+03) (198, 1.50000000000000000000e+03) (199, 1.50000000000000000000e+03) (200, -1.92892062664031982422e+00) (201, 1.06042776107788085938e+01) (202, 9.46197795867919921875e+00) (0, 1.18879699707031250000e+00) (1, 2.33109474182128906250e+00) (2, -3.28872776031494140625e+00) (3, -8.34144413471221923828e-01) (4, 1.06260120868682861328e+00) (5, 1.64003515243530273438e+00) (6, -3.46794724464416503906e+00) (7, -2.68958187103271484375e+00) (8, 2.44368290901184082031e+00) (9, 4.60313844680786132812e+00) (10, 3.49720239639282226562e+00) (11, -6.55830800533294677734e-01) (12, 5.86495459079742431641e-01) (13, -3.21898746490478515625e+00) (14, 4.81688939034938812256e-02) (15, 1.15243947505950927734e+00) (16, 2.41577720642089843750e+00) (17, -2.75454688072204589844e+00) (18, 1.48891949653625488281e+00) (19, 2.48958992958068847656e+00) (20, 2.51201605796813964844e+00) (21, 2.98628687858581542969e+00) (22, -8.78806948661804199219e-01) (23, -2.39550948143005371094e+00) (24, 5.36861705780029296875e+00) (25, -2.61661982536315917969e+00) (26, -1.20401620864868164062e+01) (27, 2.10767340660095214844e+00) (28, -8.70030939579010009766e-01) (29, 9.12040114402770996094e-01) (30, 9.43171977996826171875e+00) (31, -1.16395103931427001953e+00) (32, -7.95633554458618164062e+00) (33, -2.35663461685180664062e+00) (34, -9.42612469196319580078e-01) (35, 8.39334487915039062500e+00) (36, 3.60329270362854003906e+00) (37, 1.10064856708049774170e-01) (38, 6.59684324264526367188e+00) (39, -3.43241071701049804688e+00) (40, -8.83728921413421630859e-01) (41, 3.58220100402832031250e-01) (42, -1.21672618389129638672e+00) (43, 6.88240408897399902344e-01) (44, -3.48726749420166015625e+00) (45, 2.26996493339538574219e+00) (46, 7.63835287094116210938e+00) (47, -3.88284087181091308594e+00) (48, -1.35113823413848876953e+00) (49, 1.61800622940063476562e+00) (50, -5.45340490341186523438e+00) (51, 4.68134307861328125000e+00) (52, 8.04431259632110595703e-01) (53, -2.59660005569458007812e+00) (54, 3.31759047508239746094e+00) (55, 4.27477979660034179688e+00) (56, -7.15851545333862304688e+00) (57, -3.60074210166931152344e+00) (58, 4.61825579404830932617e-01) (59, 2.19958114624023437500e+00) (60, 8.29805946350097656250e+00) (61, -7.10971727967262268066e-02) (62, -1.10493202209472656250e+01) (63, -3.41551399230957031250e+00) (64, 3.58045339584350585938e+00) (65, -2.47426509857177734375e+00) (66, -7.60569989681243896484e-01) (67, -1.77447104454040527344e+00) (68, 1.08965759277343750000e+01) (69, -2.82396411895751953125e+00) (70, -1.40554058551788330078e+00) (71, 1.65746033191680908203e+00) (72, 1.58522427082061767578e+00) (73, -5.50564944744110107422e-01) (74, -9.73113727569580078125e+00) (75, -2.85495448112487792969e+00) (76, 2.78845405578613281250e+00) (77, 5.34120416641235351562e+00) (78, 1.19403052330017089844e+00) (79, -2.79059648513793945312e+00) (80, -8.96322536468505859375e+00) (81, -7.74349629878997802734e-01) (82, 8.44627952575683593750e+00) (83, -4.41147136688232421875e+00) (84, -4.73078107833862304688e+00) (85, -1.31508290767669677734e+00) (86, 4.28103399276733398438e+00) (87, 2.54264307022094726562e+00) (88, 3.91832876205444335938e+00) (89, -3.45415091514587402344e+00) (90, 4.60339689254760742188e+00) (91, 1.90008783340454101562e+00) (92, -2.43276524543762207031e+00) (93, -2.77935957908630371094e+00) (94, 7.43434715270996093750e+00) (95, 1.81463837623596191406e+00) (96, -9.07605230808258056641e-01) (97, -1.67050218582153320312e+00) (98, -5.19707107543945312500e+00) (99, 2.04930901527404785156e+00) (100, -5.35876333713531494141e-01) (101, -3.11215257644653320312e+00) (102, -7.15372085571289062500e-01) (103, -1.24589812755584716797e+00) (104, -8.05290639400482177734e-01) (105, 5.95101547241210937500e+00) (106, -2.43402528762817382812e+00) (107, 5.33870220184326171875e-01) (108, -3.91160583496093750000e+00) (109, 3.17680269479751586914e-01) (110, -3.70995104312896728516e-01) (111, -5.99923253059387207031e-01) (112, 9.20284271240234375000e-01) (113, -1.02570390701293945312e+00) (114, -9.75601553916931152344e-01) (115, -2.34833645820617675781e+00) (116, -2.87531971931457519531e+00) (117, -2.61509919166564941406e+00) (118, -7.56587648391723632812e+00) (119, 3.85663676261901855469e+00) (120, -4.54840600490570068359e-01) (121, -3.27017307281494140625e+00) (122, -2.48223140835762023926e-01) (123, 5.14149618148803710938e+00) (124, -5.20340156555175781250e+00) (125, -2.41326522827148437500e+00) (126, -2.87469577789306640625e+00) (127, -5.37029457092285156250e+00) (128, 5.10244178771972656250e+00) (129, 1.33492434024810791016e+00) (130, -5.10336995124816894531e-01) (131, -2.39299893379211425781e+00) (132, -2.48726272583007812500e+00) (133, 2.26861810684204101562e+00) (134, 3.35997891426086425781e+00) (135, 4.42221546173095703125e+00) (136, -8.43806862831115722656e-01) (137, -1.48606896400451660156e+00) (138, -1.74977135658264160156e+00) (139, -3.22168874740600585938e+00) (140, 1.34126043319702148438e+00) (141, -1.32961761951446533203e+00) (142, 1.03123927116394042969e+00) (143, -3.27593398094177246094e+00) (144, -6.28591918945312500000e+00) (145, -2.97582060098648071289e-01) (146, 3.82596552371978759766e-02) (147, 4.92272758483886718750e+00) (148, 4.46622848510742187500e+00) (149, -2.88932514190673828125e+00) (150, 7.46878576278686523438e+00) (151, 2.45700168609619140625e+00) (152, -5.87261533737182617188e+00) (153, 1.37625837326049804688e+00) (154, -5.17135572433471679688e+00) (155, 2.70380139350891113281e+00) (156, -9.52498316764831542969e-01) (157, -1.20713531970977783203e+00) (158, -7.01333951950073242188e+00) (159, 2.49342107772827148438e+00) (160, -2.34789156913757324219e+00) (161, -1.70023167133331298828e+00) (162, -1.78469669818878173828e+00) (163, -2.57606124877929687500e+00) (164, -6.52087593078613281250e+00) (165, 3.33902001380920410156e+00) (166, 1.39471530914306640625e+01) (167, 6.70927524566650390625e-01) (168, 1.20916433334350585938e+01) (169, -1.30423307418823242188e+00) (170, -1.00573596954345703125e+01) (171, -2.92236185073852539062e+00) (172, 7.57651281356811523438e+00) (173, -3.52798998355865478516e-01) (174, 5.30715179443359375000e+00) (175, -1.77574980258941650391e+00) (176, 4.59592342376708984375e+00) (177, 3.06541514396667480469e+00) (178, -7.18345069885253906250e+00) (179, 2.68774747848510742188e+00) (180, 7.20902824401855468750e+00) (181, 3.21382737159729003906e+00) (182, -6.06079864501953125000e+00) (183, 6.45846009254455566406e-01) (184, 4.21910572052001953125e+00) (185, -3.06343293190002441406e+00) (186, -2.72445654869079589844e+00) (187, 7.59077930450439453125e+00) (188, 1.41544371843338012695e-01) (189, 1.94959545135498046875e+00) (190, 1.18159570693969726562e+01) (191, -2.35206151008605957031e+00) (192, 6.02566421031951904297e-01) (193, -2.54765725135803222656e+00) (194, 4.97180891036987304688e+00) (195, 8.93390750885009765625e+00) (196, 1.50000000000000000000e+03) (197, 1.50000000000000000000e+03) (198, 1.50000000000000000000e+03) (199, 1.50000000000000000000e+03) (200, -1.74262952804565429688e+00) (201, -4.16205215454101562500e+00) (202, -2.04800337553024291992e-01) (0, 4.93076229095458984375e+00) (1, -5.16689395904541015625e+00) (2, 2.68802452087402343750e+00) (3, 4.39354228973388671875e+00) (4, -5.89959001541137695312e+00) (5, 2.82608413696289062500e+00) (6, 1.19305765628814697266e+00) (7, 1.86834764480590820312e+00) (8, 7.07337617874145507812e-01) (9, -1.96706843376159667969e+00) (10, -5.20984506607055664062e+00) (11, -2.27946019172668457031e+00) (12, 8.65599536895751953125e+00) (13, -3.00722265243530273438e+00) (14, -4.26569223403930664062e+00) (15, 3.28029513359069824219e+00) (16, -1.44603955745697021484e+00) (17, -3.94556546211242675781e+00) (18, 3.89493989944458007812e+00) (19, 2.33630108833312988281e+00) (20, 4.38247251510620117188e+00) (21, -3.10239696502685546875e+00) (22, -3.24405908584594726562e+00) (23, -9.91052448749542236328e-01) (24, -9.69630050659179687500e+00) (25, 3.12137532234191894531e+00) (26, 4.41403007507324218750e+00) (27, -2.64708012342453002930e-01) (28, -5.29039716720581054688e+00) (29, -2.93807291984558105469e+00) (30, -1.93515815734863281250e+01) (31, 6.63108587265014648438e+00) (32, -4.05139303207397460938e+00) (33, 1.70828866958618164062e+00) (34, 1.50958228111267089844e+00) (35, -1.77565145492553710938e+00) (36, 6.93842113018035888672e-01) (37, 7.29819953441619873047e-01) (38, 2.43639779090881347656e+00) (39, -2.95747327804565429688e+00) (40, -2.97150230407714843750e+00) (41, -3.04946684837341308594e+00) (42, 3.62721109390258789062e+00) (43, -3.00253915786743164062e+00) (44, -2.43769264221191406250e+00) (45, 3.38478863239288330078e-01) (46, 5.78204679489135742188e+00) (47, -1.79660105705261230469e+00) (48, 1.54766201972961425781e+00) (49, -8.47050428390502929688e-01) (50, -6.64502000808715820312e+00) (51, -8.40481340885162353516e-01) (52, 4.59581661224365234375e+00) (53, 2.38982605934143066406e+00) (54, 1.10871610641479492188e+01) (55, -3.01904702186584472656e+00) (56, -1.00169248580932617188e+01) (57, 2.05015540122985839844e+00) (58, 1.21316614151000976562e+01) (59, 1.89932918548583984375e+00) (60, -1.65810016915202140808e-03) (61, -3.29576945304870605469e+00) (62, 3.19223880767822265625e+00) (63, -2.85209321975708007812e+00) (64, -3.44118285179138183594e+00) (65, 4.61772441864013671875e+00) (66, -5.53192901611328125000e+00) (67, -1.84509932994842529297e+00) (68, 2.33644914627075195312e+00) (69, -3.00097990036010742188e+00) (70, -5.11901140213012695312e+00) (71, 5.29953622817993164062e+00) (72, -1.96746616363525390625e+01) (73, 8.85608005523681640625e+00) (74, 1.40242128372192382812e+01) (75, -2.96567463874816894531e+00) (76, -3.04088878631591796875e+00) (77, -1.43284603953361511230e-01) (78, 8.24609184265136718750e+00) (79, -4.12410527467727661133e-01) (80, 9.08948421478271484375e+00) (81, 1.72618556022644042969e+00) (82, -4.45381975173950195312e+00) (83, 1.63946700096130371094e+00) (84, 3.14752221107482910156e-01) (85, 7.99880981445312500000e+00) (86, 9.13817119598388671875e+00) (87, -2.84565687179565429688e+00) (88, 1.02109396457672119141e+00) (89, -1.91649055480957031250e+00) (90, -3.19082474708557128906e+00) (91, 1.63074350357055664062e+00) (92, 1.99574458599090576172e+00) (93, -3.10870027542114257812e+00) (94, -3.06517505645751953125e+00) (95, -1.90612900257110595703e+00) (96, -3.16050481796264648438e+00) (97, 4.69235992431640625000e+00) (98, 2.48393011093139648438e+00) (99, -9.37620937824249267578e-01) (100, 8.94674205780029296875e+00) (101, -4.95021730661392211914e-01) (102, -2.79805850982666015625e+00) (103, -3.13050889968872070312e+00) (104, -7.23506271839141845703e-01) (105, -1.35916948318481445312e+00) (106, -4.44386339187622070312e+00) (107, -7.35817134380340576172e-01) (108, 5.35214662551879882812e+00) (109, 1.73536264896392822266e+00) (110, -3.02533888816833496094e+00) (111, 7.18603670597076416016e-01) (112, -1.11143541336059570312e+01) (113, 2.79518032073974609375e+00) (114, 4.53505373001098632812e+00) (115, 1.40704572200775146484e+00) (116, 5.46099567413330078125e+00) (117, 2.86387610435485839844e+00) (118, 7.76420831680297851562e+00) (119, -1.50757610797882080078e+00) (120, -3.77435255050659179688e+00) (121, 4.18839406967163085938e+00) (122, -4.38032245635986328125e+00) (123, -6.78463757038116455078e-01) (124, -3.59849905967712402344e+00) (125, -3.29213589429855346680e-01) (126, 1.96201071143150329590e-01) (127, -2.94545173645019531250e+00) (128, -3.24100804328918457031e+00) (129, -1.59775555133819580078e+00) (130, -5.61296033859252929688e+00) (131, -3.93039655685424804688e+00) (132, -1.73826670646667480469e+00) (133, 1.29424047470092773438e+00) (134, 4.36387968063354492188e+00) (135, 2.35429024696350097656e+00) (136, -4.30867624282836914062e+00) (137, -3.35622143745422363281e+00) (138, 4.85793972015380859375e+00) (139, -3.05355310440063476562e+00) (140, 3.50357675552368164062e+00) (141, 1.72217917442321777344e+00) (142, -3.03276085853576660156e+00) (143, -2.98760199546813964844e+00) (144, 3.38362550735473632812e+00) (145, -2.10568428039550781250e+00) (146, 1.67200410366058349609e+00) (147, 2.16216659545898437500e+00) (148, 3.18929821252822875977e-01) (149, -5.61146020889282226562e-01) (150, 2.56860285997390747070e-01) (151, -2.08604431152343750000e+00) (152, -6.40201139450073242188e+00) (153, -2.35099244117736816406e+00) (154, -3.86528468132019042969e+00) (155, -1.44570195674896240234e+00) (156, -2.09358763694763183594e+00) (157, 1.61882185935974121094e+00) (158, -5.59597492218017578125e+00) (159, 6.22526121139526367188e+00) (160, -2.97290706634521484375e+00) (161, -1.21480405330657958984e+00) (162, 1.05715799331665039062e+00) (163, -3.12518310546875000000e+00) (164, 3.63182234764099121094e+00) (165, -2.97879362106323242188e+00) (166, -1.29012231826782226562e+01) (167, 1.83383738994598388672e+00) (168, -1.48407244682312011719e+00) (169, 6.35004758834838867188e+00) (170, -1.52010238170623779297e+00) (171, 3.09992408752441406250e+00) (172, -2.98401534557342529297e-01) (173, 2.00321888923645019531e+00) (174, 2.18500471115112304688e+00) (175, -2.17737793922424316406e+00) (176, -4.58146953582763671875e+00) (177, -2.41697382926940917969e+00) (178, -1.92732214927673339844e+00) (179, 2.47670006752014160156e+00) (180, 6.61907052993774414062e+00) (181, -1.67965614795684814453e+00) (182, -1.09763240814208984375e+01) (183, 9.50735449790954589844e-01) (184, -4.38111257553100585938e+00) (185, -2.86844611167907714844e+00) (186, 2.64122939109802246094e+00) (187, -3.23175501823425292969e+00) (188, 4.15451645851135253906e-01) (189, 3.11821079254150390625e+00) (190, -4.97800970077514648438e+00) (191, 2.26961827278137207031e+00) (192, 8.22277843952178955078e-01) (193, 1.93523573875427246094e+00) (194, -8.51075553894042968750e+00) (195, 3.01311492919921875000e+00) (196, 1.50000000000000000000e+03) (197, 1.50000000000000000000e+03) (198, 1.50000000000000000000e+03) (199, 1.50000000000000000000e+03) (200, 4.63410437107086181641e-01) (201, -2.59910440444946289062e+00) (202, -1.23028445243835449219e+00) (0, 2.35811500549316406250e+01) (1, -4.45214319229125976562e+00) (2, -1.98644104003906250000e+01) (3, -4.32070112228393554688e+00) (4, 8.60021495819091796875e+00) (5, 9.36417675018310546875e+00) (6, 1.29041128158569335938e+01) (7, -2.39920687675476074219e+00) (8, -5.80989980697631835938e+00) (9, -2.44508504867553710938e+00) (10, -3.27558159828186035156e-01) (11, -3.21884989738464355469e+00) (12, 7.07859694957733154297e-02) (13, -6.00252270698547363281e-01) (14, 1.12849769592285156250e+01) (15, -3.29577565193176269531e+00) (16, 6.93741321563720703125e+00) (17, -2.66796994209289550781e+00) (18, -6.46331191062927246094e-01) (19, -3.07921886444091796875e+00) (20, -8.05753707885742187500e+00) (21, -3.17006993293762207031e+00) (22, -5.53582382202148437500e+00) (23, 1.79348587989807128906e+00) (24, 4.96650600433349609375e+00) (25, -4.48010253906250000000e+00) (26, -1.92243289947509765625e+01) (27, -4.69898653030395507812e+00) (28, 6.35900115966796875000e+00) (29, 6.37197065353393554688e+00) (30, -1.57775239944458007812e+01) (31, -8.84562909603118896484e-01) (32, -1.52163944244384765625e+01) (33, -2.44162130355834960938e+00) (34, 4.53104496002197265625e+00) (35, -2.45447230339050292969e+00) (36, 2.23399353027343750000e+01) (37, 9.96395778656005859375e+00) (38, 3.76071763038635253906e+00) (39, -2.62857151031494140625e+00) (40, -1.26326293945312500000e+01) (41, 1.36937355995178222656e+00) (42, -4.10989379882812500000e+00) (43, 8.34817123413085937500e+00) (44, -1.30606479644775390625e+01) (45, -3.33977961540222167969e+00) (46, 1.35346717834472656250e+01) (47, 3.59306406974792480469e+00) (48, 8.80367755889892578125e-01) (49, -1.97252881526947021484e+00) (50, -1.59719648361206054688e+01) (51, -4.17319631576538085938e+00) (52, 4.43019199371337890625e+00) (53, 9.35011768341064453125e+00) (54, -7.20360374450683593750e+00) (55, -5.71229553222656250000e+00) (56, -4.05961227416992187500e+00) (57, -6.20554089546203613281e-02) (58, 1.52222681045532226562e+01) (59, -8.69639441370964050293e-02) (60, -1.84968681335449218750e+01) (61, -3.75110888481140136719e+00) (62, 3.51425886154174804688e+00) (63, 8.69938492774963378906e-01) (64, 2.09236621856689453125e-01) (65, -1.25668302178382873535e-01) (66, -2.26217180490493774414e-01) (67, 2.70562410354614257812e+00) (68, -2.15387538075447082520e-01) (69, -1.22254800796508789062e+00) (70, 3.95281362533569335938e+00) (71, 1.29563105106353759766e+00) (72, 1.03830957412719726562e+00) (73, 2.61721277236938476562e+00) (74, -1.69354021549224853516e+00) (75, 4.08082962036132812500e+00) (76, 1.54025011062622070312e+01) (77, 2.73782610893249511719e-01) (78, 4.20676708221435546875e-01) (79, 2.39156913757324218750e+00) (80, 6.16697549819946289062e-01) (81, -6.81423091888427734375e+00) (82, 8.50284385681152343750e+00) (83, 9.63443470001220703125e+00) (84, -1.44430980682373046875e+01) (85, -5.20743012428283691406e-01) (86, -7.44100141525268554688e+00) (87, 3.05781459808349609375e+00) (88, -2.37153697013854980469e+00) (89, 8.84646034240722656250e+00) (90, -3.88531637191772460938e+00) (91, -7.66994428634643554688e+00) (92, 3.54549050331115722656e+00) (93, -3.04628038406372070312e+00) (94, 2.78764605522155761719e-01) (95, -2.31571340560913085938e+00) (96, 3.77984023094177246094e+00) (97, 2.32700967788696289062e+00) (98, 1.48699588775634765625e+01) (99, -2.56251287460327148438e+00) (100, -1.62600255012512207031e+00) (101, 1.16972398757934570312e+00) (102, -2.61820602416992187500e+00) (103, -3.08728694915771484375e+00) (104, -1.54863052368164062500e+01) (105, -4.95346212387084960938e+00) (106, 1.11024084091186523438e+01) (107, 8.13952159881591796875e+00) (108, -4.66964006423950195312e+00) (109, -2.39699673652648925781e+00) (110, 8.03290462493896484375e+00) (111, 6.43000030517578125000e+00) (112, 6.43162965774536132812e+00) (113, -3.45292663574218750000e+00) (114, -1.80736103057861328125e+01) (115, 1.08048546314239501953e+00) (116, 1.58029270172119140625e+01) (117, -2.86266160011291503906e+00) (118, -8.43384361267089843750e+00) (119, -7.31279850006103515625e-01) (120, -2.04548215866088867188e+00) (121, 1.50003194808959960938e+00) (122, 1.23262748718261718750e+01) (123, 1.69570994377136230469e+00) (124, 5.51003837585449218750e+00) (125, -7.05788493156433105469e-01) (126, 7.26891899108886718750e+00) (127, -2.03738713264465332031e+00) (128, 1.00282249450683593750e+01) (129, -2.26496860384941101074e-01) (130, 1.54557304382324218750e+01) (131, 8.12651664018630981445e-02) (132, 5.38586854934692382812e-01) (133, 6.27253866195678710938e+00) (134, -1.42246417999267578125e+01) (135, -5.56257903575897216797e-01) (136, -8.55007648468017578125e+00) (137, -4.53423547744750976562e+00) (138, 1.32555112838745117188e+01) (139, 5.76700782775878906250e+00) (140, -6.70063018798828125000e+00) (141, 1.66034960746765136719e+00) (142, 3.31641960144042968750e+00) (143, -1.48354756832122802734e+00) (144, -2.13440361022949218750e+01) (145, -4.51098799705505371094e-01) (146, 6.03216743469238281250e+00) (147, 1.80082726478576660156e+00) (148, 2.31855615973472595215e-01) (149, 6.67193412780761718750e+00) (150, 7.87078797817230224609e-01) (151, -3.31158947944641113281e+00) (152, -2.40438795089721679688e+00) (153, 2.31783390045166015625e-01) (154, -1.61522903442382812500e+01) (155, -4.34827774763107299805e-01) (156, -2.81343269348144531250e+00) (157, 1.98338603973388671875e+00) (158, 1.08632011413574218750e+01) (159, 2.27430129051208496094e+00) (160, 1.23441171646118164062e+01) (161, -4.36726951599121093750e+00) (162, -2.51254844665527343750e+00) (163, 3.74029541015625000000e+00) (164, -1.34018259048461914062e+01) (165, 5.14743661880493164062e+00) (166, -9.31621837615966796875e+00) (167, -2.11059585213661193848e-01) (168, 9.36056900024414062500e+00) (169, -4.21538591384887695312e+00) (170, 1.23485050201416015625e+01) (171, -4.60436201095581054688e+00) (172, 5.96592950820922851562e+00) (173, -3.36947011947631835938e+00) (174, 1.04029569625854492188e+01) (175, 2.83080363273620605469e+00) (176, -9.69228172302246093750e+00) (177, 5.44760847091674804688e+00) (178, -3.25343322753906250000e+00) (179, -5.46980762481689453125e+00) (180, 3.93734574317932128906e+00) (181, 8.94085407257080078125e-01) (182, -7.99652433395385742188e+00) (183, 7.82545137405395507812e+00) (184, 1.05682401657104492188e+01) (185, 4.18477106094360351562e+00) (186, -5.26962089538574218750e+00) (187, -2.31134605407714843750e+00) (188, -2.89800310134887695312e+00) (189, -5.90690135955810546875e-01) (190, -1.21733884811401367188e+01) (191, -5.20144128799438476562e+00) (192, 3.85169677734375000000e+01) (193, 2.40930914878845214844e+00) (194, 1.26116800308227539062e+01) (195, 1.23989105224609375000e+00) (196, 1.50000000000000000000e+03) (197, 1.50000000000000000000e+03) (198, 1.50000000000000000000e+03) (199, 1.50000000000000000000e+03) (200, -2.69913887977600097656e+00) (201, 2.10860843658447265625e+01) (202, 1.18240058422088623047e+00) (0, 3.81426286697387695312e+00) (1, -7.69279658794403076172e-01) (2, 3.88814640045166015625e+00) (3, -1.57393205165863037109e+00) (4, 2.54834592342376708984e-01) (5, -2.30919051170349121094e+00) (6, -2.60655355453491210938e+00) (7, -3.78948390483856201172e-01) (8, 4.24678611755371093750e+00) (9, -3.34524846076965332031e+00) (10, 7.87778437137603759766e-01) (11, 3.07384872436523437500e+00) (12, 5.23621416091918945312e+00) (13, -3.12911105155944824219e+00) (14, 4.99580907821655273438e+00) (15, -3.27311944961547851562e+00) (16, 3.71181428432464599609e-01) (17, 2.61142492294311523438e+00) (18, 6.38360214233398437500e+00) (19, -9.72470283508300781250e-01) (20, 4.45509052276611328125e+00) (21, -1.39941644668579101562e+00) (22, -5.21534156799316406250e+00) (23, 2.63235735893249511719e+00) (24, -4.98083591461181640625e+00) (25, 7.30977582931518554688e+00) (26, -7.59071111679077148438e+00) (27, 9.67436492443084716797e-01) (28, 1.00033092498779296875e+01) (29, -3.02765011787414550781e+00) (30, -2.64600658416748046875e+00) (31, 2.55111503601074218750e+00) (32, -2.41000318527221679688e+00) (33, 4.80935955047607421875e+00) (34, -1.30954694747924804688e+00) (35, 1.36743891239166259766e+00) (36, 2.61510586738586425781e+00) (37, -2.82774925231933593750e-01) (38, 3.20742511749267578125e+00) (39, -2.75342392921447753906e+00) (40, -2.27797770500183105469e+00) (41, -3.42158031463623046875e+00) (42, -3.96958494186401367188e+00) (43, -2.38534998893737792969e+00) (44, 2.02270865440368652344e+00) (45, 9.88683998584747314453e-01) (46, 1.49219584465026855469e+00) (47, -2.60957646369934082031e+00) (48, 1.16697063446044921875e+01) (49, -4.39301252365112304688e+00) (50, -3.28496837615966796875e+00) (51, -6.89162969589233398438e-01) (52, 4.28866052627563476562e+00) (53, -2.10820722579956054688e+00) (54, 3.72991204261779785156e-01) (55, 5.58397912979125976562e+00) (56, -3.56827044486999511719e+00) (57, 1.91688191890716552734e+00) (58, -2.85685944557189941406e+00) (59, 1.28250825405120849609e+00) (60, -2.02935242652893066406e+00) (61, -6.95632755756378173828e-01) (62, -5.06366205215454101562e+00) (63, 6.73174560070037841797e-01) (64, -1.22117006778717041016e+00) (65, -2.51170694828033447266e-01) (66, 7.32945680618286132812e+00) (67, 3.04474115371704101562e+00) (68, 1.25086154937744140625e+01) (69, -5.63645839691162109375e-01) (70, -3.00148773193359375000e+00) (71, -1.67402362823486328125e+00) (72, -1.46275577545166015625e+01) (73, 2.81120634078979492188e+00) (74, -3.73159646987915039062e-01) (75, 1.49011600017547607422e+00) (76, 4.24080133438110351562e+00) (77, -1.06267118453979492188e+00) (78, -3.29131579399108886719e+00) (79, -1.06650209426879882812e+00) (80, -8.85113716125488281250e-01) (81, 9.12371814250946044922e-01) (82, 6.00912237167358398438e+00) (83, 1.54423773288726806641e+00) (84, 3.99885392189025878906e+00) (85, 3.18356299400329589844e+00) (86, -2.64227271080017089844e+00) (87, -1.01128503680229187012e-01) (88, 1.14158401489257812500e+01) (89, -2.36652565002441406250e+00) (90, -3.71120309829711914062e+00) (91, 4.74772882461547851562e+00) (92, -3.71443557739257812500e+00) (93, -3.97373676300048828125e-01) (94, -8.05517673492431640625e+00) (95, -1.91157817840576171875e+00) (96, -1.11952841281890869141e+00) (97, 7.04436004161834716797e-01) (98, -1.42963147163391113281e+00) (99, -4.02005863189697265625e+00) (100, 8.09452724456787109375e+00) (101, 5.59714376926422119141e-01) (102, -5.53448057174682617188e+00) (103, 2.04780101776123046875e+00) (104, -6.45771026611328125000e+00) (105, 2.96827721595764160156e+00) (106, 2.46810317039489746094e+00) (107, 2.08385124802589416504e-01) (108, 8.30769824981689453125e+00) (109, -2.60922694206237792969e+00) (110, -1.27896785736083984375e-01) (111, -1.82554924488067626953e+00) (112, 1.40840947628021240234e+00) (113, -3.63072872161865234375e+00) (114, -4.91781806945800781250e+00) (115, -7.34929084777832031250e-01) (116, 2.26459550857543945312e+00) (117, -2.41001868247985839844e+00) (118, -1.18773880004882812500e+01) (119, -2.79078865051269531250e+00) (120, -4.30042171478271484375e+00) (121, 3.96706414222717285156e+00) (122, 3.96376585960388183594e+00) (123, 4.61179685592651367188e+00) (124, 7.68889570236206054688e+00) (125, -5.48515462875366210938e+00) (126, 8.98215103149414062500e+00) (127, -4.44915294647216796875e+00) (128, -2.51651120185852050781e+00) (129, -1.30847287178039550781e+00) (130, -8.78425312042236328125e+00) (131, -2.14078116416931152344e+00) (132, 1.06489667892456054688e+01) (133, 4.89664125442504882812e+00) (134, -5.10980892181396484375e+00) (135, 3.71627640724182128906e+00) (136, 7.88064098358154296875e+00) (137, 6.56261396408081054688e+00) (138, -4.29472017288208007812e+00) (139, -3.42986822128295898438e+00) (140, 3.26841330528259277344e+00) (141, 1.63371360301971435547e+00) (142, 5.20217037200927734375e+00) (143, -2.08796763420104980469e+00) (144, -2.14492273330688476562e+00) (145, -5.06353330612182617188e+00) (146, 7.63772308826446533203e-01) (147, -2.67983358353376388550e-02) (148, 1.32852208614349365234e+00) (149, -1.10188603401184082031e+00) (150, -6.13147020339965820312e+00) (151, 4.54956960678100585938e+00) (152, 3.28994202613830566406e+00) (153, 2.19934296607971191406e+00) (154, -5.68347740173339843750e+00) (155, -2.96928405761718750000e+00) (156, -8.56729698181152343750e+00) (157, 2.10090947151184082031e+00) (158, -7.50432872772216796875e+00) (159, -5.83794176578521728516e-01) (160, 8.42107355594635009766e-01) (161, -1.38442659378051757812e+00) (162, 4.13045978546142578125e+00) (163, -5.46646773815155029297e-01) (164, -4.72520542144775390625e+00) (165, -4.46715623140335083008e-01) (166, -4.12849950790405273438e+00) (167, -1.04620778560638427734e+00) (168, -2.34204220771789550781e+00) (169, 5.34952461719512939453e-01) (170, 1.13971261978149414062e+01) (171, 3.63646841049194335938e+00) (172, -2.36910295486450195312e+00) (173, -7.55842681974172592163e-03) (174, -6.03195714950561523438e+00) (175, -1.64941239356994628906e+00) (176, 5.22104024887084960938e+00) (177, -3.72245311737060546875e+00) (178, -6.15007162094116210938e+00) (179, 5.86036872863769531250e+00) (180, -6.14187669754028320312e+00) (181, 2.53540444374084472656e+00) (182, 2.16971588134765625000e+00) (183, -3.64654153585433959961e-01) (184, -7.53325748443603515625e+00) (185, 1.21060907840728759766e+00) (186, 6.99931764602661132812e+00) (187, -9.64012384414672851562e-01) (188, -2.53512120246887207031e+00) (189, 1.91634857654571533203e+00) (190, 3.37515854835510253906e+00) (191, 4.71846669912338256836e-01) (192, -2.82215070724487304688e+00) (193, 1.87047553062438964844e+00) (194, 7.50875997543334960938e+00) (195, 1.81677782535552978516e+00) (196, 1.50000000000000000000e+03) (197, 1.50000000000000000000e+03) (198, 1.50000000000000000000e+03) (199, 1.50000000000000000000e+03) (200, -1.19148838520050048828e+00) (201, 2.42403936386108398438e+00) (202, 9.26342678070068359375e+00) (0, 5.92099237442016601562e+00) (1, -3.28538084030151367188e+00) (2, -1.09613645076751708984e+00) (3, -1.76900267601013183594e+00) (4, 1.04328393936157226562e+00) (5, 3.36778998374938964844e+00) (6, -8.10814321041107177734e-01) (7, 3.06812477111816406250e+00) (8, -9.21957969665527343750e+00) (9, -3.01810240745544433594e+00) (10, 7.04405736923217773438e+00) (11, -7.32095688581466674805e-02) (12, 5.41771128773689270020e-02) (13, -2.96883130073547363281e+00) (14, 3.08810925483703613281e+00) (15, 1.33300498127937316895e-01) (16, -3.30896139144897460938e+00) (17, 3.35524296760559082031e+00) (18, 3.24481964111328125000e+00) (19, 2.09598326683044433594e+00) (20, -1.18790954351425170898e-01) (21, 9.49633538722991943359e-01) (22, -1.09055447578430175781e+00) (23, -3.01049256324768066406e+00) (24, -8.73760133981704711914e-02) (25, -8.99021804332733154297e-01) (26, 7.75620937347412109375e+00) (27, 1.32661294937133789062e+00) (28, -4.05898618698120117188e+00) (29, -3.01553678512573242188e+00) (30, 3.71290087699890136719e+00) (31, 1.55783903598785400391e+00) (32, -5.23361921310424804688e-01) (33, -1.68828821182250976562e+00) (34, 4.85233157873153686523e-01) (35, 3.06319880485534667969e+00) (36, -6.51437187194824218750e+00) (37, -3.72014665603637695312e+00) (38, 1.63161218166351318359e+00) (39, 1.16731464862823486328e+00) (40, -1.98243021965026855469e-01) (41, -2.91858196258544921875e+00) (42, 7.95083713531494140625e+00) (43, 5.04373133182525634766e-01) (44, -3.32801628112792968750e+00) (45, 4.17965561151504516602e-01) (46, -1.89270412921905517578e+00) (47, -6.36471867561340332031e-01) (48, -2.08484625816345214844e+00) (49, -3.77620577812194824219e+00) (50, -2.26696348190307617188e+00) (51, -1.80546152591705322266e+00) (52, 3.84993553161621093750e-01) (53, -1.01904904842376708984e+00) (54, -1.39823312759399414062e+01) (55, 8.49513232707977294922e-01) (56, -1.47749269008636474609e+00) (57, 1.77840864658355712891e+00) (58, 8.88799095153808593750e+00) (59, 3.35197639465332031250e+00) (60, -3.30028700828552246094e+00) (61, -4.97179538011550903320e-01) (62, -3.76914286613464355469e+00) (63, 4.86355543136596679688e+00) (64, -6.39339590072631835938e+00) (65, -1.98615705966949462891e+00) (66, 1.13606863021850585938e+01) (67, 1.16088855266571044922e+00) (68, -3.33107876777648925781e+00) (69, -9.48815464973449707031e-01) (70, -8.80106985569000244141e-01) (71, -6.77955746650695800781e-01) (72, -1.06453895568847656250e+00) (73, 1.98422348499298095703e+00) (74, 3.49274301528930664062e+00) (75, 9.90405976772308349609e-01) (76, 4.69290971755981445312e+00) (77, -1.82493793964385986328e+00) (78, 2.73032712936401367188e+00) (79, -1.69569575786590576172e+00) (80, -2.89377546310424804688e+00) (81, 7.43424713611602783203e-01) (82, -3.61187362670898437500e+00) (83, 1.36302554607391357422e+00) (84, -3.06144428253173828125e+00) (85, 2.93416833877563476562e+00) (86, -1.56525003910064697266e+00) (87, -3.79804670810699462891e-01) (88, 6.12577867507934570312e+00) (89, 6.64787054061889648438e+00) (90, -4.70645332336425781250e+00) (91, -6.08291327953338623047e-01) (92, 4.09719258546829223633e-01) (93, 2.04547762870788574219e+00) (94, 2.87397003173828125000e+00) (95, 3.76765012741088867188e+00) (96, 4.36800575256347656250e+00) (97, -6.06267809867858886719e-01) (98, 8.31456756591796875000e+00) (99, 6.05070769786834716797e-01) (100, -2.96011596918106079102e-01) (101, -7.00232148170471191406e-01) (102, -4.29029321670532226562e+00) (103, -3.26865696907043457031e+00) (104, 6.67009890079498291016e-01) (105, 7.27055132389068603516e-01) (106, 1.10751569271087646484e+00) (107, -4.27864491939544677734e-01) (108, -3.15587186813354492188e+00) (109, 1.91230928897857666016e+00) (110, 9.01916885375976562500e+00) (111, -1.46493041515350341797e+00) (112, -5.00660562515258789062e+00) (113, 4.74196767807006835938e+00) (114, 2.27807712554931640625e+00) (115, -6.31085395812988281250e-01) (116, -5.71196556091308593750e+00) (117, 9.79470670223236083984e-01) (118, 8.01001906394958496094e-01) (119, -1.32063090801239013672e+00) (120, -3.37478446960449218750e+00) (121, -3.65509629249572753906e-01) (122, 5.51140642166137695312e+00) (123, -1.84255576133728027344e+00) (124, 1.47650957107543945312e+00) (125, 7.41765424609184265137e-02) (126, -2.95900917053222656250e+00) (127, -5.34018039703369140625e-01) (128, -1.39279282093048095703e+00) (129, 4.00861930847167968750e+00) (130, 2.10752081871032714844e+00) (131, -2.35705018043518066406e+00) (132, 5.85227537155151367188e+00) (133, -3.44234585762023925781e+00) (134, -5.17575025558471679688e+00) (135, 1.51326596736907958984e+00) (136, 3.78443509340286254883e-01) (137, 4.26435440778732299805e-01) (138, 1.09437263011932373047e+00) (139, 2.88441896438598632812e+00) (140, -2.83189773559570312500e+00) (141, -2.61732149124145507812e+00) (142, 3.97478079795837402344e+00) (143, -4.54727083444595336914e-01) (144, 1.03956117630004882812e+01) (145, -1.70552954077720642090e-02) (146, -1.12623345851898193359e+00) (147, -3.82013845443725585938e+00) (148, 5.82809877395629882812e+00) (149, 1.67782676219940185547e+00) (150, -4.23258095979690551758e-01) (151, -1.80089461803436279297e+00) (152, 4.69572687149047851562e+00) (153, 2.72497057914733886719e+00) (154, 9.07414615154266357422e-01) (155, 1.99878430366516113281e+00) (156, -1.79417288303375244141e+00) (157, -3.35882449150085449219e+00) (158, 2.60330486297607421875e+00) (159, 4.04722318053245544434e-02) (160, -3.63433575630187988281e+00) (161, 1.96850568056106567383e-01) (162, -3.06210350990295410156e+00) (163, 3.79808396100997924805e-01) (164, 2.72971558570861816406e+00) (165, -4.20776224136352539062e+00) (166, -1.93720057606697082520e-01) (167, -3.24679970741271972656e+00) (168, 4.55240345001220703125e+00) (169, -2.21465730667114257812e+00) (170, -7.48784732818603515625e+00) (171, 1.44726765155792236328e+00) (172, -2.86939764022827148438e+00) (173, 4.63016128540039062500e+00) (174, 5.95056915283203125000e+00) (175, -1.40599727630615234375e+00) (176, -1.00216846466064453125e+01) (177, -2.79634928703308105469e+00) (178, -2.47864007949829101562e+00) (179, -3.04482913017272949219e+00) (180, 1.81273388862609863281e+00) (181, -3.11141669750213623047e-01) (182, 1.26715517044067382812e+01) (183, -1.15706348419189453125e+00) (184, -9.24156665802001953125e+00) (185, -7.54787981510162353516e-01) (186, 5.34928083419799804688e+00) (187, 2.74897718429565429688e+00) (188, -1.30021429061889648438e+00) (189, -2.99272584915161132812e+00) (190, 2.84722304344177246094e+00) (191, 1.71045839786529541016e+00) (192, -8.59310436248779296875e+00) (193, -3.29279708862304687500e+00) (194, 5.71381521224975585938e+00) (195, 3.18795353174209594727e-01) (196, 1.50000000000000000000e+03) (197, 1.50000000000000000000e+03) (198, 1.50000000000000000000e+03) (199, 1.50000000000000000000e+03) (200, 1.05782520771026611328e+00) (201, -1.47142148017883300781e+00) (202, -2.60534524917602539062e+00) (0, 2.24546998739242553711e-01) (1, -3.10298371315002441406e+00) (2, 3.36146265268325805664e-01) (3, 1.29724442958831787109e+00) (4, 7.93243217468261718750e+00) (5, -2.98953914642333984375e+00) (6, 1.65847754478454589844e+00) (7, 4.95225238800048828125e+00) (8, -1.93870162963867187500e+00) (9, -2.06585383415222167969e+00) (10, 5.43243694305419921875e+00) (11, -2.63945150375366210938e+00) (12, -3.75377655029296875000e+00) (13, -6.73926115036010742188e-01) (14, -1.17440208792686462402e-01) (15, 5.48727464675903320312e+00) (16, -6.23481082916259765625e+00) (17, -3.03637146949768066406e+00) (18, -2.77930951118469238281e+00) (19, 3.04826688766479492188e+00) (20, -3.88905465602874755859e-01) (21, -1.14651358127593994141e+00) (22, 1.04052400588989257812e+00) (23, 4.83517360687255859375e+00) (24, -1.00150614976882934570e-01) (25, -3.12816047668457031250e+00) (26, 4.46830272674560546875e+00) (27, -1.26556491851806640625e+00) (28, -6.95815038681030273438e+00) (29, -3.04985523223876953125e+00) (30, 3.32122611999511718750e+00) (31, 3.45175051689147949219e+00) (32, 7.56645870208740234375e+00) (33, -3.16803526878356933594e+00) (34, -7.20315456390380859375e-01) (35, -1.72320389747619628906e+00) (36, -7.75687277317047119141e-01) (37, 1.95839798450469970703e+00) (38, -6.85089826583862304688e-02) (39, -2.91998052597045898438e+00) (40, -5.39811992645263671875e+00) (41, -2.97301030158996582031e+00) (42, -1.91672158241271972656e+00) (43, 1.55022883415222167969e+00) (44, 1.82949340343475341797e+00) (45, -3.12529635429382324219e+00) (46, 1.61509037017822265625e+00) (47, 3.87825727462768554688e+00) (48, -5.33553457260131835938e+00) (49, 3.17499852180480957031e+00) (50, 3.53782749176025390625e+00) (51, 2.71461606025695800781e+00) (52, -6.12702131271362304688e+00) (53, -1.93354487419128417969e+00) (54, 4.93671131134033203125e+00) (55, 3.55509996414184570312e+00) (56, -8.52346992492675781250e+00) (57, 1.31755125522613525391e+00) (58, 3.68476080894470214844e+00) (59, -1.29323554039001464844e+00) (60, 6.17416524887084960938e+00) (61, 4.94739502668380737305e-01) (62, -4.18733417987823486328e-01) (63, 6.56915605068206787109e-01) (64, 4.09371280670166015625e+00) (65, -1.22264885902404785156e+00) (66, -1.66747295856475830078e+00) (67, -3.13268899917602539062e+00) (68, 1.04066686630249023438e+01) (69, -3.06766033172607421875e+00) (70, -1.32560949325561523438e+01) (71, 4.51574712991714477539e-01) (72, -2.23281121253967285156e+00) (73, -1.60778433084487915039e-01) (74, -3.99681043624877929688e+00) (75, 3.38571524620056152344e+00) (76, -1.14543259143829345703e+00) (77, 1.62785232067108154297e-01) (78, -2.42564105987548828125e+00) (79, 8.22477638721466064453e-01) (80, 5.47766971588134765625e+00) (81, 3.31687474250793457031e+00) (82, -2.78543019294738769531e+00) (83, 2.19477605819702148438e+00) (84, -3.62986624240875244141e-01) (85, -3.06709671020507812500e+00) (86, 1.08041868209838867188e+01) (87, -2.15181303024291992188e+00) (88, 4.63932895660400390625e+00) (89, -1.36905479431152343750e+00) (90, 4.57248020172119140625e+00) (91, 1.24709236621856689453e+00) (92, 1.01379384994506835938e+01) (93, -2.28137612342834472656e+00) (94, -1.08516149520874023438e+01) (95, 2.38504242897033691406e+00) (96, -3.95707583427429199219e+00) (97, 4.80469524860382080078e-01) (98, 7.97589254379272460938e+00) (99, 2.52147150039672851562e+00) (100, 6.33332777023315429688e+00) (101, -2.98118782043457031250e+00) (102, -3.58834171295166015625e+00) (103, 6.79975971579551696777e-02) (104, 8.10464763641357421875e+00) (105, 5.50008952617645263672e-01) (106, -2.47922921180725097656e+00) (107, -5.94279646873474121094e-01) (108, -3.13874220848083496094e+00) (109, -1.10608899593353271484e+00) (110, -1.33125174045562744141e+00) (111, 2.82649731636047363281e+00) (112, -4.61053705215454101562e+00) (113, -6.80882930755615234375e-01) (114, 1.39389896392822265625e+00) (115, 2.18159183859825134277e-01) (116, -1.86546194553375244141e+00) (117, 7.46733009815216064453e-01) (118, -2.19063472747802734375e+00) (119, -9.50009644031524658203e-01) (120, -2.90163373947143554688e+00) (121, 3.72362852096557617188e+00) (122, -8.44389247894287109375e+00) (123, -5.33468663692474365234e-01) (124, 2.73193979263305664062e+00) (125, 1.54592394828796386719e+00) (126, -6.49210166931152343750e+00) (127, 6.72213971614837646484e-01) (128, 6.14552640914916992188e+00) (129, 8.69053542613983154297e-01) (130, 1.80628323554992675781e+00) (131, -1.74302709102630615234e+00) (132, 5.57925987243652343750e+00) (133, -4.01926755905151367188e+00) (134, -5.20765447616577148438e+00) (135, 4.99065101146697998047e-01) (136, -9.74234938621520996094e-01) (137, -3.79651784896850585938e+00) (138, 1.74539482593536376953e+00) (139, -3.22943329811096191406e+00) (140, 1.39584231376647949219e+00) (141, -3.72030591964721679688e+00) (142, -3.82445740699768066406e+00) (143, 2.93111419677734375000e+00) (144, -1.75271189212799072266e+00) (145, -5.07995069026947021484e-01) (146, 7.84504950046539306641e-01) (147, 4.20504093170166015625e+00) (148, -2.59121268987655639648e-01) (149, -4.09560084342956542969e-01) (150, 6.06527328491210937500e+00) (151, -1.37297236919403076172e+00) (152, -4.09946346282958984375e+00) (153, -2.24775505065917968750e+00) (154, -1.17238426208496093750e+01) (155, 6.29940569400787353516e-01) (156, 8.42639827728271484375e+00) (157, 3.18496513366699218750e+00) (158, -1.76006233692169189453e+00) (159, -2.55692362785339355469e+00) (160, 3.46825003623962402344e+00) (161, -2.49130979180335998535e-01) (162, 1.87361466884613037109e+00) (163, -2.58079767227172851562e+00) (164, 2.52208113670349121094e+00) (165, -3.10445642471313476562e+00) (166, 7.04606676101684570312e+00) (167, -3.15126943588256835938e+00) (168, -4.27062892913818359375e+00) (169, 1.31891095638275146484e+00) (170, 3.55554008483886718750e+00) (171, -1.39716565608978271484e-01) (172, 8.20120239257812500000e+00) (173, 9.03942584991455078125e-01) (174, -6.70034766197204589844e-01) (175, 3.48999905586242675781e+00) (176, -3.97868728637695312500e+00) (177, -1.89250230789184570312e-01) (178, -1.99757337570190429688e+00) (179, 5.85776901245117187500e+00) (180, 2.43646526336669921875e+00) (181, -8.25234532356262207031e-01) (182, -1.92022168636322021484e+00) (183, 1.77381145954132080078e+00) (184, 1.62807807922363281250e+01) (185, -3.95948380231857299805e-01) (186, 6.39065131545066833496e-02) (187, 3.30447936058044433594e+00) (188, -4.74622344970703125000e+00) (189, -2.83232617378234863281e+00) (190, 9.05632495880126953125e-01) (191, -1.58829069137573242188e+00) (192, -1.33062756061553955078e+00) (193, -2.87996768951416015625e+00) (194, 5.81276607513427734375e+00) (195, 3.08018970489501953125e+00) (196, 1.50000000000000000000e+03) (197, 1.50000000000000000000e+03) (198, 1.50000000000000000000e+03) (199, 1.50000000000000000000e+03) (200, -5.57131409645080566406e-01) (201, -1.19465029239654541016e+00) (202, -2.76008677482604980469e+00) (0, -1.53820335865020751953e+00) (1, 3.56513571739196777344e+00) (2, -3.81860518455505371094e+00) (3, -1.60646343231201171875e+00) (4, 2.18879055976867675781e+00) (5, 3.03189206123352050781e+00) (6, -8.06885242462158203125e+00) (7, -1.09015119075775146484e+00) (8, 5.04434061050415039062e+00) (9, 3.52930158376693725586e-01) (10, 6.79771065711975097656e-01) (11, -1.91529214382171630859e+00) (12, -2.05838108062744140625e+00) (13, 3.35118079185485839844e+00) (14, 1.86776053905487060547e+00) (15, -3.03066998720169067383e-01) (16, 2.84812116622924804688e+00) (17, -3.11647224426269531250e+00) (18, -4.20225954055786132812e+00) (19, 1.54717504978179931641e+00) (20, 1.01741516590118408203e+00) (21, -1.11104011535644531250e+00) (22, -4.55627155303955078125e+00) (23, -1.11774742603302001953e+00) (24, -3.50479936599731445312e+00) (25, -1.51075971126556396484e+00) (26, 1.20551455020904541016e+00) (27, -1.77001285552978515625e+00) (28, 4.72152376174926757812e+00) (29, -9.89628911018371582031e-01) (30, -2.85254096984863281250e+00) (31, -6.74550682306289672852e-02) (32, 4.53387796878814697266e-01) (33, 8.09449255466461181641e-01) (34, 5.11223983764648437500e+00) (35, 3.77678656578063964844e+00) (36, 2.26060223579406738281e+00) (37, -7.33551383018493652344e-01) (38, -4.76566702127456665039e-01) (39, -5.40664419531822204590e-02) (40, -6.57955455780029296875e+00) (41, -3.05660700798034667969e+00) (42, -2.20834180712699890137e-01) (43, 1.90658509731292724609e+00) (44, 4.06245613098144531250e+00) (45, 1.89662110805511474609e+00) (46, -3.61062979698181152344e+00) (47, -8.80829513072967529297e-01) (48, 2.18271517753601074219e+00) (49, 1.59186446666717529297e+00) (50, 3.85461497306823730469e+00) (51, 7.69086033105850219727e-02) (52, -3.16154599189758300781e+00) (53, 1.31839290261268615723e-01) (54, 2.93522143363952636719e+00) (55, 1.14567792043089866638e-02) (56, 1.88040018081665039062e+00) (57, -1.24373233318328857422e+00) (58, -8.91827106475830078125e-01) (59, -1.21497380733489990234e+00) (60, 1.05169153213500976562e+01) (61, -2.71277070045471191406e+00) (62, -1.32843601703643798828e+00) (63, 1.75414359569549560547e+00) (64, 1.74207377433776855469e+00) (65, -3.22200059890747070312e+00) (66, -2.69065237045288085938e+00) (67, 9.89672482013702392578e-01) (68, -3.02940130233764648438e+00) (69, 9.84581291675567626953e-01) (70, -1.92915940284729003906e+00) (71, 2.42439961433410644531e+00) (72, 1.74714303016662597656e+00) (73, -1.25026375055313110352e-01) (74, 2.58368849754333496094e+00) (75, 4.12398427724838256836e-01) (76, -9.19107723236083984375e+00) (77, -2.76236939430236816406e+00) (78, -2.42269444465637207031e+00) (79, 4.26067495346069335938e+00) (80, -2.33584856986999511719e+00) (81, -1.85353457927703857422e-01) (82, 2.99650406837463378906e+00) (83, -2.31981658935546875000e+00) (84, 2.84548610448837280273e-01) (85, -4.06476825475692749023e-01) (86, 5.19862270355224609375e+00) (87, 1.76395463943481445312e+00) (88, -5.90317964553833007812e+00) (89, -3.38172698020935058594e+00) (90, 4.42381095886230468750e+00) (91, -3.95072746276855468750e+00) (92, -2.52621436119079589844e+00) (93, 2.01463294029235839844e+00) (94, 1.70660388469696044922e+00) (95, -2.20860528945922851562e+00) (96, -7.01733493804931640625e+00) (97, 2.13543486595153808594e+00) (98, -6.21116828918457031250e+00) (99, 5.03808498382568359375e-01) (100, -2.07020425796508789062e+00) (101, -1.16804552078247070312e+00) (102, 3.69533920288085937500e+00) (103, 1.36186075210571289062e+00) (104, -1.39883685111999511719e+00) (105, -1.25367975234985351562e+00) (106, 2.72469973564147949219e+00) (107, 9.59951221942901611328e-01) (108, -1.82215690612792968750e+00) (109, -2.59702831506729125977e-01) (110, -3.75320625305175781250e+00) (111, 2.88951754570007324219e+00) (112, 6.50642156600952148438e+00) (113, -3.77000784873962402344e+00) (114, 4.23478484153747558594e-02) (115, 3.01935791969299316406e+00) (116, -6.12505197525024414062e+00) (117, -2.90968871116638183594e+00) (118, 7.22322654724121093750e+00) (119, 2.94740581512451171875e+00) (120, 5.27965402603149414062e+00) (121, -2.47134613990783691406e+00) (122, 5.02796411514282226562e-01) (123, 2.28880929946899414062e+00) (124, -3.36492800712585449219e+00) (125, 1.28332361578941345215e-01) (126, 1.50270387530326843262e-01) (127, 1.51736414432525634766e+00) (128, -1.70215174555778503418e-01) (129, -1.31570219993591308594e+00) (130, -2.13480639457702636719e+00) (131, -2.14763855934143066406e+00) (132, -6.35582780838012695312e+00) (133, 1.91354349255561828613e-01) (134, 8.87727165222167968750e+00) (135, -2.82382607460021972656e-01) (136, 1.76378524303436279297e+00) (137, 2.04258942604064941406e+00) (138, -2.66415309906005859375e+00) (139, 1.85647785663604736328e+00) (140, -3.86905717849731445312e+00) (141, 2.42944240570068359375e+00) (142, -6.34150457382202148438e+00) (143, -1.76622234284877777100e-02) (144, -3.74272584915161132812e+00) (145, -2.52560991793870925903e-03) (146, 1.74733257293701171875e+00) (147, 3.65700984001159667969e+00) (148, -1.90618431568145751953e+00) (149, -1.48512697219848632812e+00) (150, 4.30149412155151367188e+00) (151, 2.62287759780883789062e+00) (152, -5.59332180023193359375e+00) (153, -3.96780228614807128906e+00) (154, 5.74830007553100585938e+00) (155, -7.98126399517059326172e-01) (156, -5.38153231143951416016e-01) (157, 4.29589366912841796875e+00) (158, 5.01475453376770019531e-01) (159, 2.77744793891906738281e+00) (160, 6.65260970592498779297e-01) (161, -2.13180303573608398438e+00) (162, 2.09221363067626953125e+00) (163, -8.91944229602813720703e-01) (164, -1.51611852645874023438e+00) (165, 2.01778459548950195312e+00) (166, 3.11017012596130371094e+00) (167, 1.28880381584167480469e+00) (168, -1.06439840793609619141e+00) (169, 8.00579011440277099609e-01) (170, -6.27776050567626953125e+00) (171, -8.84023830294609069824e-02) (172, 4.11350393295288085938e+00) (173, -2.37955999374389648438e+00) (174, 7.66098594665527343750e+00) (175, 2.86637949943542480469e+00) (176, -1.13416802883148193359e+00) (177, 2.03549289703369140625e+00) (178, 4.44888734817504882812e+00) (179, 1.05617463588714599609e-01) (180, -1.71358048915863037109e+00) (181, -2.21933811902999877930e-01) (182, -4.63611394166946411133e-01) (183, 2.40489411354064941406e+00) (184, -7.19765520095825195312e+00) (185, -3.91861701011657714844e+00) (186, -5.03870820999145507812e+00) (187, 1.35045826435089111328e+00) (188, -3.81466373801231384277e-02) (189, -3.09750378131866455078e-01) (190, 1.93275344371795654297e+00) (191, -4.05894696712493896484e-01) (192, 6.83637189865112304688e+00) (193, 2.38939261436462402344e+00) (194, -7.39913034439086914062e+00) (195, 2.75593256950378417969e+00) (196, 1.50000000000000000000e+03) (197, 1.50000000000000000000e+03) (198, 1.50000000000000000000e+03) (199, 1.50000000000000000000e+03) (200, -1.41478550434112548828e+00) (201, -7.97945320606231689453e-01) (202, -2.44567990303039550781e+00) (0, 1.19009569287300109863e-01) (1, -5.11215353012084960938e+00) (2, 3.43105125427246093750e+00) (3, -2.59078145027160644531e-01) (4, -2.87107610702514648438e+00) (5, -4.79308652877807617188e+00) (6, 1.33901643753051757812e+00) (7, 2.89118498563766479492e-01) (8, -5.01894295215606689453e-01) (9, 2.59228014945983886719e+00) (10, 3.72176575660705566406e+00) (11, 7.90662825107574462891e-01) (12, 6.27116775512695312500e+00) (13, -2.71297883987426757812e+00) (14, 1.68867170810699462891e-01) (15, -2.41713190078735351562e+00) (16, -5.58350944519042968750e+00) (17, -4.95620107650756835938e+00) (18, -7.69092655181884765625e+00) (19, -1.68769073486328125000e+00) (20, -3.66737341880798339844e+00) (21, 1.17939090728759765625e+00) (22, -6.59184396266937255859e-01) (23, 9.83959078788757324219e-01) (24, -1.72331798076629638672e+00) (25, -2.45156332850456237793e-01) (26, 2.16630458831787109375e+00) (27, -2.78391289710998535156e+00) (28, 5.25051832199096679688e+00) (29, -2.69480991363525390625e+00) (30, 1.44992733001708984375e+00) (31, 2.13945960998535156250e+00) (32, -3.07470989227294921875e+00) (33, -8.82748141884803771973e-02) (34, 6.25324440002441406250e+00) (35, 5.77323102951049804688e+00) (36, -2.21973729133605957031e+00) (37, -2.54833340644836425781e+00) (38, -4.51759386062622070312e+00) (39, 9.41252517700195312500e+00) (40, 4.32420015335083007812e+00) (41, -2.48479795455932617188e+00) (42, -4.86175626516342163086e-01) (43, 5.71459770202636718750e+00) (44, -4.45445626974105834961e-01) (45, -2.20044493675231933594e+00) (46, -9.06673812866210937500e+00) (47, 3.15655493736267089844e+00) (48, 1.07579040527343750000e+00) (49, 7.20408725738525390625e+00) (50, 5.92310285568237304688e+00) (51, 4.22436863183975219727e-01) (52, -2.57172179222106933594e+00) (53, -3.64127421379089355469e+00) (54, -1.60963268280029296875e+01) (55, -3.07095575332641601562e+00) (56, -1.78677666187286376953e+00) (57, -4.12008857727050781250e+00) (58, -2.86504530906677246094e+00) (59, 9.72743988037109375000e-01) (60, -2.87038278579711914062e+00) (61, 7.65761709213256835938e+00) (62, -1.09703683853149414062e+00) (63, -2.74457192420959472656e+00) (64, -1.45577564835548400879e-01) (65, 1.32926118373870849609e+00) (66, 7.15937137603759765625e+00) (67, -8.68859142065048217773e-02) (68, -4.80879592895507812500e+00) (69, -2.88145780563354492188e+00) (70, 7.44266629219055175781e-01) (71, 6.75969934463500976562e+00) (72, -5.12568771839141845703e-01) (73, -2.81823158264160156250e+00) (74, -2.73955512046813964844e+00) (75, -1.00668871402740478516e+00) (76, 5.37968540191650390625e+00) (77, -2.07216024398803710938e+00) (78, 1.16471983492374420166e-01) (79, -2.77697753906250000000e+00) (80, -3.43189692497253417969e+00) (81, 9.51734924316406250000e+00) (82, 8.77825450897216796875e+00) (83, -4.70045948028564453125e+00) (84, -8.16254615783691406250e-01) (85, -4.04103040695190429688e+00) (86, -3.29913330078125000000e+00) (87, 5.76206818222999572754e-02) (88, -1.46129536628723144531e+00) (89, -3.14786839485168457031e+00) (90, 7.09043216705322265625e+00) (91, 2.25260329246520996094e+00) (92, 4.69249343872070312500e+00) (93, -6.60044401884078979492e-02) (94, -4.85267114639282226562e+00) (95, -2.32525579631328582764e-02) (96, -3.38908493518829345703e-01) (97, 4.56436634063720703125e+00) (98, 4.67434644699096679688e-01) (99, -3.71201252937316894531e+00) (100, -3.07607173919677734375e+00) (101, -3.13892197608947753906e+00) (102, -3.20085644721984863281e+00) (103, -1.11173737049102783203e+00) (104, -4.79506969451904296875e+00) (105, -5.03724479675292968750e+00) (106, -1.85496270656585693359e+00) (107, -3.02693581581115722656e+00) (108, -3.00637650489807128906e+00) (109, 5.85703372955322265625e+00) (110, 9.55317783355712890625e+00) (111, -3.09646439552307128906e+00) (112, -2.53381037712097167969e+00) (113, -3.24508142471313476562e+00) (114, -6.83730185031890869141e-01) (115, 2.70929622650146484375e+00) (116, -5.76435375213623046875e+00) (117, -1.96599853038787841797e+00) (118, 6.27841091156005859375e+00) (119, -3.10147142410278320312e+00) (120, 3.99794578552246093750e+00) (121, 6.56557500362396240234e-01) (122, -1.08816504478454589844e+00) (123, 1.93284797668457031250e+00) (124, -1.06017827987670898438e+00) (125, 4.20736980438232421875e+00) (126, 9.37481498718261718750e+00) (127, 3.34300446510314941406e+00) (128, 3.55187964439392089844e+00) (129, -1.05142438411712646484e+00) (130, -8.32654476165771484375e-01) (131, 4.17901849746704101562e+00) (132, -2.08483529090881347656e+00) (133, 1.76444661617279052734e+00) (134, -3.58995246887207031250e+00) (135, 6.16327905654907226562e+00) (136, 2.61281728744506835938e+00) (137, -5.25481998920440673828e-01) (138, 5.23422145843505859375e+00) (139, -3.70532965660095214844e+00) (140, -3.45119094848632812500e+00) (141, 1.48632669448852539062e+00) (142, -3.22893500328063964844e+00) (143, 3.63477915525436401367e-02) (144, 2.09891319274902343750e+00) (145, -2.45773768424987792969e+00) (146, -7.02859878540039062500e-01) (147, 1.69980615377426147461e-01) (148, -2.38123722374439239502e-02) (149, 7.06939101219177246094e-01) (150, 4.41443300247192382812e+00) (151, 1.56967854499816894531e+00) (152, 5.31442910432815551758e-02) (153, -1.85237884521484375000e+00) (154, -4.80574131011962890625e+00) (155, 2.86460518836975097656e+00) (156, -4.31306791305541992188e+00) (157, -5.73690414428710937500e+00) (158, 3.53667664527893066406e+00) (159, -2.09307646751403808594e+00) (160, 5.87576818466186523438e+00) (161, -4.37670040130615234375e+00) (162, 2.92985582351684570312e+00) (163, 2.72441792488098144531e+00) (164, -9.08891963958740234375e+00) (165, 7.76760911941528320312e+00) (166, -2.32411861419677734375e+00) (167, -2.60754895210266113281e+00) (168, 1.27208938598632812500e+01) (169, 4.04411363601684570312e+00) (170, -3.34555053710937500000e+00) (171, -2.94403886795043945312e+00) (172, 1.26995515823364257812e+00) (173, 1.94593119621276855469e+00) (174, -3.70341062545776367188e+00) (175, 1.75065076351165771484e+00) (176, -5.09840774536132812500e+00) (177, 1.69329285621643066406e-01) (178, 6.54943370819091796875e+00) (179, -3.79243761301040649414e-01) (180, 6.03361225128173828125e+00) (181, -4.80743360519409179688e+00) (182, -1.01394901275634765625e+01) (183, -1.37394523620605468750e+00) (184, 8.83949565887451171875e+00) (185, 8.71662139892578125000e+00) (186, -2.13560271263122558594e+00) (187, 1.24724435806274414062e+00) (188, 1.25472307205200195312e+00) (189, -4.37502527236938476562e+00) (190, -1.27400484085083007812e+01) (191, -3.26144123077392578125e+00) (192, -4.49680060148239135742e-01) (193, -2.45243692398071289062e+00) (194, 4.52561616897583007812e+00) (195, 9.74094200134277343750e+00) (196, 1.50000000000000000000e+03) (197, 1.50000000000000000000e+03) (198, 1.50000000000000000000e+03) (199, 1.50000000000000000000e+03) (200, -2.71483445167541503906e+00) (201, -2.91013884544372558594e+00) (202, -2.83062028884887695312e+00) (0, 1.93387055397033691406e+00) (1, 3.08141326904296875000e+00) (2, -8.92203688621520996094e-01) (3, -1.27480375766754150391e+00) (4, -3.17206859588623046875e+00) (5, 4.08954000473022460938e+00) (6, -9.36959125101566314697e-03) (7, 1.80303549766540527344e+00) (8, 2.05969429016113281250e+00) (9, -3.40829300880432128906e+00) (10, 3.33251476287841796875e+00) (11, -3.70470070838928222656e+00) (12, -1.55563974380493164062e+00) (13, -1.24928176403045654297e+00) (14, 1.63541734218597412109e+00) (15, -2.55056071281433105469e+00) (16, 3.61538112163543701172e-01) (17, 8.82051086425781250000e+00) (18, 3.42441964149475097656e+00) (19, 1.57593870162963867188e+00) (20, 2.99673867225646972656e+00) (21, -2.98411512374877929688e+00) (22, 1.58121252059936523438e+00) (23, 1.23814785480499267578e+00) (24, -1.43933451175689697266e+00) (25, 4.77996408939361572266e-01) (26, 1.59619641304016113281e+00) (27, -2.76088666915893554688e+00) (28, 4.75659656524658203125e+00) (29, -2.83167028427124023438e+00) (30, 9.35051345825195312500e+00) (31, 1.38188457489013671875e+00) (32, 7.48298406600952148438e+00) (33, -1.42915797233581542969e+00) (34, -2.24651265144348144531e+00) (35, 8.20022296905517578125e+00) (36, -8.21788847446441650391e-01) (37, -1.82734227180480957031e+00) (38, -5.95623135566711425781e-01) (39, 9.31455850601196289062e-01) (40, -3.01920604705810546875e+00) (41, -3.04809832572937011719e+00) (42, 5.37978935241699218750e+00) (43, -9.58843648433685302734e-01) (44, -1.36929006576538085938e+01) (45, 2.95343637466430664062e+00) (46, 7.12019014358520507812e+00) (47, -3.17522734403610229492e-01) (48, -7.71679997444152832031e-01) (49, -3.79922699928283691406e+00) (50, 8.53021049499511718750e+00) (51, -1.32021808624267578125e+00) (52, -1.01759691238403320312e+01) (53, 4.97782611846923828125e+00) (54, -1.19663715362548828125e+01) (55, 4.50119113922119140625e+00) (56, 5.51828479766845703125e+00) (57, 1.98659753799438476562e+00) (58, -9.32463264465332031250e+00) (59, -1.71359288692474365234e+00) (60, -1.33588492870330810547e+00) (61, 9.95103716850280761719e-01) (62, -8.95396518707275390625e+00) (63, 3.70712900161743164062e+00) (64, 7.79974985122680664062e+00) (65, 6.44179821014404296875e-01) (66, 7.53916835784912109375e+00) (67, 2.60454607009887695312e+00) (68, -1.08779430389404296875e+00) (69, -3.02407217025756835938e+00) (70, -8.49238097667694091797e-01) (71, -2.80586671829223632812e+00) (72, 3.05306982994079589844e+00) (73, -8.38517993688583374023e-02) (74, 3.14445400238037109375e+00) (75, -1.58604252338409423828e+00) (76, -4.02764368057250976562e+00) (77, 3.57595348358154296875e+00) (78, -9.24486541748046875000e+00) (79, -3.16302323341369628906e+00) (80, -5.25388896465301513672e-01) (81, 2.40939164161682128906e+00) (82, 9.17952823638916015625e+00) (83, -3.81100296974182128906e+00) (84, -1.40900993347167968750e+00) (85, -3.06503582000732421875e+00) (86, 4.46190547943115234375e+00) (87, -1.20605051517486572266e+00) (88, 1.56913816928863525391e+00) (89, 2.55378937721252441406e+00) (90, 3.18541407585144042969e-01) (91, 2.23570156097412109375e+00) (92, -2.74346947669982910156e-01) (93, 3.53924298286437988281e+00) (94, -4.82904195785522460938e+00) (95, -4.92724359035491943359e-01) (96, 6.05558681488037109375e+00) (97, 1.87328827381134033203e+00) (98, -2.16262149810791015625e+00) (99, -1.19276010990142822266e+00) (100, -2.74618530273437500000e+00) (101, 1.12819206714630126953e+00) (102, 8.38846588134765625000e+00) (103, -3.09528541564941406250e+00) (104, -3.35212802886962890625e+00) (105, 4.15464967489242553711e-01) (106, -3.14264583587646484375e+00) (107, -4.05274838209152221680e-01) (108, -3.12175750732421875000e+00) (109, 6.49695634841918945312e-01) (110, 4.58852434158325195312e+00) (111, 4.71502780914306640625e+00) (112, 4.62237834930419921875e+00) (113, -3.00948834419250488281e+00) (114, -2.88638401031494140625e+00) (115, 4.42103594541549682617e-01) (116, -4.99648380279541015625e+00) (117, 6.31206512451171875000e+00) (118, -3.66237568855285644531e+00) (119, -1.30675220489501953125e+00) (120, -3.82117557525634765625e+00) (121, -3.54509878158569335938e+00) (122, -2.46722251176834106445e-03) (123, 4.78285789489746093750e+00) (124, 8.80391216278076171875e+00) (125, 5.82103610038757324219e-01) (126, -3.03101271390914916992e-01) (127, 4.15854310989379882812e+00) (128, 1.30751209259033203125e+01) (129, -1.73697841167449951172e+00) (130, 5.11601209640502929688e-01) (131, -2.38328433036804199219e+00) (132, 6.60642337799072265625e+00) (133, -4.76186275482177734375e+00) (134, 1.81183552742004394531e+00) (135, -4.60817128419876098633e-01) (136, 6.12160015106201171875e+00) (137, -5.77275037765502929688e-01) (138, 1.80823326110839843750e+00) (139, -1.43382608890533447266e+00) (140, -2.34907078742980957031e+00) (141, 3.21798801422119140625e+00) (142, -2.66171431541442871094e+00) (143, -3.16865277290344238281e+00) (144, -4.28975534439086914062e+00) (145, 1.42269408702850341797e+00) (146, 7.57417976856231689453e-01) (147, -3.53006529808044433594e+00) (148, -3.03698563575744628906e+00) (149, 3.01091134548187255859e-01) (150, 7.59225606918334960938e+00) (151, 3.10111975669860839844e+00) (152, 1.22427713871002197266e+00) (153, -4.00651741027832031250e+00) (154, -1.47312521934509277344e+00) (155, 1.66364645957946777344e+00) (156, 2.07983517646789550781e+00) (157, 5.96362471580505371094e-01) (158, 2.55968403816223144531e+00) (159, -1.93011868000030517578e+00) (160, 4.27313756942749023438e+00) (161, -1.72379374504089355469e+00) (162, 2.86558246612548828125e+00) (163, -2.06110715866088867188e+00) (164, 7.26277065277099609375e+00) (165, 2.70911478996276855469e+00) (166, 5.54727983474731445312e+00) (167, -2.91760849952697753906e+00) (168, 5.90643596649169921875e+00) (169, -2.29177641868591308594e+00) (170, -2.69003820419311523438e+00) (171, 4.07251548767089843750e+00) (172, -9.71406400203704833984e-01) (173, -2.02956223487854003906e+00) (174, 6.03846502304077148438e+00) (175, -9.10170793533325195312e-01) (176, 3.05630207061767578125e+00) (177, -3.43648195266723632812e+00) (178, -3.93593740463256835938e+00) (179, -3.24089455604553222656e+00) (180, -1.74608135223388671875e+01) (181, -2.22848081588745117188e+00) (182, 1.56969547271728515625e+01) (183, -1.33260178565979003906e+00) (184, 9.14883327484130859375e+00) (185, 2.59354782104492187500e+00) (186, 2.41975355148315429688e+00) (187, -1.75660324096679687500e+00) (188, -4.77234172821044921875e+00) (189, -4.37171310186386108398e-01) (190, -4.81550121307373046875e+00) (191, -1.59534621238708496094e+00) (192, -5.49169921875000000000e+00) (193, -2.75457096099853515625e+00) (194, -3.74980187416076660156e+00) (195, -2.52980566024780273438e+00) (196, 1.50000000000000000000e+03) (197, 1.50000000000000000000e+03) (198, 1.50000000000000000000e+03) (199, 1.50000000000000000000e+03) (200, -1.73119640350341796875e+00) (201, -5.67198562622070312500e+00) (202, 9.36548900604248046875e+00) (0, -1.50000000000000000000e+03) (1, -1.50000000000000000000e+03) (2, -1.50000000000000000000e+03) (3, -1.50000000000000000000e+03) (4, -1.50000000000000000000e+03) (5, -1.50000000000000000000e+03) (6, -1.50000000000000000000e+03) (7, -1.50000000000000000000e+03) (8, -1.50000000000000000000e+03) (9, -1.50000000000000000000e+03) (10, -1.50000000000000000000e+03) (11, -1.50000000000000000000e+03) (12, -1.50000000000000000000e+03) (13, -1.50000000000000000000e+03) (14, -1.50000000000000000000e+03) (15, -1.50000000000000000000e+03) (16, -1.50000000000000000000e+03) (17, -1.50000000000000000000e+03) (18, -1.50000000000000000000e+03) (19, -1.50000000000000000000e+03) (20, -1.50000000000000000000e+03) (21, 1.49549487304687500000e+03) (22, -1.50000000000000000000e+03) (23, 1.49995153808593750000e+03) (24, -1.50000000000000000000e+03) (25, -1.49670800781250000000e+03) (26, -1.50000000000000000000e+03) (27, -1.50000000000000000000e+03) (28, -1.50000000000000000000e+03) (29, 1.49996374511718750000e+03) (30, -1.50000000000000000000e+03) (31, 1.50000000000000000000e+03) (32, -1.50000000000000000000e+03) (33, -1.49907153320312500000e+03) (34, -1.50000000000000000000e+03) (35, 1.47701721191406250000e+03) (36, -1.50000000000000000000e+03) (37, -1.49795300292968750000e+03) (38, -1.50000000000000000000e+03) (39, -1.50000000000000000000e+03) (40, -1.50000000000000000000e+03) (41, -1.50000000000000000000e+03) (42, -1.50000000000000000000e+03) (43, -1.50000000000000000000e+03) (44, -1.50000000000000000000e+03) (45, -1.50000000000000000000e+03) (46, -1.50000000000000000000e+03) (47, -1.50000000000000000000e+03) (48, -1.50000000000000000000e+03) (49, 1.50000000000000000000e+03) (50, -1.50000000000000000000e+03) (51, 1.50000000000000000000e+03) (52, -1.50000000000000000000e+03) (53, 1.50000000000000000000e+03) (54, -1.50000000000000000000e+03) (55, -1.50000000000000000000e+03) (56, -1.50000000000000000000e+03) (57, -1.49934826660156250000e+03) (58, 1.50000000000000000000e+03) (59, -1.50000000000000000000e+03) (60, 1.15870007324218750000e+03) (61, -1.49999914550781250000e+03) (62, -1.50000000000000000000e+03) (63, -1.49999963378906250000e+03) (64, -9.38557189941406250000e+02) (65, -1.49950451660156250000e+03) (66, -1.50000000000000000000e+03) (67, 1.50000000000000000000e+03) (68, -1.50000000000000000000e+03) (69, 1.50000000000000000000e+03) (70, -1.50000000000000000000e+03) (71, -1.50000000000000000000e+03) (72, -1.50000000000000000000e+03) (73, -1.50000000000000000000e+03) (74, -1.50000000000000000000e+03) (75, -1.50000000000000000000e+03) (76, -1.50000000000000000000e+03) (77, -1.50000000000000000000e+03) (78, -1.50000000000000000000e+03) (79, -1.50000000000000000000e+03) (80, -1.50000000000000000000e+03) (81, -1.50000000000000000000e+03) (82, -1.50000000000000000000e+03) (83, -1.50000000000000000000e+03) (84, -1.50000000000000000000e+03) (85, -1.50000000000000000000e+03) (86, -1.50000000000000000000e+03) (87, -1.50000000000000000000e+03) (88, -1.50000000000000000000e+03) (89, -1.50000000000000000000e+03) (90, -1.50000000000000000000e+03) (91, 1.49999121093750000000e+03) (92, -1.50000000000000000000e+03) (93, -1.49778527832031250000e+03) (94, -1.50000000000000000000e+03) (95, 1.50000000000000000000e+03) (96, -1.50000000000000000000e+03) (97, 1.50000000000000000000e+03) (98, -1.50000000000000000000e+03) (99, 1.50000000000000000000e+03) (100, -1.50000000000000000000e+03) (101, 1.49999145507812500000e+03) (102, 1.50000000000000000000e+03) (103, 1.50000000000000000000e+03) (104, 1.50000000000000000000e+03) (105, 9.25531463623046875000e+01) (106, -1.49909069824218750000e+03) (107, 1.50000000000000000000e+03) (108, -1.49995300292968750000e+03) (109, 1.50000000000000000000e+03) (110, -1.50000000000000000000e+03) (111, 1.49995251464843750000e+03) (112, -1.50000000000000000000e+03) (113, 1.50000000000000000000e+03) (114, -1.50000000000000000000e+03) (115, -1.49999060058593750000e+03) (116, -1.50000000000000000000e+03) (117, 1.49996276855468750000e+03) (118, -1.50000000000000000000e+03) (119, 1.49997619628906250000e+03) (120, -1.50000000000000000000e+03) (121, 1.50000000000000000000e+03) (122, -1.50000000000000000000e+03) (123, 1.49994885253906250000e+03) (124, 1.50000000000000000000e+03) (125, 1.49995056152343750000e+03) (126, -1.49964196777343750000e+03) (127, 1.49995031738281250000e+03) (128, -1.50000000000000000000e+03) (129, -1.50000000000000000000e+03) (130, -1.50000000000000000000e+03) (131, -1.50000000000000000000e+03) (132, -1.50000000000000000000e+03) (133, 1.50000000000000000000e+03) (134, -1.50000000000000000000e+03) (135, 1.49945666503906250000e+03) (136, -1.50000000000000000000e+03) (137, -1.50000000000000000000e+03) (138, -1.50000000000000000000e+03) (139, -1.50000000000000000000e+03) (140, -1.50000000000000000000e+03) (141, -1.50000000000000000000e+03) (142, -1.50000000000000000000e+03) (143, -1.50000000000000000000e+03) (144, -1.49997766113281250000e+03) (145, -1.50000000000000000000e+03) (146, -1.50000000000000000000e+03) (147, -1.50000000000000000000e+03) (148, -1.50000000000000000000e+03) (149, -1.50000000000000000000e+03) (150, -1.50000000000000000000e+03) (151, -1.50000000000000000000e+03) (152, -1.50000000000000000000e+03) (153, -1.49937731933593750000e+03) (154, -1.50000000000000000000e+03) (155, 1.50000000000000000000e+03) (156, -1.50000000000000000000e+03) (157, 1.50000000000000000000e+03) (158, -1.50000000000000000000e+03) (159, -1.50000000000000000000e+03) (160, -1.50000000000000000000e+03) (161, -1.50000000000000000000e+03) (162, -1.50000000000000000000e+03) (163, -1.50000000000000000000e+03) (164, -1.50000000000000000000e+03) (165, -1.50000000000000000000e+03) (166, -1.49884033203125000000e+03) (167, -1.50000000000000000000e+03) (168, -1.50000000000000000000e+03) (169, -1.50000000000000000000e+03) (170, -1.49947387695312500000e+03) (171, -1.50000000000000000000e+03) (172, -1.50000000000000000000e+03) (173, -1.50000000000000000000e+03) (174, -1.49944335937500000000e+03) (175, -1.50000000000000000000e+03) (176, 1.50000000000000000000e+03) (177, -1.50000000000000000000e+03) (178, -1.50000000000000000000e+03) (179, -1.50000000000000000000e+03) (180, -1.42651599121093750000e+03) (181, -1.50000000000000000000e+03) (182, -1.50000000000000000000e+03) (183, -1.50000000000000000000e+03) (184, -1.50000000000000000000e+03) (185, -1.50000000000000000000e+03) (186, 1.50000000000000000000e+03) (187, -1.50000000000000000000e+03) (188, -1.49035839843750000000e+03) (189, -1.50000000000000000000e+03) (190, 1.50000000000000000000e+03) (191, -1.50000000000000000000e+03) (192, -1.50000000000000000000e+03) (193, -1.50000000000000000000e+03) (194, -1.44494982910156250000e+03) (195, -1.50000000000000000000e+03) (196, 1.50000000000000000000e+03) (197, 1.50000000000000000000e+03) (198, 1.50000000000000000000e+03) (199, 1.50000000000000000000e+03) (200, -1.50000000000000000000e+03) (201, -1.50000000000000000000e+03) (202, 8.75484085083007812500e+00) (203, 5.57636499404907226562e-01) (204, 4.10900741815567016602e-01) (205, -3.56558263301849365234e-02) (206, 8.43880712985992431641e-01) (207, -1.92315578460693359375e-01) (208, -4.93879020214080810547e-01) (209, -6.95750117301940917969e-01) (210, -1.00429010391235351562e+00) (211, 6.66624665260314941406e-01) (212, 4.32253330945968627930e-02) (213, 2.34655477106571197510e-02) (214, 3.12861084938049316406e-01) (203, 5.40886700153350830078e-01) (204, 3.94845783710479736328e-01) (205, -2.34032738953828811646e-02) (206, 7.88610279560089111328e-01) (207, -1.47479236125946044922e-01) (208, -5.10210931301116943359e-01) (209, -7.05272912979125976562e-01) (210, -1.02588093280792236328e+00) (211, 6.52370095252990722656e-01) (212, 6.17266744375228881836e-02) (213, 4.19053398072719573975e-02) (214, 1.67173251509666442871e-01) (203, 5.17905294895172119141e-01) (204, 4.11987453699111938477e-01) (205, 3.06401140987873077393e-02) (206, 9.35319125652313232422e-01) (207, -1.34848698973655700684e-01) (208, -5.51949858665466308594e-01) (209, -7.47504532337188720703e-01) (210, -1.09268045425415039062e+00) (211, 6.22063338756561279297e-01) (212, 1.12534597516059875488e-01) (213, 1.46091803908348083496e-01) (214, 6.12796023488044738770e-02) (203, 5.35420596599578857422e-01) (204, 4.14052069187164306641e-01) (205, 6.76851198077201843262e-02) (206, 9.44254815578460693359e-01) (207, -1.52869567275047302246e-01) (208, -5.56822717189788818359e-01) (209, -8.10377061367034912109e-01) (210, -1.08570075035095214844e+00) (211, 6.34426116943359375000e-01) (212, 1.58814609050750732422e-01) (213, 1.43814057111740112305e-01) (214, 1.46649191156029701233e-02) (203, 5.33884048461914062500e-01) (204, 3.49143207073211669922e-01) (205, 2.62363962829113006592e-02) (206, 8.44151079654693603516e-01) (207, -1.80226176977157592773e-01) (208, -6.61912381649017333984e-01) (209, -8.00929367542266845703e-01) (210, -1.15407311916351318359e+00) (211, 6.17565274238586425781e-01) (212, 1.45627364516258239746e-01) (213, 3.66298891603946685791e-02) (214, -1.31150454282760620117e-01) (203, 5.42666673660278320312e-01) (204, 3.86539578437805175781e-01) (205, 5.56678697466850280762e-02) (206, 8.66987109184265136719e-01) (207, -1.85955643653869628906e-01) (208, -6.72768712043762207031e-01) (209, -8.21062743663787841797e-01) (210, -1.18379461765289306641e+00) (211, 5.80065965652465820312e-01) (212, 1.63561955094337463379e-01) (213, 2.93819960206747055054e-02) (214, -1.76593139767646789551e-01) (203, 5.86253941059112548828e-01) (204, 3.38413655757904052734e-01) (205, 6.38307183980941772461e-02) (206, 9.44581866264343261719e-01) (207, -2.31844693422317504883e-01) (208, -7.23079502582550048828e-01) (209, -8.83213758468627929688e-01) (210, -1.21189510822296142578e+00) (211, 5.99069714546203613281e-01) (212, 1.99216336011886596680e-01) (213, -3.18983346223831176758e-02) (214, -1.78421661257743835449e-01) (203, 6.36839270591735839844e-01) (204, 4.00494843721389770508e-01) (205, 1.10406383872032165527e-01) (206, 9.73895668983459472656e-01) (207, -2.53893435001373291016e-01) (208, -7.03215658664703369141e-01) (209, -9.20826554298400878906e-01) (210, -1.23327374458312988281e+00) (211, 5.59124410152435302734e-01) (212, 2.27013632655143737793e-01) (213, -2.60820351541042327881e-02) (214, -2.27322682738304138184e-01) (203, 6.77529990673065185547e-01) (204, 4.40807044506072998047e-01) (205, 1.63328722119331359863e-01) (206, 1.07107293605804443359e+00) (207, -2.72917151451110839844e-01) (208, -7.50258445739746093750e-01) (209, -9.59717929363250732422e-01) (210, -1.29542970657348632812e+00) (211, 6.01324141025543212891e-01) (212, 2.84403622150421142578e-01) (213, 1.00155152380466461182e-01) (214, -2.80660152435302734375e-01) (203, 6.60667359828948974609e-01) (204, 4.54312771558761596680e-01) (205, 1.60880759358406066895e-01) (206, 1.07326698303222656250e+00) (207, -2.63399362564086914062e-01) (208, -7.63262271881103515625e-01) (209, -1.01621055603027343750e+00) (210, -1.28671896457672119141e+00) (211, 6.48343026638031005859e-01) (212, 3.01724642515182495117e-01) (213, 8.31984728574752807617e-02) (214, -2.29599013924598693848e-01) (203, 7.14284598827362060547e-01) (204, 4.92544949054718017578e-01) (205, 1.83402448892593383789e-01) (206, 1.11071753501892089844e+00) (207, -3.03338319063186645508e-01) (208, -7.83551096916198730469e-01) (209, -1.00991189479827880859e+00) (210, -1.30707859992980957031e+00) (211, 6.23163402080535888672e-01) (212, 2.79883861541748046875e-01) (213, 1.18567824363708496094e-01) (214, -2.50291109085083007812e-01) (203, 7.07400739192962646484e-01) (204, 4.67289835214614868164e-01) (205, 1.54569551348686218262e-01) (206, 1.10806298255920410156e+00) (207, -3.07777971029281616211e-01) (208, -8.18692326545715332031e-01) (209, -9.90823388099670410156e-01) (210, -1.28207147121429443359e+00) (211, 6.22877717018127441406e-01) (212, 2.74771779775619506836e-01) (213, 1.39635965228080749512e-01) (214, -2.40283310413360595703e-01) (203, 7.13454186916351318359e-01) (204, 4.94014471769332885742e-01) (205, 1.66864633560180664062e-01) (206, 1.15467178821563720703e+00) (207, -3.27268689870834350586e-01) (208, -8.32171380519866943359e-01) (209, -9.51509416103363037109e-01) (210, -1.30638837814331054688e+00) (211, 8.73793959617614746094e-01) (212, 2.68902212381362915039e-01) (213, 1.08840115368366241455e-01) (214, 1.01967588067054748535e-01) (203, 7.35381841659545898438e-01) (204, 4.40103352069854736328e-01) (205, 1.65777325630187988281e-01) (206, 1.08721065521240234375e+00) (207, -3.59864026308059692383e-01) (208, -8.31666588783264160156e-01) (209, -9.05269384384155273438e-01) (210, -1.30109524726867675781e+00) (211, 9.12063777446746826172e-01) (212, 2.69928097724914550781e-01) (213, 7.46153965592384338379e-02) (214, 9.99077856540679931641e-02) (203, 7.90851294994354248047e-01) (204, 4.58217382431030273438e-01) (205, 1.93206280469894409180e-01) (206, 1.08239388465881347656e+00) (207, -3.61389964818954467773e-01) (208, -8.03053379058837890625e-01) (209, -9.51616048812866210938e-01) (210, -1.28999316692352294922e+00) (211, 1.02898597717285156250e+00) (212, 3.04717302322387695312e-01) (213, 1.18142157793045043945e-01) (214, 1.01176925003528594971e-01) (203, 7.87530839443206787109e-01) (204, 4.57955539226531982422e-01) (205, 2.19909459352493286133e-01) (206, 1.06047666072845458984e+00) (207, -3.60259920358657836914e-01) (208, -8.38246166706085205078e-01) (209, -9.76309657096862792969e-01) (210, -1.31377601623535156250e+00) (211, 1.07070124149322509766e+00) (212, 3.49444389343261718750e-01) (213, 4.81013357639312744141e-02) (214, 1.57447010278701782227e-01) (203, 8.05408060550689697266e-01) (204, 4.69307333230972290039e-01) (205, 2.54251718521118164062e-01) (206, 1.28987944126129150391e+00) (207, -3.93268525600433349609e-01) (208, -8.94495308399200439453e-01) (209, -1.12594127655029296875e+00) (210, -1.29803407192230224609e+00) (211, 9.38411831855773925781e-01) (212, 4.04461860656738281250e-01) (213, 7.56207387894392013550e-04) (214, 1.83087661862373352051e-01) (203, 8.09260547161102294922e-01) (204, 5.17297387123107910156e-01) (205, 2.86508947610855102539e-01) (206, 1.33155429363250732422e+00) (207, -3.97183626890182495117e-01) (208, -8.74633610248565673828e-01) (209, -1.19059455394744873047e+00) (210, -1.27467441558837890625e+00) (211, 9.43442225456237792969e-01) (212, 4.11072611808776855469e-01) (213, -2.19978000968694686890e-02) (214, 2.25933179259300231934e-01) (203, 7.80486047267913818359e-01) (204, 5.35441040992736816406e-01) (205, 2.97392457723617553711e-01) (206, 1.40107274055480957031e+00) (207, -3.82044255733489990234e-01) (208, -8.94911766052246093750e-01) (209, -1.11867058277130126953e+00) (210, -1.25930702686309814453e+00) (211, 9.42908287048339843750e-01) (212, 4.02424871921539306641e-01) (213, 4.94128987193107604980e-02) (214, 3.42630088329315185547e-01) (203, 7.76235222816467285156e-01) (204, 5.68400740623474121094e-01) (205, 3.15426230430603027344e-01) (206, 1.51806139945983886719e+00) (207, -4.02381956577301025391e-01) (208, -8.97933542728424072266e-01) (209, -1.14574110507965087891e+00) (210, -1.26002812385559082031e+00) (211, 9.71162557601928710938e-01) (212, 4.08632725477218627930e-01) (213, 3.01881115883588790894e-02) (214, 4.81274217367172241211e-01) (203, 7.85073339939117431641e-01) (204, 5.26632606983184814453e-01) (205, 2.86173254251480102539e-01) (206, 1.44836747646331787109e+00) (207, -4.27290469408035278320e-01) (208, -9.14863467216491699219e-01) (209, -1.15790820121765136719e+00) (210, -1.15668058395385742188e+00) (211, 9.75695729255676269531e-01) (212, 4.39603626728057861328e-01) (213, 9.37323793768882751465e-02) (214, 3.81580531597137451172e-01) (203, 8.12681376934051513672e-01) (204, 5.08991897106170654297e-01) (205, 2.81636744737625122070e-01) (206, 1.45522463321685791016e+00) (207, -4.12092953920364379883e-01) (208, -9.54980611801147460938e-01) (209, -1.15801525115966796875e+00) (210, -1.19704174995422363281e+00) (211, 9.81247007846832275391e-01) (212, 4.30110573768615722656e-01) (213, 1.09688632190227508545e-01) (214, 3.41776907444000244141e-01) (203, 8.77769529819488525391e-01) (204, 5.40126383304595947266e-01) (205, 3.12893003225326538086e-01) (206, 1.53269708156585693359e+00) (207, -4.48966145515441894531e-01) (208, -9.56361770629882812500e-01) (209, -1.25213348865509033203e+00) (210, -1.21683681011199951172e+00) (211, 9.53586220741271972656e-01) (212, 4.07771199941635131836e-01) (213, 9.76850986480712890625e-02) (214, 3.21116238832473754883e-01) (203, 8.92629563808441162109e-01) (204, 5.85797131061553955078e-01) (205, 3.19699168205261230469e-01) (206, 1.56016767024993896484e+00) (207, -4.83178734779357910156e-01) (208, -9.52684760093688964844e-01) (209, -1.28310227394104003906e+00) (210, -1.22658789157867431641e+00) (211, 9.91941034793853759766e-01) (212, 4.16441380977630615234e-01) (213, 1.58135369420051574707e-01) (214, 3.06120216846466064453e-01) (203, 9.23467099666595458984e-01) (204, 7.13084936141967773438e-01) (205, 4.03134673833847045898e-01) (206, 1.52898263931274414062e+00) (207, -5.37378311157226562500e-01) (208, -1.01953184604644775391e+00) (209, -1.36084067821502685547e+00) (210, -1.43169677257537841797e+00) (211, 9.40398633480072021484e-01) (212, 4.20603454113006591797e-01) (213, 1.02971941232681274414e-01) (214, 1.51392087340354919434e-01) (203, 9.50687706470489501953e-01) (204, 7.55194425582885742188e-01) (205, 4.30055826902389526367e-01) (206, 1.61140680313110351562e+00) (207, -5.66198170185089111328e-01) (208, -9.95954155921936035156e-01) (209, -1.42088305950164794922e+00) (210, -1.45249819755554199219e+00) (211, 8.70859503746032714844e-01) (212, 4.49017554521560668945e-01) (213, 8.83504897356033325195e-02) (214, 1.56688749790191650391e-01) (203, 9.70463931560516357422e-01) (204, 7.80508577823638916016e-01) (205, 4.73315209150314331055e-01) (206, 1.53113520145416259766e+00) (207, -6.61078095436096191406e-01) (208, -9.18407976627349853516e-01) (209, -1.38240814208984375000e+00) (210, -1.43643081188201904297e+00) (211, 9.68673169612884521484e-01) (212, 4.65604186058044433594e-01) (213, 3.32456715404987335205e-02) (214, 1.74871802330017089844e-01) (203, 9.46678698062896728516e-01) (204, 7.78411924839019775391e-01) (205, 4.90252226591110229492e-01) (206, 1.54361784458160400391e+00) (207, -6.47829115390777587891e-01) (208, -9.31332826614379882812e-01) (209, -1.38181495666503906250e+00) (210, -1.44377839565277099609e+00) (211, 9.33848023414611816406e-01) (212, 4.81131553649902343750e-01) (213, 4.97761070728302001953e-02) (214, 1.48714333772659301758e-01) (203, 9.56057190895080566406e-01) (204, 8.09290885925292968750e-01) (205, 4.97296094894409179688e-01) (206, 1.56600546836853027344e+00) (207, 