FANN_FLO_2.1
num_layers=3
learning_rate=0.700000
connection_rate=1.000000
network_type=0
learning_momentum=0.000000
training_algorithm=2
train_error_function=1
train_stop_function=0
cascade_output_change_fraction=0.010000
quickprop_decay=-0.000100
quickprop_mu=1.750000
rprop_increase_factor=1.200000
rprop_decrease_factor=0.500000
rprop_delta_min=0.000000
rprop_delta_max=50.000000
rprop_delta_zero=0.100000
cascade_output_stagnation_epochs=12
cascade_candidate_change_fraction=0.010000
cascade_candidate_stagnation_epochs=12
cascade_max_out_epochs=150
cascade_min_out_epochs=50
cascade_max_cand_epochs=150
cascade_min_cand_epochs=50
cascade_num_candidate_groups=2
bit_fail_limit=3.49999994039535522461e-01
cascade_candidate_limit=1.00000000000000000000e+03
cascade_weight_multiplier=4.00000005960464477539e-01
cascade_activation_functions_count=10
cascade_activation_functions=3 5 7 8 10 11 14 15 16 17
cascade_activation_steepnesses_count=4
cascade_activation_steepnesses=2.50000000000000000000e-01 5.00000000000000000000e-01 7.50000000000000000000e-01 1.00000000000000000000e+00
layer_sizes=203 82 101
scale_included=0
neurons (num_inputs, activation_function, activation_steepness)=(0, 0, 0.00000000000000000000e+00) (0, 0, 0.00000000000000000000e+00) (0, 0, 0.00000000000000000000e+00) (0, 0, 0.00000000000000000000e+00) (0, 0, 0.00000000000000000000e+00) (0, 0, 0.00000000000000000000e+00) (0, 0, 0.00000000000000000000e+00) (0, 0, 0.00000000000000000000e+00) (0, 0, 0.00000000000000000000e+00) (0, 0, 0.00000000000000000000e+00) (0, 0, 0.00000000000000000000e+00) (0, 0, 0.00000000000000000000e+00) (0, 0, 0.00000000000000000000e+00) (0, 0, 0.00000000000000000000e+00) (0, 0, 0.00000000000000000000e+00) (0, 0, 0.00000000000000000000e+00) (0, 0, 0.00000000000000000000e+00) (0, 0, 0.00000000000000000000e+00) (0, 0, 0.00000000000000000000e+00) (0, 0, 0.00000000000000000000e+00) (0, 0, 0.00000000000000000000e+00) (0, 0, 0.00000000000000000000e+00) (0, 0, 0.00000000000000000000e+00) (0, 0, 0.00000000000000000000e+00) (0, 0, 0.00000000000000000000e+00) (0, 0, 0.00000000000000000000e+00) (0, 0, 0.00000000000000000000e+00) (0, 0, 0.00000000000000000000e+00) (0, 0, 0.00000000000000000000e+00) (0, 0, 0.00000000000000000000e+00) (0, 0, 0.00000000000000000000e+00) (0, 0, 0.00000000000000000000e+00) (0, 0, 0.00000000000000000000e+00) (0, 0, 0.00000000000000000000e+00) (0, 0, 0.00000000000000000000e+00) (0, 0, 0.00000000000000000000e+00) (0, 0, 0.00000000000000000000e+00) (0, 0, 0.00000000000000000000e+00) (0, 0, 0.00000000000000000000e+00) (0, 0, 0.00000000000000000000e+00) (0, 0, 0.00000000000000000000e+00) (0, 0, 0.00000000000000000000e+00) (0, 0, 0.00000000000000000000e+00) (0, 0, 0.00000000000000000000e+00) (0, 0, 0.00000000000000000000e+00) (0, 0, 0.00000000000000000000e+00) (0, 0, 0.00000000000000000000e+00) (0, 0, 0.00000000000000000000e+00) (0, 0, 0.00000000000000000000e+00) (0, 0, 0.00000000000000000000e+00) (0, 0, 0.00000000000000000000e+00) (0, 0, 0.00000000000000000000e+00) (0, 0, 0.00000000000000000000e+00) (0, 0, 0.00000000000000000000e+00) (0, 0, 0.00000000000000000000e+00) (0, 0, 0.00000000000000000000e+00) (0, 0, 0.00000000000000000000e+00) (0, 0, 0.00000000000000000000e+00) (0, 0, 0.00000000000000000000e+00) (0, 0, 0.00000000000000000000e+00) (0, 0, 0.00000000000000000000e+00) (0, 0, 0.00000000000000000000e+00) (0, 0, 0.00000000000000000000e+00) (0, 0, 0.00000000000000000000e+00) (0, 0, 0.00000000000000000000e+00) (0, 0, 0.00000000000000000000e+00) (0, 0, 0.00000000000000000000e+00) (0, 0, 0.00000000000000000000e+00) (0, 0, 0.00000000000000000000e+00) (0, 0, 0.00000000000000000000e+00) (0, 0, 0.00000000000000000000e+00) (0, 0, 0.00000000000000000000e+00) (0, 0, 0.00000000000000000000e+00) (0, 0, 0.00000000000000000000e+00) (0, 0, 0.00000000000000000000e+00) (0, 0, 0.00000000000000000000e+00) (0, 0, 0.00000000000000000000e+00) (0, 0, 0.00000000000000000000e+00) (0, 0, 0.00000000000000000000e+00) (0, 0, 0.00000000000000000000e+00) (0, 0, 0.00000000000000000000e+00) (0, 0, 0.00000000000000000000e+00) (0, 0, 0.00000000000000000000e+00) (0, 0, 0.00000000000000000000e+00) (0, 0, 0.00000000000000000000e+00) (0, 0, 0.00000000000000000000e+00) (0, 0, 0.00000000000000000000e+00) (0, 0, 0.00000000000000000000e+00) (0, 0, 0.00000000000000000000e+00) (0, 0, 0.00000000000000000000e+00) (0, 0, 0.00000000000000000000e+00) (0, 0, 0.00000000000000000000e+00) (0, 0, 0.00000000000000000000e+00) (0, 0, 0.00000000000000000000e+00) (0, 0, 0.00000000000000000000e+00) (0, 0, 0.00000000000000000000e+00) (0, 0, 0.00000000000000000000e+00) (0, 0, 0.00000000000000000000e+00) (0, 0, 0.00000000000000000000e+00) (0, 0, 0.00000000000000000000e+00) (0, 0, 0.00000000000000000000e+00) (0, 0, 0.00000000000000000000e+00) (0, 0, 0.00000000000000000000e+00) (0, 0, 0.00000000000000000000e+00) (0, 0, 0.00000000000000000000e+00) (0, 0, 0.00000000000000000000e+00) (0, 0, 0.00000000000000000000e+00) (0, 0, 0.00000000000000000000e+00) (0, 0, 0.00000000000000000000e+00) (0, 0, 0.00000000000000000000e+00) (0, 0, 0.00000000000000000000e+00) (0, 0, 0.00000000000000000000e+00) (0, 0, 0.00000000000000000000e+00) (0, 0, 0.00000000000000000000e+00) (0, 0, 0.00000000000000000000e+00) (0, 0, 0.00000000000000000000e+00) (0, 0, 0.00000000000000000000e+00) (0, 0, 0.00000000000000000000e+00) (0, 0, 0.00000000000000000000e+00) (0, 0, 0.00000000000000000000e+00) (0, 0, 0.00000000000000000000e+00) (0, 0, 0.00000000000000000000e+00) (0, 0, 0.00000000000000000000e+00) (0, 0, 0.00000000000000000000e+00) (0, 0, 0.00000000000000000000e+00) (0, 0, 0.00000000000000000000e+00) (0, 0, 0.00000000000000000000e+00) (0, 0, 0.00000000000000000000e+00) (0, 0, 0.00000000000000000000e+00) (0, 0, 0.00000000000000000000e+00) (0, 0, 0.00000000000000000000e+00) (0, 0, 0.00000000000000000000e+00) (0, 0, 0.00000000000000000000e+00) (0, 0, 0.00000000000000000000e+00) (0, 0, 0.00000000000000000000e+00) (0, 0, 0.00000000000000000000e+00) (0, 0, 0.00000000000000000000e+00) (0, 0, 0.00000000000000000000e+00) (0, 0, 0.00000000000000000000e+00) (0, 0, 0.00000000000000000000e+00) (0, 0, 0.00000000000000000000e+00) (0, 0, 0.00000000000000000000e+00) (0, 0, 0.00000000000000000000e+00) (0, 0, 0.00000000000000000000e+00) (0, 0, 0.00000000000000000000e+00) (0, 0, 0.00000000000000000000e+00) (0, 0, 0.00000000000000000000e+00) (0, 0, 0.00000000000000000000e+00) (0, 0, 0.00000000000000000000e+00) (0, 0, 0.00000000000000000000e+00) (0, 0, 0.00000000000000000000e+00) (0, 0, 0.00000000000000000000e+00) (0, 0, 0.00000000000000000000e+00) (0, 0, 0.00000000000000000000e+00) (0, 0, 0.00000000000000000000e+00) (0, 0, 0.00000000000000000000e+00) (0, 0, 0.00000000000000000000e+00) (0, 0, 0.00000000000000000000e+00) (0, 0, 0.00000000000000000000e+00) (0, 0, 0.00000000000000000000e+00) (0, 0, 0.00000000000000000000e+00) (0, 0, 0.00000000000000000000e+00) (0, 0, 0.00000000000000000000e+00) (0, 0, 0.00000000000000000000e+00) (0, 0, 0.00000000000000000000e+00) (0, 0, 0.00000000000000000000e+00) (0, 0, 0.00000000000000000000e+00) (0, 0, 0.00000000000000000000e+00) (0, 0, 0.00000000000000000000e+00) (0, 0, 0.00000000000000000000e+00) (0, 0, 0.00000000000000000000e+00) (0, 0, 0.00000000000000000000e+00) (0, 0, 0.00000000000000000000e+00) (0, 0, 0.00000000000000000000e+00) (0, 0, 0.00000000000000000000e+00) (0, 0, 0.00000000000000000000e+00) (0, 0, 0.00000000000000000000e+00) (0, 0, 0.00000000000000000000e+00) (0, 0, 0.00000000000000000000e+00) (0, 0, 0.00000000000000000000e+00) (0, 0, 0.00000000000000000000e+00) (0, 0, 0.00000000000000000000e+00) (0, 0, 0.00000000000000000000e+00) (0, 0, 0.00000000000000000000e+00) (0, 0, 0.00000000000000000000e+00) (0, 0, 0.00000000000000000000e+00) (0, 0, 0.00000000000000000000e+00) (0, 0, 0.00000000000000000000e+00) (0, 0, 0.00000000000000000000e+00) (0, 0, 0.00000000000000000000e+00) (0, 0, 0.00000000000000000000e+00) (0, 0, 0.00000000000000000000e+00) (0, 0, 0.00000000000000000000e+00) (0, 0, 0.00000000000000000000e+00) (0, 0, 0.00000000000000000000e+00) (0, 0, 0.00000000000000000000e+00) (0, 0, 0.00000000000000000000e+00) (0, 0, 0.00000000000000000000e+00) (0, 0, 0.00000000000000000000e+00) (0, 0, 0.00000000000000000000e+00) (0, 0, 0.00000000000000000000e+00) (0, 0, 0.00000000000000000000e+00) (0, 0, 0.00000000000000000000e+00) (203, 5, 5.00000000000000000000e-01) (203, 5, 5.00000000000000000000e-01) (203, 5, 5.00000000000000000000e-01) (203, 5, 5.00000000000000000000e-01) (203, 5, 5.00000000000000000000e-01) (203, 5, 5.00000000000000000000e-01) (203, 5, 5.00000000000000000000e-01) (203, 5, 5.00000000000000000000e-01) (203, 5, 5.00000000000000000000e-01) (203, 5, 5.00000000000000000000e-01) (203, 5, 5.00000000000000000000e-01) (203, 5, 5.00000000000000000000e-01) (203, 5, 5.00000000000000000000e-01) (203, 5, 5.00000000000000000000e-01) (203, 5, 5.00000000000000000000e-01) (203, 5, 5.00000000000000000000e-01) (203, 5, 5.00000000000000000000e-01) (203, 5, 5.00000000000000000000e-01) (203, 5, 5.00000000000000000000e-01) (203, 5, 5.00000000000000000000e-01) (203, 5, 5.00000000000000000000e-01) (203, 5, 5.00000000000000000000e-01) (203, 5, 5.00000000000000000000e-01) (203, 5, 5.00000000000000000000e-01) (203, 5, 5.00000000000000000000e-01) (203, 5, 5.00000000000000000000e-01) (203, 5, 5.00000000000000000000e-01) (203, 5, 5.00000000000000000000e-01) (203, 5, 5.00000000000000000000e-01) (203, 5, 5.00000000000000000000e-01) (203, 5, 5.00000000000000000000e-01) (203, 5, 5.00000000000000000000e-01) (203, 5, 5.00000000000000000000e-01) (203, 5, 5.00000000000000000000e-01) (203, 5, 5.00000000000000000000e-01) (203, 5, 5.00000000000000000000e-01) (203, 5, 5.00000000000000000000e-01) (203, 5, 5.00000000000000000000e-01) (203, 5, 5.00000000000000000000e-01) (203, 5, 5.00000000000000000000e-01) (203, 5, 5.00000000000000000000e-01) (203, 5, 5.00000000000000000000e-01) (203, 5, 5.00000000000000000000e-01) (203, 5, 5.00000000000000000000e-01) (203, 5, 5.00000000000000000000e-01) (203, 5, 5.00000000000000000000e-01) (203, 5, 5.00000000000000000000e-01) (203, 5, 5.00000000000000000000e-01) (203, 5, 5.00000000000000000000e-01) (203, 5, 5.00000000000000000000e-01) (203, 5, 5.00000000000000000000e-01) (203, 5, 5.00000000000000000000e-01) (203, 5, 5.00000000000000000000e-01) (203, 5, 5.00000000000000000000e-01) (203, 5, 5.00000000000000000000e-01) (203, 5, 5.00000000000000000000e-01) (203, 5, 5.00000000000000000000e-01) (203, 5, 5.00000000000000000000e-01) (203, 5, 5.00000000000000000000e-01) (203, 5, 5.00000000000000000000e-01) (203, 5, 5.00000000000000000000e-01) (203, 5, 5.00000000000000000000e-01) (203, 5, 5.00000000000000000000e-01) (203, 5, 5.00000000000000000000e-01) (203, 5, 5.00000000000000000000e-01) (203, 5, 5.00000000000000000000e-01) (203, 5, 5.00000000000000000000e-01) (203, 5, 5.00000000000000000000e-01) (203, 5, 5.00000000000000000000e-01) (203, 5, 5.00000000000000000000e-01) (203, 5, 5.00000000000000000000e-01) (203, 5, 5.00000000000000000000e-01) (203, 5, 5.00000000000000000000e-01) (203, 5, 5.00000000000000000000e-01) (203, 5, 5.00000000000000000000e-01) (203, 5, 5.00000000000000000000e-01) (203, 5, 5.00000000000000000000e-01) (203, 5, 5.00000000000000000000e-01) (203, 5, 5.00000000000000000000e-01) (203, 5, 5.00000000000000000000e-01) (203, 5, 5.00000000000000000000e-01) (0, 5, 0.00000000000000000000e+00) (82, 5, 5.00000000000000000000e-01) (82, 5, 5.00000000000000000000e-01) (82, 5, 5.00000000000000000000e-01) (82, 5, 5.00000000000000000000e-01) (82, 5, 5.00000000000000000000e-01) (82, 5, 5.00000000000000000000e-01) (82, 5, 5.00000000000000000000e-01) (82, 5, 5.00000000000000000000e-01) (82, 5, 5.00000000000000000000e-01) (82, 5, 5.00000000000000000000e-01) (82, 5, 5.00000000000000000000e-01) (82, 5, 5.00000000000000000000e-01) (82, 5, 5.00000000000000000000e-01) (82, 5, 5.00000000000000000000e-01) (82, 5, 5.00000000000000000000e-01) (82, 5, 5.00000000000000000000e-01) (82, 5, 5.00000000000000000000e-01) (82, 5, 5.00000000000000000000e-01) (82, 5, 5.00000000000000000000e-01) (82, 5, 5.00000000000000000000e-01) (82, 5, 5.00000000000000000000e-01) (82, 5, 5.00000000000000000000e-01) (82, 5, 5.00000000000000000000e-01) (82, 5, 5.00000000000000000000e-01) (82, 5, 5.00000000000000000000e-01) (82, 5, 5.00000000000000000000e-01) (82, 5, 5.00000000000000000000e-01) (82, 5, 5.00000000000000000000e-01) (82, 5, 5.00000000000000000000e-01) (82, 5, 5.00000000000000000000e-01) (82, 5, 5.00000000000000000000e-01) (82, 5, 5.00000000000000000000e-01) (82, 5, 5.00000000000000000000e-01) (82, 5, 5.00000000000000000000e-01) (82, 5, 5.00000000000000000000e-01) (82, 5, 5.00000000000000000000e-01) (82, 5, 5.00000000000000000000e-01) (82, 5, 5.00000000000000000000e-01) (82, 5, 5.00000000000000000000e-01) (82, 5, 5.00000000000000000000e-01) (82, 5, 5.00000000000000000000e-01) (82, 5, 5.00000000000000000000e-01) (82, 5, 5.00000000000000000000e-01) (82, 5, 5.00000000000000000000e-01) (82, 5, 5.00000000000000000000e-01) (82, 5, 5.00000000000000000000e-01) (82, 5, 5.00000000000000000000e-01) (82, 5, 5.00000000000000000000e-01) (82, 5, 5.00000000000000000000e-01) (82, 5, 5.00000000000000000000e-01) (82, 5, 5.00000000000000000000e-01) (82, 5, 5.00000000000000000000e-01) (82, 5, 5.00000000000000000000e-01) (82, 5, 5.00000000000000000000e-01) (82, 5, 5.00000000000000000000e-01) (82, 5, 5.00000000000000000000e-01) (82, 5, 5.00000000000000000000e-01) (82, 5, 5.00000000000000000000e-01) (82, 5, 5.00000000000000000000e-01) (82, 5, 5.00000000000000000000e-01) (82, 5, 5.00000000000000000000e-01) (82, 5, 5.00000000000000000000e-01) (82, 5, 5.00000000000000000000e-01) (82, 5, 5.00000000000000000000e-01) (82, 5, 5.00000000000000000000e-01) (82, 5, 5.00000000000000000000e-01) (82, 5, 5.00000000000000000000e-01) (82, 5, 5.00000000000000000000e-01) (82, 5, 5.00000000000000000000e-01) (82, 5, 5.00000000000000000000e-01) (82, 5, 5.00000000000000000000e-01) (82, 5, 5.00000000000000000000e-01) (82, 5, 5.00000000000000000000e-01) (82, 5, 5.00000000000000000000e-01) (82, 5, 5.00000000000000000000e-01) (82, 5, 5.00000000000000000000e-01) (82, 5, 5.00000000000000000000e-01) (82, 5, 5.00000000000000000000e-01) (82, 5, 5.00000000000000000000e-01) (82, 5, 5.00000000000000000000e-01) (82, 5, 5.00000000000000000000e-01) (82, 5, 5.00000000000000000000e-01) (82, 5, 5.00000000000000000000e-01) (82, 5, 5.00000000000000000000e-01) (82, 5, 5.00000000000000000000e-01) (82, 5, 5.00000000000000000000e-01) (82, 5, 5.00000000000000000000e-01) (82, 5, 5.00000000000000000000e-01) (82, 5, 5.00000000000000000000e-01) (82, 5, 5.00000000000000000000e-01) (82, 5, 5.00000000000000000000e-01) (82, 5, 5.00000000000000000000e-01) (82, 5, 5.00000000000000000000e-01) (82, 5, 5.00000000000000000000e-01) (82, 5, 5.00000000000000000000e-01) (82, 5, 5.00000000000000000000e-01) (82, 5, 5.00000000000000000000e-01) (82, 5, 5.00000000000000000000e-01) (82, 5, 5.00000000000000000000e-01) (82, 5, 5.00000000000000000000e-01) (0, 5, 0.00000000000000000000e+00)
connections (connected_to_neuron, weight)=(0, -2.03287857055664062500e+02) (1, 7.26238822937011718750e+00) (2, -3.10752773284912109375e+01) (3, 6.36895847320556640625e+00) (4, 1.77133834362030029297e+00) (5, 7.96368169784545898438e+00) (6, 1.81861865520477294922e+00) (7, 5.40168905258178710938e+00) (8, 9.66863155364990234375e+00) (9, 9.45268917083740234375e+00) (10, -2.48765015602111816406e+00) (11, 5.36757564544677734375e+00) (12, 4.95044374465942382812e+00) (13, 7.43418979644775390625e+00) (14, 2.27680835723876953125e+01) (15, 9.07163810729980468750e+00) (16, 7.67426528930664062500e+01) (17, 8.03581142425537109375e+00) (18, 1.46893415451049804688e+01) (19, 6.92142581939697265625e+00) (20, 4.90958557128906250000e+01) (21, 1.99042797088623046875e+01) (22, 6.11797904968261718750e+01) (23, 6.49377346038818359375e+00) (24, 6.52841234207153320312e+00) (25, 6.70482015609741210938e+00) (26, -5.47600463867187500000e+02) (27, 6.52561092376708984375e+00) (28, 3.53785943984985351562e+00) (29, 8.38448047637939453125e+00) (30, 1.18902225494384765625e+01) (31, 6.38167476654052734375e+00) (32, -1.29827136230468750000e+03) (33, 8.82199382781982421875e+00) (34, 4.43183746337890625000e+01) (35, 6.29506063461303710938e+00) (36, 1.99755401611328125000e+01) (37, 8.12917518615722656250e+00) (38, 5.54522562026977539062e+00) (39, 9.26449966430664062500e+00) (40, 3.10071158409118652344e+00) (41, 9.54229354858398437500e+00) (42, 9.28843212127685546875e+00) (43, 8.36580371856689453125e+00) (44, -8.03759574890136718750e+00) (45, 5.34412765502929687500e+00) (46, 3.52066993713378906250e+01) (47, 4.94812469482421875000e+01) (48, 7.57657623291015625000e+01) (49, 5.80556154251098632812e+00) (50, 2.05279953002929687500e+02) (51, 6.05520296096801757812e+00) (52, 1.19308509826660156250e+01) (53, 5.78962469100952148438e+00) (54, 7.79535034179687500000e+02) (55, 6.69645404815673828125e+00) (56, 1.41131734848022460938e+01) (57, 6.15905094146728515625e+00) (58, -3.84730386734008789062e+00) (59, 7.29862451553344726562e+00) (60, 9.29730224609375000000e+01) (61, 7.94561910629272460938e+00) (62, -1.74307384490966796875e+01) (63, 5.79691267013549804688e+00) (64, -2.60008096694946289062e+00) (65, 2.91495513916015625000e+00) (66, -2.18690032958984375000e+02) (67, 4.36915588378906250000e+00) (68, -6.46036911010742187500e+01) (69, 7.13179397583007812500e+00) (70, 7.61249637603759765625e+00) (71, 6.86830663681030273438e+00) (72, -1.84778480529785156250e+01) (73, 2.59290618896484375000e+01) (74, -3.89158355712890625000e+02) (75, 1.81748962402343750000e+01) (76, 4.20511198043823242188e+00) (77, 4.41102552413940429688e+00) (78, 2.47492671012878417969e+00) (79, 5.93821382522583007812e+00) (80, 6.98533296585083007812e+00) (81, 5.26897764205932617188e+00) (82, 1.06621723175048828125e+01) (83, 5.91734361648559570312e+00) (84, 8.35372447967529296875e+00) (85, 7.62928581237792968750e+00) (86, 4.78702211380004882812e+00) (87, 4.32485008239746093750e+00) (88, -2.03538227081298828125e+01) (89, 1.10995998382568359375e+01) (90, 5.32181072235107421875e+00) (91, 7.24245500564575195312e+00) (92, 5.47214355468750000000e+01) (93, 9.08049678802490234375e+00) (94, 1.32757125854492187500e+02) (95, 8.29893589019775390625e+00) (96, 8.77468967437744140625e+00) (97, 8.94175815582275390625e+00) (98, 4.78837394714355468750e+00) (99, 1.86826496124267578125e+01) (100, 4.68987989425659179688e+00) (101, 7.85688781738281250000e+00) (102, 6.92329978942871093750e+00) (103, 5.33795881271362304688e+00) (104, 1.45507688522338867188e+01) (105, 1.93614733219146728516e+00) (106, 6.88998508453369140625e+00) (107, 9.26934337615966796875e+00) (108, 9.92302703857421875000e+00) (109, 6.80979299545288085938e+00) (110, 5.76282310485839843750e+00) (111, 9.03009414672851562500e+00) (112, 6.78893661499023437500e+00) (113, 4.78663301467895507812e+00) (114, 5.31705665588378906250e+00) (115, 1.11978054046630859375e+00) (116, 9.58884506225585937500e+01) (117, 2.31817078590393066406e+00) (118, 8.44172439575195312500e+01) (119, 3.80213230848312377930e-01) (120, 7.04229354858398437500e+00) (121, 2.62826848030090332031e+00) (122, 1.11066207885742187500e+01) (123, 6.88139247894287109375e+00) (124, 3.13575839996337890625e+00) (125, 2.67555356025695800781e+00) (126, 3.63204598426818847656e+00) (127, 1.90021820068359375000e+01) (128, 1.35433855056762695312e+01) (129, 4.03378438949584960938e+00) (130, 2.67696619033813476562e+00) (131, 3.88512301445007324219e+00) (132, 8.54114055633544921875e+00) (133, 6.80039024353027343750e+00) (134, 5.11596155166625976562e+00) (135, 4.75953578948974609375e+00) (136, 5.41408157348632812500e+00) (137, 5.20391321182250976562e+00) (138, 9.96468734741210937500e+01) (139, 1.21977777481079101562e+01) (140, 6.52096223831176757812e+00) (141, 6.28391695022583007812e+00) (142, 4.75845146179199218750e+00) (143, 3.38181924819946289062e+00) (144, 1.95866088867187500000e+02) (145, 4.98795461654663085938e+00) (146, 1.32230892181396484375e+01) (147, 6.04900312423706054688e+00) (148, 1.42624368667602539062e+01) (149, 4.64405822753906250000e+00) (150, 4.84120035171508789062e+00) (151, 2.00531363487243652344e+00) (152, -7.55300064086914062500e+01) (153, 9.65135955810546875000e+00) (154, -1.38230712890625000000e+02) (155, 7.10918474197387695312e+00) (156, 1.69954204559326171875e+00) (157, 4.90706205368041992188e+00) (158, 1.58472001552581787109e+00) (159, 2.51043868064880371094e+00) (160, 5.46895265579223632812e+00) (161, 5.71292459964752197266e-01) (162, 2.63618516921997070312e+00) (163, 2.29272976517677307129e-01) (164, -8.97136077880859375000e+01) (165, 1.98625576496124267578e+00) (166, -1.25606582641601562500e+02) (167, 1.27468571066856384277e-01) (168, 6.32902574539184570312e+00) (169, 8.68151187896728515625e+00) (170, 4.92966079711914062500e+00) (171, 6.75631952285766601562e+00) (172, 3.72061119079589843750e+01) (173, 5.58903932571411132812e+00) (174, 2.86461486816406250000e+01) (175, 5.56936740875244140625e+00) (176, 6.17407989501953125000e+00) (177, 8.12082099914550781250e+00) (178, 5.88284349441528320312e+00) (179, 3.66719245910644531250e+00) (180, 3.32232147216796875000e+02) (181, 7.38558387756347656250e+00) (182, -1.54554794311523437500e+02) (183, 6.00192546844482421875e+00) (184, 1.21561870574951171875e+01) (185, 5.36806297302246093750e+00) (186, 1.57441501617431640625e+01) (187, 3.57321333885192871094e+00) (188, 1.12603349685668945312e+01) (189, 8.42585372924804687500e+00) (190, 4.77945404052734375000e+02) (191, 3.40971231460571289062e+00) (192, 4.69212585449218750000e+02) (193, 7.36301088333129882812e+00) (194, -1.30648742675781250000e+02) (195, 8.31383323669433593750e+00) (196, 1.50000000000000000000e+03) (197, 1.50000000000000000000e+03) (198, 1.50000000000000000000e+03) (199, 1.50000000000000000000e+03) (200, 4.54764318466186523438e+00) (201, 5.99569654464721679688e+00) (202, -1.15879726409912109375e+00) (0, 1.50000000000000000000e+03) (1, -1.46869396972656250000e+03) (2, 1.50000000000000000000e+03) (3, 1.50000000000000000000e+03) (4, 1.50000000000000000000e+03) (5, 1.50000000000000000000e+03) (6, 1.50000000000000000000e+03) (7, 1.50000000000000000000e+03) (8, 1.49817602539062500000e+03) (9, 1.49991271972656250000e+03) (10, -1.49985559082031250000e+03) (11, 1.50000000000000000000e+03) (12, 1.49905029296875000000e+03) (13, 1.50000000000000000000e+03) (14, -1.50000000000000000000e+03) (15, -1.50000000000000000000e+03) (16, 1.50000000000000000000e+03) (17, -1.50000000000000000000e+03) (18, 1.50000000000000000000e+03) (19, -1.04689135742187500000e+03) (20, -1.50000000000000000000e+03) (21, -1.49975061035156250000e+03) (22, -1.50000000000000000000e+03) (23, -1.50000000000000000000e+03) (24, -1.50000000000000000000e+03) (25, -1.49999926757812500000e+03) (26, -1.50000000000000000000e+03) (27, -1.50000000000000000000e+03) (28, -1.10126879882812500000e+03) (29, -1.50000000000000000000e+03) (30, -1.50000000000000000000e+03) (31, -1.50000000000000000000e+03) (32, -1.50000000000000000000e+03) (33, -1.50000000000000000000e+03) (34, 1.50000000000000000000e+03) (35, -1.50000000000000000000e+03) (36, -1.49939501953125000000e+03) (37, -1.50000000000000000000e+03) (38, -1.49956469726562500000e+03) (39, -1.49881286621093750000e+03) (40, -1.50000000000000000000e+03) (41, -1.49889001464843750000e+03) (42, 1.49737402343750000000e+03) (43, -1.49958654785156250000e+03) (44, 1.50000000000000000000e+03) (45, -1.49820764160156250000e+03) (46, 1.50000000000000000000e+03) (47, -1.49944812011718750000e+03) (48, 1.50000000000000000000e+03) (49, 1.50000000000000000000e+03) (50, 1.50000000000000000000e+03) (51, -1.49270520019531250000e+03) (52, 1.50000000000000000000e+03) (53, 1.50000000000000000000e+03) (54, 1.50000000000000000000e+03) (55, 1.50000000000000000000e+03) (56, 1.50000000000000000000e+03) (57, -1.49768127441406250000e+03) (58, 1.47515380859375000000e+03) (59, -1.49451647949218750000e+03) (60, -1.50000000000000000000e+03) (61, -1.50000000000000000000e+03) (62, -1.50000000000000000000e+03) (63, 1.49816601562500000000e+03) (64, -1.50000000000000000000e+03) (65, -1.50000000000000000000e+03) (66, 1.14881091308593750000e+03) (67, 1.50000000000000000000e+03) (68, 1.50000000000000000000e+03) (69, 1.49926452636718750000e+03) (70, 1.49852233886718750000e+03) (71, -1.50000000000000000000e+03) (72, -1.50000000000000000000e+03) (73, 9.55623657226562500000e+02) (74, -1.50000000000000000000e+03) (75, -1.50000000000000000000e+03) (76, -1.29535363769531250000e+03) (77, -1.49962023925781250000e+03) (78, -1.50000000000000000000e+03) (79, -1.50000000000000000000e+03) (80, 1.50000000000000000000e+03) (81, -1.50000000000000000000e+03) (82, 1.49918627929687500000e+03) (83, -1.50000000000000000000e+03) (84, 1.50000000000000000000e+03) (85, -1.50000000000000000000e+03) (86, -1.49969262695312500000e+03) (87, -1.50000000000000000000e+03) (88, 1.50000000000000000000e+03) (89, 1.48725378417968750000e+03) (90, 1.45836682128906250000e+03) (91, -1.48714733886718750000e+03) (92, 1.49840576171875000000e+03) (93, 1.50000000000000000000e+03) (94, 1.50000000000000000000e+03) (95, 1.50000000000000000000e+03) (96, 1.50000000000000000000e+03) (97, 1.50000000000000000000e+03) (98, 1.48057202148437500000e+03) (99, 1.50000000000000000000e+03) (100, 1.50000000000000000000e+03) (101, 1.50000000000000000000e+03) (102, 1.50000000000000000000e+03) (103, 1.49987585449218750000e+03) (104, 1.50000000000000000000e+03) (105, 1.49652917480468750000e+03) (106, 1.50000000000000000000e+03) (107, 7.34812927246093750000e+01) (108, 1.50000000000000000000e+03) (109, 1.50000000000000000000e+03) (110, -1.49762097167968750000e+03) (111, -1.49986938476562500000e+03) (112, 1.50000000000000000000e+03) (113, -1.49986999511718750000e+03) (114, -1.48856542968750000000e+03) (115, 1.49785791015625000000e+03) (116, 1.28961523437500000000e+03) (117, 1.42400341796875000000e+03) (118, 1.50000000000000000000e+03) (119, 1.49863073730468750000e+03) (120, 1.50000000000000000000e+03) (121, 1.49402075195312500000e+03) (122, 1.50000000000000000000e+03) (123, 1.50000000000000000000e+03) (124, 1.50000000000000000000e+03) (125, 1.50000000000000000000e+03) (126, 1.50000000000000000000e+03) (127, 1.50000000000000000000e+03) (128, 1.50000000000000000000e+03) (129, 1.50000000000000000000e+03) (130, 1.50000000000000000000e+03) (131, 1.50000000000000000000e+03) (132, 1.50000000000000000000e+03) (133, -1.49949475097656250000e+03) (134, 1.50000000000000000000e+03) (135, 1.50000000000000000000e+03) (136, 1.50000000000000000000e+03) (137, 1.50000000000000000000e+03) (138, 1.45619921875000000000e+03) (139, 1.49954785156250000000e+03) (140, -1.50000000000000000000e+03) (141, 1.50000000000000000000e+03) (142, -1.49920996093750000000e+03) (143, -1.43874462890625000000e+03) (144, 6.29076782226562500000e+02) (145, -1.49521374511718750000e+03) (146, 1.47486450195312500000e+03) (147, -1.49973083496093750000e+03) (148, 1.50000000000000000000e+03) (149, 1.49941516113281250000e+03) (150, 1.50000000000000000000e+03) (151, 1.50000000000000000000e+03) (152, 1.50000000000000000000e+03) (153, 1.50000000000000000000e+03) (154, 1.50000000000000000000e+03) (155, 1.50000000000000000000e+03) (156, 1.50000000000000000000e+03) (157, 1.50000000000000000000e+03) (158, 1.50000000000000000000e+03) (159, 1.50000000000000000000e+03) (160, -8.52483398437500000000e+02) (161, -1.04625585937500000000e+03) (162, 1.50000000000000000000e+03) (163, 1.49892956542968750000e+03) (164, 1.50000000000000000000e+03) (165, 1.49051635742187500000e+03) (166, 1.50000000000000000000e+03) (167, -1.50000000000000000000e+03) (168, 3.04519042968750000000e+01) (169, 1.49875964355468750000e+03) (170, 1.50000000000000000000e+03) (171, 1.48960241699218750000e+03) (172, 1.50000000000000000000e+03) (173, -1.50000000000000000000e+03) (174, 1.50000000000000000000e+03) (175, 1.50000000000000000000e+03) (176, 1.50000000000000000000e+03) (177, -1.49854956054687500000e+03) (178, 1.50000000000000000000e+03) (179, -1.49947192382812500000e+03) (180, 1.50000000000000000000e+03) (181, 1.50000000000000000000e+03) (182, -1.50000000000000000000e+03) (183, -1.49905163574218750000e+03) (184, 1.49808142089843750000e+03) (185, 1.50000000000000000000e+03) (186, -1.34264328002929687500e+02) (187, -1.50000000000000000000e+03) (188, 1.50000000000000000000e+03) (189, -1.50000000000000000000e+03) (190, 1.50000000000000000000e+03) (191, -1.50000000000000000000e+03) (192, 1.50000000000000000000e+03) (193, -1.49741369628906250000e+03) (194, -1.50000000000000000000e+03) (195, 1.49885827636718750000e+03) (196, 1.50000000000000000000e+03) (197, 1.50000000000000000000e+03) (198, 1.50000000000000000000e+03) (199, 1.50000000000000000000e+03) (200, 1.49574829101562500000e+03) (201, -1.50000000000000000000e+03) (202, -1.49990417480468750000e+03) (0, 1.84122638702392578125e+01) (1, 8.25701415538787841797e-01) (2, 2.20013141632080078125e+01) (3, 6.69651746749877929688e-01) (4, 6.77829504013061523438e+00) (5, 4.01537513732910156250e+00) (6, 2.70459699630737304688e+00) (7, 2.99521517753601074219e+00) (8, 1.64657821655273437500e+01) (9, 4.32367658615112304688e+00) (10, 2.04266376495361328125e+01) (11, 4.56285667419433593750e+00) (12, 8.47057533264160156250e+00) (13, 4.74640846252441406250e+00) (14, 4.45941829681396484375e+00) (15, 3.68500590324401855469e+00) (16, 1.07978963851928710938e+01) (17, 2.50814294815063476562e+00) (18, 7.61961078643798828125e+00) (19, 5.57411849498748779297e-01) (20, -5.54911661148071289062e+00) (21, 3.43975734710693359375e+00) (22, 3.73276758193969726562e+00) (23, 2.53017616271972656250e+00) (24, 3.69155192375183105469e+00) (25, 4.97203874588012695312e+00) (26, -1.43193695068359375000e+02) (27, 6.99582004547119140625e+00) (28, 5.53800201416015625000e+00) (29, 8.39365673065185546875e+00) (30, -7.88263499736785888672e-01) (31, 3.66726541519165039062e+00) (32, -2.45339645385742187500e+02) (33, 4.10285472869873046875e+00) (34, 1.41780300140380859375e+01) (35, 1.58024632930755615234e+00) (36, 2.05219483375549316406e+00) (37, -1.51558303833007812500e+00) (38, 2.67434978485107421875e+00) (39, 2.79764294624328613281e+00) (40, 3.40708041191101074219e+00) (41, 4.07734584808349609375e+00) (42, 9.05891704559326171875e+00) (43, 4.65955305099487304688e+00) (44, 2.25999317169189453125e+01) (45, 3.87334036827087402344e+00) (46, 7.52528991699218750000e+01) (47, 2.19654679298400878906e+00) (48, 6.93487215042114257812e+00) (49, 2.35389328002929687500e+00) (50, 1.34114971160888671875e+01) (51, 3.06520962715148925781e+00) (52, 3.40990486145019531250e+01) (53, -1.71911984682083129883e-01) (54, 1.10187004089355468750e+02) (55, 1.21909689903259277344e+00) (56, 6.36742973327636718750e+00) (57, 5.87868690490722656250e+00) (58, -3.23525733947753906250e+01) (59, 2.09054923057556152344e+00) (60, 9.42211437225341796875e+00) (61, 4.71790838241577148438e+00) (62, 2.97564716339111328125e+01) (63, 8.52151966094970703125e+00) (64, 2.65101528167724609375e+00) (65, 2.18898439407348632812e+00) (66, 1.76594734191894531250e+01) (67, 3.18906092643737792969e+00) (68, -3.77505798339843750000e+01) (69, -9.67422187328338623047e-01) (70, 8.69558715820312500000e+00) (71, 3.84683489799499511719e+00) (72, -6.03898735046386718750e+01) (73, 1.61684596538543701172e+00) (74, -1.44646133422851562500e+02) (75, 5.73974895477294921875e+00) (76, 5.66872167587280273438e+00) (77, 8.11081123352050781250e+00) (78, 3.12594604492187500000e+00) (79, 4.01004409790039062500e+00) (80, 7.90362930297851562500e+00) (81, 2.01943564414978027344e+00) (82, 3.90894579887390136719e+00) (83, 4.33618974685668945312e+00) (84, 5.87821817398071289062e+00) (85, 6.33625745773315429688e+00) (86, 4.13275480270385742188e+00) (87, 3.49840426445007324219e+00) (88, 8.71800708770751953125e+00) (89, 8.09737205505371093750e+00) (90, 5.46756505966186523438e+00) (91, 7.23170423507690429688e+00) (92, 6.99509048461914062500e+00) (93, 5.22526407241821289062e+00) (94, -2.27384781837463378906e+00) (95, 5.94071769714355468750e+00) (96, 4.38292455673217773438e+00) (97, 5.43153524398803710938e+00) (98, 3.50203013420104980469e+00) (99, 5.37990283966064453125e+00) (100, 4.82401275634765625000e+00) (101, 1.17942750453948974609e+00) (102, 5.70268678665161132812e+00) (103, 3.89136195182800292969e+00) (104, 7.25244665145874023438e+00) (105, 1.05417914688587188721e-01) (106, 7.39990425109863281250e+00) (107, 3.43500733375549316406e+00) (108, 8.97916507720947265625e+00) (109, 6.07098627090454101562e+00) (110, 7.60403013229370117188e+00) (111, 4.47418069839477539062e+00) (112, 4.90014123916625976562e+00) (113, 6.10305488109588623047e-01) (114, 5.96667051315307617188e+00) (115, -1.73111736774444580078e+00) (116, 7.03185272216796875000e+00) (117, 2.52578568458557128906e+00) (118, 1.16779769897460937500e+02) (119, -2.03786849975585937500e+00) (120, 6.25729751586914062500e+00) (121, -5.37652015686035156250e-01) (122, 6.13298511505126953125e+00) (123, 2.37073376774787902832e-01) (124, 6.95401763916015625000e+00) (125, 6.58441305160522460938e+00) (126, 2.29792261123657226562e+00) (127, 5.06750392913818359375e+00) (128, 6.20618629455566406250e+00) (129, 2.56476664543151855469e+00) (130, 4.95987653732299804688e+00) (131, 5.63137626647949218750e+00) (132, 2.13921737670898437500e+00) (133, 2.62593841552734375000e+00) (134, -1.47136936187744140625e+01) (135, 1.71019637584686279297e+00) (136, 3.64539146423339843750e+00) (137, 1.48884153366088867188e+00) (138, 2.76373815536499023438e+00) (139, 2.10386919975280761719e+00) (140, -1.29389953613281250000e+00) (141, -1.32373690605163574219e+00) (142, 4.82790565490722656250e+00) (143, -5.87904393672943115234e-01) (144, 6.07280349731445312500e+00) (145, 1.12049961090087890625e+00) (146, 8.85726165771484375000e+00) (147, 3.44718098640441894531e+00) (148, 5.84233188629150390625e+00) (149, 4.52771854400634765625e+00) (150, 6.86718463897705078125e+00) (151, -7.63230264186859130859e-01) (152, 1.02326042175292968750e+02) (153, -1.58590281009674072266e+00) (154, -1.16909723281860351562e+01) (155, -1.44090068340301513672e+00) (156, 4.73929166793823242188e+00) (157, -8.39014291763305664062e-01) (158, 6.31527614593505859375e+00) (159, 3.07984399795532226562e+00) (160, 4.30295848846435546875e+00) (161, 1.22977507114410400391e+00) (162, 2.35341763496398925781e+00) (163, -1.06538450717926025391e+00) (164, 7.33486080169677734375e+00) (165, 1.26894629001617431641e+00) (166, -1.08530007302761077881e-01) (167, 2.74036616086959838867e-01) (168, 9.48540592193603515625e+00) (169, 5.97953033447265625000e+00) (170, 9.10165119171142578125e+00) (171, 4.36332273483276367188e+00) (172, 9.15908336639404296875e+00) (173, 5.53428936004638671875e+00) (174, 9.12468433380126953125e+00) (175, 6.51003170013427734375e+00) (176, 6.03440761566162109375e+00) (177, 5.50838136672973632812e+00) (178, 7.19263219833374023438e+00) (179, 1.56821429729461669922e+00) (180, -3.51832466125488281250e+01) (181, 1.44399034976959228516e+00) (182, -1.20085115432739257812e+01) (183, 1.69774305820465087891e+00) (184, 2.53274726867675781250e+01) (185, 7.37315607070922851562e+00) (186, -1.23712577819824218750e+01) (187, 1.15175724029541015625e+00) (188, 6.06956720352172851562e+00) (189, -1.70811593532562255859e-01) (190, 3.67184410095214843750e+01) (191, 9.54161703586578369141e-01) (192, 4.19649543762207031250e+01) (193, 2.57082056999206542969e+00) (194, 2.02732658386230468750e+00) (195, 2.19666290283203125000e+00) (196, 1.50000000000000000000e+03) (197, 1.50000000000000000000e+03) (198, 1.50000000000000000000e+03) (199, 1.50000000000000000000e+03) (200, 3.88748121261596679688e+00) (201, -2.28857135772705078125e+01) (202, -3.91288161277770996094e-01) (0, -6.09276275634765625000e+01) (1, 3.39375734329223632812e+00) (2, -9.41439819335937500000e+00) (3, 4.53620338439941406250e+00) (4, 1.40844845771789550781e+00) (5, 4.87050199508666992188e+00) (6, 2.14995932579040527344e+00) (7, 6.04049253463745117188e+00) (8, 7.64724874496459960938e+00) (9, 3.97095799446105957031e+00) (10, 4.42523384094238281250e+00) (11, 4.72769927978515625000e+00) (12, 6.71136474609375000000e+00) (13, 5.66594552993774414062e+00) (14, -2.63787478208541870117e-01) (15, 5.63641786575317382812e+00) (16, -1.41115064620971679688e+01) (17, 7.44327020645141601562e+00) (18, 3.05629301071166992188e+00) (19, 4.12849521636962890625e+00) (20, 1.26411306858062744141e+00) (21, 4.25398635864257812500e+00) (22, 3.80481100082397460938e+00) (23, 5.25245618820190429688e+00) (24, 2.32118344306945800781e+00) (25, 1.75157046318054199219e+00) (26, 3.53313331604003906250e+01) (27, 4.04261207580566406250e+00) (28, 5.15218019485473632812e+00) (29, 7.02661228179931640625e+00) (30, 3.67298126220703125000e+00) (31, 3.63220548629760742188e+00) (32, 8.82160854339599609375e+00) (33, 7.91428804397583007812e+00) (34, -7.95453033447265625000e+01) (35, 3.50656414031982421875e+00) (36, 4.99254369735717773438e+00) (37, 8.85280609130859375000e-01) (38, 2.38162279129028320312e+00) (39, 3.47123980522155761719e+00) (40, 2.40737390518188476562e+00) (41, 3.64430427551269531250e+00) (42, 2.30176854133605957031e+00) (43, 4.36212110519409179688e+00) (44, -3.02961230278015136719e+00) (45, 4.78526973724365234375e+00) (46, 1.41374215483665466309e-01) (47, 5.41196012496948242188e+00) (48, 8.10506439208984375000e+00) (49, 7.06759738922119140625e+00) (50, -1.68512535095214843750e+01) (51, 4.90165376663208007812e+00) (52, -2.43340778350830078125e+01) (53, -1.59936892986297607422e+00) (54, 4.69862136840820312500e+01) (55, 5.24429607391357421875e+00) (56, 1.10996952056884765625e+01) (57, 4.35386228561401367188e+00) (58, -8.69924449920654296875e+00) (59, 1.10650730133056640625e+00) (60, -3.07000389099121093750e+01) (61, 3.01340770721435546875e+00) (62, 4.21532535552978515625e+00) (63, 1.33379042148590087891e+00) (64, 1.20481185913085937500e+01) (65, 1.99523460865020751953e+00) (66, 1.04944438934326171875e+01) (67, 1.17800569534301757812e+00) (68, -7.26952314376831054688e+00) (69, 4.70340728759765625000e+00) (70, 5.85528898239135742188e+00) (71, 5.43156814575195312500e+00) (72, 1.01187431335449218750e+02) (73, 2.27610111236572265625e+00) (74, -4.32427406311035156250e+01) (75, 2.95537257194519042969e+00) (76, 3.95742201805114746094e+00) (77, 5.09576034545898437500e+00) (78, -1.37310576438903808594e+00) (79, 5.21882390975952148438e+00) (80, -2.15141868591308593750e+00) (81, 6.43984127044677734375e+00) (82, 1.32717168331146240234e+00) (83, 4.96900844573974609375e+00) (84, 3.47582012414932250977e-01) (85, 6.83175516128540039062e+00) (86, 3.53759980201721191406e+00) (87, 5.86567306518554687500e+00) (88, 3.19889450073242187500e+01) (89, 5.38826465606689453125e+00) (90, 1.29267430305480957031e+00) (91, 5.81844806671142578125e+00) (92, 8.49790954589843750000e+00) (93, 4.31900024414062500000e+00) (94, 7.00358819961547851562e+00) (95, 6.29608249664306640625e+00) (96, 4.80835437774658203125e+00) (97, 4.41406202316284179688e+00) (98, 6.34406328201293945312e+00) (99, 7.30701875686645507812e+00) (100, 4.75372123718261718750e+00) (101, -5.86014747619628906250e-01) (102, 4.89115095138549804688e+00) (103, -1.11134029924869537354e-01) (104, -2.42128753662109375000e+00) (105, 9.74304735660552978516e-01) (106, 1.60367950797080993652e-01) (107, 1.20369219779968261719e+00) (108, 4.64617156982421875000e+00) (109, 1.76484644412994384766e+00) (110, 3.13998675346374511719e+00) (111, 3.27794647216796875000e+00) (112, 5.19668960571289062500e+00) (113, 2.18904829025268554688e+00) (114, -7.20647239685058593750e+00) (115, 9.72102105617523193359e-01) (116, 3.38188320398330688477e-01) (117, 1.91514813899993896484e+00) (118, 1.01488006114959716797e+00) (119, 6.03781878948211669922e-01) (120, 3.22373938560485839844e+00) (121, 1.57471859455108642578e+00) (122, 7.97140979766845703125e+00) (123, -1.31029415130615234375e+00) (124, 6.09261453151702880859e-01) (125, 1.82831656932830810547e+00) (126, -2.01354503631591796875e+00) (127, -5.29293835163116455078e-01) (128, 7.55021929740905761719e-01) (129, -1.71120905876159667969e+00) (130, -1.89669620990753173828e+00) (131, 1.99797272682189941406e+00) (132, -1.09952664375305175781e+00) (133, 5.97198867797851562500e+00) (134, -4.45909309387207031250e+00) (135, 5.43502998352050781250e+00) (136, 1.26592397689819335938e+00) (137, 1.84530174732208251953e+00) (138, 6.43695783615112304688e+00) (139, 1.11191189289093017578e+00) (140, 1.11522932052612304688e+01) (141, 2.15524578094482421875e+00) (142, 4.07047080993652343750e+00) (143, 4.74309492111206054688e+00) (144, 8.02368545532226562500e+00) (145, 2.63286995887756347656e+00) (146, 1.73060917854309082031e+00) (147, 1.72812330722808837891e+00) (148, 4.31740331649780273438e+00) (149, 1.38173782825469970703e+00) (150, 8.32192325592041015625e+00) (151, -2.70196437835693359375e+00) (152, 1.31642562866210937500e+02) (153, 2.34672975540161132812e+00) (154, -3.05297069549560546875e+01) (155, -1.15392899513244628906e+00) (156, 4.40713262557983398438e+00) (157, 1.08983314037322998047e+00) (158, 4.06226205825805664062e+00) (159, 1.24395561218261718750e+00) (160, 5.71529340744018554688e+00) (161, 2.38850617408752441406e+00) (162, 5.28411293029785156250e+00) (163, 3.14454364776611328125e+00) (164, -4.14596481323242187500e+01) (165, 1.94362151622772216797e+00) (166, -3.20438146591186523438e+00) (167, 2.19533681869506835938e+00) (168, 4.37741428613662719727e-01) (169, 5.02036285400390625000e+00) (170, 7.71452903747558593750e+00) (171, 4.89169549942016601562e+00) (172, 9.06833934783935546875e+00) (173, 4.48739290237426757812e+00) (174, 1.39840393066406250000e+01) (175, 4.55382204055786132812e+00) (176, 6.35619258880615234375e+00) (177, 3.73834753036499023438e+00) (178, 4.23243236541748046875e+00) (179, -5.18848121166229248047e-01) (180, 3.55209088325500488281e+00) (181, 3.85163760185241699219e+00) (182, -2.53445482254028320312e+00) (183, 3.24949288368225097656e+00) (184, 2.25614261627197265625e+01) (185, 6.10367107391357421875e+00) (186, 1.54817175865173339844e+00) (187, 3.59612560272216796875e+00) (188, 8.91712093353271484375e+00) (189, 4.53157806396484375000e+00) (190, 6.98548965454101562500e+01) (191, 5.67187452316284179688e+00) (192, 1.43031692504882812500e+00) (193, 3.41454625129699707031e+00) (194, -1.63777744770050048828e+00) (195, 3.23905253410339355469e+00) (196, 1.50000000000000000000e+03) (197, 1.50000000000000000000e+03) (198, 1.50000000000000000000e+03) (199, 1.50000000000000000000e+03) (200, 3.05920206010341644287e-02) (201, -7.95000534057617187500e+01) (202, 1.38799023628234863281e+00) (0, 4.59395313262939453125e+00) (1, -1.98960900306701660156e+00) (2, 3.66776227951049804688e+00) (3, -5.06633818149566650391e-01) (4, 5.18339872360229492188e-01) (5, 1.01833499968051910400e-01) (6, 2.02651947736740112305e-01) (7, -1.21954035758972167969e+00) (8, 9.13202953338623046875e+00) (9, 2.42215037345886230469e+00) (10, 1.25217065811157226562e+01) (11, 4.90284919738769531250e+00) (12, 5.01948213577270507812e+00) (13, 3.67743611335754394531e+00) (14, 8.30520057678222656250e+00) (15, 6.02298736572265625000e+00) (16, -1.14425258636474609375e+01) (17, -1.24144935607910156250e+00) (18, -1.37359842658042907715e-01) (19, 2.35852980613708496094e+00) (20, -1.23536338806152343750e+01) (21, -2.18107700347900390625e+00) (22, 1.40482497215270996094e+00) (23, 8.48031818866729736328e-01) (24, 1.02981595993041992188e+01) (25, -1.07958853244781494141e+00) (26, 5.36837387084960937500e+01) (27, -6.94391608238220214844e-01) (28, -7.35029602050781250000e+00) (29, -2.34517931938171386719e+00) (30, -1.93102550506591796875e+01) (31, 1.89103937149047851562e+00) (32, 2.91590671539306640625e+01) (33, -1.89955639839172363281e+00) (34, 1.24455547332763671875e+01) (35, -1.58385097980499267578e+00) (36, -1.27990779876708984375e+01) (37, -8.70553433895111083984e-01) (38, 3.71040606498718261719e+00) (39, -4.59853112697601318359e-01) (40, 6.63550233840942382812e+00) (41, -1.66463446617126464844e+00) (42, 1.35725011825561523438e+01) (43, -1.86813318729400634766e+00) (44, 1.20906744003295898438e+01) (45, -1.42043554782867431641e+00) (46, -9.53057050704956054688e-01) (47, 1.99809208512306213379e-01) (48, -1.64180717468261718750e+01) (49, 4.78256464004516601562e-01) (50, -4.07269048690795898438e+00) (51, -1.34661301970481872559e-01) (52, 1.29613409042358398438e+01) (53, 3.25603437423706054688e+00) (54, -4.59590301513671875000e+01) (55, 6.35219991207122802734e-01) (56, 4.84048938751220703125e+00) (57, 3.16116571426391601562e+00) (58, 5.37618408203125000000e+01) (59, 2.97500753402709960938e+00) (60, 8.41637706756591796875e+00) (61, 7.55100440979003906250e+00) (62, 2.90752828121185302734e-01) (63, 2.12536787986755371094e+00) (64, 4.33859729766845703125e+00) (65, 6.18898105621337890625e+00) (66, -3.47433624267578125000e+01) (67, 5.54237031936645507812e+00) (68, 7.65923738479614257812e-01) (69, 6.68118619918823242188e+00) (70, 5.23715794086456298828e-01) (71, 6.61638927459716796875e+00) (72, -3.39555740356445312500e+01) (73, 1.34759497642517089844e+00) (74, 2.21331462860107421875e+01) (75, 4.18318986892700195312e-01) (76, -1.46348130702972412109e+00) (77, -1.52020704746246337891e+00) (78, 3.18658781051635742188e+00) (79, 1.61599695682525634766e+00) (80, -2.01207304000854492188e+00) (81, -1.14358477294445037842e-01) (82, -1.10475742816925048828e+00) (83, 4.69766974449157714844e-01) (84, 1.08614957332611083984e+00) (85, 2.49039506912231445312e+00) (86, -2.90772509574890136719e+00) (87, 5.56007623672485351562e-01) (88, 1.10114212036132812500e+01) (89, -1.64089524745941162109e+00) (90, 4.56302309036254882812e+00) (91, -9.93318557739257812500e-01) (92, -3.06172370910644531250e-01) (93, -6.77649497985839843750e-01) (94, 1.00329570770263671875e+01) (95, 1.36777746677398681641e+00) (96, -5.78775167465209960938e-01) (97, 2.56980419158935546875e-01) (98, -2.35248422622680664062e+00) (99, -1.37837672233581542969e+00) (100, -2.56124424934387207031e+00) (101, 3.09910655021667480469e+00) (102, -2.77184844017028808594e+00) (103, 9.90227401256561279297e-01) (104, -8.41083467006683349609e-01) (105, 1.65428805351257324219e+00) (106, 3.69719862937927246094e+00) (107, 1.15605425834655761719e+00) (108, 3.54135274887084960938e+00) (109, -2.17722153663635253906e+00) (110, -8.57009351253509521484e-01) (111, 1.75821328163146972656e+00) (112, -4.43299961090087890625e+00) (113, 3.75390243530273437500e+00) (114, -1.49851789474487304688e+01) (115, 2.47428655624389648438e+00) (116, -2.99465541839599609375e+01) (117, -3.99556684494018554688e+00) (118, -3.95107460021972656250e+01) (119, -2.59434849023818969727e-01) (120, 1.34958446025848388672e+00) (121, 8.19941520690917968750e+00) (122, 6.61019897460937500000e+00) (123, 3.64444708824157714844e+00) (124, -7.18644320964813232422e-01) (125, -1.03313362598419189453e+00) (126, -6.37294650077819824219e-01) (127, -1.34520411491394042969e+00) (128, -2.07216162234544754028e-02) (129, -5.13914711773395538330e-02) (130, 1.68079161643981933594e+00) (131, 1.45157921314239501953e+00) (132, 7.93058872222900390625e+00) (133, 2.77290701866149902344e+00) (134, 2.57830314636230468750e+01) (135, -1.51922202110290527344e+00) (136, -2.89739519357681274414e-01) (137, -8.10216426849365234375e-01) (138, 6.02728843688964843750e-01) (139, -6.92103326320648193359e-01) (140, 9.27473664283752441406e-01) (141, 3.17358160018920898438e+00) (142, -8.56999695301055908203e-01) (143, 6.05431854724884033203e-01) (144, 8.41944503784179687500e+01) (145, 3.10571575164794921875e+00) (146, -1.37772905826568603516e+00) (147, 1.73681244254112243652e-01) (148, -3.69934946298599243164e-01) (149, 1.38629984855651855469e+00) (150, 1.72643586993217468262e-01) (151, 6.93710470199584960938e+00) (152, -6.31404571533203125000e+01) (153, 7.28704595565795898438e+00) (154, 1.78410625457763671875e+01) (155, 9.27003002166748046875e+00) (156, -1.27668344974517822266e+00) (157, 4.89557552337646484375e+00) (158, -5.92007219791412353516e-01) (159, 6.61120128631591796875e+00) (160, -2.38085842132568359375e+00) (161, 3.02492547035217285156e+00) (162, 1.29680240154266357422e+00) (163, -2.46291613578796386719e+00) (164, 3.01527452468872070312e+00) (165, -3.56261819601058959961e-01) (166, 3.42649602890014648438e+00) (167, 1.03346765041351318359e+00) (168, 7.91628694534301757812e+00) (169, 3.62576508522033691406e+00) (170, 2.67057269811630249023e-02) (171, 6.93938159942626953125e+00) (172, -6.09077811241149902344e-01) (173, 4.32557392120361328125e+00) (174, -1.02530837059020996094e+00) (175, 5.46487855911254882812e+00) (176, -6.90971326828002929688e+00) (177, 2.18432903289794921875e+00) (178, 9.19146835803985595703e-01) (179, 5.58394765853881835938e+00) (180, 9.17902660369873046875e+00) (181, 6.86960363388061523438e+00) (182, 8.38358497619628906250e+00) (183, -8.77446651458740234375e-01) (184, -2.03783340454101562500e+01) (185, -2.20109432935714721680e-01) (186, 6.97837352752685546875e-01) (187, 7.44287744164466857910e-02) (188, -3.97223424911499023438e+00) (189, 6.73472833633422851562e+00) (190, 3.07298851013183593750e+00) (191, 2.97316384315490722656e+00) (192, -4.94041681289672851562e+00) (193, 3.21683812141418457031e+00) (194, 1.34373521804809570312e+01) (195, 3.54604887962341308594e+00) (196, 1.50000000000000000000e+03) (197, 1.50000000000000000000e+03) (198, 1.50000000000000000000e+03) (199, 1.50000000000000000000e+03) (200, 1.13088989257812500000e+00) (201, 5.00906169414520263672e-01) (202, 7.91245698928833007812e+00) (0, -1.78878677368164062500e+02) (1, 5.93103599548339843750e+00) (2, -5.06842184066772460938e+00) (3, 3.46105194091796875000e+00) (4, 3.86094474792480468750e+00) (5, 6.37557888031005859375e+00) (6, 2.30378603935241699219e+00) (7, 7.71869754791259765625e+00) (8, 7.20570087432861328125e-01) (9, 8.04186248779296875000e+00) (10, 1.08229007720947265625e+01) (11, 7.08296728134155273438e+00) (12, 6.55141592025756835938e-01) (13, 6.67092752456665039062e+00) (14, 1.28096265792846679688e+01) (15, 7.78483724594116210938e+00) (16, -1.02941155433654785156e+00) (17, 8.29219436645507812500e+00) (18, 2.84934997558593750000e+00) (19, 3.19716215133666992188e+00) (20, 4.88485193252563476562e+00) (21, 5.39432477951049804688e+00) (22, 1.82701694965362548828e+00) (23, 3.60042667388916015625e+00) (24, 8.03209972381591796875e+00) (25, 6.04898738861083984375e+00) (26, 6.47866210937500000000e+01) (27, 4.09558582305908203125e+00) (28, 5.77448368072509765625e+00) (29, 5.91861486434936523438e+00) (30, 5.27448701858520507812e+00) (31, -4.48068864643573760986e-02) (32, -4.44087738037109375000e+02) (33, 7.60441589355468750000e+00) (34, -7.70298080444335937500e+01) (35, 3.59652447700500488281e+00) (36, 3.76107368469238281250e+01) (37, 5.30480384826660156250e+00) (38, 8.24460697174072265625e+00) (39, 6.70633316040039062500e+00) (40, 1.19822740554809570312e+01) (41, 8.48127555847167968750e+00) (42, 9.34910488128662109375e+00) (43, 9.18401241302490234375e+00) (44, 5.18607139587402343750e+00) (45, 5.54135465621948242188e+00) (46, -4.02354202270507812500e+01) (47, 7.79820060729980468750e+00) (48, 2.43795442581176757812e+00) (49, 6.71927452087402343750e+00) (50, -3.12397708892822265625e+01) (51, 1.42973673343658447266e+00) (52, 4.24541562795639038086e-01) (53, -1.80180609226226806641e+00) (54, 8.63784790039062500000e+01) (55, 1.57862448692321777344e+00) (56, 3.17337417602539062500e+00) (57, 5.03652572631835937500e+00) (58, -1.63363037109375000000e+02) (59, 4.45206356048583984375e+00) (60, 2.48152732849121093750e+00) (61, 5.39199495315551757812e+00) (62, 7.57041633129119873047e-01) (63, 3.64553022384643554688e+00) (64, -1.18882000446319580078e+00) (65, 3.00650548934936523438e+00) (66, 2.07457447052001953125e+01) (67, 1.79816234111785888672e+00) (68, -4.34063201904296875000e+02) (69, 4.76632213592529296875e+00) (70, 2.10563135147094726562e+00) (71, 3.56051802635192871094e+00) (72, 3.00291839599609375000e+02) (73, 4.58700990676879882812e+00) (74, -4.36507682800292968750e+01) (75, 2.85005664825439453125e+00) (76, 3.05697393417358398438e+00) (77, 8.27821612358093261719e-01) (78, 1.85814464092254638672e+00) (79, 3.99799895286560058594e+00) (80, 3.49467277526855468750e+00) (81, 7.46336555480957031250e+00) (82, 3.08550953865051269531e+00) (83, 4.43142509460449218750e+00) (84, 3.81648564338684082031e+00) (85, 7.86240673065185546875e+00) (86, 3.12189483642578125000e+00) (87, 8.36725807189941406250e+00) (88, 1.53819213867187500000e+02) (89, 8.78379917144775390625e+00) (90, 1.02995300292968750000e+00) (91, 5.45480918884277343750e+00) (92, 6.97606325149536132812e+00) (93, 7.69644117355346679688e+00) (94, 2.75941640138626098633e-01) (95, 4.55945301055908203125e+00) (96, 5.59623956680297851562e+00) (97, 4.31432676315307617188e+00) (98, 6.35289430618286132812e+00) (99, 7.06671190261840820312e+00) (100, 3.31186056137084960938e+00) (101, 2.23325347900390625000e+00) (102, 1.61609578132629394531e+00) (103, 2.17362689971923828125e+00) (104, -1.15034973621368408203e+00) (105, 2.35280299186706542969e+00) (106, 2.55333876609802246094e+00) (107, 4.41660785675048828125e+00) (108, 3.36879587173461914062e+00) (109, 3.60337948799133300781e+00) (110, 6.98154306411743164062e+00) (111, 3.05136084556579589844e+00) (112, 3.30479621887207031250e+01) (113, 4.44935607910156250000e+00) (114, 4.23806190490722656250e+01) (115, 4.06732416152954101562e+00) (116, 1.81887664794921875000e+01) (117, 5.29783487319946289062e+00) (118, 7.18587341308593750000e+01) (119, -2.53401851654052734375e+00) (120, 9.33035564422607421875e+00) (121, 1.62806898355484008789e-01) (122, 3.86527037620544433594e+00) (123, -1.44853913784027099609e+00) (124, 3.71632432937622070312e+00) (125, -1.56261551380157470703e+00) (126, 4.30821847915649414062e+00) (127, 1.81993544101715087891e+00) (128, 7.02873611450195312500e+00) (129, -2.15365346521139144897e-02) (130, 4.48654556274414062500e+00) (131, 1.30395400524139404297e+00) (132, 8.45594108104705810547e-01) (133, 4.36620855331420898438e+00) (134, -1.11482686996459960938e+01) (135, 4.57761335372924804688e+00) (136, 2.98744010925292968750e+00) (137, 3.83359479904174804688e+00) (138, 4.16160821914672851562e+00) (139, 5.47603082656860351562e+00) (140, 2.30166363716125488281e+00) (141, 5.86833286285400390625e+00) (142, 4.45805549621582031250e+00) (143, 4.55466985702514648438e+00) (144, 1.14742002487182617188e+01) (145, 6.39643526077270507812e+00) (146, 5.05461692810058593750e+00) (147, 6.18125200271606445312e+00) (148, 8.41762351989746093750e+00) (149, 5.98652648925781250000e+00) (150, 1.00390043258666992188e+01) (151, 1.96746909618377685547e+00) (152, 1.82600509643554687500e+02) (153, 1.78373849391937255859e+00) (154, -3.65222282409667968750e+01) (155, 2.72658371925354003906e+00) (156, 6.03418350219726562500e+00) (157, 2.82742857933044433594e+00) (158, 4.99879455566406250000e+00) (159, 2.71784353256225585938e+00) (160, 3.72411823272705078125e+00) (161, -8.82690787315368652344e-01) (162, 1.81714498996734619141e+00) (163, 1.97597754001617431641e+00) (164, -1.11001380920410156250e+02) (165, 6.48265075683593750000e+00) (166, -1.05767691135406494141e+00) (167, 6.44525194168090820312e+00) (168, 8.22916412353515625000e+00) (169, 7.43746709823608398438e+00) (170, 9.75851631164550781250e+00) (171, 8.94459629058837890625e+00) (172, 9.95141410827636718750e+00) (173, 7.99408626556396484375e+00) (174, 8.27298450469970703125e+00) (175, 7.51740407943725585938e+00) (176, 5.89762592315673828125e+00) (177, 7.36007642745971679688e+00) (178, 7.09494686126708984375e+00) (179, 5.97937250137329101562e+00) (180, 8.31379928588867187500e+01) (181, 6.30624723434448242188e+00) (182, 1.95069694519042968750e+00) (183, 8.41502952575683593750e+00) (184, -7.97386765480041503906e-01) (185, 3.25078296661376953125e+00) (186, 7.73310840129852294922e-01) (187, 4.66040325164794921875e+00) (188, 8.62337970733642578125e+00) (189, 7.86072635650634765625e+00) (190, 3.38197135925292968750e+00) (191, 5.91958236694335937500e+00) (192, 2.04453521728515625000e+02) (193, 6.44981479644775390625e+00) (194, 5.89446163177490234375e+00) (195, 5.29988288879394531250e+00) (196, 1.50000000000000000000e+03) (197, 1.50000000000000000000e+03) (198, 1.50000000000000000000e+03) (199, 1.50000000000000000000e+03) (200, 7.64385986328125000000e+00) (201, -5.67687644958496093750e+01) (202, -3.20460408926010131836e-01) (0, 1.20138225555419921875e+01) (1, -1.33189392089843750000e+00) (2, 1.28729614257812500000e+02) (3, 2.29003214836120605469e+00) (4, 5.53147459030151367188e+00) (5, -1.34638404846191406250e+01) (6, 2.14753174781799316406e+00) (7, -1.69821584224700927734e+00) (8, -1.89536075592041015625e+01) (9, -3.21679735183715820312e+00) (10, -2.65914630889892578125e+00) (11, -1.26684494018554687500e+01) (12, 1.28592345863580703735e-02) (13, 1.79149258136749267578e+00) (14, 5.91469669342041015625e+00) (15, -1.69968414306640625000e+00) (16, 4.53597335815429687500e+01) (17, 1.79426784515380859375e+01) (18, -4.46685743331909179688e+00) (19, 5.07953310012817382812e+00) (20, -1.79159881591796875000e+02) (21, 1.23732309341430664062e+01) (22, 7.34708309173583984375e+00) (23, -6.60549211502075195312e+00) (24, 4.14267196655273437500e+01) (25, 7.23123028874397277832e-02) (26, 9.88188552856445312500e+01) (27, -3.90195617675781250000e+01) (28, -6.91599798202514648438e+00) (29, -1.36202478408813476562e+01) (30, -1.91751098632812500000e+01) (31, -8.17796707153320312500e+00) (32, -1.82887821197509765625e+01) (33, -1.20505580902099609375e+01) (34, 1.31081619262695312500e+02) (35, -1.30774650573730468750e+01) (36, -9.46930999755859375000e+01) (37, 6.00542736053466796875e+00) (38, -1.80361080169677734375e+01) (39, 4.23861932754516601562e+00) (40, -2.30913791656494140625e+01) (41, -2.14848542213439941406e+00) (42, -8.33037471771240234375e+00) (43, 2.15354681015014648438e+00) (44, 2.26858963012695312500e+02) (45, 6.96167647838592529297e-01) (46, 5.23256826400756835938e+00) (47, 1.13484096527099609375e+01) (48, -2.36268119812011718750e+01) (49, 1.34994564056396484375e+01) (50, -5.94610443115234375000e+01) (51, -6.11010360717773437500e+00) (52, -3.78633155822753906250e+01) (53, 1.58408489227294921875e+01) (54, -2.98959617614746093750e+01) (55, 1.42929601669311523438e+01) (56, -1.13242645263671875000e+02) (57, -1.40280094146728515625e+01) (58, -1.06321762084960937500e+02) (59, -3.55692744255065917969e+00) (60, -1.45483520507812500000e+02) (61, -4.01858615875244140625e+00) (62, 5.18745727539062500000e+01) (63, -5.26708650588989257812e+00) (64, 2.86970329284667968750e+01) (65, -7.76507472991943359375e+00) (66, 4.16579723358154296875e+00) (67, 8.49260520935058593750e+00) (68, 2.00870208740234375000e+01) (69, -3.63614630699157714844e+00) (70, -2.36143646240234375000e+01) (71, -4.75636053085327148438e+00) (72, 6.43610687255859375000e+01) (73, 4.05688381195068359375e+00) (74, 2.86972141265869140625e+01) (75, -1.97675907611846923828e+00) (76, 8.02001190185546875000e+01) (77, -5.83572053909301757812e+00) (78, 6.71529235839843750000e+01) (79, 9.77800965309143066406e-01) (80, 1.38745927810668945312e+01) (81, -6.32197570800781250000e+00) (82, -1.54580936431884765625e+01) (83, 7.27659463882446289062e+00) (84, -7.87594842910766601562e+00) (85, 1.18243341445922851562e+01) (86, 2.13232307434082031250e+01) (87, 1.82072293758392333984e+00) (88, 4.29504280090332031250e+01) (89, 7.17585039138793945312e+00) (90, 4.66360044479370117188e+00) (91, 8.91590213775634765625e+00) (92, 1.59964084625244140625e+01) (93, 3.07228612899780273438e+00) (94, -2.00144195556640625000e+01) (95, 3.14201307296752929688e+00) (96, 1.03274021148681640625e+01) (97, 7.91269636154174804688e+00) (98, 1.11987578868865966797e+00) (99, -1.22009143829345703125e+01) (100, -4.66979408264160156250e+00) (101, -1.42199611663818359375e+00) (102, 1.07905673980712890625e+01) (103, -2.40584588050842285156e+00) (104, 7.47444076538085937500e+01) (105, -2.53447208404541015625e+01) (106, 1.90281505584716796875e+01) (107, -6.02042722702026367188e+00) (108, 3.27617149353027343750e+01) (109, -1.18109903335571289062e+01) (110, 2.06239795684814453125e+01) (111, -1.79110355377197265625e+01) (112, 4.23399782180786132812e+00) (113, -1.34858427047729492188e+01) (114, 8.96233272552490234375e+00) (115, 3.49734687805175781250e+00) (116, -1.10800695419311523438e+00) (117, 2.36353516578674316406e+00) (118, 4.20546007156372070312e+00) (119, -1.57685890197753906250e+01) (120, -5.05596961975097656250e+01) (121, 1.49864969253540039062e+01) (122, -2.14747886657714843750e+01) (123, 1.40043916702270507812e+01) (124, 1.58442850112915039062e+01) (125, 4.23177748918533325195e-01) (126, -4.47416992187500000000e+01) (127, -1.25137395858764648438e+01) (128, 7.98922729492187500000e+00) (129, -1.74343585968017578125e+01) (130, -1.01531610488891601562e+01) (131, -9.96466541290283203125e+00) (132, -3.34114265441894531250e+00) (133, 1.16645836830139160156e+00) (134, 1.11153345108032226562e+01) (135, 5.65375709533691406250e+00) (136, 9.25936520099639892578e-01) (137, -5.83792400360107421875e+00) (138, 1.03750972747802734375e+01) (139, 1.40281982421875000000e+01) (140, 5.81584453582763671875e+00) (141, 1.54210720062255859375e+01) (142, -3.60021820068359375000e+01) (143, 6.56431436538696289062e+00) (144, 4.74879112243652343750e+01) (145, -2.08221268653869628906e+00) (146, -6.17971878051757812500e+01) (147, -1.78542959690093994141e+00) (148, 1.34494812011718750000e+02) (149, -1.64058971405029296875e+01) (150, -7.73871765136718750000e+01) (151, -4.27500724792480468750e+00) (152, -5.33046836853027343750e+01) (153, -2.40819859504699707031e+00) (154, 9.06246795654296875000e+01) (155, 3.81578493118286132812e+00) (156, -7.71082382202148437500e+01) (157, -4.42936277389526367188e+00) (158, -7.10574722290039062500e+01) (159, -7.62615680694580078125e-01) (160, -3.06163673400878906250e+01) (161, 5.52168989181518554688e+00) (162, -8.25914382934570312500e+00) (163, 5.41485557556152343750e+01) (164, -9.47498779296875000000e+01) (165, 2.29051303863525390625e+00) (166, -2.54903755187988281250e+01) (167, -2.16842031478881835938e+00) (168, 1.91798534393310546875e+01) (169, 4.17313432693481445312e+00) (170, 3.54010162353515625000e+01) (171, -1.31754322052001953125e+01) (172, -8.22732639312744140625e+00) (173, -5.80805492401123046875e+00) (174, 9.83904552459716796875e+00) (175, -2.04064502716064453125e+01) (176, -1.05539064407348632812e+01) (177, -1.37011897563934326172e+00) (178, 1.65589389801025390625e+01) (179, -1.48788604736328125000e+01) (180, 1.29218454360961914062e+01) (181, 2.02978396415710449219e+00) (182, 6.34726371765136718750e+01) (183, -7.67822790145874023438e+00) (184, 1.67097930908203125000e+01) (185, -1.13802337646484375000e+00) (186, -5.63028383255004882812e+00) (187, 4.99575185775756835938e+00) (188, -6.85619964599609375000e+01) (189, -1.50667458772659301758e-01) (190, -3.98524589538574218750e+01) (191, -1.31730222702026367188e+00) (192, -1.79422779083251953125e+01) (193, 2.13876056671142578125e+00) (194, -2.31313877105712890625e+01) (195, -6.66567134857177734375e+00) (196, 1.50000000000000000000e+03) (197, 1.50000000000000000000e+03) (198, 1.50000000000000000000e+03) (199, 1.50000000000000000000e+03) (200, -1.10976982116699218750e+00) (201, 5.51690483093261718750e+01) (202, 4.90689659118652343750e+00) (0, 2.07903690338134765625e+01) (1, 3.31230449676513671875e+00) (2, -1.78755509853363037109e+00) (3, 8.13974346965551376343e-03) (4, 7.84234714508056640625e+00) (5, 5.40564489364624023438e+00) (6, -1.07845020294189453125e+00) (7, 2.24426412582397460938e+00) (8, 6.04378128051757812500e+00) (9, 2.87553143501281738281e+00) (10, 2.74266505241394042969e+00) (11, 1.96509587764739990234e+00) (12, 6.61076736450195312500e+00) (13, 3.93177795410156250000e+00) (14, 3.94907760620117187500e+00) (15, 7.14177012443542480469e-01) (16, -1.89940147399902343750e+01) (17, 5.85563600063323974609e-01) (18, 5.12497329711914062500e+00) (19, 2.17494535446166992188e+00) (20, 6.73600578308105468750e+00) (21, 6.41743612289428710938e+00) (22, 4.34743404388427734375e+00) (23, 3.03228449821472167969e+00) (24, 1.89004745483398437500e+01) (25, 4.29106330871582031250e+00) (26, 8.75260772705078125000e+01) (27, -1.49731540679931640625e+00) (28, 7.86181879043579101562e+00) (29, 2.66475820541381835938e+00) (30, 1.02067089080810546875e+00) (31, 2.66161680221557617188e-01) (32, 1.26027441024780273438e+01) (33, 1.54749464988708496094e+00) (34, -8.15944385528564453125e+00) (35, 9.48453843593597412109e-01) (36, 1.18610343933105468750e+01) (37, -9.96244192123413085938e-01) (38, 5.20447826385498046875e+00) (39, 2.12891772389411926270e-01) (40, 4.27847719192504882812e+00) (41, -1.14535176753997802734e+00) (42, 9.05158424377441406250e+00) (43, 2.65888714790344238281e+00) (44, 8.59109401702880859375e+00) (45, -2.12575936317443847656e+00) (46, -1.55192079544067382812e+01) (47, -1.28459048271179199219e+00) (48, 6.13905334472656250000e+00) (49, -2.99686659127473831177e-02) (50, 1.18018903732299804688e+01) (51, -6.24053120613098144531e-01) (52, 4.14922904968261718750e+00) (53, 1.21342647075653076172e+00) (54, 4.47723655700683593750e+01) (55, 5.75419855117797851562e+00) (56, -1.52812681198120117188e+01) (57, 2.88117527961730957031e-01) (58, -7.48930358886718750000e+01) (59, 3.82007569074630737305e-01) (60, -9.89233779907226562500e+00) (61, 7.69977807998657226562e+00) (62, 1.44624719619750976562e+01) (63, 5.03015708923339843750e+00) (64, 8.87314081192016601562e-02) (65, 3.68764281272888183594e+00) (66, 9.06783866882324218750e+00) (67, 1.04922974109649658203e+00) (68, -1.13010772705078125000e+02) (69, -2.18876361846923828125e+00) (70, 1.67823944091796875000e+01) (71, -1.96454569697380065918e-01) (72, 1.92526664733886718750e+01) (73, 5.03059196472167968750e+00) (74, -6.66182708740234375000e+01) (75, 5.72053718566894531250e+00) (76, -2.21501755714416503906e+00) (77, 4.00749158859252929688e+00) (78, -5.30538845062255859375e+00) (79, 6.29803323745727539062e+00) (80, 1.89575946331024169922e+00) (81, 3.31051754951477050781e+00) (82, -1.70283746719360351562e+00) (83, 1.82761657238006591797e+00) (84, 2.93992757797241210938e+00) (85, 5.31063413619995117188e+00) (86, 1.96627473831176757812e+00) (87, 3.52149891853332519531e+00) (88, 1.00171981811523437500e+02) (89, 3.59552830457687377930e-01) (90, 1.59950542449951171875e+00) (91, 1.60253599286079406738e-01) (92, 5.47093152999877929688e+00) (93, 6.79996538162231445312e+00) (94, -3.61138000488281250000e+01) (95, 3.28980422019958496094e+00) (96, 2.81631064414978027344e+00) (97, 7.30097627639770507812e+00) (98, 5.03569126129150390625e-01) (99, 5.89262533187866210938e+00) (100, 8.07048511505126953125e+00) (101, 2.00096201896667480469e+00) (102, 8.77088069915771484375e+00) (103, 2.41120433807373046875e+00) (104, 3.29873204231262207031e+00) (105, 6.83540916442871093750e+00) (106, 3.78064250946044921875e+00) (107, 6.10036182403564453125e+00) (108, 7.74215412139892578125e+00) (109, 2.88985180854797363281e+00) (110, 5.12552499771118164062e+00) (111, 3.26220440864562988281e+00) (112, 4.84698247909545898438e+00) (113, 1.53177440166473388672e+00) (114, 6.42891883850097656250e+00) (115, 1.43353486061096191406e+00) (116, -1.24186088562011718750e+02) (117, 1.97720849514007568359e+00) (118, -2.74388256072998046875e+01) (119, -6.59214794635772705078e-01) (120, 5.26295471191406250000e+00) (121, -7.66686916351318359375e-01) (122, 7.27227830886840820312e+00) (123, -1.18471622467041015625e+00) (124, 6.52899694442749023438e+00) (125, 4.63965797424316406250e+00) (126, 1.62673676013946533203e+00) (127, 3.48005247116088867188e+00) (128, 8.71955013275146484375e+00) (129, 1.51714813709259033203e+00) (130, 3.46889972686767578125e+00) (131, 2.07144141197204589844e+00) (132, 5.11214685440063476562e+00) (133, 3.08152413368225097656e+00) (134, -1.49619350433349609375e+01) (135, 3.61362671852111816406e+00) (136, 1.49292492866516113281e+00) (137, -3.22869002819061279297e-01) (138, 3.21270585060119628906e+00) (139, 4.17991209030151367188e+00) (140, 2.46825441718101501465e-01) (141, -2.30483841896057128906e+00) (142, -2.13016557693481445312e+00) (143, -2.45814299583435058594e+00) (144, -1.55036420822143554688e+01) (145, 1.11575722694396972656e+00) (146, 5.48932123184204101562e+00) (147, 3.10926485061645507812e+00) (148, 6.46195983886718750000e+00) (149, 6.63933217525482177734e-01) (150, 2.48475761413574218750e+01) (151, -2.88363909721374511719e+00) (152, 1.74075012207031250000e+01) (153, 5.57087612152099609375e+00) (154, -2.17976818084716796875e+01) (155, 2.61439728736877441406e+00) (156, 1.16922211647033691406e+00) (157, 2.11447477340698242188e+00) (158, 4.94243478775024414062e+00) (159, 1.00161409378051757812e+00) (160, 2.11220788955688476562e+00) (161, -4.01793196797370910645e-02) (162, -1.23610925674438476562e+00) (163, -6.41293525695800781250e-01) (164, -3.80581736564636230469e-01) (165, -1.56127023696899414062e+00) (166, 6.27675294876098632812e+00) (167, 2.03134942054748535156e+00) (168, 7.13396167755126953125e+00) (169, 4.47182321548461914062e+00) (170, 4.12843799591064453125e+00) (171, 3.56240582466125488281e+00) (172, 3.94463562965393066406e+00) (173, 2.13808917999267578125e+00) (174, 7.92587327957153320312e+00) (175, -2.54453301429748535156e+00) (176, -2.85703682899475097656e+00) (177, 7.87406802177429199219e-01) (178, 4.74443435668945312500e+00) (179, -2.64352107048034667969e+00) (180, 7.43909683227539062500e+01) (181, 8.06111633777618408203e-01) (182, -1.79060649871826171875e+01) (183, 3.39890450239181518555e-01) (184, 7.99248123168945312500e+00) (185, 2.16031908988952636719e+00) (186, -1.75993652343750000000e+01) (187, 2.59281992912292480469e+00) (188, 7.45899629592895507812e+00) (189, 3.32690238952636718750e+00) (190, -2.49267063140869140625e+01) (191, 9.72580730915069580078e-01) (192, 2.00453014373779296875e+01) (193, 2.88371014595031738281e+00) (194, 4.38152837753295898438e+00) (195, 7.96132278442382812500e+00) (196, 1.50000000000000000000e+03) (197, 1.50000000000000000000e+03) (198, 1.50000000000000000000e+03) (199, 1.50000000000000000000e+03) (200, 1.15975272655487060547e+00) (201, -3.18215885162353515625e+01) (202, 1.48675233125686645508e-01) (0, 3.40712606906890869141e-01) (1, 9.21765387058258056641e-01) (2, -5.78132688999176025391e-01) (3, -1.64380121231079101562e+00) (4, 3.43471693992614746094e+00) (5, 1.11953592300415039062e+00) (6, 6.43964648246765136719e-01) (7, -9.00896072387695312500e-01) (8, -1.70712280273437500000e+00) (9, -1.78389453887939453125e+00) (10, 3.92570924758911132812e+00) (11, 6.89794182777404785156e-01) (12, -5.06900548934936523438e-01) (13, 3.47039842605590820312e+00) (14, -2.21450853347778320312e+00) (15, -4.72047477960586547852e-01) (16, 1.16524064540863037109e+00) (17, 1.91313517093658447266e+00) (18, -1.27788698673248291016e+00) (19, -3.32535296678543090820e-01) (20, 3.21900606155395507812e+00) (21, -1.28704237937927246094e+00) (22, -1.15138902664184570312e+01) (23, -2.39458417892456054688e+00) (24, 3.67981672286987304688e+00) (25, 1.45430254936218261719e+00) (26, 1.86150014400482177734e+00) (27, -1.41332879662513732910e-01) (28, 1.91130435466766357422e+00) (29, 9.79124335572123527527e-04) (30, -1.59899568557739257812e+01) (31, -6.78341448307037353516e-01) (32, 2.51713800430297851562e+00) (33, 1.81290113925933837891e+00) (34, 3.69506025314331054688e+00) (35, -3.06933790445327758789e-01) (36, 3.24382400512695312500e+00) (37, 1.55259346961975097656e+00) (38, -1.22095286846160888672e+00) (39, 1.41924011707305908203e+00) (40, 1.40512692928314208984e+00) (41, 8.15831959247589111328e-01) (42, 2.72730064392089843750e+00) (43, 5.20562708377838134766e-01) (44, -3.19878005981445312500e+00) (45, -1.78608000278472900391e+00) (46, -2.37194395065307617188e+00) (47, -6.58978879451751708984e-01) (48, 2.27773737907409667969e+00) (49, 4.12184417247772216797e-01) (50, 9.16014797985553741455e-03) (51, -4.25459116697311401367e-01) (52, 3.79274487495422363281e+00) (53, 2.26158761978149414062e+00) (54, -7.42831826210021972656e-01) (55, 1.74925541877746582031e+00) (56, -3.77359056472778320312e+00) (57, -6.17411017417907714844e-01) (58, 9.93985712528228759766e-01) (59, -1.45234167575836181641e+00) (60, 4.21696853637695312500e+00) (61, 5.65206557512283325195e-02) (62, -5.91892004013061523438e-01) (63, -5.04340291023254394531e-01) (64, 5.53771734237670898438e+00) (65, -2.85050964355468750000e+00) (66, 6.73978328704833984375e-01) (67, -1.88055121898651123047e+00) (68, 8.21040928363800048828e-01) (69, -9.34099704027175903320e-02) (70, -1.32752668857574462891e+00) (71, -3.22183400392532348633e-01) (72, 6.61536395549774169922e-01) (73, -2.49586200714111328125e+00) (74, 2.49007844924926757812e+00) (75, -1.19676494598388671875e+00) (76, 1.62037324905395507812e+00) (77, 2.12125849723815917969e+00) (78, -4.09931707382202148438e+00) (79, -1.34393441677093505859e+00) (80, 2.70624685287475585938e+00) (81, -7.58671343326568603516e-01) (82, -6.46830654144287109375e+00) (83, -8.10929164290428161621e-02) (84, -8.24594879150390625000e+00) (85, -3.59665226936340332031e+00) (86, -4.15491008758544921875e+00) (87, -1.36884105205535888672e+00) (88, -2.90850609540939331055e-01) (89, 2.21422481536865234375e+00) (90, 3.27329993247985839844e-01) (91, 1.05480134487152099609e+00) (92, 1.66587159037590026855e-01) (93, -1.55926465988159179688e+00) (94, -1.46781146526336669922e+00) (95, 3.78314480185508728027e-02) (96, 1.78411746025085449219e+00) (97, 2.94417917728424072266e-01) (98, -2.13020026683807373047e-01) (99, 8.36043357849121093750e-01) (100, 1.79142987728118896484e+00) (101, -1.52516126632690429688e+00) (102, 8.05997908115386962891e-01) (103, -2.33355212211608886719e+00) (104, 3.28784942626953125000e-01) (105, -6.49357080459594726562e-01) (106, -4.69558760523796081543e-02) (107, 2.34121635556221008301e-01) (108, 1.81509184837341308594e+00) (109, -3.60437244176864624023e-01) (110, 9.82226908206939697266e-01) (111, 3.73691827058792114258e-01) (112, -1.76552903652191162109e+00) (113, 1.16871023178100585938e+00) (114, 1.46359705924987792969e+00) (115, 3.31645107269287109375e+00) (116, -3.96257710456848144531e+00) (117, -9.20979142189025878906e-01) (118, 7.36604499816894531250e+00) (119, 4.96964603662490844727e-01) (120, -5.28055310249328613281e-01) (121, 9.60638225078582763672e-01) (122, 7.77003467082977294922e-01) (123, 1.27556049823760986328e+00) (124, 1.92792928218841552734e+00) (125, -9.51649069786071777344e-01) (126, -4.23797225952148437500e+00) (127, 7.02147185802459716797e-01) (128, -9.36504483222961425781e-01) (129, 1.06092822551727294922e+00) (130, 2.97108197212219238281e+00) (131, -1.21726560592651367188e+00) (132, -5.09941387176513671875e+00) (133, 1.65638196468353271484e+00) (134, 2.28416156768798828125e+00) (135, -1.79214060306549072266e+00) (136, -3.89140486717224121094e+00) (137, 1.46013581752777099609e+00) (138, -2.64347267150878906250e+00) (139, -5.53278505802154541016e-01) (140, 1.06025338172912597656e+00) (141, -7.97434031963348388672e-01) (142, -1.64782309532165527344e+00) (143, -1.04477994143962860107e-01) (144, 3.80566048622131347656e+00) (145, 1.65579140186309814453e+00) (146, -8.66810798645019531250e+00) (147, -5.93366086483001708984e-01) (148, 1.15431979298591613770e-01) (149, -9.69040870666503906250e-01) (150, 5.20429182052612304688e+00) (151, 1.14522874355316162109e+00) (152, 1.93278062343597412109e+00) (153, 1.61867246031761169434e-01) (154, 4.46749031543731689453e-01) (155, 1.47828900814056396484e+00) (156, 7.92063832283020019531e-01) (157, -7.62814283370971679688e-01) (158, 2.56135082244873046875e+00) (159, 8.29619690775871276855e-02) (160, -4.99176502227783203125e-01) (161, 1.68660748004913330078e+00) (162, -2.78791880607604980469e+00) (163, 8.12520086765289306641e-01) (164, -3.98716926574707031250e-02) (165, 6.00479662418365478516e-01) (166, 2.25304618477821350098e-01) (167, -2.77790021896362304688e+00) (168, -1.31413817405700683594e-01) (169, 4.02537256479263305664e-01) (170, -3.20130491256713867188e+00) (171, -1.06405353546142578125e+00) (172, -3.11193537712097167969e+00) (173, -5.64762890338897705078e-01) (174, 3.14105415344238281250e+00) (175, -1.04866874217987060547e+00) (176, 3.14830631017684936523e-01) (177, 2.03045511245727539062e+00) (178, 2.86554209887981414795e-02) (179, -9.87174570560455322266e-01) (180, -1.44219672679901123047e+00) (181, -1.30306255817413330078e+00) (182, -3.89657080173492431641e-01) (183, -6.15012884140014648438e-01) (184, 9.62867617607116699219e-01) (185, 2.10576757788658142090e-01) (186, -3.23094224929809570312e+00) (187, 1.78839957714080810547e+00) (188, -1.56800866127014160156e-01) (189, -6.50603324174880981445e-03) (190, 4.39201211929321289062e+00) (191, -4.62969064712524414062e-01) (192, -4.74932718276977539062e+00) (193, -8.35407823324203491211e-02) (194, 2.30242896080017089844e+00) (195, 1.78949975967407226562e+00) (196, 1.50000000000000000000e+03) (197, 1.50000000000000000000e+03) (198, 1.50000000000000000000e+03) (199, 1.50000000000000000000e+03) (200, 1.16373276710510253906e+00) (201, 1.15232145786285400391e+00) (202, 1.62786638736724853516e+00) (0, -1.50000000000000000000e+03) (1, -1.50000000000000000000e+03) (2, -1.50000000000000000000e+03) (3, -1.50000000000000000000e+03) (4, -1.50000000000000000000e+03) (5, -1.60756623744964599609e+00) (6, 1.49524023437500000000e+03) (7, 1.12207496166229248047e+00) (8, 7.54766998291015625000e+01) (9, 3.14272189140319824219e+00) (10, 1.49709460449218750000e+03) (11, 7.31185555458068847656e-01) (12, 1.49810998535156250000e+03) (13, -1.49710864257812500000e+03) (14, 1.49905712890625000000e+03) (15, -1.49760083007812500000e+03) (16, -1.50000000000000000000e+03) (17, 1.49847705078125000000e+03) (18, 1.49775866699218750000e+03) (19, 1.49755468750000000000e+03) (20, 1.49906823730468750000e+03) (21, 1.50000000000000000000e+03) (22, 1.49758898925781250000e+03) (23, -1.61408290863037109375e+01) (24, 1.49926123046875000000e+03) (25, -1.49955541992187500000e+03) (26, 1.49978710937500000000e+03) (27, -1.50000000000000000000e+03) (28, -1.49643591308593750000e+03) (29, -1.49847851562500000000e+03) (30, -1.49882287597656250000e+03) (31, 1.49704309082031250000e+03) (32, 2.95330047607421875000e+02) (33, -1.49791296386718750000e+03) (34, -1.50000000000000000000e+03) (35, -1.49945678710937500000e+03) (36, 8.19720520019531250000e+02) (37, -1.49957653808593750000e+03) (38, 1.49865270996093750000e+03) (39, -1.49957739257812500000e+03) (40, -1.38470690917968750000e+03) (41, -1.49957739257812500000e+03) (42, -1.49809240722656250000e+03) (43, -1.49825000000000000000e+03) (44, -1.49992736816406250000e+03) (45, -1.49780932617187500000e+03) (46, 1.49690698242187500000e+03) (47, -1.49622229003906250000e+03) (48, 1.49687768554687500000e+03) (49, -1.49805847167968750000e+03) (50, -1.50000000000000000000e+03) (51, -1.49854748535156250000e+03) (52, -1.50000000000000000000e+03) (53, -1.50000000000000000000e+03) (54, -1.50000000000000000000e+03) (55, 1.50000000000000000000e+03) (56, -1.50000000000000000000e+03) (57, -1.50000000000000000000e+03) (58, -1.50000000000000000000e+03) (59, -1.50000000000000000000e+03) (60, -1.50000000000000000000e+03) (61, -1.49809020996093750000e+03) (62, 1.48845068359375000000e+03) (63, -1.50000000000000000000e+03) (64, 1.49664038085937500000e+03) (65, -1.50000000000000000000e+03) (66, 1.49770178222656250000e+03) (67, -1.50000000000000000000e+03) (68, -1.50000000000000000000e+03) (69, -1.50000000000000000000e+03) (70, -1.50000000000000000000e+03) (71, -1.50000000000000000000e+03) (72, 1.49993078613281250000e+03) (73, -1.50000000000000000000e+03) (74, -1.50000000000000000000e+03) (75, -1.50000000000000000000e+03) (76, -1.50000000000000000000e+03) (77, -1.50000000000000000000e+03) (78, -1.50000000000000000000e+03) (79, -1.50000000000000000000e+03) (80, -1.50000000000000000000e+03) (81, -1.49951672363281250000e+03) (82, -1.50000000000000000000e+03) (83, -1.50000000000000000000e+03) (84, -1.50000000000000000000e+03) (85, -1.50000000000000000000e+03) (86, -1.49940832519531250000e+03) (87, -1.50000000000000000000e+03) (88, 1.50000000000000000000e+03) (89, -1.50000000000000000000e+03) (90, -1.50000000000000000000e+03) (91, -1.50000000000000000000e+03) (92, 1.49979382324218750000e+03) (93, -1.49869531250000000000e+03) (94, 1.48181115722656250000e+03) (95, -1.50000000000000000000e+03) (96, 1.49975622558593750000e+03) (97, -1.49815063476562500000e+03) (98, 1.49951513671875000000e+03) (99, -1.49942712402343750000e+03) (100, 1.50000000000000000000e+03) (101, -1.50000000000000000000e+03) (102, 1.49964868164062500000e+03) (103, -1.50000000000000000000e+03) (104, -1.50000000000000000000e+03) (105, -1.49957653808593750000e+03) (106, -1.50000000000000000000e+03) (107, 1.49795434570312500000e+03) (108, -1.50000000000000000000e+03) (109, -1.49957666015625000000e+03) (110, -9.97631896972656250000e+02) (111, 1.49998583984375000000e+03) (112, 1.50000000000000000000e+03) (113, 5.38914871215820312500e+00) (114, 1.50000000000000000000e+03) (115, -1.50000000000000000000e+03) (116, 1.49795788574218750000e+03) (117, -1.50000000000000000000e+03) (118, -2.86001617431640625000e+02) (119, -1.50000000000000000000e+03) (120, 1.49663012695312500000e+03) (121, -1.50000000000000000000e+03) (122, 1.49608508300781250000e+03) (123, -1.50000000000000000000e+03) (124, -1.48012414550781250000e+03) (125, -1.50000000000000000000e+03) (126, 1.49532763671875000000e+03) (127, -1.50000000000000000000e+03) (128, 1.49987719726562500000e+03) (129, -1.50000000000000000000e+03) (130, -1.50000000000000000000e+03) (131, -3.67509826660156250000e+02) (132, -1.50000000000000000000e+03) (133, -1.49812768554687500000e+03) (134, -1.50000000000000000000e+03) (135, -1.49797424316406250000e+03) (136, -1.08142980957031250000e+03) (137, -1.50000000000000000000e+03) (138, 1.49589160156250000000e+03) (139, -1.50000000000000000000e+03) (140, 1.49638940429687500000e+03) (141, -3.67598915100097656250e+00) (142, 1.49604541015625000000e+03) (143, -1.50000000000000000000e+03) (144, 1.49957922363281250000e+03) (145, 1.49585180664062500000e+03) (146, 1.49942297363281250000e+03) (147, 1.49570874023437500000e+03) (148, -1.49577392578125000000e+03) (149, -1.50000000000000000000e+03) (150, 1.49952929687500000000e+03) (151, -1.93676424026489257812e+00) (152, 1.49920544433593750000e+03) (153, -1.50000000000000000000e+03) (154, 1.49939526367187500000e+03) (155, -2.38527894020080566406e+00) (156, -1.50000000000000000000e+03) (157, 1.49777697753906250000e+03) (158, -1.49860620117187500000e+03) (159, -1.50000000000000000000e+03) (160, 1.49678735351562500000e+03) (161, 1.49597607421875000000e+03) (162, 1.49761376953125000000e+03) (163, -1.50000000000000000000e+03) (164, 1.49672668457031250000e+03) (165, -1.50000000000000000000e+03) (166, 1.49988977050781250000e+03) (167, 1.49987280273437500000e+03) (168, 1.49834655761718750000e+03) (169, 2.32875385284423828125e+01) (170, -1.49934143066406250000e+03) (171, -1.50000000000000000000e+03) (172, 1.49913879394531250000e+03) (173, -1.50000000000000000000e+03) (174, 1.50000000000000000000e+03) (175, -1.50000000000000000000e+03) (176, 1.49844689941406250000e+03) (177, -1.50000000000000000000e+03) (178, -1.49666833496093750000e+03) (179, -1.50000000000000000000e+03) (180, 1.50000000000000000000e+03) (181, -1.50000000000000000000e+03) (182, -1.49908947753906250000e+03) (183, -1.50000000000000000000e+03) (184, -1.49951013183593750000e+03) (185, -1.50000000000000000000e+03) (186, -1.50000000000000000000e+03) (187, -1.49754125976562500000e+03) (188, 1.49988977050781250000e+03) (189, -1.50000000000000000000e+03) (190, 1.49940173339843750000e+03) (191, -1.50000000000000000000e+03) (192, -1.49973706054687500000e+03) (193, 2.96643257141113281250e+00) (194, 1.49947192382812500000e+03) (195, -1.49846301269531250000e+03) (196, 1.50000000000000000000e+03) (197, 1.50000000000000000000e+03) (198, 1.50000000000000000000e+03) (199, 1.50000000000000000000e+03) (200, 1.49729272460937500000e+03) (201, -1.49993041992187500000e+03) (202, 5.87539911270141601562e+00) (0, -1.50000000000000000000e+03) (1, -1.43014941406250000000e+03) (2, -6.61378234863281250000e+02) (3, -1.14963378906250000000e+01) (4, -1.32926525878906250000e+03) (5, 5.71055126190185546875e+00) (6, -1.49990991210937500000e+03) (7, 1.24402799606323242188e+01) (8, -1.50000000000000000000e+03) (9, -2.55313167572021484375e+01) (10, -1.45034338378906250000e+03) (11, -2.14606513977050781250e+01) (12, 1.46843945312500000000e+03) (13, -1.78658065795898437500e+01) (14, -1.50000000000000000000e+03) (15, 2.75941848754882812500e-01) (16, -1.44758270263671875000e+02) (17, 1.00674953460693359375e+01) (18, 1.00879302978515625000e+02) (19, 4.43805742263793945312e+00) (20, 1.09707922363281250000e+03) (21, -1.39746429443359375000e+02) (22, -1.43415112304687500000e+03) (23, 1.50298480987548828125e+01) (24, -3.59928009033203125000e+02) (25, 1.50000000000000000000e+03) (26, 1.20006420898437500000e+03) (27, 1.35939160156250000000e+03) (28, 1.49906701660156250000e+03) (29, 1.50000000000000000000e+03) (30, -3.24175994873046875000e+02) (31, 1.50000000000000000000e+03) (32, -1.50000000000000000000e+03) (33, 7.52684450149536132812e+00) (34, -1.50000000000000000000e+03) (35, 9.46855449676513671875e+00) (36, -1.07292944335937500000e+03) (37, 8.65966491699218750000e+01) (38, -7.87118835449218750000e+02) (39, 6.48150777816772460938e+00) (40, -1.39698669433593750000e+02) (41, 7.54330444335937500000e+00) (42, 1.46013427734375000000e+03) (43, 1.65390431880950927734e+00) (44, -1.50000000000000000000e+03) (45, -3.72676157951354980469e+00) (46, -1.50000000000000000000e+03) (47, -7.83772277832031250000e+01) (48, -1.50000000000000000000e+03) (49, -3.23901023864746093750e+01) (50, -1.50000000000000000000e+03) (51, -1.14287738800048828125e+01) (52, -1.50000000000000000000e+03) (53, -1.50000000000000000000e+03) (54, -1.50000000000000000000e+03) (55, -4.97125930786132812500e+01) (56, 7.54275878906250000000e+02) (57, -1.49876940917968750000e+03) (58, 1.50000000000000000000e+03) (59, -1.46769311523437500000e+03) (60, 1.50000000000000000000e+03) (61, 1.20312821865081787109e+00) (62, 1.50000000000000000000e+03) (63, 5.03778198242187500000e+02) (64, -1.08412483215332031250e+02) (65, 1.78287181854248046875e+01) (66, 5.36332946777343750000e+02) (67, 6.48669719696044921875e+00) (68, 1.17483288574218750000e+03) (69, 1.14798632812500000000e+03) (70, 1.50000000000000000000e+03) (71, 2.77240631103515625000e+02) (72, 5.49639511108398437500e+01) (73, -3.45559906959533691406e+00) (74, 1.50000000000000000000e+03) (75, 7.80998563766479492188e+00) (76, 4.91890792846679687500e+01) (77, 5.73552894592285156250e+00) (78, -1.50000000000000000000e+03) (79, -7.18019306659698486328e-01) (80, -1.44552197265625000000e+03) (81, -9.26667358398437500000e+02) (82, 3.23581161499023437500e+01) (83, 3.02707099914550781250e+00) (84, -6.49844360351562500000e+00) (85, 8.69168567657470703125e+00) (86, 5.50572891235351562500e+01) (87, 7.29108947753906250000e+02) (88, -1.49992932128906250000e+03) (89, 1.50000000000000000000e+03) (90, -8.97108535766601562500e+01) (91, 1.98541679382324218750e+01) (92, -3.74968139648437500000e+02) (93, -8.66615447998046875000e+01) (94, 7.58859014511108398438e+00) (95, 4.41546231508255004883e-01) (96, -4.07282104492187500000e+01) (97, -4.79753021240234375000e+02) (98, 1.50000000000000000000e+03) (99, -3.68528022766113281250e+01) (100, 1.09627008438110351562e+00) (101, 1.47269268035888671875e+01) (102, -4.66137207031250000000e+02) (103, 3.83494834899902343750e+01) (104, -9.47577819824218750000e+02) (105, 3.54034942626953125000e+02) (106, 3.19406185150146484375e+01) (107, 2.27792644500732421875e+01) (108, -1.50000000000000000000e+03) (109, 9.53769073486328125000e+01) (110, 1.81884205341339111328e+00) (111, 8.14059352874755859375e+00) (112, -9.38602966308593750000e+02) (113, 7.56919555664062500000e+02) (114, 9.42730285644531250000e+02) (115, 1.50000000000000000000e+03) (116, -5.19581680297851562500e+01) (117, 1.29459579467773437500e+02) (118, 1.50000000000000000000e+03) (119, 9.16606201171875000000e+02) (120, -9.29846557617187500000e+02) (121, 2.91492980957031250000e+02) (122, -1.50000000000000000000e+03) (123, 1.50000000000000000000e+03) (124, -1.49998254394531250000e+03) (125, -1.73456512451171875000e+02) (126, 1.49756579589843750000e+03) (127, 9.55786228179931640625e+00) (128, -1.45400122070312500000e+03) (129, -7.22525939941406250000e+02) (130, -1.49718530273437500000e+03) (131, 4.87946533203125000000e+02) (132, -1.50000000000000000000e+03) (133, -7.95152511596679687500e+01) (134, -1.50000000000000000000e+03) (135, -1.10650927734375000000e+03) (136, 1.50000000000000000000e+03) (137, 3.36367821693420410156e+00) (138, -2.76900939941406250000e+02) (139, 3.51267127990722656250e+01) (140, 1.50000000000000000000e+03) (141, 8.66442932128906250000e+02) (142, 1.50000000000000000000e+03) (143, 7.24569702148437500000e+01) (144, 5.31118530273437500000e+02) (145, 8.64250061035156250000e+02) (146, -1.45592578125000000000e+03) (147, -1.69059963226318359375e+01) (148, -1.50000000000000000000e+03) (149, 1.15077990722656250000e+03) (150, 1.49997302246093750000e+03) (151, 9.04956420898437500000e+02) (152, 4.31380584716796875000e+02) (153, -8.03197570800781250000e+02) (154, 7.38984741210937500000e+02) (155, 6.11999893188476562500e+00) (156, -7.24017028808593750000e+02) (157, -1.12274060058593750000e+03) (158, -1.43965112304687500000e+03) (159, 2.79378490447998046875e+01) (160, -3.81117462158203125000e+02) (161, 2.56362724304199218750e+01) (162, 2.36677413940429687500e+02) (163, -6.65264099121093750000e+02) (164, 1.49283203125000000000e+03) (165, -7.35356262207031250000e+02) (166, -1.50000000000000000000e+03) (167, 1.49462568759918212891e+00) (168, 8.56524414062500000000e+02) (169, -8.23453712463378906250e+00) (170, 1.50000000000000000000e+03) (171, -1.12933886718750000000e+03) (172, 2.16382637023925781250e+01) (173, -4.41050618886947631836e-01) (174, -1.42196850585937500000e+03) (175, 1.91259246826171875000e+02) (176, 1.50000000000000000000e+03) (177, -1.34227383136749267578e+00) (178, 1.56005020141601562500e+02) (179, 6.36633567810058593750e+01) (180, 1.44074890136718750000e+03) (181, 2.47452484130859375000e+02) (182, 3.06508331298828125000e+02) (183, 1.50000000000000000000e+03) (184, -1.43425134277343750000e+03) (185, -8.94809692382812500000e+02) (186, -1.50000000000000000000e+03) (187, 1.50000000000000000000e+03) (188, -1.50000000000000000000e+03) (189, -1.47853894042968750000e+03) (190, -1.50000000000000000000e+03) (191, -9.78463947772979736328e-01) (192, -1.50000000000000000000e+03) (193, -8.79950714111328125000e+01) (194, -1.50000000000000000000e+03) (195, -2.21248569488525390625e+01) (196, 1.50000000000000000000e+03) (197, 1.50000000000000000000e+03) (198, 1.50000000000000000000e+03) (199, 1.50000000000000000000e+03) (200, 4.08624076843261718750e+01) (201, -1.00498925781250000000e+03) (202, 2.13734078407287597656e+00) (0, 7.57746553421020507812e+00) (1, 2.01769065856933593750e+00) (2, 3.42059707641601562500e+00) (3, -1.73954713344573974609e+00) (4, -3.02129435539245605469e+00) (5, 8.59658122062683105469e-01) (6, -4.64281272888183593750e+00) (7, -2.66031670570373535156e+00) (8, -4.19545984268188476562e+00) (9, -1.81863212585449218750e+00) (10, 1.18239669799804687500e+01) (11, 2.54104876518249511719e+00) (12, 1.15757870674133300781e+00) (13, -4.34197330474853515625e+00) (14, 2.42816329002380371094e+00) (15, -2.67657613754272460938e+00) (16, 2.09276142120361328125e+01) (17, 2.64331173896789550781e+00) (18, 7.59966015815734863281e-01) (19, -2.37240791320800781250e+00) (20, -5.89510965347290039062e+00) (21, -5.46699810028076171875e+00) (22, -1.70317625999450683594e+00) (23, 8.25371980667114257812e-01) (24, -9.74396896362304687500e+00) (25, -3.79560923576354980469e+00) (26, -3.00976638793945312500e+01) (27, 3.68498086929321289062e+00) (28, -1.02072155475616455078e+00) (29, -1.88196671009063720703e+00) (30, -6.80176067352294921875e+00) (31, -1.21088035404682159424e-01) (32, 1.32074975967407226562e+01) (33, 1.47919595241546630859e+00) (34, -6.02747964859008789062e+00) (35, 1.43475437164306640625e+00) (36, -1.63832104206085205078e+00) (37, 8.31702804565429687500e+00) (38, 1.03018417358398437500e+01) (39, 4.24386072158813476562e+00) (40, 7.38589167594909667969e-01) (41, 2.93005704879760742188e+00) (42, -2.25590610504150390625e+00) (43, -1.13925158977508544922e+00) (44, 4.25994873046875000000e+00) (45, -1.80235087871551513672e+00) (46, -1.62138900756835937500e+01) (47, -2.49752902984619140625e+00) (48, 2.60227108001708984375e+00) (49, -6.15955097600817680359e-03) (50, -2.86093306541442871094e+00) (51, -3.38624405860900878906e+00) (52, 3.03548884391784667969e+00) (53, 3.55448246002197265625e+00) (54, -2.71400046348571777344e+00) (55, 4.13157558441162109375e+00) (56, -4.03230994939804077148e-01) (57, 2.95094227790832519531e+00) (58, 1.84924438595771789551e-01) (59, -6.78812563419342041016e-01) (60, 1.08699903488159179688e+01) (61, -1.18631768226623535156e+00) (62, -7.98363864421844482422e-01) (63, -5.30923128128051757812e-01) (64, -1.60184013843536376953e+00) (65, -1.02200961112976074219e+00) (66, 3.83348917961120605469e+00) (67, -1.82948350906372070312e+00) (68, 1.15607891082763671875e+01) (69, 4.66670894622802734375e+00) (70, -3.51944518089294433594e+00) (71, 1.77060723304748535156e+00) (72, -2.14244518280029296875e+01) (73, -3.44887471199035644531e+00) (74, 1.74941463470458984375e+01) (75, -1.01251852512359619141e+00) (76, -1.95734083652496337891e+00) (77, -1.71368920803070068359e+00) (78, 7.30849409103393554688e+00) (79, -3.73116731643676757812e-02) (80, -1.70552897453308105469e+00) (81, -6.43463969230651855469e-01) (82, -1.55135202407836914062e+00) (83, -1.58601433038711547852e-01) (84, -2.59678220748901367188e+00) (85, -3.36901283264160156250e+00) (86, 1.36058139801025390625e+00) (87, -2.73048424720764160156e+00) (88, 1.22593097686767578125e+01) (89, 2.83083033561706542969e+00) (90, 3.82191443443298339844e+00) (91, -9.37535822391510009766e-01) (92, -2.57857036590576171875e+00) (93, -8.32364082336425781250e-01) (94, 4.68293809890747070312e+00) (95, 3.49432319402694702148e-01) (96, -3.06338739395141601562e+00) (97, -2.08400368690490722656e+00) (98, 3.69931626319885253906e+00) (99, -1.67550790309906005859e+00) (100, -2.97647211700677871704e-02) (101, 9.49990898370742797852e-02) (102, 8.46689939498901367188e-01) (103, -2.44736838340759277344e+00) (104, -1.32764425277709960938e+01) (105, -2.12993860244750976562e+00) (106, -4.77540135383605957031e-01) (107, -1.65632724761962890625e+00) (108, -8.81828367710113525391e-01) (109, -4.24185276031494140625e+00) (110, -1.55927336215972900391e+00) (111, 1.91328495740890502930e-01) (112, -1.28456544876098632812e+00) (113, -1.47094452381134033203e+00) (114, 2.87241172790527343750e+00) (115, 5.87916225194931030273e-02) (116, 2.03301181793212890625e+01) (117, -1.40347266197204589844e+00) (118, 4.79825067520141601562e+00) (119, 4.11524438858032226562e+00) (120, 6.21279716491699218750e-01) (121, 2.65520596504211425781e+00) (122, -4.03834104537963867188e+00) (123, 4.13536167144775390625e+00) (124, -1.30215764045715332031e+00) (125, -5.23330748081207275391e-01) (126, 4.84477567672729492188e+00) (127, -2.36117911338806152344e+00) (128, -5.41682422161102294922e-01) (129, 2.11957931518554687500e+00) (130, 8.62758338451385498047e-01) (131, 1.43556880950927734375e+00) (132, -5.09284925460815429688e+00) (133, 2.24191856384277343750e+00) (134, -1.36469144821166992188e+01) (135, 3.27059328556060791016e-01) (136, 2.43496584892272949219e+00) (137, 3.25275945663452148438e+00) (138, -6.16380691528320312500e+00) (139, -1.41889524459838867188e+00) (140, -4.48468637466430664062e+00) (141, 1.10640823841094970703e+00) (142, 2.19946956634521484375e+00) (143, 1.28236830234527587891e+00) (144, 8.19737625122070312500e+00) (145, -5.91957747936248779297e-01) (146, -1.23073968887329101562e+01) (147, 1.40016710758209228516e+00) (148, 8.77201318740844726562e-01) (149, -5.25724470615386962891e-01) (150, -1.07392005920410156250e+01) (151, 2.23690366744995117188e+00) (152, -2.66399860382080078125e+01) (153, -6.71331214904785156250e+00) (154, 5.41484680175781250000e+01) (155, -1.47237670421600341797e+00) (156, -1.22771394252777099609e+00) (157, 4.52887296676635742188e-01) (158, -6.33337450027465820312e+00) (159, 4.78531551361083984375e+00) (160, -2.53489375114440917969e+00) (161, -5.69842278957366943359e-01) (162, 1.50772809982299804688e+00) (163, -1.02267563343048095703e+00) (164, 8.24475228786468505859e-01) (165, -1.94749498367309570312e+00) (166, -2.75924754142761230469e+00) (167, 2.69319891929626464844e+00) (168, -2.35751032829284667969e+00) (169, -3.34464460611343383789e-01) (170, 4.07601261138916015625e+00) (171, 2.25415319204330444336e-01) (172, -9.03818190097808837891e-01) (173, -6.65502667427062988281e-01) (174, -2.78314781188964843750e+00) (175, -2.91675001382827758789e-01) (176, 4.10514450073242187500e+00) (177, -2.04958486557006835938e+00) (178, 2.67894244194030761719e+00) (179, 5.10661900043487548828e-01) (180, -5.20026636123657226562e+00) (181, 3.04927277565002441406e+00) (182, -3.50399684906005859375e+00) (183, 1.47868561744689941406e+00) (184, 1.29460821151733398438e+01) (185, -1.51794922351837158203e+00) (186, 5.27826356887817382812e+00) (187, -1.81768894195556640625e+00) (188, 3.57252192497253417969e+00) (189, 3.64996147155761718750e+00) (190, 1.03170430660247802734e+00) (191, 2.28730845451354980469e+00) (192, 5.97551965713500976562e+00) (193, -8.85907709598541259766e-01) (194, 2.10767192840576171875e+01) (195, -2.65469956398010253906e+00) (196, 1.50000000000000000000e+03) (197, 1.50000000000000000000e+03) (198, 1.50000000000000000000e+03) (199, 1.50000000000000000000e+03) (200, 5.78954577445983886719e-01) (201, 9.22930812835693359375e+00) (202, 8.84075832366943359375e+00) (0, 1.50000000000000000000e+03) (1, 3.82060012817382812500e+01) (2, 1.50000000000000000000e+03) (3, 7.30348968505859375000e+00) (4, 1.18897953033447265625e+01) (5, 2.63994002342224121094e+00) (6, -4.12557891845703125000e+02) (7, -1.54520428180694580078e+00) (8, -1.50000000000000000000e+03) (9, -1.50000000000000000000e+03) (10, -1.50000000000000000000e+03) (11, -1.50000000000000000000e+03) (12, -1.50000000000000000000e+03) (13, -1.50000000000000000000e+03) (14, -1.50000000000000000000e+03) (15, -3.26961090087890625000e+02) (16, 1.49998925781250000000e+03) (17, 4.03716278076171875000e+00) (18, -2.10713267326354980469e+00) (19, 1.68174240112304687500e+02) (20, 1.50000000000000000000e+03) (21, 3.90818858146667480469e+00) (22, 1.49999438476562500000e+03) (23, 3.13258934020996093750e+00) (24, 3.18109649658203125000e+02) (25, 6.04847240447998046875e+00) (26, 1.48235998535156250000e+03) (27, 1.49998645019531250000e+03) (28, 1.50000000000000000000e+03) (29, -2.26685762405395507812e+00) (30, 1.50000000000000000000e+03) (31, 3.28427734375000000000e+02) (32, 1.50000000000000000000e+03) (33, 6.48792362213134765625e+00) (34, 1.50000000000000000000e+03) (35, 1.08784160614013671875e+01) (36, -3.06165710449218750000e+02) (37, 1.13646793365478515625e+01) (38, -1.35640411376953125000e+01) (39, 3.77520990371704101562e+00) (40, -1.49998864746093750000e+03) (41, 3.22498083114624023438e+00) (42, 1.83065536499023437500e+02) (43, -1.23199582099914550781e+00) (44, 1.50000000000000000000e+03) (45, -5.17920479178428649902e-02) (46, -1.49030505371093750000e+03) (47, -1.49999987792968750000e+03) (48, 1.50000000000000000000e+03) (49, -5.59382247924804687500e+01) (50, 1.00676776123046875000e+03) (51, -2.59296476840972900391e-01) (52, 1.44206091308593750000e+03) (53, 2.45083599090576171875e+01) (54, -1.48500000000000000000e+03) (55, -9.55670242309570312500e+01) (56, 1.49943652343750000000e+03) (57, -9.68767395019531250000e+01) (58, 1.50000000000000000000e+03) (59, -7.70996948242187500000e+02) (60, -2.27071044921875000000e+02) (61, -1.49993603515625000000e+03) (62, -6.43406494140625000000e+02) (63, 3.30019187927246093750e+00) (64, -1.49873583984375000000e+03) (65, 6.07377147674560546875e+00) (66, 1.50000000000000000000e+03) (67, 3.59981422424316406250e+01) (68, 1.50000000000000000000e+03) (69, -1.03461623191833496094e+00) (70, 1.50000000000000000000e+03) (71, 2.40709590911865234375e+00) (72, -3.09820739746093750000e+02) (73, 2.81228160858154296875e+00) (74, 1.50000000000000000000e+03) (75, 8.18347740173339843750e+00) (76, 1.50000000000000000000e+03) (77, 1.86679134368896484375e+01) (78, -8.62111129760742187500e+01) (79, 