FANN_FLO_2.1
num_layers=3
learning_rate=0.700000
connection_rate=1.000000
network_type=0
learning_momentum=0.000000
training_algorithm=2
train_error_function=1
train_stop_function=0
cascade_output_change_fraction=0.010000
quickprop_decay=-0.000100
quickprop_mu=1.750000
rprop_increase_factor=1.200000
rprop_decrease_factor=0.500000
rprop_delta_min=0.000000
rprop_delta_max=50.000000
rprop_delta_zero=0.100000
cascade_output_stagnation_epochs=12
cascade_candidate_change_fraction=0.010000
cascade_candidate_stagnation_epochs=12
cascade_max_out_epochs=150
cascade_min_out_epochs=50
cascade_max_cand_epochs=150
cascade_min_cand_epochs=50
cascade_num_candidate_groups=2
bit_fail_limit=3.49999994039535522461e-01
cascade_candidate_limit=1.00000000000000000000e+03
cascade_weight_multiplier=4.00000005960464477539e-01
cascade_activation_functions_count=10
cascade_activation_functions=3 5 7 8 10 11 14 15 16 17 
cascade_activation_steepnesses_count=4
cascade_activation_steepnesses=2.50000000000000000000e-01 5.00000000000000000000e-01 7.50000000000000000000e-01 1.00000000000000000000e+00 
layer_sizes=203 51 2 
scale_included=0
neurons (num_inputs, activation_function, activation_steepness)=(0, 0, 0.00000000000000000000e+00) (0, 0, 0.00000000000000000000e+00) (0, 0, 0.00000000000000000000e+00) (0, 0, 0.00000000000000000000e+00) (0, 0, 0.00000000000000000000e+00) (0, 0, 0.00000000000000000000e+00) (0, 0, 0.00000000000000000000e+00) (0, 0, 0.00000000000000000000e+00) (0, 0, 0.00000000000000000000e+00) (0, 0, 0.00000000000000000000e+00) (0, 0, 0.00000000000000000000e+00) (0, 0, 0.00000000000000000000e+00) (0, 0, 0.00000000000000000000e+00) (0, 0, 0.00000000000000000000e+00) (0, 0, 0.00000000000000000000e+00) (0, 0, 0.00000000000000000000e+00) (0, 0, 0.00000000000000000000e+00) (0, 0, 0.00000000000000000000e+00) (0, 0, 0.00000000000000000000e+00) (0, 0, 0.00000000000000000000e+00) (0, 0, 0.00000000000000000000e+00) (0, 0, 0.00000000000000000000e+00) (0, 0, 0.00000000000000000000e+00) (0, 0, 0.00000000000000000000e+00) (0, 0, 0.00000000000000000000e+00) (0, 0, 0.00000000000000000000e+00) (0, 0, 0.00000000000000000000e+00) (0, 0, 0.00000000000000000000e+00) (0, 0, 0.00000000000000000000e+00) (0, 0, 0.00000000000000000000e+00) (0, 0, 0.00000000000000000000e+00) (0, 0, 0.00000000000000000000e+00) (0, 0, 0.00000000000000000000e+00) (0, 0, 0.00000000000000000000e+00) (0, 0, 0.00000000000000000000e+00) (0, 0, 0.00000000000000000000e+00) (0, 0, 0.00000000000000000000e+00) (0, 0, 0.00000000000000000000e+00) (0, 0, 0.00000000000000000000e+00) (0, 0, 0.00000000000000000000e+00) (0, 0, 0.00000000000000000000e+00) (0, 0, 0.00000000000000000000e+00) (0, 0, 0.00000000000000000000e+00) (0, 0, 0.00000000000000000000e+00) (0, 0, 0.00000000000000000000e+00) (0, 0, 0.00000000000000000000e+00) (0, 0, 0.00000000000000000000e+00) (0, 0, 0.00000000000000000000e+00) (0, 0, 0.00000000000000000000e+00) (0, 0, 0.00000000000000000000e+00) (0, 0, 0.00000000000000000000e+00) (0, 0, 0.00000000000000000000e+00) (0, 0, 0.00000000000000000000e+00) (0, 0, 0.00000000000000000000e+00) (0, 0, 0.00000000000000000000e+00) (0, 0, 0.00000000000000000000e+00) (0, 0, 0.00000000000000000000e+00) (0, 0, 0.00000000000000000000e+00) (0, 0, 0.00000000000000000000e+00) (0, 0, 0.00000000000000000000e+00) (0, 0, 0.00000000000000000000e+00) (0, 0, 0.00000000000000000000e+00) (0, 0, 0.00000000000000000000e+00) (0, 0, 0.00000000000000000000e+00) (0, 0, 0.00000000000000000000e+00) (0, 0, 0.00000000000000000000e+00) (0, 0, 0.00000000000000000000e+00) (0, 0, 0.00000000000000000000e+00) (0, 0, 0.00000000000000000000e+00) (0, 0, 0.00000000000000000000e+00) (0, 0, 0.00000000000000000000e+00) (0, 0, 0.00000000000000000000e+00) (0, 0, 0.00000000000000000000e+00) (0, 0, 0.00000000000000000000e+00) (0, 0, 0.00000000000000000000e+00) (0, 0, 0.00000000000000000000e+00) (0, 0, 0.00000000000000000000e+00) (0, 0, 0.00000000000000000000e+00) (0, 0, 0.00000000000000000000e+00) (0, 0, 0.00000000000000000000e+00) (0, 0, 0.00000000000000000000e+00) (0, 0, 0.00000000000000000000e+00) (0, 0, 0.00000000000000000000e+00) (0, 0, 0.00000000000000000000e+00) (0, 0, 0.00000000000000000000e+00) (0, 0, 0.00000000000000000000e+00) (0, 0, 0.00000000000000000000e+00) (0, 0, 0.00000000000000000000e+00) (0, 0, 0.00000000000000000000e+00) (0, 0, 0.00000000000000000000e+00) (0, 0, 0.00000000000000000000e+00) (0, 0, 0.00000000000000000000e+00) (0, 0, 0.00000000000000000000e+00) (0, 0, 0.00000000000000000000e+00) (0, 0, 0.00000000000000000000e+00) (0, 0, 0.00000000000000000000e+00) (0, 0, 0.00000000000000000000e+00) (0, 0, 0.00000000000000000000e+00) (0, 0, 0.00000000000000000000e+00) (0, 0, 0.00000000000000000000e+00) (0, 0, 0.00000000000000000000e+00) (0, 0, 0.00000000000000000000e+00) (0, 0, 0.00000000000000000000e+00) (0, 0, 0.00000000000000000000e+00) (0, 0, 0.00000000000000000000e+00) (0, 0, 0.00000000000000000000e+00) (0, 0, 0.00000000000000000000e+00) (0, 0, 0.00000000000000000000e+00) (0, 0, 0.00000000000000000000e+00) (0, 0, 0.00000000000000000000e+00) (0, 0, 0.00000000000000000000e+00) (0, 0, 0.00000000000000000000e+00) (0, 0, 0.00000000000000000000e+00) (0, 0, 0.00000000000000000000e+00) (0, 0, 0.00000000000000000000e+00) (0, 0, 0.00000000000000000000e+00) (0, 0, 0.00000000000000000000e+00) (0, 0, 0.00000000000000000000e+00) (0, 0, 0.00000000000000000000e+00) (0, 0, 0.00000000000000000000e+00) (0, 0, 0.00000000000000000000e+00) (0, 0, 0.00000000000000000000e+00) (0, 0, 0.00000000000000000000e+00) (0, 0, 0.00000000000000000000e+00) (0, 0, 0.00000000000000000000e+00) (0, 0, 0.00000000000000000000e+00) (0, 0, 0.00000000000000000000e+00) (0, 0, 0.00000000000000000000e+00) (0, 0, 0.00000000000000000000e+00) (0, 0, 0.00000000000000000000e+00) (0, 0, 0.00000000000000000000e+00) (0, 0, 0.00000000000000000000e+00) (0, 0, 0.00000000000000000000e+00) (0, 0, 0.00000000000000000000e+00) (0, 0, 0.00000000000000000000e+00) (0, 0, 0.00000000000000000000e+00) (0, 0, 0.00000000000000000000e+00) (0, 0, 0.00000000000000000000e+00) (0, 0, 0.00000000000000000000e+00) (0, 0, 0.00000000000000000000e+00) (0, 0, 0.00000000000000000000e+00) (0, 0, 0.00000000000000000000e+00) (0, 0, 0.00000000000000000000e+00) (0, 0, 0.00000000000000000000e+00) (0, 0, 0.00000000000000000000e+00) (0, 0, 0.00000000000000000000e+00) (0, 0, 0.00000000000000000000e+00) (0, 0, 0.00000000000000000000e+00) (0, 0, 0.00000000000000000000e+00) (0, 0, 0.00000000000000000000e+00) (0, 0, 0.00000000000000000000e+00) (0, 0, 0.00000000000000000000e+00) (0, 0, 0.00000000000000000000e+00) (0, 0, 0.00000000000000000000e+00) (0, 0, 0.00000000000000000000e+00) (0, 0, 0.00000000000000000000e+00) (0, 0, 0.00000000000000000000e+00) (0, 0, 0.00000000000000000000e+00) (0, 0, 0.00000000000000000000e+00) (0, 0, 0.00000000000000000000e+00) (0, 0, 0.00000000000000000000e+00) (0, 0, 0.00000000000000000000e+00) (0, 0, 0.00000000000000000000e+00) (0, 0, 0.00000000000000000000e+00) (0, 0, 0.00000000000000000000e+00) (0, 0, 0.00000000000000000000e+00) (0, 0, 0.00000000000000000000e+00) (0, 0, 0.00000000000000000000e+00) (0, 0, 0.00000000000000000000e+00) (0, 0, 0.00000000000000000000e+00) (0, 0, 0.00000000000000000000e+00) (0, 0, 0.00000000000000000000e+00) (0, 0, 0.00000000000000000000e+00) (0, 0, 0.00000000000000000000e+00) (0, 0, 0.00000000000000000000e+00) (0, 0, 0.00000000000000000000e+00) (0, 0, 0.00000000000000000000e+00) (0, 0, 0.00000000000000000000e+00) (0, 0, 0.00000000000000000000e+00) (0, 0, 0.00000000000000000000e+00) (0, 0, 0.00000000000000000000e+00) (0, 0, 0.00000000000000000000e+00) (0, 0, 0.00000000000000000000e+00) (0, 0, 0.00000000000000000000e+00) (0, 0, 0.00000000000000000000e+00) (0, 0, 0.00000000000000000000e+00) (0, 0, 0.00000000000000000000e+00) (0, 0, 0.00000000000000000000e+00) (0, 0, 0.00000000000000000000e+00) (0, 0, 0.00000000000000000000e+00) (0, 0, 0.00000000000000000000e+00) (0, 0, 0.00000000000000000000e+00) (0, 0, 0.00000000000000000000e+00) (0, 0, 0.00000000000000000000e+00) (0, 0, 0.00000000000000000000e+00) (0, 0, 0.00000000000000000000e+00) (0, 0, 0.00000000000000000000e+00) (0, 0, 0.00000000000000000000e+00) (0, 0, 0.00000000000000000000e+00) (0, 0, 0.00000000000000000000e+00) (0, 0, 0.00000000000000000000e+00) (0, 0, 0.00000000000000000000e+00) (0, 0, 0.00000000000000000000e+00) (203, 5, 5.00000000000000000000e-01) (203, 5, 5.00000000000000000000e-01) (203, 5, 5.00000000000000000000e-01) (203, 5, 5.00000000000000000000e-01) (203, 5, 5.00000000000000000000e-01) (203, 5, 5.00000000000000000000e-01) (203, 5, 5.00000000000000000000e-01) (203, 5, 5.00000000000000000000e-01) (203, 5, 5.00000000000000000000e-01) (203, 5, 5.00000000000000000000e-01) (203, 5, 5.00000000000000000000e-01) (203, 5, 5.00000000000000000000e-01) (203, 5, 5.00000000000000000000e-01) (203, 5, 5.00000000000000000000e-01) (203, 5, 5.00000000000000000000e-01) (203, 5, 5.00000000000000000000e-01) (203, 5, 5.00000000000000000000e-01) (203, 5, 5.00000000000000000000e-01) (203, 5, 5.00000000000000000000e-01) (203, 5, 5.00000000000000000000e-01) (203, 5, 5.00000000000000000000e-01) (203, 5, 5.00000000000000000000e-01) (203, 5, 5.00000000000000000000e-01) (203, 5, 5.00000000000000000000e-01) (203, 5, 5.00000000000000000000e-01) (203, 5, 5.00000000000000000000e-01) (203, 5, 5.00000000000000000000e-01) (203, 5, 5.00000000000000000000e-01) (203, 5, 5.00000000000000000000e-01) (203, 5, 5.00000000000000000000e-01) (203, 5, 5.00000000000000000000e-01) (203, 5, 5.00000000000000000000e-01) (203, 5, 5.00000000000000000000e-01) (203, 5, 5.00000000000000000000e-01) (203, 5, 5.00000000000000000000e-01) (203, 5, 5.00000000000000000000e-01) (203, 5, 5.00000000000000000000e-01) (203, 5, 5.00000000000000000000e-01) (203, 5, 5.00000000000000000000e-01) (203, 5, 5.00000000000000000000e-01) (203, 5, 5.00000000000000000000e-01) (203, 5, 5.00000000000000000000e-01) (203, 5, 5.00000000000000000000e-01) (203, 5, 5.00000000000000000000e-01) (203, 5, 5.00000000000000000000e-01) (203, 5, 5.00000000000000000000e-01) (203, 5, 5.00000000000000000000e-01) (203, 5, 5.00000000000000000000e-01) (203, 5, 5.00000000000000000000e-01) (203, 5, 5.00000000000000000000e-01) (0, 5, 0.00000000000000000000e+00) (51, 5, 5.00000000000000000000e-01) (0, 5, 0.00000000000000000000e+00) 
connections (connected_to_neuron, weight)=(0, 8.80009689331054687500e+01) (1, 1.11810088157653808594e+00) (2, 3.27579736709594726562e+00) (3, -8.87235999107360839844e-02) (4, -3.29499512910842895508e-01) (5, 3.36431550979614257812e+00) (6, -1.15914611816406250000e+01) (7, -9.10376667976379394531e-01) (8, 6.14741611480712890625e+00) (9, 9.54585361480712890625e+00) (10, -7.59908437728881835938e+00) (11, -8.54211330413818359375e+00) (12, -4.27887487411499023438e+00) (13, -1.38209688663482666016e+00) (14, -2.39249253273010253906e+00) (15, 1.87356412410736083984e+00) (16, 2.51420211791992187500e+00) (17, 2.80199956893920898438e+00) (18, 1.54494190216064453125e+00) (19, 1.61464381217956542969e+00) (20, 9.45966434478759765625e+00) (21, 6.84839534759521484375e+00) (22, 9.77985918521881103516e-01) (23, 6.36344313621520996094e-01) (24, -1.65853576660156250000e+01) (25, -4.73386377096176147461e-01) (26, -9.15046119689941406250e+00) (27, 3.33832502365112304688e-01) (28, -5.33437776565551757812e+00) (29, 3.28972625732421875000e+00) (30, -8.28676319122314453125e+00) (31, -2.06533265113830566406e+00) (32, -1.18344192504882812500e+01) (33, 8.27266812324523925781e-01) (34, 3.42066917419433593750e+01) (35, 5.00018882751464843750e+00) (36, -3.50879096984863281250e+01) (37, -2.09125471115112304688e+00) (38, -9.98171615600585937500e+00) (39, 1.01898288726806640625e+00) (40, -6.04033517837524414062e+00) (41, 3.92032074928283691406e+00) (42, -7.10088825225830078125e+00) (43, 8.33198666572570800781e-01) (44, 1.13333673477172851562e+01) (45, 2.18309387564659118652e-02) (46, 2.08567237854003906250e+01) (47, 1.62845909595489501953e+00) (48, 4.64334219694137573242e-01) (49, 1.12489938735961914062e+00) (50, 7.43566751480102539062e+00) (51, 4.50754880905151367188e+00) (52, -2.46615486145019531250e+01) (53, 4.67021274566650390625e+00) (54, -4.20260000228881835938e+00) (55, -1.89599418640136718750e+00) (56, -1.38668270111083984375e+01) (57, 1.24245934188365936279e-01) (58, -3.79610180854797363281e+00) (59, -4.26569080352783203125e+00) (60, 4.24615955352783203125e+00) (61, -4.07905578613281250000e+00) (62, 1.97061176300048828125e+01) (63, -1.59243726730346679688e+00) (64, -1.21192560195922851562e+01) (65, 3.30433368682861328125e-01) (66, 2.57513141632080078125e+01) (67, 6.57616519927978515625e+00) (68, -8.92572498321533203125e+00) (69, 2.21220517158508300781e+00) (70, 4.68301725387573242188e+00) (71, 1.34891152381896972656e+00) (72, -2.04871025085449218750e+01) (73, 7.40112662315368652344e-01) (74, 4.58409166336059570312e+00) (75, 1.41689777374267578125e+00) (76, -1.82849431037902832031e+00) (77, -1.07231892645359039307e-01) (78, -1.54610500335693359375e+01) (79, 1.66649377346038818359e+00) (80, -4.48821792602539062500e+01) (81, 1.36831736564636230469e+00) (82, -7.54260063171386718750e-01) (83, 7.17177200317382812500e+00) (84, 3.90247797966003417969e+00) (85, 8.97732734680175781250e+00) (86, 4.05425167083740234375e+00) (87, 1.70296406745910644531e+00) (88, 9.25454080104827880859e-01) (89, -3.25102734565734863281e+00) (90, -4.31829404830932617188e+00) (91, -2.33925485610961914062e+00) (92, -3.41676068305969238281e+00) (93, 3.73965835571289062500e+00) (94, -2.16873073577880859375e+01) (95, 5.56623578071594238281e-01) (96, -1.89311962127685546875e+01) (97, -2.61760759353637695312e+00) (98, -3.25586104393005371094e+00) (99, 4.14691543579101562500e+00) (100, 2.98335742950439453125e+00) (101, -2.60279464721679687500e+00) (102, 3.11572122573852539062e+00) (103, -2.08270454406738281250e+00) (104, -6.47241926193237304688e+00) (105, 3.97646117210388183594e+00) (106, -5.18336009979248046875e+00) (107, 2.03132009506225585938e+00) (108, -1.20932674407958984375e+01) (109, 2.27292633056640625000e+00) (110, -2.91644859313964843750e+00) (111, 8.56350994110107421875e+00) (112, 4.17083168029785156250e+00) (113, 3.53219795227050781250e+00) (114, 6.23816490173339843750e-01) (115, 4.05537128448486328125e+00) (116, 1.36164484024047851562e+01) (117, -3.43647432327270507812e+00) (118, -1.90175127983093261719e+00) (119, 1.83397269248962402344e+00) (120, -2.03149461746215820312e+00) (121, 2.88976454734802246094e+00) (122, 3.20825755596160888672e-01) (123, 5.20154619216918945312e+00) (124, -1.22697021484375000000e+02) (125, 2.29265189170837402344e+00) (126, 1.40045242309570312500e+01) (127, 5.93638849258422851562e+00) (128, 1.16385746002197265625e+01) (129, 4.70494174957275390625e+00) (130, 1.31994068622589111328e+00) (131, 7.26644182205200195312e+00) (132, 1.83996467590332031250e+01) (133, 2.36101531982421875000e+00) (134, 5.98196887969970703125e+00) (135, 4.88242769241333007812e+00) (136, 1.37263536453247070312e+00) (137, 1.82952404022216796875e+00) (138, -1.09869127273559570312e+01) (139, -2.02514147758483886719e+00) (140, 3.52179217338562011719e+00) (141, 3.78557205200195312500e+00) (142, 4.26308822631835937500e+00) (143, -2.12682485580444335938e+00) (144, 1.25144071578979492188e+01) (145, 5.98946857452392578125e+00) (146, 8.57204818725585937500e+00) (147, -3.59365314245223999023e-01) (148, -2.10266542434692382812e+00) (149, 3.97697639465332031250e+00) (150, -3.15903258323669433594e+00) (151, 8.54352891445159912109e-01) (152, -1.46840782165527343750e+01) (153, 3.68506908416748046875e+00) (154, -3.61661262512207031250e+01) (155, 1.53680014610290527344e+00) (156, 1.41623601913452148438e+01) (157, 8.47389459609985351562e-01) (158, 1.82540798187255859375e+01) (159, 4.62113618850708007812e+00) (160, 1.79913365840911865234e+00) (161, -1.86722779273986816406e+00) (162, -2.04925994873046875000e+01) (163, -3.36837577819824218750e+00) (164, -2.29030513763427734375e+01) (165, 3.88723039627075195312e+00) (166, -1.12585477828979492188e+01) (167, -3.15744209289550781250e+00) (168, -4.04671001434326171875e+00) (169, -4.82657051086425781250e+00) (170, -2.34659099578857421875e+00) (171, 2.42582893371582031250e+00) (172, -4.16373777389526367188e+00) (173, -2.67722129821777343750e+00) (174, -1.31373095512390136719e+00) (175, -3.43465256690979003906e+00) (176, 3.22812151908874511719e+00) (177, 2.42688202857971191406e+00) (178, 3.70671939849853515625e+00) (179, -1.77718806266784667969e+00) (180, 5.51577425003051757812e+00) (181, -1.74784445762634277344e+00) (182, 1.28004531860351562500e+01) (183, 6.65106296539306640625e+00) (184, -1.56279344558715820312e+01) (185, 4.26178693771362304688e+00) (186, 1.64262104034423828125e+01) (187, 7.08392763137817382812e+00) (188, 5.63664722442626953125e+00) (189, 7.71660685539245605469e-01) (190, 9.63579273223876953125e+00) (191, 5.40390205383300781250e+00) (192, -8.25323963165283203125e+00) (193, 1.00405197143554687500e+01) (194, -2.56067047119140625000e+01) (195, 7.14082622528076171875e+00) (196, 1.50000000000000000000e+03) (197, 1.50000000000000000000e+03) (198, 1.50000000000000000000e+03) (199, 1.50000000000000000000e+03) (200, -7.16396868228912353516e-01) (201, 2.73673839569091796875e+01) (202, 2.26547789573669433594e+00) (0, 1.08293676376342773438e+01) (1, 4.78663831949234008789e-01) (2, -6.89138460159301757812e+00) (3, -2.13726782798767089844e+00) (4, 1.35369801521301269531e+00) (5, 8.28697979450225830078e-01) (6, 6.16273343563079833984e-01) (7, -2.11223646998405456543e-01) (8, -1.51309144496917724609e+00) (9, 4.20936203002929687500e+00) (10, -7.02124908566474914551e-02) (11, -1.00768661499023437500e+00) (12, -5.12659311294555664062e-01) (13, 6.01773202419281005859e-01) (14, -1.86044156551361083984e+00) (15, 1.02958887815475463867e-01) (16, 5.63682019710540771484e-01) (17, 1.02422885596752166748e-01) (18, -1.30151987075805664062e+00) (19, -5.34009048715233802795e-03) (20, -1.30536508560180664062e+00) (21, 2.94533944129943847656e+00) (22, 5.02710723876953125000e+00) (23, -2.78105926513671875000e+00) (24, 1.07803583145141601562e+00) (25, -1.04691565036773681641e-01) (26, -3.61806273460388183594e+00) (27, -3.21959900856018066406e+00) (28, 2.40667200088500976562e+00) (29, -9.67109203338623046875e-01) (30, -2.48328113555908203125e+00) (31, 5.42550683021545410156e-01) (32, -6.76865291595458984375e+00) (33, 6.55053555965423583984e-01) (34, 1.07641334533691406250e+01) (35, 6.19210386276245117188e+00) (36, -1.14105388522148132324e-01) (37, 3.08487325906753540039e-01) (38, 4.17271947860717773438e+00) (39, 4.15885829925537109375e+00) (40, -1.76012325286865234375e+00) (41, -1.92867383360862731934e-01) (42, -1.52778291702270507812e+00) (43, -3.46021556854248046875e+00) (44, 4.40479373931884765625e+00) (45, -3.14529013633728027344e+00) (46, 3.74321365356445312500e+00) (47, -3.20017099380493164062e+00) (48, 1.42966079711914062500e+00) (49, -2.43809685111045837402e-01) (50, -1.02226412296295166016e+00) (51, -7.29801237583160400391e-01) (52, -2.47661304473876953125e+00) (53, -9.19885814189910888672e-01) (54, 2.72298431396484375000e+00) (55, -3.34682494401931762695e-01) (56, 1.09373188018798828125e+00) (57, -5.25079250335693359375e-01) (58, 4.54890966415405273438e-01) (59, 1.73926985263824462891e+00) (60, 2.84376759082078933716e-02) (61, -4.90548133850097656250e+00) (62, 3.13114374876022338867e-01) (63, -4.47138249874114990234e-02) (64, 1.21906557083129882812e+01) (65, 2.95163011550903320312e+00) (66, 2.23440003395080566406e+00) (67, 3.62181615829467773438e+00) (68, -4.05181437730789184570e-01) (69, 1.31325721740722656250e+00) (70, -3.22007083892822265625e+00) (71, 3.46324890851974487305e-01) (72, 7.54801779985427856445e-02) (73, 1.04273939132690429688e+00) (74, 9.27256822586059570312e-01) (75, 1.40646386146545410156e+00) (76, 2.07584595680236816406e+00) (77, 1.73830747604370117188e-01) (78, -1.00787425041198730469e+00) (79, -2.29675865173339843750e+00) (80, -1.19995248317718505859e+00) (81, -2.21409344673156738281e+00) (82, 3.89013814926147460938e+00) (83, -9.84465032815933227539e-02) (84, -1.24990677833557128906e+00) (85, 1.54229688644409179688e+00) (86, -5.13896763324737548828e-01) (87, -1.37635087966918945312e+00) (88, -1.23208665847778320312e+00) (89, -1.25983262062072753906e+00) (90, 2.31701517105102539062e+00) (91, -1.05400204658508300781e+00) (92, 5.73711514472961425781e-01) (93, 1.24450099468231201172e+00) (94, -1.14067479968070983887e-01) (95, 3.12388586997985839844e+00) (96, -4.09858036041259765625e+00) (97, -1.00691628456115722656e+00) (98, 5.37796545028686523438e+00) (99, -2.28253453969955444336e-01) (100, -5.28934359550476074219e-01) (101, 1.28869748115539550781e+00) (102, -1.82833623886108398438e+00) (103, 9.64528322219848632812e-01) (104, 1.52478623390197753906e+00) (105, -7.94146120548248291016e-01) (106, 3.69740462303161621094e+00) (107, -1.39584076404571533203e+00) (108, 4.25831824541091918945e-01) (109, 2.01290488243103027344e+00) (110, -2.38112878799438476562e+00) (111, -4.15829300880432128906e-01) (112, -1.29029914736747741699e-01) (113, -2.64105176925659179688e+00) (114, 6.40918636322021484375e+00) (115, -2.82750320434570312500e+00) (116, 2.41217881441116333008e-01) (117, -1.36293673515319824219e+00) (118, 8.53931188583374023438e-01) (119, -1.49446797370910644531e+00) (120, -6.61842286586761474609e-01) (121, 4.20400238037109375000e+00) (122, 8.12655240297317504883e-02) (123, 1.56205236911773681641e-01) (124, 1.57504796981811523438e+00) (125, -1.92530524730682373047e+00) (126, -7.38226652145385742188e+00) (127, -9.93060052394866943359e-01) (128, 1.54486584663391113281e+00) (129, -4.42093789577484130859e-01) (130, 2.12906384468078613281e+00) (131, 1.70896485447883605957e-01) (132, 3.34496808052062988281e+00) (133, -2.41385793685913085938e+00) (134, -3.62106943130493164062e+00) (135, -8.63047599792480468750e-01) (136, -4.60135555267333984375e+00) (137, 1.11345815658569335938e+00) (138, -3.22889590263366699219e+00) (139, -3.16538381576538085938e+00) (140, -1.23135197162628173828e+00) (141, 5.02188205718994140625e-01) (142, -5.67288994789123535156e-01) (143, 6.67708969116210937500e+00) (144, 1.44617271423339843750e+00) (145, -6.10011637210845947266e-01) (146, 4.94782495498657226562e+00) (147, 9.46596324443817138672e-01) (148, 3.21907019615173339844e+00) (149, -1.06875181198120117188e+00) (150, -5.63229560852050781250e-01) (151, -3.87872517108917236328e-01) (152, 3.48056483268737792969e+00) (153, -2.15481829643249511719e+00) (154, 8.44782543182373046875e+00) (155, -2.13115692138671875000e+00) (156, 4.71109628677368164062e+00) (157, 8.40851664543151855469e-01) (158, 2.49590802192687988281e+00) (159, 9.23093080520629882812e-01) (160, 4.58091318607330322266e-01) (161, -6.96201324462890625000e-01) (162, 3.86767745018005371094e-01) (163, 2.39524412155151367188e+00) (164, -2.96366238594055175781e+00) (165, -3.03865647315979003906e+00) (166, -6.39731049537658691406e-01) (167, 2.52208614349365234375e+00) (168, 4.76361632347106933594e-01) (169, 1.05813264846801757812e+00) (170, 2.89397481828927993774e-02) (171, -3.00646972656250000000e+00) (172, 2.08932250738143920898e-01) (173, 6.93288266658782958984e-01) (174, 1.24096536636352539062e+00) (175, 6.55634820461273193359e-01) (176, 1.65846395492553710938e+00) (177, -1.21395719051361083984e+00) (178, 7.22076594829559326172e-01) (179, 1.00700616836547851562e+00) (180, -1.61721944808959960938e+00) (181, -1.20357763767242431641e+00) (182, 4.25112724304199218750e+00) (183, 2.34490633010864257812e+00) (184, -5.00510120391845703125e+00) (185, 1.72179520130157470703e+00) (186, -8.13990688323974609375e+00) (187, -3.15143084526062011719e+00) (188, 1.89544737339019775391e+00) (189, -5.84753155708312988281e-01) (190, 2.58277726173400878906e+00) (191, -2.37043190002441406250e+00) (192, 3.52091288566589355469e+00) (193, -3.09114575386047363281e+00) (194, -1.38686645030975341797e+00) (195, -3.92006367444992065430e-01) (196, 1.50000000000000000000e+03) (197, 1.50000000000000000000e+03) (198, 1.50000000000000000000e+03) (199, 1.50000000000000000000e+03) (200, 5.44726133346557617188e-01) (201, 6.32364940643310546875e+00) (202, 9.04683303833007812500e+00) (0, -1.73311019897460937500e+02) (1, 4.06466341018676757812e+00) (2, -1.48444641113281250000e+03) (3, 7.26448774337768554688e-01) (4, 3.94199967384338378906e+00) (5, 4.42356348037719726562e+00) (6, 2.07393207550048828125e+01) (7, 3.23325896263122558594e+00) (8, 2.89544272422790527344e+00) (9, 4.87161636352539062500e+00) (10, -7.40892410278320312500e+01) (11, 3.92612552642822265625e+00) (12, 3.93016719818115234375e+00) (13, 1.89538085460662841797e+00) (14, -4.13435506820678710938e+00) (15, 4.88937616348266601562e+00) (16, 1.21317052841186523438e+00) (17, 1.55649936199188232422e+00) (18, -1.03665323257446289062e+01) (19, 3.73546934127807617188e+00) (20, 2.19062304496765136719e+00) (21, 1.70801472663879394531e+00) (22, -2.52723808288574218750e+01) (23, 1.63099968433380126953e+00) (24, 9.02621841430664062500e+00) (25, 9.68979835510253906250e+00) (26, -7.70134887695312500000e+01) (27, 9.68581867218017578125e+00) (28, 2.19753479957580566406e+00) (29, 1.72311401367187500000e+00) (30, -2.48821975708007812500e+02) (31, 1.70468330383300781250e+01) (32, 4.32321105957031250000e+02) (33, 3.56887283325195312500e+01) (34, 1.49668774414062500000e+03) (35, 6.91448135375976562500e+01) (36, -4.18334289550781250000e+02) (37, 3.34448289871215820312e+00) (38, -3.01087646484375000000e+02) (39, 2.72317848205566406250e+01) (40, -1.32387670898437500000e+03) (41, 5.05736351013183593750e+00) (42, -3.65099258422851562500e+01) (43, 6.70036506652832031250e+00) (44, -4.18382598876953125000e+02) (45, 4.62920593261718750000e+02) (46, -1.86078395843505859375e+01) (47, 9.80919952392578125000e+01) (48, -2.88860845565795898438e+00) (49, 3.00023818016052246094e+00) (50, -6.87010574340820312500e+01) (51, 3.27596969604492187500e+01) (52, 1.15841003417968750000e+02) (53, 7.21238250732421875000e+01) (54, 3.61094903945922851562e+00) (55, 8.15135559082031250000e+02) (56, 2.19568881988525390625e+01) (57, 1.69446090698242187500e+02) (58, 8.42348175048828125000e+01) (59, 1.70170288085937500000e+01) (60, 4.11261322021484375000e+02) (61, 1.13229370117187500000e+00) (62, -9.68361816406250000000e+02) (63, -3.14365673065185546875e+00) (64, 1.05515942382812500000e+03) (65, 4.81087177991867065430e-01) (66, 1.45225537109375000000e+03) (67, -1.89687805175781250000e+01) (68, -5.08304977416992187500e+00) (69, 1.24252200126647949219e+00) (70, 1.75251913070678710938e+00) (71, 1.08466958999633789062e+01) (72, 5.65299072265625000000e+01) (73, 7.48604345321655273438e+00) (74, -1.47617530822753906250e+01) (75, 5.16454362869262695312e+00) (76, 9.54647922515869140625e+00) (77, 1.16736511230468750000e+03) (78, -1.48677387237548828125e+01) (79, 1.89375674724578857422e+00) (80, 5.41011047363281250000e+02) (81, 5.61942720413208007812e+00) (82, -8.35242152214050292969e-01) (83, -9.43964064121246337891e-01) (84, 6.02412223815917968750e+00) (85, -1.41307377815246582031e+00) (86, -1.41810620117187500000e+03) (87, -4.45656204223632812500e+00) (88, -8.74868774414062500000e+01) (89, 2.25329041481018066406e+00) (90, 4.62340450286865234375e+00) (91, 2.79277777671813964844e+00) (92, 4.57145156860351562500e+01) (93, 4.14760780334472656250e+00) (94, -1.27975488281250000000e+03) (95, 2.83377242088317871094e+00) (96, -1.15681042480468750000e+03) (97, 2.27537059783935546875e+00) (98, -1.25541235351562500000e+03) (99, 4.57573699951171875000e+00) (100, 9.96148872375488281250e+00) (101, 9.76371002197265625000e+00) (102, 2.89963703155517578125e+01) (103, 3.37215733528137207031e+00) (104, -1.63039016723632812500e+02) (105, 4.17228651046752929688e+00) (106, 3.65742263793945312500e+01) (107, 8.08307743072509765625e+00) (108, 1.43528186035156250000e+03) (109, 2.96388220787048339844e+00) (110, 3.42334480285644531250e+01) (111, 8.88254451751708984375e+00) (112, 6.89029464721679687500e+01) (113, 3.58367061614990234375e+00) (114, -3.60853157043457031250e+01) (115, 3.18687677383422851562e+00) (116, 5.96093893051147460938e+00) (117, 3.56277680397033691406e+00) (118, 5.75384033203125000000e+02) (119, 3.14878845214843750000e+00) (120, 1.28791645169258117676e-01) (121, 4.34877204895019531250e+00) (122, 7.95610618591308593750e+00) (123, 1.24601614475250244141e+00) (124, 5.11389190673828125000e+02) (125, -5.73701715469360351562e+00) (126, 1.97857254028320312500e+02) (127, -4.39745807647705078125e+00) (128, 2.76096893310546875000e+02) (129, -8.96613597869873046875e-01) (130, 4.79325927734375000000e+02) (131, 1.72152733802795410156e+00) (132, -9.39976349472999572754e-02) (133, -2.56098002195358276367e-01) (134, -1.16247070312500000000e+03) (135, 3.78471899032592773438e+00) (136, 3.87359161376953125000e+02) (137, 5.06869173049926757812e+00) (138, 1.40764755249023437500e+02) (139, 1.23969662189483642578e+00) (140, 1.61759815216064453125e+01) (141, 6.58489763736724853516e-02) (142, 3.25296287536621093750e+01) (143, 1.88943756103515625000e+02) (144, 3.80651000976562500000e+02) (145, 1.46197223663330078125e+01) (146, -1.80353164672851562500e+01) (147, -1.34026229381561279297e-01) (148, -9.76772918701171875000e+01) (149, 1.36053168773651123047e+00) (150, 2.89876422882080078125e+01) (151, 7.38807499408721923828e-01) (152, -1.23189132690429687500e+02) (153, 7.92626571655273437500e+00) (154, 1.49327453613281250000e+03) (155, 2.46311244964599609375e+01) (156, 8.13860702514648437500e+00) (157, 4.05940780639648437500e+01) (158, -6.26305465698242187500e+01) (159, 2.45424613952636718750e+01) (160, 1.50686435699462890625e+01) (161, 3.82516074180603027344e+00) (162, 8.85091400146484375000e+00) (163, 5.85477399826049804688e+00) (164, 1.44122009277343750000e+02) (165, 1.07090396881103515625e+01) (166, -3.09908477783203125000e+02) (167, 6.57741117477416992188e+00) (168, -1.26994304656982421875e+01) (169, 1.40579395294189453125e+01) (170, 2.95948982238769531250e+00) (171, 4.65666294097900390625e+00) (172, -1.77812995910644531250e+01) (173, 3.47324156761169433594e+00) (174, -2.18901611328125000000e+02) (175, -2.35864788293838500977e-01) (176, -1.37547702789306640625e+01) (177, 9.90731641650199890137e-02) (178, -1.76225490570068359375e+01) (179, -2.64425253868103027344e+00) (180, -3.27927742004394531250e+01) (181, 2.75890016555786132812e+00) (182, -1.21161758422851562500e+02) (183, 1.43637180328369140625e+00) (184, -1.49409106445312500000e+03) (185, -3.41013216972351074219e+00) (186, -1.74418533325195312500e+02) (187, 3.40493416786193847656e+00) (188, 1.54052293300628662109e+00) (189, 3.21720314025878906250e+00) (190, -1.39594445800781250000e+03) (191, 1.91143572330474853516e+00) (192, 1.46381164550781250000e+03) (193, 8.37008357048034667969e-01) (194, 1.50000000000000000000e+03) (195, 2.07885742187500000000e+00) (196, 1.50000000000000000000e+03) (197, 1.50000000000000000000e+03) (198, 1.50000000000000000000e+03) (199, 1.50000000000000000000e+03) (200, 1.87750473022460937500e+02) (201, -1.27928747558593750000e+03) (202, 3.02939343452453613281e+00) (0, 1.48719787597656250000e+03) (1, -3.85225248336791992188e+00) (2, -1.46252148437500000000e+03) (3, -9.63563537597656250000e+00) (4, 2.05390691757202148438e+00) (5, 2.55752420425415039062e+00) (6, -4.01509428024291992188e+00) (7, -9.22207593917846679688e-01) (8, 6.88539886474609375000e+00) (9, 7.02263116836547851562e+00) (10, 1.56957221031188964844e+00) (11, -2.94843082427978515625e+01) (12, 4.86628723144531250000e+00) (13, -2.29510092735290527344e+00) (14, -4.47885513305664062500e-01) (15, 2.66676187515258789062e+00) (16, -8.90453040599822998047e-01) (17, 4.59187299013137817383e-01) (18, -2.39205760955810546875e+01) (19, 6.72558403015136718750e+00) (20, -8.49962607026100158691e-02) (21, 5.75402736663818359375e+00) (22, 4.27152442932128906250e+00) (23, 8.61751258373260498047e-01) (24, -4.01071548461914062500e+00) (25, 1.04677982330322265625e+01) (26, 2.41189498901367187500e+01) (27, 8.56000137329101562500e+00) (28, 1.60798776149749755859e+00) (29, 1.35685265064239501953e+00) (30, -1.30994750976562500000e+02) (31, 1.58998382568359375000e+02) (32, 8.44921813964843750000e+02) (33, 2.28193893432617187500e+01) (34, 7.66518188476562500000e+02) (35, 2.48184585571289062500e+01) (36, 1.00227062988281250000e+03) (37, 9.15522515773773193359e-01) (38, -3.81419799804687500000e+02) (39, 2.63792057037353515625e+01) (40, -1.29128576660156250000e+03) (41, 3.92035484313964843750e+00) (42, 7.28851032257080078125e+00) (43, 5.02720499038696289062e+00) (44, 1.00433251953125000000e+03) (45, 4.63234649658203125000e+02) (46, 6.83452701568603515625e+00) (47, 6.79615859985351562500e+01) (48, -2.03977942466735839844e+00) (49, 1.39462690353393554688e+01) (50, 7.26084899902343750000e+00) (51, 3.55928840637207031250e+01) (52, -4.47066873311996459961e-01) (53, 1.47233551025390625000e+02) (54, 1.51152753829956054688e+01) (55, 8.06856018066406250000e+02) (56, -1.08646688461303710938e+01) (57, 1.67928634643554687500e+02) (58, -1.04365585327148437500e+02) (59, 1.41488809585571289062e+01) (60, 3.01304740905761718750e+01) (61, -2.20774435997009277344e+00) (62, 1.93328132629394531250e+01) (63, -4.65458452701568603516e-01) (64, 1.37679577636718750000e+03) (65, 6.57138681411743164062e+00) (66, -1.24179992675781250000e+03) (67, 6.19658279418945312500e+00) (68, -4.96375694274902343750e+01) (69, -3.11937779188156127930e-02) (70, -2.02010488510131835938e+00) (71, 2.39391520619392395020e-01) (72, -8.43297912597656250000e+02) (73, -3.63722229003906250000e+00) (74, 5.88219070434570312500e+01) (75, 1.28295809030532836914e-01) (76, -4.94075250625610351562e+00) (77, 1.16689587402343750000e+03) (78, -2.22174301147460937500e+01) (79, -8.83952021598815917969e-01) (80, -9.45358886718750000000e+02) (81, -4.09048950195312500000e+02) (82, 1.42171621322631835938e+01) (83, -2.70216631889343261719e+00) (84, -8.36960792541503906250e-01) (85, 4.38102436065673828125e+00) (86, 1.44463330078125000000e+03) (87, 1.95494031906127929688e+00) (88, -5.90879487991333007812e+00) (89, 1.51305449008941650391e+00) (90, -6.09245634078979492188e+00) (91, -2.22020459175109863281e+00) (92, -1.17803640365600585938e+01) (93, -4.43007707595825195312e+00) (94, -1.50000000000000000000e+03) (95, 2.32568725943565368652e-01) (96, 1.43161694335937500000e+03) (97, -6.88580691814422607422e-01) (98, 1.45046203613281250000e+03) (99, -1.09513628482818603516e+00) (100, -1.70932066440582275391e+00) (101, -9.87512016296386718750e+00) (102, 9.11841125488281250000e+01) (103, -1.43046903610229492188e+01) (104, 1.48223193359375000000e+03) (105, 1.46967935562133789062e+00) (106, -9.19063110351562500000e+01) (107, 4.79647159576416015625e+00) (108, 1.44351831054687500000e+03) (109, 6.80174684524536132812e+00) (110, -4.64841690063476562500e+01) (111, 9.41528415679931640625e+00) (112, 2.59901275634765625000e+01) (113, 9.60980987548828125000e+00) (114, -1.39527331542968750000e+03) (115, 1.80612659454345703125e+00) (116, 4.16664743423461914062e+00) (117, 4.87742710113525390625e+00) (118, -1.26281433105468750000e+02) (119, 1.06564130783081054688e+01) (120, 6.71941852569580078125e+00) (121, -2.80016422271728515625e-01) (122, 1.22903442382812500000e+01) (123, 5.23776865005493164062e+00) (124, 1.47596350097656250000e+03) (125, 1.43668055534362792969e+00) (126, 1.66876541137695312500e+02) (127, 2.59425663948059082031e+00) (128, 6.29026489257812500000e+02) (129, 1.54418599605560302734e+00) (130, 1.31031726074218750000e+03) (131, -4.49221044778823852539e-01) (132, 1.71339797973632812500e+00) (133, -1.14690732955932617188e+00) (134, -1.50000000000000000000e+03) (135, -5.12227535247802734375e-01) (136, 1.31807165527343750000e+03) (137, 5.92425394058227539062e+00) (138, -8.63789672851562500000e+01) (139, -9.43404436111450195312e-01) (140, -1.43781785964965820312e+01) (141, 3.84636902809143066406e+00) (142, 4.10087432861328125000e+01) (143, 7.31858367919921875000e+01) (144, -9.99521484375000000000e+02) (145, 6.31005287170410156250e+00) (146, 1.72603950500488281250e+01) (147, -1.74170422554016113281e+00) (148, 2.43307495117187500000e+00) (149, -1.17759203910827636719e+00) (150, -2.95958862304687500000e+01) (151, 3.14424896240234375000e+00) (152, -5.27914367675781250000e+02) (153, 7.52119159698486328125e+00) (154, 1.31790600585937500000e+03) (155, 3.32428207397460937500e+01) (156, 5.17283380031585693359e-02) (157, 4.10478820800781250000e+01) (158, -9.20529022216796875000e+01) (159, 6.13084220886230468750e+00) (160, 1.48267736434936523438e+01) (161, -7.36623048782348632812e-01) (162, -1.79010391235351562500e+01) (163, 1.21632432937622070312e+00) (164, 6.71131896972656250000e+01) (165, 3.68716049194335937500e+00) (166, -7.62822814941406250000e+02) (167, -4.37520933151245117188e+00) (168, -5.22263240814208984375e+00) (169, 9.29155540466308593750e+00) (170, 6.00122809410095214844e-01) (171, 7.60424470901489257812e+00) (172, -1.31776676177978515625e+01) (173, 6.44096040725708007812e+00) (174, 1.08818832397460937500e+02) (175, -2.99105715751647949219e+00) (176, 5.22543311119079589844e-01) (177, 1.30311119556427001953e+00) (178, 8.89781951904296875000e+00) (179, -1.72712659835815429688e+00) (180, -5.34182739257812500000e+01) (181, -2.06163167953491210938e+00) (182, -1.45875976562500000000e+03) (183, -3.17383146286010742188e+00) (184, -1.25341809082031250000e+03) (185, 8.15115642547607421875e+00) (186, -8.72916076660156250000e+02) (187, 6.35739517211914062500e+00) (188, -1.55188278198242187500e+02) (189, 3.57562392950057983398e-01) (190, -5.86928771972656250000e+02) (191, 5.64956092834472656250e+00) (192, -1.03143249511718750000e+03) (193, 5.44672966003417968750e+00) (194, 1.49688122558593750000e+03) (195, 1.03921210765838623047e+00) (196, 1.50000000000000000000e+03) (197, 1.50000000000000000000e+03) (198, 1.50000000000000000000e+03) (199, 1.50000000000000000000e+03) (200, 1.54965286254882812500e+02) (201, -1.33091088867187500000e+03) (202, 1.22446370124816894531e+00) (0, 1.28533523559570312500e+02) (1, 6.99474525451660156250e+00) (2, 9.55315303802490234375e+00) (3, 1.87225818634033203125e+00) (4, -2.49806046485900878906e+00) (5, -1.80645203590393066406e+00) (6, -1.15714092254638671875e+01) (7, 1.27746605873107910156e+00) (8, 1.13025646209716796875e+01) (9, 2.05531406402587890625e+01) (10, -8.14261853694915771484e-01) (11, -2.77661204338073730469e+00) (12, -1.18266832828521728516e+00) (13, 1.60073757171630859375e+00) (14, 2.16813697814941406250e+01) (15, 6.43095779418945312500e+00) (16, 4.00361022949218750000e+01) (17, 1.99112777709960937500e+01) (18, 5.63550605773925781250e+01) (19, 5.31150865554809570312e+00) (20, 1.94599090576171875000e+02) (21, 2.30651035308837890625e+01) (22, 2.60210113525390625000e+01) (23, 4.92606878280639648438e+00) (24, -3.08961429595947265625e+01) (25, 3.46316480636596679688e+00) (26, 5.93211650848388671875e+00) (27, 1.27132463455200195312e+00) (28, -1.68225936889648437500e+01) (29, 3.67367935180664062500e+00) (30, -3.03693561553955078125e+01) (31, 2.95772218704223632812e+00) (32, 1.76668182373046875000e+02) (33, 3.70783472061157226562e+00) (34, -1.35918609619140625000e+02) (35, 5.95854330062866210938e+00) (36, -5.34986038208007812500e+01) (37, 1.27823233604431152344e+00) (38, -1.21842193603515625000e+00) (39, 1.12287163734436035156e+00) (40, 5.06968498229980468750e+01) (41, 1.63679790496826171875e+00) (42, 2.11651897430419921875e+01) (43, -6.64905726909637451172e-01) (44, 2.22040786743164062500e+01) (45, 6.10666036605834960938e-01) (46, 9.62869071960449218750e+00) (47, 7.21481847763061523438e+00) (48, -7.67844200134277343750e-01) (49, 1.22157549858093261719e+00) (50, 2.56075286865234375000e+01) (51, 1.81124866008758544922e+00) (52, 6.37114942073822021484e-01) (53, 1.01452398300170898438e+00) (54, 4.14261674880981445312e+00) (55, 4.21996545791625976562e+00) (56, -4.76367473602294921875e+00) (57, 2.34471097588539123535e-01) (58, -6.25277366638183593750e+01) (59, -5.39894342422485351562e-01) (60, -1.93379611968994140625e+01) (61, -1.65263652801513671875e+00) (62, 3.27923774719238281250e+01) (63, 1.80845737457275390625e+00) (64, -5.30042028427124023438e+00) (65, 6.86386346817016601562e+00) (66, 2.83454093933105468750e+01) (67, 2.50911121368408203125e+01) (68, -2.23260772705078125000e+02) (69, 4.07757472991943359375e+00) (70, -5.43356299400329589844e-01) (71, 6.41630649566650390625e+00) (72, -3.63760223388671875000e+01) (73, 1.32235503196716308594e+00) (74, 2.29090461730957031250e+01) (75, 1.59003424644470214844e+00) (76, 7.49668359756469726562e+00) (77, 1.66702890396118164062e+00) (78, -1.76038932800292968750e+01) (79, 1.11057333648204803467e-01) (80, -4.96163272857666015625e+00) (81, -8.59922695159912109375e+00) (82, 8.81377887725830078125e+00) (83, -3.36442470550537109375e+00) (84, 5.37131500244140625000e+00) (85, 9.70581722259521484375e+00) (86, -6.68548440933227539062e+00) (87, 2.25574707984924316406e+00) (88, 1.77092194557189941406e+00) (89, 5.85252165794372558594e-01) (90, -1.80060327053070068359e+00) (91, -4.59920787811279296875e+00) (92, -1.74066944122314453125e+01) (93, -4.39749574661254882812e+00) (94, -8.75900802612304687500e+01) (95, 9.50634419918060302734e-01) (96, -7.66916046142578125000e+01) (97, -4.16722536087036132812e+00) (98, -3.17630538940429687500e+01) (99, 6.27624940872192382812e+00) (100, 1.22119140625000000000e+00) (101, -1.19218993186950683594e+00) (102, 5.73273801803588867188e+00) (103, -1.53466665744781494141e+00) (104, -1.69488677978515625000e+01) (105, 4.90785026550292968750e+00) (106, 1.83791026473045349121e-01) (107, 3.64777994155883789062e+00) (108, -9.80311393737792968750e+00) (109, 4.03056859970092773438e+00) (110, 7.78090429306030273438e+00) (111, 4.08518505096435546875e+00) (112, 3.14366149902343750000e+01) (113, 8.82218170166015625000e+00) (114, 1.32802324295043945312e+01) (115, 4.16430473327636718750e+00) (116, 8.56167030334472656250e+00) (117, 4.32716941833496093750e+00) (118, -7.02995109558105468750e+00) (119, 7.48566961288452148438e+00) (120, 9.36097145080566406250e+00) (121, 3.92741727828979492188e+00) (122, 7.42294740676879882812e+00) (123, 4.35745429992675781250e+00) (124, -8.89948348999023437500e+01) (125, 5.63091802597045898438e+00) (126, 2.93986072540283203125e+01) (127, 7.00447607040405273438e+00) (128, -1.08379840850830078125e+01) (129, 1.20707654953002929688e+00) (130, 6.88950538635253906250e+00) (131, 3.44929409027099609375e+00) (132, 1.11167764663696289062e+01) (133, 1.84481596946716308594e+00) (134, -7.18822021484375000000e+01) (135, -1.36700010299682617188e+00) (136, -5.21148777008056640625e+00) (137, 6.14952325820922851562e-01) (138, -2.17165966033935546875e+01) (139, 1.28233265876770019531e+00) (140, 4.84277629852294921875e+00) (141, 6.62792444229125976562e+00) (142, 2.69989624023437500000e+01) (143, 6.20949888229370117188e+00) (144, 8.63127708435058593750e+00) (145, -6.72940611839294433594e-01) (146, 1.13762464523315429688e+01) (147, 1.01144528388977050781e+00) (148, -7.50660276412963867188e+00) (149, -5.64432442188262939453e-01) (150, -2.15980911254882812500e+00) (151, -1.55860638618469238281e+00) (152, -1.24994430541992187500e+01) (153, 9.15497243404388427734e-01) (154, -1.97211471557617187500e+02) (155, 4.02163076400756835938e+00) (156, 9.00413322448730468750e+00) (157, 3.95172119140625000000e+00) (158, 4.46080284118652343750e+01) (159, 1.00058717727661132812e+01) (160, 8.80105113983154296875e+00) (161, 5.24000024795532226562e+00) (162, -1.23466882705688476562e+01) (163, -1.69409668445587158203e+00) (164, -4.23684120178222656250e+01) (165, -3.52243590354919433594e+00) (166, -2.08849563598632812500e+01) (167, 2.35946193337440490723e-01) (168, -1.15534484386444091797e+00) (169, 7.17272400856018066406e-01) (170, 2.78299474716186523438e+00) (171, 2.98592638969421386719e+00) (172, -2.80344772338867187500e+00) (173, 1.34845376014709472656e+00) (174, 3.18467674255371093750e+01) (175, -3.60118651390075683594e+00) (176, 9.21075916290283203125e+00) (177, 4.74715900421142578125e+00) (178, 4.11919326782226562500e+01) (179, 1.66388726234436035156e+00) (180, 1.16688127517700195312e+01) (181, 1.28201150894165039062e+00) (182, 4.68140888214111328125e+00) (183, 5.53072309494018554688e+00) (184, -4.23262214660644531250e+01) (185, 1.93902664184570312500e+01) (186, 1.00697441101074218750e+01) (187, 9.42049598693847656250e+00) (188, -4.26641941070556640625e+00) (189, 4.49763345718383789062e+00) (190, -1.51468849182128906250e+01) (191, 2.81750793457031250000e+01) (192, 2.61268405914306640625e+01) (193, 9.98269176483154296875e+00) (194, -8.52800140380859375000e+01) (195, 1.57474145889282226562e+01) (196, 1.50000000000000000000e+03) (197, 1.50000000000000000000e+03) (198, 1.50000000000000000000e+03) (199, 1.50000000000000000000e+03) (200, 3.37301683425903320312e+00) (201, 2.08894271850585937500e+02) (202, 4.51018989086151123047e-01) (0, 5.36162300109863281250e+01) (1, 8.49138450622558593750e+00) (2, 1.81591461181640625000e+02) (3, 1.25492000579833984375e+01) (4, 9.30309581756591796875e+00) (5, 5.10287427902221679688e+00) (6, 6.04463691711425781250e+01) (7, 8.83353710174560546875e+00) (8, -4.57595157623291015625e+00) (9, 2.33861875534057617188e+00) (10, 1.43369474411010742188e+01) (11, 2.68029384613037109375e+01) (12, 3.91444444656372070312e+00) (13, 8.42483615875244140625e+00) (14, 4.95307028293609619141e-01) (15, 6.25937366485595703125e+00) (16, 6.54215764999389648438e+00) (17, 5.34499597549438476562e+00) (18, 9.54148960113525390625e+00) (19, 5.68292903900146484375e+00) (20, 5.31723747253417968750e+01) (21, -2.36546063423156738281e+00) (22, -6.40651822090148925781e-01) (23, 3.00785541534423828125e+00) (24, 4.00684356689453125000e+00) (25, 2.60568165779113769531e+00) (26, -8.97407302856445312500e+01) (27, 2.90539592504501342773e-01) (28, -8.93413245677947998047e-01) (29, 2.47113847732543945312e+00) (30, 4.70834159851074218750e+01) (31, 4.06353139877319335938e+00) (32, -3.18782348632812500000e+02) (33, 7.27998733520507812500e+00) (34, -8.83524658203125000000e+02) (35, 3.36484718322753906250e+00) (36, 2.05252487182617187500e+02) (37, 5.83427524566650390625e+00) (38, -2.32889919281005859375e+01) (39, 5.87055253982543945312e+00) (40, -3.06843495368957519531e+00) (41, 2.30041527748107910156e+00) (42, -1.30234432220458984375e+01) (43, 1.39205527305603027344e+00) (44, -9.24048004150390625000e+01) (45, 4.38675689697265625000e+00) (46, -4.24357452392578125000e+01) (47, -5.78379034996032714844e-01) (48, -5.92625617980957031250e+00) (49, 4.99084711074829101562e+00) (50, -6.28648681640625000000e+01) (51, 3.92633652687072753906e+00) (52, -2.80158824920654296875e+01) (53, 5.08327662944793701172e-01) (54, 4.16166725158691406250e+01) (55, 2.75609660148620605469e+00) (56, -2.63064250946044921875e+01) (57, 1.71095409393310546875e+01) (58, 1.50689865112304687500e+02) (59, 7.77441120147705078125e+00) (60, -7.83141555786132812500e+01) (61, 1.52098965644836425781e+00) (62, -7.06631698608398437500e+01) (63, 7.09433019161224365234e-01) (64, -2.73257202148437500000e+02) (65, -2.03080034255981445312e+00) (66, -5.47547119140625000000e+02) (67, 7.55336523056030273438e+00) (68, 4.07257995605468750000e+01) (69, 2.89679336547851562500e+00) (70, 6.81552839279174804688e+00) (71, -1.11641180515289306641e+00) (72, 1.40755569458007812500e+02) (73, 1.96340107917785644531e+00) (74, -3.21504974365234375000e+01) (75, -6.85118854045867919922e-01) (76, 1.08511085510253906250e+02) (77, 2.47506594657897949219e+00) (78, 5.96913681030273437500e+01) (79, 2.57638740539550781250e+00) (80, 6.93178892135620117188e+00) (81, 2.36303424835205078125e+00) (82, 9.85779666900634765625e+00) (83, 3.02855443954467773438e+00) (84, 4.50208187103271484375e+00) (85, -2.77588462829589843750e+00) (86, 2.96290874481201171875e+01) (87, 6.26888179779052734375e+00) (88, 2.14713649749755859375e+01) (89, 3.22657299041748046875e+00) (90, 9.08401870727539062500e+01) (91, 7.43621826171875000000e+00) (92, 1.02088935852050781250e+02) (93, 8.48602294921875000000e+00) (94, 7.51154937744140625000e+01) (95, 2.13217782974243164062e+00) (96, -7.90945129394531250000e+01) (97, 4.28976440429687500000e+00) (98, 2.72888092041015625000e+02) (99, 4.89002875983715057373e-02) (100, 1.81114304065704345703e+00) (101, 1.00530004501342773438e+01) (102, -6.59588432312011718750e+00) (103, 6.19800996780395507812e+00) (104, -1.63465255737304687500e+02) (105, 1.22327768802642822266e+00) (106, 1.54933643341064453125e+01) (107, -4.14351820945739746094e-01) (108, 4.11766929626464843750e+01) (109, -2.54848432540893554688e+00) (110, 1.24093818664550781250e+01) (111, -5.29437065124511718750e+00) (112, -2.38573093414306640625e+01) (113, 1.27450215816497802734e+00) (114, -8.34032344818115234375e+00) (115, 1.70796498656272888184e-01) (116, -7.99483013153076171875e+00) (117, -4.50210094451904296875e+00) (118, 2.31615695953369140625e+01) (119, -1.32088432312011718750e+01) (120, 2.42415261268615722656e+00) (121, -1.89641368389129638672e+00) (122, -6.52027034759521484375e+00) (123, -8.06238949298858642578e-01) (124, -2.77677734375000000000e+02) (125, -5.63384485244750976562e+00) (126, -1.25423789978027343750e+02) (127, -6.49188327789306640625e+00) (128, -1.00653066635131835938e+01) (129, 4.34907722473144531250e+00) (130, 1.70208168029785156250e+00) (131, 1.87881302833557128906e+00) (132, 7.31606960296630859375e+00) (133, 5.18993043899536132812e+00) (134, 4.37294189453125000000e+02) (135, 1.51387958526611328125e+01) (136, 1.77805194854736328125e+01) (137, 6.69795608520507812500e+00) (138, 2.60700855255126953125e+01) (139, 2.24668812751770019531e+00) (140, 1.47048721313476562500e+01) (141, -1.81892454624176025391e+00) (142, -5.47191886901855468750e+01) (143, -5.59852170944213867188e+00) (144, -2.28991546630859375000e+02) (145, -5.84271574020385742188e+00) (146, -6.02591705322265625000e+00) (147, -4.97734498977661132812e+00) (148, 2.31267356872558593750e+01) (149, -1.38430380821228027344e+00) (150, 1.21522994995117187500e+02) (151, -2.33381271362304687500e+00) (152, 1.91435607910156250000e+02) (153, 1.55058729648590087891e+00) (154, 2.60968750000000000000e+02) (155, 5.75791776180267333984e-01) (156, 4.23405227661132812500e+01) (157, 3.92847084999084472656e+00) (158, 4.80070617675781250000e+02) (159, -2.70122051239013671875e+00) (160, 8.31192398071289062500e+00) (161, 1.13615684509277343750e+01) (162, 8.74792404174804687500e+01) (163, 4.90247058868408203125e+00) (164, -1.19441825866699218750e+02) (165, 6.41178655624389648438e+00) (166, 2.36313537597656250000e+02) (167, 6.99729537963867187500e+00) (168, 7.64428901672363281250e+00) (169, 6.87775230407714843750e+00) (170, 8.92241287231445312500e+00) (171, 3.85228085517883300781e+00) (172, 1.33687372207641601562e+01) (173, 6.77909851074218750000e-01) (174, -1.23939338684082031250e+02) (175, -2.41071701049804687500e-01) (176, 7.45281505584716796875e+00) (177, 4.79586005210876464844e-01) (178, 1.07045984268188476562e+00) (179, 5.34154951572418212891e-01) (180, -2.02219257354736328125e+01) (181, 9.57963848114013671875e+00) (182, 7.71541442871093750000e+01) (183, 4.46445763111114501953e-01) (184, 1.49359570312500000000e+03) (185, -2.08345222473144531250e+00) (186, -1.01255081176757812500e+02) (187, -3.07980322837829589844e+00) (188, 8.29011154174804687500e+01) (189, 6.17560291290283203125e+00) (190, 1.16511035156250000000e+03) (191, 3.82975349426269531250e+01) (192, 2.55737350463867187500e+02) (193, 4.08688583374023437500e+01) (194, 9.64428329467773437500e+00) (195, 9.58132858276367187500e+01) (196, 1.50000000000000000000e+03) (197, 1.50000000000000000000e+03) (198, 1.50000000000000000000e+03) (199, 1.50000000000000000000e+03) (200, 2.82124977111816406250e+01) (201, -1.50000000000000000000e+03) (202, -3.67230926513671875000e+02) (0, 1.18438708782196044922e+00) (1, 4.02033358812332153320e-01) (2, 1.37080824375152587891e+00) (3, -4.49113321304321289062e+00) (4, 1.05682888031005859375e+01) (5, 1.90604484081268310547e+00) (6, -2.13576674461364746094e+00) (7, 5.57246208190917968750e-01) (8, -1.08984661102294921875e+00) (9, -5.44011950492858886719e-01) (10, 1.86963999271392822266e+00) (11, 6.70239269733428955078e-01) (12, -5.51428020000457763672e-01) (13, -1.55850851535797119141e+00) (14, 1.38300311565399169922e+00) (15, -2.82882833480834960938e+00) (16, -4.15085583925247192383e-01) (17, 6.54468011856079101562e+00) (18, -6.56189084053039550781e-01) (19, -2.91364836692810058594e+00) (20, -1.93422269821166992188e+00) (21, 3.59586977958679199219e+00) (22, -5.75060188770294189453e-01) (23, -1.07851922512054443359e+00) (24, 2.65924906730651855469e+00) (25, 2.98708558082580566406e+00) (26, -6.36936426162719726562e+00) (27, -2.39706230163574218750e+00) (28, 5.43811655044555664062e+00) (29, 1.59543299674987792969e+00) (30, 4.03683376312255859375e+00) (31, -3.54442119598388671875e+00) (32, -9.51448726654052734375e+00) (33, -1.95640787482261657715e-01) (34, 1.64158840179443359375e+01) (35, -1.70918524265289306641e+00) (36, -1.24333488941192626953e+00) (37, -1.19859075546264648438e+00) (38, 1.44570093154907226562e+01) (39, -5.59100091457366943359e-01) (40, 2.87455773353576660156e+00) (41, -3.62714147567749023438e+00) (42, -6.06872987747192382812e+00) (43, 4.26380306482315063477e-01) (44, 2.79078423976898193359e-01) (45, -9.15664196014404296875e+00) (46, -7.32493686676025390625e+00) (47, 3.61904263496398925781e+00) (48, -3.74985575675964355469e+00) (49, 5.00560808181762695312e+00) (50, 2.48918170928955078125e+01) (51, 3.89686197042465209961e-01) (52, -1.18526296615600585938e+01) (53, -2.54618263244628906250e+00) (54, -1.74517860412597656250e+01) (55, -3.50868105888366699219e+00) (56, -8.28515148162841796875e+00) (57, -2.32144975662231445312e+00) (58, 1.75258388519287109375e+01) (59, -1.06637202203273773193e-01) (60, 5.27360856533050537109e-01) (61, -2.08494687080383300781e+00) (62, -3.65704841613769531250e+01) (63, 3.47072780132293701172e-01) (64, 7.28766012191772460938e+00) (65, 4.52032953500747680664e-01) (66, -9.61702442169189453125e+00) (67, 4.03067159652709960938e+00) (68, -3.66852426528930664062e+00) (69, -1.38954567909240722656e+00) (70, 2.31607389450073242188e+00) (71, 1.88793587684631347656e+00) (72, 1.62966537475585937500e+00) (73, -1.56594967842102050781e+00) (74, 2.99785161018371582031e+00) (75, 3.94034934043884277344e+00) (76, -1.62760581970214843750e+01) (77, 1.06818532943725585938e+00) (78, 6.04563236236572265625e+00) (79, -3.52795422077178955078e-01) (80, 8.60792827606201171875e+00) (81, 2.53482389450073242188e+00) (82, -2.97615623474121093750e+00) (83, -2.80394196510314941406e+00) (84, -1.11105604171752929688e+01) (85, 1.23735666275024414062e+00) (86, -4.51185607910156250000e+00) (87, -6.11871898174285888672e-01) (88, 1.34648714065551757812e+01) (89, -1.71387863159179687500e+00) (90, 3.33633995056152343750e+00) (91, -5.54643213748931884766e-01) (92, -4.02318000793457031250e+00) (93, 5.05582928657531738281e-01) (94, -5.33738517761230468750e+00) (95, -3.31170320510864257812e+00) (96, 7.72574377059936523438e+00) (97, 5.68782663345336914062e+00) (98, -1.59915971755981445312e+01) (99, 4.22882884740829467773e-01) (100, 1.61954927444458007812e+00) (101, -2.63135600090026855469e+00) (102, 1.87147541046142578125e+01) (103, 1.84638214111328125000e+00) (104, -1.89216632843017578125e+01) (105, -1.20628607273101806641e+00) (106, 5.70986223220825195312e+00) (107, 2.46767067909240722656e+00) (108, 3.50122332572937011719e+00) (109, 1.85707139968872070312e+00) (110, -7.42146062850952148438e+00) (111, 3.94154024124145507812e+00) (112, 1.03865232467651367188e+01) (113, -4.58451938629150390625e+00) (114, -2.51643323898315429688e+00) (115, -4.77926462888717651367e-01) (116, -6.29029035568237304688e+00) (117, 5.63236951828002929688e-01) (118, -6.49649715423583984375e+00) (119, 2.33645534515380859375e+00) (120, 1.31672792434692382812e+01) (121, -1.66159343719482421875e+00) (122, -8.65996742248535156250e+00) (123, -2.76671737432479858398e-01) (124, 2.64422435760498046875e+01) (125, 4.63390493392944335938e+00) (126, -1.05612401962280273438e+01) (127, -3.33909559249877929688e+00) (128, -7.77064275741577148438e+00) (129, 5.09216964244842529297e-01) (130, -9.43322086334228515625e+00) (131, 7.32551860809326171875e+00) (132, 1.16423254013061523438e+01) (133, -3.34299445152282714844e+00) (134, 2.87859439849853515625e+00) (135, -2.45701551437377929688e+00) (136, -7.83657217025756835938e+00) (137, -2.19421714544296264648e-01) (138, -2.65971755981445312500e+00) (139, 4.38460874557495117188e+00) (140, 2.07450485229492187500e+01) (141, 2.61940836906433105469e+00) (142, -1.00299215316772460938e+01) (143, -4.72276020050048828125e+00) (144, -1.63719234466552734375e+01) (145, 2.95328766107559204102e-01) (146, -2.43289899826049804688e+00) (147, 9.85417068004608154297e-01) (148, 1.31495237350463867188e+01) (149, -3.82009410858154296875e+00) (150, -5.95987796783447265625e-01) (151, 1.79020082950592041016e+00) (152, -1.17678346633911132812e+01) (153, -4.40566349029541015625e+00) (154, -1.43385857343673706055e-01) (155, 1.95193037390708923340e-01) (156, 2.30688881874084472656e+00) (157, -1.03897786140441894531e+00) (158, 1.65128302574157714844e+00) (159, 2.09757161140441894531e+00) (160, -9.60171031951904296875e+00) (161, 1.52318263426423072815e-02) (162, 3.96733355522155761719e+00) (163, 2.08757281303405761719e+00) (164, -8.46013927459716796875e+00) (165, 1.12847471237182617188e+00) (166, 4.90029621124267578125e+00) (167, -2.31421613693237304688e+00) (168, 9.12531566619873046875e+00) (169, 3.02340388298034667969e+00) (170, 5.32203722000122070312e+00) (171, -6.01674318313598632812e+00) (172, -6.15540218353271484375e+00) (173, 1.73923790454864501953e+00) (174, 4.38767862319946289062e+00) (175, -2.86375188827514648438e+00) (176, -6.83438539505004882812e+00) (177, -1.69390165805816650391e+00) (178, -1.71755206584930419922e+00) (179, 2.09190440177917480469e+00) (180, -2.11339521408081054688e+00) (181, -1.23432648181915283203e+00) (182, 8.14063167572021484375e+00) (183, 5.64743232727050781250e+00) (184, 5.68027639389038085938e+00) (185, -2.58756804466247558594e+00) (186, -6.43979263305664062500e+00) (187, -2.72827768325805664062e+00) (188, -9.37341022491455078125e+00) (189, 3.41053009033203125000e-01) (190, -9.22232437133789062500e+00) (191, 2.84964125603437423706e-02) (192, 4.39308786392211914062e+00) (193, 2.31701993942260742188e+00) (194, -1.95816650390625000000e+01) (195, -1.42748093605041503906e+00) (196, 1.50000000000000000000e+03) (197, 1.50000000000000000000e+03) (198, 1.50000000000000000000e+03) (199, 1.50000000000000000000e+03) (200, 7.64225959777832031250e-01) (201, 8.39663624763488769531e-01) (202, 2.77265644073486328125e+00) (0, 2.37651119232177734375e+01) (1, 5.98979616165161132812e+00) (2, 7.99408569335937500000e+01) (3, 1.32780847549438476562e+01) (4, 3.12544631958007812500e+00) (5, 4.98451280593872070312e+00) (6, 4.12284088134765625000e+01) (7, 1.25799121856689453125e+01) (8, -2.13142528533935546875e+01) (9, -4.58818197250366210938e-01) (10, 5.98379421234130859375e+00) (11, 2.00582180023193359375e+01) (12, 3.91489052772521972656e+00) (13, 7.99595546722412109375e+00) (14, -1.55380716323852539062e+01) (15, 2.94735026359558105469e+00) (16, -1.14411640167236328125e+01) (17, 5.01125240325927734375e+00) (18, -1.08053293228149414062e+01) (19, 2.38698434829711914062e+00) (20, 2.89412860870361328125e+01) (21, -5.55982351303100585938e-01) (22, -1.63135833740234375000e+02) (23, 4.38541173934936523438e+00) (24, 4.07456207275390625000e+01) (25, 3.36208987236022949219e+00) (26, -6.33040161132812500000e+01) (27, -7.29153215885162353516e-01) (28, 3.26348876953125000000e+00) (29, -7.31451869010925292969e-01) (30, 1.65171997070312500000e+02) (31, 1.59295821189880371094e+00) (32, -1.35300811767578125000e+02) (33, 3.24860811233520507812e+00) (34, -3.17376525878906250000e+02) (35, -9.99491333961486816406e-01) (36, 2.01066467285156250000e+02) (37, 5.48980617523193359375e+00) (38, -1.16859649658203125000e+02) (39, 2.60997325181961059570e-01) (40, 8.42946395874023437500e+01) (41, 3.13402962684631347656e+00) (42, -1.32587785720825195312e+01) (43, 8.10004532337188720703e-01) (44, 2.46753234863281250000e+02) (45, 5.36824035644531250000e+00) (46, -2.00418891906738281250e+01) (47, -1.31167697906494140625e+01) (48, 1.24876117706298828125e+01) (49, 5.70580101013183593750e+00) (50, -4.86433410644531250000e+00) (51, 5.89144325256347656250e+00) (52, -4.16644515991210937500e+01) (53, 2.69581580162048339844e+00) (54, -3.07326450347900390625e+01) (55, -6.24156355857849121094e-01) (56, -4.27668533325195312500e+01) (57, 3.08459091186523437500e+00) (58, 4.75641059875488281250e+01) (59, 6.46019506454467773438e+00) (60, 2.01990108489990234375e+01) (61, 8.94439601898193359375e+00) (62, 4.69325294494628906250e+01) (63, 4.44881105422973632812e+00) (64, 7.52381362915039062500e+01) (65, -2.58818602561950683594e+00) (66, -1.78004241943359375000e+02) (67, -3.58638858795166015625e+00) (68, 2.45230388641357421875e+01) (69, -2.29484248161315917969e+00) (70, 2.46696815490722656250e+01) (71, -1.54150509834289550781e+00) (72, 7.95524673461914062500e+01) (73, 6.00235223770141601562e-01) (74, -2.89028644561767578125e+00) (75, -5.02990663051605224609e-01) (76, 2.08708515167236328125e+01) (77, -2.92702293395996093750e+00) (78, -3.50341758728027343750e+01) (79, 5.91493320465087890625e+00) (80, 1.66158020496368408203e+00) (81, 5.99702548980712890625e+00) (82, 2.92659645080566406250e+01) (83, 6.85357809066772460938e+00) (84, -3.20532298088073730469e+00) (85, -1.66145668029785156250e+01) (86, 1.54116973876953125000e+02) (87, 3.48720550537109375000e+00) (88, 9.29739303588867187500e+01) (89, 2.25207448005676269531e+00) (90, 1.00576124191284179688e+01) (91, 7.78613948822021484375e+00) (92, 1.12066946029663085938e+01) (93, 9.21064758300781250000e+00) (94, -5.92133903503417968750e+01) (95, 2.03607249259948730469e+00) (96, 4.79027023315429687500e+01) (97, 6.14621686935424804688e+00) (98, -1.58735094070434570312e+01) (99, -3.41781401634216308594e+00) (100, 1.77120952606201171875e+01) (101, 8.48618793487548828125e+00) (102, -9.75456655025482177734e-01) (103, 2.66637301445007324219e+00) (104, -3.23428726196289062500e+01) (105, -3.10563898086547851562e+00) (106, 1.33236055374145507812e+01) (107, -2.03495287895202636719e+00) (108, 5.94855346679687500000e+01) (109, -3.95486187934875488281e+00) (110, 8.64282226562500000000e+00) (111, -9.93345165252685546875e+00) (112, -2.15935745239257812500e+01) (113, 2.59669516235589981079e-02) (114, -5.18736724853515625000e+01) (115, -8.18435478210449218750e+00) (116, -5.86080408096313476562e+00) (117, -6.83916139602661132812e+00) (118, 2.13289611816406250000e+02) (119, -8.78190898895263671875e+00) (120, 8.65501785278320312500e+00) (121, 6.75494790077209472656e-01) (122, 2.77834911346435546875e+01) (123, -1.46299660205841064453e+00) (124, 1.23023200988769531250e+02) (125, 8.75106620788574218750e+00) (126, -8.52716751098632812500e+01) (127, -8.37542247772216796875e+00) (128, 8.26171112060546875000e+01) (129, 7.70820140838623046875e-01) (130, 5.68255538940429687500e+01) (131, -2.95311141014099121094e+00) (132, 7.54546833038330078125e+00) (133, 4.97588682174682617188e+00) (134, 1.19411521911621093750e+02) (135, 7.12159919738769531250e+00) (136, -2.57795200347900390625e+01) (137, -7.05941438674926757812e-01) (138, 1.55584573745727539062e+01) (139, -9.91184353828430175781e-01) (140, 4.15554122924804687500e+01) (141, -1.01233029365539550781e+00) (142, -3.05937500000000000000e+01) (143, -2.51085329055786132812e+00) (144, -1.43125686645507812500e+02) (145, -2.06786513328552246094e+00) (146, -3.36096000671386718750e+01) (147, 1.39373287558555603027e-01) (148, -2.05827879905700683594e+00) (149, 7.62093925476074218750e+00) (150, 1.87737998962402343750e+01) (151, -5.88410422205924987793e-02) (152, 1.63169906616210937500e+02) (153, 3.15926504135131835938e+00) (154, 1.27162643432617187500e+02) (155, -1.76683557033538818359e+00) (156, 2.04121017456054687500e+01) (157, -2.63715267181396484375e+00) (158, 5.00263261795043945312e+00) (159, -2.24938030242919921875e+01) (160, -4.17296171188354492188e+00) (161, 6.85419082641601562500e+00) (162, -1.44913797378540039062e+01) (163, 4.72880005836486816406e-01) (164, -6.53472595214843750000e+01) (165, 5.21102952957153320312e+00) (166, 5.46836624145507812500e+01) (167, 7.62107801437377929688e+00) (168, 3.05023784637451171875e+01) (169, 1.32218778133392333984e+00) (170, 1.17093849182128906250e+01) (171, 1.74329042434692382812e+00) (172, 3.43411369323730468750e+01) (173, 2.68223428726196289062e+00) (174, 2.34344673156738281250e+01) (175, 9.28139781951904296875e+00) (176, 2.59334826469421386719e+00) (177, 3.35653734207153320312e+00) (178, -6.80993957519531250000e+01) (179, 3.02656483650207519531e+00) (180, -1.95494293212890625000e+02) (181, 2.64829421043395996094e+00) (182, 1.84951049804687500000e+02) (183, 2.58676499128341674805e-01) (184, 1.85548365116119384766e+00) (185, -3.50722770690917968750e+01) (186, -1.11267768859863281250e+02) (187, -2.58295297622680664062e+00) (188, 4.71674203872680664062e+00) (189, 2.76792979240417480469e+00) (190, 8.26184768676757812500e+01) (191, -2.22001686096191406250e+01) (192, -3.03410320281982421875e+01) (193, 1.17001752853393554688e+01) (194, -6.97662658691406250000e+01) (195, 6.88040618896484375000e+01) (196, 1.50000000000000000000e+03) (197, 1.50000000000000000000e+03) (198, 1.50000000000000000000e+03) (199, 1.50000000000000000000e+03) (200, 6.93615484237670898438e+00) (201, 9.13618469238281250000e+01) (202, -2.44699020385742187500e+02) (0, -1.32816979980468750000e+03) (1, 3.87263655662536621094e+00) (2, -1.43882983398437500000e+03) (3, -7.10621714591979980469e-01) (4, 5.66741657257080078125e+00) (5, 4.33851289749145507812e+00) (6, 1.47643847656250000000e+03) (7, 1.52514886856079101562e+00) (8, 2.25029349327087402344e+00) (9, 5.61123037338256835938e+00) (10, -1.43843164062500000000e+03) (11, 1.49316113281250000000e+03) (12, -1.36007661819458007812e+01) (13, 2.42624626159667968750e+01) (14, 9.44636474609375000000e+02) (15, 5.26017570495605468750e+00) (16, 1.13480198383331298828e+00) (17, 9.83833134174346923828e-01) (18, -4.94464782714843750000e+02) (19, 4.12558794021606445312e+00) (20, 1.49859094238281250000e+03) (21, 3.91742420196533203125e+00) (22, 1.49765295410156250000e+03) (23, 2.44453072547912597656e+00) (24, -1.50000000000000000000e+03) (25, 1.07123317718505859375e+01) (26, -1.50000000000000000000e+03) (27, 1.42607107162475585938e+01) (28, -2.73607778549194335938e+00) (29, -3.24315605163574218750e+01) (30, 3.29295845031738281250e+01) (31, 2.73914794921875000000e+01) (32, 4.95548309326171875000e+02) (33, 1.84283275604248046875e+01) (34, -1.81515151977539062500e+02) (35, 6.75542068481445312500e+01) (36, -1.45459094238281250000e+03) (37, 1.76353502273559570312e+00) (38, -6.47308593750000000000e+02) (39, 2.10907077789306640625e+01) (40, -1.41092175292968750000e+03) (41, 6.68735599517822265625e+00) (42, 7.53332946777343750000e+02) (43, 3.55630302429199218750e+00) (44, -9.07932739257812500000e+02) (45, 7.42673400878906250000e+02) (46, 2.21418533325195312500e+01) (47, 1.12647018432617187500e+02) (48, 2.09640073776245117188e+00) (49, 1.42491960525512695312e+01) (50, 7.21395950317382812500e+01) (51, 3.13956050872802734375e+01) (52, 3.03753570556640625000e+02) (53, 6.61855926513671875000e+01) (54, 1.33873796463012695312e+00) (55, 8.12008117675781250000e+02) (56, 8.12695236206054687500e+01) (57, 1.69318283081054687500e+02) (58, 1.18477612304687500000e+03) (59, 1.94865512847900390625e+01) (60, 3.53416168212890625000e+02) (61, 1.00918698310852050781e+00) (62, -1.29264233398437500000e+03) (63, 3.35935115814208984375e+00) (64, -4.43062866210937500000e+02) (65, 2.86214637756347656250e+00) (66, -1.09508203125000000000e+03) (67, 2.42558765411376953125e+01) (68, 2.70713939666748046875e+01) (69, 7.88800573348999023438e+00) (70, -9.03878390789031982422e-01) (71, 9.59690570831298828125e+00) (72, 1.01494409179687500000e+03) (73, 1.99100959300994873047e+00) (74, 2.48269638061523437500e+02) (75, 5.61927032470703125000e+00) (76, -1.37780004882812500000e+03) (77, 1.17173791503906250000e+03) (78, -1.32879687500000000000e+03) (79, 2.34995365142822265625e+00) (80, 1.33533337402343750000e+03) (81, -1.50000000000000000000e+03) (82, -3.41585273742675781250e+01) (83, -1.11370887756347656250e+01) (84, 1.64962978363037109375e+01) (85, 6.65509986877441406250e+00) (86, -1.43403417968750000000e+03) (87, 3.62500333786010742188e+00) (88, -8.09301208496093750000e+02) (89, 7.20150828361511230469e-01) (90, -1.50000000000000000000e+03) (91, -1.41895399093627929688e+01) (92, -1.50000000000000000000e+03) (93, 9.72109258174896240234e-01) (94, -8.04923583984375000000e+02) (95, 3.82365465164184570312e+00) (96, 1.12735595703125000000e+03) (97, 1.12109148502349853516e+00) (98, -1.23683020019531250000e+03) (99, 1.41857862472534179688e+01) (100, -7.86119155883789062500e+01) (101, 5.09500312805175781250e+00) (102, 2.43220920562744140625e+01) (103, 2.68035964965820312500e+01) (104, -1.40808081054687500000e+03) (105, 4.58806657791137695312e+00) (106, -1.50000000000000000000e+03) (107, 5.32753944396972656250e+00) (108, -1.41393640136718750000e+03) (109, 4.36423778533935546875e+00) (110, 4.63717956542968750000e+01) (111, 6.27316093444824218750e+00) (112, 6.11398696899414062500e+01) (113, 5.01560831069946289062e+00) (114, 1.49806640625000000000e+03) (115, 5.84320926666259765625e+00) (116, 1.49739172363281250000e+03) (117, 6.97242307662963867188e+00) (118, -1.50000000000000000000e+03) (119, 8.66300392150878906250e+00) (120, 4.66300755739212036133e-01) (121, 5.36774301528930664062e+00) (122, -4.18232011795043945312e+00) (123, 4.98904991149902343750e+00) (124, -1.38895007324218750000e+03) (125, 5.15095043182373046875e+00) (126, 1.50000000000000000000e+03) (127, 1.02060279846191406250e+01) (128, 6.54714843750000000000e+02) (129, 2.92965483665466308594e+00) (130, 1.31296203613281250000e+03) (131, 4.61615848541259765625e+00) (132, 1.49656250000000000000e+03) (133, 2.55563426017761230469e+00) (134, -1.50000000000000000000e+03) (135, 3.89295125007629394531e+00) (136, 1.00175463867187500000e+03) (137, 3.54189896583557128906e+00) (138, -1.50000000000000000000e+03) (139, 5.06865406036376953125e+00) (140, -2.26927261352539062500e+01) (141, 1.10540456771850585938e+01) (142, 4.56960296630859375000e+01) (143, 1.55504791259765625000e+02) (144, -7.11322448730468750000e+02) (145, 9.59864234924316406250e+00) (146, 1.89261531829833984375e+01) (147, 4.67467021942138671875e+00) (148, 4.71680969238281250000e+02) (149, 4.88261985778808593750e+00) (150, -2.02154006958007812500e+02) (151, 6.11871623992919921875e+00) (152, -1.50000000000000000000e+03) (153, 5.07046794891357421875e+00) (154, -1.50000000000000000000e+03) (155, 2.39820766448974609375e+01) (156, -2.82594227790832519531e+00) (157, 5.01774902343750000000e+01) (158, 1.50220428466796875000e+02) (159, -3.42730736732482910156e+00) (160, 9.11503505706787109375e+00) (161, 8.31446647644042968750e-01) (162, 1.17283984375000000000e+03) (163, -3.41099426269531250000e+02) (164, -1.32345812988281250000e+03) (165, 8.15471172332763671875e+00) (166, -1.50000000000000000000e+03) (167, 1.18206787109375000000e+00) (168, 6.02453125000000000000e+02) (169, 1.07543926239013671875e+01) (170, 9.09470458984375000000e+02) (171, 3.07849335670471191406e+00) (172, 1.46490600585937500000e+03) (173, -5.66733980178833007812e+00) (174, 1.06085998535156250000e+03) (175, 1.41003727912902832031e+00) (176, 1.42953710937500000000e+03) (177, 3.95799708366394042969e+00) (178, -1.50000000000000000000e+03) (179, 4.59109973907470703125e+00) (180, -1.49988549804687500000e+03) (181, 2.88605356216430664062e+00) (182, -1.49961462402343750000e+03) (183, 4.30818033218383789062e+00) (184, -1.23001232910156250000e+03) (185, 9.11509399414062500000e+02) (186, -1.46170715332031250000e+03) (187, 6.10063648223876953125e+00) (188, 1.49473022460937500000e+03) (189, 4.91193771362304687500e+00) (190, -1.48454260253906250000e+03) (191, 6.56606101989746093750e+00) (192, -1.18499560546875000000e+03) (193, 5.95814895629882812500e+00) (194, 1.35359326171875000000e+03) (195, 4.61396026611328125000e+00) (196, 1.50000000000000000000e+03) (197, 1.50000000000000000000e+03) (198, 1.50000000000000000000e+03) (199, 1.50000000000000000000e+03) (200, 1.51504653930664062500e+02) (201, -1.37120520019531250000e+03) (202, 8.39682877063751220703e-01) (0, 1.29845893383026123047e+00) (1, 6.57234370708465576172e-01) (2, 7.99210357666015625000e+00) (3, -2.26475501060485839844e+00) (4, 2.53807377815246582031e+00) (5, -1.92472708225250244141e+00) (6, -3.65708732604980468750e+00) (7, -8.71593654155731201172e-01) (8, 2.18625640869140625000e+00) (9, -3.12303614616394042969e+00) (10, -1.58712983131408691406e+00) (11, 8.51074531674385070801e-02) (12, 5.50396442413330078125e+00) (13, -9.14670526981353759766e-02) (14, 6.77167701721191406250e+00) (15, -2.65996360778808593750e+00) (16, -5.11810660362243652344e-01) (17, 6.28473162651062011719e-01) (18, -1.80294299125671386719e+00) (19, 1.99950146675109863281e+00) (20, -1.20796310901641845703e+00) (21, 2.82724499702453613281e+00) (22, -6.87328577041625976562e-01) (23, -2.01913505792617797852e-01) (24, 3.16443300247192382812e+00) (25, 9.03216063976287841797e-01) (26, -1.70912897586822509766e+00) (27, -3.05898690223693847656e+00) (28, 5.20383656024932861328e-01) (29, -7.11954295635223388672e-01) (30, 3.92509245872497558594e+00) (31, 4.19131755828857421875e-01) (32, -4.90263223648071289062e-01) (33, 2.28529047966003417969e+00) (34, -7.70927429199218750000e+00) (35, 2.01596409082412719727e-01) (36, -6.22514152526855468750e+00) (37, -7.81580209732055664062e-01) (38, 9.88114547729492187500e+00) (39, 9.24594283103942871094e-01) (40, -7.01773881912231445312e-01) (41, -1.39062547683715820312e+00) (42, -2.41713428497314453125e+00) (43, -6.76637887954711914062e-01) (44, -3.83601474761962890625e+00) (45, 1.54866707324981689453e+00) (46, -1.16106796264648437500e+00) (47, 6.07031762599945068359e-01) (48, -2.76747894287109375000e+00) (49, -1.91544139385223388672e+00) (50, 1.26846046447753906250e+01) (51, 2.90424036979675292969e+00) (52, -4.61347043514251708984e-01) (53, -9.90290105342864990234e-01) (54, 4.43054378032684326172e-01) (55, 3.65235283970832824707e-02) (56, 2.87797760963439941406e+00) (57, 6.56921029090881347656e-01) (58, 1.26315146684646606445e-01) (59, -1.37210953235626220703e+00) (60, -3.03766012191772460938e+00) (61, 2.46635890007019042969e+00) (62, -2.70638197660446166992e-01) (63, -2.74167919158935546875e+00) (64, 8.11408615112304687500e+00) (65, 5.27679562568664550781e-01) (66, 6.43629932403564453125e+00) (67, 1.18032276630401611328e+00) (68, -6.46950602531433105469e-01) (69, -1.47804176807403564453e+00) (70, 3.66471219062805175781e+00) (71, -1.70318353176116943359e+00) (72, -3.38649249076843261719e+00) (73, 5.10085880756378173828e-01) (74, -3.78331482410430908203e-01) (75, 3.36285233497619628906e-01) (76, -3.30304932594299316406e+00) (77, -2.23156332969665527344e+00) (78, -1.25054521560668945312e+01) (79, 4.82339620590209960938e+00) (80, 3.87966895103454589844e+00) (81, -1.77220249176025390625e+00) (82, -1.07108628749847412109e+00) (83, 1.10707950592041015625e+00) (84, -9.94020938873291015625e-01) (85, -9.57547605037689208984e-01) (86, -4.00516843795776367188e+00) (87, 1.88900041580200195312e+00) (88, -5.49130821228027343750e+00) (89, -2.86161017417907714844e+00) (90, 5.29560148715972900391e-01) (91, -1.93881416320800781250e+00) (92, -6.50466918945312500000e-01) (93, 1.78717243671417236328e+00) (94, -1.04352688789367675781e+00) (95, 8.11783131211996078491e-04) (96, 4.88074922561645507812e+00) (97, 1.00325727462768554688e+00) (98, -7.36940097808837890625e+00) (99, 1.89536523818969726562e+00) (100, 1.75396680831909179688e+00) (101, -2.34991168975830078125e+00) (102, -1.24955606460571289062e+00) (103, 1.50290340185165405273e-01) (104, 9.27927315235137939453e-01) (105, -5.70795834064483642578e-01) (106, 4.72496688365936279297e-01) (107, 6.79328292608261108398e-02) (108, 2.18800854682922363281e+00) (109, -5.78178465366363525391e-01) (110, 4.04227924346923828125e+00) (111, -1.72475904226303100586e-01) (112, -9.07322287559509277344e-01) (113, 2.91725516319274902344e+00) (114, 1.09358358383178710938e+00) (115, 4.04640585184097290039e-01) (116, 2.71753966808319091797e-01) (117, 9.44572925567626953125e-01) (118, -9.69336152076721191406e-01) (119, -4.75620937347412109375e+00) (120, 1.94625318050384521484e+00) (121, -1.32775473594665527344e+00) (122, 2.81410312652587890625e+00) (123, 2.60175228118896484375e-01) (124, 3.16622185707092285156e+00) (125, -1.96611547470092773438e+00) (126, 1.53307056427001953125e+00) (127, 2.72813737392425537109e-02) (128, 1.00594460964202880859e+00) (129, -1.39953434467315673828e+00) (130, 1.56813335418701171875e+00) (131, 2.48891758918762207031e+00) (132, -1.09278202056884765625e+00) (133, -1.73804476857185363770e-01) (134, 9.02918624877929687500e+00) (135, -1.83894169330596923828e+00) (136, -1.79410827159881591797e+00) (137, 2.34987044334411621094e+00) (138, 2.08312153816223144531e+00) (139, 1.43985235691070556641e+00) (140, -2.17397689819335937500e+00) (141, 2.13228002190589904785e-01) (142, -1.87770819664001464844e+00) (143, -2.15172934532165527344e+00) (144, -2.36354303359985351562e+00) (145, 6.22473835945129394531e-01) (146, 3.31483036279678344727e-01) (147, -1.14459800720214843750e+00) (148, -2.94725394248962402344e+00) (149, 2.52984285354614257812e+00) (150, 5.73894083499908447266e-01) (151, -2.92612981796264648438e+00) (152, -1.75693261623382568359e+00) (153, -1.64495110511779785156e+00) (154, 3.93200778961181640625e+00) (155, 2.58303672075271606445e-01) (156, -3.03753995895385742188e+00) (157, 1.69895672798156738281e+00) (158, 2.71374130249023437500e+00) (159, -1.91342890262603759766e+00) (160, 1.98857557773590087891e+00) (161, 6.29430413246154785156e-01) (162, -3.57102227210998535156e+00) (163, 2.90552616119384765625e+00) (164, -1.22529292106628417969e+00) (165, -1.13683485984802246094e+00) (166, -4.47533655166625976562e+00) (167, -3.05736947059631347656e+00) (168, 3.06605982780456542969e+00) (169, 1.47176766395568847656e+00) (170, -1.37632048130035400391e+00) (171, -4.55342918634414672852e-01) (172, -2.65406179428100585938e+00) (173, 3.29681009054183959961e-01) (174, -3.53016209602355957031e+00) (175, -8.01666736602783203125e-01) (176, -3.95817327499389648438e+00) (177, -1.14144086837768554688e+00) (178, -8.76268267631530761719e-01) (179, 3.87582397460937500000e+00) (180, 2.06939959526062011719e+00) (181, -5.59561789035797119141e-01) (182, 1.81684374809265136719e+00) (183, 6.32768452167510986328e-01) (184, -1.45587503910064697266e+00) (185, -5.83981454372406005859e-01) (186, -2.17829132080078125000e+00) (187, -1.02705883979797363281e+00) (188, 3.44481968879699707031e+00) (189, 2.05396622419357299805e-01) (190, -4.82506424188613891602e-01) (191, 2.09276366233825683594e+00) (192, 1.17191851139068603516e+00) (193, 9.38035249710083007812e-01) (194, -1.69733200073242187500e+01) (195, -2.60137486457824707031e+00) (196, 1.50000000000000000000e+03) (197, 1.50000000000000000000e+03) (198, 1.50000000000000000000e+03) (199, 1.50000000000000000000e+03) (200, 6.15901172161102294922e-01) (201, -9.74149584770202636719e-01) (202, 4.72251272201538085938e+00) (0, -5.12770996093750000000e+01) (1, -4.35411500930786132812e+00) (2, -1.54504196166992187500e+02) (3, 1.07142400741577148438e+01) (4, 2.81822395324707031250e+00) (5, 4.24606943130493164062e+00) (6, 1.35584697723388671875e+01) (7, 7.16309547424316406250e+00) (8, -7.49224472045898437500e+00) (9, -4.15774583816528320312e+00) (10, 1.05494594573974609375e+01) (11, -5.20963592529296875000e+01) (12, 2.77116751670837402344e+00) (13, 6.55120658874511718750e+00) (14, -7.65647554397583007812e+00) (15, 3.10061407089233398438e+00) (16, 3.50600528717041015625e+00) (17, 1.86923193931579589844e+00) (18, 5.67639017105102539062e+00) (19, 1.87882733345031738281e+00) (20, -1.77123062133789062500e+02) (21, 1.54856276512145996094e+00) (22, -1.51264400482177734375e+01) (23, -1.88612067699432373047e+00) (24, 2.52672882080078125000e+01) (25, 9.78585854172706604004e-02) (26, 7.64568901062011718750e+00) (27, -2.01050472259521484375e+00) (28, 3.55493998527526855469e+00) (29, 2.91692733764648437500e+00) (30, 1.30794784545898437500e+02) (31, 2.79577970504760742188e+00) (32, -1.70909469604492187500e+02) (33, 3.48925495147705078125e+00) (34, 6.43664184570312500000e+02) (35, 2.44775867462158203125e+00) (36, 2.80737335205078125000e+02) (37, 3.28859686851501464844e+00) (38, -3.34631805419921875000e+01) (39, 2.28666758537292480469e+00) (40, -1.79934066772460937500e+02) (41, -2.44311642646789550781e+00) (42, -6.86231040954589843750e+00) (43, -1.02353513240814208984e+00) (44, -1.60288131713867187500e+02) (45, -2.47659230232238769531e+00) (46, -3.70937514305114746094e+00) (47, -3.24787569046020507812e+00) (48, -1.87314772605895996094e+00) (49, -1.19997207075357437134e-02) (50, 1.87482738494873046875e+00) (51, -2.39332628250122070312e+00) (52, -1.07216663360595703125e+01) (53, -5.23427546024322509766e-01) (54, -2.12997055053710937500e+01) (55, 5.43465471267700195312e+00) (56, -5.22374114990234375000e+01) (57, -1.87763667106628417969e+00) (58, 2.46731624603271484375e+01) (59, 2.99058079719543457031e+00) (60, -6.33478202819824218750e+01) (61, -3.94788175821304321289e-01) (62, 3.94115142822265625000e+01) (63, -3.06258869171142578125e+00) (64, 2.08975784301757812500e+02) (65, -6.28091764450073242188e+00) (66, -9.81009445190429687500e+01) (67, -4.20446014404296875000e+02) (68, 1.85743923187255859375e+01) (69, -4.29092836380004882812e+00) (70, -8.74314117431640625000e+00) (71, -1.72984905242919921875e+01) (72, 2.42178516387939453125e+01) (73, 8.63839817047119140625e+00) (74, -6.54010152816772460938e+00) (75, 2.67338991165161132812e+00) (76, 3.52845954895019531250e+01) (77, 5.85252666473388671875e+00) (78, 1.15861152648925781250e+02) (79, 1.05325155258178710938e+01) (80, 2.25919952392578125000e+01) (81, 2.08642501831054687500e+01) (82, -4.55733156204223632812e+00) (83, 1.05159769058227539062e+01) (84, -6.26753926277160644531e-01) (85, -4.09685754776000976562e+00) (86, 2.98937500000000000000e+02) (87, -5.74809379577636718750e+01) (88, 2.26154594421386718750e+01) (89, -2.94343233108520507812e+00) (90, 1.18648242950439453125e+01) (91, 2.82642769813537597656e+00) (92, 7.38580179214477539062e+00) (93, 4.91430568695068359375e+00) (94, 5.87585937500000000000e+02) (95, 1.13342130184173583984e+00) (96, 3.49833297729492187500e+01) (97, -9.62131500244140625000e-01) (98, 1.77160110473632812500e+02) (99, 3.38056087493896484375e-01) (100, -1.71398651599884033203e+00) (101, 7.13117265701293945312e+00) (102, -3.49210190773010253906e+00) (103, 8.79377365112304687500e+00) (104, 4.15345001220703125000e+01) (105, 3.88623046875000000000e+00) (106, 5.85756731033325195312e+00) (107, 2.24871206283569335938e+00) (108, 1.85582122802734375000e+01) (109, -1.09225714206695556641e+00) (110, 4.40438985824584960938e+00) (111, -3.58365035057067871094e+00) (112, -4.93652153015136718750e+00) (113, -4.92996835708618164062e+00) (114, -9.57768707275390625000e+01) (115, -3.26889824867248535156e+00) (116, -7.24749755859375000000e+00) (117, -2.86707234382629394531e+00) (118, 7.84988937377929687500e+01) (119, -3.39213252067565917969e+00) (120, -8.93973529338836669922e-01) (121, -3.16008639335632324219e+00) (122, -4.02073287963867187500e+01) (123, -2.78175443410873413086e-01) (124, 3.82705116271972656250e+01) (125, -1.23306143283843994141e+00) (126, -6.54233322143554687500e+01) (127, -1.01231586933135986328e+00) (128, -2.86941566467285156250e+01) (129, -4.00055084228515625000e+01) (130, 1.01694707870483398438e+01) (131, 5.67165088653564453125e+00) (132, -2.80078744888305664062e+00) (133, 9.70258998870849609375e+00) (134, 1.85473999023437500000e+02) (135, -1.84342175722122192383e-01) (136, -4.79041290283203125000e+00) (137, -4.59476351737976074219e-01) (138, 3.54746589660644531250e+01) (139, -1.79389679431915283203e+00) (140, 1.91372692584991455078e-01) (141, -6.31188058853149414062e+00) (142, -1.60935802459716796875e+01) (143, -2.41618871688842773438e+00) (144, -1.06674827575683593750e+02) (145, -2.58869528770446777344e+00) (146, -3.60833930969238281250e+01) (147, -2.52419352531433105469e+00) (148, 6.70031309127807617188e+00) (149, 9.86768960952758789062e-01) (150, 7.97673034667968750000e+01) (151, -7.10171222686767578125e-01) (152, 6.91781616210937500000e+01) (153, -2.51179885864257812500e+00) (154, -1.08918286132812500000e+03) (155, -3.16854357719421386719e+00) (156, 5.40842056274414062500e-01) (157, -2.75096678733825683594e+00) (158, -1.67000701904296875000e+02) (159, -4.25884437561035156250e+00) (160, -3.96456241607666015625e+00) (161, -4.14799613952636718750e+01) (162, 9.66112422943115234375e+00) (163, 4.57290172576904296875e+00) (164, -3.43563690185546875000e+01) (165, 5.17330074310302734375e+00) (166, 3.02375488281250000000e+01) (167, 4.76745176315307617188e+00) (168, 5.69788169860839843750e+00) (169, 2.30166465044021606445e-01) (170, -7.67235755920410156250e+00) (171, 1.88726329803466796875e+00) (172, 6.62774085998535156250e+00) (173, -3.88312846422195434570e-01) (174, 7.12147760391235351562e+00) (175, -3.14670372009277343750e+00) (176, -8.70297813415527343750e+00) (177, -3.40685343742370605469e+00) (178, -1.01885887145996093750e+02) (179, -2.83739566802978515625e+00) (180, -4.73551034927368164062e+00) (181, 9.72850203514099121094e-01) (182, -1.24859924316406250000e+03) (183, -3.47722864151000976562e+00) (184, -2.96634616851806640625e+01) (185, -5.00220823287963867188e+00) (186, 6.09960317611694335938e+00) (187, -3.02880096435546875000e+00) (188, 9.31083984375000000000e+01) (189, -3.76370453834533691406e+00) (190, 1.10102867126464843750e+02) (191, -2.03012638092041015625e+01) (192, 1.09786816406250000000e+03) (193, -3.66293830871582031250e+01) (194, 2.15021224975585937500e+02) (195, -1.91992233276367187500e+02) (196, 1.50000000000000000000e+03) (197, 1.50000000000000000000e+03) (198, 1.50000000000000000000e+03) (199, 1.50000000000000000000e+03) (200, -3.14750838279724121094e+00) (201, 9.59026977539062500000e+02) (202, 1.02868064880371093750e+02) (0, 1.49611657714843750000e+03) (1, 4.94545459747314453125e+00) (2, -2.72115417480468750000e+02) (3, 2.30252131819725036621e-01) (4, -1.67018163204193115234e+00) (5, -1.35230388641357421875e+01) (6, -6.41128463745117187500e+01) (7, -1.31026729941368103027e-01) (8, 1.88675057888031005859e+00) (9, -1.42776193618774414062e+01) (10, -1.48158121109008789062e+01) (11, -1.78397567749023437500e+02) (12, 1.82391691207885742188e+00) (13, -2.02379584312438964844e-01) (14, -1.47452096939086914062e+01) (15, 7.57727146148681640625e-01) (16, -1.55401563644409179688e+00) (17, 1.41422152519226074219e+00) (18, 2.70223140716552734375e-01) (19, 1.51158142089843750000e+00) (20, -3.16538543701171875000e+01) (21, 7.53136301040649414062e+00) (22, 1.85791816711425781250e+01) (23, 1.88213264942169189453e+00) (24, -1.06499032974243164062e+01) (25, 1.37995195388793945312e+00) (26, 1.03162635803222656250e+02) (27, 1.43020558357238769531e+00) (28, 8.25067520141601562500e-01) (29, 1.47510552406311035156e+00) (30, -9.79366607666015625000e+01) (31, -7.08074748516082763672e-01) (32, 1.31877392578125000000e+03) (33, 1.49218186736106872559e-01) (34, 3.12164672851562500000e+02) (35, 7.77927115559577941895e-02) (36, -9.02167602539062500000e+02) (37, -6.52241170406341552734e-01) (38, -5.03960189819335937500e+01) (39, 1.67399719357490539551e-01) (40, -1.31179003906250000000e+03) (41, -9.96134042739868164062e-01) (42, 4.27831535339355468750e+01) (43, -9.19094026088714599609e-01) (44, -1.01281494140625000000e+03) (45, 1.43650972843170166016e+00) (46, 1.20543136596679687500e+01) (47, 5.10589265823364257812e+00) (48, 2.61453446000814437866e-02) (49, -6.26977562904357910156e-01) (50, 5.30685806274414062500e+00) (51, -1.72634899616241455078e+00) (52, 1.14160972595214843750e+02) (53, 6.00534963607788085938e+00) (54, 1.05908412933349609375e+01) (55, 5.72273063659667968750e+00) (56, -1.19252868652343750000e+02) (57, 5.46832233667373657227e-02) (58, -6.51142716407775878906e-01) (59, -5.70962727069854736328e-01) (60, 1.45612536621093750000e+03) (61, -1.12119269371032714844e+00) (62, -8.44666595458984375000e+01) (63, 1.64137601852416992188e+00) (64, -1.15753308105468750000e+03) (65, 2.51547908782958984375e+00) (66, -3.76422668457031250000e+02) (67, -1.06762878417968750000e+03) (68, -4.12813301086425781250e+01) (69, 7.12825202941894531250e+00) (70, -3.90685195922851562500e+01) (71, 7.59528589248657226562e+00) (72, -1.50000000000000000000e+03) (73, 5.95970726013183593750e+00) (74, 6.12952804565429687500e+01) (75, 5.21380710601806640625e+00) (76, -1.44836330413818359375e+01) (77, 2.18143963813781738281e+00) (78, 7.03016901016235351562e+00) (79, -4.51438486576080322266e-01) (80, -2.85643890380859375000e+02) (81, 7.92808898925781250000e+02) (82, -2.52130279541015625000e+01) (83, -1.24553289413452148438e+01) (84, -1.62490524291992187500e+02) (85, 9.60860824584960937500e+00) (86, 7.54142517089843750000e+02) (87, -2.17559394836425781250e+01) (88, 3.07878055572509765625e+01) (89, -1.93982645869255065918e-01) (90, 6.78408980369567871094e-01) (91, -2.10824203491210937500e+00) (92, 1.80111618041992187500e+02) (93, -2.06078100204467773438e+00) (94, 1.26022424316406250000e+03) (95, -1.82063925266265869141e+00) (96, -1.49922937011718750000e+03) (97, -1.17141714096069335938e+01) (98, 1.45129541015625000000e+03) (99, -1.42325973510742187500e+00) (100, 6.97076559066772460938e-01) (101, -1.70924222469329833984e+00) (102, 2.85050334930419921875e+01) (103, -7.55257487297058105469e-01) (104, -1.28141955566406250000e+03) (105, 5.68997335433959960938e+00) (106, -1.02647180557250976562e+01) (107, 1.89089703559875488281e+00) (108, 6.42910278320312500000e+02) (109, 4.12707614898681640625e+00) (110, -2.38532948493957519531e+00) (111, 7.72681283950805664062e+00) (112, -3.06607127189636230469e+00) (113, 2.72375726699829101562e+00) (114, 1.16013928222656250000e+03) (115, 2.78363561630249023438e+00) (116, 1.01371059417724609375e+01) (117, 7.58981895446777343750e+00) (118, -1.54172348022460937500e+02) (119, 4.89472913742065429688e+00) (120, 1.84836101531982421875e+01) (121, 2.63402724266052246094e+00) (122, 1.46930160522460937500e+01) (123, 3.03201031684875488281e+00) (124, -1.49679821777343750000e+03) (125, 8.50899600982666015625e+00) (126, 9.44209594726562500000e+02) (127, -2.82235217094421386719e+00) (128, -1.75420017242431640625e+01) (129, -6.59913825988769531250e+00) (130, -1.35358028411865234375e+01) (131, 2.58866286277770996094e+00) (132, -1.97888910770416259766e+00) (133, 2.24920511245727539062e+00) (134, -4.50745620727539062500e+01) (135, 2.72708177566528320312e+00) (136, 2.40836696624755859375e+01) (137, 1.21833491325378417969e+00) (138, -6.57052459716796875000e+01) (139, 2.04386189579963684082e-01) (140, -6.36058378219604492188e+00) (141, -1.69217929840087890625e+01) (142, 3.24336853027343750000e+01) (143, 2.01672649383544921875e+00) (144, 1.50000000000000000000e+03) (145, 3.29436850547790527344e+00) (146, 5.70962333679199218750e+01) (147, 2.60850262641906738281e+00) (148, -1.92748489379882812500e+01) (149, 2.52262187004089355469e+00) (150, -1.32733476161956787109e+00) (151, 4.57613611221313476562e+00) (152, -8.45811920166015625000e+01) (153, 2.70195960998535156250e+00) (154, 7.81175048828125000000e+02) (155, 2.92915248870849609375e+00) (156, 4.16284894943237304688e+00) (157, -2.74244248867034912109e-01) (158, 8.62813568115234375000e+00) (159, 7.77972507476806640625e+00) (160, -1.80098903179168701172e+00) (161, -2.14657611846923828125e+01) (162, -5.63000602722167968750e+01) (163, -1.76585655212402343750e+01) (164, 4.05037498474121093750e+01) (165, 9.44497287273406982422e-01) (166, -3.53970870971679687500e+01) (167, -5.80665841698646545410e-02) (168, -2.35157642364501953125e+01) (169, 1.30792069435119628906e+00) (170, -5.85752582550048828125e+00) (171, 2.52308416366577148438e+00) (172, -1.94750175476074218750e+01) (173, 2.81113529205322265625e+00) (174, 1.48627807617187500000e+03) (175, 6.37070512771606445312e+00) (176, -5.70152168273925781250e+01) (177, 2.40013670921325683594e+00) (178, 3.62494773864746093750e+01) (179, -8.09157133102416992188e-01) (180, 1.76223495483398437500e+02) (181, -6.53078842163085937500e+00) (182, -5.99807739257812500000e+01) (183, -3.72635245323181152344e+00) (184, -1.20821752929687500000e+03) (185, -5.65455055236816406250e+00) (186, -4.85546112060546875000e+01) (187, 7.87445354461669921875e+00) (188, -9.64840698242187500000e+00) (189, 6.69697761535644531250e+00) (190, -1.40231787109375000000e+03) (191, -1.22718019485473632812e+01) (192, 1.03983618164062500000e+03) (193, -6.25071191787719726562e+00) (194, 9.85123062133789062500e+01) (195, -1.06042272949218750000e+03) (196, 1.50000000000000000000e+03) (197, 1.50000000000000000000e+03) (198, 1.50000000000000000000e+03) (199, 1.50000000000000000000e+03) (200, -3.25144648551940917969e+00) (201, -1.24776147460937500000e+03) (202, 2.85895214080810546875e+01) (0, 6.01463745117187500000e+02) (1, -6.10524034500122070312e+00) (2, -1.61243103027343750000e+02) (3, 2.19976258277893066406e+00) (4, -3.60347956418991088867e-01) (5, 2.36582374572753906250e+00) (6, 1.80411491394042968750e+01) (7, 8.00765132904052734375e+00) (8, -3.05452942848205566406e+00) (9, -5.66695690155029296875e+00) (10, 5.66582298278808593750e+01) (11, -1.80887050628662109375e+01) (12, 4.83692359924316406250e+00) (13, 6.20994806289672851562e+00) (14, 5.42736148834228515625e+00) (15, 1.86248517036437988281e+00) (16, 8.08458900451660156250e+00) (17, 1.67965376377105712891e+00) (18, -8.37247371673583984375e+00) (19, 1.51942163705825805664e-01) (20, -2.98681854248046875000e+02) (21, -1.97872769832611083984e+00) (22, -3.05841789245605468750e+01) (23, -8.08934688568115234375e-01) (24, 2.16667079925537109375e+01) (25, 2.66923546791076660156e+00) (26, -1.24614761352539062500e+02) (27, 1.96004319190979003906e+00) (28, 8.58703136444091796875e-01) (29, 8.01602542400360107422e-01) (30, 2.49187606811523437500e+02) (31, 1.80235707759857177734e+00) (32, 3.63972930908203125000e+02) (33, 2.32495236396789550781e+00) (34, 1.28228210449218750000e+03) (35, 1.79109156131744384766e+00) (36, 1.37450524902343750000e+03) (37, 4.61440706253051757812e+00) (38, 2.26139907836914062500e+02) (39, 1.64224076271057128906e+00) (40, -1.39824902343750000000e+03) (41, -6.18520796298980712891e-01) (42, -3.39949493408203125000e+01) (43, 6.16418570280075073242e-02) (44, -3.21643646240234375000e+02) (45, -7.03217923641204833984e-01) (46, -1.20520296096801757812e+01) (47, -1.08637595176696777344e+00) (48, 2.65580201148986816406e+00) (49, 4.10080283880233764648e-01) (50, 4.43632659912109375000e+01) (51, 4.66664075851440429688e+00) (52, -2.48733642578125000000e+02) (53, 9.45616662502288818359e-01) (54, 1.72585773468017578125e+01) (55, 5.60588026046752929688e+00) (56, -2.36653175354003906250e+01) (57, 1.53192698955535888672e+00) (58, 1.35037597656250000000e+02) (59, 5.01563215255737304688e+00) (60, -6.62074851989746093750e+00) (61, 5.95899629592895507812e+00) (62, 1.06899194335937500000e+03) (63, -1.17488164901733398438e+01) (64, 5.61667419433593750000e+02) (65, -2.40241408348083496094e+00) (66, 8.49204711914062500000e+02) (67, -1.49833068847656250000e+03) (68, -2.81202468872070312500e+01) (69, -2.88495993614196777344e+00) (70, -3.17466316223144531250e+01) (71, -1.64515638351440429688e+00) (72, 1.37388623046875000000e+03) (73, 5.05983448028564453125e+00) (74, -1.91398582458496093750e+01) (75, -5.77215135097503662109e-01) (76, 8.03801116943359375000e+01) (77, -3.82978415489196777344e+00) (78, 8.94221801757812500000e+01) (79, 2.08311152458190917969e+00) (80, 8.95326538085937500000e+01) (81, 6.56504745483398437500e+01) (82, 4.02989864349365234375e+00) (83, 9.72148513793945312500e+00) (84, 3.95358324050903320312e+00) (85, -2.30966167449951171875e+01) (86, 1.49635815429687500000e+03) (87, -1.65951824188232421875e+01) (88, 2.03101333618164062500e+02) (89, 6.42108726501464843750e+00) (90, 1.80482482910156250000e+02) (91, 5.00389337539672851562e+00) (92, 6.02593765258789062500e+01) (93, 4.90041637420654296875e+00) (94, 1.50000000000000000000e+03) (95, 1.06038975715637207031e+00) (96, 9.35731079101562500000e+02) (97, -4.72723293304443359375e+00) (98, 1.49491027832031250000e+03) (99, 7.72050440311431884766e-01) (100, 3.43414802551269531250e+01) (101, 1.02446975708007812500e+01) (102, -2.15172958374023437500e+01) (103, 7.86725616455078125000e+00) (104, 1.05506628417968750000e+03) (105, 2.49359399080276489258e-01) (106, 1.49914360046386718750e+01) (107, 7.16056227684020996094e-02) (108, -3.34009124755859375000e+02) (109, -4.72053623199462890625e+00) (110, 2.11318302154541015625e+00) (111, -6.93341970443725585938e+00) (112, -1.75029239654541015625e+01) (113, 1.62199962139129638672e+00) (114, -8.01761817932128906250e+00) (115, -2.28338146209716796875e+00) (116, 1.55622186660766601562e+01) (117, -4.22921371459960937500e+00) (118, 1.49981616210937500000e+03) (119, -3.60029315948486328125e+00) (120, 8.20194423198699951172e-01) (121, -2.07762265205383300781e+00) (122, 3.71883659362792968750e+01) (123, -3.71592909097671508789e-01) (124, 1.07066967773437500000e+03) (125, -5.86048555374145507812e+00) (126, -6.97764892578125000000e+01) (127, -2.59990653991699218750e+01) (128, 3.64449739456176757812e+00) (129, -2.50424365997314453125e+01) (130, 1.67058906555175781250e+01) (131, -6.35112747550010681152e-02) (132, 1.03392343521118164062e+01) (133, 3.87099206447601318359e-01) (134, 1.50000000000000000000e+03) (135, 4.53752422332763671875e+00) (136, 7.94004211425781250000e+01) (137, -2.38107681274414062500e+00) (138, 3.01774566650390625000e+02) (139, -1.63711559772491455078e+00) (140, 8.93885879516601562500e+01) (141, -3.46037769317626953125e+00) (142, -1.24693542480468750000e+02) (143, -1.43095242977142333984e+00) (144, 1.30982165527343750000e+03) (145, -1.05201702117919921875e+01) (146, -9.33956527709960937500e+00) (147, 4.23939943313598632812e-01) (148, 7.53984909057617187500e+01) (149, 3.02549624443054199219e+00) (150, 1.65031929016113281250e+01) (151, 1.47169470787048339844e+00) (152, 3.05623931884765625000e+02) (153, 3.33490610122680664062e+00) (154, 1.50000000000000000000e+03) (155, -3.36164283752441406250e+00) (156, 2.15619754791259765625e+00) (157, 3.37869793176651000977e-01) (158, -1.17823158264160156250e+02) (159, -4.81809568405151367188e+00) (160, -1.15510053634643554688e+01) (161, 7.29766130447387695312e-01) (162, 8.10712585449218750000e+01) (163, 9.98944163322448730469e-01) (164, 2.64175140380859375000e+02) (165, 1.83366882801055908203e+00) (166, 6.00805397033691406250e+01) (167, 5.52071905136108398438e+00) (168, 1.90405216217041015625e+01) (169, 3.28283524513244628906e+00) (170, -1.16553478240966796875e+01) (171, 2.43805050849914550781e+00) (172, 8.47696399688720703125e+00) (173, 7.06505775451660156250e-01) (174, 4.82597923278808593750e+01) (175, -5.38850402832031250000e+00) (176, -6.87353706359863281250e+00) (177, -7.33211088180541992188e+00) (178, -2.15492324829101562500e+02) (179, -2.74014681577682495117e-01) (180, -1.48577133178710937500e+02) (181, 3.14706683158874511719e+00) (182, -4.80019927978515625000e+02) (183, -3.21113348007202148438e+00) (184, -1.47461206054687500000e+03) (185, -2.38222656250000000000e+01) (186, -3.55228332519531250000e+02) (187, -3.77571630477905273438e+00) (188, 1.12710447311401367188e+01) (189, -3.19334864616394042969e+00) (190, 4.07167480468750000000e+02) (191, -4.82164344787597656250e+01) (192, 2.17254074096679687500e+02) (193, -1.64646720886230468750e+01) (194, 5.48078979492187500000e+02) (195, -3.13170684814453125000e+02) (196, 1.50000000000000000000e+03) (197, 1.50000000000000000000e+03) (198, 1.50000000000000000000e+03) (199, 1.50000000000000000000e+03) (200, 7.31088018417358398438e+00) (201, -1.46244409179687500000e+03) (202, 1.71810722351074218750e+01) (0, 1.50000000000000000000e+03) (1, 4.84152030944824218750e+00) (2, -1.43953894042968750000e+03) (3, -2.14723634719848632812e+00) (4, 5.25372219085693359375e+00) (5, 2.52857208251953125000e+00) (6, -1.05248497009277343750e+02) (7, -2.48919653892517089844e+00) (8, 1.59866142272949218750e+01) (9, 8.30955791473388671875e+00) (10, 