FANN_FLO_2.1
num_layers=3
learning_rate=0.700000
connection_rate=1.000000
network_type=0
learning_momentum=0.000000
training_algorithm=2
train_error_function=1
train_stop_function=0
cascade_output_change_fraction=0.010000
quickprop_decay=-0.000100
quickprop_mu=1.750000
rprop_increase_factor=1.200000
rprop_decrease_factor=0.500000
rprop_delta_min=0.000000
rprop_delta_max=50.000000
rprop_delta_zero=0.100000
cascade_output_stagnation_epochs=12
cascade_candidate_change_fraction=0.010000
cascade_candidate_stagnation_epochs=12
cascade_max_out_epochs=150
cascade_min_out_epochs=50
cascade_max_cand_epochs=150
cascade_min_cand_epochs=50
cascade_num_candidate_groups=2
bit_fail_limit=3.49999994039535522461e-01
cascade_candidate_limit=1.00000000000000000000e+03
cascade_weight_multiplier=4.00000005960464477539e-01
cascade_activation_functions_count=10
cascade_activation_functions=3 5 7 8 10 11 14 15 16 17 
cascade_activation_steepnesses_count=4
cascade_activation_steepnesses=2.50000000000000000000e-01 5.00000000000000000000e-01 7.50000000000000000000e-01 1.00000000000000000000e+00 
layer_sizes=203 81 2 
scale_included=0
neurons (num_inputs, activation_function, activation_steepness)=(0, 0, 0.00000000000000000000e+00) (0, 0, 0.00000000000000000000e+00) (0, 0, 0.00000000000000000000e+00) (0, 0, 0.00000000000000000000e+00) (0, 0, 0.00000000000000000000e+00) (0, 0, 0.00000000000000000000e+00) (0, 0, 0.00000000000000000000e+00) (0, 0, 0.00000000000000000000e+00) (0, 0, 0.00000000000000000000e+00) (0, 0, 0.00000000000000000000e+00) (0, 0, 0.00000000000000000000e+00) (0, 0, 0.00000000000000000000e+00) (0, 0, 0.00000000000000000000e+00) (0, 0, 0.00000000000000000000e+00) (0, 0, 0.00000000000000000000e+00) (0, 0, 0.00000000000000000000e+00) (0, 0, 0.00000000000000000000e+00) (0, 0, 0.00000000000000000000e+00) (0, 0, 0.00000000000000000000e+00) (0, 0, 0.00000000000000000000e+00) (0, 0, 0.00000000000000000000e+00) (0, 0, 0.00000000000000000000e+00) (0, 0, 0.00000000000000000000e+00) (0, 0, 0.00000000000000000000e+00) (0, 0, 0.00000000000000000000e+00) (0, 0, 0.00000000000000000000e+00) (0, 0, 0.00000000000000000000e+00) (0, 0, 0.00000000000000000000e+00) (0, 0, 0.00000000000000000000e+00) (0, 0, 0.00000000000000000000e+00) (0, 0, 0.00000000000000000000e+00) (0, 0, 0.00000000000000000000e+00) (0, 0, 0.00000000000000000000e+00) (0, 0, 0.00000000000000000000e+00) (0, 0, 0.00000000000000000000e+00) (0, 0, 0.00000000000000000000e+00) (0, 0, 0.00000000000000000000e+00) (0, 0, 0.00000000000000000000e+00) (0, 0, 0.00000000000000000000e+00) (0, 0, 0.00000000000000000000e+00) (0, 0, 0.00000000000000000000e+00) (0, 0, 0.00000000000000000000e+00) (0, 0, 0.00000000000000000000e+00) (0, 0, 0.00000000000000000000e+00) (0, 0, 0.00000000000000000000e+00) (0, 0, 0.00000000000000000000e+00) (0, 0, 0.00000000000000000000e+00) (0, 0, 0.00000000000000000000e+00) (0, 0, 0.00000000000000000000e+00) (0, 0, 0.00000000000000000000e+00) (0, 0, 0.00000000000000000000e+00) (0, 0, 0.00000000000000000000e+00) (0, 0, 0.00000000000000000000e+00) (0, 0, 0.00000000000000000000e+00) (0, 0, 0.00000000000000000000e+00) (0, 0, 0.00000000000000000000e+00) (0, 0, 0.00000000000000000000e+00) (0, 0, 0.00000000000000000000e+00) (0, 0, 0.00000000000000000000e+00) (0, 0, 0.00000000000000000000e+00) (0, 0, 0.00000000000000000000e+00) (0, 0, 0.00000000000000000000e+00) (0, 0, 0.00000000000000000000e+00) (0, 0, 0.00000000000000000000e+00) (0, 0, 0.00000000000000000000e+00) (0, 0, 0.00000000000000000000e+00) (0, 0, 0.00000000000000000000e+00) (0, 0, 0.00000000000000000000e+00) (0, 0, 0.00000000000000000000e+00) (0, 0, 0.00000000000000000000e+00) (0, 0, 0.00000000000000000000e+00) (0, 0, 0.00000000000000000000e+00) (0, 0, 0.00000000000000000000e+00) (0, 0, 0.00000000000000000000e+00) (0, 0, 0.00000000000000000000e+00) (0, 0, 0.00000000000000000000e+00) (0, 0, 0.00000000000000000000e+00) (0, 0, 0.00000000000000000000e+00) (0, 0, 0.00000000000000000000e+00) (0, 0, 0.00000000000000000000e+00) (0, 0, 0.00000000000000000000e+00) (0, 0, 0.00000000000000000000e+00) (0, 0, 0.00000000000000000000e+00) (0, 0, 0.00000000000000000000e+00) (0, 0, 0.00000000000000000000e+00) (0, 0, 0.00000000000000000000e+00) (0, 0, 0.00000000000000000000e+00) (0, 0, 0.00000000000000000000e+00) (0, 0, 0.00000000000000000000e+00) (0, 0, 0.00000000000000000000e+00) (0, 0, 0.00000000000000000000e+00) (0, 0, 0.00000000000000000000e+00) (0, 0, 0.00000000000000000000e+00) (0, 0, 0.00000000000000000000e+00) (0, 0, 0.00000000000000000000e+00) (0, 0, 0.00000000000000000000e+00) (0, 0, 0.00000000000000000000e+00) (0, 0, 0.00000000000000000000e+00) (0, 0, 0.00000000000000000000e+00) (0, 0, 0.00000000000000000000e+00) (0, 0, 0.00000000000000000000e+00) (0, 0, 0.00000000000000000000e+00) (0, 0, 0.00000000000000000000e+00) (0, 0, 0.00000000000000000000e+00) (0, 0, 0.00000000000000000000e+00) (0, 0, 0.00000000000000000000e+00) (0, 0, 0.00000000000000000000e+00) (0, 0, 0.00000000000000000000e+00) (0, 0, 0.00000000000000000000e+00) (0, 0, 0.00000000000000000000e+00) (0, 0, 0.00000000000000000000e+00) (0, 0, 0.00000000000000000000e+00) (0, 0, 0.00000000000000000000e+00) (0, 0, 0.00000000000000000000e+00) (0, 0, 0.00000000000000000000e+00) (0, 0, 0.00000000000000000000e+00) (0, 0, 0.00000000000000000000e+00) (0, 0, 0.00000000000000000000e+00) (0, 0, 0.00000000000000000000e+00) (0, 0, 0.00000000000000000000e+00) (0, 0, 0.00000000000000000000e+00) (0, 0, 0.00000000000000000000e+00) (0, 0, 0.00000000000000000000e+00) (0, 0, 0.00000000000000000000e+00) (0, 0, 0.00000000000000000000e+00) (0, 0, 0.00000000000000000000e+00) (0, 0, 0.00000000000000000000e+00) (0, 0, 0.00000000000000000000e+00) (0, 0, 0.00000000000000000000e+00) (0, 0, 0.00000000000000000000e+00) (0, 0, 0.00000000000000000000e+00) (0, 0, 0.00000000000000000000e+00) (0, 0, 0.00000000000000000000e+00) (0, 0, 0.00000000000000000000e+00) (0, 0, 0.00000000000000000000e+00) (0, 0, 0.00000000000000000000e+00) (0, 0, 0.00000000000000000000e+00) (0, 0, 0.00000000000000000000e+00) (0, 0, 0.00000000000000000000e+00) (0, 0, 0.00000000000000000000e+00) (0, 0, 0.00000000000000000000e+00) (0, 0, 0.00000000000000000000e+00) (0, 0, 0.00000000000000000000e+00) (0, 0, 0.00000000000000000000e+00) (0, 0, 0.00000000000000000000e+00) (0, 0, 0.00000000000000000000e+00) (0, 0, 0.00000000000000000000e+00) (0, 0, 0.00000000000000000000e+00) (0, 0, 0.00000000000000000000e+00) (0, 0, 0.00000000000000000000e+00) (0, 0, 0.00000000000000000000e+00) (0, 0, 0.00000000000000000000e+00) (0, 0, 0.00000000000000000000e+00) (0, 0, 0.00000000000000000000e+00) (0, 0, 0.00000000000000000000e+00) (0, 0, 0.00000000000000000000e+00) (0, 0, 0.00000000000000000000e+00) (0, 0, 0.00000000000000000000e+00) (0, 0, 0.00000000000000000000e+00) (0, 0, 0.00000000000000000000e+00) (0, 0, 0.00000000000000000000e+00) (0, 0, 0.00000000000000000000e+00) (0, 0, 0.00000000000000000000e+00) (0, 0, 0.00000000000000000000e+00) (0, 0, 0.00000000000000000000e+00) (0, 0, 0.00000000000000000000e+00) (0, 0, 0.00000000000000000000e+00) (0, 0, 0.00000000000000000000e+00) (0, 0, 0.00000000000000000000e+00) (0, 0, 0.00000000000000000000e+00) (0, 0, 0.00000000000000000000e+00) (0, 0, 0.00000000000000000000e+00) (0, 0, 0.00000000000000000000e+00) (0, 0, 0.00000000000000000000e+00) (0, 0, 0.00000000000000000000e+00) (0, 0, 0.00000000000000000000e+00) (0, 0, 0.00000000000000000000e+00) (0, 0, 0.00000000000000000000e+00) (0, 0, 0.00000000000000000000e+00) (0, 0, 0.00000000000000000000e+00) (0, 0, 0.00000000000000000000e+00) (0, 0, 0.00000000000000000000e+00) (0, 0, 0.00000000000000000000e+00) (0, 0, 0.00000000000000000000e+00) (0, 0, 0.00000000000000000000e+00) (0, 0, 0.00000000000000000000e+00) (0, 0, 0.00000000000000000000e+00) (0, 0, 0.00000000000000000000e+00) (0, 0, 0.00000000000000000000e+00) (0, 0, 0.00000000000000000000e+00) (0, 0, 0.00000000000000000000e+00) (0, 0, 0.00000000000000000000e+00) (0, 0, 0.00000000000000000000e+00) (0, 0, 0.00000000000000000000e+00) (0, 0, 0.00000000000000000000e+00) (0, 0, 0.00000000000000000000e+00) (0, 0, 0.00000000000000000000e+00) (0, 0, 0.00000000000000000000e+00) (0, 0, 0.00000000000000000000e+00) (0, 0, 0.00000000000000000000e+00) (0, 0, 0.00000000000000000000e+00) (0, 0, 0.00000000000000000000e+00) (0, 0, 0.00000000000000000000e+00) (203, 5, 5.00000000000000000000e-01) (203, 5, 5.00000000000000000000e-01) (203, 5, 5.00000000000000000000e-01) (203, 5, 5.00000000000000000000e-01) (203, 5, 5.00000000000000000000e-01) (203, 5, 5.00000000000000000000e-01) (203, 5, 5.00000000000000000000e-01) (203, 5, 5.00000000000000000000e-01) (203, 5, 5.00000000000000000000e-01) (203, 5, 5.00000000000000000000e-01) (203, 5, 5.00000000000000000000e-01) (203, 5, 5.00000000000000000000e-01) (203, 5, 5.00000000000000000000e-01) (203, 5, 5.00000000000000000000e-01) (203, 5, 5.00000000000000000000e-01) (203, 5, 5.00000000000000000000e-01) (203, 5, 5.00000000000000000000e-01) (203, 5, 5.00000000000000000000e-01) (203, 5, 5.00000000000000000000e-01) (203, 5, 5.00000000000000000000e-01) (203, 5, 5.00000000000000000000e-01) (203, 5, 5.00000000000000000000e-01) (203, 5, 5.00000000000000000000e-01) (203, 5, 5.00000000000000000000e-01) (203, 5, 5.00000000000000000000e-01) (203, 5, 5.00000000000000000000e-01) (203, 5, 5.00000000000000000000e-01) (203, 5, 5.00000000000000000000e-01) (203, 5, 5.00000000000000000000e-01) (203, 5, 5.00000000000000000000e-01) (203, 5, 5.00000000000000000000e-01) (203, 5, 5.00000000000000000000e-01) (203, 5, 5.00000000000000000000e-01) (203, 5, 5.00000000000000000000e-01) (203, 5, 5.00000000000000000000e-01) (203, 5, 5.00000000000000000000e-01) (203, 5, 5.00000000000000000000e-01) (203, 5, 5.00000000000000000000e-01) (203, 5, 5.00000000000000000000e-01) (203, 5, 5.00000000000000000000e-01) (203, 5, 5.00000000000000000000e-01) (203, 5, 5.00000000000000000000e-01) (203, 5, 5.00000000000000000000e-01) (203, 5, 5.00000000000000000000e-01) (203, 5, 5.00000000000000000000e-01) (203, 5, 5.00000000000000000000e-01) (203, 5, 5.00000000000000000000e-01) (203, 5, 5.00000000000000000000e-01) (203, 5, 5.00000000000000000000e-01) (203, 5, 5.00000000000000000000e-01) (203, 5, 5.00000000000000000000e-01) (203, 5, 5.00000000000000000000e-01) (203, 5, 5.00000000000000000000e-01) (203, 5, 5.00000000000000000000e-01) (203, 5, 5.00000000000000000000e-01) (203, 5, 5.00000000000000000000e-01) (203, 5, 5.00000000000000000000e-01) (203, 5, 5.00000000000000000000e-01) (203, 5, 5.00000000000000000000e-01) (203, 5, 5.00000000000000000000e-01) (203, 5, 5.00000000000000000000e-01) (203, 5, 5.00000000000000000000e-01) (203, 5, 5.00000000000000000000e-01) (203, 5, 5.00000000000000000000e-01) (203, 5, 5.00000000000000000000e-01) (203, 5, 5.00000000000000000000e-01) (203, 5, 5.00000000000000000000e-01) (203, 5, 5.00000000000000000000e-01) (203, 5, 5.00000000000000000000e-01) (203, 5, 5.00000000000000000000e-01) (203, 5, 5.00000000000000000000e-01) (203, 5, 5.00000000000000000000e-01) (203, 5, 5.00000000000000000000e-01) (203, 5, 5.00000000000000000000e-01) (203, 5, 5.00000000000000000000e-01) (203, 5, 5.00000000000000000000e-01) (203, 5, 5.00000000000000000000e-01) (203, 5, 5.00000000000000000000e-01) (203, 5, 5.00000000000000000000e-01) (203, 5, 5.00000000000000000000e-01) (0, 5, 0.00000000000000000000e+00) (81, 5, 5.00000000000000000000e-01) (0, 5, 0.00000000000000000000e+00) 
connections (connected_to_neuron, weight)=(0, -1.34537845849990844727e-01) (1, -4.41005378961563110352e-01) (2, 1.05120980739593505859e+00) (3, -5.18570184707641601562e-01) (4, -3.10377150774002075195e-01) (5, 6.99744641780853271484e-01) (6, -5.59752702713012695312e-01) (7, 6.15126967430114746094e-01) (8, -7.58676648139953613281e-01) (9, -4.25570935010910034180e-01) (10, -1.10390377044677734375e+00) (11, -4.49725449085235595703e-01) (12, -3.51779669523239135742e-01) (13, 5.85578203201293945312e-01) (14, 1.91840279102325439453e+00) (15, 4.41015332937240600586e-01) (16, -4.11282539367675781250e-01) (17, 4.99914854764938354492e-01) (18, -3.11892509460449218750e+00) (19, -1.74521875381469726562e+00) (20, -2.56371736526489257812e-01) (21, -5.02481162548065185547e-01) (22, -4.52845931053161621094e-01) (23, -5.52560389041900634766e-01) (24, -4.95566904544830322266e-01) (25, -7.66708552837371826172e-02) (26, 5.59463882446289062500e+00) (27, 1.23152017593383789062e+01) (28, -6.58844351768493652344e-01) (29, -5.32244622707366943359e-01) (30, 8.04457485675811767578e-01) (31, -5.88698863983154296875e-01) (32, -7.51548814773559570312e+00) (33, -4.89051729440689086914e-01) (34, 9.92552947998046875000e+00) (35, -4.16060537099838256836e-01) (36, 6.99258708953857421875e+00) (37, -4.36292052268981933594e-01) (38, -9.83025908470153808594e-01) (39, 6.05648458003997802734e-01) (40, 8.22925853729248046875e+00) (41, 5.69770812988281250000e-01) (42, 6.94368720054626464844e-01) (43, -4.54201728105545043945e-01) (44, 3.11538772583007812500e+01) (45, -6.12497186660766601562e+00) (46, 8.51424992084503173828e-01) (47, -3.65623855590820312500e+00) (48, -1.51686382293701171875e+00) (49, -6.42018377780914306641e-01) (50, 2.21532797813415527344e+00) (51, -9.28001463413238525391e-01) (52, 2.50821900367736816406e+00) (53, -7.22168743610382080078e-01) (54, -1.26996028423309326172e+00) (55, -9.14761900901794433594e-01) (56, -2.00334596633911132812e+00) (57, 2.79203861951828002930e-01) (58, 4.73462715744972229004e-02) (59, 4.69194024801254272461e-01) (60, -3.81336498260498046875e+00) (61, -4.85201478004455566406e-01) (62, 5.30621099472045898438e+00) (63, 7.15758442878723144531e-01) (64, 3.25561571121215820312e+00) (65, 6.43519222736358642578e-01) (66, 9.90875339508056640625e+00) (67, 4.69773197174072265625e+00) (68, 8.00129234790802001953e-01) (69, -4.28812682628631591797e-01) (70, -3.23353558778762817383e-01) (71, -4.24951732158660888672e-01) (72, 1.05434453487396240234e+00) (73, 6.12190067768096923828e-01) (74, 2.97466945648193359375e+00) (75, -4.40489739179611206055e-01) (76, 3.43029952049255371094e+00) (77, -4.57379817962646484375e-01) (78, 6.33610904216766357422e-01) (79, 7.50676929950714111328e-01) (80, -5.01336455345153808594e-01) (81, -3.83838340640068054199e-02) (82, -2.95298695564270019531e-01) (83, -2.04521998763084411621e-01) (84, -4.25142526626586914062e-01) (85, -5.36406934261322021484e-01) (86, 3.03412396460771560669e-02) (87, -5.66905379295349121094e-01) (88, -1.53580546379089355469e+00) (89, -3.26980918645858764648e-01) (90, -2.53902256488800048828e-01) (91, -3.93816024065017700195e-01) (92, -2.87687271833419799805e-01) (93, -3.32699954509735107422e-01) (94, -8.59133529663085937500e+00) (95, 6.71470761299133300781e-01) (96, 5.80053925514221191406e-01) (97, 8.25814127922058105469e-01) (98, 9.33171272277832031250e-01) (99, 4.76381182670593261719e-01) (100, -4.73797380924224853516e-01) (101, -7.97348499298095703125e-01) (102, -4.09832507371902465820e-01) (103, -5.93645334243774414062e-01) (104, 9.58043456077575683594e-01) (105, -4.93901371955871582031e-01) (106, -5.01388251781463623047e-01) (107, -4.43853855133056640625e-01) (108, -3.72730994224548339844e+00) (109, 5.70077002048492431641e-01) (110, 6.60810887813568115234e-01) (111, 7.14822769165039062500e-01) (112, -3.18028926849365234375e-01) (113, -6.75886750221252441406e-01) (114, 4.41697883605957031250e+00) (115, -4.05506670475006103516e-01) (116, -2.53749221563339233398e-01) (117, -3.39715570211410522461e-01) (118, -8.54551887512207031250e+00) (119, 6.59434974193572998047e-01) (120, -3.40255916118621826172e-01) (121, -4.38605427742004394531e-01) (122, -9.94295835494995117188e-01) (123, 6.71775460243225097656e-01) (124, 3.24465990066528320312e+00) (125, -3.15904766321182250977e-01) (126, -1.58133709430694580078e+00) (127, -3.31261008977890014648e-01) (128, -9.99455749988555908203e-01) (129, 7.94687211513519287109e-01) (130, -3.92506074905395507812e+00) (131, -4.30943816900253295898e-01) (132, -4.05606150627136230469e-01) (133, -3.82475912570953369141e-01) (134, -1.05620145797729492188e+01) (135, -4.54027920961380004883e-01) (136, -6.55707538127899169922e-01) (137, -2.80499815940856933594e-01) (138, 3.30580919981002807617e-01) (139, -2.64863044023513793945e-01) (140, 7.29649007320404052734e-01) (141, 7.47783482074737548828e-01) (142, -3.54782998561859130859e-01) (143, -8.51360559463500976562e-01) (144, -2.46321392059326171875e+00) (145, -4.15593385696411132812e-01) (146, -4.39178228378295898438e-01) (147, -3.89241993427276611328e-01) (148, -4.19504702091217041016e-01) (149, -5.27531839907169342041e-02) (150, -9.06984627246856689453e-01) (151, 7.68551647663116455078e-01) (152, -4.87804770469665527344e-01) (153, -4.63814198970794677734e-01) (154, 1.43741950988769531250e+01) (155, 5.11165082454681396484e-01) (156, 5.71390569210052490234e-01) (157, -6.25767767429351806641e-01) (158, 2.33012652397155761719e+00) (159, -7.80916571617126464844e-01) (160, -6.28987729549407958984e-01) (161, -3.95490437746047973633e-01) (162, -7.41481734439730644226e-03) (163, -1.35112750530242919922e+00) (164, -8.42031955718994140625e+00) (165, 4.05120670795440673828e-01) (166, -1.20067632198333740234e+00) (167, -4.94132250547409057617e-01) (168, -9.74125564098358154297e-01) (169, -6.76016628742218017578e-01) (170, -4.08009022474288940430e-01) (171, -6.81314826011657714844e-01) (172, 3.76272499561309814453e-01) (173, -3.74063163995742797852e-01) (174, -6.84308260679244995117e-02) (175, -3.97790580987930297852e-01) (176, -5.24567700922489166260e-02) (177, -4.54480886459350585938e-01) (178, -2.74941235780715942383e-01) (179, -4.48583126068115234375e-01) (180, -1.30738270282745361328e+00) (181, -3.26004207134246826172e-01) (182, 7.88072705268859863281e-01) (183, -4.35162723064422607422e-01) (184, 6.87908506393432617188e+00) (185, 7.49109864234924316406e-01) (186, 1.07718582153320312500e+01) (187, -4.29539173841476440430e-01) (188, -1.44866883754730224609e-01) (189, 7.06782579421997070312e-01) (190, 1.60441374778747558594e+00) (191, -3.49363625049591064453e-01) (192, 9.56873035430908203125e+00) (193, -7.07073926925659179688e-01) (194, -3.64544749259948730469e+00) (195, -2.64110058546066284180e-01) (196, 1.50000000000000000000e+03) (197, 1.50000000000000000000e+03) (198, 1.50000000000000000000e+03) (199, 1.50000000000000000000e+03) (200, 6.07514858245849609375e-01) (201, -6.14598989486694335938e+00) (202, 1.70391499996185302734e+00) (0, 1.01806726455688476562e+01) (1, 8.96129608154296875000e-01) (2, -4.37717103958129882812e+00) (3, 8.82596254348754882812e-01) (4, 8.53216290473937988281e-01) (5, -3.83698612451553344727e-01) (6, 5.67049205303192138672e-01) (7, -2.65965461730957031250e-01) (8, -3.83519887924194335938e-01) (9, -3.95626932382583618164e-01) (10, 1.78144788742065429688e+00) (11, -3.49242955446243286133e-01) (12, 9.41319346427917480469e-01) (13, -2.67161995172500610352e-01) (14, 5.92416572570800781250e+00) (15, -6.95261359214782714844e-01) (16, 3.06632137298583984375e+00) (17, -5.48363351821899414062e+00) (18, 1.79602956771850585938e+00) (19, -7.37825691699981689453e-01) (20, 9.14768457412719726562e-01) (21, -3.96728575229644775391e-01) (22, 8.44146966934204101562e-01) (23, -3.64900857210159301758e-01) (24, -2.05575728416442871094e+00) (25, -3.82782608270645141602e-01) (26, -3.78640174865722656250e+00) (27, -4.25046235322952270508e-01) (28, 8.77598881721496582031e-01) (29, -4.47585821151733398438e-01) (30, -2.82831025123596191406e+00) (31, -2.94369161128997802734e-01) (32, -1.49082198739051818848e-01) (33, 8.07668030261993408203e-01) (34, -2.35706031322479248047e-01) (35, 8.94358873367309570312e-01) (36, -8.96223336458206176758e-02) (37, -3.46820414066314697266e-01) (38, 2.01929593086242675781e+00) (39, -2.02024459838867187500e-01) (40, -3.14824104309082031250e+00) (41, -3.07396203279495239258e-01) (42, -4.95098605751991271973e-02) (43, -3.87100070714950561523e-01) (44, 4.65053111314773559570e-01) (45, 3.41245508193969726562e+00) (46, -1.93309620022773742676e-01) (47, -1.55022233724594116211e-01) (48, 8.55976402759552001953e-01) (49, -3.85093778371810913086e-01) (50, -5.00105440616607666016e-01) (51, -2.71738350391387939453e-01) (52, -1.01568698883056640625e+00) (53, 7.78969109058380126953e-01) (54, 8.00790071487426757812e-01) (55, 6.02938294410705566406e-01) (56, 3.43586653470993041992e-01) (57, -1.26414239406585693359e+00) (58, -2.74093699455261230469e+00) (59, 3.36654901504516601562e-01) (60, 4.97546863555908203125e+00) (61, -4.28310811519622802734e-01) (62, 2.09991145133972167969e+00) (63, -3.28551840782165527344e+00) (64, 7.55939722061157226562e+00) (65, -2.51690626144409179688e-01) (66, 4.50107765197753906250e+00) (67, -2.50301569700241088867e-01) (68, 1.47096800804138183594e+00) (69, -2.49042302370071411133e-01) (70, -2.60387092828750610352e-01) (71, -3.92913788557052612305e-01) (72, -7.99766004085540771484e-01) (73, -2.80596524477005004883e-01) (74, -4.44662779569625854492e-01) (75, -1.65652945637702941895e-01) (76, 1.14270734786987304688e+00) (77, -4.56473976373672485352e-01) (78, 7.63719558715820312500e-01) (79, -3.31169188022613525391e-01) (80, 9.65818583965301513672e-01) (81, -3.51057559251785278320e-01) (82, 5.14020562171936035156e-01) (83, 9.69413518905639648438e-01) (84, 2.77061402797698974609e-01) (85, -4.34455204010009765625e+00) (86, 6.01362943649291992188e-01) (87, 3.63277107477188110352e-01) (88, 4.46969032287597656250e-01) (89, -3.93094390630722045898e-01) (90, 3.99395287036895751953e-01) (91, -2.58299142122268676758e-01) (92, 4.18468177318572998047e-01) (93, -3.32101047039031982422e-01) (94, 2.02055001258850097656e+00) (95, -1.10353136062622070312e+00) (96, 7.98094451427459716797e-01) (97, -4.88089752197265625000e+00) (98, 5.43960258364677429199e-02) (99, -5.73500514030456542969e-01) (100, 1.98916882276535034180e-01) (101, 3.45683425664901733398e-01) (102, -5.79857707023620605469e-01) (103, -4.54975575208663940430e-01) (104, -1.77515566349029541016e+00) (105, -1.11680829524993896484e+00) (106, -2.43576392531394958496e-01) (107, -3.23522478342056274414e-01) (108, -3.39926868677139282227e-01) (109, -4.28865939378738403320e-01) (110, -2.34269335865974426270e-01) (111, 5.68264387547969818115e-02) (112, -1.00974522531032562256e-01) (113, 9.02943789958953857422e-01) (114, -1.40116178989410400391e+00) (115, -2.86087095737457275391e-01) (116, 7.72425830364227294922e-01) (117, -5.03441512584686279297e-01) (118, 1.85368880629539489746e-01) (119, -3.45705211162567138672e-01) (120, 3.05980503559112548828e-01) (121, -2.66568243503570556641e-01) (122, -6.89630627632141113281e-01) (123, 2.46322345733642578125e+00) (124, -1.63915324211120605469e+00) (125, 8.63715767860412597656e-01) (126, -4.95467394590377807617e-01) (127, -3.37276399135589599609e-01) (128, 1.18770289421081542969e+00) (129, -4.45374727249145507812e-01) (130, 5.76108396053314208984e-01) (131, -3.16003233194351196289e-01) (132, -2.30178326368331909180e-01) (133, -2.60826915502548217773e-01) (134, -4.42014068365097045898e-01) (135, -3.90274077653884887695e-01) (136, 8.45798075199127197266e-01) (137, 1.56596887111663818359e+00) (138, 6.10683631896972656250e+00) (139, 9.03733491897583007812e-01) (140, -2.14272543787956237793e-01) (141, -4.32807564735412597656e-01) (142, -1.08055941760540008545e-01) (143, -6.66123211383819580078e-01) (144, 1.73022842407226562500e+00) (145, -3.91127258539199829102e-01) (146, 2.62244462966918945312e-01) (147, -2.85827875137329101562e-01) (148, -4.31994408369064331055e-01) (149, -2.41338983178138732910e-01) (150, -1.43132537603378295898e-01) (151, 9.01297390460968017578e-01) (152, -4.56890493631362915039e-01) (153, 9.33080255985260009766e-01) (154, 2.42953510284423828125e+01) (155, -2.64923155307769775391e-01) (156, -1.93598315119743347168e-01) (157, 2.50298678874969482422e-01) (158, -3.11116218566894531250e-01) (159, -2.28833287954330444336e-01) (160, 7.09888994693756103516e-01) (161, -5.65741062164306640625e-01) (162, -2.37007558345794677734e-01) (163, 1.93204975128173828125e+00) (164, -4.72130012512207031250e+00) (165, -2.82430469989776611328e-01) (166, -1.23199634253978729248e-01) (167, 4.03969794511795043945e-01) (168, -2.98879086971282958984e-01) (169, -4.05801743268966674805e-01) (170, 8.69356036186218261719e-01) (171, -1.76887869834899902344e-01) (172, 8.11243057250976562500e-01) (173, -2.98789978027343750000e-01) (174, 6.43419861793518066406e-01) (175, -2.89263457059860229492e-01) (176, -2.90412992238998413086e-01) (177, -4.18868988752365112305e-01) (178, -2.73913085460662841797e-01) (179, -3.91290694475173950195e-01) (180, -2.27097257971763610840e-01) (181, -2.31449797749519348145e-01) (182, -3.47484087944030761719e+00) (183, -1.77717775106430053711e-01) (184, -2.95522999763488769531e+00) (185, -3.05567860603332519531e-01) (186, 6.58424854278564453125e-01) (187, -2.05532670021057128906e-01) (188, 2.95127844810485839844e+00) (189, -2.57021754980087280273e-01) (190, 5.78712606430053710938e+00) (191, 9.39748167991638183594e-01) (192, 1.37514257431030273438e+00) (193, -3.69034588336944580078e-01) (194, -1.40859627723693847656e+00) (195, -2.44715183973312377930e-01) (196, 1.50000000000000000000e+03) (197, 1.50000000000000000000e+03) (198, 1.50000000000000000000e+03) (199, 1.50000000000000000000e+03) (200, -8.36489200592041015625e-01) (201, -5.73408079147338867188e+00) (202, 1.30542802810668945312e+00) (0, 1.24634945392608642578e+00) (1, 1.26056766510009765625e+00) (2, 1.88765600323677062988e-01) (3, 1.27463555335998535156e+00) (4, 1.29402971267700195312e+00) (5, 1.30452668666839599609e+00) (6, 9.04743671417236328125e-02) (7, 1.26635992527008056641e+00) (8, 2.29361161589622497559e-01) (9, 1.13225948810577392578e+00) (10, 2.07827106118202209473e-01) (11, 1.14451611042022705078e+00) (12, 1.38309165835380554199e-01) (13, 1.57121792435646057129e-01) (14, 1.79590061306953430176e-01) (15, 1.25396952033042907715e-01) (16, 1.18941104412078857422e+00) (17, 1.29139113426208496094e+00) (18, 1.46021112799644470215e-01) (19, 1.35855019092559814453e+00) (20, 1.57223537564277648926e-01) (21, 1.27427291870117187500e+00) (22, 1.75256803631782531738e-01) (23, 1.21411001682281494141e+00) (24, -3.32807850837707519531e+00) (25, 1.31690001487731933594e+00) (26, -3.07447223663330078125e+01) (27, 1.30788886547088623047e+00) (28, 6.24505281448364257812e-01) (29, 1.28211891651153564453e+00) (30, 2.24638879299163818359e-02) (31, 1.35766458511352539062e+00) (32, 4.37640495300292968750e+01) (33, 1.40544331073760986328e+00) (34, -1.31535034179687500000e+01) (35, 1.22135710716247558594e+00) (36, -1.52545003890991210938e+01) (37, 1.81776538491249084473e-01) (38, 4.18065279722213745117e-01) (39, 1.31302559375762939453e+00) (40, 1.50679147243499755859e+00) (41, 1.32128095626831054688e+00) (42, 1.59168064594268798828e+00) (43, 1.31287610530853271484e+00) (44, 2.75259375572204589844e-01) (45, 1.43909132480621337891e+00) (46, 8.31149294972419738770e-02) (47, 8.01764279603958129883e-02) (48, 1.15942843258380889893e-01) (49, 1.34234488010406494141e+00) (50, 6.25775158405303955078e-01) (51, 1.68715274333953857422e+00) (52, -1.60638228058815002441e-01) (53, 1.30657649040222167969e+00) (54, -2.06072177886962890625e+01) (55, 2.14103269577026367188e+00) (56, 3.01878124475479125977e-01) (57, -4.17588770389556884766e-01) (58, -3.96781039237976074219e+00) (59, 4.87956494092941284180e-01) (60, -3.24996888637542724609e-01) (61, 5.22658407688140869141e-01) (62, -1.37310421466827392578e+00) (63, 6.53322815895080566406e-01) (64, 2.62587928771972656250e+00) (65, 6.77171289920806884766e-01) (66, 7.41715252399444580078e-01) (67, 9.73052322864532470703e-01) (68, 1.31133973598480224609e+00) (69, 1.23145735263824462891e+00) (70, 1.21169221401214599609e+00) (71, 1.37556207180023193359e+00) (72, 4.17551964521408081055e-01) (73, 1.13870942592620849609e+00) (74, 2.67028421163558959961e-01) (75, 1.20902776718139648438e+00) (76, -2.91219186782836914062e+00) (77, 2.19703412055969238281e+00) (78, 3.53791683912277221680e-01) (79, 1.21636867523193359375e+00) (80, 1.33844149112701416016e+00) (81, -2.85865098237991333008e-01) (82, 1.53420436382293701172e+00) (83, 1.15831029415130615234e+00) (84, 1.63137698173522949219e+00) (85, 1.18592369556427001953e+00) (86, 1.36129331588745117188e+00) (87, 1.06192231178283691406e+00) (88, 8.48805963993072509766e-01) (89, 1.29441249370574951172e+00) (90, 2.13820075988769531250e+00) (91, 1.22738218307495117188e+00) (92, 2.22381100058555603027e-01) (93, 1.28434419631958007812e+00) (94, 3.73553842306137084961e-01) (95, 1.21412062644958496094e+00) (96, -1.03533589839935302734e+00) (97, 6.13452851772308349609e-01) (98, 1.57168555259704589844e+00) (99, 5.38591325283050537109e-01) (100, 1.59303104877471923828e+00) (101, 2.50553945079445838928e-03) (102, 3.99893552064895629883e-01) (103, 1.34557783603668212891e+00) (104, 3.89069110155105590820e-01) (105, 1.19384133815765380859e+00) (106, 4.33770269155502319336e-01) (107, 1.31654715538024902344e+00) (108, -4.06153380870819091797e-01) (109, 1.30864191055297851562e+00) (110, 1.25273191928863525391e+00) (111, 1.20081925392150878906e+00) (112, 1.48133575916290283203e+00) (113, 1.26653015613555908203e+00) (114, -1.24473243951797485352e-01) (115, 1.28994560241699218750e+00) (116, 4.31879907846450805664e-01) (117, 1.21274471282958984375e+00) (118, -1.44197970628738403320e-01) (119, 1.11736226081848144531e+00) (120, 1.95043701678514480591e-02) (121, 1.34396636486053466797e+00) (122, 5.54929971694946289062e-01) (123, 1.31351172924041748047e+00) (124, -1.10375223159790039062e+01) (125, 1.30112719535827636719e+00) (126, 5.63975930213928222656e-01) (127, 1.29332888126373291016e+00) (128, 1.58346092700958251953e+00) (129, 1.15690851211547851562e+00) (130, 9.36668574810028076172e-01) (131, 4.21557068824768066406e-01) (132, 1.12570381164550781250e+00) (133, 1.23886728286743164062e+00) (134, -1.21881780624389648438e+01) (135, 1.31750953197479248047e+00) (136, 3.76269072294235229492e-01) (137, 1.13246369361877441406e+00) (138, 1.40788745880126953125e+00) (139, 1.19453811645507812500e+00) (140, 3.47194597125053405762e-02) (141, 1.12059926986694335938e+00) (142, 2.44559988379478454590e-01) (143, 1.51194766163825988770e-01) (144, 7.81166791915893554688e-01) (145, 1.06478862464427947998e-01) (146, 4.38320010900497436523e-01) (147, 1.02731913328170776367e-01) (148, 1.50163161754608154297e+00) (149, 1.26661849021911621094e+00) (150, 5.07557272911071777344e-01) (151, 1.32204547524452209473e-01) (152, -3.67480049133300781250e+01) (153, 1.24341571331024169922e+00) (154, -6.90910673141479492188e+00) (155, 1.33403706550598144531e+00) (156, 1.32868993282318115234e+00) (157, 1.62331983447074890137e-01) (158, 1.17563331127166748047e+00) (159, 1.15251159667968750000e+00) (160, 1.21270227432250976562e+00) (161, 1.96342810988426208496e-01) (162, 1.10318355262279510498e-01) (163, 1.30380260944366455078e+00) (164, 5.84509074687957763672e-01) (165, 1.10971784591674804688e+00) (166, 3.08769315481185913086e-01) (167, 1.12963771820068359375e+00) (168, 1.09398663043975830078e+00) (169, 1.28490543365478515625e+00) (170, 1.36385905742645263672e+00) (171, 6.00992619991302490234e-01) (172, 6.66878521442413330078e-01) (173, 1.13155782222747802734e+00) (174, 5.76700925827026367188e-01) (175, 1.86654940247535705566e-01) (176, 1.17705714702606201172e+00) (177, 1.10986673831939697266e+00) (178, 1.20182049274444580078e+00) (179, 1.27507853507995605469e+00) (180, 1.21317517757415771484e+00) (181, 1.24660277366638183594e+00) (182, 1.36833167076110839844e+00) (183, 1.27355396747589111328e+00) (184, -2.88893127441406250000e+00) (185, 1.06198441982269287109e+00) (186, 9.04616415500640869141e-02) (187, 1.32802689075469970703e+00) (188, 5.91541901230812072754e-02) (189, 2.16927245259284973145e-01) (190, 3.42059612274169921875e-01) (191, 5.87156042456626892090e-02) (192, -6.18759536743164062500e+00) (193, 1.27618157863616943359e+00) (194, 3.67242789268493652344e+00) (195, 8.93765836954116821289e-02) (196, 1.50000000000000000000e+03) (197, 1.50000000000000000000e+03) (198, 1.50000000000000000000e+03) (199, 1.50000000000000000000e+03) (200, 1.26497983932495117188e+00) (201, 1.30801749229431152344e+00) (202, -2.21437305212020874023e-01) (0, 4.82332676649093627930e-01) (1, 5.29683768749237060547e-01) (2, 6.27367317676544189453e-01) (3, -1.63117468357086181641e+00) (4, 4.77326899766921997070e-01) (5, 5.20934581756591796875e-01) (6, -8.26192915439605712891e-01) (7, 5.23625314235687255859e-01) (8, -9.70365464687347412109e-01) (9, -4.75234717130661010742e-01) (10, -6.26960575580596923828e-01) (11, -2.99278855323791503906e-01) (12, -5.24488985538482666016e-01) (13, -4.88212317228317260742e-01) (14, -8.03921580314636230469e-01) (15, -2.91889667510986328125e-01) (16, -2.14157581329345703125e+00) (17, -4.55292463302612304688e-01) (18, -3.64940333366394042969e+00) (19, 4.08545643091201782227e-01) (20, -1.03314256668090820312e+00) (21, -3.88098984956741333008e-01) (22, -5.42596697807312011719e-01) (23, -5.84698855876922607422e-01) (24, -1.43374664306640625000e+02) (25, 5.64209580421447753906e-01) (26, -1.50000000000000000000e+03) (27, 3.80076438188552856445e-01) (28, -1.50000000000000000000e+03) (29, -2.18659475445747375488e-01) (30, -8.63670110702514648438e-02) (31, 5.12501835823059082031e-01) (32, 1.49564184570312500000e+03) (33, -3.22925090789794921875e-01) (34, 1.50000000000000000000e+03) (35, -3.20639520883560180664e-01) (36, 1.13531017303466796875e+01) (37, -3.83761614561080932617e-01) (38, -1.25252781435847282410e-02) (39, 5.00882446765899658203e-01) (40, 5.08362913131713867188e+00) (41, 4.46206063032150268555e-01) (42, -3.44502955675125122070e-01) (43, 5.74853360652923583984e-01) (44, 5.62968611717224121094e-01) (45, -8.52838873863220214844e-01) (46, -1.27584636211395263672e-01) (47, -3.83133575439453125000e+02) (48, -5.99167943000793457031e-01) (49, -1.10469102859497070312e-01) (50, 9.02570903301239013672e-01) (51, 2.89699137210845947266e-02) (52, -1.41202044486999511719e+00) (53, -3.39844048023223876953e-01) (54, -3.99372955322265625000e+02) (55, -2.71132200956344604492e-01) (56, -2.39291548728942871094e+00) (57, -2.40560317039489746094e+00) (58, -1.84293258666992187500e+02) (59, -2.48148575425148010254e-01) (60, -6.34640264511108398438e+00) (61, -4.51977223157882690430e-01) (62, 4.54892009496688842773e-01) (63, -3.23997080326080322266e-01) (64, 1.27023730468750000000e+03) (65, -2.06496655941009521484e-01) (66, 2.40469360351562500000e+00) (67, 6.59186914563179016113e-02) (68, -4.33493629097938537598e-02) (69, -3.64202260971069335938e-01) (70, -2.01377645134925842285e-01) (71, 8.33544969558715820312e-01) (72, -1.93090534210205078125e+00) (73, -2.64042407274246215820e-01) (74, -3.38758945465087890625e-01) (75, 5.36498665809631347656e-01) (76, -1.44616961479187011719e+00) (77, -5.19077554345130920410e-02) (78, -3.24312239885330200195e-01) (79, 3.49004626274108886719e-01) (80, -3.04931759834289550781e-01) (81, 2.77194604277610778809e-02) (82, -4.58816915750503540039e-01) (83, 3.80288630723953247070e-01) (84, -1.49115934967994689941e-01) (85, 8.05512428283691406250e-01) (86, -8.51808700561523437500e+01) (87, -4.57117885351181030273e-01) (88, -1.01501727104187011719e+00) (89, 5.90945780277252197266e-01) (90, 1.49928271770477294922e-01) (91, 5.59847831726074218750e-01) (92, -6.52500629425048828125e-01) (93, 4.01441127061843872070e-01) (94, -7.59768981933593750000e+01) (95, -4.15050864219665527344e-01) (96, 2.03998494148254394531e+00) (97, -1.79658126831054687500e+00) (98, 4.71139162778854370117e-01) (99, -6.40561938285827636719e-01) (100, -1.23210400342941284180e-01) (101, -1.02620385742187500000e+03) (102, -4.68374907970428466797e-01) (103, -3.46582621335983276367e-01) (104, -1.32401883602142333984e-01) (105, -4.22773301601409912109e-01) (106, -2.23842456936836242676e-01) (107, -2.63506025075912475586e-01) (108, -3.37552279233932495117e-01) (109, 5.60676813125610351562e-01) (110, 4.12910789251327514648e-01) (111, 2.59199827909469604492e-01) (112, 9.34982821345329284668e-02) (113, 5.85539877414703369141e-01) (114, -4.52169597148895263672e-01) (115, 3.13750058412551879883e-01) (116, -2.34347537159919738770e-01) (117, -5.10409772396087646484e-01) (118, 1.02162873744964599609e+00) (119, -2.76139736175537109375e-01) (120, -1.65791004896163940430e-01) (121, 4.74134892225265502930e-01) (122, 5.02173602581024169922e-02) (123, -5.03733098506927490234e-01) (124, -1.81385269165039062500e+01) (125, -1.75299739837646484375e+00) (126, 2.93821338564157485962e-02) (127, -6.09604358673095703125e-01) (128, 1.05686926841735839844e+00) (129, -3.68471443653106689453e-01) (130, -3.44956040382385253906e-01) (131, 4.95099201798439025879e-02) (132, -5.38000822067260742188e-01) (133, 4.14358973503112792969e-01) (134, 2.81631294637918472290e-02) (135, 2.61106073856353759766e-01) (136, -2.86302924156188964844e+00) (137, -4.18502151966094970703e-01) (138, -2.54797667264938354492e-01) (139, -5.20661354064941406250e-01) (140, -2.44907900691032409668e-01) (141, -4.41519916057586669922e-01) (142, -4.00531858205795288086e-01) (143, -3.58643293380737304688e-01) (144, -4.04356211423873901367e-01) (145, -3.44287604093551635742e-01) (146, -8.84484004974365234375e+00) (147, -3.78438562154769897461e-01) (148, 2.53285020589828491211e-01) (149, 5.42955040931701660156e-01) (150, -1.84840038418769836426e-01) (151, -3.50830703973770141602e-01) (152, -2.37168097496032714844e+00) (153, -3.27745914459228515625e-01) (154, 9.85599517822265625000e+00) (155, -4.16091799736022949219e-01) (156, -3.05082887411117553711e-01) (157, -3.91965866088867187500e-01) (158, 4.93001312017440795898e-01) (159, -4.19616550207138061523e-01) (160, 4.79479022324085235596e-02) (161, -4.44263368844985961914e-01) (162, -2.28398904204368591309e-01) (163, -5.01367568969726562500e-01) (164, 1.18663311004638671875e+00) (165, -2.64640960693359375000e+02) (166, -2.39218115806579589844e-01) (167, -6.15580558776855468750e-01) (168, -7.57433399558067321777e-02) (169, -2.77812361717224121094e-01) (170, 2.56934463977813720703e-01) (171, -4.39313590526580810547e-01) (172, 3.35445135831832885742e-01) (173, 2.35072448849678039551e-01) (174, 8.78143548965454101562e-01) (175, -3.00380170345306396484e-01) (176, 3.23018103837966918945e-01) (177, 4.64303165674209594727e-01) (178, 4.49702024459838867188e-01) (179, 7.76414930820465087891e-01) (180, -2.95020312070846557617e-01) (181, 3.66232573986053466797e-01) (182, -7.69833564758300781250e-01) (183, -5.99558353424072265625e-01) (184, 7.55240295410156250000e+02) (185, 2.65105456113815307617e-01) (186, 2.40807399153709411621e-01) (187, 4.20549720525741577148e-01) (188, -2.09130454063415527344e+00) (189, -3.35983693599700927734e-01) (190, -1.53155994415283203125e+00) (191, -5.65473496913909912109e-01) (192, -5.59753532409667968750e+01) (193, -6.66679501533508300781e-01) (194, 1.64847767353057861328e+00) (195, -2.33753752708435058594e+00) (196, 1.50000000000000000000e+03) (197, 1.50000000000000000000e+03) (198, 1.50000000000000000000e+03) (199, 1.50000000000000000000e+03) (200, 1.58927366137504577637e-01) (201, -2.87459105253219604492e-01) (202, 1.59065246582031250000e+00) (0, 5.23625946044921875000e+00) (1, -3.47667008638381958008e-01) (2, 7.44101047515869140625e-01) (3, -3.80631893873214721680e-01) (4, 8.18064033985137939453e-01) (5, -2.25536897778511047363e-01) (6, 1.11898350715637207031e+00) (7, -3.03950667381286621094e-01) (8, 1.56499099731445312500e+00) (9, 8.72209310531616210938e-01) (10, 2.43198299407958984375e+00) (11, 9.29804503917694091797e-01) (12, -5.86272180080413818359e-01) (13, -2.01730310916900634766e-01) (14, -1.12862873077392578125e+00) (15, -4.30309116840362548828e-01) (16, 2.44912385940551757812e-01) (17, -2.50587880611419677734e-01) (18, -1.45532205700874328613e-01) (19, -2.62539416551589965820e-01) (20, -1.44990772008895874023e-01) (21, -1.58609941601753234863e-01) (22, 1.09952652454376220703e+00) (23, 8.37571859359741210938e-01) (24, 7.91937291622161865234e-01) (25, -2.27760851383209228516e-01) (26, -2.43586468696594238281e+00) (27, -2.43798390030860900879e-01) (28, -3.36024975776672363281e+00) (29, -4.07978564500808715820e-01) (30, -3.01083177328109741211e-01) (31, -6.34274065494537353516e-01) (32, 3.79120796918869018555e-01) (33, -3.52510869503021240234e-01) (34, 3.95886039733886718750e+00) (35, -1.41083583235740661621e-01) (36, -1.67795813083648681641e+00) (37, 7.98132777214050292969e-01) (38, 1.35392417907714843750e+01) (39, -2.62412577867507934570e-01) (40, -3.88144159317016601562e+00) (41, -3.25997829437255859375e-01) (42, 3.45053577423095703125e+00) (43, -2.04767391085624694824e-01) (44, 3.81999325752258300781e+00) (45, -1.91907227039337158203e+00) (46, -2.54150573164224624634e-02) (47, -4.27600204944610595703e-01) (48, 6.40999734401702880859e-01) (49, 8.22769522666931152344e-01) (50, -1.25839769840240478516e+00) (51, -3.70234668254852294922e-01) (52, -4.21987390518188476562e+00) (53, -3.41292023658752441406e-01) (54, -2.09788036346435546875e+01) (55, -1.21632838249206542969e+00) (56, -8.62541317939758300781e-01) (57, -1.49136638641357421875e+00) (58, -6.75428009033203125000e+00) (59, -4.36318069696426391602e-01) (60, 4.96629238128662109375e+00) (61, 9.29324209690093994141e-01) (62, 2.91165018081665039062e+00) (63, 8.39824855327606201172e-01) (64, -5.85203170776367187500e+00) (65, -1.78448081016540527344e-01) (66, 1.16736869812011718750e+01) (67, 4.00684833526611328125e+00) (68, -1.26577448844909667969e+00) (69, -2.88633942604064941406e-01) (70, 1.76787469536066055298e-02) (71, 1.05068886280059814453e+00) (72, -4.03081464767456054688e+00) (73, 9.44135308265686035156e-01) (74, -2.05081939697265625000e+00) (75, -2.71350890398025512695e-01) (76, 5.04488289356231689453e-01) (77, -3.19891393184661865234e-01) (78, 1.67745602130889892578e+00) (79, -2.31639862060546875000e-01) (80, -7.13356554508209228516e-01) (81, -3.20135891437530517578e-01) (82, -1.33737730979919433594e+00) (83, -6.03651762008666992188e-01) (84, -3.85648369789123535156e+00) (85, -5.33996373414993286133e-02) (86, -6.04025793075561523438e+00) (87, -2.25510016083717346191e-01) (88, -2.65064239501953125000e+00) (89, -2.53995865583419799805e-01) (90, 8.69587779045104980469e-01) (91, -3.45967143774032592773e-01) (92, 1.00130248069763183594e+00) (93, -2.29031547904014587402e-01) (94, 1.02601079940795898438e+01) (95, -3.22468131780624389648e-01) (96, -5.77826261520385742188e+00) (97, -2.07193866372108459473e-01) (98, -3.60910272598266601562e+00) (99, -4.59589064121246337891e-01) (100, -1.09628832340240478516e+00) (101, -1.57118096947669982910e-01) (102, 1.36322438716888427734e+00) (103, -6.08539283275604248047e-02) (104, -7.84536540508270263672e-01) (105, 1.03319883346557617188e+00) (106, 9.21153366565704345703e-01) (107, 9.18630003929138183594e-01) (108, -1.21514663696289062500e+01) (109, 9.39571917057037353516e-01) (110, -3.51467758417129516602e-01) (111, -1.59736573696136474609e-01) (112, -1.57872617244720458984e+00) (113, -3.23265314102172851562e-01) (114, -4.20457214117050170898e-01) (115, -3.19985121488571166992e-01) (116, -9.56655085086822509766e-01) (117, -2.33602732419967651367e-01) (118, -2.27238917350769042969e+00) (119, 8.70773375034332275391e-01) (120, 1.68185532093048095703e+00) (121, -3.20063292980194091797e-01) (122, -1.35988712310791015625e+00) (123, 7.53371477127075195312e-01) (124, 3.73668694496154785156e+00) (125, 2.73337453603744506836e-01) (126, 1.37738430500030517578e+00) (127, 9.26847696304321289062e-01) (128, 1.51890325546264648438e+00) (129, 9.58787441253662109375e-01) (130, -8.48100483417510986328e-01) (131, 9.25633251667022705078e-01) (132, 2.73023343086242675781e+00) (133, -1.80545553565025329590e-01) (134, -3.98207330703735351562e+00) (135, -2.34771057963371276855e-01) (136, 1.31315684318542480469e+00) (137, 1.07601428031921386719e+00) (138, -3.18848538398742675781e+00) (139, -2.66729831695556640625e-01) (140, 2.43084287643432617188e+00) (141, 9.49395954608917236328e-01) (142, 6.96966290473937988281e-01) (143, -3.56683492660522460938e-01) (144, -4.13015413284301757812e+00) (145, -4.06345099210739135742e-01) (146, -2.09603500366210937500e+00) (147, -1.31945461034774780273e-01) (148, -1.13738918304443359375e+00) (149, 7.26485490798950195312e-01) (150, -5.16506195068359375000e-01) (151, 1.00663959980010986328e+00) (152, -1.97567691802978515625e+01) (153, -2.82227188348770141602e-01) (154, 1.83358154296875000000e+01) (155, -2.66847133636474609375e-01) (156, -6.45936131477355957031e-01) (157, -5.61592698097229003906e-01) (158, -1.24586582183837890625e+00) (159, -4.30169910192489624023e-01) (160, -8.07487428188323974609e-01) (161, -1.27506184577941894531e+00) (162, -1.75560903549194335938e+00) (163, 9.18673753738403320312e-01) (164, 1.57173871994018554688e+00) (165, -2.47930556535720825195e-01) (166, 3.52040708065032958984e-01) (167, 7.31836974620819091797e-01) (168, 1.28330242633819580078e+00) (169, 9.66576576232910156250e-01) (170, 2.77831625938415527344e+00) (171, 4.13424611091613769531e-01) (172, 2.37053483724594116211e-01) (173, 9.39613521099090576172e-01) (174, 1.36075389385223388672e+00) (175, 7.45643913745880126953e-01) (176, -9.20178815722465515137e-02) (177, 7.95411527156829833984e-01) (178, -5.37693858146667480469e-01) (179, -4.96867954730987548828e-01) (180, -3.76703143119812011719e-01) (181, -3.93346488475799560547e-01) (182, -2.36186289787292480469e+00) (183, -3.29033821821212768555e-01) (184, 3.83947515487670898438e+00) (185, -1.75466835498809814453e-01) (186, 8.66219711303710937500e+00) (187, 8.13807487487792968750e-01) (188, 1.03611505031585693359e+00) (189, -1.47466272115707397461e-01) (190, 4.15758466720581054688e+00) (191, 8.78006994724273681641e-01) (192, -1.32785835266113281250e+01) (193, -2.51393735408782958984e-01) (194, 4.91714596748352050781e-01) (195, -1.37275710701942443848e-01) (196, 1.50000000000000000000e+03) (197, 1.50000000000000000000e+03) (198, 1.50000000000000000000e+03) (199, 1.50000000000000000000e+03) (200, -3.05317103862762451172e-01) (201, 7.74573981761932373047e-01) (202, 1.18882274627685546875e+00) (0, -8.88864099979400634766e-02) (1, 1.19570767879486083984e+00) (2, 1.98557063937187194824e-01) (3, 1.15325224399566650391e+00) (4, 2.74129599332809448242e-01) (5, 1.30766522884368896484e+00) (6, 1.80199816823005676270e-01) (7, 1.30460834503173828125e+00) (8, 2.52438634634017944336e-01) (9, 1.66045680642127990723e-01) (10, 6.19767978787422180176e-02) (11, 1.12975740432739257812e+00) (12, 1.65650382637977600098e-01) (13, 1.29576861858367919922e+00) (14, 1.45900309085845947266e-01) (15, 1.20391952991485595703e+00) (16, 1.23273491859436035156e+00) (17, 1.23347902297973632812e+00) (18, 1.76001161336898803711e-01) (19, 1.36435174942016601562e+00) (20, 2.07847937941551208496e-01) (21, 1.21043419837951660156e+00) (22, 2.21795901656150817871e-01) (23, 1.19961893558502197266e+00) (24, -3.91684174537658691406e+00) (25, 1.42555868625640869141e+00) (26, -7.37906742095947265625e+00) (27, 1.34854447841644287109e+00) (28, 6.71673297882080078125e-01) (29, 1.20698332786560058594e+00) (30, 3.67006987333297729492e-01) (31, 1.40596985816955566406e+00) (32, 4.09902620315551757812e+00) (33, 1.35304331779479980469e+00) (34, -1.07391099929809570312e+01) (35, 1.21943938732147216797e+00) (36, -1.65613117218017578125e+01) (37, 1.23406004905700683594e+00) (38, 1.17355585098266601562e-01) (39, 1.27503752708435058594e+00) (40, 1.62913918495178222656e+00) (41, 1.24947476387023925781e+00) (42, 1.71713435649871826172e+00) (43, 1.32355439662933349609e+00) (44, 1.32540792226791381836e-01) (45, 1.05962073802947998047e+00) (46, 1.47214666008949279785e-01) (47, -3.30225062370300292969e+00) (48, 2.01767608523368835449e-01) (49, 1.33976495265960693359e+00) (50, 6.51623368263244628906e-01) (51, 1.68949723243713378906e+00) (52, 1.21411234140396118164e-01) (53, 1.37914228439331054688e+00) (54, -5.50967693328857421875e-01) (55, 1.25843536853790283203e+00) (56, 4.24289941787719726562e-01) (57, 6.12353503704071044922e-01) (58, -6.94533729553222656250e+00) (59, 5.84127545356750488281e-01) (60, -2.18758583068847656250e-01) (61, 6.47893488407135009766e-01) (62, -1.00163478851318359375e+01) (63, 9.62261021137237548828e-01) (64, 5.27978610992431640625e+00) (65, 4.52268980443477630615e-02) (66, 3.94709169864654541016e-01) (67, 2.75725096464157104492e-01) (68, 3.62671822309494018555e-01) (69, 1.15671789646148681641e+00) (70, 1.27605235576629638672e+00) (71, 1.39143788814544677734e+00) (72, 2.92069941759109497070e-01) (73, 1.20347976684570312500e+00) (74, 4.18588548898696899414e-01) (75, 1.27257573604583740234e+00) (76, -2.19384551048278808594e+00) (77, 2.14866471290588378906e+00) (78, 4.18653845787048339844e-01) (79, 1.16040825843811035156e+00) (80, 1.22307610511779785156e+00) (81, 1.29493427276611328125e+00) (82, 5.18778920173645019531e-01) (83, 1.07498228549957275391e+00) (84, 1.70647931098937988281e+00) (85, 1.17902410030364990234e+00) (86, 1.17143678665161132812e+00) (87, 5.79348653554916381836e-02) (88, -1.62871032953262329102e-01) (89, 1.18556964397430419922e+00) (90, 1.53418779373168945312e+00) (91, 1.21542990207672119141e+00) (92, 2.00908958911895751953e-01) (93, 1.28869771957397460938e+00) (94, 4.13075149059295654297e-01) (95, 1.17845880985260009766e+00) (96, -5.18482863903045654297e-01) (97, 1.21872627735137939453e+00) (98, 6.25990331172943115234e-01) (99, 3.93417954444885253906e-01) (100, 1.51902806758880615234e+00) (101, -1.71070396900177001953e+00) (102, 5.85575759410858154297e-01) (103, 1.18440055847167968750e+00) (104, -3.49601435661315917969e+00) (105, 1.08843579888343811035e-01) (106, 1.84503093361854553223e-01) (107, 1.13803768157958984375e+00) (108, 4.14699226617813110352e-01) (109, 1.35226726531982421875e+00) (110, 1.29370296001434326172e+00) (111, 1.03583908081054687500e+00) (112, 9.66631948947906494141e-01) (113, 1.27700912952423095703e+00) (114, 3.58970135450363159180e-01) (115, 1.16879570484161376953e+00) (116, 4.71778601408004760742e-01) (117, 1.19194662570953369141e+00) (118, -4.88488107919692993164e-01) (119, 1.28037190437316894531e+00) (120, 1.81782081723213195801e-01) (121, 1.19906795024871826172e+00) (122, 1.52259305119514465332e-01) (123, 1.24135720729827880859e+00) (124, -1.55131502151489257812e+01) (125, 1.21452915668487548828e+00) (126, 6.54560625553131103516e-01) (127, 1.32716023921966552734e+00) (128, 6.47862911224365234375e-01) (129, 1.18875956535339355469e+00) (130, 1.05105423927307128906e+00) (131, 9.88272845745086669922e-01) (132, 1.25129365921020507812e+00) (133, 1.15751492977142333984e+00) (134, -1.39595441818237304688e+01) (135, 1.15717291831970214844e+00) (136, -2.18687415122985839844e+00) (137, 1.23825907707214355469e+00) (138, 3.56758028268814086914e-01) (139, 1.17813205718994140625e+00) (140, 1.06832154095172882080e-01) (141, 1.00944030284881591797e+00) (142, 2.68036812543869018555e-01) (143, 1.60985544323921203613e-01) (144, 3.96901518106460571289e-01) (145, 2.43303790688514709473e-01) (146, -1.55691719055175781250e+00) (147, 1.70242324471473693848e-01) (148, 1.45048522949218750000e+00) (149, 1.30556654930114746094e+00) (150, 4.85014826059341430664e-01) (151, 1.93637445569038391113e-01) (152, -2.34055519104003906250e+01) (153, 1.46374002099037170410e-01) (154, -8.12818527221679687500e+00) (155, 1.32506763935089111328e+00) (156, 1.33836999535560607910e-01) (157, 1.10203541815280914307e-01) (158, 1.31428718566894531250e+00) (159, 1.11993670463562011719e+00) (160, 1.26834750175476074219e+00) (161, 1.29070091247558593750e+00) (162, 2.77993410825729370117e-01) (163, 1.27202010154724121094e+00) (164, 7.64116466045379638672e-01) (165, 1.14946901798248291016e+00) (166, 1.40673065185546875000e+00) (167, 1.12940537929534912109e+00) (168, 2.73252099752426147461e-01) (169, 1.29330563545227050781e+00) (170, 1.59554541110992431641e-01) (171, 1.59241303801536560059e-01) (172, 6.82943880558013916016e-01) (173, 6.29870444536209106445e-02) (174, 3.65125149488449096680e-01) (175, 8.49777162075042724609e-02) (176, 1.16067397594451904297e+00) (177, 1.70159831643104553223e-01) (178, 1.19370293617248535156e+00) (179, 1.29645764827728271484e+00) (180, 1.33841943740844726562e+00) (181, 1.14888298511505126953e+00) (182, 1.00968217849731445312e+00) (183, 1.27912878990173339844e+00) (184, 1.75513687133789062500e+01) (185, 9.12376880645751953125e-01) (186, -2.60019612312316894531e+00) (187, 1.26407158374786376953e+00) (188, 1.11556254327297210693e-01) (189, 1.96980968117713928223e-01) (190, -2.19248950481414794922e-01) (191, 4.85041216015815734863e-02) (192, -2.76065235137939453125e+01) (193, 1.17357861995697021484e+00) (194, 2.26258873939514160156e+00) (195, 1.19972574710845947266e+00) (196, 1.50000000000000000000e+03) (197, 1.50000000000000000000e+03) (198, 1.50000000000000000000e+03) (199, 1.50000000000000000000e+03) (200, 1.37920403480529785156e+00) (201, 1.37627923488616943359e+00) (202, -3.65760415792465209961e-01) (0, -3.53824859485030174255e-03) (1, 1.38854908943176269531e+00) (2, 2.40124747157096862793e-01) (3, 1.10912346839904785156e+00) (4, 1.33182430267333984375e+00) (5, 1.35954618453979492188e+00) (6, 2.62710303068161010742e-01) (7, 1.24385130405426025391e+00) (8, 8.25836732983589172363e-02) (9, 1.25997364521026611328e+00) (10, 5.92583119869232177734e-02) (11, 1.10454988479614257812e+00) (12, 2.21071079373359680176e-01) (13, 1.14557683467864990234e+00) (14, 3.79444435238838195801e-02) (15, 1.20035493373870849609e+00) (16, 1.18646216392517089844e+00) (17, 1.18543994426727294922e+00) (18, 2.17711552977561950684e-01) (19, 1.29280292987823486328e+00) (20, 1.23754166066646575928e-01) (21, 1.20175921916961669922e+00) (22, 1.41506180167198181152e-01) (23, 1.21408212184906005859e+00) (24, -1.76146850585937500000e+01) (25, 1.43729197978973388672e+00) (26, -2.02374229431152343750e+01) (27, 1.43778157234191894531e+00) (28, 2.80528157949447631836e-01) (29, 1.35716509819030761719e+00) (30, -2.67912726849317550659e-02) (31, 1.38068306446075439453e+00) (32, -7.80818998813629150391e-01) (33, 1.30591225624084472656e+00) (34, 9.20541286468505859375e+00) (35, 1.17039895057678222656e+00) (36, -1.70557956695556640625e+01) (37, 1.25236904621124267578e+00) (38, 3.57986420392990112305e-01) (39, 1.25785994529724121094e+00) (40, 1.14533972740173339844e+00) (41, 1.19909501075744628906e+00) (42, 1.49556946754455566406e+00) (43, 1.25481212139129638672e+00) (44, 8.44503864645957946777e-02) (45, 1.37694537639617919922e+00) (46, 2.35366240143775939941e-01) (47, 1.52624237537384033203e+00) (48, 3.40777933597564697266e-02) (49, 1.38116765022277832031e+00) (50, 6.98907554149627685547e-01) (51, 1.79700183868408203125e+00) (52, -1.00534939765930175781e+00) (53, 1.50696778297424316406e+00) (54, -1.64419460296630859375e+00) (55, 2.19773650169372558594e+00) (56, 3.80033910274505615234e-01) (57, 7.36095607280731201172e-01) (58, -6.52986240386962890625e+00) (59, 1.34677445888519287109e+00) (60, 4.26623165607452392578e-01) (61, 1.22753906250000000000e+00) (62, -1.42175960540771484375e+01) (63, 1.15510761737823486328e+00) (64, -9.18392276763916015625e+00) (65, -2.61683523654937744141e-01) (66, 1.11197876930236816406e+00) (67, 5.96670329570770263672e-01) (68, 2.50064998865127563477e-01) (69, 1.22523462772369384766e+00) (70, 1.23782694339752197266e+00) (71, 1.34562492370605468750e+00) (72, 3.86979907751083374023e-01) (73, 1.26056158542633056641e+00) (74, 4.44034248590469360352e-01) (75, 1.14327239990234375000e+00) (76, -4.32261419296264648438e+00) (77, 2.18217468261718750000e+00) (78, 6.65681242942810058594e-01) (79, 1.12042188644409179688e+00) (80, 1.31224143505096435547e+00) (81, 1.28987741470336914062e+00) (82, 1.58716189861297607422e+00) (83, 1.10357701778411865234e+00) (84, 1.70378243923187255859e+00) (85, 1.16161966323852539062e+00) (86, 1.38723754882812500000e+00) (87, 1.20623588562011718750e+00) (88, 7.33637690544128417969e-01) (89, 1.31600022315979003906e+00) (90, 1.61768150329589843750e+00) (91, 1.20685315132141113281e+00) (92, 1.35907149314880371094e+00) (93, 1.27064538002014160156e+00) (94, 3.56874853372573852539e-01) (95, 1.22897696495056152344e+00) (96, -2.12672734260559082031e+00) (97, 1.19101274013519287109e+00) (98, 4.43084329366683959961e-01) (99, 1.62867963314056396484e-01) (100, 1.57574808597564697266e+00) (101, -4.18572330474853515625e+00) (102, 5.12315094470977783203e-01) (103, 1.30622982978820800781e+00) (104, 1.61122471094131469727e-01) (105, 1.82324424386024475098e-01) (106, 4.91066783666610717773e-01) (107, 1.23786902427673339844e+00) (108, 4.62732881307601928711e-01) (109, 1.27081549167633056641e+00) (110, 1.26985216140747070312e+00) (111, 1.35341835021972656250e+00) (112, 1.33871495723724365234e+00) (113, 1.38337206840515136719e+00) (114, 2.46750578284263610840e-01) (115, 1.15878689289093017578e+00) (116, 4.38697904348373413086e-01) (117, 1.18953967094421386719e+00) (118, -9.40040767192840576172e-01) (119, 1.20175755023956298828e+00) (120, 2.08105549216270446777e-01) (121, 1.26148128509521484375e+00) (122, 3.96921306848526000977e-01) (123, 1.31263673305511474609e+00) (124, -1.45987596511840820312e+01) (125, 1.26892769336700439453e+00) (126, 6.78777039051055908203e-01) (127, 1.27077984809875488281e+00) (128, 6.70151472091674804688e-01) (129, 1.08742535114288330078e+00) (130, 9.40129578113555908203e-01) (131, 1.14191341400146484375e+00) (132, 1.20996570587158203125e+00) (133, 1.17298543453216552734e+00) (134, -8.87209796905517578125e+00) (135, 1.29092204570770263672e+00) (136, 4.08902376890182495117e-01) (137, 1.17484033107757568359e+00) (138, 4.20070201158523559570e-01) (139, 1.19645428657531738281e+00) (140, 1.72903195023536682129e-01) (141, 1.06183254718780517578e+00) (142, 1.13255321979522705078e+00) (143, 1.39857637882232666016e+00) (144, 4.58591908216476440430e-01) (145, 9.48443189263343811035e-02) (146, 5.59290111064910888672e-01) (147, 1.01171419024467468262e-01) (148, 1.57130873203277587891e+00) (149, 1.16784429550170898438e+00) (150, 4.90653544664382934570e-01) (151, 1.30525782704353332520e-01) (152, -2.95994205474853515625e+01) (153, 1.12586116790771484375e+00) (154, -1.14464416503906250000e+01) (155, 1.15644800662994384766e+00) (156, 1.23931336402893066406e+00) (157, 1.22175544500350952148e-01) (158, 1.25339818000793457031e+00) (159, 1.24630749225616455078e+00) (160, 1.27713954448699951172e+00) (161, 1.14882290363311767578e+00) (162, 1.28342378139495849609e+00) (163, 1.29503154754638671875e+00) (164, 7.35255360603332519531e-01) (165, 1.27858984470367431641e+00) (166, 1.23394691944122314453e+00) (167, 1.29423022270202636719e+00) (168, 1.97296753525733947754e-01) (169, 1.18542993068695068359e+00) (170, 1.36164200305938720703e+00) (171, 1.09363071620464324951e-01) (172, 1.79474842548370361328e+00) (173, 1.18662428855895996094e+00) (174, 3.94395858049392700195e-01) (175, 1.26026704907417297363e-01) (176, 1.32701396942138671875e+00) (177, 8.40627327561378479004e-02) (178, 1.22937858104705810547e+00) (179, 1.13153862953186035156e+00) (180, 1.40008938312530517578e+00) (181, 1.29446864128112792969e+00) (182, 1.40177750587463378906e+00) (183, 1.23747575283050537109e+00) (184, 1.71531009674072265625e+01) (185, 1.06010413169860839844e+00) (186, 8.31141889095306396484e-01) (187, 1.32628536224365234375e+00) (188, 1.46065577864646911621e-01) (189, 1.20566034317016601562e+00) (190, 1.09270475804805755615e-01) (191, 1.66802003979682922363e-01) (192, -8.92242622375488281250e+00) (193, 1.18868887424468994141e+00) (194, 3.85515093803405761719e+00) (195, 1.15852999687194824219e+00) (196, 1.50000000000000000000e+03) (197, 1.50000000000000000000e+03) (198, 1.50000000000000000000e+03) (199, 1.50000000000000000000e+03) (200, 1.36584734916687011719e+00) (201, 1.30101156234741210938e+00) (202, -2.33945697546005249023e-01) (0, 6.01655244827270507812e-01) (1, 1.28337562084197998047e+00) (2, 2.18367859721183776855e-01) (3, 1.83657869696617126465e-01) (4, 1.22309577465057373047e+00) (5, 1.35714554786682128906e+00) (6, 7.45010823011398315430e-02) (7, 1.17870306968688964844e+00) (8, 1.68673053383827209473e-01) (9, 1.27632331848144531250e+00) (10, 5.70659860968589782715e-02) (11, 1.19951403141021728516e+00) (12, 1.10407108440995216370e-02) (13, 1.21403217315673828125e+00) (14, -2.15271152555942535400e-02) (15, 1.24010585248470306396e-01) (16, 1.22469758987426757812e+00) (17, 1.32537770271301269531e+00) (18, 1.17708325386047363281e+00) (19, 1.39176177978515625000e+00) (20, 1.13438777625560760498e-01) (21, 1.21495974063873291016e+00) (22, 1.96951225399971008301e-01) (23, 1.26087117195129394531e+00) (24, 4.27547842264175415039e-01) (25, 1.42821407318115234375e+00) (26, -4.20910072326660156250e+01) (27, 1.36269235610961914062e+00) (28, 9.50682401657104492188e-01) (29, 1.37356913089752197266e+00) (30, -5.09345114231109619141e-01) (31, 1.41740107536315917969e+00) (32, 1.16686868667602539062e+00) (33, 1.20766389369964599609e+00) (34, 3.78655548095703125000e+01) (35, 1.22109997272491455078e+00) (36, -4.10643882751464843750e+01) (37, 1.28192710876464843750e+00) (38, 4.47613686323165893555e-01) (39, 1.33823716640472412109e+00) (40, 3.83955049514770507812e+00) (41, 1.36668574810028076172e+00) (42, 1.55963480472564697266e+00) (43, 1.23585712909698486328e+00) (44, -9.73649993538856506348e-02) (45, -2.50734424591064453125e+00) (46, 5.90064227581024169922e-02) (47, -5.57400894165039062500e+00) (48, 1.83029934763908386230e-01) (49, 1.42056000232696533203e+00) (50, 4.40943509340286254883e-01) (51, 1.56103634834289550781e+00) (52, -2.32168889045715332031e+00) (53, 1.47725844383239746094e+00) (54, -3.63394856452941894531e+00) (55, 1.62468504905700683594e+00) (56, -1.23432233929634094238e-01) (57, 7.14010298252105712891e-01) (58, -2.27487921714782714844e+00) (59, 1.35530555248260498047e+00) (60, -5.88941431045532226562e+00) (61, 1.27826631069183349609e+00) (62, -3.64204335212707519531e+00) (63, 1.19090580940246582031e+00) (64, -3.49859428405761718750e+00) (65, 1.27485990524291992188e+00) (66, 7.17059135437011718750e-01) (67, 1.03311836719512939453e+00) (68, 2.64580398797988891602e-01) (69, 1.20170021057128906250e+00) (70, 1.18308639526367187500e+00) (71, 1.38542592525482177734e+00) (72, 3.65965604782104492188e-01) (73, 1.18181228637695312500e+00) (74, 4.76389884948730468750e-01) (75, 1.25200068950653076172e+00) (76, -5.08630943298339843750e+00) (77, 1.68255865573883056641e+00) (78, 3.44061344861984252930e-01) (79, 1.20270061492919921875e+00) (80, 1.15628278255462646484e+00) (81, 1.31315052509307861328e+00) (82, 1.59806513786315917969e+00) (83, 1.17155170440673828125e+00) (84, 9.85876023769378662109e-01) (85, 1.29414749145507812500e+00) (86, 2.45591330528259277344e+00) (87, 1.16738033294677734375e+00) (88, 1.15077793598175048828e+00) (89, 1.22229170799255371094e+00) (90, 1.24695909023284912109e+00) (91, 1.26871824264526367188e+00) (92, 1.18364298343658447266e+00) (93, 1.10760211944580078125e+00) (94, 3.72578442096710205078e-01) (95, 1.21139204502105712891e+00) (96, 2.59772866964340209961e-01) (97, 1.16476190090179443359e+00) (98, 1.56933569908142089844e+00) (99, 1.16707634925842285156e+00) (100, 1.46446764469146728516e+00) (101, -3.39468216896057128906e+00) (102, 3.93086820840835571289e-01) (103, 1.32955622673034667969e+00) (104, -2.64021661132574081421e-02) (105, 1.18228125572204589844e+00) (106, 1.28760024905204772949e-01) (107, 1.14966428279876708984e+00) (108, -9.37007293105125427246e-02) (109, 1.36157643795013427734e+00) (110, 1.31652796268463134766e+00) (111, 1.31996798515319824219e+00) (112, 1.04856228828430175781e+00) (113, 1.37276411056518554688e+00) (114, -1.00943839550018310547e+00) (115, 1.31888782978057861328e+00) (116, 4.55824226140975952148e-01) (117, 1.23627591133117675781e+00) (118, -1.95976448059082031250e+00) (119, 1.14076101779937744141e+00) (120, 1.49222716689109802246e-01) (121, 1.31202697753906250000e+00) (122, 8.14644154161214828491e-04) (123, 1.34336352348327636719e+00) (124, -7.82361888885498046875e+00) (125, 1.26974332332611083984e+00) (126, 6.29122972488403320312e-01) (127, 1.25291502475738525391e+00) (128, 5.18359541893005371094e-01) (129, 1.17758071422576904297e+00) (130, 8.14039051532745361328e-01) (131, 1.17411506175994873047e+00) (132, 1.21646916866302490234e+00) (133, 1.14629936218261718750e+00) (134, -1.11515474319458007812e+01) (135, 1.23107266426086425781e+00) (136, 3.10124993324279785156e-01) (137, 1.25401806831359863281e+00) (138, 1.48233008384704589844e+00) (139, 1.13898444175720214844e+00) (140, -3.90929691493511199951e-02) (141, 4.14108783006668090820e-02) (142, 9.00886505842208862305e-02) (143, 1.99129000306129455566e-01) (144, 1.40740120410919189453e+00) (145, 1.03491492569446563721e-01) (146, 7.13410794734954833984e-01) (147, 1.17009624838829040527e-01) (148, 1.44839990139007568359e+00) (149, 1.14586293697357177734e+00) (150, 1.22212219238281250000e+00) (151, 1.08071036636829376221e-01) (152, -2.39439487457275390625e+01) (153, 1.26174604892730712891e+00) (154, 3.29264307022094726562e+00) (155, 1.22270762920379638672e+00) (156, 1.26723659038543701172e+00) (157, 7.54256919026374816895e-02) (158, 1.20411515235900878906e+00) (159, 1.10916149616241455078e+00) (160, 1.20463430881500244141e+00) (161, 6.03611022233963012695e-02) (162, 1.03242494165897369385e-01) (163, 1.17245078086853027344e+00) (164, 7.43644535541534423828e-01) (165, 1.38681018352508544922e+00) (166, 1.20764052867889404297e+00) (167, 1.24898660182952880859e+00) (168, 1.35400831699371337891e+00) (169, 1.25541365146636962891e+00) (170, 1.32641243934631347656e+00) (171, 9.67285931110382080078e-02) (172, 1.04972565174102783203e+00) (173, 1.23119771480560302734e+00) (174, 5.33323109149932861328e-01) (175, 1.92856237292289733887e-01) (176, 1.26776957511901855469e+00) (177, 1.13372778892517089844e+00) (178, 1.29800069332122802734e+00) (179, 1.25027227401733398438e+00) (180, 1.24302506446838378906e+00) (181, 1.22677648067474365234e+00) (182, 1.16471815109252929688e+00) (183, 1.31071829795837402344e+00) (184, 1.52808752059936523438e+01) (185, -2.41635584831237792969e+00) (186, 3.26562094688415527344e+00) (187, 1.20600807666778564453e+00) (188, 5.52309527993202209473e-02) (189, 1.19324374198913574219e+00) (190, 9.49455797672271728516e-01) (191, 2.06140592694282531738e-01) (192, -1.95627689361572265625e+00) (193, 1.29438591003417968750e+00) (194, 1.49845755100250244141e+00) (195, 1.21558332443237304688e+00) (196, 1.50000000000000000000e+03) (197, 1.50000000000000000000e+03) (198, 1.50000000000000000000e+03) (199, 1.50000000000000000000e+03) (200, 1.31262099742889404297e+00) (201, 1.28790652751922607422e+00) (202, -2.03608855605125427246e-01) (0, -1.97103664278984069824e-01) (1, 1.25983488559722900391e+00) (2, 1.03998698294162750244e-01) (3, 1.17669188976287841797e+00) (4, 1.22927808761596679688e+00) (5, 1.33745872974395751953e+00) (6, 1.53042748570442199707e-01) (7, 1.25841701030731201172e+00) (8, 1.97258129715919494629e-01) (9, 1.21687650680541992188e+00) (10, 9.35037657618522644043e-02) (11, 1.15018022060394287109e+00) (12, 2.07900479435920715332e-01) (13, 1.27368426322937011719e+00) (14, 8.85660946369171142578e-02) (15, 1.34715104103088378906e+00) (16, 1.32952499389648437500e+00) (17, 1.24483644962310791016e+00) (18, 1.57893583178520202637e-01) (19, 1.29413831233978271484e+00) (20, 1.42768487334251403809e-01) (21, 1.27348160743713378906e+00) (22, 2.53561645746231079102e-01) (23, 1.17271089553833007812e+00) (24, -1.62772541046142578125e+01) (25, 1.25403559207916259766e+00) (26, -1.92123031616210937500e+01) (27, 1.41011381149291992188e+00) (28, 4.52942222356796264648e-01) (29, 1.20725297927856445312e+00) (30, 2.40856572985649108887e-01) (31, 1.33835589885711669922e+00) (32, 9.37102985382080078125e+00) (33, 1.36032271385192871094e+00) (34, -1.03641891479492187500e+01) (35, 1.36436593532562255859e+00) (36, -1.22318086624145507812e+01) (37, 1.20068979263305664062e+00) (38, 2.75165468454360961914e-01) (39, 1.22547006607055664062e+00) (40, 1.80318117141723632812e+00) (41, 1.36515104770660400391e+00) (42, 1.55070817470550537109e+00) (43, 1.27252650260925292969e+00) (44, 2.79347509145736694336e-01) (45, 1.20567119121551513672e+00) (46, 1.96740105748176574707e-01) (47, -7.53041058778762817383e-02) (48, 1.09668314456939697266e-01) (49, 1.43543601036071777344e+00) (50, 5.37235915660858154297e-01) (51, 1.75138020515441894531e+00) (52, -3.88736188411712646484e-01) (53, 1.42669379711151123047e+00) (54, -9.04971837997436523438e-01) (55, 1.56577932834625244141e+00) (56, 3.13048809766769409180e-01) (57, 6.12447559833526611328e-01) (58, -4.22799301147460937500e+00) (59, 1.39387106895446777344e+00) (60, -9.33442115783691406250e-01) (61, 1.26893138885498046875e+00) (62, -7.35349845886230468750e+00) (63, 1.07280993461608886719e+00) (64, -1.00268135070800781250e+01) (65, -3.85060429573059082031e-01) (66, 4.66543793678283691406e-01) (67, 8.23411107063293457031e-01) (68, 3.34378093481063842773e-01) (69, 1.17447292804718017578e+00) (70, 1.26346445083618164062e+00) (71, 1.37426674365997314453e+00) (72, 3.15785139799118041992e-01) (73, 1.24280416965484619141e+00) (74, 5.16917169094085693359e-01) (75, 1.21365094184875488281e+00) (76, -5.49856472015380859375e+00) (77, 2.15896105766296386719e+00) (78, 6.24607682228088378906e-01) (79, 1.29724705219268798828e+00) (80, 1.27808535099029541016e+00) (81, 1.19620609283447265625e+00) (82, 1.45223367214202880859e+00) (83, 1.05407369136810302734e+00) (84, 1.59744346141815185547e+00) (85, 1.19131267070770263672e+00) (86, 1.69693171977996826172e+00) (87, 1.16258227825164794922e+00) (88, 1.32849133014678955078e+00) (89, 1.27910661697387695312e+00) (90, 1.79333436489105224609e+00) (91, 1.25763249397277832031e+00) (92, 1.31464159488677978516e+00) (93, 1.28895235061645507812e+00) (94, 2.34696075320243835449e-01) (95, 1.14038550853729248047e+00) (96, -1.68810248374938964844e+00) (97, 1.20485210418701171875e+00) (98, 1.60348916053771972656e+00) (99, 3.20134550333023071289e-01) (100, 1.48708057403564453125e+00) (101, -1.05150949954986572266e+00) (102, 4.05308932065963745117e-01) (103, 1.32139158248901367188e+00) (104, 2.72970527410507202148e-01) (105, 6.60156011581420898438e-02) (106, 1.32394686341285705566e-01) (107, 1.15254783630371093750e+00) (108, 4.59012597799301147461e-01) (109, 1.34416735172271728516e+00) (110, 1.27111113071441650391e+00) (111, 1.22604691982269287109e+00) (112, 1.16908288002014160156e+00) (113, 1.40779125690460205078e+00) (114, 2.51926064491271972656e-01) (115, 1.23769807815551757812e+00) (116, 4.69597727060317993164e-01) (117, 1.28444838523864746094e+00) (118, 4.34021741151809692383e-01) (119, 1.21213197708129882812e+00) (120, 4.85525205731391906738e-02) (121, 1.25564026832580566406e+00) (122, 1.23282693326473236084e-01) (123, 1.33557617664337158203e+00) (124, -5.97583580017089843750e+00) (125, 1.19355762004852294922e+00) (126, 5.18790900707244873047e-01) (127, 1.30267691612243652344e+00) (128, 1.68734967708587646484e+00) (129, 1.17156922817230224609e+00) (130, 8.65597307682037353516e-01) (131, 1.01123309135437011719e+00) (132, 1.24106860160827636719e+00) (133, 1.09522652626037597656e+00) (134, -1.22993078231811523438e+01) (135, 1.32188308238983154297e+00) (136, 4.36320334672927856445e-01) (137, 1.21422433853149414062e+00) (138, 1.54627025127410888672e+00) (139, 1.19764959812164306641e+00) (140, 1.46422788500785827637e-01) (141, 1.05687654018402099609e+00) (142, 2.41438373923301696777e-01) (143, 2.88888663053512573242e-01) (144, 3.75871568918228149414e-01) (145, 1.03090807795524597168e-01) (146, -4.08456420898437500000e+00) (147, 1.38889238238334655762e-01) (148, 1.63796401023864746094e+00) (149, 1.15411877632141113281e+00) (150, 6.25899136066436767578e-01) (151, 1.29426911473274230957e-01) (152, -3.97466926574707031250e+01) (153, 1.19617235660552978516e+00) (154, -5.64577054977416992188e+00) (155, 1.27648031711578369141e+00) (156, 1.16002118587493896484e+00) (157, 2.06636264920234680176e-01) (158, 1.18293333053588867188e+00) (159, 1.16348862648010253906e+00) (160, 1.24252414703369140625e+00) (161, 6.28343746066093444824e-02) (162, 1.36495903134346008301e-01) (163, 1.31253957748413085938e+00) (164, 5.65282344818115234375e-01) (165, 1.24756479263305664062e+00) (166, 2.62747853994369506836e-01) (167, 1.27172899246215820312e+00) (168, 3.47694724798202514648e-01) (169, 1.26239311695098876953e+00) (170, 1.33052182197570800781e+00) (171, 2.47849121689796447754e-01) (172, 1.66712951660156250000e+00) (173, 1.12711930274963378906e+00) (174, 3.65801006555557250977e-01) (175, 1.94779410958290100098e-01) (176, 1.31898236274719238281e+00) (177, 1.21782195568084716797e+00) (178, 1.24477922916412353516e+00) (179, 1.22765660285949707031e+00) (180, 1.30577766895294189453e+00) (181, 1.23118603229522705078e+00) (182, 1.54806625843048095703e+00) (183, 1.30512440204620361328e+00) (184, 3.75363588333129882812e+00) (185, 9.56481814384460449219e-01) (186, 1.31389462947845458984e+00) (187, 1.15972149372100830078e+00) (188, 7.43450745940208435059e-02) (189, 1.20557188987731933594e+00) (190, -9.76519484538584947586e-04) (191, 1.85903683304786682129e-01) (192, -5.25495338439941406250e+00) (193, 1.29552328586578369141e+00) (194, 3.17468333244323730469e+00) (195, 1.22925209999084472656e+00) (196, 1.50000000000000000000e+03) (197, 1.50000000000000000000e+03) (198, 1.50000000000000000000e+03) (199, 1.50000000000000000000e+03) (200, 1.38678550720214843750e+00) (201, 1.31527304649353027344e+00) (202, -2.38363742828369140625e-01) (0, 1.92154920101165771484e+00) (1, 7.26790189743041992188e-01) (2, -8.14077973365783691406e-01) (3, -1.84438139200210571289e-01) (4, -7.12074935436248779297e-02) (5, 7.63979852199554443359e-01) (6, 8.43932852149009704590e-02) (7, 7.87793219089508056641e-01) (8, -1.65405064821243286133e-01) (9, 7.14033365249633789062e-01) (10, -3.57661604881286621094e-01) (11, 6.51851773262023925781e-01) (12, -2.12834835052490234375e+00) (13, -4.21359062194824218750e-01) (14, -3.01473045349121093750e+00) (15, -3.92982989549636840820e-01) (16, -4.60232734680175781250e-01) (17, -5.30311048030853271484e-01) (18, -2.84073859453201293945e-01) (19, -1.00393271446228027344e+00) (20, -9.25914168357849121094e-01) (21, -4.33141797780990600586e-01) (22, -3.82977753877639770508e-01) (23, -5.53947687149047851562e-01) (24, -2.76327109336853027344e+00) (25, -3.18471342325210571289e-01) (26, -2.14534378051757812500e+00) (27, -5.12247800827026367188e-01) (28, -2.05461814999580383301e-01) (29, -2.77639365196228027344e+00) (30, 8.37648212909698486328e-01) (31, 7.33833670616149902344e-01) (32, 1.72111663818359375000e+01) (33, -3.38230103254318237305e-01) (34, 5.40157437324523925781e-01) (35, -4.50898587703704833984e-01) (36, -4.88897037506103515625e+00) (37, -2.12209320068359375000e+00) (38, -9.90694642066955566406e-01) (39, -2.76292800903320312500e-01) (40, 2.86490130424499511719e+00) (41, 6.52097523212432861328e-01) (42, -2.56556957960128784180e-01) (43, 7.81435787677764892578e-01) (44, -4.43580687046051025391e-01) (45, -7.43788063526153564453e-01) (46, -8.41323077678680419922e-01) (47, -6.83794498443603515625e-01) (48, -1.10051643848419189453e+00) (49, -1.87260937690734863281e+00) (50, -2.36666668206453323364e-02) (51, -3.07321608066558837891e-01) (52, -5.68172931671142578125e+00) (53, -5.14162123203277587891e-01) (54, -7.87797546386718750000e+00) (55, 6.52279973030090332031e-01) (56, -3.83775115013122558594e-01) (57, -1.18031883239746093750e+00) (58, -4.97110366821289062500e-01) (59, -7.67285299301147460938e+00) (60, -1.45688867568969726562e+00) (61, -2.31387749314308166504e-01) (62, -2.53190493583679199219e+00) (63, 4.48821693658828735352e-01) (64, 9.48928594589233398438e-01) (65, 3.82435828447341918945e-01) (66, -1.82792222499847412109e+00) (67, -9.64721143245697021484e-01) (68, -4.45341730117797851562e+00) (69, -5.40237367153167724609e-01) (70, -1.14127516746520996094e+00) (71, 7.08425879478454589844e-01) (72, -4.14841651916503906250e+00) (73, 8.07083606719970703125e-01) (74, 7.14834928512573242188e-01) (75, 6.69948756694793701172e-01) (76, -3.21219384670257568359e-01) (77, 8.93847942352294921875e-01) (78, 1.04026961326599121094e+00) (79, 5.95602452754974365234e-01) (80, -4.36365902423858642578e-01) (81, -4.34417247772216796875e+00) (82, -6.45813524723052978516e-01) (83, -7.97773313522338867188e+00) (84, -6.35951399803161621094e-01) (85, -3.84393483400344848633e-01) (86, -6.03342580795288085938e+00) (87, -2.96858644485473632812e+00) (88, -2.05388873815536499023e-01) (89, 6.25971317291259765625e-01) (90, -4.97993677854537963867e-01) (91, -1.14986836910247802734e+00) (92, -5.29475927352905273438e-01) (93, 6.59944474697113037109e-01) (94, -3.17779207229614257812e+00) (95, 8.19513976573944091797e-01) (96, 2.61835551261901855469e+00) (97, -4.71471309661865234375e-01) (98, 8.19860935211181640625e-01) (99, 4.17321234941482543945e-01) (100, 6.01977467536926269531e-01) (101, -1.62424951791763305664e-01) (102, -2.06133484840393066406e-01) (103, -1.08300417661666870117e-01) (104, -1.39252626895904541016e+00) (105, -4.24647778272628784180e-01) (106, -6.17680728435516357422e-01) (107, 7.44794309139251708984e-01) (108, -2.20477962493896484375e+00) (109, -1.35554289817810058594e+00) (110, -3.95711600780487060547e-01) (111, 5.16205012798309326172e-01) (112, 1.28900563716888427734e+00) (113, -1.24017834663391113281e-01) (114, -3.56051236391067504883e-01) (115, -1.62249982357025146484e+00) (116, 3.82148334756493568420e-03) (117, -3.22898566722869873047e-01) (118, 2.15478539466857910156e+00) (119, -2.48956298828125000000e+00) (120, -2.49861434102058410645e-01) (121, 7.41199612617492675781e-01) (122, -4.78587090969085693359e-01) (123, 6.63343429565429687500e-01) (124, -2.64595069885253906250e+01) (125, -7.22699522972106933594e-01) (126, -4.72012981772422790527e-02) (127, -3.61617058515548706055e-02) (128, 2.72631978988647460938e+00) (129, -6.81996536254882812500e+00) (130, -4.08881716430187225342e-02) (131, 3.37236793711781501770e-03) (132, -4.54866319894790649414e-01) (133, 1.80273085832595825195e-01) (134, 2.56724691390991210938e+00) (135, -5.06449282169342041016e-01) (136, -8.58089804649353027344e-01) (137, -1.51089107990264892578e+00) (138, -1.13590598106384277344e-01) (139, 4.92283582687377929688e-01) (140, -4.59329986572265625000e+00) (141, -2.31040740013122558594e+00) (142, -3.27691048383712768555e-01) (143, -2.86857390403747558594e+00) (144, 1.36703419685363769531e+00) (145, -4.69630748033523559570e-01) (146, -7.10518062114715576172e-01) (147, -5.21920740604400634766e-01) (148, -1.32739573717117309570e-01) (149, 6.99619293212890625000e-01) (150, -1.26981127262115478516e+00) (151, -1.38248920440673828125e+00) (152, -1.23613011837005615234e+00) (153, 7.99356758594512939453e-01) (154, 1.76166212558746337891e+00) (155, 7.74235069751739501953e-01) (156, -2.45160445570945739746e-01) (157, 2.98782765865325927734e-01) (158, -4.64816778898239135742e-01) (159, 5.69384813308715820312e-01) (160, 1.28361487388610839844e+00) (161, -8.89507532119750976562e-01) (162, -4.59411382675170898438e-01) (163, -2.03607273101806640625e+00) (164, 5.60969591140747070312e+00) (165, -1.50941073894500732422e+00) (166, -5.43350362777709960938e+00) (167, -9.68521499633789062500e+00) (168, 5.35581588745117187500e-01) (169, -3.98579418659210205078e-01) (170, -3.97241443395614624023e-01) (171, -1.42094290256500244141e+00) (172, -2.82831758260726928711e-01) (173, -2.87020534276962280273e-01) (174, 2.47031593322753906250e+00) (175, -2.81324774026870727539e-01) (176, -4.32858824729919433594e-01) (177, -4.44310754537582397461e-01) (178, -8.69818925857543945312e-01) (179, -3.83427321910858154297e-01) (180, -3.15788954496383666992e-01) (181, -4.80233937501907348633e-01) (182, 1.42511475086212158203e+00) (183, -4.56864774227142333984e-01) (184, 1.12881679534912109375e+01) (185, -2.75804257392883300781e+00) (186, -2.21142244338989257812e+00) (187, -3.99836689233779907227e-01) (188, -7.45604217052459716797e-01) (189, -3.65390151739120483398e-01) (190, -3.11307382583618164062e+00) (191, -3.64595562219619750977e-01) (192, 2.80735421180725097656e+00) (193, -7.11101531982421875000e-01) (194, 7.10887432098388671875e+00) (195, -6.10384106636047363281e-01) (196, 1.50000000000000000000e+03) (197, 1.50000000000000000000e+03) (198, 1.50000000000000000000e+03) (199, 1.50000000000000000000e+03) (200, -5.85553467273712158203e-01) (201, -2.76433736085891723633e-01) (202, 1.52104473114013671875e+00) (0, 4.05225706100463867188e+00) (1, 2.48988732695579528809e-01) (2, 4.01548296213150024414e-01) (3, 1.55526721477508544922e+00) (4, 4.56500113010406494141e-01) (5, 1.38994967937469482422e+00) (6, 1.40224850177764892578e+00) (7, 1.32711422443389892578e+00) (8, 2.18435311317443847656e+00) (9, 1.49318313598632812500e+00) (10, 1.44808006286621093750e+00) (11, 6.20941758155822753906e-01) (12, 1.36188876628875732422e+00) (13, 3.67697834968566894531e-01) (14, 1.75823187828063964844e+00) (15, 3.48953604698181152344e-01) (16, 2.93378114700317382812e-01) (17, 2.47446417808532714844e-01) (18, 1.36434805393218994141e+00) (19, 3.39908242225646972656e-01) (20, 1.58056747913360595703e+00) (21, 1.41946148872375488281e+00) (22, 1.26353645324707031250e+00) (23, 1.59618782997131347656e+00) (24, 1.26292600631713867188e+01) (25, 5.06406307220458984375e-01) (26, 3.75394325256347656250e+01) (27, 2.03000373840332031250e+01) (28, 2.31855130195617675781e+00) (29, 2.26850837469100952148e-01) (30, 3.14379072189331054688e+00) (31, 1.62814766168594360352e-01) (32, -1.19649848937988281250e+01) (33, 1.24752271175384521484e+00) (34, 7.18212890625000000000e+00) (35, 1.28508603572845458984e+00) (36, -2.24100232124328613281e+00) (37, 3.46083450317382812500e+00) (38, 1.84078502655029296875e+01) (39, 4.81385827064514160156e-01) (40, 1.48111820220947265625e+01) (41, 2.75865256786346435547e-01) (42, 1.37757062911987304688e+00) (43, 4.53921020030975341797e-01) (44, 2.27651894092559814453e-01) (45, -7.82622620463371276855e-02) (46, 1.38458371162414550781e+00) (47, 4.50899887084960937500e+00) (48, 1.38096868991851806641e+00) (49, 5.11994600296020507812e-01) (50, 1.79729592800140380859e+00) (51, 1.60330235958099365234e-01) (52, -4.20839160680770874023e-01) (53, 1.22047281265258789062e+00) (54, 2.94149208068847656250e+01) (55, 9.96920108795166015625e-01) (56, 3.14207291603088378906e+00) (57, 1.13303124904632568359e+00) (58, 8.41412162780761718750e+00) (59, 1.27231585979461669922e+00) (60, -8.75562191009521484375e+00) (61, 2.39393305778503417969e+00) (62, -3.77028059959411621094e+00) (63, 1.44437646865844726562e+00) (64, 2.02798986434936523438e+00) (65, 4.29826784133911132812e+00) (66, 1.02348375320434570312e+01) (67, 4.01930183172225952148e-01) (68, 3.86685013771057128906e-01) (69, 4.25462663173675537109e-01) (70, 6.26397466659545898438e+00) (71, -1.47829103469848632812e+00) (72, 1.27198743820190429688e+00) (73, 1.29166007041931152344e-01) (74, 2.25387501716613769531e+00) (75, 3.13056588172912597656e-01) (76, 5.92730641365051269531e-01) (77, -7.55740225315093994141e-01) (78, 1.03903617858886718750e+01) (79, 3.78043532371520996094e-01) (80, 1.06895470619201660156e+00) (81, 2.00707840919494628906e+00) (82, 1.24241173267364501953e+00) (83, 1.52485728263854980469e+00) (84, 8.98274838924407958984e-01) (85, 1.34388315677642822266e+00) (86, 4.91010618209838867188e+00) (87, 1.83075809478759765625e+00) (88, 5.79036414623260498047e-01) (89, 2.69827455282211303711e-01) (90, 2.77026748657226562500e+00) (91, 1.49761450290679931641e+00) (92, 1.33803546428680419922e+00) (93, 1.58464288711547851562e+00) (94, 2.99253487586975097656e+00) (95, 5.27944612503051757812e+00) (96, -5.78237009048461914062e+00) (97, 1.36193883419036865234e+00) (98, -6.36403036117553710938e+00) (99, 8.31123292446136474609e-01) (100, 2.30633821338415145874e-02) (101, 7.56022787094116210938e+00) (102, 2.09034889936447143555e-01) (103, 3.85389864444732666016e-01) (104, 6.39671683311462402344e-01) (105, 3.41450989246368408203e-01) (106, 1.24232149124145507812e+00) (107, 2.59788095951080322266e-01) (108, 3.91101598739624023438e+00) (109, 1.18902099132537841797e+00) (110, 3.49887907505035400391e-01) (111, 1.22854208946228027344e+00) (112, 1.43094789981842041016e+00) (113, 3.15776705741882324219e-01) (114, 2.02202153205871582031e+00) (115, 9.32482063770294189453e-01) (116, 9.40457046031951904297e-01) (117, 3.36004137992858886719e-01) (118, -1.03701648712158203125e+01) (119, 3.64703893661499023438e-01) (120, 1.24907577037811279297e+00) (121, 2.85514622926712036133e-01) (122, 1.54899358749389648438e+00) (123, 2.26233676075935363770e-01) (124, 9.13071060180664062500e+00) (125, 1.36123394966125488281e+00) (126, 3.71219180524349212646e-02) (127, 2.15416312217712402344e-01) (128, -1.90686340332031250000e+01) (129, 1.43444669246673583984e+00) (130, 4.29297780990600585938e+00) (131, 3.78933835029602050781e+00) (132, 2.42068111896514892578e-01) (133, 1.50807321071624755859e+00) (134, -6.31096172332763671875e+00) (135, 1.41637921333312988281e+00) (136, 8.63112640380859375000e+00) (137, 1.40157878398895263672e+00) (138, 2.75373840332031250000e+01) (139, 3.80750656127929687500e-01) (140, 1.13992512226104736328e+00) (141, 7.10534334182739257812e+00) (142, 1.54108285903930664062e+00) (143, 1.36807107925415039062e+00) (144, 4.29485750198364257812e+00) (145, 2.42325693368911743164e-01) (146, 3.82144761085510253906e+00) (147, 1.37700867652893066406e+00) (148, 2.19466313719749450684e-01) (149, 1.35422873497009277344e+00) (150, 7.87680339813232421875e+00) (151, 1.62357938289642333984e+00) (152, 2.87980198860168457031e+00) (153, 2.27687060832977294922e-01) (154, 5.26300764083862304688e+00) (155, 4.26620900630950927734e-01) (156, 3.25379896163940429688e+00) (157, 7.48703050613403320312e+00) (158, 9.20388460159301757812e-01) (159, 4.27317202091217041016e-01) (160, 1.46239590644836425781e+00) (161, 2.18722271919250488281e+00) (162, 6.33725500106811523438e+00) (163, 1.33496236801147460938e+00) (164, -1.74281845092773437500e+01) (165, 6.99572515487670898438e+00) (166, -1.31660974025726318359e+00) (167, 3.41470986604690551758e-01) (168, 8.09867382049560546875e-01) (169, 3.23164820671081542969e-01) (170, 3.80920588970184326172e-01) (171, 1.37271928787231445312e+00) (172, 7.53639078140258789062e+00) (173, 1.47173476219177246094e+00) (174, 7.00602054595947265625e+00) (175, 1.40703117847442626953e+00) (176, 3.85703086853027343750e-01) (177, 1.44005405902862548828e+00) (178, 1.30080676078796386719e+00) (179, 1.35336065292358398438e+00) (180, 9.82099547982215881348e-02) (181, 1.21995067596435546875e+00) (182, -3.19599032402038574219e+00) (183, 1.50195881724357604980e-01) (184, -1.55049962997436523438e+01) (185, 2.01004290580749511719e+00) (186, -1.14165556430816650391e+00) (187, 2.37640261650085449219e-01) (188, 3.87401161193847656250e+01) (189, 4.31550800800323486328e-01) (190, 3.64256715774536132812e+00) (191, 1.40248966217041015625e+00) (192, 2.51535415649414062500e+02) (193, 1.33555507659912109375e+00) (194, -9.71557140350341796875e+00) (195, 5.35186350345611572266e-01) (196, 1.50000000000000000000e+03) (197, 1.50000000000000000000e+03) (198, 1.50000000000000000000e+03) (199, 1.50000000000000000000e+03) (200, 8.43603163957595825195e-02) (201, 1.11564576625823974609e+00) (202, -2.99743562936782836914e-01) (0, 5.55022430419921875000e+00) (1, 1.96232175827026367188e+00) (2, 2.24119737744331359863e-01) (3, 1.31750750541687011719e+00) (4, 2.20341339707374572754e-01) (5, 1.38577556610107421875e+00) (6, 1.04136109352111816406e-01) (7, 1.29280209541320800781e+00) (8, 2.06046536564826965332e-01) (9, 1.28796732425689697266e+00) (10, -9.49173271656036376953e-01) (11, 1.26812374591827392578e+00) (12, -6.00713443756103515625e+00) (13, -2.40855924785137176514e-02) (14, -7.31391906738281250000e+00) (15, 1.23390460014343261719e+00) (16, 1.11156679689884185791e-01) (17, 1.23651754856109619141e+00) (18, 1.81343518197536468506e-02) (19, 1.18043267726898193359e+00) (20, -2.19432020187377929688e+00) (21, 1.37711513042449951172e+00) (22, 1.24634332954883575439e-01) (23, 2.50498801469802856445e-01) (24, -6.05395507812500000000e+00) (25, 1.29456913471221923828e+00) (26, -1.45629148483276367188e+01) (27, 1.23675978183746337891e+00) (28, 3.84120374917984008789e-01) (29, 1.08304333686828613281e+00) (30, -9.82228374481201171875e+00) (31, 1.11970829963684082031e+00) (32, -1.63749008178710937500e+01) (33, 1.22798871994018554688e+00) (34, 1.66563785076141357422e+00) (35, 1.28574073314666748047e+00) (36, 9.68075752258300781250e+00) (37, 1.26451814174652099609e+00) (38, -4.91368865966796875000e+00) (39, 1.29060590267181396484e+00) (40, 1.41453971862792968750e+01) (41, 1.21344792842864990234e+00) (42, -1.05137690901756286621e-01) (43, 1.25831949710845947266e+00) (44, -1.03575289249420166016e-01) (45, 6.78335726261138916016e-01) (46, -1.08327043056488037109e+00) (47, 2.12717026472091674805e-01) (48, 4.72541451454162597656e-02) (49, 1.25702750682830810547e+00) (50, -3.34464572370052337646e-02) (51, 1.34578931331634521484e+00) (52, -1.96121063232421875000e+01) (53, 1.34444141387939453125e+00) (54, -4.10610288381576538086e-01) (55, 1.03172302246093750000e+00) (56, -1.66057035326957702637e-01) (57, 5.81857800483703613281e-01) (58, -3.59539484977722167969e+00) (59, 1.35435223579406738281e+00) (60, 1.30660665035247802734e+00) (61, 1.39086067676544189453e+00) (62, 4.72678756713867187500e+00) (63, 1.37597227096557617188e+00) (64, 2.82630109786987304688e+00) (65, 1.11016452312469482422e+00) (66, 7.49823617935180664062e+00) (67, 1.39526975154876708984e+00) (68, -4.64764833450317382812e-01) (69, 1.32148325443267822266e+00) (70, -2.61556744575500488281e+00) (71, 1.27851569652557373047e+00) (72, -3.55075478553771972656e+00) (73, 1.24508547782897949219e+00) (74, -4.44474726915359497070e-01) (75, 1.31542623043060302734e+00) (76, -8.52717757225036621094e-01) (77, 1.59444522857666015625e+00) (78, -4.99873208999633789062e+00) (79, 1.39155983924865722656e+00) (80, 4.54314517974853515625e+00) (81, 2.34327745437622070312e+00) (82, 4.96601152420043945312e+00) (83, 1.81692409515380859375e+00) (84, 1.50394666194915771484e+00) (85, 1.77061522006988525391e+00) (86, 1.24824857711791992188e+01) (87, 2.58761614561080932617e-01) (88, 4.58496898412704467773e-01) (89, 1.33586513996124267578e+00) (90, 1.15902602672576904297e+00) (91, 1.18056905269622802734e+00) (92, 3.14789682626724243164e-01) (93, 1.29814004898071289062e+00) (94, -1.76075339317321777344e-01) (95, 1.11858391761779785156e+00) (96, 5.75727367401123046875e+00) (97, 1.33701741695404052734e+00) (98, 1.16256523132324218750e+00) (99, 1.65246975421905517578e+00) (100, 9.57006216049194335938e-01) (101, -1.57384371757507324219e+00) (102, -8.79645794630050659180e-02) (103, 1.25420272350311279297e+00) (104, -2.02440217137336730957e-01) (105, 1.17064237594604492188e+00) (106, 1.03743383660912513733e-02) (107, 1.39947700500488281250e+00) (108, -3.77331399917602539062e+00) (109, 1.25792801380157470703e+00) (110, 1.38906526565551757812e+00) (111, 9.20099675655364990234e-01) (112, 1.02706563472747802734e+00) (113, 1.18092870712280273438e+00) (114, -1.17470279335975646973e-01) (115, 1.16706836223602294922e+00) (116, -2.72185468673706054688e+00) (117, 1.24364304542541503906e+00) (118, -1.58241486549377441406e+00) (119, 1.26283395290374755859e+00) (120, 1.71940609812736511230e-01) (121, 1.36799550056457519531e+00) (122, -1.09657496213912963867e-01) (123, 1.16734933853149414062e+00) (124, 1.45576839447021484375e+01) (125, 1.33610546588897705078e+00) (126, -2.39441633224487304688e+00) (127, 1.23823010921478271484e+00) (128, -2.44467198848724365234e-01) (129, 1.29013693332672119141e+00) (130, -5.56954026222229003906e-01) (131, 7.09795728325843811035e-02) (132, 2.00446834787726402283e-03) (133, 1.06249777600169181824e-02) (134, 3.30471009016036987305e-01) (135, 1.17559778690338134766e+00) (136, 5.12564778327941894531e-02) (137, 1.32551705837249755859e+00) (138, -2.45584640651941299438e-02) (139, 1.36094605922698974609e+00) (140, -3.04775824770331382751e-03) (141, 6.67410492897033691406e-01) (142, 1.82393774390220642090e-01) (143, 1.35537326335906982422e+00) (144, 2.65214872360229492188e+00) (145, 1.37925457954406738281e+00) (146, 2.70871609449386596680e-01) (147, 1.25726127624511718750e+00) (148, 1.16103959083557128906e+00) (149, 1.25797855854034423828e+00) (150, -7.18514099717140197754e-02) (151, 3.86609807610511779785e-02) (152, -7.50578975677490234375e+00) (153, 1.33746707439422607422e+00) (154, -4.88831901550292968750e+00) (155, 1.62207677960395812988e-01) (156, -1.21635198593139648438e+00) (157, -3.95524770021438598633e-01) (158, 1.46779373288154602051e-01) (159, 1.15192198753356933594e+00) (160, 1.15466594696044921875e+00) (161, 1.08170580863952636719e+00) (162, 5.84249830245971679688e+00) (163, 1.41362977027893066406e+00) (164, 3.36580586433410644531e+00) (165, 1.17210662364959716797e+00) (166, 1.39507901668548583984e+00) (167, 7.61109292507171630859e-01) (168, 3.45684558153152465820e-01) (169, 1.33569598197937011719e+00) (170, 1.32041990756988525391e+00) (171, 1.27178704738616943359e+00) (172, 2.39275857806205749512e-01) (173, 1.21294140815734863281e+00) (174, 4.15010660886764526367e-01) (175, 1.24981796741485595703e+00) (176, 1.90708592534065246582e-01) (177, 1.63018628954887390137e-01) (178, 2.04371735453605651855e-01) (179, 1.26164650917053222656e+00) (180, 2.11204275488853454590e-01) (181, 2.62308329343795776367e-01) (182, -5.34482955932617187500e-01) (183, 1.19235503673553466797e+00) (184, 2.99144210815429687500e+01) (185, 3.48206400871276855469e-01) (186, 5.40909194946289062500e+00) (187, 1.51253950595855712891e+00) (188, 1.96573391556739807129e-01) (189, 1.22052061557769775391e+00) (190, 5.78228139877319335938e+00) (191, 1.17094421386718750000e+00) (192, 2.38304481506347656250e+01) (193, 1.29573690891265869141e+00) (194, 4.33169984817504882812e+00) (195, 1.18343257904052734375e+00) (196, 1.50000000000000000000e+03) (197, 1.50000000000000000000e+03) (198, 1.50000000000000000000e+03) (199, 1.50000000000000000000e+03) (200, 1.45616865158081054688e+00) (201, 3.93510669469833374023e-01) (202, 6.18705928325653076172e-01) (0, 8.73104453086853027344e-01) (1, 3.61157745122909545898e-01) (2, 7.52353310585021972656e-01) (3, -2.14343690872192382812e+00) (4, 4.65323776006698608398e-01) (5, 4.20923024415969848633e-01) (6, -4.26295876502990722656e-01) (7, 4.71442490816116333008e-01) (8, -4.46919590234756469727e-01) (9, 3.34076374769210815430e-01) (10, -3.33639979362487792969e-01) (11, 5.99962651729583740234e-01) (12, -3.83189767599105834961e-01) (13, -4.27535057067871093750e-01) (14, -1.50147306919097900391e+00) (15, -3.85212570428848266602e-01) (16, -3.60868781805038452148e-01) (17, -5.50048887729644775391e-01) (18, -3.27700167894363403320e-01) (19, 4.77610200643539428711e-01) (20, -1.02440381050109863281e+00) (21, -4.05206680297851562500e-01) (22, -4.38051640987396240234e-01) (23, -5.09292304515838623047e-01) (24, -2.13979840278625488281e+00) (25, 5.96760392189025878906e-01) (26, -1.50000000000000000000e+03) (27, 5.12273848056793212891e-01) (28, -1.50000000000000000000e+03) (29, 5.10877370834350585938e-01) (30, -3.08858484029769897461e-01) (31, 5.38926661014556884766e-01) (32, 1.40411779785156250000e+03) (33, -4.23391431570053100586e-01) (34, 1.49990942382812500000e+03) (35, -4.46233183145523071289e-01) (36, 1.15281558036804199219e+00) (37, -3.76931875944137573242e-01) (38, -5.05866259336471557617e-02) (39, 5.15183806419372558594e-01) (40, 1.92026722431182861328e+00) (41, 4.70686227083206176758e-01) (42, -1.03487305343151092529e-01) (43, 5.83755135536193847656e-01) (44, 5.04873514175415039062e-01) (45, -2.05553078651428222656e+00) (46, -1.00751437246799468994e-01) (47, -1.50000000000000000000e+03) (48, -6.11159741878509521484e-01) (49, -2.88154073059558868408e-02) (50, -4.30239317938685417175e-03) (51, -8.86898413300514221191e-02) (52, -1.85140457153320312500e+01) (53, -3.04496288299560546875e-01) (54, -1.50000000000000000000e+03) (55, -3.41411888599395751953e-01) (56, -6.47473022460937500000e+02) (57, -4.42539882659912109375e+00) (58, -9.73458312988281250000e+02) (59, 8.19233208894729614258e-02) (60, -1.37265110015869140625e+00) (61, -4.41956490278244018555e-01) (62, 9.98097240924835205078e-01) (63, -3.79664599895477294922e-01) (64, 1.49985217285156250000e+03) (65, -3.53518575429916381836e-01) (66, 4.39557075500488281250e+00) (67, -3.54726046323776245117e-01) (68, -7.52412676811218261719e-02) (69, -3.53154152631759643555e-01) (70, -2.34509795904159545898e-01) (71, 5.36203324794769287109e-01) (72, -2.32876467704772949219e+00) (73, 7.10755169391632080078e-01) (74, -7.39635467529296875000e-01) (75, 6.98303937911987304688e-01) (76, -1.58643484115600585938e+00) (77, -4.35975156724452972412e-02) (78, -1.77141475677490234375e+00) (79, 5.16878008842468261719e-01) (80, -2.21030384302139282227e-01) (81, -2.94121265411376953125e-01) (82, -5.45347869396209716797e-01) (83, -4.33390319347381591797e-01) (84, -1.94043055176734924316e-01) (85, 6.57524347305297851562e-01) (86, -1.50000000000000000000e+03) (87, -4.73321318626403808594e-01) (88, -8.61782968044281005859e-01) (89, 3.91588687896728515625e-01) (90, -5.90315580368041992188e-01) (91, 6.63154244422912597656e-01) (92, -5.67733764648437500000e-01) (93, 6.28576338291168212891e-01) (94, -6.83010101318359375000e+00) (95, -3.53246092796325683594e-01) (96, 1.46287763118743896484e+00) (97, -1.39537549018859863281e+00) (98, 3.82571995258331298828e-01) (99, -4.91529524326324462891e-01) (100, -2.62779057025909423828e-01) (101, -1.50000000000000000000e+03) (102, -4.18717414140701293945e-01) (103, 4.76936966180801391602e-01) (104, -3.14643055200576782227e-01) (105, -3.11022549867630004883e-01) (106, -2.86680430173873901367e-01) (107, -1.56422600150108337402e-01) (108, -2.04696938395500183105e-01) (109, 6.74949526786804199219e-01) (110, -4.38524991273880004883e-01) (111, 3.59052777290344238281e-01) (112, -4.43681793212890625000e+01) (113, 4.76502031087875366211e-01) (114, -3.24716687202453613281e-01) (115, -5.18323600292205810547e-01) (116, -2.31470420956611633301e-01) (117, -3.88832658529281616211e-01) (118, 7.10514664649963378906e-01) (119, -2.80653029680252075195e-01) (120, -4.32671159505844116211e-01) (121, 4.61654812097549438477e-01) (122, -1.99795484542846679688e-01) (123, -3.60987544059753417969e-01) (124, -1.37131261825561523438e+01) (125, -6.06706738471984863281e-01) (126, -4.27867732942104339600e-02) (127, -3.51881593465805053711e-01) (128, 1.82713702321052551270e-01) (129, -5.66316187381744384766e-01) (130, -5.25601625442504882812e+00) (131, 3.05741161108016967773e-01) (132, -8.39557766914367675781e-01) (133, -5.46646006405353546143e-02) (134, -6.63450121879577636719e-01) (135, 3.49246442317962646484e-01) (136, -2.28995490074157714844e+00) (137, -3.86572897434234619141e-01) (138, 6.53749287128448486328e-01) (139, -5.19868075847625732422e-01) (140, -7.10898458957672119141e-01) (141, -4.44642901420593261719e-01) (142, -3.63189905881881713867e-01) (143, -3.47140669822692871094e-01) (144, -9.19777750968933105469e-02) (145, -4.15815144777297973633e-01) (146, -1.50000000000000000000e+03) (147, -4.14790123701095581055e-01) (148, 8.24422359466552734375e-01) (149, 4.96710449457168579102e-01) (150, -3.59163224697113037109e-01) (151, -3.97903412580490112305e-01) (152, -3.08150482177734375000e+00) (153, -3.45891207456588745117e-01) (154, 4.79722061157226562500e+01) (155, -4.10132676362991333008e-01) (156, -2.03070044517517089844e-01) (157, -3.66256564855575561523e-01) (158, 5.42918086051940917969e-01) (159, -3.15597414970397949219e-01) (160, 7.16942429542541503906e-01) (161, -4.24890100955963134766e-01) (162, 5.20496606826782226562e-01) (163, -5.21084725856781005859e-01) (164, 2.39135360717773437500e+00) (165, -6.95196533203125000000e+02) (166, 6.91826760768890380859e-01) (167, -2.60258445739746093750e+01) (168, -2.82101873308420181274e-02) (169, -2.75656789541244506836e-01) (170, 4.13587093353271484375e-01) (171, -3.31183552742004394531e-01) (172, -8.27322196960449218750e+00) (173, 4.33476865291595458984e-01) (174, 6.10727220773696899414e-02) (175, -3.27308803796768188477e-01) (176, -3.81181776523590087891e-01) (177, -3.91052544116973876953e-01) (178, -3.73316854238510131836e-01) (179, 7.20995306968688964844e-01) (180, -2.96249091625213623047e-01) (181, -5.22876739501953125000e-01) (182, -5.16444206237792968750e-01) (183, 