FANN_FLO_2.1
num_layers=3
learning_rate=0.700000
connection_rate=1.000000
network_type=0
learning_momentum=0.000000
training_algorithm=2
train_error_function=1
train_stop_function=0
cascade_output_change_fraction=0.010000
quickprop_decay=-0.000100
quickprop_mu=1.750000
rprop_increase_factor=1.200000
rprop_decrease_factor=0.500000
rprop_delta_min=0.000000
rprop_delta_max=50.000000
rprop_delta_zero=0.100000
cascade_output_stagnation_epochs=12
cascade_candidate_change_fraction=0.010000
cascade_candidate_stagnation_epochs=12
cascade_max_out_epochs=150
cascade_min_out_epochs=50
cascade_max_cand_epochs=150
cascade_min_cand_epochs=50
cascade_num_candidate_groups=2
bit_fail_limit=3.49999994039535522461e-01
cascade_candidate_limit=1.00000000000000000000e+03
cascade_weight_multiplier=4.00000005960464477539e-01
cascade_activation_functions_count=10
cascade_activation_functions=3 5 7 8 10 11 14 15 16 17
cascade_activation_steepnesses_count=4
cascade_activation_steepnesses=2.50000000000000000000e-01 5.00000000000000000000e-01 7.50000000000000000000e-01 1.00000000000000000000e+00
layer_sizes=203 32 101
scale_included=0
neurons (num_inputs, activation_function, activation_steepness)=(0, 0, 0.00000000000000000000e+00) (0, 0, 0.00000000000000000000e+00) (0, 0, 0.00000000000000000000e+00) (0, 0, 0.00000000000000000000e+00) (0, 0, 0.00000000000000000000e+00) (0, 0, 0.00000000000000000000e+00) (0, 0, 0.00000000000000000000e+00) (0, 0, 0.00000000000000000000e+00) (0, 0, 0.00000000000000000000e+00) (0, 0, 0.00000000000000000000e+00) (0, 0, 0.00000000000000000000e+00) (0, 0, 0.00000000000000000000e+00) (0, 0, 0.00000000000000000000e+00) (0, 0, 0.00000000000000000000e+00) (0, 0, 0.00000000000000000000e+00) (0, 0, 0.00000000000000000000e+00) (0, 0, 0.00000000000000000000e+00) (0, 0, 0.00000000000000000000e+00) (0, 0, 0.00000000000000000000e+00) (0, 0, 0.00000000000000000000e+00) (0, 0, 0.00000000000000000000e+00) (0, 0, 0.00000000000000000000e+00) (0, 0, 0.00000000000000000000e+00) (0, 0, 0.00000000000000000000e+00) (0, 0, 0.00000000000000000000e+00) (0, 0, 0.00000000000000000000e+00) (0, 0, 0.00000000000000000000e+00) (0, 0, 0.00000000000000000000e+00) (0, 0, 0.00000000000000000000e+00) (0, 0, 0.00000000000000000000e+00) (0, 0, 0.00000000000000000000e+00) (0, 0, 0.00000000000000000000e+00) (0, 0, 0.00000000000000000000e+00) (0, 0, 0.00000000000000000000e+00) (0, 0, 0.00000000000000000000e+00) (0, 0, 0.00000000000000000000e+00) (0, 0, 0.00000000000000000000e+00) (0, 0, 0.00000000000000000000e+00) (0, 0, 0.00000000000000000000e+00) (0, 0, 0.00000000000000000000e+00) (0, 0, 0.00000000000000000000e+00) (0, 0, 0.00000000000000000000e+00) (0, 0, 0.00000000000000000000e+00) (0, 0, 0.00000000000000000000e+00) (0, 0, 0.00000000000000000000e+00) (0, 0, 0.00000000000000000000e+00) (0, 0, 0.00000000000000000000e+00) (0, 0, 0.00000000000000000000e+00) (0, 0, 0.00000000000000000000e+00) (0, 0, 0.00000000000000000000e+00) (0, 0, 0.00000000000000000000e+00) (0, 0, 0.00000000000000000000e+00) (0, 0, 0.00000000000000000000e+00) (0, 0, 0.00000000000000000000e+00) (0, 0, 0.00000000000000000000e+00) (0, 0, 0.00000000000000000000e+00) (0, 0, 0.00000000000000000000e+00) (0, 0, 0.00000000000000000000e+00) (0, 0, 0.00000000000000000000e+00) (0, 0, 0.00000000000000000000e+00) (0, 0, 0.00000000000000000000e+00) (0, 0, 0.00000000000000000000e+00) (0, 0, 0.00000000000000000000e+00) (0, 0, 0.00000000000000000000e+00) (0, 0, 0.00000000000000000000e+00) (0, 0, 0.00000000000000000000e+00) (0, 0, 0.00000000000000000000e+00) (0, 0, 0.00000000000000000000e+00) (0, 0, 0.00000000000000000000e+00) (0, 0, 0.00000000000000000000e+00) (0, 0, 0.00000000000000000000e+00) (0, 0, 0.00000000000000000000e+00) (0, 0, 0.00000000000000000000e+00) (0, 0, 0.00000000000000000000e+00) (0, 0, 0.00000000000000000000e+00) (0, 0, 0.00000000000000000000e+00) (0, 0, 0.00000000000000000000e+00) (0, 0, 0.00000000000000000000e+00) (0, 0, 0.00000000000000000000e+00) (0, 0, 0.00000000000000000000e+00) (0, 0, 0.00000000000000000000e+00) (0, 0, 0.00000000000000000000e+00) (0, 0, 0.00000000000000000000e+00) (0, 0, 0.00000000000000000000e+00) (0, 0, 0.00000000000000000000e+00) (0, 0, 0.00000000000000000000e+00) (0, 0, 0.00000000000000000000e+00) (0, 0, 0.00000000000000000000e+00) (0, 0, 0.00000000000000000000e+00) (0, 0, 0.00000000000000000000e+00) (0, 0, 0.00000000000000000000e+00) (0, 0, 0.00000000000000000000e+00) (0, 0, 0.00000000000000000000e+00) (0, 0, 0.00000000000000000000e+00) (0, 0, 0.00000000000000000000e+00) (0, 0, 0.00000000000000000000e+00) (0, 0, 0.00000000000000000000e+00) (0, 0, 0.00000000000000000000e+00) (0, 0, 0.00000000000000000000e+00) (0, 0, 0.00000000000000000000e+00) (0, 0, 0.00000000000000000000e+00) (0, 0, 0.00000000000000000000e+00) (0, 0, 0.00000000000000000000e+00) (0, 0, 0.00000000000000000000e+00) (0, 0, 0.00000000000000000000e+00) (0, 0, 0.00000000000000000000e+00) (0, 0, 0.00000000000000000000e+00) (0, 0, 0.00000000000000000000e+00) (0, 0, 0.00000000000000000000e+00) (0, 0, 0.00000000000000000000e+00) (0, 0, 0.00000000000000000000e+00) (0, 0, 0.00000000000000000000e+00) (0, 0, 0.00000000000000000000e+00) (0, 0, 0.00000000000000000000e+00) (0, 0, 0.00000000000000000000e+00) (0, 0, 0.00000000000000000000e+00) (0, 0, 0.00000000000000000000e+00) (0, 0, 0.00000000000000000000e+00) (0, 0, 0.00000000000000000000e+00) (0, 0, 0.00000000000000000000e+00) (0, 0, 0.00000000000000000000e+00) (0, 0, 0.00000000000000000000e+00) (0, 0, 0.00000000000000000000e+00) (0, 0, 0.00000000000000000000e+00) (0, 0, 0.00000000000000000000e+00) (0, 0, 0.00000000000000000000e+00) (0, 0, 0.00000000000000000000e+00) (0, 0, 0.00000000000000000000e+00) (0, 0, 0.00000000000000000000e+00) (0, 0, 0.00000000000000000000e+00) (0, 0, 0.00000000000000000000e+00) (0, 0, 0.00000000000000000000e+00) (0, 0, 0.00000000000000000000e+00) (0, 0, 0.00000000000000000000e+00) (0, 0, 0.00000000000000000000e+00) (0, 0, 0.00000000000000000000e+00) (0, 0, 0.00000000000000000000e+00) (0, 0, 0.00000000000000000000e+00) (0, 0, 0.00000000000000000000e+00) (0, 0, 0.00000000000000000000e+00) (0, 0, 0.00000000000000000000e+00) (0, 0, 0.00000000000000000000e+00) (0, 0, 0.00000000000000000000e+00) (0, 0, 0.00000000000000000000e+00) (0, 0, 0.00000000000000000000e+00) (0, 0, 0.00000000000000000000e+00) (0, 0, 0.00000000000000000000e+00) (0, 0, 0.00000000000000000000e+00) (0, 0, 0.00000000000000000000e+00) (0, 0, 0.00000000000000000000e+00) (0, 0, 0.00000000000000000000e+00) (0, 0, 0.00000000000000000000e+00) (0, 0, 0.00000000000000000000e+00) (0, 0, 0.00000000000000000000e+00) (0, 0, 0.00000000000000000000e+00) (0, 0, 0.00000000000000000000e+00) (0, 0, 0.00000000000000000000e+00) (0, 0, 0.00000000000000000000e+00) (0, 0, 0.00000000000000000000e+00) (0, 0, 0.00000000000000000000e+00) (0, 0, 0.00000000000000000000e+00) (0, 0, 0.00000000000000000000e+00) (0, 0, 0.00000000000000000000e+00) (0, 0, 0.00000000000000000000e+00) (0, 0, 0.00000000000000000000e+00) (0, 0, 0.00000000000000000000e+00) (0, 0, 0.00000000000000000000e+00) (0, 0, 0.00000000000000000000e+00) (0, 0, 0.00000000000000000000e+00) (0, 0, 0.00000000000000000000e+00) (0, 0, 0.00000000000000000000e+00) (0, 0, 0.00000000000000000000e+00) (0, 0, 0.00000000000000000000e+00) (0, 0, 0.00000000000000000000e+00) (0, 0, 0.00000000000000000000e+00) (0, 0, 0.00000000000000000000e+00) (0, 0, 0.00000000000000000000e+00) (0, 0, 0.00000000000000000000e+00) (0, 0, 0.00000000000000000000e+00) (0, 0, 0.00000000000000000000e+00) (0, 0, 0.00000000000000000000e+00) (0, 0, 0.00000000000000000000e+00) (0, 0, 0.00000000000000000000e+00) (0, 0, 0.00000000000000000000e+00) (0, 0, 0.00000000000000000000e+00) (0, 0, 0.00000000000000000000e+00) (0, 0, 0.00000000000000000000e+00) (0, 0, 0.00000000000000000000e+00) (0, 0, 0.00000000000000000000e+00) (0, 0, 0.00000000000000000000e+00) (0, 0, 0.00000000000000000000e+00) (0, 0, 0.00000000000000000000e+00) (0, 0, 0.00000000000000000000e+00) (0, 0, 0.00000000000000000000e+00) (0, 0, 0.00000000000000000000e+00) (0, 0, 0.00000000000000000000e+00) (0, 0, 0.00000000000000000000e+00) (0, 0, 0.00000000000000000000e+00) (0, 0, 0.00000000000000000000e+00) (0, 0, 0.00000000000000000000e+00) (0, 0, 0.00000000000000000000e+00) (0, 0, 0.00000000000000000000e+00) (0, 0, 0.00000000000000000000e+00) (203, 5, 5.00000000000000000000e-01) (203, 5, 5.00000000000000000000e-01) (203, 5, 5.00000000000000000000e-01) (203, 5, 5.00000000000000000000e-01) (203, 5, 5.00000000000000000000e-01) (203, 5, 5.00000000000000000000e-01) (203, 5, 5.00000000000000000000e-01) (203, 5, 5.00000000000000000000e-01) (203, 5, 5.00000000000000000000e-01) (203, 5, 5.00000000000000000000e-01) (203, 5, 5.00000000000000000000e-01) (203, 5, 5.00000000000000000000e-01) (203, 5, 5.00000000000000000000e-01) (203, 5, 5.00000000000000000000e-01) (203, 5, 5.00000000000000000000e-01) (203, 5, 5.00000000000000000000e-01) (203, 5, 5.00000000000000000000e-01) (203, 5, 5.00000000000000000000e-01) (203, 5, 5.00000000000000000000e-01) (203, 5, 5.00000000000000000000e-01) (203, 5, 5.00000000000000000000e-01) (203, 5, 5.00000000000000000000e-01) (203, 5, 5.00000000000000000000e-01) (203, 5, 5.00000000000000000000e-01) (203, 5, 5.00000000000000000000e-01) (203, 5, 5.00000000000000000000e-01) (203, 5, 5.00000000000000000000e-01) (203, 5, 5.00000000000000000000e-01) (203, 5, 5.00000000000000000000e-01) (203, 5, 5.00000000000000000000e-01) (203, 5, 5.00000000000000000000e-01) (0, 5, 0.00000000000000000000e+00) (32, 5, 5.00000000000000000000e-01) (32, 5, 5.00000000000000000000e-01) (32, 5, 5.00000000000000000000e-01) (32, 5, 5.00000000000000000000e-01) (32, 5, 5.00000000000000000000e-01) (32, 5, 5.00000000000000000000e-01) (32, 5, 5.00000000000000000000e-01) (32, 5, 5.00000000000000000000e-01) (32, 5, 5.00000000000000000000e-01) (32, 5, 5.00000000000000000000e-01) (32, 5, 5.00000000000000000000e-01) (32, 5, 5.00000000000000000000e-01) (32, 5, 5.00000000000000000000e-01) (32, 5, 5.00000000000000000000e-01) (32, 5, 5.00000000000000000000e-01) (32, 5, 5.00000000000000000000e-01) (32, 5, 5.00000000000000000000e-01) (32, 5, 5.00000000000000000000e-01) (32, 5, 5.00000000000000000000e-01) (32, 5, 5.00000000000000000000e-01) (32, 5, 5.00000000000000000000e-01) (32, 5, 5.00000000000000000000e-01) (32, 5, 5.00000000000000000000e-01) (32, 5, 5.00000000000000000000e-01) (32, 5, 5.00000000000000000000e-01) (32, 5, 5.00000000000000000000e-01) (32, 5, 5.00000000000000000000e-01) (32, 5, 5.00000000000000000000e-01) (32, 5, 5.00000000000000000000e-01) (32, 5, 5.00000000000000000000e-01) (32, 5, 5.00000000000000000000e-01) (32, 5, 5.00000000000000000000e-01) (32, 5, 5.00000000000000000000e-01) (32, 5, 5.00000000000000000000e-01) (32, 5, 5.00000000000000000000e-01) (32, 5, 5.00000000000000000000e-01) (32, 5, 5.00000000000000000000e-01) (32, 5, 5.00000000000000000000e-01) (32, 5, 5.00000000000000000000e-01) (32, 5, 5.00000000000000000000e-01) (32, 5, 5.00000000000000000000e-01) (32, 5, 5.00000000000000000000e-01) (32, 5, 5.00000000000000000000e-01) (32, 5, 5.00000000000000000000e-01) (32, 5, 5.00000000000000000000e-01) (32, 5, 5.00000000000000000000e-01) (32, 5, 5.00000000000000000000e-01) (32, 5, 5.00000000000000000000e-01) (32, 5, 5.00000000000000000000e-01) (32, 5, 5.00000000000000000000e-01) (32, 5, 5.00000000000000000000e-01) (32, 5, 5.00000000000000000000e-01) (32, 5, 5.00000000000000000000e-01) (32, 5, 5.00000000000000000000e-01) (32, 5, 5.00000000000000000000e-01) (32, 5, 5.00000000000000000000e-01) (32, 5, 5.00000000000000000000e-01) (32, 5, 5.00000000000000000000e-01) (32, 5, 5.00000000000000000000e-01) (32, 5, 5.00000000000000000000e-01) (32, 5, 5.00000000000000000000e-01) (32, 5, 5.00000000000000000000e-01) (32, 5, 5.00000000000000000000e-01) (32, 5, 5.00000000000000000000e-01) (32, 5, 5.00000000000000000000e-01) (32, 5, 5.00000000000000000000e-01) (32, 5, 5.00000000000000000000e-01) (32, 5, 5.00000000000000000000e-01) (32, 5, 5.00000000000000000000e-01) (32, 5, 5.00000000000000000000e-01) (32, 5, 5.00000000000000000000e-01) (32, 5, 5.00000000000000000000e-01) (32, 5, 5.00000000000000000000e-01) (32, 5, 5.00000000000000000000e-01) (32, 5, 5.00000000000000000000e-01) (32, 5, 5.00000000000000000000e-01) (32, 5, 5.00000000000000000000e-01) (32, 5, 5.00000000000000000000e-01) (32, 5, 5.00000000000000000000e-01) (32, 5, 5.00000000000000000000e-01) (32, 5, 5.00000000000000000000e-01) (32, 5, 5.00000000000000000000e-01) (32, 5, 5.00000000000000000000e-01) (32, 5, 5.00000000000000000000e-01) (32, 5, 5.00000000000000000000e-01) (32, 5, 5.00000000000000000000e-01) (32, 5, 5.00000000000000000000e-01) (32, 5, 5.00000000000000000000e-01) (32, 5, 5.00000000000000000000e-01) (32, 5, 5.00000000000000000000e-01) (32, 5, 5.00000000000000000000e-01) (32, 5, 5.00000000000000000000e-01) (32, 5, 5.00000000000000000000e-01) (32, 5, 5.00000000000000000000e-01) (32, 5, 5.00000000000000000000e-01) (32, 5, 5.00000000000000000000e-01) (32, 5, 5.00000000000000000000e-01) (32, 5, 5.00000000000000000000e-01) (32, 5, 5.00000000000000000000e-01) (32, 5, 5.00000000000000000000e-01) (0, 5, 0.00000000000000000000e+00)
connections (connected_to_neuron, weight)=(0, -1.50000000000000000000e+03) (1, -1.49990991210937500000e+03) (2, -1.50000000000000000000e+03) (3, -1.49992663574218750000e+03) (4, -1.50000000000000000000e+03) (5, -1.50000000000000000000e+03) (6, -1.50000000000000000000e+03) (7, -1.50000000000000000000e+03) (8, -1.50000000000000000000e+03) (9, -1.50000000000000000000e+03) (10, -1.50000000000000000000e+03) (11, -1.50000000000000000000e+03) (12, -1.50000000000000000000e+03) (13, -1.50000000000000000000e+03) (14, -1.50000000000000000000e+03) (15, -1.50000000000000000000e+03) (16, -1.50000000000000000000e+03) (17, -1.49989172363281250000e+03) (18, -1.49995568847656250000e+03) (19, -1.49987683105468750000e+03) (20, -1.49890869140625000000e+03) (21, -1.49926953125000000000e+03) (22, -1.50000000000000000000e+03) (23, -1.49987487792968750000e+03) (24, -1.50000000000000000000e+03) (25, -1.49987170410156250000e+03) (26, -1.50000000000000000000e+03) (27, -1.49990246582031250000e+03) (28, -1.50000000000000000000e+03) (29, -1.49976000976562500000e+03) (30, -1.50000000000000000000e+03) (31, -1.49988439941406250000e+03) (32, -1.50000000000000000000e+03) (33, -1.49980322265625000000e+03) (34, -1.50000000000000000000e+03) (35, -1.24926770019531250000e+03) (36, -1.49331286621093750000e+03) (37, 1.46638513183593750000e+03) (38, -1.50000000000000000000e+03) (39, -1.50000000000000000000e+03) (40, -1.50000000000000000000e+03) (41, -1.49988244628906250000e+03) (42, -1.50000000000000000000e+03) (43, -1.50000000000000000000e+03) (44, -1.50000000000000000000e+03) (45, -1.50000000000000000000e+03) (46, -1.50000000000000000000e+03) (47, 1.49949755859375000000e+03) (48, -1.50000000000000000000e+03) (49, -1.49987097167968750000e+03) (50, -1.50000000000000000000e+03) (51, -1.50000000000000000000e+03) (52, -1.50000000000000000000e+03) (53, -1.50000000000000000000e+03) (54, -1.50000000000000000000e+03) (55, -1.50000000000000000000e+03) (56, -1.50000000000000000000e+03) (57, 1.49585559082031250000e+03) (58, -1.50000000000000000000e+03) (59, -1.50000000000000000000e+03) (60, -1.50000000000000000000e+03) (61, 5.64380432128906250000e+02) (62, -1.50000000000000000000e+03) (63, -1.50000000000000000000e+03) (64, -1.50000000000000000000e+03) (65, -1.50000000000000000000e+03) (66, -1.50000000000000000000e+03) (67, -1.50000000000000000000e+03) (68, -1.50000000000000000000e+03) (69, -1.50000000000000000000e+03) (70, -1.50000000000000000000e+03) (71, -1.50000000000000000000e+03) (72, -1.50000000000000000000e+03) (73, -1.50000000000000000000e+03) (74, -1.50000000000000000000e+03) (75, -1.50000000000000000000e+03) (76, -1.50000000000000000000e+03) (77, -1.50000000000000000000e+03) (78, -1.50000000000000000000e+03) (79, -1.50000000000000000000e+03) (80, -1.50000000000000000000e+03) (81, -1.50000000000000000000e+03) (82, -1.50000000000000000000e+03) (83, -1.49988439941406250000e+03) (84, -1.50000000000000000000e+03) (85, -1.49987414550781250000e+03) (86, -1.50000000000000000000e+03) (87, -1.50000000000000000000e+03) (88, -1.50000000000000000000e+03) (89, 1.46904345703125000000e+03) (90, -1.50000000000000000000e+03) (91, -1.49992102050781250000e+03) (92, -1.49998999023437500000e+03) (93, -1.49985888671875000000e+03) (94, -1.49994506835937500000e+03) (95, -1.49931982421875000000e+03) (96, -1.49981262207031250000e+03) (97, 1.50000000000000000000e+03) (98, -1.49994970703125000000e+03) (99, -1.50000000000000000000e+03) (100, 1.49992858886718750000e+03) (101, -1.49934387207031250000e+03) (102, 1.50000000000000000000e+03) (103, -1.49938500976562500000e+03) (104, -1.50000000000000000000e+03) (105, -1.49954125976562500000e+03) (106, -1.50000000000000000000e+03) (107, -1.49967407226562500000e+03) (108, -1.50000000000000000000e+03) (109, 1.50000000000000000000e+03) (110, -1.50000000000000000000e+03) (111, 1.50000000000000000000e+03) (112, -1.50000000000000000000e+03) (113, 1.02343490600585937500e+02) (114, -1.50000000000000000000e+03) (115, 1.11185400390625000000e+03) (116, -1.48346325683593750000e+03) (117, 1.50000000000000000000e+03) (118, 1.50000000000000000000e+03) (119, 1.50000000000000000000e+03) (120, -1.50000000000000000000e+03) (121, -1.49448693847656250000e+03) (122, -1.49993408203125000000e+03) (123, -1.48801220703125000000e+03) (124, -1.48682983398437500000e+03) (125, 1.49993395996093750000e+03) (126, -1.50000000000000000000e+03) (127, 1.50000000000000000000e+03) (128, -1.50000000000000000000e+03) (129, 1.49921691894531250000e+03) (130, -1.50000000000000000000e+03) (131, 1.49973046875000000000e+03) (132, -1.50000000000000000000e+03) (133, 1.49996289062500000000e+03) (134, -1.50000000000000000000e+03) (135, 1.49994409179687500000e+03) (136, -1.50000000000000000000e+03) (137, -2.02707000732421875000e+02) (138, -1.50000000000000000000e+03) (139, -1.50000000000000000000e+03) (140, -1.49986962890625000000e+03) (141, -1.50000000000000000000e+03) (142, -1.49986401367187500000e+03) (143, -1.49987500000000000000e+03) (144, -1.49993945312500000000e+03) (145, 1.03624523925781250000e+03) (146, -1.50000000000000000000e+03) (147, -1.49963476562500000000e+03) (148, -1.50000000000000000000e+03) (149, -1.50000000000000000000e+03) (150, -1.49993225097656250000e+03) (151, -1.49990637207031250000e+03) (152, -1.50000000000000000000e+03) (153, -1.50000000000000000000e+03) (154, -1.50000000000000000000e+03) (155, -1.49992846679687500000e+03) (156, -1.50000000000000000000e+03) (157, -1.50000000000000000000e+03) (158, -1.49989807128906250000e+03) (159, -1.49996142578125000000e+03) (160, -1.49987792968750000000e+03) (161, -1.49990661621093750000e+03) (162, -1.49985363769531250000e+03) (163, -1.49969396972656250000e+03) (164, -1.50000000000000000000e+03) (165, -1.49977050781250000000e+03) (166, -1.49994287109375000000e+03) (167, -1.49977832031250000000e+03) (168, -1.49991601562500000000e+03) (169, -1.49972082519531250000e+03) (170, -1.50000000000000000000e+03) (171, -1.49971838378906250000e+03) (172, -1.50000000000000000000e+03) (173, -1.49795861816406250000e+03) (174, -1.49986022949218750000e+03) (175, -1.49887719726562500000e+03) (176, -1.50000000000000000000e+03) (177, -1.45268432617187500000e+03) (178, -1.50000000000000000000e+03) (179, -1.49985864257812500000e+03) (180, -1.50000000000000000000e+03) (181, -1.50000000000000000000e+03) (182, -1.50000000000000000000e+03) (183, -6.56525573730468750000e+01) (184, -1.49994189453125000000e+03) (185, -1.50000000000000000000e+03) (186, 1.50000000000000000000e+03) (187, -4.33232650756835937500e+01) (188, -1.50000000000000000000e+03) (189, -1.50000000000000000000e+03) (190, 1.50000000000000000000e+03) (191, -1.50000000000000000000e+03) (192, 1.50000000000000000000e+03) (193, -1.49989660644531250000e+03) (194, 1.49990759277343750000e+03) (195, -1.49968896484375000000e+03) (196, 1.50000000000000000000e+03) (197, 1.50000000000000000000e+03) (198, 1.50000000000000000000e+03) (199, 1.50000000000000000000e+03) (200, -1.46904162597656250000e+03) (201, -1.50000000000000000000e+03) (202, -1.35686389160156250000e+03) (0, 7.91018676757812500000e+00) (1, 3.23587918281555175781e+00) (2, -4.95390206575393676758e-01) (3, 1.99344658851623535156e+00) (4, -2.83602571487426757812e+00) (5, -2.46347747743129730225e-02) (6, -5.40439903736114501953e-01) (7, 2.13832807540893554688e+00) (8, -3.72045946121215820312e+00) (9, -2.02509701251983642578e-01) (10, -7.22235584259033203125e+00) (11, 2.70118665695190429688e+00) (12, -1.46484339237213134766e+00) (13, -7.74537324905395507812e-01) (14, 1.77764799445867538452e-02) (15, 8.10834169387817382812e-01) (16, -2.30616903305053710938e+00) (17, -1.61462950706481933594e+00) (18, 1.88871431350708007812e+00) (19, -6.19323492050170898438e-01) (20, -2.28193235397338867188e+00) (21, -2.37751245498657226562e+00) (22, 7.53133392333984375000e+00) (23, -1.56880155205726623535e-01) (24, 1.05366802215576171875e+00) (25, 2.56701087951660156250e+00) (26, 1.88658199310302734375e+01) (27, -5.74458003044128417969e-01) (28, 1.11192846298217773438e+00) (29, 3.73283505439758300781e+00) (30, -1.35443404316902160645e-01) (31, -2.32547211647033691406e+00) (32, 6.55721950531005859375e+00) (33, -2.75700497627258300781e+00) (34, -1.66735756397247314453e+00) (35, -1.60659837722778320312e+00) (36, 4.54967021942138671875e+00) (37, 5.11518061161041259766e-01) (38, -1.42474627494812011719e+00) (39, -7.25501418113708496094e-01) (40, 1.45610377192497253418e-01) (41, -1.89159178733825683594e+00) (42, -9.65706169605255126953e-01) (43, 1.55404448509216308594e+00) (44, -5.00265407562255859375e+00) (45, -1.08366632461547851562e+00) (46, -1.21587410569190979004e-01) (47, -2.18305420875549316406e+00) (48, 1.44515407085418701172e+00) (49, -7.92336404323577880859e-01) (50, 2.23877716064453125000e+00) (51, 7.10655033588409423828e-01) (52, -2.95292854309082031250e+00) (53, -2.72715473175048828125e+00) (54, 3.19172358512878417969e+00) (55, -5.75203478336334228516e-01) (56, 1.45875287055969238281e+00) (57, 1.34385597705841064453e+00) (58, 3.48472881317138671875e+00) (59, -3.70705413818359375000e+00) (60, -1.84348559379577636719e+00) (61, 1.09977461397647857666e-01) (62, 3.96413564682006835938e-01) (63, 1.27169704437255859375e+00) (64, 1.17897331714630126953e+00) (65, 9.31376755237579345703e-01) (66, 2.63651156425476074219e+00) (67, -1.34960961341857910156e+00) (68, 3.30498665571212768555e-02) (69, -2.20839762687683105469e+00) (70, -7.81538963317871093750e-01) (71, 1.82628488540649414062e+00) (72, 3.36704897880554199219e+00) (73, -2.13157966732978820801e-01) (74, -1.02342355251312255859e+00) (75, -2.17652511596679687500e+00) (76, 6.06738507747650146484e-01) (77, 1.49083375930786132812e+00) (78, 2.99971723556518554688e+00) (79, 3.39268326759338378906e+00) (80, 8.63310217857360839844e-01) (81, 1.94160723686218261719e+00) (82, -1.62476563453674316406e+00) (83, -1.22633866965770721436e-01) (84, -3.90130430459976196289e-01) (85, -8.47094058990478515625e-01) (86, -1.99203217029571533203e+00) (87, 1.37462127208709716797e+00) (88, 3.77273964881896972656e+00) (89, -6.09583735466003417969e-01) (90, 3.19395160675048828125e+00) (91, -2.02483558654785156250e+00) (92, 2.02559685707092285156e+00) (93, -3.57586359977722167969e+00) (94, -1.56119120121002197266e+00) (95, 3.36787551641464233398e-01) (96, 2.62892627716064453125e+00) (97, 1.09229004383087158203e+00) (98, -1.33503901958465576172e+00) (99, 7.78382539749145507812e-01) (100, -8.34368884563446044922e-01) (101, 1.09445786476135253906e+00) (102, 7.20399856567382812500e-01) (103, 6.99181795120239257812e-01) (104, -2.42650246620178222656e+00) (105, 6.69143021106719970703e-01) (106, 1.83127313852310180664e-01) (107, 2.74514961242675781250e+00) (108, 9.86021459102630615234e-01) (109, -2.22366619110107421875e+00) (110, -1.13472604751586914062e+00) (111, 3.82696121931076049805e-01) (112, 4.78543758392333984375e-01) (113, 8.98420363664627075195e-02) (114, 7.27505350112915039062e+00) (115, -7.51677760854363441467e-03) (116, -7.09243953227996826172e-01) (117, -4.26271170377731323242e-01) (118, -5.48955917358398437500e+00) (119, -1.78687143325805664062e+00) (120, 2.67824077606201171875e+00) (121, -2.36615586280822753906e+00) (122, 1.26875746250152587891e+00) (123, -1.42417418956756591797e+00) (124, 3.48770689964294433594e+00) (125, -1.95590794086456298828e+00) (126, -4.60383921861648559570e-01) (127, 1.42461585998535156250e+00) (128, -2.11352586746215820312e+00) (129, -1.02176177501678466797e+00) (130, 1.35755896568298339844e+00) (131, -9.08060312271118164062e-01) (132, 2.12746047973632812500e+00) (133, 4.02248382568359375000e+00) (134, -7.50137710571289062500e+00) (135, -1.59265744686126708984e+00) (136, -6.89594626426696777344e-01) (137, -1.95306551456451416016e+00) (138, -4.79405355453491210938e+00) (139, -5.09955465793609619141e-01) (140, 2.81333979219198226929e-02) (141, -2.03659319877624511719e+00) (142, -1.58970698714256286621e-01) (143, -6.25085592269897460938e-01) (144, 1.01718559265136718750e+01) (145, -1.62136256694793701172e-01) (146, 4.64780241250991821289e-01) (147, -2.67482328414916992188e+00) (148, 1.73528110980987548828e+00) (149, 2.93702036142349243164e-01) (150, -1.19865465164184570312e+00) (151, -1.28270119428634643555e-01) (152, 6.33231449127197265625e+00) (153, 3.72683465480804443359e-01) (154, -2.04119091033935546875e+01) (155, -8.93696963787078857422e-01) (156, 2.27624249458312988281e+00) (157, -1.66121912002563476562e+00) (158, 2.07456183433532714844e+00) (159, -8.29650700092315673828e-01) (160, 3.14306569099426269531e+00) (161, 1.91123142838478088379e-01) (162, 2.43241477012634277344e+00) (163, 2.94452524185180664062e+00) (164, 7.06237268447875976562e+00) (165, 5.86228609085083007812e-01) (166, 1.00368332862854003906e+00) (167, 5.44230878353118896484e-01) (168, 3.89507079124450683594e+00) (169, -2.41355061531066894531e+00) (170, 2.43788456916809082031e+00) (171, -5.04716277122497558594e-01) (172, 1.77844211459159851074e-01) (173, -1.84818935394287109375e+00) (174, -5.23864990100264549255e-03) (175, 2.89928483963012695312e+00) (176, -1.08301579952239990234e+00) (177, 4.72815036773681640625e-02) (178, 5.02171158790588378906e-01) (179, 4.26026999950408935547e-01) (180, -7.15096712112426757812e+00) (181, -6.67371416091918945312e+00) (182, 7.22249317169189453125e+00) (183, 8.19275856018066406250e-01) (184, 3.14268994331359863281e+00) (185, 1.41958427429199218750e+00) (186, -4.39164847135543823242e-01) (187, -1.65185546875000000000e+00) (188, -7.23469614982604980469e-01) (189, 6.63205146789550781250e-01) (190, -1.00892410278320312500e+01) (191, -7.55777168273925781250e+00) (192, -6.82963562011718750000e+00) (193, -1.76457715034484863281e+00) (194, 2.53567242622375488281e+00) (195, 2.35520407557487487793e-01) (196, 1.50000000000000000000e+03) (197, 1.50000000000000000000e+03) (198, 1.50000000000000000000e+03) (199, 1.50000000000000000000e+03) (200, -2.03342929482460021973e-01) (201, -2.92069053649902343750e+00) (202, 4.92544746398925781250e+00) (0, -2.31930572509765625000e+02) (1, 6.11342506408691406250e+01) (2, -1.44173187255859375000e+02) (3, 1.43871583938598632812e+01) (4, 1.00429296493530273438e+01) (5, 7.05325222015380859375e+00) (6, 2.92357807159423828125e+01) (7, 7.95694160461425781250e+00) (8, 4.58120002746582031250e+01) (9, 1.58308582305908203125e+01) (10, 2.53444351196289062500e+02) (11, 1.07970527648925781250e+02) (12, 9.59893417358398437500e+00) (13, 1.45334358215332031250e+01) (14, 3.75593042373657226562e+00) (15, 1.38029031753540039062e+01) (16, 2.46382846832275390625e+01) (17, 8.81682491302490234375e+00) (18, 3.61835365295410156250e+01) (19, 9.25418472290039062500e+00) (20, -9.03765964508056640625e+00) (21, 2.00754013061523437500e+01) (22, -7.29971237182617187500e+01) (23, 1.18716573715209960938e+01) (24, 3.50821723937988281250e+01) (25, 1.28118009567260742188e+01) (26, 1.25127517700195312500e+02) (27, 8.87941551208496093750e+00) (28, 1.08369579315185546875e+01) (29, 2.36683635711669921875e+01) (30, 1.79423065185546875000e+01) (31, 7.38126039505004882812e+00) (32, 5.61342285156250000000e+02) (33, 2.69282951354980468750e+01) (34, -6.95842437744140625000e+01) (35, 1.03803310394287109375e+01) (36, 5.38404884338378906250e+01) (37, 1.18871860504150390625e+01) (38, 5.81850528717041015625e+00) (39, 7.64881515502929687500e+00) (40, 7.05274343490600585938e+00) (41, 5.30510663986206054688e+00) (42, -1.02081642150878906250e+01) (43, 4.16806173324584960938e+00) (44, -2.79113407135009765625e+01) (45, 1.13338088989257812500e+01) (46, -1.04769909667968750000e+03) (47, 1.84067325592041015625e+01) (48, -5.85576400756835937500e+01) (49, 8.51356506347656250000e+00) (50, -2.52076873779296875000e+02) (51, 6.50632619857788085938e+00) (52, -2.41037902832031250000e+01) (53, 4.53725814819335937500e+00) (54, -2.61081146240234375000e+02) (55, 6.78758430480957031250e+00) (56, -5.64191865921020507812e+00) (57, 9.20325088500976562500e+00) (58, 1.88148760795593261719e+00) (59, 1.28829488754272460938e+01) (60, 8.77280197143554687500e+01) (61, 1.36135425567626953125e+01) (62, 3.56389556884765625000e+02) (63, 3.34241256713867187500e+01) (64, 2.57441833496093750000e+02) (65, 2.49322814941406250000e+01) (66, 1.29393249511718750000e+02) (67, 4.84242630004882812500e+00) (68, -8.14628906250000000000e+02) (69, 4.24925470352172851562e+00) (70, -1.03657508850097656250e+02) (71, 2.16673970222473144531e+00) (72, -9.31510162353515625000e+01) (73, 4.86787033081054687500e+00) (74, -1.45111074447631835938e+01) (75, 7.09568691253662109375e+00) (76, 6.17228126525878906250e+00) (77, 9.81583404541015625000e+00) (78, 8.67767524719238281250e+00) (79, 2.56358680725097656250e+01) (80, 3.21469569206237792969e+00) (81, 1.27066406250000000000e+02) (82, 2.06256651878356933594e+00) (83, 1.02601127624511718750e+01) (84, 6.25614643096923828125e+00) (85, 1.55322587490081787109e+00) (86, 3.56929469108581542969e+00) (87, 2.06654715538024902344e+00) (88, 2.53349056243896484375e+01) (89, -1.90343353897333145142e-02) (90, 4.95300388336181640625e+00) (91, 6.84804964065551757812e+00) (92, 3.23927140235900878906e+00) (93, 5.95353746414184570312e+00) (94, 2.31690483093261718750e+01) (95, 9.57067871093750000000e+00) (96, 3.03295421600341796875e+00) (97, 7.81396818161010742188e+00) (98, 3.10869932174682617188e+00) (99, 5.31154203414916992188e+00) (100, 4.11974191665649414062e+00) (101, 3.68929648399353027344e+00) (102, -4.67666864395141601562e+00) (103, 6.32068967819213867188e+00) (104, -4.18795433044433593750e+01) (105, 1.27710113525390625000e+01) (106, 3.31565546989440917969e+00) (107, 1.59520387649536132812e+01) (108, 8.50019454956054687500e+00) (109, 2.61539053916931152344e+00) (110, 4.06476688385009765625e+00) (111, 7.00606870651245117188e+00) (112, -2.91122937202453613281e+00) (113, 1.33012809753417968750e+01) (114, -1.91373428344726562500e+02) (115, 9.27836227416992187500e+00) (116, -1.65290435791015625000e+02) (117, 8.36317253112792968750e+00) (118, -4.37584259033203125000e+02) (119, -4.69755023717880249023e-01) (120, -6.65920782089233398438e+00) (121, 2.44651079177856445312e+00) (122, 1.10264549255371093750e+01) (123, 1.29719758033752441406e+00) (124, 1.92246932983398437500e+01) (125, -1.30591487884521484375e+01) (126, 2.32401332855224609375e+01) (127, -1.79340636730194091797e+00) (128, 5.15932321548461914062e+00) (129, -8.74167740345001220703e-01) (130, 5.36422443389892578125e+00) (131, 5.25050044059753417969e-01) (132, 8.85842227935791015625e+00) (133, 9.68299865722656250000e+00) (134, -2.48948379516601562500e+02) (135, 6.05129766464233398438e+00) (136, -5.22853775024414062500e+01) (137, 7.03977823257446289062e-01) (138, 7.29072451591491699219e-01) (139, 1.76365852355957031250e+00) (140, 5.73277521133422851562e+00) (141, 4.82013893127441406250e+00) (142, 1.35906381607055664062e+01) (143, 6.86489152908325195312e+00) (144, 7.36375244140625000000e+02) (145, 6.04025888442993164062e+00) (146, 2.22855873107910156250e+01) (147, 5.89454078674316406250e+00) (148, 6.03261470794677734375e+00) (149, -6.35685443878173828125e+00) (150, -1.08207225799560546875e+01) (151, 5.53794622421264648438e+00) (152, -3.98562889099121093750e+01) (153, 7.59185504913330078125e+00) (154, -1.39357116699218750000e+03) (155, 8.19597339630126953125e+00) (156, 1.07756605148315429688e+01) (157, 8.05317001342773437500e+01) (158, 5.34318113327026367188e+00) (159, 1.65360488891601562500e+02) (160, 1.12383565902709960938e+01) (161, 1.55456809997558593750e+01) (162, 5.26482295989990234375e+00) (163, 2.19058700561523437500e+02) (164, 3.67824859619140625000e+01) (165, 6.40169677734375000000e+01) (166, 7.93812316894531250000e+02) (167, 4.79697387695312500000e+02) (168, 9.35960922241210937500e+01) (169, 5.89422845840454101562e+00) (170, 9.07207870483398437500e+00) (171, 3.40842270851135253906e+00) (172, 4.14231758117675781250e+01) (173, 6.88347625732421875000e+00) (174, 2.43451881408691406250e+01) (175, 6.16611003875732421875e+00) (176, 6.39356946945190429688e+00) (177, 5.34038972854614257812e+00) (178, 1.56154193878173828125e+01) (179, 2.79307889938354492188e+00) (180, -1.50000000000000000000e+03) (181, -1.27597808837890625000e+01) (182, -5.65011962890625000000e+02) (183, -2.37347583770751953125e+01) (184, 2.09713867187500000000e+02) (185, 2.31485819816589355469e+00) (186, 3.56408615112304687500e+01) (187, 5.50372171401977539062e+00) (188, 1.53102462768554687500e+02) (189, 8.32103061676025390625e+00) (190, 2.56247528076171875000e+02) (191, 6.88011169433593750000e+00) (192, -9.48543090820312500000e+02) (193, 3.19716186523437500000e+01) (194, -1.34245819091796875000e+02) (195, 1.09160938262939453125e+01) (196, 1.50000000000000000000e+03) (197, 1.50000000000000000000e+03) (198, 1.50000000000000000000e+03) (199, 1.50000000000000000000e+03) (200, 3.50337505340576171875e+00) (201, 1.87820831298828125000e+02) (202, -2.77403182983398437500e+01) (0, -1.50000000000000000000e+03) (1, -1.49987426757812500000e+03) (2, -1.50000000000000000000e+03) (3, -1.49990173339843750000e+03) (4, -1.50000000000000000000e+03) (5, -1.49995690917968750000e+03) (6, -1.50000000000000000000e+03) (7, -1.49995556640625000000e+03) (8, -1.49937280273437500000e+03) (9, -1.49996142578125000000e+03) (10, -1.50000000000000000000e+03) (11, -1.49995861816406250000e+03) (12, -1.49557312011718750000e+03) (13, -1.50000000000000000000e+03) (14, -1.50000000000000000000e+03) (15, -1.49991577148437500000e+03) (16, -1.50000000000000000000e+03) (17, -1.50000000000000000000e+03) (18, -1.50000000000000000000e+03) (19, -1.50000000000000000000e+03) (20, -1.50000000000000000000e+03) (21, -1.50000000000000000000e+03) (22, -1.50000000000000000000e+03) (23, -1.50000000000000000000e+03) (24, -1.50000000000000000000e+03) (25, -1.50000000000000000000e+03) (26, -1.50000000000000000000e+03) (27, -1.50000000000000000000e+03) (28, -1.50000000000000000000e+03) (29, -1.50000000000000000000e+03) (30, -1.50000000000000000000e+03) (31, -1.49995251464843750000e+03) (32, -1.49930578613281250000e+03) (33, -1.50000000000000000000e+03) (34, -1.50000000000000000000e+03) (35, -1.43010815429687500000e+03) (36, -6.34263549804687500000e+02) (37, 1.50000000000000000000e+03) (38, -1.50000000000000000000e+03) (39, 1.33352819824218750000e+03) (40, -1.49999157714843750000e+03) (41, 1.49986340332031250000e+03) (42, -1.50000000000000000000e+03) (43, 1.49967077636718750000e+03) (44, -1.50000000000000000000e+03) (45, -1.50000000000000000000e+03) (46, -1.50000000000000000000e+03) (47, 1.44120751953125000000e+03) (48, -1.50000000000000000000e+03) (49, -1.50000000000000000000e+03) (50, -1.50000000000000000000e+03) (51, -1.50000000000000000000e+03) (52, -1.50000000000000000000e+03) (53, -1.49987805175781250000e+03) (54, -1.50000000000000000000e+03) (55, -1.49996105957031250000e+03) (56, -1.49999414062500000000e+03) (57, -1.49987353515625000000e+03) (58, -1.50000000000000000000e+03) (59, -1.49980957031250000000e+03) (60, 1.50000000000000000000e+03) (61, -1.49991857910156250000e+03) (62, 1.50000000000000000000e+03) (63, -1.49995581054687500000e+03) (64, 1.50000000000000000000e+03) (65, -1.49987097167968750000e+03) (66, 1.50000000000000000000e+03) (67, -1.49994128417968750000e+03) (68, 1.50000000000000000000e+03) (69, -1.49989575195312500000e+03) (70, -1.49995825195312500000e+03) (71, -1.49995800781250000000e+03) (72, -1.49952087402343750000e+03) (73, -1.49996008300781250000e+03) (74, -1.50000000000000000000e+03) (75, -1.50000000000000000000e+03) (76, -1.50000000000000000000e+03) (77, -1.50000000000000000000e+03) (78, -1.50000000000000000000e+03) (79, -1.50000000000000000000e+03) (80, -1.50000000000000000000e+03) (81, -1.49995861816406250000e+03) (82, -1.50000000000000000000e+03) (83, -1.50000000000000000000e+03) (84, -1.50000000000000000000e+03) (85, -1.50000000000000000000e+03) (86, -1.50000000000000000000e+03) (87, -1.50000000000000000000e+03) (88, -1.50000000000000000000e+03) (89, -1.50000000000000000000e+03) (90, -1.50000000000000000000e+03) (91, -1.50000000000000000000e+03) (92, -1.50000000000000000000e+03) (93, -1.49996044921875000000e+03) (94, -1.50000000000000000000e+03) (95, -1.49998718261718750000e+03) (96, -1.50000000000000000000e+03) (97, -1.49987231445312500000e+03) (98, -1.50000000000000000000e+03) (99, -1.50000000000000000000e+03) (100, -1.50000000000000000000e+03) (101, -1.49995166015625000000e+03) (102, -1.50000000000000000000e+03) (103, -1.49996008300781250000e+03) (104, -1.50000000000000000000e+03) (105, -1.50000000000000000000e+03) (106, -1.50000000000000000000e+03) (107, -1.50000000000000000000e+03) (108, -1.50000000000000000000e+03) (109, -1.49985986328125000000e+03) (110, -1.49995935058593750000e+03) (111, -1.49985656738281250000e+03) (112, -1.49998437500000000000e+03) (113, -1.49996142578125000000e+03) (114, -1.49992248535156250000e+03) (115, -1.49984521484375000000e+03) (116, -1.49999035644531250000e+03) (117, -1.47649645996093750000e+03) (118, -1.50000000000000000000e+03) (119, -1.49982153320312500000e+03) (120, -1.49991748046875000000e+03) (121, -1.49995996093750000000e+03) (122, 1.49994665527343750000e+03) (123, 1.43928735351562500000e+03) (124, -1.50000000000000000000e+03) (125, -1.49996032714843750000e+03) (126, -1.49384924316406250000e+03) (127, 1.50000000000000000000e+03) (128, -5.67656250000000000000e+02) (129, -1.49995935058593750000e+03) (130, 1.50000000000000000000e+03) (131, -1.49885632324218750000e+03) (132, -1.50000000000000000000e+03) (133, 1.50000000000000000000e+03) (134, -1.50000000000000000000e+03) (135, -1.49864831542968750000e+03) (136, -1.50000000000000000000e+03) (137, -1.49986047363281250000e+03) (138, -1.50000000000000000000e+03) (139, -1.49986694335937500000e+03) (140, 1.50000000000000000000e+03) (141, 1.50000000000000000000e+03) (142, 1.50000000000000000000e+03) (143, -1.49325817871093750000e+03) (144, 1.50000000000000000000e+03) (145, 1.50000000000000000000e+03) (146, 1.50000000000000000000e+03) (147, -1.49989306640625000000e+03) (148, 1.50000000000000000000e+03) (149, -1.49988598632812500000e+03) (150, 1.50000000000000000000e+03) (151, -1.49991027832031250000e+03) (152, 1.50000000000000000000e+03) (153, -8.55827209472656250000e+02) (154, 1.50000000000000000000e+03) (155, -1.49954028320312500000e+03) (156, -1.50000000000000000000e+03) (157, -1.49995751953125000000e+03) (158, -1.50000000000000000000e+03) (159, -1.49995837402343750000e+03) (160, 1.49978674316406250000e+03) (161, -1.50000000000000000000e+03) (162, -2.89206268310546875000e+02) (163, -1.49998132324218750000e+03) (164, 1.50000000000000000000e+03) (165, -1.50000000000000000000e+03) (166, 1.50000000000000000000e+03) (167, -1.50000000000000000000e+03) (168, -1.50000000000000000000e+03) (169, -1.49991723632812500000e+03) (170, -1.50000000000000000000e+03) (171, -1.49991687011718750000e+03) (172, -1.49995678710937500000e+03) (173, -1.49957836914062500000e+03) (174, 1.50000000000000000000e+03) (175, -1.49995788574218750000e+03) (176, 1.50000000000000000000e+03) (177, -1.49956188964843750000e+03) (178, -1.49993542480468750000e+03) (179, -1.49991320800781250000e+03) (180, 2.25057617187500000000e+02) (181, -1.50000000000000000000e+03) (182, -1.49905090332031250000e+03) (183, -1.49979077148437500000e+03) (184, 1.50000000000000000000e+03) (185, -1.50000000000000000000e+03) (186, 1.50000000000000000000e+03) (187, -1.42504003906250000000e+03) (188, 1.50000000000000000000e+03) (189, -1.50000000000000000000e+03) (190, 1.50000000000000000000e+03) (191, -1.50000000000000000000e+03) (192, 1.50000000000000000000e+03) (193, -1.49999841308593750000e+03) (194, 1.50000000000000000000e+03) (195, -1.50000000000000000000e+03) (196, 1.50000000000000000000e+03) (197, 1.50000000000000000000e+03) (198, 1.50000000000000000000e+03) (199, 1.50000000000000000000e+03) (200, -1.47437976074218750000e+03) (201, -1.48774658203125000000e+03) (202, 1.47653442382812500000e+03) (0, 3.48925590515136718750e+00) (1, 2.66807961463928222656e+00) (2, 8.13367557525634765625e+00) (3, 1.40080070495605468750e+00) (4, -3.36739778518676757812e+00) (5, -2.06697535514831542969e+00) (6, 1.79130649566650390625e+00) (7, -2.24897694587707519531e+00) (8, -2.47340619564056396484e-01) (9, 2.48944091796875000000e+00) (10, 8.08227539062500000000e+00) (11, 1.51137840747833251953e+00) (12, -6.13588809967041015625e+00) (13, -8.53589653968811035156e-01) (14, -6.29594850540161132812e+00) (15, -1.74803113937377929688e+00) (16, 3.69626855850219726562e+00) (17, -5.03278017044067382812e-01) (18, -3.29345536231994628906e+00) (19, -1.99746966361999511719e+00) (20, 1.52500271797180175781e+00) (21, 1.54567277058959007263e-02) (22, -1.98934328556060791016e+00) (23, -4.72840905189514160156e-01) (24, -1.85689985752105712891e+00) (25, -4.26943480968475341797e-01) (26, -1.80376470088958740234e-02) (27, -1.91636770963668823242e-01) (28, 3.33889627456665039062e+00) (29, 5.07581472396850585938e+00) (30, 3.66523241996765136719e+00) (31, 2.48787021636962890625e+00) (32, -1.08943481445312500000e+01) (33, -1.77112770080566406250e+00) (34, -2.77049732208251953125e+00) (35, -2.48567271232604980469e+00) (36, 1.03868842124938964844e+00) (37, -1.75826275348663330078e+00) (38, 6.08459949493408203125e-01) (39, -7.45076477527618408203e-01) (40, 4.49362564086914062500e+00) (41, -1.76282131671905517578e+00) (42, 2.49964761734008789062e+00) (43, -4.40325784683227539062e+00) (44, 1.99904334545135498047e+00) (45, -5.31332206726074218750e+00) (46, 1.07669153213500976562e+01) (47, -8.19326019287109375000e+00) (48, 9.64689254760742187500e-01) (49, -4.97332286834716796875e+00) (50, 2.00526213645935058594e+00) (51, -9.15018272399902343750e+00) (52, -1.67713379859924316406e+00) (53, -3.89050006866455078125e+00) (54, -6.00111722946166992188e+00) (55, -3.05148363113403320312e-01) (56, 7.86916077136993408203e-01) (57, 1.57825088500976562500e+00) (58, -9.25788879394531250000e+00) (59, 2.50998544692993164062e+00) (60, -7.78480672836303710938e+00) (61, 4.67264175415039062500e+00) (62, -6.36701822280883789062e+00) (63, 1.10244913101196289062e+01) (64, -8.17034816741943359375e+00) (65, 3.90850591659545898438e+00) (66, -1.93672866821289062500e+01) (67, 1.28482186794281005859e+00) (68, -1.00276679992675781250e+01) (69, -1.51515990495681762695e-01) (70, -6.35524034500122070312e+00) (71, 4.85201358795166015625e+00) (72, 1.21161985397338867188e+01) (73, -1.32695531845092773438e+00) (74, -2.04756145477294921875e+01) (75, 1.09070467948913574219e+00) (76, 3.34877490997314453125e+00) (77, 1.71191370487213134766e+00) (78, 1.39850006103515625000e+01) (79, 7.37816858291625976562e+00) (80, 5.38243114948272705078e-01) (81, 4.13214206695556640625e+00) (82, -5.93703329563140869141e-01) (83, 4.94487142562866210938e+00) (84, -1.30454921722412109375e+00) (85, -3.31256556510925292969e+00) (86, -1.74880731105804443359e+00) (87, 1.57404470443725585938e+00) (88, 1.22046079635620117188e+01) (89, -5.28249382972717285156e-01) (90, -2.08938813209533691406e+00) (91, -3.00995659828186035156e+00) (92, -2.17860150337219238281e+00) (93, -2.51293087005615234375e+00) (94, 1.15806055068969726562e+00) (95, -3.23321914672851562500e+00) (96, -1.03211557865142822266e+00) (97, 2.84311676025390625000e+00) (98, -2.16943955421447753906e+00) (99, -1.31761145591735839844e+00) (100, -5.21064877510070800781e-01) (101, 6.25208735466003417969e-01) (102, 2.86349177360534667969e+00) (103, 1.63022816181182861328e+00) (104, -2.16210174560546875000e+00) (105, 2.04809665679931640625e+00) (106, 3.85351967811584472656e+00) (107, -3.49395728111267089844e+00) (108, 2.88704919815063476562e+00) (109, -2.81124919652938842773e-01) (110, 1.09016454219818115234e+00) (111, 4.27792644500732421875e+00) (112, -3.32953739166259765625e+00) (113, -9.45954620838165283203e-01) (114, 4.79212951660156250000e+00) (115, 5.31121075153350830078e-01) (116, -2.49229931831359863281e+00) (117, -3.26203131675720214844e+00) (118, 1.78920726776123046875e+01) (119, -2.87350475788116455078e-01) (120, -2.70908761024475097656e+00) (121, -2.80500817298889160156e+00) (122, -7.03251218795776367188e+00) (123, 2.49047112464904785156e+00) (124, -1.10559916496276855469e+00) (125, 3.59796255826950073242e-01) (126, 3.04674315452575683594e+00) (127, 2.08260583877563476562e+00) (128, 3.50841522216796875000e+00) (129, -2.97437119483947753906e+00) (130, -4.50494861602783203125e+00) (131, 2.67770934104919433594e+00) (132, -7.08757281303405761719e-01) (133, -4.19716024398803710938e+00) (134, -6.91954326629638671875e+00) (135, -8.04717540740966796875e+00) (136, 3.63728976249694824219e+00) (137, -9.37230825424194335938e-01) (138, 2.35810503363609313965e-01) (139, -2.99783468246459960938e+00) (140, 2.65471816062927246094e+00) (141, -3.16253125667572021484e-01) (142, 7.26929759979248046875e+00) (143, 2.33119988441467285156e+00) (144, -2.64414596557617187500e+00) (145, -2.02264159917831420898e-01) (146, 6.71585464477539062500e+00) (147, -7.25808918476104736328e-01) (148, 2.20031833648681640625e+00) (149, -2.39388197660446166992e-01) (150, -1.33053135871887207031e+00) (151, -3.09161520004272460938e+00) (152, 5.07406234741210937500e+00) (153, 3.84840774536132812500e+00) (154, -3.14871478080749511719e+00) (155, -3.27243268489837646484e-01) (156, 1.81300318241119384766e+00) (157, 4.90382862091064453125e+00) (158, 2.89643704891204833984e-01) (159, -2.49605321884155273438e+00) (160, -3.07986354827880859375e+00) (161, 1.11758232116699218750e+00) (162, -9.12136435508728027344e-01) (163, 7.98183977603912353516e-01) (164, -8.42732429504394531250e+00) (165, 2.35690400004386901855e-01) (166, -2.11792635917663574219e+00) (167, -7.23934412002563476562e+00) (168, 4.35319995880126953125e+00) (169, 9.12518978118896484375e-01) (170, 9.14780712127685546875e+00) (171, 2.28150829672813415527e-01) (172, 4.47254449129104614258e-01) (173, -5.15310335159301757812e+00) (174, -2.34203666448593139648e-01) (175, -1.25931310653686523438e+01) (176, 1.66775792837142944336e-01) (177, -1.48023116588592529297e+00) (178, -2.27876710891723632812e+00) (179, 1.83045554161071777344e+00) (180, -1.11407101154327392578e+00) (181, -2.14047360420227050781e+00) (182, 5.88396906852722167969e-01) (183, -1.92028057575225830078e+00) (184, 7.53846216201782226562e+00) (185, -4.66061258316040039062e+00) (186, 4.80764055252075195312e+00) (187, -3.54072856903076171875e+00) (188, 4.70741891860961914062e+00) (189, -1.98730587959289550781e+00) (190, 1.92915821075439453125e+01) (191, -1.01005125045776367188e+00) (192, -1.61371955871582031250e+01) (193, -3.00674676895141601562e+00) (194, -1.33103399276733398438e+01) (195, -3.61932063102722167969e+00) (196, 1.50000000000000000000e+03) (197, 1.50000000000000000000e+03) (198, 1.50000000000000000000e+03) (199, 1.50000000000000000000e+03) (200, -2.13780388236045837402e-01) (201, -1.14526929855346679688e+01) (202, 6.42715883255004882812e+00) (0, 5.93583583831787109375e+00) (1, 1.25879859924316406250e+00) (2, -5.81256151199340820312e+00) (3, -3.04272621870040893555e-01) (4, -8.41117382049560546875e-01) (5, -6.31374597549438476562e-01) (6, -1.89323842525482177734e-01) (7, -2.58295843377709388733e-03) (8, 9.45184469223022460938e-01) (9, -7.87513181567192077637e-02) (10, 5.94173073768615722656e-01) (11, -4.70159053802490234375e-01) (12, 1.72011661529541015625e+00) (13, -8.32161962985992431641e-01) (14, -2.48151779174804687500e-01) (15, -8.42656672000885009766e-01) (16, -7.38859295845031738281e-01) (17, 1.79995334148406982422e+00) (18, 1.82255148887634277344e+00) (19, -1.45482468605041503906e+00) (20, 1.94247853755950927734e+00) (21, 1.50434141978621482849e-02) (22, -1.10224634408950805664e-01) (23, -1.41993775963783264160e-01) (24, 4.85057294368743896484e-01) (25, -5.97650587558746337891e-01) (26, -3.66133260726928710938e+00) (27, -5.41356265544891357422e-01) (28, 8.51264357566833496094e-01) (29, 7.12836205959320068359e-01) (30, 1.88932049274444580078e+00) (31, 1.03696012496948242188e+00) (32, -3.04148006439208984375e+00) (33, 5.09023070335388183594e-01) (34, -5.07957220077514648438e-01) (35, 1.31131613254547119141e+00) (36, 2.10174655914306640625e+00) (37, 1.31442558765411376953e+00) (38, -9.65491592884063720703e-01) (39, -4.22928959131240844727e-01) (40, 1.29781174659729003906e+00) (41, 3.12465876340866088867e-01) (42, -1.75658488273620605469e+00) (43, -2.10958909988403320312e+00) (44, 8.89909327030181884766e-01) (45, 1.11780905723571777344e+00) (46, 8.09634625911712646484e-01) (47, -2.79128044843673706055e-01) (48, 2.21690721809864044189e-03) (49, -1.23334610462188720703e+00) (50, 6.10704421997070312500e-01) (51, 1.48083090782165527344e-01) (52, 3.91988068819046020508e-01) (53, 1.91730570793151855469e+00) (54, -1.29604756832122802734e-01) (55, -1.02905750274658203125e+00) (56, -2.17559933662414550781e+00) (57, 5.12312119826674461365e-03) (58, -2.24700593948364257812e+00) (59, 5.18556952476501464844e-01) (60, -1.91662698984146118164e-01) (61, 8.89847517013549804688e-01) (62, 4.11569929122924804688e+00) (63, 1.01451206207275390625e+00) (64, 1.29590010643005371094e+00) (65, -1.42279243469238281250e+00) (66, 3.24988460540771484375e+00) (67, -1.82953393459320068359e+00) (68, -2.67532539367675781250e+00) (69, -1.90242946147918701172e-01) (70, 1.58302024006843566895e-01) (71, 4.85130757093429565430e-01) (72, -2.10867807269096374512e-01) (73, -1.33892703056335449219e+00) (74, -1.51621317863464355469e+00) (75, 1.06039428710937500000e+00) (76, -5.86639583110809326172e-01) (77, 1.44406974315643310547e+00) (78, -1.58274757862091064453e+00) (79, 2.98699200153350830078e-01) (80, -1.68552339076995849609e+00) (81, -9.55583453178405761719e-01) (82, -1.17602455615997314453e+00) (83, -8.50532948970794677734e-01) (84, -8.92458319664001464844e-01) (85, 9.80179011821746826172e-01) (86, 1.93281495571136474609e+00) (87, 5.36944806575775146484e-01) (88, 5.97751235961914062500e+00) (89, 1.39065098762512207031e+00) (90, -1.26115277409553527832e-01) (91, -1.16588568687438964844e+00) (92, 3.94821691513061523438e+00) (93, -4.96066987514495849609e-01) (94, -2.65365195274353027344e+00) (95, 2.05086603760719299316e-01) (96, 9.86849606037139892578e-01) (97, -2.96027660369873046875e-01) (98, -2.52132296562194824219e+00) (99, -1.68324577808380126953e+00) (100, 2.04107213020324707031e+00) (101, -1.54079228639602661133e-01) (102, -6.28383755683898925781e-01) (103, -4.16371941566467285156e-01) (104, 1.86041152477264404297e+00) (105, 1.11381781101226806641e+00) (106, 3.66203486919403076172e-02) (107, 1.10344469547271728516e+00) (108, -2.39787745475769042969e+00) (109, -1.88732755184173583984e+00) (110, -2.40365982055664062500e+00) (111, -3.08538913726806640625e-01) (112, 2.29100704193115234375e+00) (113, 2.59763693809509277344e+00) (114, 2.92110466957092285156e+00) (115, 4.96898800134658813477e-01) (116, -1.47841584682464599609e+00) (117, 5.89072108268737792969e-01) (118, 1.80889391899108886719e+00) (119, -7.82677769660949707031e-01) (120, 1.07158824801445007324e-01) (121, -1.41771584749221801758e-01) (122, 1.38727501034736633301e-01) (123, 1.54438626766204833984e+00) (124, 1.61855742335319519043e-02) (125, -9.15803313255310058594e-02) (126, -1.38527357578277587891e+00) (127, -2.79425889253616333008e-01) (128, 1.83971178531646728516e+00) (129, -1.00460171699523925781e+00) (130, 1.70152890682220458984e+00) (131, 8.17607045173645019531e-01) (132, 4.57089036703109741211e-01) (133, -3.32808017730712890625e-01) (134, 8.48691999912261962891e-01) (135, -5.44714927673339843750e-01) (136, 1.90201386809349060059e-01) (137, -3.33432704210281372070e-01) (138, -7.89186060428619384766e-01) (139, 7.46965348720550537109e-01) (140, 7.21427425742149353027e-02) (141, -1.55187651515007019043e-01) (142, 4.12583258002996444702e-03) (143, 3.73985111713409423828e-01) (144, 3.07904267311096191406e+00) (145, -1.64660453796386718750e+00) (146, -1.01633644104003906250e+00) (147, 8.33002567291259765625e-01) (148, -4.36590003967285156250e+00) (149, 8.41212809085845947266e-01) (150, 1.64619660377502441406e+00) (151, -3.05386424064636230469e-01) (152, -1.71958732604980468750e+00) (153, 8.96734118461608886719e-01) (154, 1.47521572113037109375e+01) (155, -4.11771953105926513672e-01) (156, 6.71764165163040161133e-02) (157, -3.34977418184280395508e-01) (158, -1.29787266254425048828e-01) (159, -1.04851984977722167969e+00) (160, 2.80430054664611816406e+00) (161, -3.81457239389419555664e-01) (162, -2.19502568244934082031e-01) (163, 7.63351082801818847656e-01) (164, 3.92185044288635253906e+00) (165, 2.99486387521028518677e-02) (166, -1.97469723224639892578e+00) (167, -4.83093917369842529297e-01) (168, -7.52148568630218505859e-01) (169, -1.31837654113769531250e+00) (170, -1.99974203109741210938e+00) (171, -1.76985144615173339844e+00) (172, -7.41086244583129882812e-01) (173, 1.54321396350860595703e+00) (174, 2.16126489639282226562e+00) (175, -1.62424039840698242188e+00) (176, 2.09190464019775390625e+00) (177, 1.33655321598052978516e+00) (178, -6.38705849647521972656e-01) (179, -1.47089630365371704102e-01) (180, -6.31775259971618652344e-01) (181, 4.88972157239913940430e-01) (182, 1.20165574550628662109e+00) (183, 1.62515532970428466797e+00) (184, -1.51031303405761718750e+00) (185, -5.76214313507080078125e-01) (186, 1.24435555934906005859e+00) (187, -1.61972057819366455078e+00) (188, 7.16416120529174804688e-01) (189, 4.95847493410110473633e-01) (190, -2.66374975442886352539e-01) (191, -1.37272691726684570312e+00) (192, 6.44228363037109375000e+00) (193, -4.01686370372772216797e-01) (194, -5.45094132423400878906e-01) (195, 1.95539152622222900391e+00) (196, 1.50000000000000000000e+03) (197, 1.50000000000000000000e+03) (198, 1.50000000000000000000e+03) (199, 1.50000000000000000000e+03) (200, -1.31992161273956298828e-01) (201, -5.71008026599884033203e-01) (202, 4.64721441268920898438e-01) (0, -3.08842864990234375000e+02) (1, 3.28213500976562500000e+01) (2, -2.81375488281250000000e+02) (3, 2.31504516601562500000e+01) (4, 4.88440370559692382812e+00) (5, 3.00577239990234375000e+01) (6, 3.47315216064453125000e+00) (7, 8.31862545013427734375e+00) (8, 8.29221878051757812500e+01) (9, 1.17358465194702148438e+01) (10, -1.19679193496704101562e+01) (11, 1.88427181243896484375e+01) (12, 2.01336326599121093750e+01) (13, 1.40501480102539062500e+01) (14, 5.13135552406311035156e-01) (15, 3.12847824096679687500e+01) (16, -1.88010467529296875000e+02) (17, 8.97798728942871093750e+00) (18, 2.08680987358093261719e+00) (19, 8.08731555938720703125e+00) (20, -2.33394432067871093750e+01) (21, 9.99616050720214843750e+00) (22, -2.44214382171630859375e+01) (23, 8.52955436706542968750e+00) (24, 3.74902114868164062500e+01) (25, 1.55113039016723632812e+01) (26, -1.50000000000000000000e+03) (27, 7.41757631301879882812e+00) (28, 7.98344278335571289062e+00) (29, 9.03057575225830078125e+00) (30, -7.93894004821777343750e+00) (31, 1.21980981826782226562e+01) (32, -4.91350585937500000000e+02) (33, 3.76753654479980468750e+01) (34, -6.60179931640625000000e+02) (35, 1.26942968368530273438e+01) (36, 5.04199676513671875000e+02) (37, 1.54986162185668945312e+01) (38, 5.36059331893920898438e+00) (39, 9.93371963500976562500e+00) (40, 2.39396839141845703125e+01) (41, 7.82609128952026367188e+00) (42, 3.45846069335937500000e+02) (43, 6.95333909988403320312e+00) (44, -1.31094665527343750000e+02) (45, 1.97887783050537109375e+01) (46, -1.50000000000000000000e+03) (47, 7.81624908447265625000e+01) (48, -6.41271743774414062500e+01) (49, 1.20218868255615234375e+01) (50, -1.90998973846435546875e+01) (51, 1.74368190765380859375e+01) (52, -4.96783345937728881836e-01) (53, 3.72047853469848632812e+00) (54, -8.30581207275390625000e+01) (55, 8.55149269104003906250e+00) (56, -3.24144248962402343750e+01) (57, 1.16045522689819335938e+01) (58, -1.52223281860351562500e+02) (59, 1.13206434249877929688e+01) (60, -1.58042404174804687500e+02) (61, 2.29023666381835937500e+01) (62, -5.53623962402343750000e+01) (63, 9.39455986022949218750e+00) (64, -1.60567893981933593750e+01) (65, 1.16737451553344726562e+01) (66, 1.28598419189453125000e+02) (67, 2.26781487464904785156e+00) (68, -1.39736706542968750000e+03) (69, 5.41389799118041992188e+00) (70, -2.13874473571777343750e+01) (71, -1.36311016082763671875e+01) (72, 1.59913436889648437500e+02) (73, 4.36290597915649414062e+00) (74, -1.70973937988281250000e+02) (75, 4.97227811813354492188e+00) (76, 8.53497982025146484375e+00) (77, 9.24460792541503906250e+00) (78, 1.62311172485351562500e+02) (79, 1.03201847076416015625e+01) (80, 7.31250476837158203125e+00) (81, 8.45644283294677734375e+00) (82, 7.84815979003906250000e+00) (83, 6.11062335968017578125e+00) (84, 9.54147148132324218750e+00) (85, 4.67878866195678710938e+00) (86, 6.04274845123291015625e+00) (87, 1.35182428359985351562e+00) (88, 2.15069274902343750000e+01) (89, 1.30160498619079589844e+00) (90, 6.88123512268066406250e+00) (91, 4.14093303680419921875e+00) (92, 1.17115333557128906250e+02) (93, 3.51761913299560546875e+00) (94, 9.43628417968750000000e+02) (95, 4.60845518112182617188e+00) (96, 4.15465942382812500000e+02) (97, 4.59341859817504882812e+00) (98, 2.51263408660888671875e+01) (99, 5.57372522354125976562e+00) (100, 1.08724222183227539062e+01) (101, 2.68085265159606933594e+00) (102, 1.22148237228393554688e+01) (103, 5.60196304321289062500e+00) (104, -1.08096039295196533203e+00) (105, 7.92346286773681640625e+00) (106, 4.66836881637573242188e+00) (107, 1.27427024841308593750e+01) (108, 2.77967605590820312500e+01) (109, 9.53279304504394531250e+00) (110, 7.06255960464477539062e+00) (111, 1.68895130157470703125e+01) (112, 1.42633682250976562500e+02) (113, 6.55580091476440429688e+00) (114, -1.24064826965332031250e+02) (115, 1.96286926269531250000e+01) (116, -3.96456642150878906250e+01) (117, 9.56422615051269531250e+00) (118, -2.15808929443359375000e+02) (119, 4.78962850570678710938e+00) (120, 2.11731648445129394531e+00) (121, 5.25703668594360351562e+00) (122, 3.75632476806640625000e+01) (123, 1.98234977722167968750e+01) (124, 6.58766031265258789062e+00) (125, 1.57320690155029296875e+00) (126, 1.86425506591796875000e+02) (127, 5.74788284301757812500e+00) (128, 2.04312667846679687500e+02) (129, 2.10079431533813476562e+00) (130, 1.48549453735351562500e+02) (131, 3.47000193595886230469e+00) (132, 2.45170631408691406250e+01) (133, 5.00380096435546875000e+01) (134, -4.41191040039062500000e+02) (135, 7.54184484481811523438e+00) (136, -3.64177197217941284180e-01) (137, 6.54562759399414062500e+00) (138, 1.29565572738647460938e+01) (139, 7.21138572692871093750e+00) (140, 3.32459449768066406250e+01) (141, 4.90083885192871093750e+00) (142, 4.17051010131835937500e+01) (143, 5.08953475952148437500e+00) (144, 5.63808166503906250000e+02) (145, 1.09445362091064453125e+01) (146, 2.14592361450195312500e+01) (147, 4.65491771697998046875e+00) (148, 5.50846290588378906250e+01) (149, 4.40036201477050781250e+00) (150, 1.67181968688964843750e+00) (151, 3.72881722450256347656e+00) (152, 1.53208601474761962891e+00) (153, 3.18282103538513183594e+00) (154, -1.49999890136718750000e+03) (155, 5.08847999572753906250e+00) (156, 2.33457214355468750000e+02) (157, 1.06340606689453125000e+02) (158, 1.11339673995971679688e+01) (159, 1.45305221557617187500e+02) (160, 3.00788993835449218750e+01) (161, 1.52242279052734375000e+01) (162, 3.68825073242187500000e+01) (163, 2.61926696777343750000e+02) (164, 2.71890525817871093750e+01) (165, 2.72502990722656250000e+02) (166, 4.81306549072265625000e+02) (167, 3.92337921142578125000e+02) (168, 3.43244873046875000000e+02) (169, 2.90559787750244140625e+01) (170, 8.78070259094238281250e+00) (171, 3.66376495361328125000e+01) (172, 1.29961433410644531250e+01) (173, 5.35356979370117187500e+01) (174, 4.49682235717773437500e+01) (175, 1.46205043792724609375e+01) (176, 2.92190194129943847656e+00) (177, 1.97975826263427734375e+00) (178, 2.24733169555664062500e+02) (179, 3.11659908294677734375e+00) (180, -1.50000000000000000000e+03) (181, -6.18833427429199218750e+01) (182, -7.30751037597656250000e+02) (183, -8.48936438560485839844e-01) (184, -1.35637390136718750000e+02) (185, 4.44501924514770507812e+00) (186, 2.03023757934570312500e+01) (187, 1.28109069824218750000e+02) (188, 2.96603851318359375000e+01) (189, 3.82478637695312500000e+01) (190, 1.21745071411132812500e+02) (191, 8.68328952789306640625e+00) (192, -1.02971093750000000000e+03) (193, 4.65848503112792968750e+01) (194, -2.46431320190429687500e+02) (195, 1.21831378936767578125e+01) (196, 1.50000000000000000000e+03) (197, 1.50000000000000000000e+03) (198, 1.50000000000000000000e+03) (199, 1.50000000000000000000e+03) (200, 1.27812356948852539062e+01) (201, -1.50000000000000000000e+03) (202, -4.09048309326171875000e+01) (0, -4.82053136825561523438e+00) (1, 4.75352615118026733398e-01) (2, 3.91902852058410644531e+00) (3, -2.30728983879089355469e+00) (4, -2.12005019187927246094e+00) (5, -2.49337148666381835938e+00) (6, 1.43588089942932128906e+00) (7, -5.15873134136199951172e-01) (8, 1.58258533477783203125e+00) (9, -1.68234312534332275391e+00) (10, 2.06500917673110961914e-01) (11, -2.74871969223022460938e+00) (12, 9.88123476505279541016e-01) (13, 1.05383396148681640625e+00) (14, -3.25920653343200683594e+00) (15, -1.95296680927276611328e+00) (16, 4.52984714508056640625e+00) (17, -6.61727726459503173828e-01) (18, 2.14510828256607055664e-01) (19, 1.17657339572906494141e+00) (20, -1.10038948059082031250e+00) (21, -8.19430470466613769531e-01) (22, -2.59474182128906250000e+00) (23, -5.55215716361999511719e-01) (24, 5.10791921615600585938e+00) (25, -1.57807457447052001953e+00) (26, -3.27951669692993164062e+00) (27, -7.54663407802581787109e-01) (28, -2.61907553672790527344e+00) (29, 1.44603443145751953125e+00) (30, -1.63379073143005371094e+00) (31, 2.35200405120849609375e+00) (32, 4.25621223449707031250e+00) (33, 4.29933100938796997070e-01) (34, -2.17603397369384765625e+00) (35, -3.20663023740053176880e-03) (36, -9.81973350048065185547e-01) (37, -1.45823383331298828125e+00) (38, -3.16542945802211761475e-02) (39, -5.93972623348236083984e-01) (40, 6.13124594092369079590e-02) (41, 6.52826189994812011719e-01) (42, 1.16268062591552734375e+00) (43, -1.78952574729919433594e-01) (44, 4.04380416870117187500e+00) (45, 7.92638599872589111328e-01) (46, -8.98495241999626159668e-02) (47, -7.69751965999603271484e-01) (48, -3.00389695167541503906e+00) (49, 6.95777058601379394531e-01) (50, 2.34782719612121582031e+00) (51, -1.10707187652587890625e+00) (52, -4.16421318054199218750e+00) (53, 1.08634710311889648438e+00) (54, -1.39614331722259521484e+00) (55, 1.39089155197143554688e+00) (56, 6.92131295800209045410e-02) (57, -1.71138119697570800781e+00) (58, -6.99637532234191894531e-01) (59, 1.00257730484008789062e+00) (60, 4.48620939254760742188e+00) (61, -2.97082710266113281250e+00) (62, -2.08847618103027343750e+00) (63, -3.86355340480804443359e-01) (64, -1.15351760387420654297e+00) (65, 2.05365395545959472656e+00) (66, -1.33548867702484130859e+00) (67, 2.82454824447631835938e+00) (68, 1.45999848842620849609e+00) (69, -8.07886779308319091797e-01) (70, -1.07933008670806884766e+00) (71, -1.41911518573760986328e+00) (72, -2.71716165542602539062e+00) (73, 2.11178660392761230469e+00) (74, 1.85193359851837158203e+00) (75, -7.11506605148315429688e-02) (76, -1.84011435508728027344e+00) (77, 4.22733306884765625000e+00) (78, 6.16413414478302001953e-01) (79, -3.38619971275329589844e+00) (80, 5.80712631344795227051e-02) (81, 9.19680237770080566406e-01) (82, 1.02692008018493652344e+00) (83, -1.86712086200714111328e+00) (84, 4.54911375045776367188e+00) (85, 9.70070421695709228516e-01) (86, 3.79699558019638061523e-01) (87, 4.95997399091720581055e-01) (88, -1.87916719913482666016e+00) (89, -4.95703995227813720703e-01) (90, 7.90814936161041259766e-01) (91, 1.70553445816040039062e+00) (92, -1.62259614467620849609e+00) (93, -2.13559484481811523438e+00) (94, 8.54435980319976806641e-01) (95, 7.73827433586120605469e-01) (96, 9.44620907306671142578e-01) (97, -2.69420027732849121094e+00) (98, -8.53280425071716308594e-01) (99, 1.40687048435211181641e+00) (100, -1.41076600551605224609e+00) (101, -2.47132635116577148438e+00) (102, 3.77430176734924316406e+00) (103, 2.04533720016479492188e+00) (104, 1.56767809391021728516e+00) (105, -1.81260168552398681641e-01) (106, -5.09724974632263183594e-01) (107, 3.41477966308593750000e+00) (108, 3.90310734510421752930e-01) (109, 1.09990775585174560547e+00) (110, 3.78219270706176757812e+00) (111, 9.71615254878997802734e-01) (112, 7.52009153366088867188e-01) (113, -4.38043445348739624023e-01) (114, 8.44657838344573974609e-01) (115, 5.08474826812744140625e-01) (116, 1.88888609409332275391e+00) (117, -1.53103077411651611328e+00) (118, 6.58318281173706054688e+00) (119, 4.00090694427490234375e+00) (120, -5.21900951862335205078e-01) (121, -7.35484361648559570312e-01) (122, -6.64337158203125000000e+00) (123, -5.26495158672332763672e-01) (124, 3.33410143852233886719e+00) (125, 2.29523086547851562500e+00) (126, -1.16020798683166503906e+00) (127, 2.75558662414550781250e+00) (128, 1.44183886051177978516e+00) (129, -1.60872733592987060547e+00) (130, -1.90145182609558105469e+00) (131, 3.25498104095458984375e-01) (132, 1.37485349178314208984e+00) (133, -2.32512414455413818359e-01) (134, -3.36147642135620117188e+00) (135, -2.23995590209960937500e+00) (136, 4.83317565917968750000e+00) (137, -6.71114742755889892578e-01) (138, 3.85522127151489257812e+00) (139, 2.48799729347229003906e+00) (140, -1.73445582389831542969e+00) (141, 2.49743461608886718750e+00) (142, -2.44510698318481445312e+00) (143, -1.79372215270996093750e+00) (144, -2.20432209968566894531e+00) (145, 3.01670372486114501953e-01) (146, 4.98182630538940429688e+00) (147, -1.28071975708007812500e+00) (148, -6.41370713710784912109e-02) (149, 3.33369922637939453125e+00) (150, 1.93922924995422363281e+00) (151, -1.48139321804046630859e+00) (152, 2.84978246688842773438e+00) (153, -2.11412930488586425781e+00) (154, 8.18160355091094970703e-01) (155, -1.10182690620422363281e+00) (156, -1.89706489443778991699e-01) (157, -7.04337358474731445312e-01) (158, -4.59906005859375000000e+00) (159, 2.00799369812011718750e+00) (160, -3.67633223533630371094e+00) (161, 7.53263473510742187500e-01) (162, -3.20577412843704223633e-01) (163, -1.01347470283508300781e+00) (164, -2.50067934393882751465e-02) (165, 1.11375188827514648438e+00) (166, -1.82126116752624511719e+00) (167, -1.27696156501770019531e+00) (168, 1.25360155105590820312e+00) (169, 2.80452156066894531250e+00) (170, -7.12860524654388427734e-01) (171, 1.26840025186538696289e-01) (172, 4.63830709457397460938e+00) (173, 4.98437613248825073242e-01) (174, 2.27567267417907714844e+00) (175, 3.54349398612976074219e+00) (176, -6.91654920578002929688e-01) (177, -1.44308888912200927734e+00) (178, -5.26461720466613769531e-01) (179, -4.02885484695434570312e+00) (180, 1.64490783214569091797e+00) (181, 1.95493805408477783203e+00) (182, 1.43735942840576171875e+01) (183, -9.58191081881523132324e-02) (184, -2.61304593086242675781e+00) (185, 1.79967850446701049805e-01) (186, -2.07058811187744140625e+00) (187, -9.88337874412536621094e-01) (188, 2.59661626815795898438e+00) (189, -3.36194366216659545898e-01) (190, -2.52244448661804199219e+00) (191, -2.48647832870483398438e+00) (192, -5.77753973007202148438e+00) (193, -1.39660286903381347656e+00) (194, 1.42409336566925048828e+00) (195, 1.08815467357635498047e+00) (196, 1.50000000000000000000e+03) (197, 1.50000000000000000000e+03) (198, 1.50000000000000000000e+03) (199, 1.50000000000000000000e+03) (200, 1.13521456718444824219e-01) (201, 3.66907882690429687500e+00) (202, 4.69838523864746093750e+00) (0, 1.50000000000000000000e+03) (1, 1.50000000000000000000e+03) (2, 1.50000000000000000000e+03) (3, 1.50000000000000000000e+03) (4, 1.50000000000000000000e+03) (5, 1.50000000000000000000e+03) (6, 1.50000000000000000000e+03) (7, 1.50000000000000000000e+03) (8, 1.50000000000000000000e+03) (9, 1.50000000000000000000e+03) (10, 1.49999707031250000000e+03) (11, 1.50000000000000000000e+03) (12, 1.49996435546875000000e+03) (13, 1.49998522949218750000e+03) (14, 1.49994555664062500000e+03) (15, 1.50000000000000000000e+03) (16, -1.50000000000000000000e+03) (17, 1.50000000000000000000e+03) (18, -1.50000000000000000000e+03) (19, 1.49999169921875000000e+03) (20, 1.49594421386718750000e+03) (21, 1.49110998535156250000e+03) (22, 1.50000000000000000000e+03) (23, 1.50000000000000000000e+03) (24, 1.50000000000000000000e+03) (25, 1.50000000000000000000e+03) (26, 1.50000000000000000000e+03) (27, 1.50000000000000000000e+03) (28, 1.49997106933593750000e+03) (29, 1.49989294433593750000e+03) (30, 1.49999707031250000000e+03) (31, 1.50000000000000000000e+03) (32, 1.50000000000000000000e+03) (33, 1.50000000000000000000e+03) (34, -1.50000000000000000000e+03) (35, 1.50000000000000000000e+03) (36, -1.39784252929687500000e+03) (37, 1.50000000000000000000e+03) (38, 1.49998730468750000000e+03) (39, 1.50000000000000000000e+03) (40, 1.49999035644531250000e+03) (41, 1.50000000000000000000e+03) (42, -1.50000000000000000000e+03) (43, -1.49990124511718750000e+03) (44, -1.50000000000000000000e+03) (45, -1.50000000000000000000e+03) (46, -1.50000000000000000000e+03) (47, -1.50000000000000000000e+03) (48, 1.50000000000000000000e+03) (49, 1.49991979980468750000e+03) (50, 1.50000000000000000000e+03) (51, 1.49999389648437500000e+03) (52, 1.50000000000000000000e+03) (53, 1.49999536132812500000e+03) (54, 1.50000000000000000000e+03) (55, 1.50000000000000000000e+03) (56, 1.50000000000000000000e+03) (57, 1.47848486328125000000e+03) (58, 1.50000000000000000000e+03) (59, 1.50000000000000000000e+03) (60, 1.50000000000000000000e+03) (61, 1.49993762207031250000e+03) (62, 1.50000000000000000000e+03) (63, 1.49727160644531250000e+03) (64, -1.50000000000000000000e+03) (65, 1.50000000000000000000e+03) (66, -5.21161132812500000000e+02) (67, 1.50000000000000000000e+03) (68, 1.47930725097656250000e+03) (69, 1.50000000000000000000e+03) (70, 1.50000000000000000000e+03) (71, 1.50000000000000000000e+03) (72, 1.50000000000000000000e+03) (73, 1.50000000000000000000e+03) (74, 1.50000000000000000000e+03) (75, 1.50000000000000000000e+03) (76, 1.50000000000000000000e+03) (77, 1.50000000000000000000e+03) (78, 1.50000000000000000000e+03) (79, 1.50000000000000000000e+03) (80, 1.50000000000000000000e+03) (81, 1.50000000000000000000e+03) (82, 1.50000000000000000000e+03) (83, 1.50000000000000000000e+03) (84, 1.50000000000000000000e+03) (85, 1.50000000000000000000e+03) (86, -1.49994458007812500000e+03) (87, 1.49689904785156250000e+03) (88, 1.50000000000000000000e+03) (89, 1.50000000000000000000e+03) (90, 1.50000000000000000000e+03) (91, 1.50000000000000000000e+03) (92, 1.49238793945312500000e+03) (93, 1.50000000000000000000e+03) (94, -1.49982263183593750000e+03) (95, 1.50000000000000000000e+03) (96, -1.50000000000000000000e+03) (97, 1.50000000000000000000e+03) (98, -1.50000000000000000000e+03) (99, 1.49989660644531250000e+03) (100, -1.50000000000000000000e+03) (101, 1.50000000000000000000e+03) (102, -1.50000000000000000000e+03) (103, 1.50000000000000000000e+03) (104, 1.49998950195312500000e+03) (105, 1.49999707031250000000e+03) (106, 1.49999035644531250000e+03) (107, 1.49956604003906250000e+03) (108, 1.49999035644531250000e+03) (109, -1.20033731460571289062e+01) (110, 1.50000000000000000000e+03) (111, -1.50000000000000000000e+03) (112, 1.49999035644531250000e+03) (113, -1.50000000000000000000e+03) (114, -6.08755676269531250000e+02) (115, 1.49995471191406250000e+03) (116, -1.50000000000000000000e+03) (117, -1.50000000000000000000e+03) (118, -1.50000000000000000000e+03) (119, -1.50000000000000000000e+03) (120, -1.47414831542968750000e+03) (121, -1.50000000000000000000e+03) (122, -1.50000000000000000000e+03) (123, -1.50000000000000000000e+03) (124, -1.49995031738281250000e+03) (125, 1.44989477539062500000e+03) (126, -1.50000000000000000000e+03) (127, -1.50000000000000000000e+03) (128, -1.50000000000000000000e+03) (129, -1.50000000000000000000e+03) (130, -1.46070642089843750000e+03) (131, 6.28679443359375000000e+02) (132, 1.50000000000000000000e+03) (133, -1.50000000000000000000e+03) (134, 1.49995385742187500000e+03) (135, -1.50000000000000000000e+03) (136, 1.50000000000000000000e+03) (137, 1.50000000000000000000e+03) (138, 1.50000000000000000000e+03) (139, 1.50000000000000000000e+03) (140, -2.52475067138671875000e+02) (141, 1.50000000000000000000e+03) (142, 1.49999536132812500000e+03) (143, 1.50000000000000000000e+03) (144, -1.50000000000000000000e+03) (145, 1.50000000000000000000e+03) (146, -1.50000000000000000000e+03) (147, -1.50000000000000000000e+03) (148, -1.50000000000000000000e+03) (149, 1.50000000000000000000e+03) (150, -1.49998754882812500000e+03) (151, 1.50000000000000000000e+03) (152, 1.45259692382812500000e+03) (153, -1.50000000000000000000e+03) (154, 1.50000000000000000000e+03) (155, 1.49999536132812500000e+03) (156, 1.30301977539062500000e+03) (157, -1.50000000000000000000e+03) (158, 1.49999536132812500000e+03) (159, -1.50000000000000000000e+03) (160, -1.50000000000000000000e+03) (161, -1.50000000000000000000e+03) (162, -1.50000000000000000000e+03) (163, -1.50000000000000000000e+03) (164, -1.50000000000000000000e+03) (165, -1.15888647460937500000e+03) (166, -1.50000000000000000000e+03) (167, -1.50000000000000000000e+03) (168, 1.37524511718750000000e+03) (169, 1.50000000000000000000e+03) (170, -1.50000000000000000000e+03) (171, 1.50000000000000000000e+03) (172, -1.46094494628906250000e+03) (173, 3.03363952636718750000e+02) (174, -1.50000000000000000000e+03) (175, -1.50000000000000000000e+03) (176, -1.50000000000000000000e+03) (177, 1.49999035644531250000e+03) (178, -1.50000000000000000000e+03) (179, 1.50000000000000000000e+03) (180, -1.50000000000000000000e+03) (181, 1.49941284179687500000e+03) (182, -1.50000000000000000000e+03) (183, 1.49995593261718750000e+03) (184, -1.50000000000000000000e+03) (185, 1.49993664550781250000e+03) (186, -1.50000000000000000000e+03) (187, -1.50000000000000000000e+03) (188, -1.50000000000000000000e+03) (189, 1.50000000000000000000e+03) (190, -1.50000000000000000000e+03) (191, 1.50000000000000000000e+03) (192, -1.50000000000000000000e+03) (193, 1.49505334472656250000e+03) (194, -1.49755871582031250000e+03) (195, -1.50000000000000000000e+03) (196, 1.50000000000000000000e+03) (197, 1.50000000000000000000e+03) (198, 1.50000000000000000000e+03) (199, 1.50000000000000000000e+03) (200, 6.03175697326660156250e+01) (201, -1.50000000000000000000e+03) (202, -1.39953442382812500000e+03) (0, -1.50000000000000000000e+03) (1, -1.50000000000000000000e+03) (2, -1.50000000000000000000e+03) (3, -7.44061584472656250000e+02) (4, -1.49991235351562500000e+03) (5, 1.50000000000000000000e+03) (6, 1.50000000000000000000e+03) (7, 1.50000000000000000000e+03) (8, -1.50000000000000000000e+03) (9, 1.50000000000000000000e+03) (10, -1.50000000000000000000e+03) (11, 1.50000000000000000000e+03) (12, -1.50000000000000000000e+03) (13, -1.48618151855468750000e+03) (14, -1.50000000000000000000e+03) (15, -1.48790905761718750000e+03) (16, -1.50000000000000000000e+03) (17, -1.48699926757812500000e+03) (18, -1.50000000000000000000e+03) (19, 1.45696325683593750000e+03) (20, -1.50000000000000000000e+03) (21, -1.49984680175781250000e+03) (22, -1.50000000000000000000e+03) (23, -1.49899365234375000000e+03) (24, -1.50000000000000000000e+03) (25, 1.50000000000000000000e+03) (26, -1.50000000000000000000e+03) (27, -1.47998046875000000000e+03) (28, -1.50000000000000000000e+03) (29, -1.49956774902343750000e+03) (30, -1.50000000000000000000e+03) (31, -1.46190917968750000000e+03) (32, -1.50000000000000000000e+03) (33, -1.48902075195312500000e+03) (34, -1.50000000000000000000e+03) (35, -1.48334069824218750000e+03) (36, -1.46979687500000000000e+03) (37, -1.49550378417968750000e+03) (38, -1.49963476562500000000e+03) (39, -1.49897229003906250000e+03) (40, -1.49984838867187500000e+03) (41, -1.49581787109375000000e+03) (42, -1.50000000000000000000e+03) (43, -1.49975561523437500000e+03) (44, -1.50000000000000000000e+03) (45, 1.49372644042968750000e+03) (46, -1.50000000000000000000e+03) (47, 1.49388391113281250000e+03) (48, -1.50000000000000000000e+03) (49, -1.49978747558593750000e+03) (50, -1.50000000000000000000e+03) (51, -1.50000000000000000000e+03) (52, -1.50000000000000000000e+03) (53, -1.49999304199218750000e+03) (54, -1.50000000000000000000e+03) (55, -1.49896801757812500000e+03) (56, -1.50000000000000000000e+03) (57, -1.50000000000000000000e+03) (58, -1.50000000000000000000e+03) (59, -1.50000000000000000000e+03) (60, -1.50000000000000000000e+03) (61, -1.50000000000000000000e+03) (62, -1.50000000000000000000e+03) (63, 1.49791162109375000000e+03) (64, -1.50000000000000000000e+03) (65, -1.50000000000000000000e+03) (66, -1.50000000000000000000e+03) (67, -1.49975646972656250000e+03) (68, -1.50000000000000000000e+03) (69, -1.49922375488281250000e+03) (70, -1.50000000000000000000e+03) (71, -1.49836901855468750000e+03) (72, 1.50000000000000000000e+03) (73, -1.25557971191406250000e+03) (74, 1.50000000000000000000e+03) (75, 1.50000000000000000000e+03) (76, 1.49990319824218750000e+03) (77, 1.50000000000000000000e+03) (78, 1.50000000000000000000e+03) (79, 1.50000000000000000000e+03) (80, -1.50000000000000000000e+03) (81, -5.98541503906250000000e+02) (82, -1.50000000000000000000e+03) (83, -1.49985510253906250000e+03) (84, -1.50000000000000000000e+03) (85, -1.50000000000000000000e+03) (86, -1.50000000000000000000e+03) (87, -1.50000000000000000000e+03) (88, -1.50000000000000000000e+03) (89, -1.50000000000000000000e+03) (90, -1.50000000000000000000e+03) (91, -1.49617089843750000000e+03) (92, -1.50000000000000000000e+03) (93, -1.49368615722656250000e+03) (94, -1.50000000000000000000e+03) (95, -1.47989794921875000000e+03) (96, -1.50000000000000000000e+03) (97, -1.50000000000000000000e+03) (98, -1.50000000000000000000e+03) (99, -1.49955883789062500000e+03) (100, -1.50000000000000000000e+03) (101, -1.47997631835937500000e+03) (102, -1.50000000000000000000e+03) (103, -1.49987683105468750000e+03) (104, -1.50000000000000000000e+03) (105, -1.50000000000000000000e+03) (106, -1.50000000000000000000e+03) (107, -1.50000000000000000000e+03) (108, -1.50000000000000000000e+03) (109, -1.50000000000000000000e+03) (110, -1.50000000000000000000e+03) (111, -1.49941271972656250000e+03) (112, -1.50000000000000000000e+03) (113, -1.42803649902343750000e+03) (114, -1.47613464355468750000e+03) (115, -1.44206115722656250000e+03) (116, -1.50000000000000000000e+03) (117, -1.50000000000000000000e+03) (118, -1.50000000000000000000e+03) (119, -1.50000000000000000000e+03) (120, -1.50000000000000000000e+03) (121, -1.50000000000000000000e+03) (122, -1.50000000000000000000e+03) (123, -1.49997204589843750000e+03) (124, -1.50000000000000000000e+03) (125, -1.50000000000000000000e+03) (126, -1.50000000000000000000e+03) (127, -1.50000000000000000000e+03) (128, -1.50000000000000000000e+03) (129, -1.50000000000000000000e+03) (130, -1.50000000000000000000e+03) (131, 1.03611010742187500000e+03) (132, -1.50000000000000000000e+03) (133, -1.50000000000000000000e+03) (134, -1.50000000000000000000e+03) (135, -1.50000000000000000000e+03) (136, -1.49995422363281250000e+03) (137, -1.49990283203125000000e+03) (138, 1.50000000000000000000e+03) (139, -1.50000000000000000000e+03) (140, -1.49975244140625000000e+03) (141, -1.50000000000000000000e+03) (142, -1.50000000000000000000e+03) (143, -1.49953356933593750000e+03) (144, -1.50000000000000000000e+03) (145, -1.50000000000000000000e+03) (146, -1.50000000000000000000e+03) (147, -1.50000000000000000000e+03) (148, -1.50000000000000000000e+03) (149, 1.49966210937500000000e+03) (150, -1.50000000000000000000e+03) (151, 1.50000000000000000000e+03) (152, 1.50000000000000000000e+03) (153, -1.50000000000000000000e+03) (154, 1.50000000000000000000e+03) (155, -1.50000000000000000000e+03) (156, -1.50000000000000000000e+03) (157, 1.48474572753906250000e+03) (158, -1.50000000000000000000e+03) (159, 1.49870007324218750000e+03) (160, -1.50000000000000000000e+03) (161, 1.37071057128906250000e+03) (162, -1.50000000000000000000e+03) (163, -1.49994372558593750000e+03) (164, -1.50000000000000000000e+03) (165, -1.27017187500000000000e+03) (166, -1.49957348632812500000e+03) (167, -1.49931188964843750000e+03) (168, -1.49961633300781250000e+03) (169, -4.06442169189453125000e+02) (170, -1.50000000000000000000e+03) (171, -1.50000000000000000000e+03) (172, -1.50000000000000000000e+03) (173, -1.49007934570312500000e+03) (174, -1.50000000000000000000e+03) (175, -1.49941345214843750000e+03) (176, -1.50000000000000000000e+03) (177, -1.50000000000000000000e+03) (178, -1.50000000000000000000e+03) (179, -1.50000000000000000000e+03) (180, -1.50000000000000000000e+03) (181, -1.50000000000000000000e+03) (182, -1.50000000000000000000e+03) (183, -1.49988842773437500000e+03) (184, -1.50000000000000000000e+03) (185, -1.47346264648437500000e+03) (186, -1.50000000000000000000e+03) (187, -1.50000000000000000000e+03) (188, -1.32967321777343750000e+03) (189, -1.49661901855468750000e+03) (190, -1.50000000000000000000e+03) (191, -1.49990368652343750000e+03) (192, -1.50000000000000000000e+03) (193, -1.50000000000000000000e+03) (194, 1.50000000000000000000e+03) (195, -1.50000000000000000000e+03) (196, 1.50000000000000000000e+03) (197, 1.50000000000000000000e+03) (198, 1.50000000000000000000e+03) (199, 1.50000000000000000000e+03) (200, -1.45880212402343750000e+03) (201, -1.50000000000000000000e+03) (202, 1.42943823242187500000e+03) (0, -1.09602966308593750000e+03) (1, -1.49997644042968750000e+03) (2, -1.50000000000000000000e+03) (3, -1.50000000000000000000e+03) (4, -1.50000000000000000000e+03) (5, -1.50000000000000000000e+03) (6, -1.50000000000000000000e+03) (7, -1.50000000000000000000e+03) (8, -1.50000000000000000000e+03) (9, -1.50000000000000000000e+03) (10, -1.50000000000000000000e+03) (11, -1.50000000000000000000e+03) (12, -1.45117211914062500000e+03) (13, -1.49533032226562500000e+03) (14, 1.50000000000000000000e+03) (15, -1.49517443847656250000e+03) (16, 1.50000000000000000000e+03) (17, -1.50000000000000000000e+03) (18, 1.50000000000000000000e+03) (19, -1.09464868164062500000e+03) (20, -1.49945617675781250000e+03) (21, -1.12841979980468750000e+03) (22, -1.50000000000000000000e+03) (23, -1.43734643554687500000e+03) (24, 1.49763903808593750000e+03) (25, -1.50000000000000000000e+03) (26, 1.50000000000000000000e+03) (27, -4.94673843383789062500e+01) (28, 1.50000000000000000000e+03) (29, -1.49527783203125000000e+03) (30, 1.50000000000000000000e+03) (31, -1.09109790039062500000e+03) (32, 1.39555932617187500000e+03) (33, -1.49445397949218750000e+03) (34, 1.50000000000000000000e+03) (35, -1.46848144531250000000e+03) (36, 1.49996923828125000000e+03) (37, 1.49999804687500000000e+03) (38, 1.49417663574218750000e+03) (39, 1.32504138183593750000e+03) (40, -1.35960766601562500000e+03) (41, 1.43096508789062500000e+03) (42, 1.50000000000000000000e+03) (43, 1.49999804687500000000e+03) (44, 1.50000000000000000000e+03) (45, -6.62053604125976562500e+01) (46, 1.50000000000000000000e+03) (47, 1.49999804687500000000e+03) (48, 1.50000000000000000000e+03) (49, -1.49992358398437500000e+03) (50, -5.42268920898437500000e+02) (51, -1.49984387207031250000e+03) (52, 1.50000000000000000000e+03) (53, -1.50000000000000000000e+03) (54, 1.50000000000000000000e+03) (55, -1.50000000000000000000e+03) (56, 1.49999804687500000000e+03) (57, 1.49999804687500000000e+03) (58, 1.50000000000000000000e+03) (59, 1.36427597045898437500e+02) (60, 1.50000000000000000000e+03) (61, -1.49543505859375000000e+03) (62, 1.50000000000000000000e+03) (63, 1.49999804687500000000e+03) (64, 1.50000000000000000000e+03) (65, -5.28288513183593750000e+02) (66, 1.49999768066406250000e+03) (67, -1.50000000000000000000e+03) (68, 1.59783935546875000000e+02) (69, -1.50000000000000000000e+03) (70, -1.50000000000000000000e+03) (71, -1.50000000000000000000e+03) (72, -1.50000000000000000000e+03) (73, -1.50000000000000000000e+03) (74, -1.50000000000000000000e+03) (75, -1.50000000000000000000e+03) (76, -1.37353845214843750000e+03) (77, -1.50000000000000000000e+03) (78, -1.49999938964843750000e+03) (79, -1.50000000000000000000e+03) (80, 1.49999804687500000000e+03) (81, -1.49689196777343750000e+03) (82, 1.49999804687500000000e+03) (83, -1.38776733398437500000e+03) (84, 1.50000000000000000000e+03) (85, 1.49999804687500000000e+03) (86, 1.50000000000000000000e+03) (87, 1.49999804687500000000e+03) (88, 1.50000000000000000000e+03) (89, -1.50000000000000000000e+03) (90, 1.50000000000000000000e+03) (91, -1.50000000000000000000e+03) (92, 1.50000000000000000000e+03) (93, -1.44105993652343750000e+03) (94, 1.50000000000000000000e+03) (95, -1.50000000000000000000e+03) (96, 1.50000000000000000000e+03) (97, -8.92238647460937500000e+02) (98, 1.50000000000000000000e+03) (99, -1.48793078613281250000e+03) (100, 1.50000000000000000000e+03) (101, -1.34084350585937500000e+03) (102, 1.50000000000000000000e+03) (103, 1.37619433593750000000e+03) (104, 1.50000000000000000000e+03) (105, -1.42084204101562500000e+03) (106, 1.49999804687500000000e+03) (107, -1.40480270385742187500e+02) (108, 1.49999230957031250000e+03) (109, 1.49561511230468750000e+03) (110, -1.02559777832031250000e+03) (111, -1.43522509765625000000e+03) (112, 1.49986791992187500000e+03) (113, 1.49971740722656250000e+03) (114, 1.49999804687500000000e+03) (115, 1.49999804687500000000e+03) (116, 1.50000000000000000000e+03) (117, 1.50000000000000000000e+03) (118, 1.50000000000000000000e+03) (119, 1.50000000000000000000e+03) (120, 1.49951452636718750000e+03) (121, 1.49999804687500000000e+03) (122, 1.50000000000000000000e+03) (123, 1.49999804687500000000e+03) (124, -1.50000000000000000000e+03) (125, 1.50000000000000000000e+03) (126, -6.22790954589843750000e+02) (127, 1.50000000000000000000e+03) (128, 1.50000000000000000000e+03) (129, 1.50000000000000000000e+03) (130, -1.49137231445312500000e+03) (131, 6.85115234375000000000e+02) (132, 1.50000000000000000000e+03) (133, 1.50000000000000000000e+03) (134, 1.50000000000000000000e+03) (135, 1.49999804687500000000e+03) (136, -1.50000000000000000000e+03) (137, 2.02401214599609375000e+02) (138, -1.50000000000000000000e+03) (139, -1.46505468750000000000e+03) (140, -1.49993786621093750000e+03) (141, 1.49999804687500000000e+03) (142, 1.50000000000000000000e+03) (143, 1.49999804687500000000e+03) (144, 1.50000000000000000000e+03) (145, 1.49999804687500000000e+03) (146, 1.50000000000000000000e+03) (147, 1.49988598632812500000e+03) (148, 1.50000000000000000000e+03) (149, -1.46508741378784179688e+01) (150, -1.49318823242187500000e+03) (151, -1.50000000000000000000e+03) (152, 3.91349273681640625000e+02) (153, 1.49999804687500000000e+03) (154, -1.50000000000000000000e+03) (155, -7.38794799804687500000e+02) (156, 1.47725830078125000000e+03) (157, 1.49999804687500000000e+03) (158, 1.50000000000000000000e+03) (159, 1.50000000000000000000e+03) (160, 1.50000000000000000000e+03) (161, 1.50000000000000000000e+03) (162, 1.50000000000000000000e+03) (163, 1.50000000000000000000e+03) (164, 1.50000000000000000000e+03) (165, 1.47591772460937500000e+03) (166, -1.45980834960937500000e+03) (167, 1.50000000000000000000e+03) (168, -1.44352734375000000000e+03) (169, 1.49769433593750000000e+03) (170, 1.50000000000000000000e+03) (171, 1.49999804687500000000e+03) (172, 1.50000000000000000000e+03) (173, 1.50000000000000000000e+03) (174, 1.50000000000000000000e+03) (175, 1.50000000000000000000e+03) (176, -1.49992248535156250000e+03) (177, -1.49187927246093750000e+03) (178, 1.50000000000000000000e+03) (179, -1.49996655273437500000e+03) (180, 1.50000000000000000000e+03) (181, -1.50000000000000000000e+03) (182, 1.50000000000000000000e+03) (183, -1.38300415039062500000e+03) (184, 1.50000000000000000000e+03) (185, -2.39582557678222656250e+01) (186, -1.50000000000000000000e+03) (187, 7.82534118652343750000e+02) (188, -1.50000000000000000000e+03) (189, 1.47603454589843750000e+03) (190, 6.91461853027343750000e+02) (191, 1.25589733886718750000e+03) (192, 1.50000000000000000000e+03) (193, 1.49887890625000000000e+03) (194, -1.50000000000000000000e+03) (195, 1.50000000000000000000e+03) (196, 1.50000000000000000000e+03) (197, 1.50000000000000000000e+03) (198, 1.50000000000000000000e+03) (199, 1.50000000000000000000e+03) (200, -4.91264617919921875000e+02) (201, 1.50000000000000000000e+03) (202, 6.74079895019531250000e+02) (0, -1.50000000000000000000e+03) (1, -1.50000000000000000000e+03) (2, -1.50000000000000000000e+03) (3, -1.50000000000000000000e+03) (4, -1.50000000000000000000e+03) (5, -1.50000000000000000000e+03) (6, -1.50000000000000000000e+03) (7, -1.50000000000000000000e+03) (8, -1.50000000000000000000e+03) (9, -1.50000000000000000000e+03) (10, -1.50000000000000000000e+03) (11, -1.50000000000000000000e+03) (12, -1.50000000000000000000e+03) (13, -1.50000000000000000000e+03) (14, -1.50000000000000000000e+03) (15, -1.50000000000000000000e+03) (16, -1.50000000000000000000e+03) (17, -1.50000000000000000000e+03) (18, -1.50000000000000000000e+03) (19, -1.50000000000000000000e+03) (20, -1.50000000000000000000e+03) (21, -1.49995520019531250000e+03) (22, -1.50000000000000000000e+03) (23, -1.50000000000000000000e+03) (24, -1.50000000000000000000e+03) (25, -1.50000000000000000000e+03) (26, -1.50000000000000000000e+03) (27, -1.50000000000000000000e+03) (28, -1.50000000000000000000e+03) (29, -1.49984301757812500000e+03) (30, -1.50000000000000000000e+03) (31, 1.49872302246093750000e+03) (32, -1.50000000000000000000e+03) (33, -3.72184051513671875000e+02) (34, -1.50000000000000000000e+03) (35, -1.47000708007812500000e+03) (36, -1.49996813964843750000e+03) (37, 1.50000000000000000000e+03) (38, -1.50000000000000000000e+03) (39, -1.50000000000000000000e+03) (40, -1.49998315429687500000e+03) (41, -1.50000000000000000000e+03) (42, 1.03564147949218750000e+03) (43, 1.41412121582031250000e+03) (44, -1.50000000000000000000e+03) (45, 1.50000000000000000000e+03) (46, -1.50000000000000000000e+03) (47, 1.50000000000000000000e+03) (48, -1.50000000000000000000e+03) (49, -1.49998315429687500000e+03) (50, -1.50000000000000000000e+03) (51, -8.65336425781250000000e+02) (52, -1.50000000000000000000e+03) (53, 7.23506103515625000000e+02) (54, -1.50000000000000000000e+03) (55, 1.49992785644531250000e+03) (56, -1.50000000000000000000e+03) (57, 1.50000000000000000000e+03) (58, -1.50000000000000000000e+03) (59, 1.50000000000000000000e+03) (60, 1.50000000000000000000e+03) (61, 1.50000000000000000000e+03) (62, 1.50000000000000000000e+03) (63, 1.50000000000000000000e+03) (64, 1.50000000000000000000e+03) (65, -1.48139465332031250000e+03) (66, 1.50000000000000000000e+03) (67, -1.50000000000000000000e+03) (68, -1.50000000000000000000e+03) (69, 5.35541809082031250000e+02) (70, -1.50000000000000000000e+03) (71, -1.22587194824218750000e+03) (72, -1.50000000000000000000e+03) (73, -1.50000000000000000000e+03) (74, 1.49951123046875000000e+03) (75, -1.50000000000000000000e+03) (76, -1.49998315429687500000e+03) (77, -1.50000000000000000000e+03) (78, 1.50000000000000000000e+03) (79, -1.50000000000000000000e+03) (80, 1.49998291015625000000e+03) (81, -5.36424621582031250000e+02) (82, -1.50000000000000000000e+03) (83, -1.49997265625000000000e+03) (84, 1.50000000000000000000e+03) (85, -1.10161547851562500000e+03) (86, 1.50000000000000000000e+03) (87, -1.49995202636718750000e+03) (88, -1.49990734863281250000e+03) (89, -1.48125354003906250000e+03) (90, 1.50000000000000000000e+03) (91, -1.49997265625000000000e+03) (92, 1.50000000000000000000e+03) (93, -1.15432348632812500000e+03) (94, -1.50000000000000000000e+03) (95, -1.50000000000000000000e+03) (96, -1.49999682617187500000e+03) (97, 1.50000000000000000000e+03) (98, -1.50000000000000000000e+03) (99, 1.49986389160156250000e+03) (100, -1.50000000000000000000e+03) (101, -1.50000000000000000000e+03) (102, -1.49817639160156250000e+03) (103, -1.50000000000000000000e+03) (104, -1.50000000000000000000e+03) (105, -1.50000000000000000000e+03) (106, -1.50000000000000000000e+03) (107, -1.50000000000000000000e+03) (108, -1.49998315429687500000e+03) (109, -1.49993737792968750000e+03) (110, -1.50000000000000000000e+03) (111, 7.30511413574218750000e+02) (112, -1.49998193359375000000e+03) (113, -1.49990734863281250000e+03) (114, 1.50000000000000000000e+03) (115, -1.21493798828125000000e+03) (116, 1.50000000000000000000e+03) (117, 1.50000000000000000000e+03) (118, 1.50000000000000000000e+03) (119, 1.01163104248046875000e+03) (120, 4.01286895751953125000e+02) (121, -4.69706695556640625000e+02) (122, 1.50000000000000000000e+03) (123, -1.08510339355468750000e+03) (124, -1.49955468750000000000e+03) (125, -1.50000000000000000000e+03) (126, 1.48971179199218750000e+03) (127, 1.49982141113281250000e+03) (128, 1.50000000000000000000e+03) (129, 1.48664050292968750000e+03) (130, 1.50000000000000000000e+03) (131, -1.49987915039062500000e+03) (132, -1.50000000000000000000e+03) (133, 1.50000000000000000000e+03) (134, -1.50000000000000000000e+03) (135, 1.40573095703125000000e+03) (136, -1.50000000000000000000e+03) (137, -1.50000000000000000000e+03) (138, -1.50000000000000000000e+03) (139, -1.50000000000000000000e+03) (140, -1.50000000000000000000e+03) (141, -1.50000000000000000000e+03) (142, -1.50000000000000000000e+03) (143, -1.50000000000000000000e+03) (144, 1.50000000000000000000e+03) (145, 1.50000000000000000000e+03) (146, 1.50000000000000000000e+03) (147, -1.50000000000000000000e+03) (148, 1.50000000000000000000e+03) (149, 1.49959143066406250000e+03) (150, 1.50000000000000000000e+03) (151, -1.50000000000000000000e+03) (152, 1.29897680664062500000e+03) (153, -1.49993737792968750000e+03) (154, -1.50000000000000000000e+03) (155, -1.50000000000000000000e+03) (156, -1.50000000000000000000e+03) (157, -1.50000000000000000000e+03) (158, -1.50000000000000000000e+03) (159, -1.49991772460937500000e+03) (160, 2.45411270141601562500e+02) (161, -1.49994567871093750000e+03) (162, -1.50000000000000000000e+03) (163, -1.49995849609375000000e+03) (164, 1.50000000000000000000e+03) (165, -1.49978479003906250000e+03) (166, 1.50000000000000000000e+03) (167, -1.31749755859375000000e+03) (168, 1.50000000000000000000e+03) (169, -1.49976220703125000000e+03) (170, 1.50000000000000000000e+03) (171, 1.50000000000000000000e+03) (172, 1.50000000000000000000e+03) (173, 1.50000000000000000000e+03) (174, 1.50000000000000000000e+03) (175, 1.50000000000000000000e+03) (176, 1.50000000000000000000e+03) (177, -1.50000000000000000000e+03) (178, 1.50000000000000000000e+03) (179, -1.49850561523437500000e+03) (180, -1.22620202636718750000e+03) (181, -1.50000000000000000000e+03) (182, 1.49652490234375000000e+03) (183, -1.50000000000000000000e+03) (184, 1.50000000000000000000e+03) (185, -1.50000000000000000000e+03) (186, 1.50000000000000000000e+03) (187, -1.49840698242187500000e+03) (188, 1.50000000000000000000e+03) (189, 1.49921667480468750000e+03) (190, 1.50000000000000000000e+03) (191, -1.50000000000000000000e+03) (192, 7.64970764160156250000e+02) (193, -1.49987878417968750000e+03) (194, -1.50000000000000000000e+03) (195, -1.49916516113281250000e+03) (196, 1.50000000000000000000e+03) (197, 1.50000000000000000000e+03) (198, 1.50000000000000000000e+03) (199, 1.50000000000000000000e+03) (200, 1.50000000000000000000e+03) (201, 6.18578262329101562500e+01) (202, -1.50000000000000000000e+03) (0, 1.50000000000000000000e+03) (1, 1.50000000000000000000e+03) (2, 1.50000000000000000000e+03) (3, 1.50000000000000000000e+03) (4, 1.50000000000000000000e+03) (5, 1.50000000000000000000e+03) (6, 1.50000000000000000000e+03) (7, 1.50000000000000000000e+03) (8, 1.50000000000000000000e+03) (9, 1.50000000000000000000e+03) (10, 1.50000000000000000000e+03) (11, 1.50000000000000000000e+03) (12, 1.50000000000000000000e+03) (13, 1.50000000000000000000e+03) (14, 1.50000000000000000000e+03) (15, -1.50000000000000000000e+03) (16, 1.50000000000000000000e+03) (17, 1.50000000000000000000e+03) (18, -9.88306579589843750000e+02) (19, 1.49413708496093750000e+03) (20, 1.50000000000000000000e+03) (21, -2.23742202758789062500e+02) (22, 1.50000000000000000000e+03) (23, 1.50000000000000000000e+03) (24, 1.50000000000000000000e+03) (25, 1.50000000000000000000e+03) (26, 1.50000000000000000000e+03) (27, 1.50000000000000000000e+03) (28, 1.50000000000000000000e+03) (29, 1.50000000000000000000e+03) (30, 1.50000000000000000000e+03) (31, 1.49953552246093750000e+03) (32, 1.50000000000000000000e+03) (33, 1.49764343261718750000e+03) (34, 1.50000000000000000000e+03) (35, 1.50000000000000000000e+03) (36, -1.50000000000000000000e+03) (37, -1.50000000000000000000e+03) (38, 1.50000000000000000000e+03) (39, 1.49887939453125000000e+03) (40, -1.27286535644531250000e+03) (41, 1.49278637695312500000e+03) (42, -1.50000000000000000000e+03) (43, -1.50000000000000000000e+03) (44, 1.50000000000000000000e+03) (45, 9.96491149902343750000e+02) (46, 1.50000000000000000000e+03) (47, 9.37834472656250000000e+02) (48, 1.50000000000000000000e+03) (49, 1.50000000000000000000e+03) (50, 1.50000000000000000000e+03) (51, 1.50000000000000000000e+03) (52, 1.50000000000000000000e+03) (53, 1.50000000000000000000e+03) (54, -1.50000000000000000000e+03) (55, 1.50000000000000000000e+03) (56, -1.49999365234375000000e+03) (57, -1.50000000000000000000e+03) (58, 1.50000000000000000000e+03) (59, 1.49917578125000000000e+03) (60, 1.50000000000000000000e+03) (61, 1.50000000000000000000e+03) (62, 1.50000000000000000000e+03) (63, 1.50000000000000000000e+03) (64, 1.50000000000000000000e+03) (65, 1.50000000000000000000e+03) (66, 1.50000000000000000000e+03) (67, 1.50000000000000000000e+03) (68, 1.50000000000000000000e+03) (69, 1.50000000000000000000e+03) (70, 1.50000000000000000000e+03) (71, 1.50000000000000000000e+03) (72, 1.50000000000000000000e+03) (73, 1.50000000000000000000e+03) (74, 1.50000000000000000000e+03) (75, 1.50000000000000000000e+03) (76, 1.50000000000000000000e+03) (77, 1.50000000000000000000e+03) (78, 1.50000000000000000000e+03) (79, 1.50000000000000000000e+03) (80, 1.50000000000000000000e+03) (81, 1.50000000000000000000e+03) (82, 1.50000000000000000000e+03) (83, 1.50000000000000000000e+03) (84, 1.50000000000000000000e+03) (85, 1.50000000000000000000e+03) (86, 1.50000000000000000000e+03) (87, 1.50000000000000000000e+03) (88, 1.50000000000000000000e+03) (89, 1.50000000000000000000e+03) (90, 1.50000000000000000000e+03) (91, 1.50000000000000000000e+03) (92, 1.50000000000000000000e+03) (93, 1.50000000000000000000e+03) (94, 1.50000000000000000000e+03) (95, 1.50000000000000000000e+03) (96, 8.46403320312500000000e+02) (97, 1.50000000000000000000e+03) (98, -9.93413085937500000000e+02) (99, 1.50000000000000000000e+03) (100, 8.43574096679687500000e+02) (101, 1.50000000000000000000e+03) (102, 1.50000000000000000000e+03) (103, 1.50000000000000000000e+03) (104, 1.50000000000000000000e+03) (105, 1.50000000000000000000e+03) (106, 1.50000000000000000000e+03) (107, 1.50000000000000000000e+03) (108, 1.50000000000000000000e+03) (109, 1.49998425292968750000e+03) (110, 1.50000000000000000000e+03) (111, 1.49652343750000000000e+03) (112, 1.50000000000000000000e+03) (113, -1.48264343261718750000e+03) (114, 1.50000000000000000000e+03) (115, -5.84347106933593750000e+02) (116, -1.50000000000000000000e+03) (117, -1.50000000000000000000e+03) (118, -1.50000000000000000000e+03) (119, -1.50000000000000000000e+03) (120, 1.50000000000000000000e+03) (121, 