FANN_FLO_2.1
num_layers=3
learning_rate=0.700000
connection_rate=1.000000
network_type=0
learning_momentum=0.000000
training_algorithm=2
train_error_function=1
train_stop_function=0
cascade_output_change_fraction=0.010000
quickprop_decay=-0.000100
quickprop_mu=1.750000
rprop_increase_factor=1.200000
rprop_decrease_factor=0.500000
rprop_delta_min=0.000000
rprop_delta_max=50.000000
rprop_delta_zero=0.100000
cascade_output_stagnation_epochs=12
cascade_candidate_change_fraction=0.010000
cascade_candidate_stagnation_epochs=12
cascade_max_out_epochs=150
cascade_min_out_epochs=50
cascade_max_cand_epochs=150
cascade_min_cand_epochs=50
cascade_num_candidate_groups=2
bit_fail_limit=3.49999994039535522461e-01
cascade_candidate_limit=1.00000000000000000000e+03
cascade_weight_multiplier=4.00000005960464477539e-01
cascade_activation_functions_count=10
cascade_activation_functions=3 5 7 8 10 11 14 15 16 17
cascade_activation_steepnesses_count=4
cascade_activation_steepnesses=2.50000000000000000000e-01 5.00000000000000000000e-01 7.50000000000000000000e-01 1.00000000000000000000e+00
layer_sizes=203 52 101
scale_included=0
neurons (num_inputs, activation_function, activation_steepness)=(0, 0, 0.00000000000000000000e+00) (0, 0, 0.00000000000000000000e+00) (0, 0, 0.00000000000000000000e+00) (0, 0, 0.00000000000000000000e+00) (0, 0, 0.00000000000000000000e+00) (0, 0, 0.00000000000000000000e+00) (0, 0, 0.00000000000000000000e+00) (0, 0, 0.00000000000000000000e+00) (0, 0, 0.00000000000000000000e+00) (0, 0, 0.00000000000000000000e+00) (0, 0, 0.00000000000000000000e+00) (0, 0, 0.00000000000000000000e+00) (0, 0, 0.00000000000000000000e+00) (0, 0, 0.00000000000000000000e+00) (0, 0, 0.00000000000000000000e+00) (0, 0, 0.00000000000000000000e+00) (0, 0, 0.00000000000000000000e+00) (0, 0, 0.00000000000000000000e+00) (0, 0, 0.00000000000000000000e+00) (0, 0, 0.00000000000000000000e+00) (0, 0, 0.00000000000000000000e+00) (0, 0, 0.00000000000000000000e+00) (0, 0, 0.00000000000000000000e+00) (0, 0, 0.00000000000000000000e+00) (0, 0, 0.00000000000000000000e+00) (0, 0, 0.00000000000000000000e+00) (0, 0, 0.00000000000000000000e+00) (0, 0, 0.00000000000000000000e+00) (0, 0, 0.00000000000000000000e+00) (0, 0, 0.00000000000000000000e+00) (0, 0, 0.00000000000000000000e+00) (0, 0, 0.00000000000000000000e+00) (0, 0, 0.00000000000000000000e+00) (0, 0, 0.00000000000000000000e+00) (0, 0, 0.00000000000000000000e+00) (0, 0, 0.00000000000000000000e+00) (0, 0, 0.00000000000000000000e+00) (0, 0, 0.00000000000000000000e+00) (0, 0, 0.00000000000000000000e+00) (0, 0, 0.00000000000000000000e+00) (0, 0, 0.00000000000000000000e+00) (0, 0, 0.00000000000000000000e+00) (0, 0, 0.00000000000000000000e+00) (0, 0, 0.00000000000000000000e+00) (0, 0, 0.00000000000000000000e+00) (0, 0, 0.00000000000000000000e+00) (0, 0, 0.00000000000000000000e+00) (0, 0, 0.00000000000000000000e+00) (0, 0, 0.00000000000000000000e+00) (0, 0, 0.00000000000000000000e+00) (0, 0, 0.00000000000000000000e+00) (0, 0, 0.00000000000000000000e+00) (0, 0, 0.00000000000000000000e+00) (0, 0, 0.00000000000000000000e+00) (0, 0, 0.00000000000000000000e+00) (0, 0, 0.00000000000000000000e+00) (0, 0, 0.00000000000000000000e+00) (0, 0, 0.00000000000000000000e+00) (0, 0, 0.00000000000000000000e+00) (0, 0, 0.00000000000000000000e+00) (0, 0, 0.00000000000000000000e+00) (0, 0, 0.00000000000000000000e+00) (0, 0, 0.00000000000000000000e+00) (0, 0, 0.00000000000000000000e+00) (0, 0, 0.00000000000000000000e+00) (0, 0, 0.00000000000000000000e+00) (0, 0, 0.00000000000000000000e+00) (0, 0, 0.00000000000000000000e+00) (0, 0, 0.00000000000000000000e+00) (0, 0, 0.00000000000000000000e+00) (0, 0, 0.00000000000000000000e+00) (0, 0, 0.00000000000000000000e+00) (0, 0, 0.00000000000000000000e+00) (0, 0, 0.00000000000000000000e+00) (0, 0, 0.00000000000000000000e+00) (0, 0, 0.00000000000000000000e+00) (0, 0, 0.00000000000000000000e+00) (0, 0, 0.00000000000000000000e+00) (0, 0, 0.00000000000000000000e+00) (0, 0, 0.00000000000000000000e+00) (0, 0, 0.00000000000000000000e+00) (0, 0, 0.00000000000000000000e+00) (0, 0, 0.00000000000000000000e+00) (0, 0, 0.00000000000000000000e+00) (0, 0, 0.00000000000000000000e+00) (0, 0, 0.00000000000000000000e+00) (0, 0, 0.00000000000000000000e+00) (0, 0, 0.00000000000000000000e+00) (0, 0, 0.00000000000000000000e+00) (0, 0, 0.00000000000000000000e+00) (0, 0, 0.00000000000000000000e+00) (0, 0, 0.00000000000000000000e+00) (0, 0, 0.00000000000000000000e+00) (0, 0, 0.00000000000000000000e+00) (0, 0, 0.00000000000000000000e+00) (0, 0, 0.00000000000000000000e+00) (0, 0, 0.00000000000000000000e+00) (0, 0, 0.00000000000000000000e+00) (0, 0, 0.00000000000000000000e+00) (0, 0, 0.00000000000000000000e+00) (0, 0, 0.00000000000000000000e+00) (0, 0, 0.00000000000000000000e+00) (0, 0, 0.00000000000000000000e+00) (0, 0, 0.00000000000000000000e+00) (0, 0, 0.00000000000000000000e+00) (0, 0, 0.00000000000000000000e+00) (0, 0, 0.00000000000000000000e+00) (0, 0, 0.00000000000000000000e+00) (0, 0, 0.00000000000000000000e+00) (0, 0, 0.00000000000000000000e+00) (0, 0, 0.00000000000000000000e+00) (0, 0, 0.00000000000000000000e+00) (0, 0, 0.00000000000000000000e+00) (0, 0, 0.00000000000000000000e+00) (0, 0, 0.00000000000000000000e+00) (0, 0, 0.00000000000000000000e+00) (0, 0, 0.00000000000000000000e+00) (0, 0, 0.00000000000000000000e+00) (0, 0, 0.00000000000000000000e+00) (0, 0, 0.00000000000000000000e+00) (0, 0, 0.00000000000000000000e+00) (0, 0, 0.00000000000000000000e+00) (0, 0, 0.00000000000000000000e+00) (0, 0, 0.00000000000000000000e+00) (0, 0, 0.00000000000000000000e+00) (0, 0, 0.00000000000000000000e+00) (0, 0, 0.00000000000000000000e+00) (0, 0, 0.00000000000000000000e+00) (0, 0, 0.00000000000000000000e+00) (0, 0, 0.00000000000000000000e+00) (0, 0, 0.00000000000000000000e+00) (0, 0, 0.00000000000000000000e+00) (0, 0, 0.00000000000000000000e+00) (0, 0, 0.00000000000000000000e+00) (0, 0, 0.00000000000000000000e+00) (0, 0, 0.00000000000000000000e+00) (0, 0, 0.00000000000000000000e+00) (0, 0, 0.00000000000000000000e+00) (0, 0, 0.00000000000000000000e+00) (0, 0, 0.00000000000000000000e+00) (0, 0, 0.00000000000000000000e+00) (0, 0, 0.00000000000000000000e+00) (0, 0, 0.00000000000000000000e+00) (0, 0, 0.00000000000000000000e+00) (0, 0, 0.00000000000000000000e+00) (0, 0, 0.00000000000000000000e+00) (0, 0, 0.00000000000000000000e+00) (0, 0, 0.00000000000000000000e+00) (0, 0, 0.00000000000000000000e+00) (0, 0, 0.00000000000000000000e+00) (0, 0, 0.00000000000000000000e+00) (0, 0, 0.00000000000000000000e+00) (0, 0, 0.00000000000000000000e+00) (0, 0, 0.00000000000000000000e+00) (0, 0, 0.00000000000000000000e+00) (0, 0, 0.00000000000000000000e+00) (0, 0, 0.00000000000000000000e+00) (0, 0, 0.00000000000000000000e+00) (0, 0, 0.00000000000000000000e+00) (0, 0, 0.00000000000000000000e+00) (0, 0, 0.00000000000000000000e+00) (0, 0, 0.00000000000000000000e+00) (0, 0, 0.00000000000000000000e+00) (0, 0, 0.00000000000000000000e+00) (0, 0, 0.00000000000000000000e+00) (0, 0, 0.00000000000000000000e+00) (0, 0, 0.00000000000000000000e+00) (0, 0, 0.00000000000000000000e+00) (0, 0, 0.00000000000000000000e+00) (0, 0, 0.00000000000000000000e+00) (0, 0, 0.00000000000000000000e+00) (0, 0, 0.00000000000000000000e+00) (0, 0, 0.00000000000000000000e+00) (0, 0, 0.00000000000000000000e+00) (0, 0, 0.00000000000000000000e+00) (0, 0, 0.00000000000000000000e+00) (0, 0, 0.00000000000000000000e+00) (0, 0, 0.00000000000000000000e+00) (0, 0, 0.00000000000000000000e+00) (0, 0, 0.00000000000000000000e+00) (0, 0, 0.00000000000000000000e+00) (0, 0, 0.00000000000000000000e+00) (0, 0, 0.00000000000000000000e+00) (0, 0, 0.00000000000000000000e+00) (0, 0, 0.00000000000000000000e+00) (0, 0, 0.00000000000000000000e+00) (0, 0, 0.00000000000000000000e+00) (0, 0, 0.00000000000000000000e+00) (0, 0, 0.00000000000000000000e+00) (0, 0, 0.00000000000000000000e+00) (0, 0, 0.00000000000000000000e+00) (0, 0, 0.00000000000000000000e+00) (0, 0, 0.00000000000000000000e+00) (0, 0, 0.00000000000000000000e+00) (0, 0, 0.00000000000000000000e+00) (0, 0, 0.00000000000000000000e+00) (0, 0, 0.00000000000000000000e+00) (0, 0, 0.00000000000000000000e+00) (0, 0, 0.00000000000000000000e+00) (0, 0, 0.00000000000000000000e+00) (0, 0, 0.00000000000000000000e+00) (0, 0, 0.00000000000000000000e+00) (0, 0, 0.00000000000000000000e+00) (203, 5, 5.00000000000000000000e-01) (203, 5, 5.00000000000000000000e-01) (203, 5, 5.00000000000000000000e-01) (203, 5, 5.00000000000000000000e-01) (203, 5, 5.00000000000000000000e-01) (203, 5, 5.00000000000000000000e-01) (203, 5, 5.00000000000000000000e-01) (203, 5, 5.00000000000000000000e-01) (203, 5, 5.00000000000000000000e-01) (203, 5, 5.00000000000000000000e-01) (203, 5, 5.00000000000000000000e-01) (203, 5, 5.00000000000000000000e-01) (203, 5, 5.00000000000000000000e-01) (203, 5, 5.00000000000000000000e-01) (203, 5, 5.00000000000000000000e-01) (203, 5, 5.00000000000000000000e-01) (203, 5, 5.00000000000000000000e-01) (203, 5, 5.00000000000000000000e-01) (203, 5, 5.00000000000000000000e-01) (203, 5, 5.00000000000000000000e-01) (203, 5, 5.00000000000000000000e-01) (203, 5, 5.00000000000000000000e-01) (203, 5, 5.00000000000000000000e-01) (203, 5, 5.00000000000000000000e-01) (203, 5, 5.00000000000000000000e-01) (203, 5, 5.00000000000000000000e-01) (203, 5, 5.00000000000000000000e-01) (203, 5, 5.00000000000000000000e-01) (203, 5, 5.00000000000000000000e-01) (203, 5, 5.00000000000000000000e-01) (203, 5, 5.00000000000000000000e-01) (203, 5, 5.00000000000000000000e-01) (203, 5, 5.00000000000000000000e-01) (203, 5, 5.00000000000000000000e-01) (203, 5, 5.00000000000000000000e-01) (203, 5, 5.00000000000000000000e-01) (203, 5, 5.00000000000000000000e-01) (203, 5, 5.00000000000000000000e-01) (203, 5, 5.00000000000000000000e-01) (203, 5, 5.00000000000000000000e-01) (203, 5, 5.00000000000000000000e-01) (203, 5, 5.00000000000000000000e-01) (203, 5, 5.00000000000000000000e-01) (203, 5, 5.00000000000000000000e-01) (203, 5, 5.00000000000000000000e-01) (203, 5, 5.00000000000000000000e-01) (203, 5, 5.00000000000000000000e-01) (203, 5, 5.00000000000000000000e-01) (203, 5, 5.00000000000000000000e-01) (203, 5, 5.00000000000000000000e-01) (203, 5, 5.00000000000000000000e-01) (0, 5, 0.00000000000000000000e+00) (52, 5, 5.00000000000000000000e-01) (52, 5, 5.00000000000000000000e-01) (52, 5, 5.00000000000000000000e-01) (52, 5, 5.00000000000000000000e-01) (52, 5, 5.00000000000000000000e-01) (52, 5, 5.00000000000000000000e-01) (52, 5, 5.00000000000000000000e-01) (52, 5, 5.00000000000000000000e-01) (52, 5, 5.00000000000000000000e-01) (52, 5, 5.00000000000000000000e-01) (52, 5, 5.00000000000000000000e-01) (52, 5, 5.00000000000000000000e-01) (52, 5, 5.00000000000000000000e-01) (52, 5, 5.00000000000000000000e-01) (52, 5, 5.00000000000000000000e-01) (52, 5, 5.00000000000000000000e-01) (52, 5, 5.00000000000000000000e-01) (52, 5, 5.00000000000000000000e-01) (52, 5, 5.00000000000000000000e-01) (52, 5, 5.00000000000000000000e-01) (52, 5, 5.00000000000000000000e-01) (52, 5, 5.00000000000000000000e-01) (52, 5, 5.00000000000000000000e-01) (52, 5, 5.00000000000000000000e-01) (52, 5, 5.00000000000000000000e-01) (52, 5, 5.00000000000000000000e-01) (52, 5, 5.00000000000000000000e-01) (52, 5, 5.00000000000000000000e-01) (52, 5, 5.00000000000000000000e-01) (52, 5, 5.00000000000000000000e-01) (52, 5, 5.00000000000000000000e-01) (52, 5, 5.00000000000000000000e-01) (52, 5, 5.00000000000000000000e-01) (52, 5, 5.00000000000000000000e-01) (52, 5, 5.00000000000000000000e-01) (52, 5, 5.00000000000000000000e-01) (52, 5, 5.00000000000000000000e-01) (52, 5, 5.00000000000000000000e-01) (52, 5, 5.00000000000000000000e-01) (52, 5, 5.00000000000000000000e-01) (52, 5, 5.00000000000000000000e-01) (52, 5, 5.00000000000000000000e-01) (52, 5, 5.00000000000000000000e-01) (52, 5, 5.00000000000000000000e-01) (52, 5, 5.00000000000000000000e-01) (52, 5, 5.00000000000000000000e-01) (52, 5, 5.00000000000000000000e-01) (52, 5, 5.00000000000000000000e-01) (52, 5, 5.00000000000000000000e-01) (52, 5, 5.00000000000000000000e-01) (52, 5, 5.00000000000000000000e-01) (52, 5, 5.00000000000000000000e-01) (52, 5, 5.00000000000000000000e-01) (52, 5, 5.00000000000000000000e-01) (52, 5, 5.00000000000000000000e-01) (52, 5, 5.00000000000000000000e-01) (52, 5, 5.00000000000000000000e-01) (52, 5, 5.00000000000000000000e-01) (52, 5, 5.00000000000000000000e-01) (52, 5, 5.00000000000000000000e-01) (52, 5, 5.00000000000000000000e-01) (52, 5, 5.00000000000000000000e-01) (52, 5, 5.00000000000000000000e-01) (52, 5, 5.00000000000000000000e-01) (52, 5, 5.00000000000000000000e-01) (52, 5, 5.00000000000000000000e-01) (52, 5, 5.00000000000000000000e-01) (52, 5, 5.00000000000000000000e-01) (52, 5, 5.00000000000000000000e-01) (52, 5, 5.00000000000000000000e-01) (52, 5, 5.00000000000000000000e-01) (52, 5, 5.00000000000000000000e-01) (52, 5, 5.00000000000000000000e-01) (52, 5, 5.00000000000000000000e-01) (52, 5, 5.00000000000000000000e-01) (52, 5, 5.00000000000000000000e-01) (52, 5, 5.00000000000000000000e-01) (52, 5, 5.00000000000000000000e-01) (52, 5, 5.00000000000000000000e-01) (52, 5, 5.00000000000000000000e-01) (52, 5, 5.00000000000000000000e-01) (52, 5, 5.00000000000000000000e-01) (52, 5, 5.00000000000000000000e-01) (52, 5, 5.00000000000000000000e-01) (52, 5, 5.00000000000000000000e-01) (52, 5, 5.00000000000000000000e-01) (52, 5, 5.00000000000000000000e-01) (52, 5, 5.00000000000000000000e-01) (52, 5, 5.00000000000000000000e-01) (52, 5, 5.00000000000000000000e-01) (52, 5, 5.00000000000000000000e-01) (52, 5, 5.00000000000000000000e-01) (52, 5, 5.00000000000000000000e-01) (52, 5, 5.00000000000000000000e-01) (52, 5, 5.00000000000000000000e-01) (52, 5, 5.00000000000000000000e-01) (52, 5, 5.00000000000000000000e-01) (52, 5, 5.00000000000000000000e-01) (52, 5, 5.00000000000000000000e-01) (52, 5, 5.00000000000000000000e-01) (0, 5, 0.00000000000000000000e+00)
connections (connected_to_neuron, weight)=(0, -6.13275861740112304688e+00) (1, 2.46951794624328613281e+00) (2, 1.45781755447387695312e+00) (3, -1.31501901149749755859e+00) (4, -2.32494878768920898438e+00) (5, -2.10927343368530273438e+00) (6, -2.46997618675231933594e+00) (7, 5.03506302833557128906e-01) (8, -1.61824882030487060547e-01) (9, -1.48721265792846679688e+00) (10, 8.87634038925170898438e-01) (11, -2.62369465827941894531e+00) (12, 6.12963080406188964844e-01) (13, -1.07147753238677978516e+00) (14, -2.88859558105468750000e+00) (15, 2.30543483048677444458e-02) (16, 1.65205156803131103516e+00) (17, 1.11825132369995117188e+00) (18, 5.28787517547607421875e+00) (19, 1.55589842796325683594e+00) (20, 3.04731965065002441406e-01) (21, -5.80172121524810791016e-01) (22, -2.02153325080871582031e-01) (23, 2.97221159934997558594e+00) (24, 8.39796140789985656738e-02) (25, 1.41573095321655273438e+00) (26, -3.97862577438354492188e+00) (27, 1.69531386345624923706e-02) (28, 1.47104215621948242188e+00) (29, -1.31123542785644531250e+00) (30, -9.57820773124694824219e-01) (31, 1.33740101009607315063e-02) (32, -2.68959212303161621094e+00) (33, -3.16222715377807617188e+00) (34, 5.51085805892944335938e+00) (35, -1.62332975864410400391e+00) (36, 3.55469465255737304688e-01) (37, -2.75633430480957031250e+00) (38, -5.01704692840576171875e+00) (39, 3.53819578886032104492e-02) (40, 3.65417623519897460938e+00) (41, -2.44278860092163085938e+00) (42, -1.13543236255645751953e+00) (43, 1.11402249336242675781e+00) (44, -3.32934021949768066406e+00) (45, 5.68636846542358398438e+00) (46, -5.08144283294677734375e+00) (47, -1.34523475170135498047e+00) (48, 1.51607155799865722656e+00) (49, -2.61642313003540039062e+00) (50, -2.49528121948242187500e+00) (51, 1.08271765708923339844e+00) (52, -1.35453686118125915527e-01) (53, -1.17757117748260498047e+00) (54, 2.43828833103179931641e-01) (55, -1.57328915596008300781e+00) (56, 2.62307286262512207031e+00) (57, 9.69872057437896728516e-01) (58, -4.77134037017822265625e+00) (59, 1.20894634723663330078e+00) (60, 1.12274491786956787109e+00) (61, -1.62327778339385986328e+00) (62, -1.76833045482635498047e+00) (63, 1.13983309268951416016e+00) (64, -1.92097663879394531250e+00) (65, 9.78037476539611816406e-01) (66, 3.97356390953063964844e+00) (67, -1.55906975269317626953e+00) (68, -1.40667545795440673828e+00) (69, 1.06133890151977539062e+00) (70, 7.22719526290893554688e+00) (71, 6.85058116912841796875e-01) (72, 4.60474109649658203125e+00) (73, -1.67994868755340576172e+00) (74, 5.83253145217895507812e+00) (75, -1.53486406803131103516e+00) (76, 4.20654487609863281250e+00) (77, 1.44119575619697570801e-01) (78, -3.34304356575012207031e+00) (79, 1.86464262008666992188e+00) (80, 1.62483975291252136230e-01) (81, -6.68680131435394287109e-01) (82, -1.50606226921081542969e+00) (83, -2.73333120346069335938e+00) (84, 2.69796395301818847656e+00) (85, 4.16338396072387695312e+00) (86, 5.16590547561645507812e+00) (87, -2.52826698124408721924e-02) (88, -1.76732599735260009766e+00) (89, 3.89560294151306152344e+00) (90, 3.82526731491088867188e+00) (91, -7.45627284049987792969e-01) (92, 3.39100003242492675781e+00) (93, -1.45593965053558349609e+00) (94, -6.38162612915039062500e-01) (95, -2.62354683876037597656e+00) (96, -1.88910937309265136719e+00) (97, -1.02999150753021240234e+00) (98, -5.87577760219573974609e-01) (99, -6.18941664695739746094e-01) (100, 2.67940020561218261719e+00) (101, 1.91136717796325683594e+00) (102, 3.93118321895599365234e-01) (103, 3.29887151718139648438e+00) (104, -4.92229312658309936523e-01) (105, 3.55605363845825195312e+00) (106, -2.37537288665771484375e+00) (107, -1.83104407787322998047e+00) (108, 3.30888247489929199219e+00) (109, 7.74993002414703369141e-01) (110, 2.46441149711608886719e+00) (111, -2.09033370018005371094e+00) (112, 1.78179144859313964844e+00) (113, 2.26208639144897460938e+00) (114, 4.71256643533706665039e-01) (115, -2.14084386825561523438e+00) (116, 3.54390263557434082031e+00) (117, -5.38443922996520996094e-01) (118, -2.76183080673217773438e+00) (119, 1.28597557544708251953e+00) (120, -2.29402613639831542969e+00) (121, 2.93301284313201904297e-01) (122, 9.47216868400573730469e-01) (123, -1.60986089706420898438e+00) (124, 2.71317505836486816406e+00) (125, 1.52000331878662109375e+00) (126, -3.31324219703674316406e+00) (127, -3.03200989961624145508e-01) (128, -3.10522341728210449219e+00) (129, 2.08604478836059570312e+00) (130, -1.95348966121673583984e+00) (131, -1.39420581981539726257e-02) (132, -4.82060909271240234375e+00) (133, -1.07655584812164306641e+00) (134, -1.25102424621582031250e+00) (135, -2.30825328826904296875e+00) (136, -1.89642024040222167969e+00) (137, -1.54457795619964599609e+00) (138, -3.00324606895446777344e+00) (139, 1.83296978473663330078e+00) (140, 1.58362317085266113281e+00) (141, -1.40444207191467285156e+00) (142, 2.59214162826538085938e+00) (143, 1.67092454433441162109e+00) (144, 1.23609852790832519531e+00) (145, 3.88849925994873046875e+00) (146, -2.57447153329849243164e-01) (147, -1.45335257053375244141e+00) (148, 4.16594892740249633789e-01) (149, 1.15657180547714233398e-01) (150, -2.94470405578613281250e+00) (151, 1.75174087285995483398e-01) (152, -1.29449977874755859375e+01) (153, -1.98786818981170654297e+00) (154, -3.64054107666015625000e+01) (155, 5.59033632278442382812e-01) (156, 1.86671149730682373047e+00) (157, -6.27787649631500244141e-01) (158, 2.05268311500549316406e+00) (159, -1.69075465202331542969e+00) (160, 3.18119597434997558594e+00) (161, -1.63967204093933105469e+00) (162, -2.43462324142456054688e+00) (163, 1.06463754177093505859e+00) (164, 3.39583444595336914062e+00) (165, 1.48457789421081542969e+00) (166, -6.51644325256347656250e+00) (167, 2.55347275733947753906e+00) (168, -5.16612863540649414062e+00) (169, -5.60399055480957031250e-01) (170, 7.61189699172973632812e-01) (171, -1.62019717693328857422e+00) (172, -7.57288992404937744141e-01) (173, 3.44853854179382324219e+00) (174, -2.46175861358642578125e+00) (175, -1.81335695087909698486e-02) (176, 2.03661370277404785156e+00) (177, 6.97105944156646728516e-01) (178, 4.56928682327270507812e+00) (179, -1.46329188346862792969e+00) (180, -1.13404750823974609375e+01) (181, 2.04010224342346191406e+00) (182, -2.00514450073242187500e+01) (183, 2.89711999893188476562e+00) (184, -3.11319375038146972656e+00) (185, -1.88685452938079833984e+00) (186, 6.84702038764953613281e-01) (187, 2.66928553581237792969e+00) (188, 2.50084996223449707031e+00) (189, -2.19409689307212829590e-01) (190, -1.86515522003173828125e+01) (191, 8.38701188564300537109e-01) (192, 3.25688910484313964844e+00) (193, 1.99104845523834228516e+00) (194, -1.25006318092346191406e-01) (195, -1.47051597014069557190e-02) (196, 1.50000000000000000000e+03) (197, 1.50000000000000000000e+03) (198, 1.50000000000000000000e+03) (199, 1.50000000000000000000e+03) (200, -9.57503139972686767578e-01) (201, -7.81023645401000976562e+00) (202, 3.84770894050598144531e+00) (0, 1.50000000000000000000e+03) (1, 1.49999853515625000000e+03) (2, 1.50000000000000000000e+03) (3, 1.49957897949218750000e+03) (4, 1.49999865722656250000e+03) (5, 1.49999853515625000000e+03) (6, 1.49928320312500000000e+03) (7, 1.49911303710937500000e+03) (8, 1.50000000000000000000e+03) (9, 1.49906677246093750000e+03) (10, 1.50000000000000000000e+03) (11, 1.49999865722656250000e+03) (12, 1.50000000000000000000e+03) (13, 1.49999853515625000000e+03) (14, 1.49971337890625000000e+03) (15, 1.49925195312500000000e+03) (16, -1.50000000000000000000e+03) (17, 1.49910546875000000000e+03) (18, 8.03101806640625000000e+02) (19, 1.49926013183593750000e+03) (20, -1.50000000000000000000e+03) (21, 1.49967614746093750000e+03) (22, -1.50000000000000000000e+03) (23, 1.49999853515625000000e+03) (24, 1.49869140625000000000e+03) (25, 1.49956652832031250000e+03) (26, -1.50000000000000000000e+03) (27, 1.49928381347656250000e+03) (28, 1.49898034667968750000e+03) (29, 1.49960913085937500000e+03) (30, -1.50000000000000000000e+03) (31, 1.49994970703125000000e+03) (32, -1.50000000000000000000e+03) (33, 1.49999865722656250000e+03) (34, -1.50000000000000000000e+03) (35, 1.49983227539062500000e+03) (36, -1.50000000000000000000e+03) (37, 1.49952893066406250000e+03) (38, 3.45042358398437500000e+02) (39, 1.49999865722656250000e+03) (40, 1.50000000000000000000e+03) (41, 1.49999853515625000000e+03) (42, -1.25273583984375000000e+03) (43, 1.49999865722656250000e+03) (44, 1.50000000000000000000e+03) (45, 1.49999865722656250000e+03) (46, -1.50000000000000000000e+03) (47, 1.49999853515625000000e+03) (48, 1.49999890136718750000e+03) (49, 1.49850109863281250000e+03) (50, 1.49962670898437500000e+03) (51, 1.49935205078125000000e+03) (52, 1.49993920898437500000e+03) (53, 1.49974255371093750000e+03) (54, -1.50000000000000000000e+03) (55, 1.49936621093750000000e+03) (56, 1.49999890136718750000e+03) (57, 1.49999853515625000000e+03) (58, 1.49999890136718750000e+03) (59, 1.49999853515625000000e+03) (60, 1.50000000000000000000e+03) (61, 1.49999865722656250000e+03) (62, 1.50000000000000000000e+03) (63, 1.49999865722656250000e+03) (64, -1.50000000000000000000e+03) (65, 1.49999865722656250000e+03) (66, -1.50000000000000000000e+03) (67, 1.49999853515625000000e+03) (68, -1.50000000000000000000e+03) (69, 1.49967565917968750000e+03) (70, -1.50000000000000000000e+03) (71, 1.49999853515625000000e+03) (72, -1.50000000000000000000e+03) (73, 1.49999853515625000000e+03) (74, -1.48513488769531250000e+03) (75, 1.49999853515625000000e+03) (76, -1.49999963378906250000e+03) (77, 1.49996166992187500000e+03) (78, -1.49677160644531250000e+03) (79, 1.49999853515625000000e+03) (80, -1.38000964355468750000e+03) (81, 1.49999865722656250000e+03) (82, -1.49866381835937500000e+03) (83, 1.49999865722656250000e+03) (84, -1.49364599609375000000e+03) (85, 1.49999853515625000000e+03) (86, -1.49955004882812500000e+03) (87, 1.49975268554687500000e+03) (88, -1.49999987792968750000e+03) (89, 1.49999853515625000000e+03) (90, 1.50000000000000000000e+03) (91, 1.49989465332031250000e+03) (92, 1.50000000000000000000e+03) (93, 1.50000000000000000000e+03) (94, 1.50000000000000000000e+03) (95, 1.49999853515625000000e+03) (96, 1.50000000000000000000e+03) (97, 1.49999853515625000000e+03) (98, 1.50000000000000000000e+03) (99, 1.49623388671875000000e+03) (100, 1.49999865722656250000e+03) (101, 1.49968688964843750000e+03) (102, -5.31805603027343750000e+02) (103, 1.49843103027343750000e+03) (104, -1.61274963378906250000e+02) (105, 1.49999865722656250000e+03) (106, 1.49975134277343750000e+03) (107, 1.49999865722656250000e+03) (108, -1.47965356445312500000e+03) (109, 1.49999865722656250000e+03) (110, 1.50000000000000000000e+03) (111, 1.50000000000000000000e+03) (112, 1.50000000000000000000e+03) (113, 1.50000000000000000000e+03) (114, 1.49999890136718750000e+03) (115, 1.50000000000000000000e+03) (116, -1.50000000000000000000e+03) (117, 1.49999865722656250000e+03) (118, -1.50000000000000000000e+03) (119, 1.50000000000000000000e+03) (120, 1.49315820312500000000e+03) (121, 1.49999865722656250000e+03) (122, -1.49738562011718750000e+03) (123, 1.50000000000000000000e+03) (124, 1.49941613769531250000e+03) (125, 1.49999865722656250000e+03) (126, 2.74852447509765625000e+02) (127, 1.49999865722656250000e+03) (128, -1.48452050781250000000e+03) (129, 1.49991882324218750000e+03) (130, -1.45213623046875000000e+03) (131, 1.49604846191406250000e+03) (132, 1.50000000000000000000e+03) (133, 1.49919335937500000000e+03) (134, -1.49973254394531250000e+03) (135, 1.49999865722656250000e+03) (136, 1.48266455078125000000e+03) (137, 1.49999865722656250000e+03) (138, -1.49999975585937500000e+03) (139, 1.49958630371093750000e+03) (140, -1.49999963378906250000e+03) (141, 1.49957812500000000000e+03) (142, -1.49978613281250000000e+03) (143, 1.49999853515625000000e+03) (144, -1.47726696777343750000e+03) (145, 1.49888403320312500000e+03) (146, 1.50000000000000000000e+03) (147, 1.49759008789062500000e+03) (148, -1.49697985839843750000e+03) (149, 1.49424584960937500000e+03) (150, -1.49792077636718750000e+03) (151, 1.49430029296875000000e+03) (152, -1.50000000000000000000e+03) (153, 1.49498889160156250000e+03) (154, -1.50000000000000000000e+03) (155, 1.49999645996093750000e+03) (156, -1.49999963378906250000e+03) (157, 1.49999865722656250000e+03) (158, -1.49999951171875000000e+03) (159, 1.49946557617187500000e+03) (160, -1.49632373046875000000e+03) (161, -1.49949438476562500000e+03) (162, 1.50000000000000000000e+03) (163, 1.49999865722656250000e+03) (164, 1.50000000000000000000e+03) (165, 1.49984362792968750000e+03) (166, 1.50000000000000000000e+03) (167, 1.49999865722656250000e+03) (168, 1.49999841308593750000e+03) (169, 1.49941967773437500000e+03) (170, 1.49982275390625000000e+03) (171, 1.49959277343750000000e+03) (172, 1.49999865722656250000e+03) (173, 1.50000000000000000000e+03) (174, 1.49876623535156250000e+03) (175, 1.49999865722656250000e+03) (176, -1.50000000000000000000e+03) (177, 1.49999853515625000000e+03) (178, 1.49999853515625000000e+03) (179, 1.49999865722656250000e+03) (180, 1.49833825683593750000e+03) (181, 1.46680004882812500000e+03) (182, -1.49552319335937500000e+03) (183, 1.49955334472656250000e+03) (184, 1.49999902343750000000e+03) (185, 1.49949121093750000000e+03) (186, 1.49924023437500000000e+03) (187, 1.49937731933593750000e+03) (188, -1.49999963378906250000e+03) (189, 1.49999865722656250000e+03) (190, -1.50000000000000000000e+03) (191, -1.49906518554687500000e+03) (192, -1.49136279296875000000e+03) (193, 1.49999865722656250000e+03) (194, -1.17292077636718750000e+03) (195, 1.49999865722656250000e+03) (196, 1.50000000000000000000e+03) (197, 1.50000000000000000000e+03) (198, 1.50000000000000000000e+03) (199, 1.50000000000000000000e+03) (200, 1.49999865722656250000e+03) (201, 1.50000000000000000000e+03) (202, -1.49999829101562500000e+03) (0, 3.27730522155761718750e+01) (1, -7.27783203125000000000e+01) (2, 1.48110885620117187500e+01) (3, -1.12773573398590087891e+00) (4, -3.58201074600219726562e+00) (5, -3.06054544448852539062e+00) (6, -1.15134757995605468750e+02) (7, -1.92467260360717773438e+00) (8, -3.70903091430664062500e+01) (9, 1.21612024307250976562e+00) (10, -4.65597391128540039062e+00) (11, -4.60948109626770019531e-01) (12, -2.08194541931152343750e+00) (13, 4.43690657615661621094e-01) (14, -1.23462114334106445312e+01) (15, -3.77879381179809570312e-01) (16, 3.98824501037597656250e+01) (17, 2.27131104469299316406e+00) (18, 2.22421836853027343750e+00) (19, -9.49192270636558532715e-02) (20, 1.02340484619140625000e+02) (21, -2.39731788635253906250e+00) (22, 6.76231460571289062500e+01) (23, -1.75964045524597167969e+00) (24, 1.83087368011474609375e+01) (25, -1.90445089340209960938e+00) (26, 2.05612125396728515625e+01) (27, -5.09550511837005615234e-01) (28, -2.35470607876777648926e-01) (29, 1.55450379848480224609e+00) (30, 2.09072357177734375000e+02) (31, -1.51611208915710449219e+00) (32, 1.50000000000000000000e+03) (33, -1.09585082530975341797e+00) (34, 6.82510604858398437500e+01) (35, -3.22807192802429199219e-01) (36, 2.51880493164062500000e+01) (37, 1.60561382770538330078e+00) (38, 7.30306148529052734375e+00) (39, -3.68985443115234375000e+01) (40, -2.10311431884765625000e+01) (41, -9.18710649013519287109e-01) (42, -3.25048561096191406250e+01) (43, -3.75860714912414550781e+00) (44, -2.27879089355468750000e+02) (45, -3.14026618003845214844e+00) (46, -8.74695358276367187500e+01) (47, -2.67717432975769042969e+00) (48, -2.15190982818603515625e+01) (49, 2.70684432983398437500e+00) (50, -2.51833419799804687500e+01) (51, 4.57490873336791992188e+00) (52, -3.59806861877441406250e+01) (53, -4.66839849948883056641e-01) (54, 1.58896722793579101562e+01) (55, 1.89652013778686523438e+00) (56, -2.70162010192871093750e+01) (57, -1.26714372634887695312e+00) (58, -3.48293151855468750000e+01) (59, -2.75908517837524414062e+00) (60, -6.77416458129882812500e+01) (61, -1.35901308059692382812e+00) (62, -3.58684120178222656250e+01) (63, -2.58774852752685546875e+00) (64, 6.87496721744537353516e-01) (65, 3.83946990966796875000e+00) (66, 1.41925994873046875000e+02) (67, 4.53412151336669921875e+00) (68, 3.48991699218750000000e+01) (69, 2.14393830299377441406e+00) (70, -2.17289619445800781250e+01) (71, 1.07533469796180725098e-01) (72, 1.83728370666503906250e+01) (73, -2.08640742301940917969e+00) (74, 1.38917055130004882812e+01) (75, -1.21860084533691406250e+02) (76, -1.70753173828125000000e+02) (77, -2.55573806762695312500e+01) (78, 5.81909084320068359375e+00) (79, 1.39187693595886230469e+00) (80, -2.32056021690368652344e+00) (81, -3.48804450035095214844e+00) (82, -2.61765098571777343750e+00) (83, -1.95569190979003906250e+01) (84, -3.66855382919311523438e+00) (85, 4.63487768173217773438e+00) (86, -1.82550227642059326172e+00) (87, -2.35859355926513671875e+01) (88, 1.83511233329772949219e+00) (89, 4.46145599365234375000e+02) (90, -3.11990737915039062500e+00) (91, -3.42520976066589355469e+00) (92, -4.93321269750595092773e-01) (93, 1.35191164016723632812e+01) (94, -4.33330535888671875000e+01) (95, 1.01997856140136718750e+02) (96, -1.01555032730102539062e+01) (97, -4.96173679828643798828e-01) (98, -4.96151638031005859375e+00) (99, 1.05798177719116210938e+01) (100, -3.01764011383056640625e+00) (101, 3.30425873398780822754e-02) (102, -1.97315227985382080078e+00) (103, -6.05605423450469970703e-01) (104, -5.42490148544311523438e+00) (105, 7.80893504619598388672e-01) (106, -4.59089183807373046875e+00) (107, -1.36051063537597656250e+01) (108, -3.39096283912658691406e+00) (109, 3.18397998809814453125e+01) (110, -1.85440659523010253906e+00) (111, -2.54572606086730957031e+00) (112, 2.42916440963745117188e+00) (113, -1.92239296436309814453e+00) (114, 3.93768405914306640625e+00) (115, -3.13551368713378906250e+01) (116, 2.29140071868896484375e+01) (117, -9.07401069998741149902e-02) (118, 2.87700328826904296875e+01) (119, -2.13779067993164062500e+00) (120, 1.93484840393066406250e+01) (121, -3.28427362442016601562e+00) (122, 9.19341182708740234375e+00) (123, 4.62619066238403320312e-01) (124, 4.51150703430175781250e+00) (125, -2.80364680290222167969e+00) (126, -1.80463075637817382812e+00) (127, -8.63836467266082763672e-01) (128, 2.76181316375732421875e+00) (129, -2.98929095268249511719e+00) (130, 9.40114212036132812500e+00) (131, 3.59628176689147949219e+00) (132, -8.37564659118652343750e+00) (133, 6.93071651458740234375e+00) (134, -6.09180259704589843750e+01) (135, 3.14224696159362792969e+00) (136, 5.73065900802612304688e+00) (137, -1.74797363281250000000e+02) (138, 1.87912416458129882812e+00) (139, -4.70901947021484375000e+01) (140, 4.46580886840820312500e+01) (141, 8.72192561626434326172e-01) (142, -1.80063199996948242188e+00) (143, 5.82694892883300781250e+01) (144, 2.85441265106201171875e+01) (145, -3.01278996467590332031e+00) (146, -2.05303835868835449219e+00) (147, 5.85621178150177001953e-01) (148, -1.10769739151000976562e+01) (149, -8.83099182128906250000e+02) (150, -1.77562503814697265625e+01) (151, 1.66163182258605957031e+00) (152, -2.59905319213867187500e+01) (153, -1.43079793453216552734e+00) (154, 1.32587051391601562500e+02) (155, -3.01813673973083496094e+00) (156, 8.84188270568847656250e+00) (157, 1.07004106044769287109e-01) (158, -2.73620014190673828125e+01) (159, -8.14287719726562500000e+01) (160, -5.97594985961914062500e+01) (161, 4.22596311569213867188e+00) (162, -2.90811634063720703125e+00) (163, 2.61837744712829589844e+00) (164, -6.60809448242187500000e+02) (165, 6.10799598693847656250e+00) (166, -5.50844993591308593750e+01) (167, -1.44737672805786132812e+00) (168, 5.60234338045120239258e-02) (169, 9.08473110198974609375e+00) (170, -9.50884323120117187500e+01) (171, 9.93694019317626953125e+00) (172, 3.00535535812377929688e+00) (173, -4.05748307704925537109e-01) (174, 8.45370674133300781250e+00) (175, -2.40764951705932617188e+00) (176, -2.53739762306213378906e+00) (177, -1.19596493244171142578e+00) (178, 1.05881357192993164062e+00) (179, 3.28407257795333862305e-01) (180, 1.45062133789062500000e+02) (181, 2.84288835525512695312e+00) (182, 1.50008056640625000000e+02) (183, 1.38375985622406005859e+00) (184, -1.34791574478149414062e+01) (185, 5.15215396881103515625e-01) (186, -3.60339379310607910156e+00) (187, 6.50802671909332275391e-01) (188, -6.91608953475952148438e+00) (189, -6.55301141738891601562e+00) (190, 9.07151565551757812500e+01) (191, 5.15723943710327148438e+00) (192, -4.09959506988525390625e+00) (193, -3.47677016258239746094e+00) (194, -5.72260332107543945312e+00) (195, -1.39412994384765625000e+02) (196, 1.50000000000000000000e+03) (197, 1.50000000000000000000e+03) (198, 1.50000000000000000000e+03) (199, 1.50000000000000000000e+03) (200, -6.54513597488403320312e+00) (201, -7.57560180664062500000e+02) (202, 1.06062545776367187500e+01) (0, -1.11899459362030029297e+00) (1, 1.05009913444519042969e+00) (2, 4.58581638336181640625e+00) (3, 1.23488172888755798340e-01) (4, 1.04102659225463867188e+00) (5, -1.63494670391082763672e+00) (6, 1.98814725875854492188e+00) (7, 4.21441650390625000000e+00) (8, -3.24586176872253417969e+00) (9, -1.66563975811004638672e+00) (10, -3.05227309465408325195e-01) (11, -1.52079224586486816406e-01) (12, 1.47211909294128417969e+00) (13, 1.57151663303375244141e+00) (14, -4.70921087265014648438e+00) (15, 3.38821578025817871094e+00) (16, -2.48329544067382812500e+00) (17, 2.09707903861999511719e+00) (18, -2.43954253196716308594e+00) (19, -2.52058655023574829102e-01) (20, -9.08272087574005126953e-01) (21, -2.06221294403076171875e+00) (22, -1.91221380233764648438e+00) (23, -2.16897726058959960938e+00) (24, -1.65976321697235107422e+00) (25, 1.28483545780181884766e+00) (26, 2.49618887901306152344e+00) (27, 1.66269528865814208984e+00) (28, 3.32414913177490234375e+00) (29, 3.60259443521499633789e-01) (30, -2.22056674957275390625e+00) (31, 2.05510330200195312500e+00) (32, 1.13964095711708068848e-01) (33, -4.45997416973114013672e-01) (34, -2.70379161834716796875e+00) (35, 2.55828523635864257812e+00) (36, 1.33680224418640136719e+00) (37, -8.73403728008270263672e-01) (38, -4.43319886922836303711e-01) (39, 3.42961382865905761719e+00) (40, -1.86215221881866455078e-01) (41, 1.70530736446380615234e+00) (42, -1.71914017200469970703e+00) (43, -1.61831784248352050781e+00) (44, -1.44206881523132324219e+00) (45, -2.00092077255249023438e+00) (46, -9.15188372135162353516e-01) (47, 3.65526169538497924805e-01) (48, 1.91176176071166992188e+00) (49, 1.23671203851699829102e-01) (50, 2.96973872184753417969e+00) (51, -3.15914154052734375000e-01) (52, -2.51177573204040527344e+00) (53, -4.52903479337692260742e-01) (54, 3.93197655677795410156e+00) (55, 1.53018212318420410156e+00) (56, -1.22201478481292724609e+00) (57, -2.27938556671142578125e+00) (58, -1.02918660640716552734e+00) (59, 3.20797055959701538086e-01) (60, 4.25743436813354492188e+00) (61, -1.37696290016174316406e+00) (62, 1.06529569625854492188e+00) (63, -8.07706594467163085938e-01) (64, -8.12820732593536376953e-01) (65, 7.92062222957611083984e-01) (66, 2.74907374382019042969e+00) (67, -1.68129011988639831543e-01) (68, 2.45414876937866210938e+00) (69, 2.24625602364540100098e-01) (70, -4.30074834823608398438e+00) (71, -3.80551427602767944336e-01) (72, 3.33769917488098144531e+00) (73, -1.94664791226387023926e-01) (74, -6.42034578323364257812e+00) (75, -3.23331624269485473633e-01) (76, 1.02358222007751464844e+00) (77, -1.08187055587768554688e+00) (78, 4.56400543451309204102e-01) (79, 9.68249261379241943359e-01) (80, -4.83961164951324462891e-01) (81, -3.65780651569366455078e-01) (82, 5.30403614044189453125e+00) (83, 1.23161458969116210938e+00) (84, 3.04298639297485351562e-01) (85, 1.36809989809989929199e-01) (86, -1.89209377765655517578e+00) (87, -2.08315563201904296875e+00) (88, -9.16742563247680664062e-01) (89, -2.61283063888549804688e+00) (90, 2.01980447769165039062e+00) (91, -2.62335777282714843750e-01) (92, -1.28478515148162841797e+00) (93, -3.33011329174041748047e-01) (94, 3.02618384361267089844e+00) (95, 3.63123357295989990234e-01) (96, -1.60067713260650634766e+00) (97, 4.35390853881835937500e+00) (98, -1.09175717830657958984e+00) (99, -5.12366056442260742188e-01) (100, -2.05725526809692382812e+00) (101, -3.80990982055664062500e-01) (102, -6.53959631919860839844e-01) (103, -2.61618661880493164062e+00) (104, 1.06794190406799316406e+00) (105, -2.38456225395202636719e+00) (106, 2.80493021011352539062e+00) (107, -1.81116497516632080078e+00) (108, 1.74040269851684570312e+00) (109, 3.77589726448059082031e+00) (110, -2.39099049568176269531e+00) (111, -9.27703797817230224609e-01) (112, 1.53536701202392578125e+00) (113, -1.81535029411315917969e+00) (114, -1.93208813667297363281e+00) (115, -9.54025149345397949219e-01) (116, -2.80475473403930664062e+00) (117, -8.59215140342712402344e-01) (118, -2.02706360816955566406e+00) (119, 1.80108857154846191406e+00) (120, -2.07838129997253417969e+00) (121, -2.27670049667358398438e+00) (122, 9.01982009410858154297e-01) (123, 7.74134635925292968750e-01) (124, 3.80318880081176757812e+00) (125, 9.37085628509521484375e-01) (126, -1.49315917491912841797e+00) (127, 1.88094055652618408203e+00) (128, 4.08986628055572509766e-01) (129, 7.02457353472709655762e-02) (130, 2.52335906028747558594e+00) (131, 7.44024097919464111328e-01) (132, -1.09145951271057128906e+00) (133, 3.21432662010192871094e+00) (134, 1.72250032424926757812e+00) (135, -1.91141176223754882812e+00) (136, 6.10294485092163085938e+00) (137, 2.63152718544006347656e+00) (138, 3.82079958915710449219e-01) (139, 1.98596313595771789551e-01) (140, 7.88878083229064941406e-01) (141, 9.01652932167053222656e-01) (142, 3.74047279357910156250e-01) (143, 4.88441497087478637695e-01) (144, -5.10863971710205078125e+00) (145, -1.63599205017089843750e+00) (146, 1.15967714786529541016e+00) (147, -1.92260384559631347656e-01) (148, -1.62516629695892333984e+00) (149, -7.28305280208587646484e-02) (150, 5.06391906738281250000e+00) (151, -2.43687772750854492188e+00) (152, -6.79848194122314453125e-01) (153, 7.85423278808593750000e-01) (154, 2.18368110656738281250e+01) (155, 3.76208931207656860352e-01) (156, 1.53761461377143859863e-01) (157, 5.15217781066894531250e-01) (158, -9.14345264434814453125e-01) (159, 1.96880131959915161133e-01) (160, -1.07636964321136474609e+00) (161, 1.48379075527191162109e+00) (162, -3.36619824171066284180e-01) (163, -2.74462819099426269531e+00) (164, 3.13747286796569824219e+00) (165, 1.22645986080169677734e+00) (166, 3.32422351837158203125e+00) (167, -6.76880121231079101562e-01) (168, -3.05341577529907226562e+00) (169, 1.11092999577522277832e-01) (170, 1.11276054382324218750e+00) (171, -1.71485614776611328125e+00) (172, 2.79272317886352539062e+00) (173, 1.63594365119934082031e+00) (174, 2.71083426475524902344e+00) (175, -4.88416075706481933594e-01) (176, -1.17312920093536376953e+00) (177, 1.05023407936096191406e+00) (178, -1.10077333450317382812e+00) (179, -9.02252569794654846191e-02) (180, 6.47763204574584960938e+00) (181, 3.28083306550979614258e-01) (182, 1.48353252410888671875e+01) (183, -1.88337147235870361328e-01) (184, 2.51195526123046875000e+00) (185, -4.19959098100662231445e-01) (186, -5.39735078811645507812e-01) (187, 1.22015506029129028320e-01) (188, -3.39360833168029785156e+00) (189, 4.01581436395645141602e-01) (190, 2.61860060691833496094e+00) (191, -1.10780286788940429688e+00) (192, 4.67353487014770507812e+00) (193, 9.90830898284912109375e-01) (194, 2.86658263206481933594e+00) (195, 2.43939474225044250488e-01) (196, 1.50000000000000000000e+03) (197, 1.50000000000000000000e+03) (198, 1.50000000000000000000e+03) (199, 1.50000000000000000000e+03) (200, -4.82295393943786621094e-01) (201, 1.98820161819458007812e+00) (202, 6.74423789978027343750e+00) (0, 1.50000000000000000000e+03) (1, 1.45310726165771484375e+01) (2, 1.50000000000000000000e+03) (3, 9.23342285156250000000e+01) (4, 4.82364988327026367188e+00) (5, 1.49992236328125000000e+03) (6, 1.03295478820800781250e+01) (7, 1.49993774414062500000e+03) (8, 1.49662890625000000000e+03) (9, 1.49895727539062500000e+03) (10, -1.49853967285156250000e+03) (11, 1.49974487304687500000e+03) (12, -1.49689465332031250000e+03) (13, 1.49974731445312500000e+03) (14, 1.49913769531250000000e+03) (15, 1.49858227539062500000e+03) (16, -1.49924230957031250000e+03) (17, 1.49980017089843750000e+03) (18, 1.50000000000000000000e+03) (19, 1.49999865722656250000e+03) (20, 1.48512011718750000000e+03) (21, 1.49999865722656250000e+03) (22, 1.47931420898437500000e+03) (23, 1.49984912109375000000e+03) (24, 1.49953027343750000000e+03) (25, 1.49906860351562500000e+03) (26, -1.50000000000000000000e+03) (27, 1.49909167480468750000e+03) (28, 5.70749092102050781250e+00) (29, 1.49999865722656250000e+03) (30, 5.49649333953857421875e+00) (31, 1.49999865722656250000e+03) (32, -1.50000000000000000000e+03) (33, 1.49999865722656250000e+03) (34, -1.50000000000000000000e+03) (35, 1.49944799804687500000e+03) (36, -1.50000000000000000000e+03) (37, 1.49999865722656250000e+03) (38, -1.49999914550781250000e+03) (39, 2.88329528808593750000e+02) (40, -4.83781583607196807861e-02) (41, 1.49991564941406250000e+03) (42, 5.03451049327850341797e-01) (43, 1.49931994628906250000e+03) (44, -1.49999914550781250000e+03) (45, 1.49999865722656250000e+03) (46, -1.50000000000000000000e+03) (47, 1.49999865722656250000e+03) (48, 1.49999890136718750000e+03) (49, 1.49968750000000000000e+03) (50, -1.49787036132812500000e+03) (51, 1.49999865722656250000e+03) (52, 1.49985363769531250000e+03) (53, 1.50000000000000000000e+03) (54, -1.50000000000000000000e+03) (55, 4.08944610595703125000e+02) (56, 1.49998144531250000000e+03) (57, 1.49999865722656250000e+03) (58, 1.49999890136718750000e+03) (59, 1.49999865722656250000e+03) (60, 1.50000000000000000000e+03) (61, 1.50000000000000000000e+03) (62, 1.50000000000000000000e+03) (63, 1.49999865722656250000e+03) (64, 1.49957116699218750000e+03) (65, 1.08199825286865234375e+01) (66, 1.49958728027343750000e+03) (67, 2.62618236541748046875e+01) (68, 1.49893273925781250000e+03) (69, 1.49999865722656250000e+03) (70, 1.49847033691406250000e+03) (71, 8.17860260009765625000e+01) (72, -1.50000000000000000000e+03) (73, 3.59168395996093750000e+01) (74, -1.50000000000000000000e+03) (75, 2.05015277862548828125e+01) (76, 2.49805355072021484375e+01) (77, 8.38956115722656250000e+02) (78, 1.49832336425781250000e+03) (79, 1.93102569580078125000e+01) (80, 1.49956225585937500000e+03) (81, 2.23815750122070312500e+02) (82, 3.14574699401855468750e+01) (83, 1.50000000000000000000e+03) (84, 5.27088403701782226562e+00) (85, 1.49999865722656250000e+03) (86, 1.00622491836547851562e+01) (87, 1.49999865722656250000e+03) (88, -1.50000000000000000000e+03) (89, 1.49999865722656250000e+03) (90, 7.73533010482788085938e+00) (91, 1.50000000000000000000e+03) (92, 7.97964954376220703125e+00) (93, 1.49999865722656250000e+03) (94, 8.97791194915771484375e+00) (95, 1.49999865722656250000e+03) (96, 2.54166626930236816406e+00) (97, 1.49999865722656250000e+03) (98, 1.91247892379760742188e+00) (99, 9.17947959899902343750e+00) (100, 2.32736730575561523438e+00) (101, 1.49999865722656250000e+03) (102, 1.89837038516998291016e+00) (103, 1.76274604797363281250e+01) (104, 6.91437196731567382812e+00) (105, 1.54520606994628906250e+01) (106, 2.37810659408569335938e+00) (107, 1.49852441406250000000e+03) (108, 1.49955151367187500000e+03) (109, 1.49999865722656250000e+03) (110, 1.49999865722656250000e+03) (111, 9.89435653686523437500e+01) (112, 1.50000000000000000000e+03) (113, 1.49999865722656250000e+03) (114, 1.49991809082031250000e+03) (115, 1.49999865722656250000e+03) (116, -1.50000000000000000000e+03) (117, 1.49952539062500000000e+03) (118, -1.50000000000000000000e+03) (119, 1.49932531738281250000e+03) (120, 1.49915808105468750000e+03) (121, 3.71269416809082031250e+01) (122, 9.12983947753906250000e+02) (123, 6.83186721801757812500e+01) (124, -1.49899670410156250000e+03) (125, 1.01062133789062500000e+03) (126, 1.18043994140625000000e+03) (127, 7.32311172485351562500e+01) (128, 4.62623138427734375000e+01) (129, 4.28181934356689453125e+00) (130, 1.49976428222656250000e+03) (131, 1.80946695804595947266e+00) (132, 1.49850012207031250000e+03) (133, 1.49999865722656250000e+03) (134, 1.49751989746093750000e+03) (135, 1.49999865722656250000e+03) (136, 2.28053498268127441406e+00) (137, 1.78171062469482421875e+01) (138, -1.42952784895896911621e-01) (139, 1.49999865722656250000e+03) (140, 7.91887390136718750000e+02) (141, 1.49999865722656250000e+03) (142, 1.49861840820312500000e+03) (143, 8.84697021484375000000e+02) (144, -1.50000000000000000000e+03) (145, 2.32921981811523437500e+01) (146, 1.49859863281250000000e+03) (147, 7.28492498397827148438e+00) (148, 9.69037857055664062500e+01) (149, 1.34098875522613525391e+00) (150, -1.50000000000000000000e+03) (151, 3.73731446266174316406e+00) (152, -1.50000000000000000000e+03) (153, 1.49979138183593750000e+03) (154, -1.50000000000000000000e+03) (155, 2.92827148437500000000e+02) (156, 1.49609265136718750000e+03) (157, 1.49999865722656250000e+03) (158, 2.05421028137207031250e+01) (159, 1.49819665527343750000e+03) (160, 1.49820654296875000000e+03) (161, 1.49871569824218750000e+03) (162, 1.49850720214843750000e+03) (163, 1.49872412109375000000e+03) (164, -1.49815600585937500000e+03) (165, 4.59712371826171875000e+02) (166, 1.44746960449218750000e+03) (167, 1.41049880981445312500e+01) (168, 3.15169215202331542969e+00) (169, 1.41544456481933593750e+01) (170, 4.59431552886962890625e+00) (171, 1.49999865722656250000e+03) (172, 1.49999865722656250000e+03) (173, 3.33937873840332031250e+01) (174, 1.65639053344726562500e+02) (175, 1.14985644531250000000e+03) (176, -5.61694240570068359375e+00) (177, 4.17691650390625000000e+02) (178, 1.97020256519317626953e+00) (179, 8.79898681640625000000e+02) (180, 1.49927380371093750000e+03) (181, 9.48416137695312500000e+00) (182, 1.49945764160156250000e+03) (183, 1.49956066894531250000e+03) (184, 1.49999938964843750000e+03) (185, 1.59038858413696289062e+01) (186, 1.50000000000000000000e+03) (187, 8.62625312805175781250e+00) (188, 2.14497451782226562500e+02) (189, 4.25028648376464843750e+01) (190, 3.46016235351562500000e+01) (191, 7.27529478073120117188e+00) (192, -1.43740209960937500000e+03) (193, 1.49999865722656250000e+03) (194, -1.49578344726562500000e+03) (195, 1.26620019531250000000e+03) (196, 1.50000000000000000000e+03) (197, 1.50000000000000000000e+03) (198, 1.50000000000000000000e+03) (199, 1.50000000000000000000e+03) (200, 1.49999865722656250000e+03) (201, 1.50000000000000000000e+03) (202, -1.49999829101562500000e+03) (0, -2.60571742057800292969e+00) (1, -2.20129919052124023438e+00) (2, 3.61253738403320312500e+00) (3, -1.98695766925811767578e+00) (4, 5.85825347900390625000e+00) (5, -3.86129707098007202148e-01) (6, 5.22362804412841796875e+00) (7, 8.48446130752563476562e-01) (8, -1.40014588832855224609e+00) (9, -1.29102480411529541016e+00) (10, -2.29341149330139160156e+00) (11, -2.46653199195861816406e-01) (12, 3.25641781091690063477e-01) (13, 2.57492113113403320312e+00) (14, 1.67077457904815673828e+00) (15, 4.23865985870361328125e+00) (16, 4.46754693984985351562e+00) (17, -2.45067197829484939575e-02) (18, -9.02955627441406250000e+00) (19, 3.57276380062103271484e-01) (20, -1.15544958114624023438e+01) (21, 1.34797644615173339844e+00) (22, 8.47029089927673339844e-01) (23, -5.86304485797882080078e-01) (24, -2.27492666244506835938e+00) (25, -9.49250757694244384766e-01) (26, 8.95303153991699218750e+00) (27, -2.91933983564376831055e-01) (28, -5.62260337173938751221e-02) (29, -1.24568164348602294922e+00) (30, -6.63943052291870117188e+00) (31, -1.35958218574523925781e+00) (32, 1.74724555015563964844e+00) (33, -9.17000845074653625488e-02) (34, 4.33008003234863281250e+00) (35, 3.30092215538024902344e+00) (36, 5.58925056457519531250e+00) (37, 1.22919335961341857910e-01) (38, -2.19713592529296875000e+00) (39, 3.15729570388793945312e+00) (40, 5.70517241954803466797e-01) (41, -2.80116391181945800781e+00) (42, 9.48538970947265625000e+00) (43, -2.31441473960876464844e+00) (44, -8.60833549499511718750e+00) (45, -4.77221632003784179688e+00) (46, 2.52227902412414550781e+00) (47, -3.89821982383728027344e+00) (48, -1.05000483989715576172e+00) (49, 2.02532505989074707031e+00) (50, 4.13677692413330078125e+00) (51, -1.46724724769592285156e+00) (52, -2.99061322212219238281e+00) (53, 1.39115107059478759766e+00) (54, 1.10916471481323242188e+01) (55, 3.16459941864013671875e+00) (56, -3.12494659423828125000e+00) (57, 4.17838573455810546875e+00) (58, 5.76969099044799804688e+00) (59, 7.03430891036987304688e-01) (60, 1.31435203552246093750e+00) (61, 3.29575395584106445312e+00) (62, -3.69881772994995117188e+00) (63, 3.05513381958007812500e+00) (64, -9.96010494232177734375e+00) (65, 3.88649320602416992188e+00) (66, -3.93949913978576660156e+00) (67, 1.56028401851654052734e+00) (68, 3.19681930541992187500e+00) (69, 2.90452629327774047852e-01) (70, -1.05816955566406250000e+01) (71, -1.07642900943756103516e+00) (72, 2.77692805975675582886e-02) (73, -6.98696196079254150391e-01) (74, 3.29378581047058105469e+00) (75, 3.83965468406677246094e+00) (76, 2.38914942741394042969e+00) (77, -2.01725268363952636719e+00) (78, -8.57349777221679687500e+00) (79, -5.38646459579467773438e-01) (80, 2.09983348846435546875e+00) (81, -7.73468852043151855469e-01) (82, 3.48776030540466308594e+00) (83, 3.44802427291870117188e+00) (84, -2.02064561843872070312e+00) (85, 2.10112512111663818359e-01) (86, 4.38250154256820678711e-01) (87, -1.98481857776641845703e+00) (88, 1.79255998134613037109e+00) (89, 3.60963320732116699219e+00) (90, -3.06275439262390136719e+00) (91, -1.88797533512115478516e+00) (92, 1.56944024562835693359e+00) (93, 1.74182510375976562500e+00) (94, 2.25179839134216308594e+00) (95, -1.63296008110046386719e+00) (96, 9.97082042694091796875e+00) (97, -1.12609672546386718750e+00) (98, -5.59568107128143310547e-01) (99, -1.84740483760833740234e-01) (100, 3.63617682456970214844e+00) (101, 2.18914222717285156250e+00) (102, 8.79634797573089599609e-01) (103, 1.91692984104156494141e+00) (104, -1.31170824170112609863e-01) (105, 2.47070169448852539062e+00) (106, -2.38769292831420898438e+00) (107, -1.00265014171600341797e+00) (108, 2.40971803665161132812e+00) (109, 4.02264529839158058167e-03) (110, 1.65708935260772705078e+00) (111, 5.49032449722290039062e-01) (112, 8.88918018341064453125e+00) (113, 3.39230746030807495117e-02) (114, -4.49368000030517578125e+00) (115, -9.97597217559814453125e-01) (116, -7.15005874633789062500e-01) (117, 2.00029730796813964844e+00) (118, -4.87968492507934570312e+00) (119, 9.24589335918426513672e-01) (120, 3.69762158393859863281e+00) (121, 9.62333977222442626953e-01) (122, 4.34238719940185546875e+00) (123, -2.17483687400817871094e+00) (124, -1.60642766952514648438e+00) (125, -1.49041485786437988281e+00) (126, 1.66289925575256347656e+00) (127, -4.11073714494705200195e-01) (128, 2.18866869807243347168e-01) (129, 2.43928956985473632812e+00) (130, -1.57126367092132568359e+00) (131, -1.29760873317718505859e+00) (132, 8.28218746185302734375e+00) (133, -1.24785852432250976562e+00) (134, 9.12689876556396484375e+00) (135, 1.75359882414340972900e-02) (136, -3.53759717941284179688e+00) (137, -3.45273900032043457031e+00) (138, 3.29742503166198730469e+00) (139, -6.93175733089447021484e-01) (140, 4.22386312484741210938e+00) (141, 2.01588797569274902344e+00) (142, 3.34195375442504882812e+00) (143, -3.15244644880294799805e-01) (144, -4.67315864562988281250e+00) (145, -3.27863240242004394531e+00) (146, -5.26698923110961914062e+00) (147, -6.14320337772369384766e-01) (148, 6.86053466796875000000e+00) (149, 3.72543334960937500000e-01) (150, -2.64528334140777587891e-01) (151, -3.71511435508728027344e+00) (152, -1.10476970672607421875e+01) (153, -2.05256605148315429688e+00) (154, 3.47303009033203125000e+00) (155, -9.47654783725738525391e-01) (156, 4.14243364334106445312e+00) (157, -1.11506089568138122559e-01) (158, -4.18554019927978515625e+00) (159, -4.70078182220458984375e+00) (160, 2.78732848167419433594e+00) (161, 1.41624641418457031250e+00) (162, 1.91735088825225830078e+00) (163, 9.45536434650421142578e-01) (164, -1.82484221458435058594e+00) (165, -1.40086364746093750000e+00) (166, 6.08928251266479492188e+00) (167, 5.86022329330444335938e+00) (168, 6.40237182378768920898e-02) (169, -2.89155936241149902344e+00) (170, 4.58404636383056640625e+00) (171, 2.41795682907104492188e+00) (172, -7.21834945678710937500e+00) (173, -9.33896064758300781250e-01) (174, -3.90710175037384033203e-01) (175, -1.10157060623168945312e+00) (176, 8.39844644069671630859e-01) (177, -4.86131489276885986328e-01) (178, 1.23826503753662109375e+01) (179, -7.66230881214141845703e-01) (180, 2.93674778938293457031e+00) (181, 6.90321207046508789062e+00) (182, -1.19223606586456298828e+00) (183, 1.16135828197002410889e-01) (184, -7.16480159759521484375e+00) (185, 7.10078239440917968750e-01) (186, 5.22914505004882812500e+00) (187, -2.35082745552062988281e+00) (188, -4.00431394577026367188e+00) (189, 1.32989025115966796875e+00) (190, -1.55884265899658203125e+01) (191, -3.17566037178039550781e+00) (192, -1.86407476663589477539e-01) (193, -2.10308670997619628906e+00) (194, -1.29027795791625976562e+00) (195, -5.53520619869232177734e-01) (196, 1.50000000000000000000e+03) (197, 1.50000000000000000000e+03) (198, 1.50000000000000000000e+03) (199, 1.50000000000000000000e+03) (200, 1.73422467708587646484e+00) (201, -5.75227165222167968750e+00) (202, 4.66243314743041992188e+00) (0, -8.72475433349609375000e+00) (1, 1.38872885704040527344e+00) (2, 1.08052415847778320312e+01) (3, -1.93795013427734375000e+00) (4, 1.19483578205108642578e+00) (5, -2.71153306961059570312e+00) (6, 1.55486714839935302734e+00) (7, 2.07678008079528808594e+00) (8, 2.07700538635253906250e+00) (9, -1.01642727851867675781e+00) (10, -4.21263885498046875000e+00) (11, 7.43859112262725830078e-02) (12, 9.30280780792236328125e+00) (13, 2.22005152702331542969e+00) (14, -1.71381652355194091797e+00) (15, -1.29857563972473144531e+00) (16, -7.62085247039794921875e+00) (17, 5.62693071365356445312e+00) (18, -5.54059171676635742188e+00) (19, 1.82205069065093994141e+00) (20, -2.89998316764831542969e+00) (21, 4.10752010345458984375e+00) (22, 8.82761001586914062500e+00) (23, -7.63831257820129394531e-01) (24, -5.79662084579467773438e-01) (25, -1.11886632442474365234e+00) (26, 1.27186119556427001953e+00) (27, -3.55795598030090332031e+00) (28, 8.22169113159179687500e+00) (29, -8.12285304069519042969e-01) (30, 6.17834138870239257812e+00) (31, -1.62037694454193115234e+00) (32, -5.20574510097503662109e-01) (33, -1.30864572525024414062e+00) (34, -1.11304664611816406250e+00) (35, 3.75628829002380371094e-01) (36, 5.23420190811157226562e+00) (37, -3.72871994972229003906e-01) (38, 5.89056301116943359375e+00) (39, -1.57704794406890869141e+00) (40, -6.60506784915924072266e-01) (41, -5.51091372966766357422e-01) (42, -2.87453919649124145508e-01) (43, -4.48629570007324218750e+00) (44, -6.31217336654663085938e+00) (45, -1.28264892101287841797e+00) (46, 3.26397895812988281250e+00) (47, 5.59389686584472656250e+00) (48, 4.03169059753417968750e+00) (49, 3.35693955421447753906e+00) (50, -1.02430057525634765625e+01) (51, 7.08589196205139160156e-01) (52, 4.85154420137405395508e-01) (53, -4.44425916671752929688e+00) (54, -7.84208250045776367188e+00) (55, 7.57575452327728271484e-01) (56, 2.02111172676086425781e+00) (57, -2.73567056655883789062e+00) (58, 4.98651266098022460938e+00) (59, -1.45551964640617370605e-01) (60, 3.74523210525512695312e+00) (61, 1.25418290495872497559e-01) (62, 5.46509361267089843750e+00) (63, -1.38480615615844726562e+00) (64, -1.46872448921203613281e+00) (65, 3.34611558914184570312e+00) (66, -2.74060797691345214844e+00) (67, -2.39443445205688476562e+00) (68, 3.87897300720214843750e+00) (69, -1.98400998115539550781e+00) (70, 8.30465698242187500000e+00) (71, 4.02869176864624023438e+00) (72, -7.78584194183349609375e+00) (73, 6.25986218452453613281e-01) (74, -3.10114002227783203125e+00) (75, 2.49964523315429687500e+00) (76, -1.85826671123504638672e+00) (77, 1.08962583541870117188e+00) (78, 2.18645668029785156250e+00) (79, 2.58225131034851074219e+00) (80, -1.22895431518554687500e+00) (81, 7.31781899929046630859e-01) (82, 1.39269075393676757812e+01) (83, 7.97483325004577636719e-02) (84, 4.65105867385864257812e+00) (85, 7.01238811016082763672e-01) (86, 4.75366258621215820312e+00) (87, -2.72616934776306152344e+00) (88, -1.58656044006347656250e+01) (89, -3.16109347343444824219e+00) (90, 1.45559215545654296875e+00) (91, 3.49165380001068115234e-01) (92, 4.98203897476196289062e+00) (93, 2.34697604179382324219e+00) (94, -4.24262428283691406250e+00) (95, 7.08028674125671386719e-01) (96, 3.82122492790222167969e+00) (97, 1.65681457519531250000e+00) (98, -9.52878594398498535156e-01) (99, 1.62698566913604736328e-01) (100, -2.42288732528686523438e+00) (101, 2.84143835306167602539e-01) (102, 1.05652654170989990234e+00) (103, 1.20403873920440673828e+00) (104, -2.35238224267959594727e-01) (105, 1.14419496059417724609e+00) (106, -2.48603320121765136719e+00) (107, 2.48957967758178710938e+00) (108, -1.04921889305114746094e+00) (109, 1.15556442737579345703e+00) (110, 5.60222101211547851562e+00) (111, 2.88433432579040527344e-01) (112, -1.16776247024536132812e+01) (113, 1.50013625621795654297e+00) (114, 9.95496749877929687500e+00) (115, -5.33997535705566406250e+00) (116, 7.03867721557617187500e+00) (117, -1.18374764919281005859e+00) (118, -2.00418901443481445312e+00) (119, 1.77083417773246765137e-01) (120, -5.27363955974578857422e-01) (121, 2.21523400396108627319e-02) (122, 1.73072600364685058594e+00) (123, 1.30432891845703125000e+00) (124, -2.85961389541625976562e+00) (125, -2.17477822303771972656e+00) (126, 1.62086868286132812500e+00) (127, -3.93527197837829589844e+00) (128, -1.22053647041320800781e+00) (129, 1.81893318891525268555e-01) (130, 8.11982333660125732422e-01) (131, -2.22251558303833007812e+00) (132, -9.24697589874267578125e+00) (133, 9.25587177276611328125e-01) (134, 2.94087815284729003906e+00) (135, 3.45525383949279785156e+00) (136, -6.41707372665405273438e+00) (137, -7.22977876663208007812e-01) (138, 5.76742839813232421875e+00) (139, 2.20340275764465332031e+00) (140, -7.84913730621337890625e+00) (141, 1.18142426013946533203e+00) (142, 2.21565413475036621094e+00) (143, -4.76470041275024414062e+00) (144, -1.90957534313201904297e+00) (145, 1.59244596958160400391e+00) (146, 4.20672512054443359375e+00) (147, 7.06940233707427978516e-01) (148, -5.39345741271972656250e+00) (149, -3.90811830759048461914e-01) (150, -1.21108853816986083984e+00) (151, 1.26288223266601562500e+00) (152, 3.15847635269165039062e+00) (153, 5.17082452774047851562e+00) (154, 2.56230711936950683594e+00) (155, -3.84080553054809570312e+00) (156, -1.21132409572601318359e+00) (157, 1.87854909896850585938e+00) (158, 3.95374488830566406250e+00) (159, -1.94804048538208007812e+00) (160, -1.15724980831146240234e+00) (161, 4.84835892915725708008e-01) (162, -4.62147283554077148438e+00) (163, 1.90926706790924072266e+00) (164, 3.95794534683227539062e+00) (165, 6.50568771362304687500e+00) (166, -2.14368152618408203125e+00) (167, -1.09562313556671142578e+00) (168, -5.43539464473724365234e-01) (169, 1.02681910991668701172e+00) (170, -5.89584887027740478516e-01) (171, -4.00694322586059570312e+00) (172, 9.52174663543701171875e+00) (173, 9.96559977531433105469e-01) (174, -1.13458251953125000000e+01) (175, 4.69324398040771484375e+00) (176, 4.18042570352554321289e-01) (177, -1.83416426181793212891e+00) (178, -2.75253367424011230469e+00) (179, -4.93253564834594726562e+00) (180, 5.88739204406738281250e+00) (181, -3.31231856346130371094e+00) (182, -6.78699791431427001953e-01) (183, -4.05883598327636718750e+00) (184, -2.34573268890380859375e+00) (185, 8.81541132926940917969e-01) (186, 1.55731618404388427734e-01) (187, 3.62194705009460449219e+00) (188, -4.06667137145996093750e+00) (189, 4.90134334564208984375e+00) (190, 8.80322605371475219727e-02) (191, 5.78414857387542724609e-01) (192, 1.52210350036621093750e+01) (193, 6.18018507957458496094e-01) (194, -1.09615888595581054688e+01) (195, 2.45057299733161926270e-01) (196, 1.50000000000000000000e+03) (197, 1.50000000000000000000e+03) (198, 1.50000000000000000000e+03) (199, 1.50000000000000000000e+03) (200, -1.46776163578033447266e+00) (201, -8.00897884368896484375e+00) (202, 5.02166748046875000000e+00) (0, 1.60729904174804687500e+01) (1, -5.74071943759918212891e-01) (2, -1.11602525711059570312e+01) (3, -8.95470201969146728516e-01) (4, 2.08584022521972656250e+00) (5, -3.10059523582458496094e+00) (6, 6.53004869818687438965e-02) (7, -3.37531000375747680664e-01) (8, 3.26988315582275390625e+00) (9, -6.46101117134094238281e-01) (10, 1.49469769001007080078e+00) (11, 3.59362792968750000000e+00) (12, 1.17055916786193847656e+00) (13, 2.71736073493957519531e+00) (14, -4.37201452255249023438e+00) (15, 2.06533527374267578125e+00) (16, -5.06841468811035156250e+00) (17, -2.00802847743034362793e-01) (18, 2.41584229469299316406e+00) (19, 6.97178602218627929688e-01) (20, 7.27200174331665039062e+00) (21, 6.82214200496673583984e-01) (22, 2.00567528605461120605e-01) (23, 6.56378626823425292969e-01) (24, -3.10664147138595581055e-01) (25, 4.16738700866699218750e+00) (26, -2.98263893127441406250e+01) (27, 2.00580739974975585938e+00) (28, 1.06685853004455566406e+00) (29, -1.02553106844425201416e-01) (30, 5.72772681713104248047e-01) (31, 1.48940718173980712891e+00) (32, -3.99765801429748535156e+00) (33, 8.23024332523345947266e-01) (34, 1.36808180809020996094e+00) (35, 2.57256817817687988281e+00) (36, -6.54009914398193359375e+00) (37, 1.54120385646820068359e+00) (38, -3.25959157943725585938e+00) (39, 1.46278083324432373047e-01) (40, 3.10630178451538085938e+00) (41, -2.57016563415527343750e+00) (42, 2.38216233253479003906e+00) (43, -2.01608061790466308594e+00) (44, -2.20172023773193359375e+00) (45, -9.75824534893035888672e-01) (46, 6.73362612724304199219e-01) (47, 2.22558593750000000000e+00) (48, -3.15481805801391601562e+00) (49, -1.10571138560771942139e-01) (50, -1.11006736755371093750e+00) (51, 1.25099241733551025391e+00) (52, -5.80229043960571289062e+00) (53, -3.45272803306579589844e+00) (54, 6.22173643112182617188e+00) (55, 5.20225226879119873047e-01) (56, -1.42601692676544189453e+00) (57, 4.05191564559936523438e+00) (58, -3.58576714992523193359e-01) (59, -3.86179041862487792969e+00) (60, 5.59919834136962890625e+00) (61, 2.96529340744018554688e+00) (62, -3.77040535211563110352e-01) (63, -2.05514907836914062500e+00) (64, 6.25110912322998046875e+00) (65, -1.42533433437347412109e+00) (66, -1.13058090209960937500e+00) (67, -1.14951944351196289062e+00) (68, -4.16251420974731445312e+00) (69, -7.52576947212219238281e-01) (70, 5.23360395431518554688e+00) (71, -3.23215812444686889648e-01) (72, -1.83773279190063476562e-01) (73, -1.77068316936492919922e+00) (74, 5.58045005798339843750e+00) (75, 6.53171300888061523438e-01) (76, -1.61576354503631591797e+00) (77, -4.75467586517333984375e+00) (78, -2.68210470676422119141e-01) (79, -1.08911849558353424072e-01) (80, 2.93929767608642578125e+00) (81, -1.27328717708587646484e+00) (82, 7.88868427276611328125e-01) (83, 6.23684003949165344238e-02) (84, -8.29204440116882324219e-01) (85, 1.70798003673553466797e+00) (86, 2.47688740491867065430e-01) (87, -4.04615879058837890625e+00) (88, -2.10457277297973632812e+00) (89, 4.20534658432006835938e+00) (90, -2.20598116517066955566e-01) (91, 3.57031536102294921875e+00) (92, -5.34838080406188964844e-01) (93, -1.38176727294921875000e+00) (94, -2.83664798736572265625e+00) (95, -2.06708002090454101562e+00) (96, 1.59875184297561645508e-01) (97, -1.08164799213409423828e+00) (98, 1.05594170093536376953e+00) (99, 2.04460811614990234375e+00) (100, -1.38469719886779785156e+00) (101, -4.31184113025665283203e-01) (102, -3.99438858032226562500e+00) (103, -1.68098986148834228516e-01) (104, -1.63349938392639160156e+00) (105, -2.41798233985900878906e+00) (106, 2.80167269706726074219e+00) (107, 7.07116544246673583984e-01) (108, 5.28607293963432312012e-02) (109, 7.38746002316474914551e-02) (110, 3.51863217353820800781e+00) (111, 1.11159300804138183594e+00) (112, -6.00156009197235107422e-01) (113, 1.51808047294616699219e+00) (114, -6.02901995182037353516e-01) (115, 1.94043695926666259766e+00) (116, -3.24059510231018066406e+00) (117, 2.15178513526916503906e+00) (118, -6.58037710189819335938e+00) (119, -3.96383345127105712891e-01) (120, 4.02308273315429687500e+00) (121, 5.69402575492858886719e-01) (122, -3.37731647491455078125e+00) (123, -2.58499693870544433594e+00) (124, 9.50210094451904296875e-01) (125, 2.28871917724609375000e+00) (126, 5.50605654716491699219e-01) (127, 2.73797535896301269531e+00) (128, -1.12380914390087127686e-01) (129, -1.56153082847595214844e+00) (130, 2.76810979843139648438e+00) (131, 1.46190896630287170410e-01) (132, 1.59911739826202392578e+00) (133, 2.93378740549087524414e-01) (134, 4.89163732528686523438e+00) (135, -1.25728476047515869141e+00) (136, 5.41732311248779296875e+00) (137, -1.26193344593048095703e+00) (138, 8.13628375530242919922e-01) (139, 2.03972029685974121094e+00) (140, -1.35884034633636474609e+00) (141, 1.16737318038940429688e+00) (142, 2.08063697814941406250e+00) (143, 1.91381514072418212891e-01) (144, 1.18961083889007568359e+00) (145, 8.22306424379348754883e-02) (146, -8.45882117748260498047e-01) (147, 2.19667911529541015625e+00) (148, 2.03403204679489135742e-01) (149, -4.16837644577026367188e+00) (150, 3.30018448829650878906e+00) (151, 1.97633719444274902344e+00) (152, -1.20000410079956054688e+01) (153, -1.27967977523803710938e+00) (154, 9.30677604675292968750e+00) (155, -9.34802830219268798828e-01) (156, 1.87430202960968017578e+00) (157, -1.44611799716949462891e+00) (158, 3.66464376449584960938e+00) (159, -2.95989704132080078125e+00) (160, 2.00966119766235351562e+00) (161, 6.37709438800811767578e-01) (162, 5.98133182525634765625e+00) (163, -1.96959555149078369141e+00) (164, 9.07723248004913330078e-01) (165, -2.32978725433349609375e+00) (166, -5.34996080398559570312e+00) (167, -2.29640555381774902344e+00) (168, 1.09975600242614746094e+00) (169, 1.96888339519500732422e+00) (170, 1.48386025428771972656e+00) (171, 1.12215422093868255615e-01) (172, 1.83800637722015380859e+00) (173, -2.26304674148559570312e+00) (174, 1.52423572540283203125e+00) (175, 3.38194966316223144531e+00) (176, -5.74646997451782226562e+00) (177, -1.18733906745910644531e+00) (178, 2.73261517286300659180e-01) (179, 8.58087185770273208618e-03) (180, 7.52950847148895263672e-01) (181, 2.18437743186950683594e+00) (182, -4.24287891387939453125e+00) (183, 4.71069669723510742188e+00) (184, -2.60729217529296875000e+00) (185, 2.17388558387756347656e+00) (186, -1.71154606342315673828e+00) (187, -1.20438110828399658203e+00) (188, -1.95379412174224853516e+00) (189, 1.22495412826538085938e+00) (190, 2.80967092514038085938e+00) (191, 1.94227719306945800781e+00) (192, -3.11569547653198242188e+00) (193, 1.49702847003936767578e+00) (194, -1.96765499114990234375e+01) (195, -1.75151789188385009766e+00) (196, 1.50000000000000000000e+03) (197, 1.50000000000000000000e+03) (198, 1.50000000000000000000e+03) (199, 1.50000000000000000000e+03) (200, -3.10421377420425415039e-01) (201, 5.86423349380493164062e+00) (202, 7.43273639678955078125e+00) (0, 8.52595138549804687500e+00) (1, -1.06713187694549560547e+00) (2, -3.74992203712463378906e+00) (3, -3.33154559135437011719e+00) (4, 2.83044958114624023438e+00) (5, -5.31376183032989501953e-01) (6, 4.50800323486328125000e+00) (7, 2.13585734367370605469e-01) (8, -8.35497570037841796875e+00) (9, -4.23993095755577087402e-02) (10, 1.37021148204803466797e+00) (11, -2.19119501113891601562e+00) (12, 2.57943725585937500000e+00) (13, -1.94998204708099365234e+00) (14, -1.58148199319839477539e-01) (15, 5.47210550308227539062e+00) (16, -6.68082892894744873047e-01) (17, -5.21374702453613281250e-01) (18, -6.09606170654296875000e+00) (19, 1.40000712871551513672e+00) (20, -4.75132131576538085938e+00) (21, 2.78035545349121093750e+00) (22, 7.34199881553649902344e-01) (23, -1.89857649803161621094e+00) (24, 5.75447893142700195312e+00) (25, -2.59254598617553710938e+00) (26, 2.50652122497558593750e+00) (27, 1.11406278610229492188e+00) (28, -3.16536283493041992188e+00) (29, 2.84159636497497558594e+00) (30, 5.41440725326538085938e-01) (31, 3.39976215362548828125e+00) (32, -8.48143768310546875000e+00) (33, -2.21288299560546875000e+00) (34, 4.42782497406005859375e+00) (35, 4.06589448451995849609e-01) (36, -1.03096380233764648438e+01) (37, 2.35487222671508789062e+00) (38, -9.71315574645996093750e+00) (39, -1.45953130722045898438e+00) (40, 1.80798459053039550781e+00) (41, -1.62694239616394042969e+00) (42, 1.82297277450561523438e+00) (43, -2.69351339340209960938e+00) (44, -1.28707094192504882812e+01) (45, 5.03075408935546875000e+00) (46, -2.41669807434082031250e+01) (47, -1.06088149547576904297e+00) (48, 6.16233110427856445312e+00) (49, -9.09303843975067138672e-01) (50, 9.43103408813476562500e+00) (51, -3.23296245187520980835e-03) (52, -4.68232393264770507812e+00) (53, 9.52131569385528564453e-01) (54, -7.04897165298461914062e+00) (55, 3.87547940015792846680e-01) (56, -5.66286993026733398438e+00) (57, 1.37559342384338378906e+00) (58, 1.85103130340576171875e+00) (59, -8.44078838825225830078e-01) (60, -3.76380205154418945312e+00) (61, -2.28345632553100585938e+00) (62, 6.20612478256225585938e+00) (63, -8.43990892171859741211e-02) (64, 3.93784618377685546875e+00) (65, 4.11588478088378906250e+00) (66, 6.35421276092529296875e+00) (67, -7.53853440284729003906e-01) (68, 1.14539413452148437500e+01) (69, -2.54000520706176757812e+00) (70, -6.78977870941162109375e+00) (71, 1.68191504478454589844e+00) (72, -5.30417060852050781250e+00) (73, -8.47829401493072509766e-01) (74, -1.87919461727142333984e+00) (75, 1.64000856876373291016e+00) (76, -7.19354963302612304688e+00) (77, -2.14260625839233398438e+00) (78, -1.39627397060394287109e+00) (79, 2.51966953277587890625e+00) (80, -2.18428468704223632812e+00) (81, 1.11426338553428649902e-02) (82, 8.40731239318847656250e+00) (83, -1.71684432029724121094e+00) (84, 2.54793667793273925781e+00) (85, 6.48951530456542968750e-02) (86, 5.11355590820312500000e+00) (87, 7.10064113140106201172e-01) (88, -2.07928714752197265625e+01) (89, 1.00257039070129394531e-01) (90, 2.78874826431274414062e+00) (91, -1.96506071090698242188e+00) (92, 3.19566941261291503906e+00) (93, 3.36375206708908081055e-01) (94, 4.57123804092407226562e+00) (95, -1.91067326068878173828e+00) (96, -1.14845788478851318359e+00) (97, 1.20457088947296142578e+00) (98, -8.33170592784881591797e-01) (99, -1.44614920020103454590e-01) (100, 2.26224350929260253906e+00) (101, 3.71108317375183105469e+00) (102, -4.41287994384765625000e+00) (103, -8.93209040164947509766e-01) (104, -1.61143720149993896484e+00) (105, -2.79547691345214843750e+00) (106, 2.27637624740600585938e+00) (107, -1.74890315532684326172e+00) (108, 3.82189691066741943359e-01) (109, 1.04503321647644042969e+00) (110, -2.76555448770523071289e-01) (111, 9.22285556793212890625e-01) (112, -3.23175692558288574219e+00) (113, -2.31545448303222656250e+00) (114, -3.08862090110778808594e+00) (115, 1.84564396739006042480e-01) (116, -7.84127378463745117188e+00) (117, -2.97736716270446777344e+00) (118, 1.40528106689453125000e+00) (119, -4.20429766178131103516e-01) (120, 4.75216209888458251953e-01) (121, -8.08973908424377441406e-01) (122, 3.39174747467041015625e+00) (123, 4.75755023956298828125e+00) (124, -8.38741588592529296875e+00) (125, 1.81577420234680175781e+00) (126, 2.06545162200927734375e+00) (127, 2.14374041557312011719e+00) (128, 2.55085611343383789062e+00) (129, 8.18537414073944091797e-01) (130, -2.23014688491821289062e+00) (131, -4.17566251754760742188e+00) (132, -3.86245894432067871094e+00) (133, -4.18181991577148437500e+00) (134, -1.93428024649620056152e-01) (135, 2.19765400886535644531e+00) (136, 7.71783685684204101562e+00) (137, -1.91362953186035156250e+00) (138, 2.53232717514038085938e+00) (139, -3.13614058494567871094e+00) (140, 7.30052089691162109375e+00) (141, -1.34106385707855224609e+00) (142, 1.57612335681915283203e+00) (143, -2.25518679618835449219e+00) (144, -1.35637693405151367188e+01) (145, 1.56295442581176757812e+00) (146, 2.38153243064880371094e+00) (147, -2.46434640884399414062e+00) (148, 2.06768679618835449219e+00) (149, 1.95413684844970703125e+00) (150, -2.01202058792114257812e+00) (151, 4.44077014923095703125e-01) (152, 1.10116326808929443359e+00) (153, -2.77684068679809570312e+00) (154, -1.70815277099609375000e+00) (155, -8.27414393424987792969e-01) (156, -8.28706264495849609375e+00) (157, 5.62979793548583984375e+00) (158, -3.51775503158569335938e+00) (159, 7.42227077484130859375e+00) (160, -8.08962106704711914062e-01) (161, 8.61809968948364257812e-01) (162, -7.07489538192749023438e+00) (163, -4.24086952209472656250e+00) (164, -1.17819738388061523438e+01) (165, 2.97541856765747070312e+00) (166, 6.72231531143188476562e+00) (167, -3.78922224044799804688e+00) (168, 2.73618841171264648438e+00) (169, -1.60671496391296386719e+00) (170, -2.78462028503417968750e+00) (171, 6.24377429485321044922e-01) (172, -4.52665519714355468750e+00) (173, 1.83967947959899902344e+00) (174, 7.46708106994628906250e+00) (175, 5.73900461196899414062e+00) (176, -4.97177362442016601562e+00) (177, 3.96601676940917968750e-01) (178, 2.20020222663879394531e+00) (179, -9.11256194114685058594e-01) (180, -9.66309261322021484375e+00) (181, -3.39666152000427246094e+00) (182, 1.29450864791870117188e+01) (183, -2.83885955810546875000e+00) (184, -3.70597195625305175781e+00) (185, 1.15805745124816894531e+00) (186, -6.60514020919799804688e+00) (187, -7.77387917041778564453e-01) (188, -1.08889894485473632812e+01) (189, -1.45365297794342041016e+00) (190, 4.19455438852310180664e-01) (191, -8.12493741512298583984e-01) (192, 6.20095396041870117188e+00) (193, 4.63612794876098632812e-01) (194, 1.95335102081298828125e+00) (195, 4.07922744750976562500e-01) (196, 1.50000000000000000000e+03) (197, 1.50000000000000000000e+03) (198, 1.50000000000000000000e+03) (199, 1.50000000000000000000e+03) (200, 1.36475515365600585938e+00) (201, -4.02407407760620117188e+00) (202, 4.83981418609619140625e+00) (0, 4.04678487777709960938e+00) (1, -6.97218060493469238281e-01) (2, 3.56314611434936523438e+00) (3, 2.06937551498413085938e-01) (4, 7.55931973457336425781e-01) (5, -2.64497351646423339844e+00) (6, -2.56499600410461425781e+00) (7, 1.07596838474273681641e+00) (8, -9.50695276260375976562e-01) (9, -2.55023455619812011719e+00) (10, -2.91730117797851562500e+00) (11, -4.43196147680282592773e-02) (12, 2.99050831794738769531e+00) (13, -9.11472976207733154297e-01) (14, -1.98885357379913330078e+00) (15, 3.46309971809387207031e+00) (16, -4.82181739807128906250e+00) (17, 3.24038833379745483398e-01) (18, 3.30455851554870605469e+00) (19, 1.93866193294525146484e+00) (20, 1.39648699760437011719e+00) (21, 1.66888535022735595703e+00) (22, -1.63621449470520019531e+00) (23, -6.72866404056549072266e-01) (24, 2.64517039060592651367e-01) (25, 3.06090325117111206055e-01) (26, 4.70004945993423461914e-01) (27, 1.42838740348815917969e+00) (28, -1.21691234409809112549e-01) (29, 7.13624775409698486328e-01) (30, 2.75661969184875488281e+00) (31, 3.95220971107482910156e+00) (32, 6.15500152111053466797e-01) (33, -1.61809802055358886719e+00) (34, -1.77433133125305175781e+00) (35, 1.04405331611633300781e+00) (36, -6.52336716651916503906e-01) (37, -2.17783308029174804688e+00) (38, 5.84051418304443359375e+00) (39, -8.70664834976196289062e-01) (40, 7.86800742149353027344e-01) (41, 1.87516081333160400391e+00) (42, -8.81314635276794433594e-01) (43, -2.16258931905031204224e-02) (44, 6.86008870601654052734e-01) (45, 1.66158616542816162109e+00) (46, -3.45289587974548339844e+00) (47, 5.30138850212097167969e-01) (48, 3.62051939964294433594e+00) (49, -1.06525337696075439453e+00) (50, 4.11162519454956054688e+00) (51, 8.85627627372741699219e-01) (52, 3.86238098144531250000e-01) (53, -8.85368585586547851562e-01) (54, -4.01709586381912231445e-01) (55, -1.62608993053436279297e+00) (56, -7.44909942150115966797e-01) (57, -1.09501826763153076172e+00) (58, -8.56789797544479370117e-02) (59, -1.31090566515922546387e-01) (60, -1.88285112380981445312e+00) (61, -3.38883757591247558594e-01) (62, 7.10319101810455322266e-01) (63, -1.97062373161315917969e+00) (64, 1.75544679164886474609e-01) (65, 1.00725030899047851562e+00) (66, 7.96946108341217041016e-01) (67, -6.06532767415046691895e-02) (68, -1.69290149211883544922e+00) (69, 1.96592223644256591797e+00) (70, 1.99518537521362304688e+00) (71, -4.96007025241851806641e-01) (72, -2.96371579170227050781e+00) (73, -1.98306262493133544922e+00) (74, 3.23267149925231933594e+00) (75, 1.85230612754821777344e+00) (76, 3.44177770614624023438e+00) (77, -1.70332014560699462891e+00) (78, -5.57954668998718261719e-01) (79, 2.00209045410156250000e+00) (80, -1.20190930366516113281e+00) (81, -5.25598168373107910156e-01) (82, 1.22792983055114746094e+00) (83, -4.14115339517593383789e-01) (84, 4.46577548980712890625e+00) (85, -1.89341890811920166016e+00) (86, -1.17566144466400146484e+00) (87, 9.95992422103881835938e-01) (88, 1.04730546474456787109e+00) (89, -1.68234944343566894531e+00) (90, 1.50600060820579528809e-01) (91, -1.34626770019531250000e+00) (92, 6.25086903572082519531e-01) (93, 7.14644908905029296875e-01) (94, -1.74342721700668334961e-01) (95, 1.31962025165557861328e+00) (96, -1.36768400669097900391e+00) (97, -2.05532208085060119629e-01) (98, 4.77987080812454223633e-01) (99, 1.73863840103149414062e+00) (100, -1.07091677188873291016e+00) (101, -1.65709412097930908203e+00) (102, -8.12725663185119628906e-01) (103, -3.39081853628158569336e-01) (104, -2.37814831733703613281e+00) (105, 1.36171627044677734375e+00) (106, 3.22555756568908691406e+00) (107, -6.37593030929565429688e-01) (108, 3.93742710351943969727e-01) (109, -1.29567217826843261719e+00) (110, 2.23521327972412109375e+00) (111, 2.13357046246528625488e-01) (112, -7.80702292919158935547e-01) (113, -4.69848752021789550781e-01) (114, -1.58028793334960937500e+00) (115, 4.98838156461715698242e-01) (116, 3.23290276527404785156e+00) (117, -1.77441883087158203125e+00) (118, -9.18451488018035888672e-01) (119, 9.70082879066467285156e-01) (120, 3.55516266822814941406e+00) (121, -2.25033950805664062500e+00) (122, -5.35570800304412841797e-01) (123, -8.79729509353637695312e-01) (124, 2.60609531402587890625e+00) (125, -9.13250803947448730469e-01) (126, 3.55609744787216186523e-01) (127, -1.24707631766796112061e-01) (128, -2.52539491653442382812e+00) (129, 3.65840697288513183594e+00) (130, -2.33455047011375427246e-01) (131, -8.62254977226257324219e-01) (132, 1.36295831203460693359e+00) (133, -5.69174349308013916016e-01) (134, -1.78103530406951904297e+00) (135, -1.55611848831176757812e+00) (136, 4.21747112274169921875e+00) (137, -1.26982629299163818359e-01) (138, -3.31190854310989379883e-01) (139, -2.64161914587020874023e-01) (140, -1.11349689960479736328e+00) (141, -9.06167179346084594727e-02) (142, 1.42936751246452331543e-01) (143, -5.98492264747619628906e-01) (144, -2.50742363929748535156e+00) (145, -8.84511709213256835938e-01) (146, -1.24404966831207275391e+00) (147, 1.54787719249725341797e-01) (148, -2.46961879730224609375e+00) (149, 9.99197587370872497559e-02) (150, 2.95394039154052734375e+00) (151, 1.08575201034545898438e+00) (152, -4.71178627014160156250e+00) (153, -8.89541506767272949219e-01) (154, 5.89736890792846679688e+00) (155, 2.09301519393920898438e+00) (156, -1.67123126983642578125e+00) (157, -1.82831180095672607422e+00) (158, 6.80391848087310791016e-01) (159, 5.11478446424007415771e-02) (160, 5.55181217193603515625e+00) (161, 5.02734422683715820312e-01) (162, -3.34754943847656250000e+00) (163, -1.49404674768447875977e-01) (164, 1.51072728633880615234e+00) (165, 3.17689985036849975586e-01) (166, -2.78129959106445312500e+00) (167, 1.08490729331970214844e+00) (168, -4.29974794387817382812e+00) (169, -1.80865836143493652344e+00) (170, 1.70007634162902832031e+00) (171, 1.05618834495544433594e+00) (172, 2.37930130958557128906e+00) (173, -8.94190311431884765625e-01) (174, -6.21943891048431396484e-01) (175, -1.68160164356231689453e+00) (176, -4.04184818267822265625e-01) (177, 1.69737625122070312500e+00) (178, -6.56103968620300292969e-01) (179, -1.82237267494201660156e+00) (180, -3.63555669784545898438e+00) (181, -1.78642964363098144531e+00) (182, 2.04808950424194335938e-01) (183, 2.23834559321403503418e-01) (184, -1.43027380108833312988e-01) (185, 2.43399691581726074219e+00) (186, 2.46817037463188171387e-01) (187, -1.68972063064575195312e+00) (188, 1.25864100456237792969e+00) (189, 1.01665103435516357422e+00) (190, -1.98831844329833984375e+00) (191, 7.96620011329650878906e-01) (192, -1.36477994918823242188e+00) (193, 5.72287201881408691406e-01) (194, -8.66575241088867187500e-01) (195, 5.07483363151550292969e-01) (196, 1.50000000000000000000e+03) (197, 1.50000000000000000000e+03) (198, 1.50000000000000000000e+03) (199, 1.50000000000000000000e+03) (200, -1.27612340450286865234e+00) (201, 3.80264091491699218750e+00) (202, 2.14483428001403808594e+00) (0, 9.02135864257812500000e+02) (1, -1.49999328613281250000e+03) (2, 1.49775012207031250000e+03) (3, 2.44545043945312500000e+02) (4, 1.46843237304687500000e+03) (5, -1.49944982910156250000e+03) (6, 1.48278173828125000000e+03) (7, -1.49888049316406250000e+03) (8, 1.08214318847656250000e+03) (9, -1.46255065917968750000e+03) (10, -9.55625076293945312500e+01) (11, 1.49999877929687500000e+03) (12, -1.43847753906250000000e+03) (13, 1.30756054687500000000e+03) (14, 1.49999865722656250000e+03) (15, 1.49879663085937500000e+03) (16, 1.50000000000000000000e+03) (17, 1.48760754394531250000e+03) (18, 1.49999865722656250000e+03) (19, 1.49999877929687500000e+03) (20, 1.49999707031250000000e+03) (21, -1.49105065917968750000e+03) (22, 7.66514953613281250000e+02) (23, 1.39030493164062500000e+03) (24, -1.50000000000000000000e+03) (25, -1.50000000000000000000e+03) (26, -4.64541595458984375000e+02) (27, -1.50000000000000000000e+03) (28, 1.49902392578125000000e+03) (29, -1.50000000000000000000e+03) (30, -1.42506420898437500000e+03) (31, -1.49992993164062500000e+03) (32, 1.47743615722656250000e+03) (33, -1.44648669433593750000e+03) (34, -1.50000000000000000000e+03) (35, -1.49294836425781250000e+03) (36, 1.08959216308593750000e+03) (37, -1.49543347167968750000e+03) (38, 1.49999877929687500000e+03) (39, 1.49866076660156250000e+03) (40, 1.49998632812500000000e+03) (41, -1.44907849121093750000e+03) (42, 1.49820288085937500000e+03) (43, -1.43974731445312500000e+03) (44, -1.53443069458007812500e+02) (45, -1.49829675292968750000e+03) (46, -1.48828320312500000000e+03) (47, 1.48339257812500000000e+03) (48, 1.04967224121093750000e+02) (49, -1.50000000000000000000e+03) (50, 1.48160107421875000000e+03) (51, 1.40097131347656250000e+03) (52, -1.50000000000000000000e+03) (53, -1.50000000000000000000e+03) (54, -1.50000000000000000000e+03) (55, 1.30831066894531250000e+03) (56, -1.50000000000000000000e+03) (57, -4.06910675048828125000e+02) (58, -1.50000000000000000000e+03) (59, 1.47836206054687500000e+03) (60, -1.50000000000000000000e+03) (61, 1.49860583496093750000e+03) (62, -1.50000000000000000000e+03) (63, 1.50000000000000000000e+03) (64, -1.50000000000000000000e+03) (65, 8.31258666992187500000e+02) (66, -1.50000000000000000000e+03) (67, 1.09462854003906250000e+03) (68, -1.50000000000000000000e+03) (69, 1.49780053710937500000e+03) (70, -1.50000000000000000000e+03) (71, -1.39226538085937500000e+03) (72, -1.50000000000000000000e+03) (73, -1.49970214843750000000e+03) (74, -1.50000000000000000000e+03) (75, 7.01729858398437500000e+02) (76, -1.50000000000000000000e+03) (77, -5.81961791992187500000e+02) (78, -1.49616027832031250000e+03) (79, 1.50000000000000000000e+03) (80, -1.42569213867187500000e+03) (81, 1.49500781250000000000e+03) (82, -1.50000000000000000000e+03) (83, 1.49746923828125000000e+03) (84, -1.50000000000000000000e+03) (85, 1.49794201660156250000e+03) (86, -1.50000000000000000000e+03) (87, 5.77645935058593750000e+02) (88, -1.50000000000000000000e+03) (89, -1.45062915039062500000e+03) (90, 1.49758386230468750000e+03) (91, -1.48796997070312500000e+03) (92, 1.48690124511718750000e+03) (93, 1.49881884765625000000e+03) (94, -1.49999963378906250000e+03) (95, -1.49232666015625000000e+03) (96, -1.50000000000000000000e+03) (97, -1.49988903808593750000e+03) (98, -1.50000000000000000000e+03) (99, -1.50000000000000000000e+03) (100, -1.50000000000000000000e+03) (101, -1.46406799316406250000e+03) (102, -1.50000000000000000000e+03) (103, -1.50000000000000000000e+03) (104, -1.50000000000000000000e+03) (105, -1.49234411621093750000e+03) (106, 1.46484057617187500000e+03) (107, 2.25815689086914062500e+02) (108, 1.50000000000000000000e+03) (109, 1.49973730468750000000e+03) (110, 1.49982592773437500000e+03) (111, -1.50000000000000000000e+03) (112, 1.50000000000000000000e+03) (113, 1.49999719238281250000e+03) (114, 1.50000000000000000000e+03) (115, 1.50000000000000000000e+03) (116, 1.50000000000000000000e+03) (117, 1.50000000000000000000e+03) (118, 1.32864086914062500000e+03) (119, 1.50000000000000000000e+03) (120, -1.14600256347656250000e+03) (121, 1.01644783020019531250e+02) (122, -1.36572631835937500000e+03) (123, -1.49746508789062500000e+03) (124, -1.49232006835937500000e+03) (125, 1.49999621582031250000e+03) (126, -1.49998681640625000000e+03) (127, 1.50000000000000000000e+03) (128, -1.50000000000000000000e+03) (129, -4.52096679687500000000e+02) (130, -1.50000000000000000000e+03) (131, 1.50000000000000000000e+03) (132, -1.49999401855468750000e+03) (133, -1.49928906250000000000e+03) (134, -1.49998791503906250000e+03) (135, 4.68106567382812500000e+02) (136, -1.50000000000000000000e+03) (137, 4.35786560058593750000e+02) (138, -1.50000000000000000000e+03) (139, -1.49986181640625000000e+03) (140, -1.48847912597656250000e+03) (141, -5.65649902343750000000e+02) (142, 1.49990966796875000000e+03) (143, -1.92805236816406250000e+02) (144, 1.50000000000000000000e+03) (145, 1.46090246582031250000e+03) (146, 1.47374768066406250000e+03) (147, 1.49737255859375000000e+03) (148, 1.49861682128906250000e+03) (149, -1.21286132812500000000e+03) (150, -1.35723889160156250000e+03) (151, -1.40028381347656250000e+03) (152, -1.49528637695312500000e+03) (153, 1.50000000000000000000e+03) (154, -1.36065551757812500000e+03) (155, 1.49989709472656250000e+03) (156, 1.49999121093750000000e+03) (157, -1.19738781738281250000e+03) (158, 1.49999914550781250000e+03) (159, 1.49999682617187500000e+03) (160, 1.49585144042968750000e+03) (161, 1.49999865722656250000e+03) (162, 1.47180517578125000000e+03) (163, 2.01012161254882812500e+02) (164, 1.50000000000000000000e+03) (165, 1.50000000000000000000e+03) (166, 1.50000000000000000000e+03) (167, -1.48522058105468750000e+03) (168, 1.50000000000000000000e+03) (169, -1.49984338378906250000e+03) (170, 1.45416076660156250000e+03) (171, -1.49999951171875000000e+03) (172, 1.50000000000000000000e+03) (173, 1.49999572753906250000e+03) (174, 6.36772216796875000000e+02) (175, 1.38948669433593750000e+03) (176, 1.43230859375000000000e+03) (177, -1.41514929199218750000e+03) (178, 1.50000000000000000000e+03) (179, 1.49999645996093750000e+03) (180, -1.49492541503906250000e+03) (181, -1.50000000000000000000e+03) (182, -1.49980798339843750000e+03) (183, 1.50000000000000000000e+03) (184, -1.48099328613281250000e+03) (185, -1.49780517578125000000e+03) (186, -1.50000000000000000000e+03) (187, -1.49784899902343750000e+03) (188, -5.28885009765625000000e+02) (189, -1.49985363769531250000e+03) (190, -1.44275817871093750000e+03) (191, -1.49816723632812500000e+03) (192, 1.05120532226562500000e+03) (193, 1.15315441894531250000e+03) (194, -1.49997668457031250000e+03) (195, 6.60976318359375000000e+02) (196, 1.50000000000000000000e+03) (197, 1.50000000000000000000e+03) (198, 1.50000000000000000000e+03) (199, 1.50000000000000000000e+03) (200, 1.49916894531250000000e+03) (201, -1.25660363769531250000e+03) (202, -8.47737304687500000000e+02) (0, -1.49962976074218750000e+03) (1, -1.50000000000000000000e+03) (2, -1.49929760742187500000e+03) (3, -1.50000000000000000000e+03) (4, -1.49892199707031250000e+03) (5, -1.49982421875000000000e+03) (6, -1.49936682128906250000e+03) (7, -1.49997106933593750000e+03) (8, -1.49838439941406250000e+03) (9, -1.44918811035156250000e+03) (10, -1.49990917968750000000e+03) (11, -1.49990515136718750000e+03) (12, -1.49989526367187500000e+03) (13, -1.49894384765625000000e+03) (14, -1.49871740722656250000e+03) (15, -1.49723876953125000000e+03) (16, -1.49912402343750000000e+03) (17, -1.49935327148437500000e+03) (18, -1.50000000000000000000e+03) (19, -1.49998486328125000000e+03) (20, -1.50000000000000000000e+03) (21, -1.48762829589843750000e+03) (22, -1.49989831542968750000e+03) (23, -1.48204467773437500000e+03) (24, -1.50000000000000000000e+03) (25, -1.49999267578125000000e+03) (26, -1.49858776855468750000e+03) (27, -1.49997546386718750000e+03) (28, -1.49975329589843750000e+03) (29, -1.49994995117187500000e+03) (30, -1.49989990234375000000e+03) (31, -1.49996472167968750000e+03) (32, 1.49997460937500000000e+03) (33, -1.49475097656250000000e+03) (34, -1.50000000000000000000e+03) (35, -1.49904968261718750000e+03) (36, -1.50000000000000000000e+03) (37, -1.48924768066406250000e+03) (38, -1.49969067382812500000e+03) (39, -1.49959252929687500000e+03) (40, -1.49743835449218750000e+03) (41, -1.49989392089843750000e+03) (42, 1.50000000000000000000e+03) (43, 8.79333740234375000000e+02) (44, 1.50000000000000000000e+03) (45, 1.50000000000000000000e+03) (46, -1.50000000000000000000e+03) (47, -1.49468933105468750000e+03) (48, -1.46840844726562500000e+03) (49, -1.49999633789062500000e+03) (50, -1.49173498535156250000e+03) (51, -1.47099047851562500000e+03) (52, -1.49981994628906250000e+03) (53, -1.45081945800781250000e+03) (54, 1.49999975585937500000e+03) (55, 9.43616271972656250000e+02) (56, -1.49747204589843750000e+03) (57, -1.49793322753906250000e+03) (58, -1.49884167480468750000e+03) (59, -1.49989453125000000000e+03) (60, -1.49991491699218750000e+03) (61, -1.48988293457031250000e+03) (62, -1.49979565429687500000e+03) (63, -1.49985803222656250000e+03) (64, -1.50000000000000000000e+03) (65, -1.49996105957031250000e+03) (66, -1.50000000000000000000e+03) (67, -1.49999780273437500000e+03) (68, -1.50000000000000000000e+03) (69, -1.49996569824218750000e+03) (70, 1.49973864746093750000e+03) (71, 1.49989709472656250000e+03) (72, 1.49900964355468750000e+03) (73, -1.49918017578125000000e+03) (74, 1.49992272949218750000e+03) (75, -1.49601660156250000000e+03) (76, 1.50000000000000000000e+03) (77, 1.49986364746093750000e+03) (78, 1.50000000000000000000e+03) (79, -1.49849890136718750000e+03) (80, 1.49999780273437500000e+03) (81, -1.49913024902343750000e+03) (82, 1.49999841308593750000e+03) (83, -1.49951806640625000000e+03) (84, 1.50000000000000000000e+03) (85, -1.49821289062500000000e+03) (86, 1.50000000000000000000e+03) (87, -1.49981347656250000000e+03) (88, 1.49999975585937500000e+03) (89, -1.49140368652343750000e+03) (90, 1.50000000000000000000e+03) (91, -1.49319995117187500000e+03) (92, 1.50000000000000000000e+03) (93, -1.49860144042968750000e+03) (94, 1.50000000000000000000e+03) (95, -1.50000000000000000000e+03) (96, 1.97348114013671875000e+02) (97, -1.49706628417968750000e+03) (98, 1.49999865722656250000e+03) (99, -1.50000000000000000000e+03) (100, -1.42990405273437500000e+03) (101, -1.50000000000000000000e+03) (102, -1.49983618164062500000e+03) (103, -1.50000000000000000000e+03) (104, -1.49971899414062500000e+03) (105, -1.49982910156250000000e+03) (106, -2.21716796875000000000e+02) (107, 1.50000000000000000000e+03) (108, -1.49034643554687500000e+03) (109, -1.49916943359375000000e+03) (110, -1.49591918945312500000e+03) (111, -1.45497875976562500000e+03) (112, -1.48495178222656250000e+03) (113, -1.49761108398437500000e+03) (114, 1.49938525390625000000e+03) (115, -1.43402709960937500000e+03) (116, -1.50000000000000000000e+03) (117, -1.49995007324218750000e+03) (118, -1.50000000000000000000e+03) (119, -1.49926281738281250000e+03) (120, -1.49968713378906250000e+03) (121, -1.49936425781250000000e+03) (122, -1.49956896972656250000e+03) (123, -1.49930444335937500000e+03) (124, -1.47784423828125000000e+03) (125, 1.50000000000000000000e+03) (126, -1.48908056640625000000e+03) (127, -1.49914270019531250000e+03) (128, 1.50000000000000000000e+03) (129, -1.49998498535156250000e+03) (130, -1.49917761230468750000e+03) (131, -1.50000000000000000000e+03) (132, -1.48828527832031250000e+03) (133, -1.50000000000000000000e+03) (134, 1.50000000000000000000e+03) (135, -1.49955737304687500000e+03) (136, 1.50000000000000000000e+03) (137, -1.44982263183593750000e+03) (138, 1.50000000000000000000e+03) (139, -1.48906237792968750000e+03) (140, -1.48297546386718750000e+03) (141, -1.49994104003906250000e+03) (142, -1.49605432128906250000e+03) (143, -1.49998266601562500000e+03) (144, 1.49999975585937500000e+03) (145, -1.49999755859375000000e+03) (146, 5.80404968261718750000e+02) (147, -1.50000000000000000000e+03) (148, 1.50000000000000000000e+03) (149, 1.49974145507812500000e+03) (150, 1.50000000000000000000e+03) (151, -1.50000000000000000000e+03) (152, 1.49999963378906250000e+03) (153, -1.44939355468750000000e+03) (154, -1.50000000000000000000e+03) (155, -1.49886071777343750000e+03) (156, -1.49767590332031250000e+03) (157, -1.49970300292968750000e+03) (158, 1.50000000000000000000e+03) (159, -1.49800744628906250000e+03) (160, -1.49850354003906250000e+03) (161, -1.49945812988281250000e+03) (162, -1.49781152343750000000e+03) (163, -1.49797045898437500000e+03) (164, 1.50000000000000000000e+03) (165, -1.49865112304687500000e+03) (166, 1.50000000000000000000e+03) (167, -1.49796423339843750000e+03) (168, 1.49999853515625000000e+03) (169, -1.49979602050781250000e+03) (170, 1.49999865722656250000e+03) (171, 1.48805407714843750000e+03) (172, 1.49999865722656250000e+03) (173, 1.50000000000000000000e+03) (174, 1.49941381835937500000e+03) (175, 1.50000000000000000000e+03) (176, -1.50000000000000000000e+03) (177, -1.49476086425781250000e+03) (178, 1.50000000000000000000e+03) (179, -1.49931152343750000000e+03) (180, 1.49999902343750000000e+03) (181, -1.49488745117187500000e+03) (182, 1.49971459960937500000e+03) (183, -1.49999450683593750000e+03) (184, 1.50000000000000000000e+03) (185, -1.49866430664062500000e+03) (186, 1.49896899414062500000e+03) (187, -1.49958410644531250000e+03) (188, 1.50000000000000000000e+03) (189, -1.49949267578125000000e+03) (190, 1.27377355957031250000e+03) (191, -8.57810913085937500000e+02) (192, -1.50000000000000000000e+03) (193, -1.49721948242187500000e+03) (194, -1.47588488769531250000e+03) (195, -1.49598657226562500000e+03) (196, 1.50000000000000000000e+03) (197, 1.50000000000000000000e+03) (198, 1.50000000000000000000e+03) (199, 1.50000000000000000000e+03) (200, -1.49882226562500000000e+03) (201, -1.49007836914062500000e+03) (202, 1.48674609375000000000e+03) (0, -1.49929479980468750000e+03) (1, 1.50000000000000000000e+03) (2, -1.49943444824218750000e+03) (3, 1.49990063476562500000e+03) (4, 1.50000000000000000000e+03) (5, 1.50000000000000000000e+03) (6, 1.50000000000000000000e+03) (7, -1.49656079101562500000e+03) (8, 1.49997241210937500000e+03) (9, 1.50000000000000000000e+03) (10, 1.50000000000000000000e+03) (11, 1.50000000000000000000e+03) (12, -1.49811303710937500000e+03) (13, 1.50000000000000000000e+03) (14, 1.50000000000000000000e+03) (15, 1.50000000000000000000e+03) (16, 1.50000000000000000000e+03) (17, 1.50000000000000000000e+03) (18, 1.50000000000000000000e+03) (19, 1.50000000000000000000e+03) (20, 1.50000000000000000000e+03) (21, 1.50000000000000000000e+03) (22, 1.50000000000000000000e+03) (23, 1.50000000000000000000e+03) (24, -1.33630175781250000000e+03) (25, 1.50000000000000000000e+03) (26, 1.50000000000000000000e+03) (27, 1.50000000000000000000e+03) (28, 1.50000000000000000000e+03) (29, 1.50000000000000000000e+03) (30, 1.50000000000000000000e+03) (31, -1.49707531738281250000e+03) (32, 1.50000000000000000000e+03) (33, 1.50000000000000000000e+03) (34, 6.61992370605468750000e+02) (35, 1.50000000000000000000e+03) (36, -1.38608972167968750000e+03) (37, 1.50000000000000000000e+03) (38, 1.49850195312500000000e+03) (39, 1.50000000000000000000e+03) (40, 1.49973425292968750000e+03) (41, 1.50000000000000000000e+03) (42, 1.49900463867187500000e+03) (43, 1.50000000000000000000e+03) (44, -1.49999792480468750000e+03) (45, 1.50000000000000000000e+03) (46, -1.49971142578125000000e+03) (47, 1.49999926757812500000e+03) (48, 1.50000000000000000000e+03) (49, 1.50000000000000000000e+03) (50, 1.50000000000000000000e+03) (51, 1.50000000000000000000e+03) (52, -1.49997399902343750000e+03) (53, 1.50000000000000000000e+03) (54, -1.50000000000000000000e+03) (55, -1.49693090820312500000e+03) (56, -1.49972888183593750000e+03) (57, -1.49823437500000000000e+03) (58, 1.09622009277343750000e+03) (59, -1.49324426269531250000e+03) (60, 1.50000000000000000000e+03) (61, 1.50000000000000000000e+03) (62, -1.49850073242187500000e+03) (63, 1.49907421875000000000e+03) (64, 1.50000000000000000000e+03) (65, 1.49989440917968750000e+03) (66, -1.49879479980468750000e+03) (67, 1.49889953613281250000e+03) (68, 1.50000000000000000000e+03) (69, 1.50000000000000000000e+03) (70, -1.49780969238281250000e+03) (71, -1.06780261230468750000e+03) (72, -1.50000000000000000000e+03) (73, 1.50000000000000000000e+03) (74, -1.50000000000000000000e+03) (75, 1.50000000000000000000e+03) (76, 1.49965222167968750000e+03) (77, -1.49745568847656250000e+03) (78, 1.49893103027343750000e+03) (79, 1.50000000000000000000e+03) (80, 1.50000000000000000000e+03) (81, 1.50000000000000000000e+03) (82, -1.49999877929687500000e+03) (83, 1.50000000000000000000e+03) (84, 1.50000000000000000000e+03) (85, 1.50000000000000000000e+03) (86, 1.50000000000000000000e+03) (87, 1.50000000000000000000e+03) (88, -1.49987670898437500000e+03) (89, 1.50000000000000000000e+03) (90, 1.50000000000000000000e+03) (91, 1.50000000000000000000e+03) (92, -1.50000000000000000000e+03) (93, 1.50000000000000000000e+03) (94, -1.50000000000000000000e+03) (95, 1.50000000000000000000e+03) (96, -1.50000000000000000000e+03) (97, 1.50000000000000000000e+03) (98, -1.50000000000000000000e+03) (99, 1.50000000000000000000e+03) (100, 1.49897497558593750000e+03) (101, 1.50000000000000000000e+03) (102, 1.49889575195312500000e+03) (103, 1.49963110351562500000e+03) (104, 