FANN_FLO_2.1
num_layers=3
learning_rate=0.700000
connection_rate=1.000000
network_type=0
learning_momentum=0.000000
training_algorithm=2
train_error_function=1
train_stop_function=0
cascade_output_change_fraction=0.010000
quickprop_decay=-0.000100
quickprop_mu=1.750000
rprop_increase_factor=1.200000
rprop_decrease_factor=0.500000
rprop_delta_min=0.000000
rprop_delta_max=50.000000
rprop_delta_zero=0.100000
cascade_output_stagnation_epochs=12
cascade_candidate_change_fraction=0.010000
cascade_candidate_stagnation_epochs=12
cascade_max_out_epochs=150
cascade_min_out_epochs=50
cascade_max_cand_epochs=150
cascade_min_cand_epochs=50
cascade_num_candidate_groups=2
bit_fail_limit=3.49999994039535522461e-01
cascade_candidate_limit=1.00000000000000000000e+03
cascade_weight_multiplier=4.00000005960464477539e-01
cascade_activation_functions_count=10
cascade_activation_functions=3 5 7 8 10 11 14 15 16 17 
cascade_activation_steepnesses_count=4
cascade_activation_steepnesses=2.50000000000000000000e-01 5.00000000000000000000e-01 7.50000000000000000000e-01 1.00000000000000000000e+00 
layer_sizes=204 131 2 
scale_included=0
neurons (num_inputs, activation_function, activation_steepness)=(0, 0, 0.00000000000000000000e+00) (0, 0, 0.00000000000000000000e+00) (0, 0, 0.00000000000000000000e+00) (0, 0, 0.00000000000000000000e+00) (0, 0, 0.00000000000000000000e+00) (0, 0, 0.00000000000000000000e+00) (0, 0, 0.00000000000000000000e+00) (0, 0, 0.00000000000000000000e+00) (0, 0, 0.00000000000000000000e+00) (0, 0, 0.00000000000000000000e+00) (0, 0, 0.00000000000000000000e+00) (0, 0, 0.00000000000000000000e+00) (0, 0, 0.00000000000000000000e+00) (0, 0, 0.00000000000000000000e+00) (0, 0, 0.00000000000000000000e+00) (0, 0, 0.00000000000000000000e+00) (0, 0, 0.00000000000000000000e+00) (0, 0, 0.00000000000000000000e+00) (0, 0, 0.00000000000000000000e+00) (0, 0, 0.00000000000000000000e+00) (0, 0, 0.00000000000000000000e+00) (0, 0, 0.00000000000000000000e+00) (0, 0, 0.00000000000000000000e+00) (0, 0, 0.00000000000000000000e+00) (0, 0, 0.00000000000000000000e+00) (0, 0, 0.00000000000000000000e+00) (0, 0, 0.00000000000000000000e+00) (0, 0, 0.00000000000000000000e+00) (0, 0, 0.00000000000000000000e+00) (0, 0, 0.00000000000000000000e+00) (0, 0, 0.00000000000000000000e+00) (0, 0, 0.00000000000000000000e+00) (0, 0, 0.00000000000000000000e+00) (0, 0, 0.00000000000000000000e+00) (0, 0, 0.00000000000000000000e+00) (0, 0, 0.00000000000000000000e+00) (0, 0, 0.00000000000000000000e+00) (0, 0, 0.00000000000000000000e+00) (0, 0, 0.00000000000000000000e+00) (0, 0, 0.00000000000000000000e+00) (0, 0, 0.00000000000000000000e+00) (0, 0, 0.00000000000000000000e+00) (0, 0, 0.00000000000000000000e+00) (0, 0, 0.00000000000000000000e+00) (0, 0, 0.00000000000000000000e+00) (0, 0, 0.00000000000000000000e+00) (0, 0, 0.00000000000000000000e+00) (0, 0, 0.00000000000000000000e+00) (0, 0, 0.00000000000000000000e+00) (0, 0, 0.00000000000000000000e+00) (0, 0, 0.00000000000000000000e+00) (0, 0, 0.00000000000000000000e+00) (0, 0, 0.00000000000000000000e+00) (0, 0, 0.00000000000000000000e+00) (0, 0, 0.00000000000000000000e+00) (0, 0, 0.00000000000000000000e+00) (0, 0, 0.00000000000000000000e+00) (0, 0, 0.00000000000000000000e+00) (0, 0, 0.00000000000000000000e+00) (0, 0, 0.00000000000000000000e+00) (0, 0, 0.00000000000000000000e+00) (0, 0, 0.00000000000000000000e+00) (0, 0, 0.00000000000000000000e+00) (0, 0, 0.00000000000000000000e+00) (0, 0, 0.00000000000000000000e+00) (0, 0, 0.00000000000000000000e+00) (0, 0, 0.00000000000000000000e+00) (0, 0, 0.00000000000000000000e+00) (0, 0, 0.00000000000000000000e+00) (0, 0, 0.00000000000000000000e+00) (0, 0, 0.00000000000000000000e+00) (0, 0, 0.00000000000000000000e+00) (0, 0, 0.00000000000000000000e+00) (0, 0, 0.00000000000000000000e+00) (0, 0, 0.00000000000000000000e+00) (0, 0, 0.00000000000000000000e+00) (0, 0, 0.00000000000000000000e+00) (0, 0, 0.00000000000000000000e+00) (0, 0, 0.00000000000000000000e+00) (0, 0, 0.00000000000000000000e+00) (0, 0, 0.00000000000000000000e+00) (0, 0, 0.00000000000000000000e+00) (0, 0, 0.00000000000000000000e+00) (0, 0, 0.00000000000000000000e+00) (0, 0, 0.00000000000000000000e+00) (0, 0, 0.00000000000000000000e+00) (0, 0, 0.00000000000000000000e+00) (0, 0, 0.00000000000000000000e+00) (0, 0, 0.00000000000000000000e+00) (0, 0, 0.00000000000000000000e+00) (0, 0, 0.00000000000000000000e+00) (0, 0, 0.00000000000000000000e+00) (0, 0, 0.00000000000000000000e+00) (0, 0, 0.00000000000000000000e+00) (0, 0, 0.00000000000000000000e+00) (0, 0, 0.00000000000000000000e+00) (0, 0, 0.00000000000000000000e+00) (0, 0, 0.00000000000000000000e+00) (0, 0, 0.00000000000000000000e+00) (0, 0, 0.00000000000000000000e+00) (0, 0, 0.00000000000000000000e+00) (0, 0, 0.00000000000000000000e+00) (0, 0, 0.00000000000000000000e+00) (0, 0, 0.00000000000000000000e+00) (0, 0, 0.00000000000000000000e+00) (0, 0, 0.00000000000000000000e+00) (0, 0, 0.00000000000000000000e+00) (0, 0, 0.00000000000000000000e+00) (0, 0, 0.00000000000000000000e+00) (0, 0, 0.00000000000000000000e+00) (0, 0, 0.00000000000000000000e+00) (0, 0, 0.00000000000000000000e+00) (0, 0, 0.00000000000000000000e+00) (0, 0, 0.00000000000000000000e+00) (0, 0, 0.00000000000000000000e+00) (0, 0, 0.00000000000000000000e+00) (0, 0, 0.00000000000000000000e+00) (0, 0, 0.00000000000000000000e+00) (0, 0, 0.00000000000000000000e+00) (0, 0, 0.00000000000000000000e+00) (0, 0, 0.00000000000000000000e+00) (0, 0, 0.00000000000000000000e+00) (0, 0, 0.00000000000000000000e+00) (0, 0, 0.00000000000000000000e+00) (0, 0, 0.00000000000000000000e+00) (0, 0, 0.00000000000000000000e+00) (0, 0, 0.00000000000000000000e+00) (0, 0, 0.00000000000000000000e+00) (0, 0, 0.00000000000000000000e+00) (0, 0, 0.00000000000000000000e+00) (0, 0, 0.00000000000000000000e+00) (0, 0, 0.00000000000000000000e+00) (0, 0, 0.00000000000000000000e+00) (0, 0, 0.00000000000000000000e+00) (0, 0, 0.00000000000000000000e+00) (0, 0, 0.00000000000000000000e+00) (0, 0, 0.00000000000000000000e+00) (0, 0, 0.00000000000000000000e+00) (0, 0, 0.00000000000000000000e+00) (0, 0, 0.00000000000000000000e+00) (0, 0, 0.00000000000000000000e+00) (0, 0, 0.00000000000000000000e+00) (0, 0, 0.00000000000000000000e+00) (0, 0, 0.00000000000000000000e+00) (0, 0, 0.00000000000000000000e+00) (0, 0, 0.00000000000000000000e+00) (0, 0, 0.00000000000000000000e+00) (0, 0, 0.00000000000000000000e+00) (0, 0, 0.00000000000000000000e+00) (0, 0, 0.00000000000000000000e+00) (0, 0, 0.00000000000000000000e+00) (0, 0, 0.00000000000000000000e+00) (0, 0, 0.00000000000000000000e+00) (0, 0, 0.00000000000000000000e+00) (0, 0, 0.00000000000000000000e+00) (0, 0, 0.00000000000000000000e+00) (0, 0, 0.00000000000000000000e+00) (0, 0, 0.00000000000000000000e+00) (0, 0, 0.00000000000000000000e+00) (0, 0, 0.00000000000000000000e+00) (0, 0, 0.00000000000000000000e+00) (0, 0, 0.00000000000000000000e+00) (0, 0, 0.00000000000000000000e+00) (0, 0, 0.00000000000000000000e+00) (0, 0, 0.00000000000000000000e+00) (0, 0, 0.00000000000000000000e+00) (0, 0, 0.00000000000000000000e+00) (0, 0, 0.00000000000000000000e+00) (0, 0, 0.00000000000000000000e+00) (0, 0, 0.00000000000000000000e+00) (0, 0, 0.00000000000000000000e+00) (0, 0, 0.00000000000000000000e+00) (0, 0, 0.00000000000000000000e+00) (0, 0, 0.00000000000000000000e+00) (0, 0, 0.00000000000000000000e+00) (0, 0, 0.00000000000000000000e+00) (0, 0, 0.00000000000000000000e+00) (0, 0, 0.00000000000000000000e+00) (0, 0, 0.00000000000000000000e+00) (0, 0, 0.00000000000000000000e+00) (0, 0, 0.00000000000000000000e+00) (0, 0, 0.00000000000000000000e+00) (0, 0, 0.00000000000000000000e+00) (0, 0, 0.00000000000000000000e+00) (0, 0, 0.00000000000000000000e+00) (0, 0, 0.00000000000000000000e+00) (0, 0, 0.00000000000000000000e+00) (0, 0, 0.00000000000000000000e+00) (0, 0, 0.00000000000000000000e+00) (0, 0, 0.00000000000000000000e+00) (0, 0, 0.00000000000000000000e+00) (0, 0, 0.00000000000000000000e+00) (0, 0, 0.00000000000000000000e+00) (0, 0, 0.00000000000000000000e+00) (0, 0, 0.00000000000000000000e+00) (0, 0, 0.00000000000000000000e+00) (0, 0, 0.00000000000000000000e+00) (0, 0, 0.00000000000000000000e+00) (0, 0, 0.00000000000000000000e+00) (0, 0, 0.00000000000000000000e+00) (0, 0, 0.00000000000000000000e+00) (0, 0, 0.00000000000000000000e+00) (0, 0, 0.00000000000000000000e+00) (0, 0, 0.00000000000000000000e+00) (204, 5, 5.00000000000000000000e-01) (204, 5, 5.00000000000000000000e-01) (204, 5, 5.00000000000000000000e-01) (204, 5, 5.00000000000000000000e-01) (204, 5, 5.00000000000000000000e-01) (204, 5, 5.00000000000000000000e-01) (204, 5, 5.00000000000000000000e-01) (204, 5, 5.00000000000000000000e-01) (204, 5, 5.00000000000000000000e-01) (204, 5, 5.00000000000000000000e-01) (204, 5, 5.00000000000000000000e-01) (204, 5, 5.00000000000000000000e-01) (204, 5, 5.00000000000000000000e-01) (204, 5, 5.00000000000000000000e-01) (204, 5, 5.00000000000000000000e-01) (204, 5, 5.00000000000000000000e-01) (204, 5, 5.00000000000000000000e-01) (204, 5, 5.00000000000000000000e-01) (204, 5, 5.00000000000000000000e-01) (204, 5, 5.00000000000000000000e-01) (204, 5, 5.00000000000000000000e-01) (204, 5, 5.00000000000000000000e-01) (204, 5, 5.00000000000000000000e-01) (204, 5, 5.00000000000000000000e-01) (204, 5, 5.00000000000000000000e-01) (204, 5, 5.00000000000000000000e-01) (204, 5, 5.00000000000000000000e-01) (204, 5, 5.00000000000000000000e-01) (204, 5, 5.00000000000000000000e-01) (204, 5, 5.00000000000000000000e-01) (204, 5, 5.00000000000000000000e-01) (204, 5, 5.00000000000000000000e-01) (204, 5, 5.00000000000000000000e-01) (204, 5, 5.00000000000000000000e-01) (204, 5, 5.00000000000000000000e-01) (204, 5, 5.00000000000000000000e-01) (204, 5, 5.00000000000000000000e-01) (204, 5, 5.00000000000000000000e-01) (204, 5, 5.00000000000000000000e-01) (204, 5, 5.00000000000000000000e-01) (204, 5, 5.00000000000000000000e-01) (204, 5, 5.00000000000000000000e-01) (204, 5, 5.00000000000000000000e-01) (204, 5, 5.00000000000000000000e-01) (204, 5, 5.00000000000000000000e-01) (204, 5, 5.00000000000000000000e-01) (204, 5, 5.00000000000000000000e-01) (204, 5, 5.00000000000000000000e-01) (204, 5, 5.00000000000000000000e-01) (204, 5, 5.00000000000000000000e-01) (204, 5, 5.00000000000000000000e-01) (204, 5, 5.00000000000000000000e-01) (204, 5, 5.00000000000000000000e-01) (204, 5, 5.00000000000000000000e-01) (204, 5, 5.00000000000000000000e-01) (204, 5, 5.00000000000000000000e-01) (204, 5, 5.00000000000000000000e-01) (204, 5, 5.00000000000000000000e-01) (204, 5, 5.00000000000000000000e-01) (204, 5, 5.00000000000000000000e-01) (204, 5, 5.00000000000000000000e-01) (204, 5, 5.00000000000000000000e-01) (204, 5, 5.00000000000000000000e-01) (204, 5, 5.00000000000000000000e-01) (204, 5, 5.00000000000000000000e-01) (204, 5, 5.00000000000000000000e-01) (204, 5, 5.00000000000000000000e-01) (204, 5, 5.00000000000000000000e-01) (204, 5, 5.00000000000000000000e-01) (204, 5, 5.00000000000000000000e-01) (204, 5, 5.00000000000000000000e-01) (204, 5, 5.00000000000000000000e-01) (204, 5, 5.00000000000000000000e-01) (204, 5, 5.00000000000000000000e-01) (204, 5, 5.00000000000000000000e-01) (204, 5, 5.00000000000000000000e-01) (204, 5, 5.00000000000000000000e-01) (204, 5, 5.00000000000000000000e-01) (204, 5, 5.00000000000000000000e-01) (204, 5, 5.00000000000000000000e-01) (204, 5, 5.00000000000000000000e-01) (204, 5, 5.00000000000000000000e-01) (204, 5, 5.00000000000000000000e-01) (204, 5, 5.00000000000000000000e-01) (204, 5, 5.00000000000000000000e-01) (204, 5, 5.00000000000000000000e-01) (204, 5, 5.00000000000000000000e-01) (204, 5, 5.00000000000000000000e-01) (204, 5, 5.00000000000000000000e-01) (204, 5, 5.00000000000000000000e-01) (204, 5, 5.00000000000000000000e-01) (204, 5, 5.00000000000000000000e-01) (204, 5, 5.00000000000000000000e-01) (204, 5, 5.00000000000000000000e-01) (204, 5, 5.00000000000000000000e-01) (204, 5, 5.00000000000000000000e-01) (204, 5, 5.00000000000000000000e-01) (204, 5, 5.00000000000000000000e-01) (204, 5, 5.00000000000000000000e-01) (204, 5, 5.00000000000000000000e-01) (204, 5, 5.00000000000000000000e-01) (204, 5, 5.00000000000000000000e-01) (204, 5, 5.00000000000000000000e-01) (204, 5, 5.00000000000000000000e-01) (204, 5, 5.00000000000000000000e-01) (204, 5, 5.00000000000000000000e-01) (204, 5, 5.00000000000000000000e-01) (204, 5, 5.00000000000000000000e-01) (204, 5, 5.00000000000000000000e-01) (204, 5, 5.00000000000000000000e-01) (204, 5, 5.00000000000000000000e-01) (204, 5, 5.00000000000000000000e-01) (204, 5, 5.00000000000000000000e-01) (204, 5, 5.00000000000000000000e-01) (204, 5, 5.00000000000000000000e-01) (204, 5, 5.00000000000000000000e-01) (204, 5, 5.00000000000000000000e-01) (204, 5, 5.00000000000000000000e-01) (204, 5, 5.00000000000000000000e-01) (204, 5, 5.00000000000000000000e-01) (204, 5, 5.00000000000000000000e-01) (204, 5, 5.00000000000000000000e-01) (204, 5, 5.00000000000000000000e-01) (204, 5, 5.00000000000000000000e-01) (204, 5, 5.00000000000000000000e-01) (204, 5, 5.00000000000000000000e-01) (204, 5, 5.00000000000000000000e-01) (204, 5, 5.00000000000000000000e-01) (204, 5, 5.00000000000000000000e-01) (204, 5, 5.00000000000000000000e-01) (0, 5, 0.00000000000000000000e+00) (131, 5, 5.00000000000000000000e-01) (0, 5, 0.00000000000000000000e+00) 
connections (connected_to_neuron, weight)=(0, 6.20633792877197265625e+00) (1, 6.36224317550659179688e+00) (2, 6.35228872299194335938e+00) (3, 6.32421064376831054688e+00) (4, 6.50228166580200195312e+00) (5, 6.51235103607177734375e+00) (6, 6.36227989196777343750e+00) (7, 6.19415855407714843750e+00) (8, 6.52754878997802734375e+00) (9, 6.39421701431274414062e+00) (10, 6.21040201187133789062e+00) (11, 4.53732395172119140625e+00) (12, 6.49476766586303710938e+00) (13, 6.46494197845458984375e+00) (14, 6.49154996871948242188e+00) (15, 6.20666837692260742188e+00) (16, 6.47465133666992187500e+00) (17, 6.32393980026245117188e+00) (18, 6.31835794448852539062e+00) (19, 6.28369426727294921875e+00) (20, 6.17916440963745117188e+00) (21, 6.22714471817016601562e+00) (22, 6.19816112518310546875e+00) (23, 4.61914682388305664062e+00) (24, 4.58148097991943359375e+00) (25, 4.57846069335937500000e+00) (26, 4.67073106765747070312e+00) (27, 4.54933500289916992188e+00) (28, 4.48244571685791015625e+00) (29, 4.54125833511352539062e+00) (30, 4.50424480438232421875e+00) (31, 4.47251367568969726562e+00) (32, 4.65774679183959960938e+00) (33, 4.40652990341186523438e+00) (34, 4.40581226348876953125e+00) (35, 4.47915077209472656250e+00) (36, 4.84439039230346679688e+00) (37, 4.83207750320434570312e+00) (38, 4.93825244903564453125e+00) (39, 4.82900381088256835938e+00) (40, 4.91378593444824218750e+00) (41, 5.00455760955810546875e+00) (42, 4.78375720977783203125e+00) (43, 4.52266740798950195312e+00) (44, 4.93742704391479492188e+00) (45, 6.24492168426513671875e+00) (46, 6.06598186492919921875e+00) (47, 6.58270502090454101562e+00) (48, 6.13837432861328125000e+00) (49, 5.13539361953735351562e+00) (50, 6.53595781326293945312e+00) (51, 6.64759778976440429688e+00) (52, 5.11151933670043945312e+00) (53, 5.11787271499633789062e+00) (54, 5.02311897277832031250e+00) (55, 5.03219509124755859375e+00) (56, 6.54616355895996093750e+00) (57, 5.01089000701904296875e+00) (58, 5.04834461212158203125e+00) (59, 5.31357336044311523438e+00) (60, 5.22638940811157226562e+00) (61, 5.11386013031005859375e+00) (62, 6.57192754745483398438e+00) (63, 4.93948411941528320312e+00) (64, 5.22935485839843750000e+00) (65, 6.57367277145385742188e+00) (66, 6.81589365005493164062e+00) (67, 4.49956941604614257812e+00) (68, 5.20193004608154296875e+00) (69, 6.77846622467041015625e+00) (70, 5.31748819351196289062e+00) (71, 5.32374572753906250000e+00) (72, 5.19294452667236328125e+00) (73, 5.29660940170288085938e+00) (74, 5.00359821319580078125e+00) (75, 5.05486202239990234375e+00) (76, 5.12185525894165039062e+00) (77, 5.01365041732788085938e+00) (78, 4.93506383895874023438e+00) (79, 5.09724855422973632812e+00) (80, 4.96212053298950195312e+00) (81, 3.39061713218688964844e+00) (82, 3.26121187210083007812e+00) (83, 5.07065248489379882812e+00) (84, 3.21335291862487792969e+00) (85, 5.07256984710693359375e+00) (86, 5.26146936416625976562e+00) (87, 5.03757810592651367188e+00) (88, -3.49005669355392456055e-01) (89, 5.19675111770629882812e+00) (90, -2.41771787405014038086e-01) (91, -1.61280795931816101074e-01) (92, 6.54740557074546813965e-02) (93, 4.74210008978843688965e-02) (94, 1.27976853400468826294e-02) (95, -1.87350285053253173828e+00) (96, -2.06383705139160156250e+00) (97, -6.94084763526916503906e-02) (98, 2.19695538282394409180e-01) (99, -7.66160869598388671875e+00) (100, 1.27449572086334228516e-01) (101, 1.90830409526824951172e-01) (102, 1.02915620803833007812e+00) (103, 5.95787286758422851562e+00) (104, 3.54705619812011718750e+01) (105, 2.36068487167358398438e+00) (106, 1.13283319473266601562e+01) (107, 8.40458631515502929688e-01) (108, 9.00103664398193359375e+00) (109, -1.35989296436309814453e+00) (110, -4.90602989196777343750e+01) (111, 1.80027198791503906250e+01) (112, -4.83351058959960937500e+01) (113, -1.60971851348876953125e+01) (114, -6.27666664123535156250e+01) (115, 3.48112213134765625000e+02) (116, 2.21264982223510742188e+00) (117, 1.13432574272155761719e+00) (118, 1.06851267814636230469e+00) (119, 1.13151836395263671875e+00) (120, 1.15333843231201171875e+00) (121, 2.66653513908386230469e+00) (122, 1.07980537414550781250e+00) (123, 9.20902609825134277344e-01) (124, 7.07985067367553710938e+00) (125, 6.95392322540283203125e+00) (126, 5.01379156112670898438e+00) (127, 6.81864118576049804688e+00) (128, 6.85924100875854492188e+00) (129, 5.14699983596801757812e+00) (130, 5.00478458404541015625e+00) (131, 5.22579431533813476562e+00) (132, 6.50629806518554687500e+00) (133, 5.09100675582885742188e+00) (134, 5.15770816802978515625e+00) (135, 4.71551179885864257812e+00) (136, 6.44161272048950195312e+00) (137, 5.17855882644653320312e+00) (138, 4.76499557495117187500e+00) (139, 5.08437967300415039062e+00) (140, 5.21941423416137695312e+00) (141, 6.39626646041870117188e+00) (142, 4.80539035797119140625e+00) (143, 4.60724639892578125000e+00) (144, 6.44408655166625976562e+00) (145, 4.74980735778808593750e+00) (146, 6.43148660659790039062e+00) (147, 4.65510368347167968750e+00) (148, 6.42259693145751953125e+00) (149, 6.46713399887084960938e+00) (150, 4.68967533111572265625e+00) (151, 2.37635350227355957031e+00) (152, 6.31759357452392578125e+00) (153, 2.42519521713256835938e+00) (154, 4.64331674575805664062e+00) (155, 4.54639148712158203125e+00) (156, 6.39902639389038085938e+00) (157, 6.32341241836547851562e+00) (158, 7.01216578483581542969e-01) (159, 4.65191030502319335938e+00) (160, 4.53824710845947265625e+00) (161, 4.70073223114013671875e+00) (162, 4.66824674606323242188e+00) (163, 4.54115533828735351562e+00) (164, 4.66759872436523437500e+00) (165, 4.65289831161499023438e+00) (166, 4.55051183700561523438e+00) (167, 4.65953397750854492188e+00) (168, 4.60643291473388671875e+00) (169, 4.54504346847534179688e+00) (170, 6.16854095458984375000e+00) (171, 6.28574514389038085938e+00) (172, 4.57141637802124023438e+00) (173, 4.98883390426635742188e+00) (174, 4.98021650314331054688e+00) (175, 6.29613161087036132812e+00) (176, 4.54295253753662109375e+00) (177, 4.89136457443237304688e+00) (178, 4.57195091247558593750e+00) (179, 4.45427703857421875000e+00) (180, 4.86535692214965820312e+00) (181, 6.31817817687988281250e+00) (182, 5.02193546295166015625e+00) (183, 5.02070045471191406250e+00) (184, 6.68301534652709960938e+00) (185, 4.96151065826416015625e+00) (186, 6.29110145568847656250e+00) (187, 4.56272983551025390625e+00) (188, 6.15812110900878906250e+00) (189, 6.24166107177734375000e+00) (190, 6.31091737747192382812e+00) (191, 6.17138862609863281250e+00) (192, 6.20049762725830078125e+00) (193, 6.28169631958007812500e+00) (194, 4.49849462509155273438e+00) (195, 4.64515924453735351562e+00) (196, 6.20486211776733398438e+00) (197, 6.28291606903076171875e+00) (198, 4.49843931198120117188e+00) (199, 4.61588573455810546875e+00) (200, 4.64721250534057617188e+00) (201, 4.61380052566528320312e+00) (202, 4.58905410766601562500e+00) (203, 1.77767241001129150391e+00) (0, -5.74114441871643066406e-01) (1, -4.59109783172607421875e-01) (2, -5.20811021327972412109e-01) (3, -4.02904808521270751953e-01) (4, -6.42964005470275878906e-01) (5, -6.49064540863037109375e-01) (6, -7.20711112022399902344e-01) (7, -4.73721921443939208984e-01) (8, -7.11208820343017578125e-01) (9, -6.99294269084930419922e-01) (10, -4.88331615924835205078e-01) (11, 3.39513325691223144531e+00) (12, -6.22620999813079833984e-01) (13, -6.32696807384490966797e-01) (14, -7.33603000640869140625e-01) (15, -4.69547331333160400391e-01) (16, -6.30457937717437744141e-01) (17, -5.22508382797241210938e-01) (18, -4.78589057922363281250e-01) (19, -4.23933327198028564453e-01) (20, -6.20178699493408203125e-01) (21, -4.82993781566619873047e-01) (22, -4.40682649612426757812e-01) (23, 3.48118233680725097656e+00) (24, 3.37308216094970703125e+00) (25, 3.45551681518554687500e+00) (26, 3.44020462036132812500e+00) (27, 3.47592902183532714844e+00) (28, 3.36339735984802246094e+00) (29, 3.35788202285766601562e+00) (30, 3.48651695251464843750e+00) (31, 3.46555042266845703125e+00) (32, 3.48067998886108398438e+00) (33, 3.36633110046386718750e+00) (34, 3.35040760040283203125e+00) (35, 8.94040489196777343750e+00) (36, 3.37557792663574218750e+00) (37, 3.39894127845764160156e+00) (38, 9.03470993041992187500e+00) (39, 3.43222594261169433594e+00) (40, 8.94966697692871093750e+00) (41, 8.89644145965576171875e+00) (42, 3.46082520484924316406e+00) (43, 9.00725460052490234375e+00) (44, 3.46124076843261718750e+00) (45, 5.03606700897216796875e+00) (46, 5.06165456771850585938e+00) (47, 4.97634029388427734375e+00) (48, 5.10859203338623046875e+00) (49, 3.92436957359313964844e+00) (50, 5.09535789489746093750e+00) (51, 4.98575544357299804688e+00) (52, 3.96185469627380371094e+00) (53, 4.01645660400390625000e+00) (54, 3.90267872810363769531e+00) (55, 3.92597699165344238281e+00) (56, -4.94872629642486572266e-01) (57, 3.97495698928833007812e+00) (58, -1.64182496070861816406e+00) (59, -1.65304958820343017578e+00) (60, -1.65243101119995117188e+00) (61, 3.97882390022277832031e+00) (62, -4.22227025032043457031e-01) (63, 3.37620711326599121094e+00) (64, -1.80299174785614013672e+00) (65, -3.88915002346038818359e-01) (66, -7.18848407268524169922e-01) (67, -1.72666275501251220703e+00) (68, -1.67002594470977783203e+00) (69, -5.88810503482818603516e-01) (70, -1.71442723274230957031e+00) (71, -1.72431981563568115234e+00) (72, -1.77088487148284912109e+00) (73, -1.71879577636718750000e+00) (74, -1.67119157314300537109e+00) (75, -1.56188249588012695312e+00) (76, -1.70644700527191162109e+00) (77, -1.59703993797302246094e+00) (78, -1.60575640201568603516e+00) (79, -1.47197723388671875000e+00) (80, 4.00044155120849609375e+00) (81, 2.37654352188110351562e+00) (82, 8.04257297515869140625e+00) (83, 4.31916475296020507812e+00) (84, 8.02833366394042968750e+00) (85, 3.93837475776672363281e+00) (86, -1.67863118648529052734e+00) (87, 4.10605049133300781250e+00) (88, 4.17074489593505859375e+00) (89, 4.08598804473876953125e+00) (90, 4.23023319244384765625e+00) (91, 3.94140577316284179688e+00) (92, 3.88113713264465332031e+00) (93, 4.04386138916015625000e+00) (94, 4.01877784729003906250e+00) (95, 5.93920183181762695312e+00) (96, 6.04579210281372070312e+00) (97, 4.32831192016601562500e+00) (98, 4.07906103134155273438e+00) (99, -2.50452823638916015625e+01) (100, 4.05992555618286132812e+00) (101, 4.12122583389282226562e+00) (102, 4.47596597671508789062e+00) (103, 2.11038150787353515625e+01) (104, 1.00273492431640625000e+03) (105, 7.31996726989746093750e+00) (106, 3.32502818107604980469e+00) (107, 3.08258891105651855469e+00) (108, -2.81369137763977050781e+00) (109, -3.77601957321166992188e+00) (110, -3.20605468750000000000e+01) (111, -8.51118164062500000000e+02) (112, -4.05129852294921875000e+01) (113, -2.11991462707519531250e+01) (114, -1.14656745910644531250e+02) (115, 1.00146740722656250000e+03) (116, 3.88231587409973144531e+00) (117, 3.52307891845703125000e+00) (118, 3.61875677108764648438e+00) (119, 3.56907081604003906250e+00) (120, 4.64732074737548828125e+00) (121, 7.81443595886230468750e+00) (122, 4.32509994506835937500e+00) (123, 4.33677339553833007812e+00) (124, -1.24572980403900146484e+00) (125, 4.89390373229980468750e+00) (126, 3.55686998367309570312e+00) (127, -5.74858546257019042969e-01) (128, -4.69141215085983276367e-01) (129, 3.41303730010986328125e+00) (130, 3.55065441131591796875e+00) (131, 3.58493876457214355469e+00) (132, -4.50099289417266845703e-01) (133, 3.65737366676330566406e+00) (134, 3.61791324615478515625e+00) (135, 3.65080761909484863281e+00) (136, -4.26951110363006591797e-01) (137, 3.50024008750915527344e+00) (138, 3.46507310867309570312e+00) (139, 3.29037761688232421875e+00) (140, 3.35907745361328125000e+00) (141, -6.38511478900909423828e-01) (142, 3.47037267684936523438e+00) (143, 3.48388004302978515625e+00) (144, 3.48494029045104980469e+00) (145, 7.52182579040527343750e+00) (146, 3.45252323150634765625e+00) (147, 7.57452869415283203125e+00) (148, 3.40946817398071289062e+00) (149, 3.35403299331665039062e+00) (150, 7.42495965957641601562e+00) (151, 3.44643521308898925781e+00) (152, 3.41478109359741210938e+00) (153, 3.45287013053894042969e+00) (154, 7.41474342346191406250e+00) (155, 7.48265504837036132812e+00) (156, 3.42526698112487792969e+00) (157, 3.41845202445983886719e+00) (158, 7.40066909790039062500e+00) (159, 7.40912151336669921875e+00) (160, 7.34806919097900390625e+00) (161, 7.42731332778930664062e+00) (162, 7.40551042556762695312e+00) (163, 7.43965244293212890625e+00) (164, 7.32753705978393554688e+00) (165, 7.47601842880249023438e+00) (166, 7.41299772262573242188e+00) (167, 7.42810678482055664062e+00) (168, 7.37147569656372070312e+00) (169, 7.38939046859741210938e+00) (170, 3.36227226257324218750e+00) (171, 3.49473810195922851562e+00) (172, 7.34779834747314453125e+00) (173, 7.43665504455566406250e+00) (174, 7.35939359664916992188e+00) (175, 3.41428208351135253906e+00) (176, 7.37896919250488281250e+00) (177, 7.48257207870483398438e+00) (178, 7.34415149688720703125e+00) (179, 7.32942295074462890625e+00) (180, 7.44325113296508789062e+00) (181, 3.51662087440490722656e+00) (182, 7.32606029510498046875e+00) (183, 7.28881835937500000000e+00) (184, 3.48503017425537109375e+00) (185, 7.36510086059570312500e+00) (186, 3.42480778694152832031e+00) (187, 7.40558290481567382812e+00) (188, 3.55885314941406250000e+00) (189, -5.75132608413696289062e-01) (190, 3.42372679710388183594e+00) (191, -5.30895292758941650391e-01) (192, 3.48145842552185058594e+00) (193, -5.56196510791778564453e-01) (194, 3.42716073989868164062e+00) (195, 3.37989187240600585938e+00) (196, -6.04196310043334960938e-01) (197, -4.90042775869369506836e-01) (198, 3.33973813056945800781e+00) (199, 3.44390296936035156250e+00) (200, 3.32533144950866699219e+00) (201, 3.43842363357543945312e+00) (202, 3.38938832283020019531e+00) (203, 3.04565429687500000000e+00) (0, 2.50066518783569335938e-01) (1, 5.68973183631896972656e-01) (2, 2.09271192550659179688e-01) (3, 2.51532018184661865234e-01) (4, 8.75648856163024902344e-01) (5, 3.72065603733062744141e-01) (6, 3.76470923423767089844e-01) (7, 2.16123223304748535156e-01) (8, 1.30955243110656738281e+00) (9, 4.13653373718261718750e-01) (10, 7.20921039581298828125e-01) (11, -6.13825321197509765625e-01) (12, 4.74780082702636718750e-01) (13, 7.00910449028015136719e-01) (14, 7.44931101799011230469e-01) (15, 7.43650317192077636719e-01) (16, 4.58742320537567138672e-01) (17, 5.74523806571960449219e-01) (18, 1.08082547783851623535e-01) (19, 6.16763710975646972656e-01) (20, 2.88703918457031250000e-01) (21, 6.88347220420837402344e-01) (22, 7.23641872406005859375e-01) (23, -1.00856435298919677734e+00) (24, -1.00479495525360107422e+00) (25, -9.36495184898376464844e-01) (26, -8.62647593021392822266e-01) (27, -1.36910974979400634766e+00) (28, -1.06972086429595947266e+00) (29, -4.52933102846145629883e-01) (30, -2.03254985809326171875e+00) (31, -9.19236958026885986328e-01) (32, -1.90813779830932617188e+00) (33, -5.08917093276977539062e-01) (34, -4.85512048006057739258e-01) (35, -1.56775951385498046875e+00) (36, -5.26329338550567626953e-01) (37, -9.86287057399749755859e-01) (38, -2.11449933052062988281e+00) (39, -5.17076909542083740234e-01) (40, -4.78363424539566040039e-01) (41, -9.67913866043090820312e-01) (42, -1.18758165836334228516e+00) (43, -9.02868628501892089844e-01) (44, -9.47042346000671386719e-01) (45, 4.48544085025787353516e-01) (46, 4.15629088878631591797e-01) (47, 4.33175623416900634766e-01) (48, 2.49763816595077514648e-01) (49, 4.45366144180297851562e-01) (50, 3.31548452377319335938e-01) (51, 5.48708200454711914062e-01) (52, -4.02179861068725585938e+00) (53, 2.91904854774475097656e+00) (54, -1.80116161704063415527e-01) (55, 3.93934547901153564453e-01) (56, -7.38490283489227294922e-01) (57, 4.60484218597412109375e+00) (58, 3.37524247169494628906e+00) (59, -6.90727114677429199219e-01) (60, -1.48422741889953613281e+00) (61, -4.57705944776535034180e-01) (62, -5.17656445503234863281e-01) (63, 5.80377006530761718750e+00) (64, -4.75249576568603515625e+00) (65, -6.88300669193267822266e-01) (66, 5.11199665069580078125e+00) (67, -5.29974400997161865234e-01) (68, 4.84955644607543945312e+00) (69, -1.75035580992698669434e-01) (70, 3.72214198112487792969e+00) (71, 4.48479318618774414062e+00) (72, 5.90990209579467773438e+00) (73, 2.43091750144958496094e+00) (74, 5.61307048797607421875e+00) (75, -1.05699509382247924805e-01) (76, 9.09378886222839355469e-01) (77, 2.60598540306091308594e+00) (78, 4.50426721572875976562e+00) (79, 6.71081161499023437500e+00) (80, -2.39791774749755859375e+00) (81, -2.20383095741271972656e+00) (82, 2.47279191017150878906e+00) (83, 1.16758441925048828125e+00) (84, 2.18964982032775878906e+00) (85, 4.63852691650390625000e+00) (86, -1.99439629912376403809e-01) (87, 5.11720085144042968750e+00) (88, 5.18409919738769531250e+00) (89, 5.39187908172607421875e+00) (90, 6.74052381515502929688e+00) (91, -7.33220720291137695312e+00) (92, 5.80073308944702148438e+00) (93, 1.28096413612365722656e+00) (94, 5.47937822341918945312e+00) (95, -4.44116353988647460938e-01) (96, -2.21903085708618164062e+00) (97, -4.87534254789352416992e-01) (98, -2.84913510084152221680e-01) (99, -3.30167531967163085938e+00) (100, 1.00635051727294921875e+00) (101, 8.34656596183776855469e-01) (102, 1.40862154960632324219e+00) (103, 6.86301660537719726562e+00) (104, 4.91573905944824218750e+00) (105, 5.90211963653564453125e+00) (106, 1.61551303863525390625e+01) (107, 5.98739385604858398438e+00) (108, -2.08605308532714843750e+01) (109, 3.70371603965759277344e+00) (110, -9.24230003356933593750e+00) (111, 4.38548922538757324219e-01) (112, -4.46849212646484375000e+01) (113, -1.37385616302490234375e+01) (114, -6.58124208450317382812e-01) (115, -1.45167693495750427246e-01) (116, 1.68465828895568847656e+00) (117, 4.08654117584228515625e+00) (118, 6.65765166282653808594e-01) (119, 2.44504719972610473633e-01) (120, -1.15602174773812294006e-02) (121, 8.83578300476074218750e+00) (122, 1.14859032630920410156e+00) (123, 6.72756481170654296875e+00) (124, 3.61278748512268066406e+00) (125, 9.66708421707153320312e-01) (126, 3.63346338272094726562e+00) (127, 4.68920373916625976562e+00) (128, -5.50863802433013916016e-01) (129, 3.07998323440551757812e+00) (130, -8.49946498870849609375e-01) (131, 2.52778863906860351562e+00) (132, 3.63245463371276855469e+00) (133, 2.33619523048400878906e+00) (134, 2.18010568618774414062e+00) (135, -2.50937628746032714844e+00) (136, 2.97521090507507324219e+00) (137, 2.69335913658142089844e+00) (138, 2.41952204704284667969e+00) (139, 2.62068915367126464844e+00) (140, 2.95782947540283203125e+00) (141, 5.81284523010253906250e+00) (142, 2.24322962760925292969e+00) (143, 2.42538905143737792969e+00) (144, 8.71764659881591796875e-01) (145, -1.39912366867065429688e+00) (146, -5.23803043365478515625e+00) (147, 2.88472676277160644531e+00) (148, 3.05259823799133300781e-01) (149, 7.11113885045051574707e-02) (150, -1.33527016639709472656e+00) (151, 4.77652454376220703125e+00) (152, 8.17368316650390625000e+00) (153, 8.65656614303588867188e-01) (154, -1.15753591060638427734e+00) (155, 2.50769519805908203125e+00) (156, -2.44540786743164062500e+00) (157, 5.75385808944702148438e+00) (158, -3.02399992942810058594e-01) (159, -3.96019959449768066406e+00) (160, 1.35723507404327392578e+00) (161, 9.60314810276031494141e-01) (162, -9.88177537918090820312e-01) (163, 1.21100306510925292969e+00) (164, -2.62456631660461425781e+00) (165, -8.73641669750213623047e-01) (166, -1.06326174736022949219e+00) (167, -1.92709851264953613281e+00) (168, -1.03808867931365966797e+00) (169, 2.34508931636810302734e-01) (170, 7.74543881416320800781e-01) (171, 8.74691843986511230469e-01) (172, -1.53210246562957763672e+00) (173, 1.13036692142486572266e-01) (174, -1.56339967250823974609e+00) (175, 5.95856785774230957031e-01) (176, -1.03435552120208740234e+00) (177, -9.49134349822998046875e-01) (178, -1.91321301460266113281e+00) (179, -1.54760432243347167969e+00) (180, -9.41986262798309326172e-01) (181, -8.35994541645050048828e-01) (182, -1.12186622619628906250e+00) (183, -1.75230753421783447266e+00) (184, 2.42716759443283081055e-01) (185, -2.36719703674316406250e+00) (186, -6.33491873741149902344e-01) (187, -1.45222485065460205078e+00) (188, 1.98387503623962402344e-01) (189, 6.45809412002563476562e-01) (190, -7.26559996604919433594e-01) (191, 5.57604432106018066406e-01) (192, 6.55332565307617187500e-01) (193, 1.21736533939838409424e-01) (194, -1.06751132011413574219e+00) (195, -1.01317989826202392578e+00) (196, 5.98864078521728515625e-01) (197, 6.75558328628540039062e-01) (198, -1.06896567344665527344e+00) (199, -9.99078869819641113281e-01) (200, -9.37592267990112304688e-01) (201, -9.27845358848571777344e-01) (202, -1.09770917892456054688e+00) (203, 7.70755672454833984375e+00) (0, 6.73860669136047363281e-01) (1, 7.60913729667663574219e-01) (2, 8.06036949157714843750e-01) (3, 2.19532561302185058594e+00) (4, 2.75406670570373535156e+00) (5, 8.29713153839111328125e+00) (6, 2.77320122718811035156e+00) (7, 7.44317531585693359375e-01) (8, 1.34710931777954101562e+00) (9, 1.12984347343444824219e+00) (10, 3.68004977703094482422e-01) (11, 6.23674678802490234375e+00) (12, 1.08914947509765625000e+00) (13, 2.72487163543701171875e+00) (14, 1.11255264282226562500e+00) (15, 6.41647696495056152344e-01) (16, 1.43014764785766601562e+00) (17, 7.82477021217346191406e-01) (18, 7.65449810028076171875e+00) (19, 6.50756835937500000000e-01) (20, 6.46941900253295898438e-01) (21, 5.70093870162963867188e-01) (22, 5.35198211669921875000e-01) (23, 7.34426140785217285156e-01) (24, 6.15170478820800781250e-01) (25, 6.11967658996582031250e+00) (26, 7.66836404800415039062e-01) (27, 6.10491085052490234375e+00) (28, 6.89340591430664062500e-01) (29, 4.42694807052612304688e+00) (30, 4.00956988334655761719e-01) (31, 6.15618228912353515625e+00) (32, 7.45276212692260742188e-01) (33, 6.02776288986206054688e+00) (34, 2.20162582397460937500e+00) (35, 4.58722686767578125000e+00) (36, 6.05331087112426757812e+00) (37, 6.30198812484741210938e+00) (38, 7.77774524688720703125e+00) (39, 2.36862134933471679688e+00) (40, 4.66056764125823974609e-01) (41, 6.17484140396118164062e+00) (42, 2.12883996963500976562e+00) (43, 6.00554132461547851562e+00) (44, 3.69008898735046386719e-01) (45, 6.17241954803466796875e+00) (46, 6.23300266265869140625e+00) (47, 6.68590927124023437500e+00) (48, 5.08450889587402343750e+00) (49, 4.50297975540161132812e+00) (50, 4.59158229827880859375e+00) (51, 4.22974109649658203125e+00) (52, 6.24178981781005859375e+00) (53, 4.33249855041503906250e+00) (54, 6.18425893783569335938e+00) (55, 2.92376852035522460938e+00) (56, 5.78564643859863281250e+00) (57, -2.50287199020385742188e+00) (58, -1.62127757072448730469e+00) (59, -2.49660754203796386719e+00) (60, -3.16403985023498535156e+00) (61, 9.76966559886932373047e-01) (62, -5.16380214691162109375e+00) (63, -1.42556524276733398438e+00) (64, -2.57950282096862792969e+00) (65, -1.60172855854034423828e+00) (66, -2.86709570884704589844e+00) (67, -6.26586294174194335938e+00) (68, -2.94310879707336425781e+00) (69, -2.08622121810913085938e+00) (70, 1.96190178394317626953e-01) (71, -3.08671855926513671875e+00) (72, -2.52739548683166503906e+00) (73, -3.04052472114562988281e+00) (74, -8.24945330619812011719e-01) (75, 2.59858131408691406250e-01) (76, -2.19729757308959960938e+00) (77, -3.43155384063720703125e+00) (78, -3.52968478202819824219e+00) (79, 5.49959468841552734375e+00) (80, -1.63327002525329589844e+00) (81, -5.25037646293640136719e-01) (82, 2.93354725837707519531e+00) (83, -1.92908763885498046875e+00) (84, 2.26551675796508789062e+00) (85, 2.16564059257507324219e+00) (86, -4.26437044143676757812e+00) (87, -1.08918869495391845703e+00) (88, -4.78537988662719726562e+00) (89, -3.85320162773132324219e+00) (90, -2.07839083671569824219e+00) (91, -7.17957258224487304688e+00) (92, -1.77311003208160400391e+00) (93, -1.48766863346099853516e+00) (94, -1.17711508274078369141e+00) (95, 6.34250044822692871094e-01) (96, -1.90224003791809082031e+00) (97, -1.64056472778320312500e+01) (98, 1.28052198886871337891e+00) (99, -5.40011548995971679688e+00) (100, -8.46735572814941406250e+00) (101, -8.81160068511962890625e+00) (102, 2.83228063583374023438e+00) (103, 1.47004091739654541016e+00) (104, -1.27842509746551513672e+00) (105, -1.44471299648284912109e+00) (106, 1.92410483956336975098e-01) (107, -5.74476528167724609375e+00) (108, -3.89170837402343750000e+00) (109, -1.34640502929687500000e+00) (110, -1.73205101490020751953e+00) (111, 5.71118652820587158203e-01) (112, -2.88995099067687988281e+00) (113, 1.27243506908416748047e+00) (114, -7.95788049697875976562e+00) (115, -3.16108560562133789062e+00) (116, -3.93109059333801269531e+00) (117, -7.79730558395385742188e+00) (118, -5.72084665298461914062e+00) (119, -4.80107247829437255859e-01) (120, -1.82453000545501708984e+00) (121, -4.22384500503540039062e+00) (122, -6.31430149078369140625e+00) (123, -6.35000467300415039062e+00) (124, -3.01311159133911132812e+00) (125, -5.07343816757202148438e+00) (126, -2.69793319702148437500e+00) (127, -1.07909679412841796875e+00) (128, -2.56249976158142089844e+00) (129, 5.63290953636169433594e-01) (130, -3.26643896102905273438e+00) (131, 5.91363549232482910156e-01) (132, 2.47017073631286621094e+00) (133, -9.55927133560180664062e-01) (134, -9.95982050895690917969e-01) (135, -1.60659825801849365234e+00) (136, -7.80927228927612304688e+00) (137, 1.03493893146514892578e+00) (138, 2.97070050239562988281e+00) (139, -2.67565369606018066406e+00) (140, 1.22598445415496826172e+00) (141, 2.18841910362243652344e+00) (142, 1.34093403816223144531e+00) (143, 1.22791457176208496094e+00) (144, 1.90774524211883544922e+00) (145, 1.48940622806549072266e+00) (146, 3.29457402229309082031e+00) (147, 2.99162650108337402344e+00) (148, -4.46550577878952026367e-01) (149, -1.89199042320251464844e+00) (150, -1.00757229328155517578e+00) (151, -2.37693214416503906250e+00) (152, -2.18382620811462402344e+00) (153, -2.14149260520935058594e+00) (154, -2.03722977638244628906e+00) (155, 6.18706703186035156250e-01) (156, -5.70619463920593261719e-01) (157, -8.39275836944580078125e-01) (158, -1.55210363864898681641e+00) (159, -1.34795880317687988281e+00) (160, 1.27696573734283447266e-01) (161, -3.45869135856628417969e+00) (162, -1.31955659389495849609e+00) (163, -1.21185243129730224609e+00) (164, -4.26308393478393554688e+00) (165, -2.81866717338562011719e+00) (166, -3.07262587547302246094e+00) (167, -2.90360474586486816406e+00) (168, -2.73926281929016113281e+00) (169, -3.61380171775817871094e+00) (170, -4.26608705520629882812e+00) (171, -2.66409921646118164062e+00) (172, -6.45815551280975341797e-01) (173, -2.84022831916809082031e+00) (174, -3.06881237030029296875e+00) (175, -2.14551877975463867188e+00) (176, -1.94302690029144287109e+00) (177, -2.59876179695129394531e+00) (178, -2.00057792663574218750e+00) (179, -1.56782639026641845703e+00) (180, -1.41619527339935302734e+00) (181, -2.13617777824401855469e+00) (182, -1.62019777297973632812e+00) (183, -1.46238124370574951172e+00) (184, -6.31016045808792114258e-02) (185, -1.30150723457336425781e+00) (186, -9.75061580538749694824e-02) (187, 2.53200483322143554688e+00) (188, 1.06177735328674316406e+00) (189, 1.21689772605895996094e+00) (190, 1.17047381401062011719e+00) (191, 1.16293144226074218750e+00) (192, 1.06767678260803222656e+00) (193, 1.27411532402038574219e+00) (194, 2.76482653617858886719e+00) (195, 1.26250028610229492188e+00) (196, 1.29162907600402832031e+00) (197, 1.06330561637878417969e+00) (198, 1.06656122207641601562e+00) (199, 1.19077610969543457031e+00) (200, 8.26962089538574218750e+00) (201, 1.15956997871398925781e+00) (202, 1.28403687477111816406e+00) (203, 5.63177967071533203125e+00) (0, 4.30645656585693359375e+00) (1, -2.38989996910095214844e+00) (2, 5.49782562255859375000e+00) (3, 5.53337097167968750000e+00) (4, 5.79999160766601562500e+00) (5, -9.60979819297790527344e-01) (6, 4.35363531112670898438e+00) (7, 4.30552053451538085938e+00) (8, -2.26613068580627441406e+00) (9, 4.47111606597900390625e+00) (10, 4.29782676696777343750e+00) (11, -1.28164374828338623047e+00) (12, 5.60728979110717773438e+00) (13, 4.42583942413330078125e+00) (14, 5.72806549072265625000e+00) (15, 2.94782686233520507812e+00) (16, 1.87236487865447998047e+00) (17, 3.01785850524902343750e+00) (18, 3.07225036621093750000e+00) (19, 3.00040817260742187500e+00) (20, 5.62249231338500976562e+00) (21, 3.09489345550537109375e+00) (22, 5.58877468109130859375e+00) (23, 2.86520552635192871094e+00) (24, 4.08216762542724609375e+00) (25, 1.35743415355682373047e+00) (26, 2.78988862037658691406e+00) (27, 3.99362969398498535156e+00) (28, 2.86483430862426757812e+00) (29, 5.62648487091064453125e+00) (30, 5.36492252349853515625e+00) (31, 1.35591852664947509766e+00) (32, 5.45590686798095703125e+00) (33, -2.38103652000427246094e+00) (34, 4.15637588500976562500e+00) (35, -9.35135722160339355469e-01) (36, 1.37668502330780029297e+00) (37, 8.61101970076560974121e-02) (38, 9.20422226190567016602e-02) (39, 1.91784929484128952026e-02) (40, 5.24010807275772094727e-02) (41, 5.13788163661956787109e-02) (42, 5.09455278515815734863e-02) (43, 2.39574030041694641113e-01) (44, 1.04414343833923339844e-01) (45, 1.76546439528465270996e-01) (46, 1.60254910588264465332e-01) (47, 2.40840062499046325684e-01) (48, 2.18228653073310852051e-01) (49, 2.91800290346145629883e-01) (50, 2.73012489080429077148e-01) (51, 2.86156088113784790039e-01) (52, 5.95575511455535888672e-01) (53, 4.11311477422714233398e-01) (54, 5.93441486358642578125e+00) (55, 1.28127467632293701172e+00) (56, -1.74870896339416503906e+00) (57, 3.31788420677185058594e+00) (58, -2.45343875885009765625e+00) (59, -2.23413515090942382812e+00) (60, 3.41071081161499023438e+00) (61, -2.40392103791236877441e-01) (62, -1.49861431121826171875e+00) (63, 2.84666752815246582031e+00) (64, -8.76629352569580078125e-01) (65, -1.35506241349503397942e-04) (66, 2.91009473800659179688e+00) (67, -3.73275965452194213867e-01) (68, -8.30197781324386596680e-02) (69, -5.85611402988433837891e-01) (70, -3.05234849452972412109e-01) (71, -4.64003515243530273438e+00) (72, 3.71385741233825683594e+00) (73, 8.36016684770584106445e-02) (74, -8.23524117469787597656e-01) (75, -6.95347368717193603516e-01) (76, -4.25061047077178955078e-01) (77, -1.92149186134338378906e+00) (78, -1.27893412113189697266e+00) (79, -3.35425782203674316406e+00) (80, -1.32804226875305175781e+00) (81, -1.15052735805511474609e+00) (82, -1.77013909816741943359e+00) (83, -3.16747903823852539062e+00) (84, -2.02138471603393554688e+00) (85, -4.02603006362915039062e+00) (86, -8.34469795227050781250e-01) (87, -1.34303486347198486328e+00) (88, -2.98169541358947753906e+00) (89, -1.42972230911254882812e+00) (90, -1.58623528480529785156e+00) (91, -4.04299640655517578125e+00) (92, -1.55417621135711669922e+00) (93, -1.13256895542144775391e+00) (94, 5.30309438705444335938e+00) (95, 2.83617305755615234375e+00) (96, -3.36295342445373535156e+00) (97, -2.99550533294677734375e+00) (98, -5.97198724746704101562e+00) (99, -4.60182189941406250000e+00) (100, -2.52523231506347656250e+00) (101, 4.67167329788208007812e+00) (102, -5.00392103195190429688e+00) (103, -3.18871259689331054688e+00) (104, -5.45788383483886718750e+00) (105, -2.61695694923400878906e+00) (106, -8.52782487869262695312e-01) (107, -2.18344573974609375000e+01) (108, -1.99783973693847656250e+01) (109, -2.80360150337219238281e+00) (110, -3.95691251754760742188e+00) (111, -2.39145326614379882812e+00) (112, 1.25212657451629638672e+00) (113, -5.01730585098266601562e+00) (114, -1.99031448364257812500e+00) (115, -1.94311189651489257812e+00) (116, 2.28025817871093750000e+00) (117, -8.13850879669189453125e+00) (118, -3.38593572378158569336e-01) (119, -6.14828765392303466797e-01) (120, -4.63035440444946289062e+00) (121, -3.73932385444641113281e+00) (122, -4.39220845699310302734e-01) (123, -3.77051424980163574219e+00) (124, -3.90936326980590820312e+00) (125, -1.14810621738433837891e+00) (126, -3.16764473915100097656e+00) (127, 3.66268777847290039062e+00) (128, 1.96616709232330322266e+00) (129, -5.73375582695007324219e-01) (130, -1.27479231357574462891e+00) (131, 5.75653123855590820312e+00) (132, -1.91698598861694335938e+00) (133, 2.26049304008483886719e+00) (134, 4.23420191509649157524e-04) (135, -1.46641504764556884766e+00) (136, 1.77143061161041259766e+00) (137, 1.52703654766082763672e+00) (138, -1.35243451595306396484e+00) (139, 2.70402646064758300781e+00) (140, 6.30434811115264892578e-01) (141, 2.29437351226806640625e+00) (142, 1.07916079461574554443e-01) (143, -3.45885515213012695312e-01) (144, 6.84858262538909912109e-01) (145, -6.75100922584533691406e-01) (146, -1.11823523044586181641e+00) (147, 3.32255870103836059570e-01) (148, 1.12087845802307128906e-01) (149, -3.11637783050537109375e+00) (150, -8.58138620853424072266e-01) (151, -2.72118949890136718750e+00) (152, -4.60940694808959960938e+00) (153, -2.29093623161315917969e+00) (154, -2.76952266693115234375e+00) (155, -5.90476870536804199219e-01) (156, -9.48070764541625976562e-01) (157, -4.07764101028442382812e+00) (158, 4.16211813688278198242e-01) (159, -2.74442982673645019531e+00) (160, -5.95987677574157714844e-01) (161, -3.25445890426635742188e+00) (162, -3.23227256536483764648e-01) (163, -1.49883520603179931641e+00) (164, -2.44072580337524414062e+00) (165, -2.16543531417846679688e+00) (166, 2.99475979804992675781e+00) (167, 1.14796824753284454346e-01) (168, 1.36690270900726318359e+00) (169, 8.79669249057769775391e-01) (170, 1.17526841163635253906e+00) (171, -9.73247289657592773438e-02) (172, -1.68789291381835937500e+00) (173, -1.15495884418487548828e+00) (174, 2.82217526435852050781e+00) (175, 1.28700327873229980469e+00) (176, -1.52689075469970703125e+00) (177, -1.83067321777343750000e-01) (178, 2.07873129844665527344e+00) (179, -2.96349138021469116211e-01) (180, -3.99409800767898559570e-01) (181, -2.15383315086364746094e+00) (182, -1.95763766765594482422e+00) (183, -5.46609938144683837891e-01) (184, -1.52124667167663574219e+00) (185, -3.08766579627990722656e+00) (186, 2.89873218536376953125e+00) (187, 1.45373106002807617188e+00) (188, 1.63176977634429931641e+00) (189, 2.90516924858093261719e+00) (190, 1.56603956222534179688e+00) (191, 1.67835140228271484375e+00) (192, 1.58890640735626220703e+00) (193, 1.57317769527435302734e+00) (194, 1.35573673248291015625e+00) (195, 1.53509807586669921875e+00) (196, 1.64645683765411376953e+00) (197, 1.55886757373809814453e+00) (198, 1.52217280864715576172e+00) (199, 1.46214354038238525391e+00) (200, 1.41164207458496093750e+00) (201, 1.42797243595123291016e+00) (202, 1.39977395534515380859e+00) (203, 8.97075080871582031250e+00) (0, -1.14600908756256103516e+00) (1, -1.26123213768005371094e+00) (2, -1.28131353855133056641e+00) (3, -1.20383250713348388672e+00) (4, -1.06218361854553222656e+00) (5, -1.05461180210113525391e+00) (6, -1.21374940872192382812e+00) (7, -1.17469966411590576172e+00) (8, -1.12130117416381835938e+00) (9, -1.21163022518157958984e+00) (10, -1.12471926212310791016e+00) (11, -1.13071608543395996094e+00) (12, -1.22667539119720458984e+00) (13, -1.32518041133880615234e+00) (14, -1.17767763137817382812e+00) (15, -1.21679520606994628906e+00) (16, -1.28040790557861328125e+00) (17, -1.20092070102691650391e+00) (18, -1.07659685611724853516e+00) (19, -1.22243320941925048828e+00) (20, -1.33542776107788085938e+00) (21, -1.28865671157836914062e+00) (22, -1.32019031047821044922e+00) (23, -1.15004742145538330078e+00) (24, -1.13663673400878906250e+00) (25, -1.20814323425292968750e+00) (26, -1.26233386993408203125e+00) (27, -1.30056023597717285156e+00) (28, -1.57259082794189453125e+00) (29, -1.55038309097290039062e+00) (30, -1.62923932075500488281e+00) (31, -1.64484715461730957031e+00) (32, -1.37568676471710205078e+00) (33, -1.23086512088775634766e+00) (34, -1.55267751216888427734e+00) (35, -1.64967823028564453125e+00) (36, -1.63639831542968750000e+00) (37, -1.13272190093994140625e+00) (38, -1.52336859703063964844e+00) (39, -1.33059549331665039062e+00) (40, -1.20051109790802001953e+00) (41, -1.64460933208465576172e+00) (42, -1.21356105804443359375e+00) (43, -1.67268550395965576172e+00) (44, -1.33082175254821777344e+00) (45, -1.60166847705841064453e+00) (46, -1.66607522964477539062e+00) (47, -1.64780139923095703125e+00) (48, -1.54084146022796630859e+00) (49, -1.69101715087890625000e+00) (50, -1.36402893066406250000e+00) (51, -1.19821977615356445312e+00) (52, -1.16416704654693603516e+00) (53, -1.04167628288269042969e+00) (54, -2.02613878250122070312e+00) (55, -1.76048004627227783203e+00) (56, -1.18882775306701660156e+00) (57, -1.63089120388031005859e+00) (58, -1.53242468833923339844e+00) (59, -1.93120551109313964844e+00) (60, -1.77951765060424804688e+00) (61, -1.68637096881866455078e+00) (62, -2.27723747491836547852e-01) (63, -1.73167347908020019531e+00) (64, -1.64376664161682128906e+00) (65, -1.72786033153533935547e+00) (66, 1.39652025699615478516e+00) (67, -1.28327012062072753906e+00) (68, -1.10407888889312744141e+00) (69, -6.43577724695205688477e-02) (70, -1.40263199806213378906e+00) (71, -2.29417967796325683594e+00) (72, -5.94849467277526855469e-01) (73, -5.17232418060302734375e-01) (74, -3.66043782234191894531e+00) (75, 4.45513486862182617188e+00) (76, -6.02345132827758789062e+00) (77, 3.88509154319763183594e+00) (78, -2.20648646354675292969e+00) (79, 5.97991037368774414062e+00) (80, 3.23043537139892578125e+00) (81, 4.20495939254760742188e+00) (82, 6.05341672897338867188e+00) (83, 5.39886713027954101562e+00) (84, 7.66877174377441406250e+00) (85, 8.74178791046142578125e+00) (86, 3.11338591575622558594e+00) (87, 6.31633186340332031250e+00) (88, 8.06670761108398437500e+00) (89, 6.16335964202880859375e+00) (90, 9.14112377166748046875e+00) (91, 1.86909949779510498047e+00) (92, 2.05210323333740234375e+01) (93, 1.37738380432128906250e+01) (94, 6.37728929519653320312e+00) (95, 4.81296110153198242188e+00) (96, -7.73234319686889648438e+00) (97, -3.26489377021789550781e+00) (98, -2.37798023223876953125e+00) (99, -1.05824728012084960938e+01) (100, 6.11149668693542480469e-01) (101, 3.66720438003540039062e+00) (102, 6.28512620925903320312e+00) (103, 6.62371349334716796875e+00) (104, -2.17603993415832519531e+00) (105, 4.93676567077636718750e+00) (106, 8.53793621063232421875e+00) (107, 9.16309452056884765625e+00) (108, 1.52694168090820312500e+01) (109, 2.00607337951660156250e+01) (110, 9.20908737182617187500e+00) (111, 6.81250905990600585938e+00) (112, 2.58527445793151855469e+00) (113, 7.46486520767211914062e+00) (114, 4.59156066179275512695e-01) (115, 4.62788057327270507812e+00) (116, 8.59288024902343750000e+00) (117, 1.07129220962524414062e+01) (118, 9.19795989990234375000e+00) (119, -8.29756546020507812500e+00) (120, 2.27621078491210937500e+00) (121, 6.24112176895141601562e+00) (122, -3.75563955307006835938e+00) (123, -1.64996296167373657227e-01) (124, 1.03515329360961914062e+01) (125, 1.05741274356842041016e+00) (126, -1.00090384483337402344e+00) (127, 6.25220203399658203125e+00) (128, 3.70628762245178222656e+00) (129, -2.31132149696350097656e+00) (130, 3.80489850044250488281e+00) (131, 4.69972419738769531250e+00) (132, 4.91081428527832031250e+00) (133, 4.83713865280151367188e+00) (134, 4.82786273956298828125e+00) (135, 2.17673540115356445312e+00) (136, 3.49032306671142578125e+00) (137, 2.49564671516418457031e+00) (138, 4.97824001312255859375e+00) (139, 5.02493238449096679688e+00) (140, 4.34368324279785156250e+00) (141, 4.67037963867187500000e+00) (142, 4.86374807357788085938e+00) (143, 4.21490526199340820312e+00) (144, 4.12752151489257812500e+00) (145, 4.57705688476562500000e+00) (146, 4.20005941390991210938e+00) (147, -7.36705958843231201172e-01) (148, 4.23681020736694335938e+00) (149, -1.30814135074615478516e+00) (150, -1.11632955074310302734e+00) (151, -2.15322446823120117188e+00) (152, -2.12842965126037597656e+00) (153, -1.21144330501556396484e+00) (154, -1.29831469058990478516e+00) (155, -1.21458637714385986328e+00) (156, -2.05194544792175292969e+00) (157, -1.81514418125152587891e+00) (158, -1.81258416175842285156e+00) (159, -9.45672273635864257812e-01) (160, -1.89886939525604248047e+00) (161, -1.90140557289123535156e+00) (162, -9.75375056266784667969e-01) (163, -1.73098325729370117188e+00) (164, -9.02994036674499511719e-01) (165, -8.82593452930450439453e-01) (166, -1.89849686622619628906e+00) (167, -1.84796154499053955078e+00) (168, -1.74704563617706298828e+00) (169, -1.78033518791198730469e+00) (170, -1.92645573616027832031e+00) (171, -2.02483344078063964844e+00) (172, -1.93273949623107910156e+00) (173, -1.75771296024322509766e+00) (174, -2.08521938323974609375e+00) (175, -2.07345294952392578125e+00) (176, -1.99720299243927001953e+00) (177, -2.00916290283203125000e+00) (178, -2.02123737335205078125e+00) (179, -1.90039038658142089844e+00) (180, -1.93088173866271972656e+00) (181, -2.00806164741516113281e+00) (182, -1.92466127872467041016e+00) (183, -1.93969929218292236328e+00) (184, -2.05033993721008300781e+00) (185, -2.03296804428100585938e+00) (186, -1.71841788291931152344e+00) (187, -1.56914031505584716797e+00) (188, -1.42501187324523925781e+00) (189, -1.55845606327056884766e+00) (190, -1.81150829792022705078e+00) (191, -1.62975072860717773438e+00) (192, -1.67001843452453613281e+00) (193, -1.56656873226165771484e+00) (194, -1.26655769348144531250e+00) (195, -1.25026834011077880859e+00) (196, -1.35792195796966552734e+00) (197, -1.64776647090911865234e+00) (198, -1.24067533016204833984e+00) (199, -1.33538603782653808594e+00) (200, -1.24566233158111572266e+00) (201, -1.12206268310546875000e+00) (202, -1.19814670085906982422e+00) (203, 7.90034818649291992188e+00) (0, 4.91099309921264648438e+00) (1, 4.81081295013427734375e+00) (2, 4.89747762680053710938e+00) (3, 4.90050268173217773438e+00) (4, 4.97958135604858398438e+00) (5, 5.01474380493164062500e+00) (6, 4.94779348373413085938e+00) (7, 4.80370426177978515625e+00) (8, 5.11223793029785156250e+00) (9, 4.96790981292724609375e+00) (10, 4.83001518249511718750e+00) (11, 3.20885348320007324219e+00) (12, 5.04120397567749023438e+00) (13, 5.11903810501098632812e+00) (14, 5.02210378646850585938e+00) (15, 4.90547132492065429688e+00) (16, 5.09592962265014648438e+00) (17, 4.82101440429687500000e+00) (18, 4.77037477493286132812e+00) (19, 4.88904523849487304688e+00) (20, 4.91800689697265625000e+00) (21, 4.91728830337524414062e+00) (22, 4.82292509078979492188e+00) (23, 3.12864494323730468750e+00) (24, 3.14391613006591796875e+00) (25, 3.10651969909667968750e+00) (26, 3.25374984741210937500e+00) (27, 3.28016161918640136719e+00) (28, 3.14672422409057617188e+00) (29, 3.21298217773437500000e+00) (30, 3.12488985061645507812e+00) (31, 3.25834655761718750000e+00) (32, 3.12597727775573730469e+00) (33, 3.17415380477905273438e+00) (34, 3.33300948143005371094e+00) (35, -7.55072534084320068359e-01) (36, 3.56809139251708984375e+00) (37, 3.61265921592712402344e+00) (38, 3.71050667762756347656e+00) (39, -3.42118442058563232422e-01) (40, -3.01256835460662841797e-01) (41, -2.21830099821090698242e-01) (42, 3.54814124107360839844e+00) (43, 3.27204442024230957031e+00) (44, 3.59621930122375488281e+00) (45, 8.69283258914947509766e-01) (46, 8.75748574733734130859e-01) (47, 1.44341146945953369141e+00) (48, 1.00367438793182373047e+00) (49, -7.83154889941215515137e-02) (50, 1.35609090328216552734e+00) (51, 1.27153432369232177734e+00) (52, -2.24950522184371948242e-01) (53, -1.28002256155014038086e-01) (54, -1.97344511747360229492e-01) (55, -1.62958443164825439453e-01) (56, 1.29831564426422119141e+00) (57, -1.91396355628967285156e-01) (58, -2.72927165031433105469e-01) (59, 1.95107180625200271606e-02) (60, 9.75488033145666122437e-03) (61, -1.65616571903228759766e-01) (62, -1.43036216497421264648e-01) (63, -1.84456861019134521484e+00) (64, 5.52413240075111389160e-02) (65, 3.82231521606445312500e+00) (66, -3.08093242347240447998e-02) (67, -1.43938827514648437500e+00) (68, 4.81641218066215515137e-02) (69, 5.28445616364479064941e-02) (70, 3.97332119941711425781e+00) (71, -1.37463388964533805847e-02) (72, 4.05161666870117187500e+00) (73, 2.72258315235376358032e-02) (74, -2.30921864509582519531e-01) (75, 3.94715428352355957031e+00) (76, -2.32508212327957153320e-01) (77, -1.35909661650657653809e-01) (78, -3.21208178997039794922e-01) (79, -1.58290982246398925781e-01) (80, -2.55749762058258056641e-01) (81, -1.98422956466674804688e+00) (82, -1.94396138191223144531e+00) (83, -3.44236463308334350586e-01) (84, -2.05570101737976074219e+00) (85, -9.71603468060493469238e-02) (86, -1.82320967316627502441e-01) (87, -2.72778928279876708984e-01) (88, -3.53314161300659179688e-01) (89, 1.90354749560356140137e-01) (90, -1.10883310437202453613e-01) (91, 7.10525810718536376953e-02) (92, 4.82153654098510742188e+00) (93, 4.19088363647460937500e+00) (94, 5.26227569580078125000e+00) (95, 2.39993548393249511719e+00) (96, 2.35919785499572753906e+00) (97, 4.18698310852050781250e+00) (98, 4.36975717544555664062e+00) (99, -3.42849659919738769531e+00) (100, 4.39332151412963867188e+00) (101, 4.24799489974975585938e+00) (102, 5.32198333740234375000e+00) (103, 5.12203216552734375000e+00) (104, 1.72672748565673828125e+01) (105, 5.28825616836547851562e+00) (106, 1.33427028656005859375e+01) (107, 4.99874114990234375000e+00) (108, 1.19015769958496093750e+01) (109, 2.84681725502014160156e+00) (110, -3.81400337219238281250e+01) (111, 5.36128921508789062500e+01) (112, -4.50601730346679687500e+01) (113, -1.54704875946044921875e+01) (114, -1.27396087646484375000e+01) (115, 3.09859375000000000000e+02) (116, 4.23647546768188476562e+00) (117, 4.97325992584228515625e+00) (118, 5.05990648269653320312e+00) (119, 5.04852867126464843750e+00) (120, 4.95617341995239257812e+00) (121, 5.08511924743652343750e+00) (122, 9.62966263294219970703e-01) (123, 1.37751615047454833984e+00) (124, 1.70604622364044189453e+00) (125, 1.59334337711334228516e+00) (126, -1.30267292261123657227e-01) (127, 5.60475063323974609375e+00) (128, 5.68548727035522460938e+00) (129, 3.81843304634094238281e+00) (130, -4.93629053235054016113e-02) (131, 4.06169128417968750000e+00) (132, 1.12149751186370849609e+00) (133, 3.85829210281372070312e+00) (134, 4.02561187744140625000e+00) (135, -4.88548994064331054688e-01) (136, 1.34473073482513427734e+00) (137, -1.28692686557769775391e-01) (138, 3.39973235130310058594e+00) (139, 3.78957462310791015625e+00) (140, 3.93020009994506835938e+00) (141, 5.18628692626953125000e+00) (142, 3.46365761756896972656e+00) (143, 3.45453023910522460938e+00) (144, 5.16407823562622070312e+00) (145, 3.43394565582275390625e+00) (146, 5.10141324996948242188e+00) (147, 3.57484102249145507812e+00) (148, 5.03007745742797851562e+00) (149, 4.96698999404907226562e+00) (150, 3.19337415695190429688e+00) (151, 4.96682929992675781250e+00) (152, 5.02864646911621093750e+00) (153, 4.99716567993164062500e+00) (154, 3.29623317718505859375e+00) (155, 3.24064731597900390625e+00) (156, 4.99756431579589843750e+00) (157, 4.97204828262329101562e+00) (158, 3.16967415809631347656e+00) (159, 3.21874499320983886719e+00) (160, 3.14454817771911621094e+00) (161, 3.30274963378906250000e+00) (162, 3.27308106422424316406e+00) (163, 3.18493628501892089844e+00) (164, 3.26670861244201660156e+00) (165, 3.27904295921325683594e+00) (166, 3.22491192817687988281e+00) (167, 3.18234181404113769531e+00) (168, 3.29624080657958984375e+00) (169, 3.27634215354919433594e+00) (170, 4.88201427459716796875e+00) (171, 4.93519306182861328125e+00) (172, 3.19258117675781250000e+00) (173, 3.52867841720581054688e+00) (174, 3.64831280708312988281e+00) (175, 4.90846395492553710938e+00) (176, 3.21432089805603027344e+00) (177, 3.59516501426696777344e+00) (178, 3.20993661880493164062e+00) (179, 3.13219475746154785156e+00) (180, 3.67330765724182128906e+00) (181, 4.86295270919799804688e+00) (182, 3.59429168701171875000e+00) (183, 3.58745622634887695312e+00) (184, 5.34304761886596679688e+00) (185, 3.56782674789428710938e+00) (186, 4.92377710342407226562e+00) (187, 3.11160016059875488281e+00) (188, 4.81786155700683593750e+00) (189, 4.90259647369384765625e+00) (190, 4.92640447616577148438e+00) (191, 4.88330078125000000000e+00) (192, 4.92327308654785156250e+00) (193, 4.82881164550781250000e+00) (194, 3.23264813423156738281e+00) (195, 3.13213014602661132812e+00) (196, 4.91354179382324218750e+00) (197, 4.89691829681396484375e+00) (198, 3.25355648994445800781e+00) (199, 3.32003021240234375000e+00) (200, 3.27834224700927734375e+00) (201, 3.17812442779541015625e+00) (202, 3.21489167213439941406e+00) (203, 3.02777791023254394531e+00) (0, 1.76991271972656250000e+00) (1, 1.78115141391754150391e+00) (2, 2.99453520774841308594e+00) (3, 2.22580647468566894531e+00) (4, 1.85930180549621582031e+00) (5, 1.84286868572235107422e+00) (6, 1.89001798629760742188e+00) (7, 2.35373854637145996094e+00) (8, 1.15618848800659179688e+00) (9, 1.13774740695953369141e+00) (10, 2.22281098365783691406e+00) (11, 1.21605634689331054688e+00) (12, 1.12414038181304931641e+00) (13, 1.91625285148620605469e+00) (14, 1.21954834461212158203e+00) (15, 1.14932560920715332031e+00) (16, 5.11166810989379882812e+00) (17, 1.22639656066894531250e+00) (18, 1.14715445041656494141e+00) (19, 1.09960043430328369141e+00) (20, 2.27292180061340332031e+00) (21, 2.68680262565612792969e+00) (22, 2.33414936065673828125e+00) (23, 2.36207580566406250000e+00) (24, 1.18705832958221435547e+00) (25, 1.19712674617767333984e+00) (26, 1.23304283618927001953e+00) (27, 1.13318502902984619141e+00) (28, 1.27371823787689208984e+00) (29, -2.71204018592834472656e+00) (30, 2.34413719177246093750e+00) (31, 1.18160068988800048828e+00) (32, 1.15572595596313476562e+00) (33, -2.92156696319580078125e+00) (34, 1.13750255107879638672e+00) (35, -2.78373432159423828125e+00) (36, -2.77123737335205078125e+00) (37, -2.84334683418273925781e+00) (38, -2.91347622871398925781e+00) (39, -2.85582208633422851562e+00) (40, -2.80781984329223632812e+00) (41, -2.89848875999450683594e+00) (42, -2.96190714836120605469e+00) (43, -2.76966881752014160156e+00) (44, -2.77500820159912109375e+00) (45, -2.89679002761840820312e+00) (46, -2.57127428054809570312e+00) (47, -2.82902622222900390625e+00) (48, -2.85815811157226562500e+00) (49, -2.44127917289733886719e+00) (50, -2.73305869102478027344e+00) (51, -1.90739154815673828125e+00) (52, -2.62458896636962890625e+00) (53, -1.74647212028503417969e+00) (54, -1.89402377605438232422e+00) (55, -1.96339070796966552734e+00) (56, -2.07312870025634765625e+00) (57, -1.92165124416351318359e+00) (58, -2.02608466148376464844e+00) (59, -1.92738986015319824219e+00) (60, -1.86853098869323730469e+00) (61, -1.96320736408233642578e+00) (62, -2.90080761909484863281e+00) (63, -3.02827978134155273438e+00) (64, -2.80774664878845214844e+00) (65, -3.00194787979125976562e+00) (66, -2.71829867362976074219e+00) (67, -2.42136120796203613281e+00) (68, -2.47903060913085937500e+00) (69, -3.17709445953369140625e+00) (70, -2.49787926673889160156e+00) (71, -2.51400423049926757812e+00) (72, -2.40309166908264160156e+00) (73, -1.21410536766052246094e+00) (74, -1.11576974391937255859e+00) (75, 1.01112186908721923828e+00) (76, 1.89078581333160400391e+00) (77, 4.88960981369018554688e+00) (78, 2.51556372642517089844e+00) (79, -1.06674566268920898438e+01) (80, 5.08593177795410156250e+00) (81, 1.15323245525360107422e+00) (82, 8.08793723583221435547e-01) (83, 9.78548586368560791016e-01) (84, 2.21514153480529785156e+00) (85, 1.50492823123931884766e+00) (86, -3.62805914878845214844e+00) (87, 1.07479071617126464844e+00) (88, 3.72954535484313964844e+00) (89, -1.25447626113891601562e+01) (90, 4.13458198308944702148e-01) (91, 2.59238266944885253906e+00) (92, 4.85775619745254516602e-01) (93, 2.83680677413940429688e+00) (94, -1.24527120590209960938e+01) (95, -4.03813648223876953125e+00) (96, 1.47023952007293701172e+00) (97, -6.38204479217529296875e+00) (98, -1.90790252685546875000e+01) (99, 1.19550144672393798828e+00) (100, -1.02789173126220703125e+01) (101, -3.63572120666503906250e+00) (102, -8.73471164703369140625e+00) (103, -3.13071680068969726562e+00) (104, 6.61194610595703125000e+00) (105, -3.12616991996765136719e+00) (106, -1.64853918552398681641e+00) (107, -5.92186355590820312500e+00) (108, -2.81892204284667968750e+00) (109, 1.66095316410064697266e+00) (110, -4.89407157897949218750e+00) (111, -5.64912462234497070312e+00) (112, 2.62470006942749023438e+00) (113, -2.80673003196716308594e+00) (114, -4.21941184997558593750e+01) (115, -1.00649137496948242188e+01) (116, -1.54851789474487304688e+01) (117, -2.64100098609924316406e+00) (118, -2.57080674171447753906e+00) (119, 1.37417638301849365234e+00) (120, -6.47239327430725097656e-01) (121, -4.80306357145309448242e-01) (122, -7.04534947872161865234e-01) (123, -8.09128284454345703125e+00) (124, -2.78761601448059082031e+00) (125, 2.79793083667755126953e-01) (126, -2.08906865119934082031e+00) (127, 3.82238698005676269531e+00) (128, -4.58773136138916015625e-01) (129, 5.61757326126098632812e-01) (130, -1.09010720252990722656e+00) (131, -9.45408701896667480469e-01) (132, -3.71832227706909179688e+00) (133, -2.48393440246582031250e+00) (134, -3.18433260917663574219e+00) (135, -2.66563868522644042969e+00) (136, -4.77463006973266601562e+00) (137, -2.28087127208709716797e-01) (138, -4.60306257009506225586e-01) (139, -2.74307107925415039062e+00) (140, 1.98326669633388519287e-02) (141, -2.21352696418762207031e+00) (142, -2.85165405273437500000e+00) (143, 1.51709616184234619141e-01) (144, -6.54760539531707763672e-01) (145, 1.50575196743011474609e+00) (146, -1.17682456970214843750e+00) (147, -4.07246065139770507812e+00) (148, 2.17192196846008300781e+00) (149, -7.97551274299621582031e-01) (150, -1.36275446414947509766e+00) (151, -2.93517440557479858398e-01) (152, -2.97327339649200439453e-01) (153, -2.91200101375579833984e-01) (154, -1.11049854755401611328e+00) (155, -2.40516781806945800781e-01) (156, -6.35708272457122802734e-01) (157, -1.81197956204414367676e-01) (158, -8.48380506038665771484e-01) (159, -1.44683647155761718750e+00) (160, -1.44602751731872558594e+00) (161, -2.26786375045776367188e+00) (162, -1.11425268650054931641e+00) (163, -1.14451456069946289062e+00) (164, -1.42417216300964355469e+00) (165, -1.34913432598114013672e+00) (166, -1.38785874843597412109e+00) (167, -1.30624902248382568359e+00) (168, -1.54800713062286376953e+00) (169, -1.32867801189422607422e+00) (170, 3.79839468002319335938e+00) (171, 3.71965837478637695312e+00) (172, 2.56517934799194335938e+00) (173, 2.11609292030334472656e+00) (174, 2.92186355590820312500e+00) (175, 6.26664018630981445312e+00) (176, 3.51916980743408203125e+00) (177, 3.52739310264587402344e+00) (178, 3.49180030822753906250e+00) (179, 2.76996564865112304688e+00) (180, 3.60812282562255859375e+00) (181, 6.31674098968505859375e+00) (182, 3.53777146339416503906e+00) (183, 3.55982351303100585938e+00) (184, 6.13524961471557617188e+00) (185, 2.81807684898376464844e+00) (186, 6.33547353744506835938e+00) (187, 2.86043024063110351562e+00) (188, 2.73567795753479003906e+00) (189, 6.28345012664794921875e+00) (190, 6.36857223510742187500e+00) (191, 6.30388593673706054688e+00) (192, 6.16992855072021484375e+00) (193, 6.23769140243530273438e+00) (194, 2.92932701110839843750e+00) (195, 2.88491201400756835938e+00) (196, 6.29145622253417968750e+00) (197, 6.15512132644653320312e+00) (198, 6.26854085922241210938e+00) (199, 2.95646047592163085938e+00) (200, 2.81724023818969726562e+00) (201, 2.91817593574523925781e+00) (202, 2.76592063903808593750e+00) (203, 5.14766502380371093750e+00) (0, -1.19612026214599609375e+00) (1, -1.22324538230895996094e+00) (2, -1.25651800632476806641e+00) (3, -1.32683348655700683594e+00) (4, -1.04082274436950683594e+00) (5, -1.10756015777587890625e+00) (6, -1.06603455543518066406e+00) (7, -1.15508806705474853516e+00) (8, -1.07299697399139404297e+00) (9, -1.03445863723754882812e+00) (10, -1.31765484809875488281e+00) (11, -1.10666465759277343750e+00) (12, -1.07857477664947509766e+00) (13, -1.18353915214538574219e+00) (14, -1.12674093246459960938e+00) (15, -1.30833208560943603516e+00) (16, -1.17994451522827148438e+00) (17, -1.17144250869750976562e+00) (18, -1.15901887416839599609e+00) (19, -1.20464110374450683594e+00) (20, -1.26986575126647949219e+00) (21, -1.18667244911193847656e+00) (22, -1.23007309436798095703e+00) (23, -1.26080083847045898438e+00) (24, -1.13953542709350585938e+00) (25, -1.22832703590393066406e+00) (26, -1.31621134281158447266e+00) (27, -1.19174587726593017578e+00) (28, -1.29231834411621093750e+00) (29, -1.17802786827087402344e+00) (30, -1.16276383399963378906e+00) (31, -1.33635711669921875000e+00) (32, -1.25454330444335937500e+00) (33, -1.10265624523162841797e+00) (34, -1.28108489513397216797e+00) (35, -1.17465007305145263672e+00) (36, -1.28964328765869140625e+00) (37, -1.08887982368469238281e+00) (38, -1.26356112957000732422e+00) (39, -1.28226101398468017578e+00) (40, -1.22990477085113525391e+00) (41, -1.19716548919677734375e+00) (42, -1.27680325508117675781e+00) (43, -1.12283182144165039062e+00) (44, -1.21134078502655029297e+00) (45, -1.10103404521942138672e+00) (46, -1.28585529327392578125e+00) (47, -1.30099976062774658203e+00) (48, -1.11368966102600097656e+00) (49, -1.11050617694854736328e+00) (50, -1.13486397266387939453e+00) (51, -1.17742896080017089844e+00) (52, -1.16020452976226806641e+00) (53, -1.26040160655975341797e+00) (54, -1.35210371017456054688e+00) (55, -1.35035884380340576172e+00) (56, -1.26245701313018798828e+00) (57, -1.23791670799255371094e+00) (58, -1.23611152172088623047e+00) (59, -1.19349062442779541016e+00) (60, -1.14155542850494384766e+00) (61, -1.20589685440063476562e+00) (62, -1.21116197109222412109e+00) (63, -1.28153586387634277344e+00) (64, -1.17955517768859863281e+00) (65, -1.22225189208984375000e+00) (66, -1.13747215270996093750e+00) (67, -1.15036296844482421875e+00) (68, -1.26415193080902099609e+00) (69, -1.17965519428253173828e+00) (70, -1.06976234912872314453e+00) (71, -1.19985675811767578125e+00) (72, -1.20238459110260009766e+00) (73, -1.26819026470184326172e+00) (74, -1.34752082824707031250e+00) (75, -1.27037239074707031250e+00) (76, -1.33730030059814453125e+00) (77, 8.65683317184448242188e-01) (78, -1.53039872646331787109e+00) (79, -6.55063807964324951172e-01) (80, 1.10128760337829589844e+00) (81, -1.52450788021087646484e+00) (82, -1.59203326702117919922e+00) (83, -1.31442177295684814453e+00) (84, 1.21821224689483642578e+00) (85, -1.17323720455169677734e+00) (86, 2.51488327980041503906e-01) (87, -1.41788387298583984375e+00) (88, -1.38045096397399902344e+00) (89, -1.64813506603240966797e+00) (90, -1.41637110710144042969e+00) (91, 1.06259994208812713623e-01) (92, 2.18201589584350585938e+00) (93, -1.10970377922058105469e+00) (94, -2.44593191146850585938e+00) (95, -7.34272956848144531250e-01) (96, 1.21470451354980468750e+00) (97, 6.62787795066833496094e-01) (98, 8.27582263946533203125e+00) (99, -5.99218225479125976562e+00) (100, 3.66469597816467285156e+00) (101, 4.51929235458374023438e+00) (102, 3.90061149597167968750e+01) (103, 5.26719245910644531250e+01) (104, -3.19356513023376464844e+00) (105, 3.63179063796997070312e+00) (106, -8.72191810607910156250e+00) (107, -2.13289585113525390625e+01) (108, -1.97288036346435546875e+01) (109, -5.85664319992065429688e+00) (110, -3.12087321281433105469e+00) (111, 3.11190104484558105469e+00) (112, -5.17894706726074218750e+01) (113, -1.28526906967163085938e+01) (114, -3.07176570892333984375e+01) (115, 1.54029111862182617188e+01) (116, 7.85701560974121093750e+00) (117, 1.10507812500000000000e+01) (118, 9.28484559059143066406e-01) (119, -1.21585714817047119141e+00) (120, 7.62507171630859375000e+01) (121, -1.51112198829650878906e+00) (122, 7.81564617156982421875e+00) (123, 8.39670848846435546875e+00) (124, 1.45815238952636718750e+01) (125, -3.79923605918884277344e+00) (126, -1.12201058864593505859e+00) (127, 5.62435805797576904297e-01) (128, 7.71240413188934326172e-01) (129, -8.45062613487243652344e-01) (130, -1.58947920799255371094e+00) (131, -5.96002757549285888672e-01) (132, -1.12315094470977783203e+00) (133, -9.50902938842773437500e-01) (134, -8.45040440559387207031e-01) (135, -1.40611243247985839844e+00) (136, -1.02614021301269531250e+00) (137, -9.28973972797393798828e-01) (138, -1.06160843372344970703e+00) (139, -1.10384452342987060547e+00) (140, -1.09315812587738037109e+00) (141, -1.11802697181701660156e+00) (142, -1.73402976989746093750e+00) (143, -1.24979472160339355469e+00) (144, 8.85737895965576171875e-01) (145, -9.38576757907867431641e-01) (146, -4.33770269155502319336e-01) (147, -4.64358925819396972656e-01) (148, -1.16355705261230468750e+00) (149, -1.30454421043395996094e+00) (150, -1.33863866329193115234e+00) (151, 2.62151360511779785156e-01) (152, -1.22640252113342285156e+00) (153, 2.32557594776153564453e-01) (154, -1.44906568527221679688e+00) (155, -1.28782880306243896484e+00) (156, 4.32136476039886474609e-01) (157, -1.31901764869689941406e+00) (158, 1.99870395660400390625e+00) (159, 6.39882385730743408203e-01) (160, 5.00012099742889404297e-01) (161, 5.71232259273529052734e-01) (162, -1.20282351970672607422e+00) (163, 5.12458920478820800781e-01) (164, -1.23829317092895507812e+00) (165, -1.03621888160705566406e+00) (166, 5.81703066825866699219e-01) (167, -1.22842252254486083984e+00) (168, -1.33761680126190185547e+00) (169, -1.27412033081054687500e+00) (170, -1.32351338863372802734e+00) (171, -1.23640358448028564453e+00) (172, -1.17886734008789062500e+00) (173, -1.32075476646423339844e+00) (174, -1.25007665157318115234e+00) (175, -1.31374025344848632812e+00) (176, -1.23558008670806884766e+00) (177, -1.23812675476074218750e+00) (178, -1.35878288745880126953e+00) (179, -1.33367812633514404297e+00) (180, -1.36972343921661376953e+00) (181, -1.35863840579986572266e+00) (182, -1.18217146396636962891e+00) (183, -1.31785047054290771484e+00) (184, -1.24485230445861816406e+00) (185, -1.23555111885070800781e+00) (186, -1.28702437877655029297e+00) (187, -1.20812022686004638672e+00) (188, -1.28812980651855468750e+00) (189, -1.30235803127288818359e+00) (190, -1.22666418552398681641e+00) (191, -1.25924432277679443359e+00) (192, -1.16857314109802246094e+00) (193, -1.30571961402893066406e+00) (194, -1.28786194324493408203e+00) (195, -1.24809348583221435547e+00) (196, -1.31801557540893554688e+00) (197, -1.26241683959960937500e+00) (198, -1.15738999843597412109e+00) (199, -1.30390322208404541016e+00) (200, -1.22095274925231933594e+00) (201, -1.29388904571533203125e+00) (202, -1.16493606567382812500e+00) (203, 7.59940004348754882812e+00) (0, 6.36745452880859375000e+00) (1, 6.46284389495849609375e+00) (2, 6.46077299118041992188e+00) (3, 6.34791040420532226562e+00) (4, 6.63930034637451171875e+00) (5, 6.54206848144531250000e+00) (6, 6.53810930252075195312e+00) (7, 6.41010522842407226562e+00) (8, 6.57107114791870117188e+00) (9, 6.53526401519775390625e+00) (10, 6.38637971878051757812e+00) (11, 4.62179422378540039062e+00) (12, 6.51975059509277343750e+00) (13, 6.53867292404174804688e+00) (14, 6.64629697799682617188e+00) (15, 6.43757057189941406250e+00) (16, 6.65513706207275390625e+00) (17, 6.49939537048339843750e+00) (18, 6.32892227172851562500e+00) (19, 6.35214090347290039062e+00) (20, 6.43234539031982421875e+00) (21, 6.43739700317382812500e+00) (22, 6.42113113403320312500e+00) (23, 4.62257814407348632812e+00) (24, 4.55641984939575195312e+00) (25, 4.47372245788574218750e+00) (26, 4.51507711410522460938e+00) (27, 4.46032714843750000000e+00) (28, 4.62105274200439453125e+00) (29, 4.49913930892944335938e+00) (30, 4.62336015701293945312e+00) (31, 4.62323427200317382812e+00) (32, 4.64379024505615234375e+00) (33, 4.58824110031127929688e+00) (34, 4.47362661361694335938e+00) (35, -9.89971339702606201172e-01) (36, 4.89290189743041992188e+00) (37, 4.93109369277954101562e+00) (38, 4.92161560058593750000e+00) (39, 4.94388198852539062500e+00) (40, 5.03950405120849609375e+00) (41, 4.99722337722778320312e+00) (42, 4.89944553375244140625e+00) (43, -1.00520741939544677734e+00) (44, 4.85867071151733398438e+00) (45, 8.16605806350708007812e-01) (46, 7.63919711112976074219e-01) (47, 6.68562698364257812500e+00) (48, 8.91688585281372070312e-01) (49, -3.80740076303482055664e-01) (50, 1.13979077339172363281e+00) (51, 1.21187019348144531250e+00) (52, 5.28240728378295898438e+00) (53, -1.96887210011482238770e-01) (54, -2.68239945173263549805e-01) (55, 5.31194877624511718750e+00) (56, 6.78289222717285156250e+00) (57, -3.69027614593505859375e-01) (58, 5.24831199645996093750e+00) (59, 5.41188526153564453125e+00) (60, 5.42042016983032226562e+00) (61, 5.19538736343383789062e+00) (62, 6.60000705718994140625e+00) (63, 4.82003641128540039062e+00) (64, 5.41109657287597656250e+00) (65, 6.77972793579101562500e+00) (66, 6.81893253326416015625e+00) (67, 5.33976268768310546875e+00) (68, 5.42941188812255859375e+00) (69, 6.97121667861938476562e+00) (70, 5.42043256759643554688e+00) (71, 5.28107166290283203125e+00) (72, 5.29154586791992187500e+00) (73, 5.31712865829467773438e+00) (74, 5.12176847457885742188e+00) (75, 5.30355644226074218750e+00) (76, 5.23984575271606445312e+00) (77, 5.24959897994995117188e+00) (78, 5.06018877029418945312e+00) (79, 5.11298036575317382812e+00) (80, 5.05929040908813476562e+00) (81, 3.32763361930847167969e+00) (82, 3.28292965888977050781e+00) (83, -3.74997645616531372070e-01) (84, -2.26477861404418945312e+00) (85, -3.49765330553054809570e-01) (86, 5.45510101318359375000e+00) (87, -2.52180367708206176758e-01) (88, -2.30812445282936096191e-01) (89, -1.71644136309623718262e-01) (90, -2.06086680293083190918e-01) (91, 1.33630663156509399414e-01) (92, 4.30735886096954345703e-01) (93, 1.83766961097717285156e-01) (94, 2.79632031917572021484e-01) (95, -1.88259613513946533203e+00) (96, -1.98452425003051757812e+00) (97, 1.71714961528778076172e-01) (98, 2.10834264755249023438e-01) (99, -7.56195545196533203125e+00) (100, 2.10743367671966552734e-01) (101, 2.88547158241271972656e-01) (102, 1.13365173339843750000e+00) (103, 6.28818511962890625000e+00) (104, 3.70265541076660156250e+01) (105, 2.45876097679138183594e+00) (106, 7.99652099609375000000e+00) (107, 2.04294800758361816406e+00) (108, 9.71969795227050781250e+00) (109, -1.32787084579467773438e+00) (110, -4.57553787231445312500e+01) (111, 1.61080951690673828125e+01) (112, -5.12322692871093750000e+01) (113, -2.39034767150878906250e+01) (114, -7.61741638183593750000e+01) (115, 3.62521148681640625000e+02) (116, 7.61047959327697753906e-01) (117, 5.38983821868896484375e-01) (118, 4.96305525302886962891e-01) (119, 1.59962797164916992188e+00) (120, 1.39946436882019042969e+00) (121, 1.61791205406188964844e+00) (122, 1.30578255653381347656e+00) (123, 1.33616805076599121094e+00) (124, 7.38420438766479492188e+00) (125, 1.71906328201293945312e+00) (126, 5.31917953491210937500e+00) (127, 6.99076795578002929688e+00) (128, 7.20851230621337890625e+00) (129, 5.31093311309814453125e+00) (130, 5.02631855010986328125e+00) (131, 5.37588500976562500000e+00) (132, 6.65594911575317382812e+00) (133, 5.12459802627563476562e+00) (134, 5.46760654449462890625e+00) (135, 4.77492570877075195312e+00) (136, 6.59675025939941406250e+00) (137, 5.12750434875488281250e+00) (138, 4.79067754745483398438e+00) (139, 5.19727993011474609375e+00) (140, 5.21123361587524414062e+00) (141, 6.69401407241821289062e+00) (142, 4.66448926925659179688e+00) (143, 4.75697660446166992188e+00) (144, 6.67184209823608398438e+00) (145, 4.60440492630004882812e+00) (146, 6.67406940460205078125e+00) (147, 4.76310348510742187500e+00) (148, 6.62432527542114257812e+00) (149, 6.50056028366088867188e+00) (150, 4.57467746734619140625e+00) (151, 2.58401846885681152344e+00) (152, 6.52350711822509765625e+00) (153, 2.54781913757324218750e+00) (154, 4.61844873428344726562e+00) (155, 4.49268579483032226562e+00) (156, 6.47139215469360351562e+00) (157, 6.41028738021850585938e+00) (158, 6.00079536437988281250e-01) (159, 4.53032398223876953125e+00) (160, 4.51550817489624023438e+00) (161, 4.57912731170654296875e+00) (162, 4.57084226608276367188e+00) (163, 4.52682876586914062500e+00) (164, 4.65705060958862304688e+00) (165, 4.58033943176269531250e+00) (166, 4.62732648849487304688e+00) (167, 4.48495483398437500000e+00) (168, 4.53165531158447265625e+00) (169, 4.49747085571289062500e+00) (170, 6.49310731887817382812e+00) (171, 6.45653200149536132812e+00) (172, 4.45985174179077148438e+00) (173, 4.94912576675415039062e+00) (174, 4.97865819931030273438e+00) (175, 6.41390895843505859375e+00) (176, 4.44947767257690429688e+00) (177, 5.04929924011230468750e+00) (178, 4.48267507553100585938e+00) (179, 4.63621902465820312500e+00) (180, 4.96950292587280273438e+00) (181, 6.43790006637573242188e+00) (182, 4.98217582702636718750e+00) (183, 4.89145517349243164062e+00) (184, 6.81770515441894531250e+00) (185, 4.98118782043457031250e+00) (186, 6.31770610809326171875e+00) (187, 5.03179216384887695312e+00) (188, 6.35348606109619140625e+00) (189, 6.41681241989135742188e+00) (190, 6.37949657440185546875e+00) (191, 6.41649293899536132812e+00) (192, 6.40403652191162109375e+00) (193, 6.42037153244018554688e+00) (194, 4.55447101593017578125e+00) (195, 4.61379671096801757812e+00) (196, 6.46976757049560546875e+00) (197, 6.46596908569335937500e+00) (198, 4.55407714843750000000e+00) (199, 4.60427761077880859375e+00) (200, 4.60567522048950195312e+00) (201, 4.56152677536010742188e+00) (202, 4.58607435226440429688e+00) (203, 1.73099625110626220703e+00) (0, -2.27834224700927734375e+00) (1, -2.35734486579895019531e+00) (2, -2.31387829780578613281e+00) (3, -2.34449696540832519531e+00) (4, -2.22844243049621582031e+00) (5, -1.78252029418945312500e+00) (6, -2.24999547004699707031e+00) (7, -2.39208674430847167969e+00) (8, -2.26220345497131347656e+00) (9, -2.21349835395812988281e+00) (10, -2.22183346748352050781e+00) (11, -2.35786938667297363281e+00) (12, -2.24605846405029296875e+00) (13, -2.27999234199523925781e+00) (14, -2.17768359184265136719e+00) (15, -2.22400999069213867188e+00) (16, -1.74238038063049316406e+00) (17, -2.37053084373474121094e+00) (18, -2.27600359916687011719e+00) (19, -2.20954847335815429688e+00) (20, -1.79954254627227783203e+00) (21, -2.34400963783264160156e+00) (22, -2.22556972503662109375e+00) (23, -2.24588584899902343750e+00) (24, -2.26835441589355468750e+00) (25, -2.26902556419372558594e+00) (26, -2.32947015762329101562e+00) (27, -2.39044570922851562500e+00) (28, -2.34546589851379394531e+00) (29, -2.25908327102661132812e+00) (30, -2.29944396018981933594e+00) (31, -2.20131134986877441406e+00) (32, -2.40177822113037109375e+00) (33, -2.41124796867370605469e+00) (34, -2.21832060813903808594e+00) (35, 3.13758897781372070312e+00) (36, -2.29497265815734863281e+00) (37, -2.26853823661804199219e+00) (38, -2.39554262161254882812e+00) (39, -2.34805464744567871094e+00) (40, 3.15786528587341308594e+00) (41, 3.12351894378662109375e+00) (42, -2.39805269241333007812e+00) (43, 3.21863746643066406250e+00) (44, -2.36942219734191894531e+00) (45, 3.17216587066650390625e+00) (46, 3.34071683883666992188e+00) (47, 3.21047568321228027344e+00) (48, 3.21436977386474609375e+00) (49, 3.23206496238708496094e+00) (50, 3.32032394409179687500e+00) (51, 3.25663161277770996094e+00) (52, 3.25982856750488281250e+00) (53, 3.40394330024719238281e+00) (54, 3.36690902709960937500e+00) (55, -2.15768814086914062500e+00) (56, -2.24745726585388183594e+00) (57, 3.43920326232910156250e+00) (58, -2.17725944519042968750e+00) (59, -2.09602594375610351562e+00) (60, -2.06722736358642578125e+00) (61, 3.25067138671875000000e+00) (62, -2.29182553291320800781e+00) (63, -2.26266121864318847656e+00) (64, -2.19251704216003417969e+00) (65, -2.19460725784301757812e+00) (66, -2.20450878143310546875e+00) (67, -2.03016281127929687500e+00) (68, -1.99406945705413818359e+00) (69, -2.11571025848388671875e+00) (70, -2.05473446846008300781e+00) (71, -1.99799537658691406250e+00) (72, -2.03550338745117187500e+00) (73, -2.14156317710876464844e+00) (74, -8.03621172904968261719e-01) (75, -8.53810846805572509766e-01) (76, -8.68252873420715332031e-01) (77, -6.23392462730407714844e-01) (78, -7.67395675182342529297e-01) (79, -9.05642449855804443359e-01) (80, -7.95377433300018310547e-01) (81, -1.23185670375823974609e+00) (82, 4.45306301116943359375e+00) (83, 4.46212911605834960938e+00) (84, 4.55345249176025390625e+00) (85, 4.48438501358032226562e+00) (86, 6.65359675884246826172e-01) (87, 4.71056413650512695312e+00) (88, 3.32243847846984863281e+00) (89, 3.17310738563537597656e+00) (90, 3.35553526878356933594e+00) (91, 4.30110836029052734375e+00) (92, 6.09129428863525390625e+00) (93, 6.41269540786743164062e+00) (94, 6.26555204391479492188e+00) (95, 5.18569517135620117188e+00) (96, 6.13040256500244140625e+00) (97, 4.09531641006469726562e+00) (98, 3.70161914825439453125e+00) (99, 1.76962165832519531250e+01) (100, 4.53134012222290039062e+00) (101, 3.72209906578063964844e+00) (102, 3.74180936813354492188e+00) (103, -1.15848994255065917969e+00) (104, -1.95649719238281250000e+01) (105, -1.45921313762664794922e+00) (106, 2.53766417503356933594e+00) (107, 1.33437635377049446106e-02) (108, 3.03651189804077148438e+00) (109, 3.39407038688659667969e+00) (110, 4.79252529144287109375e+00) (111, 8.89480876922607421875e+00) (112, 2.40040969848632812500e+01) (113, 9.72026157379150390625e+00) (114, 3.37206840515136718750e+01) (115, -1.36088119506835937500e+02) (116, 2.07904529571533203125e+00) (117, 4.18239831924438476562e+00) (118, 3.09979987144470214844e+00) (119, 4.11889791488647460938e+00) (120, 3.52348184585571289062e+00) (121, 2.05937552452087402344e+00) (122, 2.91219997406005859375e+00) (123, 2.49633479118347167969e+00) (124, -3.21136212348937988281e+00) (125, 2.87642502784729003906e+00) (126, -2.50349116325378417969e+00) (127, -2.47376608848571777344e+00) (128, -2.92426133155822753906e+00) (129, -2.68469381332397460938e+00) (130, -2.51115536689758300781e+00) (131, -2.83264279365539550781e+00) (132, -2.43435239791870117188e+00) (133, -2.76914930343627929688e+00) (134, -2.79565525054931640625e+00) (135, -2.33735585212707519531e+00) (136, -2.65509867668151855469e+00) (137, -2.61755871772766113281e+00) (138, -2.48264741897583007812e+00) (139, -2.53485989570617675781e+00) (140, -2.50325703620910644531e+00) (141, -1.26724004745483398438e+00) (142, -2.09048247337341308594e+00) (143, -2.59702897071838378906e+00) (144, -1.88198983669281005859e+00) (145, -1.90315079689025878906e+00) (146, -2.12601828575134277344e+00) (147, -2.40775609016418457031e+00) (148, -2.35313129425048828125e+00) (149, -2.02744460105895996094e+00) (150, -2.41678690910339355469e+00) (151, 1.67050564289093017578e+00) (152, -2.31100964546203613281e+00) (153, 1.71935904026031494141e+00) (154, -2.01467943191528320312e+00) (155, -1.91938781738281250000e+00) (156, -1.86130332946777343750e+00) (157, -2.33038949966430664062e+00) (158, 2.02834320068359375000e+00) (159, -9.74906563758850097656e-01) (160, -1.91621959209442138672e+00) (161, -9.49380636215209960938e-01) (162, -1.80193853378295898438e+00) (163, -9.66666638851165771484e-01) (164, -8.55738282203674316406e-01) (165, -8.42879593372344970703e-01) (166, -1.43159061670303344727e-01) (167, -1.92967009544372558594e+00) (168, -1.89419066905975341797e+00) (169, -9.77802038192749023438e-01) (170, -8.49609017372131347656e-01) (171, -1.76242220401763916016e+00) (172, -1.68620216846466064453e+00) (173, -2.27583360671997070312e+00) (174, -2.26598048210144042969e+00) (175, -1.71757853031158447266e+00) (176, -1.74055695533752441406e+00) (177, -1.70239651203155517578e+00) (178, -1.73045349121093750000e+00) (179, -1.79835271835327148438e+00) (180, -1.82284855842590332031e+00) (181, -1.75636792182922363281e+00) (182, -1.68921971321105957031e+00) (183, -1.72511827945709228516e+00) (184, -1.75861728191375732422e+00) (185, -1.83982467651367187500e+00) (186, -1.77735602855682373047e+00) (187, -1.75624489784240722656e+00) (188, -1.77284383773803710938e+00) (189, -1.82549917697906494141e+00) (190, -1.72405707836151123047e+00) (191, -1.94298732280731201172e+00) (192, -1.90488243103027343750e+00) (193, -1.89118647575378417969e+00) (194, -1.86185383796691894531e+00) (195, -1.85825574398040771484e+00) (196, -1.94844233989715576172e+00) (197, -1.86961746215820312500e+00) (198, -1.94139671325683593750e+00) (199, -1.84805285930633544922e+00) (200, -1.87554836273193359375e+00) (201, -1.90215981006622314453e+00) (202, -1.85402691364288330078e+00) (203, 8.67202758789062500000e+00) (0, -5.30004680156707763672e-01) (1, -5.35668492317199707031e-01) (2, -5.94953894615173339844e-01) (3, -5.00371873378753662109e-01) (4, -3.80657941102981567383e-01) (5, -4.70365017652511596680e-01) (6, -4.04203742742538452148e-01) (7, -6.37347638607025146484e-01) (8, -3.89581054449081420898e-01) (9, -3.68209809064865112305e-01) (10, -6.11320555210113525391e-01) (11, -2.07760882377624511719e+00) (12, -4.83313888311386108398e-01) (13, -4.23176020383834838867e-01) (14, -3.54941874742507934570e-01) (15, -4.56236541271209716797e-01) (16, -3.39416593313217163086e-01) (17, -6.17261946201324462891e-01) (18, -4.63397830724716186523e-01) (19, -5.70537030696868896484e-01) (20, -5.41198194026947021484e-01) (21, -6.17419600486755371094e-01) (22, -4.80944126844406127930e-01) (23, -2.18423318862915039062e+00) (24, -2.15108299255371093750e+00) (25, -2.19930911064147949219e+00) (26, -2.11683702468872070312e+00) (27, -2.11934185028076171875e+00) (28, -2.19409251213073730469e+00) (29, -2.18516302108764648438e+00) (30, -2.18520498275756835938e+00) (31, -2.09294676780700683594e+00) (32, -2.15766024589538574219e+00) (33, -2.21839118003845214844e+00) (34, -2.18630671501159667969e+00) (35, -2.21675229072570800781e+00) (36, -2.17962932586669921875e+00) (37, -2.14041590690612792969e+00) (38, -2.24118065834045410156e+00) (39, -2.14656352996826171875e+00) (40, -2.21101522445678710938e+00) (41, -2.17206907272338867188e+00) (42, -2.21556401252746582031e+00) (43, -2.28568649291992187500e+00) (44, -2.22890543937683105469e+00) (45, -6.32549941539764404297e-01) (46, -5.56763231754302978516e-01) (47, -5.16010046005249023438e-01) (48, -6.68578684329986572266e-01) (49, -6.78284227848052978516e-01) (50, -6.60125792026519775391e-01) (51, -6.41456961631774902344e-01) (52, 1.66133737564086914062e+00) (53, 2.13540601730346679688e+00) (54, -7.20658063888549804688e-01) (55, -6.10130250453948974609e-01) (56, -4.84267592430114746094e-01) (57, 5.08029985427856445312e+00) (58, -7.16929256916046142578e-01) (59, -5.47709286212921142578e-01) (60, -4.48375344276428222656e-01) (61, 2.86623477935791015625e+00) (62, 2.88501214981079101562e+00) (63, -2.17980337142944335938e+00) (64, 2.03263688087463378906e+00) (65, 9.52880620956420898438e-01) (66, 1.98387742042541503906e+00) (67, 5.05253028869628906250e+00) (68, 1.05239987373352050781e+00) (69, -1.04230916500091552734e+00) (70, 1.93947672843933105469e+00) (71, 6.04482603073120117188e+00) (72, 4.43812751770019531250e+00) (73, 5.17185783386230468750e+00) (74, 4.06192493438720703125e+00) (75, 8.62103176116943359375e+00) (76, 4.97756433486938476562e+00) (77, 3.67131161689758300781e+00) (78, 4.84904813766479492188e+00) (79, 1.28336346149444580078e+00) (80, 5.36532974243164062500e+00) (81, 3.26379919052124023438e+00) (82, 3.17791104316711425781e+00) (83, 5.19850254058837890625e+00) (84, 3.50611853599548339844e+00) (85, 3.77601122856140136719e+00) (86, 5.04951047897338867188e+00) (87, 5.17685747146606445312e+00) (88, 4.91415357589721679688e+00) (89, 4.23305845260620117188e+00) (90, 5.18892908096313476562e+00) (91, 2.30079388618469238281e+00) (92, 6.12166070938110351562e+00) (93, 2.82364630699157714844e+00) (94, 3.84311485290527343750e+00) (95, 1.35001564025878906250e+00) (96, 4.87145721912384033203e-01) (97, -1.87579616904258728027e-01) (98, -3.03936511278152465820e-01) (99, -8.12222671508789062500e+00) (100, -3.66916984319686889648e-01) (101, 1.16595208644866943359e+00) (102, 3.49274659156799316406e+00) (103, 9.28999805450439453125e+00) (104, -1.90115511417388916016e+00) (105, 1.84508056640625000000e+01) (106, 7.17864513397216796875e+00) (107, 2.38358516693115234375e+01) (108, 5.76510143280029296875e+00) (109, 3.05317950248718261719e+00) (110, -2.85197949409484863281e+00) (111, -6.84922790527343750000e+00) (112, -4.50185317993164062500e+01) (113, -2.15508213043212890625e+01) (114, 1.74557514190673828125e+01) (115, -1.22582697868347167969e+00) (116, 6.60142898559570312500e-01) (117, 2.01854288578033447266e-01) (118, 2.01093769073486328125e+00) (119, 1.88445019721984863281e+00) (120, 1.55446767807006835938e+00) (121, 1.21262235641479492188e+01) (122, 3.09585361480712890625e+01) (123, 5.64157342910766601562e+00) (124, 2.23509502410888671875e+00) (125, -5.69320321083068847656e-01) (126, 1.74982964992523193359e+00) (127, 2.14197134971618652344e+00) (128, 2.79088973999023437500e+00) (129, 4.82352495193481445312e-01) (130, -1.36391592025756835938e+00) (131, -2.64165669679641723633e-01) (132, 6.06272459030151367188e-01) (133, -2.79310393333435058594e+00) (134, -8.86341869831085205078e-01) (135, -1.57220757007598876953e+00) (136, 2.40517780184745788574e-02) (137, -1.48637068271636962891e+00) (138, -1.59828305244445800781e+00) (139, -1.70005702972412109375e+00) (140, -1.66362881660461425781e+00) (141, 3.37555333971977233887e-02) (142, -1.65241193771362304688e+00) (143, -1.68261671066284179688e+00) (144, -4.06424626708030700684e-02) (145, -2.12183141708374023438e+00) (146, -3.72490406036376953125e-01) (147, -1.21143591403961181641e+00) (148, -5.39717435836791992188e-01) (149, -9.79322418570518493652e-02) (150, -2.15872383117675781250e+00) (151, -1.50752410292625427246e-01) (152, -2.43129119277000427246e-01) (153, -6.11104369163513183594e-01) (154, -2.13566231727600097656e+00) (155, 2.04160898923873901367e-01) (156, -1.05072297155857086182e-01) (157, -8.14258083701133728027e-02) (158, -1.59006401896476745605e-01) (159, 3.63132095336914062500e+00) (160, 3.74568963050842285156e+00) (161, -7.01896473765373229980e-03) (162, 3.26231050491333007812e+00) (163, 3.27995705604553222656e+00) (164, 3.42966437339782714844e+00) (165, 3.28353381156921386719e+00) (166, 3.19860076904296875000e+00) (167, -2.15531635284423828125e+00) (168, -2.16135549545288085938e+00) (169, 3.24258661270141601562e+00) (170, 4.93927335739135742188e+00) (171, -5.89463710784912109375e-01) (172, -2.32471585273742675781e+00) (173, 1.24423813819885253906e+00) (174, -2.34406042098999023438e+00) (175, -5.17567694187164306641e-01) (176, -2.22088599205017089844e+00) (177, -2.19869637489318847656e+00) (178, -2.21796131134033203125e+00) (179, -2.31276488304138183594e+00) (180, -2.33139443397521972656e+00) (181, -5.68495512008666992188e-01) (182, -2.17826843261718750000e+00) (183, -2.18150663375854492188e+00) (184, -5.87610244750976562500e-01) (185, -2.20109367370605468750e+00) (186, -5.37029385566711425781e-01) (187, -2.13882374763488769531e+00) (188, -6.41147732734680175781e-01) (189, -6.19324266910552978516e-01) (190, -6.21712327003479003906e-01) (191, -5.69395363330841064453e-01) (192, -5.26598811149597167969e-01) (193, -6.43298625946044921875e-01) (194, -2.12397527694702148438e+00) (195, -2.09795069694519042969e+00) (196, -5.35383582115173339844e-01) (197, -6.21098995208740234375e-01) (198, -2.12184762954711914062e+00) (199, -2.13295412063598632812e+00) (200, -2.24232935905456542969e+00) (201, -2.16705751419067382812e+00) (202, -2.20818781852722167969e+00) (203, 8.51162433624267578125e+00) (0, -8.77452671527862548828e-01) (1, -8.82720589637756347656e-01) (2, -7.88605570793151855469e-01) (3, -7.02324628829956054688e-01) (4, -5.97578823566436767578e-01) (5, -7.23041951656341552734e-01) (6, -6.73353612422943115234e-01) (7, -7.52078056335449218750e-01) (8, -6.09222888946533203125e-01) (9, -6.88624083995819091797e-01) (10, -8.71124863624572753906e-01) (11, -7.27688848972320556641e-01) (12, -5.80291628837585449219e-01) (13, -6.40000402927398681641e-01) (14, -5.29857695102691650391e-01) (15, -7.41328716278076171875e-01) (16, -5.33388555049896240234e-01) (17, -7.89322137832641601562e-01) (18, -8.60965490341186523438e-01) (19, -7.98020482063293457031e-01) (20, -8.37786793708801269531e-01) (21, -8.18242549896240234375e-01) (22, -8.24159562587738037109e-01) (23, -8.39786529541015625000e-01) (24, -8.88806998729705810547e-01) (25, -8.06962549686431884766e-01) (26, -8.38921368122100830078e-01) (27, -7.88547515869140625000e-01) (28, -8.94345462322235107422e-01) (29, -8.78522455692291259766e-01) (30, -9.03455436229705810547e-01) (31, -8.24855089187622070312e-01) (32, -7.51337826251983642578e-01) (33, -8.45007658004760742188e-01) (34, -7.85549759864807128906e-01) (35, -8.90312016010284423828e-01) (36, -9.07473504543304443359e-01) (37, -8.35449934005737304688e-01) (38, -8.44934284687042236328e-01) (39, -1.01875972747802734375e+00) (40, -8.66520404815673828125e-01) (41, -1.02723324298858642578e+00) (42, -1.16783428192138671875e+00) (43, 6.79670274257659912109e-01) (44, -7.16239988803863525391e-01) (45, -1.05823123455047607422e+00) (46, 3.08549731969833374023e-01) (47, -1.06089961528778076172e+00) (48, -1.18050003051757812500e+00) (49, 8.60130134969949722290e-03) (50, -1.45382434129714965820e-01) (51, -1.47834289073944091797e+00) (52, -2.73598785400390625000e+01) (53, -4.19140338897705078125e-01) (54, -1.74957811832427978516e-01) (55, 2.46973801404237747192e-03) (56, -1.57980549335479736328e+00) (57, -1.17902897298336029053e-01) (58, -1.32477015256881713867e-01) (59, -5.57233810424804687500e-01) (60, 5.94889342784881591797e-01) (61, -2.29923352599143981934e-02) (62, 2.35613837838172912598e-01) (63, -7.83188104629516601562e-01) (64, -9.07731533050537109375e-01) (65, 2.32530489563941955566e-01) (66, -1.12315797805786132812e+00) (67, 1.64315831661224365234e+00) (68, 1.65169703960418701172e+00) (69, -1.97856450080871582031e+00) (70, 9.44106161594390869141e-01) (71, 1.36841070652008056641e+00) (72, 4.70484584569931030273e-01) (73, 4.46313053369522094727e-01) (74, 3.56174975633621215820e-01) (75, 7.67036616802215576172e-01) (76, 7.96195447444915771484e-01) (77, 5.08831560611724853516e-01) (78, 7.79190361499786376953e-01) (79, -1.18501126766204833984e+00) (80, 1.90066948533058166504e-01) (81, -8.40567171573638916016e-01) (82, -9.57231044769287109375e-01) (83, -3.46919584274291992188e+00) (84, -6.47787213325500488281e-01) (85, -5.34540534019470214844e-01) (86, 5.29642999172210693359e-01) (87, -7.71689176559448242188e-01) (88, -5.61443805694580078125e+00) (89, -4.12120723724365234375e+00) (90, -1.29536819458007812500e+00) (91, -2.03140563964843750000e+01) (92, -8.13596630096435546875e+00) (93, -5.61228990554809570312e+00) (94, -3.33847999572753906250e+00) (95, -5.16824901103973388672e-01) (96, -2.87696748971939086914e-01) (97, -1.15409517288208007812e+00) (98, 6.96063697338104248047e-01) (99, 1.81126708984375000000e+01) (100, 1.75001585483551025391e+00) (101, -1.58034169673919677734e+00) (102, 4.60285872220993041992e-01) (103, -3.56375050544738769531e+00) (104, -5.06629943847656250000e+01) (105, -1.03440570831298828125e+01) (106, -2.35279774665832519531e+00) (107, 4.30597513914108276367e-02) (108, 