FANN_FLO_2.1
num_layers=3
learning_rate=0.700000
connection_rate=1.000000
network_type=0
learning_momentum=0.000000
training_algorithm=2
train_error_function=1
train_stop_function=0
cascade_output_change_fraction=0.010000
quickprop_decay=-0.000100
quickprop_mu=1.750000
rprop_increase_factor=1.200000
rprop_decrease_factor=0.500000
rprop_delta_min=0.000000
rprop_delta_max=50.000000
rprop_delta_zero=0.100000
cascade_output_stagnation_epochs=12
cascade_candidate_change_fraction=0.010000
cascade_candidate_stagnation_epochs=12
cascade_max_out_epochs=150
cascade_max_cand_epochs=150
cascade_num_candidate_groups=2
bit_fail_limit=3.49999994039535522461e-01
cascade_candidate_limit=1.00000000000000000000e+03
cascade_weight_multiplier=4.00000005960464477539e-01
cascade_activation_functions_count=10
cascade_activation_functions=3 5 7 8 10 11 14 15 16 17 
cascade_activation_steepnesses_count=4
cascade_activation_steepnesses=2.50000000000000000000e-01 5.00000000000000000000e-01 7.50000000000000000000e-01 1.00000000000000000000e+00 
layer_sizes=205 51 2 
scale_included=0
neurons (num_inputs, activation_function, activation_steepness)=(0, 0, 0.00000000000000000000e+00) (0, 0, 0.00000000000000000000e+00) (0, 0, 0.00000000000000000000e+00) (0, 0, 0.00000000000000000000e+00) (0, 0, 0.00000000000000000000e+00) (0, 0, 0.00000000000000000000e+00) (0, 0, 0.00000000000000000000e+00) (0, 0, 0.00000000000000000000e+00) (0, 0, 0.00000000000000000000e+00) (0, 0, 0.00000000000000000000e+00) (0, 0, 0.00000000000000000000e+00) (0, 0, 0.00000000000000000000e+00) (0, 0, 0.00000000000000000000e+00) (0, 0, 0.00000000000000000000e+00) (0, 0, 0.00000000000000000000e+00) (0, 0, 0.00000000000000000000e+00) (0, 0, 0.00000000000000000000e+00) (0, 0, 0.00000000000000000000e+00) (0, 0, 0.00000000000000000000e+00) (0, 0, 0.00000000000000000000e+00) (0, 0, 0.00000000000000000000e+00) (0, 0, 0.00000000000000000000e+00) (0, 0, 0.00000000000000000000e+00) (0, 0, 0.00000000000000000000e+00) (0, 0, 0.00000000000000000000e+00) (0, 0, 0.00000000000000000000e+00) (0, 0, 0.00000000000000000000e+00) (0, 0, 0.00000000000000000000e+00) (0, 0, 0.00000000000000000000e+00) (0, 0, 0.00000000000000000000e+00) (0, 0, 0.00000000000000000000e+00) (0, 0, 0.00000000000000000000e+00) (0, 0, 0.00000000000000000000e+00) (0, 0, 0.00000000000000000000e+00) (0, 0, 0.00000000000000000000e+00) (0, 0, 0.00000000000000000000e+00) (0, 0, 0.00000000000000000000e+00) (0, 0, 0.00000000000000000000e+00) (0, 0, 0.00000000000000000000e+00) (0, 0, 0.00000000000000000000e+00) (0, 0, 0.00000000000000000000e+00) (0, 0, 0.00000000000000000000e+00) (0, 0, 0.00000000000000000000e+00) (0, 0, 0.00000000000000000000e+00) (0, 0, 0.00000000000000000000e+00) (0, 0, 0.00000000000000000000e+00) (0, 0, 0.00000000000000000000e+00) (0, 0, 0.00000000000000000000e+00) (0, 0, 0.00000000000000000000e+00) (0, 0, 0.00000000000000000000e+00) (0, 0, 0.00000000000000000000e+00) (0, 0, 0.00000000000000000000e+00) (0, 0, 0.00000000000000000000e+00) (0, 0, 0.00000000000000000000e+00) (0, 0, 0.00000000000000000000e+00) (0, 0, 0.00000000000000000000e+00) (0, 0, 0.00000000000000000000e+00) (0, 0, 0.00000000000000000000e+00) (0, 0, 0.00000000000000000000e+00) (0, 0, 0.00000000000000000000e+00) (0, 0, 0.00000000000000000000e+00) (0, 0, 0.00000000000000000000e+00) (0, 0, 0.00000000000000000000e+00) (0, 0, 0.00000000000000000000e+00) (0, 0, 0.00000000000000000000e+00) (0, 0, 0.00000000000000000000e+00) (0, 0, 0.00000000000000000000e+00) (0, 0, 0.00000000000000000000e+00) (0, 0, 0.00000000000000000000e+00) (0, 0, 0.00000000000000000000e+00) (0, 0, 0.00000000000000000000e+00) (0, 0, 0.00000000000000000000e+00) (0, 0, 0.00000000000000000000e+00) (0, 0, 0.00000000000000000000e+00) (0, 0, 0.00000000000000000000e+00) (0, 0, 0.00000000000000000000e+00) (0, 0, 0.00000000000000000000e+00) (0, 0, 0.00000000000000000000e+00) (0, 0, 0.00000000000000000000e+00) (0, 0, 0.00000000000000000000e+00) (0, 0, 0.00000000000000000000e+00) (0, 0, 0.00000000000000000000e+00) (0, 0, 0.00000000000000000000e+00) (0, 0, 0.00000000000000000000e+00) (0, 0, 0.00000000000000000000e+00) (0, 0, 0.00000000000000000000e+00) (0, 0, 0.00000000000000000000e+00) (0, 0, 0.00000000000000000000e+00) (0, 0, 0.00000000000000000000e+00) (0, 0, 0.00000000000000000000e+00) (0, 0, 0.00000000000000000000e+00) (0, 0, 0.00000000000000000000e+00) (0, 0, 0.00000000000000000000e+00) (0, 0, 0.00000000000000000000e+00) (0, 0, 0.00000000000000000000e+00) (0, 0, 0.00000000000000000000e+00) (0, 0, 0.00000000000000000000e+00) (0, 0, 0.00000000000000000000e+00) (0, 0, 0.00000000000000000000e+00) (0, 0, 0.00000000000000000000e+00) (0, 0, 0.00000000000000000000e+00) (0, 0, 0.00000000000000000000e+00) (0, 0, 0.00000000000000000000e+00) (0, 0, 0.00000000000000000000e+00) (0, 0, 0.00000000000000000000e+00) (0, 0, 0.00000000000000000000e+00) (0, 0, 0.00000000000000000000e+00) (0, 0, 0.00000000000000000000e+00) (0, 0, 0.00000000000000000000e+00) (0, 0, 0.00000000000000000000e+00) (0, 0, 0.00000000000000000000e+00) (0, 0, 0.00000000000000000000e+00) (0, 0, 0.00000000000000000000e+00) (0, 0, 0.00000000000000000000e+00) (0, 0, 0.00000000000000000000e+00) (0, 0, 0.00000000000000000000e+00) (0, 0, 0.00000000000000000000e+00) (0, 0, 0.00000000000000000000e+00) (0, 0, 0.00000000000000000000e+00) (0, 0, 0.00000000000000000000e+00) (0, 0, 0.00000000000000000000e+00) (0, 0, 0.00000000000000000000e+00) (0, 0, 0.00000000000000000000e+00) (0, 0, 0.00000000000000000000e+00) (0, 0, 0.00000000000000000000e+00) (0, 0, 0.00000000000000000000e+00) (0, 0, 0.00000000000000000000e+00) (0, 0, 0.00000000000000000000e+00) (0, 0, 0.00000000000000000000e+00) (0, 0, 0.00000000000000000000e+00) (0, 0, 0.00000000000000000000e+00) (0, 0, 0.00000000000000000000e+00) (0, 0, 0.00000000000000000000e+00) (0, 0, 0.00000000000000000000e+00) (0, 0, 0.00000000000000000000e+00) (0, 0, 0.00000000000000000000e+00) (0, 0, 0.00000000000000000000e+00) (0, 0, 0.00000000000000000000e+00) (0, 0, 0.00000000000000000000e+00) (0, 0, 0.00000000000000000000e+00) (0, 0, 0.00000000000000000000e+00) (0, 0, 0.00000000000000000000e+00) (0, 0, 0.00000000000000000000e+00) (0, 0, 0.00000000000000000000e+00) (0, 0, 0.00000000000000000000e+00) (0, 0, 0.00000000000000000000e+00) (0, 0, 0.00000000000000000000e+00) (0, 0, 0.00000000000000000000e+00) (0, 0, 0.00000000000000000000e+00) (0, 0, 0.00000000000000000000e+00) (0, 0, 0.00000000000000000000e+00) (0, 0, 0.00000000000000000000e+00) (0, 0, 0.00000000000000000000e+00) (0, 0, 0.00000000000000000000e+00) (0, 0, 0.00000000000000000000e+00) (0, 0, 0.00000000000000000000e+00) (0, 0, 0.00000000000000000000e+00) (0, 0, 0.00000000000000000000e+00) (0, 0, 0.00000000000000000000e+00) (0, 0, 0.00000000000000000000e+00) (0, 0, 0.00000000000000000000e+00) (0, 0, 0.00000000000000000000e+00) (0, 0, 0.00000000000000000000e+00) (0, 0, 0.00000000000000000000e+00) (0, 0, 0.00000000000000000000e+00) (0, 0, 0.00000000000000000000e+00) (0, 0, 0.00000000000000000000e+00) (0, 0, 0.00000000000000000000e+00) (0, 0, 0.00000000000000000000e+00) (0, 0, 0.00000000000000000000e+00) (0, 0, 0.00000000000000000000e+00) (0, 0, 0.00000000000000000000e+00) (0, 0, 0.00000000000000000000e+00) (0, 0, 0.00000000000000000000e+00) (0, 0, 0.00000000000000000000e+00) (0, 0, 0.00000000000000000000e+00) (0, 0, 0.00000000000000000000e+00) (0, 0, 0.00000000000000000000e+00) (0, 0, 0.00000000000000000000e+00) (0, 0, 0.00000000000000000000e+00) (0, 0, 0.00000000000000000000e+00) (0, 0, 0.00000000000000000000e+00) (0, 0, 0.00000000000000000000e+00) (0, 0, 0.00000000000000000000e+00) (0, 0, 0.00000000000000000000e+00) (0, 0, 0.00000000000000000000e+00) (0, 0, 0.00000000000000000000e+00) (0, 0, 0.00000000000000000000e+00) (0, 0, 0.00000000000000000000e+00) (0, 0, 0.00000000000000000000e+00) (0, 0, 0.00000000000000000000e+00) (0, 0, 0.00000000000000000000e+00) (0, 0, 0.00000000000000000000e+00) (0, 0, 0.00000000000000000000e+00) (0, 0, 0.00000000000000000000e+00) (0, 0, 0.00000000000000000000e+00) (0, 0, 0.00000000000000000000e+00) (0, 0, 0.00000000000000000000e+00) (0, 0, 0.00000000000000000000e+00) (0, 0, 0.00000000000000000000e+00) (0, 0, 0.00000000000000000000e+00) (0, 0, 0.00000000000000000000e+00) (0, 0, 0.00000000000000000000e+00) (0, 0, 0.00000000000000000000e+00) (0, 0, 0.00000000000000000000e+00) (205, 5, 5.00000000000000000000e-01) (205, 5, 5.00000000000000000000e-01) (205, 5, 5.00000000000000000000e-01) (205, 5, 5.00000000000000000000e-01) (205, 5, 5.00000000000000000000e-01) (205, 5, 5.00000000000000000000e-01) (205, 5, 5.00000000000000000000e-01) (205, 5, 5.00000000000000000000e-01) (205, 5, 5.00000000000000000000e-01) (205, 5, 5.00000000000000000000e-01) (205, 5, 5.00000000000000000000e-01) (205, 5, 5.00000000000000000000e-01) (205, 5, 5.00000000000000000000e-01) (205, 5, 5.00000000000000000000e-01) (205, 5, 5.00000000000000000000e-01) (205, 5, 5.00000000000000000000e-01) (205, 5, 5.00000000000000000000e-01) (205, 5, 5.00000000000000000000e-01) (205, 5, 5.00000000000000000000e-01) (205, 5, 5.00000000000000000000e-01) (205, 5, 5.00000000000000000000e-01) (205, 5, 5.00000000000000000000e-01) (205, 5, 5.00000000000000000000e-01) (205, 5, 5.00000000000000000000e-01) (205, 5, 5.00000000000000000000e-01) (205, 5, 5.00000000000000000000e-01) (205, 5, 5.00000000000000000000e-01) (205, 5, 5.00000000000000000000e-01) (205, 5, 5.00000000000000000000e-01) (205, 5, 5.00000000000000000000e-01) (205, 5, 5.00000000000000000000e-01) (205, 5, 5.00000000000000000000e-01) (205, 5, 5.00000000000000000000e-01) (205, 5, 5.00000000000000000000e-01) (205, 5, 5.00000000000000000000e-01) (205, 5, 5.00000000000000000000e-01) (205, 5, 5.00000000000000000000e-01) (205, 5, 5.00000000000000000000e-01) (205, 5, 5.00000000000000000000e-01) (205, 5, 5.00000000000000000000e-01) (205, 5, 5.00000000000000000000e-01) (205, 5, 5.00000000000000000000e-01) (205, 5, 5.00000000000000000000e-01) (205, 5, 5.00000000000000000000e-01) (205, 5, 5.00000000000000000000e-01) (205, 5, 5.00000000000000000000e-01) (205, 5, 5.00000000000000000000e-01) (205, 5, 5.00000000000000000000e-01) (205, 5, 5.00000000000000000000e-01) (205, 5, 5.00000000000000000000e-01) (0, 5, 0.00000000000000000000e+00) (51, 5, 5.00000000000000000000e-01) (0, 5, 0.00000000000000000000e+00) 
connections (connected_to_neuron, weight)=(0, -2.98838019371032714844e+00) (1, -2.91489100456237792969e+00) (2, -1.33347928524017333984e+00) (3, -3.03103327751159667969e+00) (4, -1.28108561038970947266e+00) (5, -1.92911654710769653320e-01) (6, -1.41885355114936828613e-01) (7, -3.06493544578552246094e+00) (8, -2.33681023120880126953e-01) (9, -8.75513702630996704102e-02) (10, -1.27858459949493408203e+00) (11, -2.92404222488403320312e+00) (12, -1.24651801586151123047e+00) (13, -1.96020036935806274414e-01) (14, -1.23797297477722167969e+00) (15, -1.26169061660766601562e+00) (16, -1.21245491504669189453e+00) (17, -1.18507301807403564453e+00) (18, -1.19174659252166748047e+00) (19, -1.22223591804504394531e+00) (20, -1.19624412059783935547e+00) (21, -2.91317105293273925781e+00) (22, -1.18332540988922119141e+00) (23, -2.95152854919433593750e+00) (24, -2.97912001609802246094e+00) (25, -1.79656934738159179688e+00) (26, -3.00997924804687500000e+00) (27, -1.86295068264007568359e+00) (28, -1.95140004158020019531e+00) (29, -1.85812664031982421875e+00) (30, -1.79940688610076904297e+00) (31, -1.79733717441558837891e+00) (32, -1.80250406265258789062e+00) (33, -2.95981788635253906250e+00) (34, -1.71643161773681640625e+00) (35, -2.92411017417907714844e+00) (36, -1.98346734046936035156e+00) (37, -1.82636737823486328125e+00) (38, 1.73306584358215332031e+00) (39, -3.53954339027404785156e+00) (40, -1.70520758628845214844e+00) (41, -1.82429265975952148438e+00) (42, -2.86411476135253906250e+00) (43, -2.89125490188598632812e+00) (44, -1.71612572669982910156e+00) (45, -2.76904034614562988281e+00) (46, -1.79982948303222656250e+00) (47, 3.05895400047302246094e+00) (48, 2.01340603828430175781e+00) (49, 2.09534239768981933594e+00) (50, 2.02778506278991699219e+00) (51, 3.13440394401550292969e+00) (52, 2.37494158744812011719e+00) (53, 4.13077926635742187500e+00) (54, 2.25788807868957519531e+00) (55, 2.56284713745117187500e+00) (56, 3.31585931777954101562e+00) (57, -2.40869212150573730469e+00) (58, -9.95959877967834472656e-01) (59, 2.65361618995666503906e+00) (60, -1.97734045982360839844e+00) (61, -3.26522469520568847656e+00) (62, -6.11578404903411865234e-01) (63, 2.42685246467590332031e+00) (64, -3.85596704483032226562e+00) (65, -2.24321413040161132812e+00) (66, 2.30787515640258789062e+00) (67, 6.71203434467315673828e-01) (68, 3.42532706260681152344e+00) (69, -2.60002160072326660156e+00) (70, -2.81338095664978027344e+00) (71, 3.65134477615356445312e-01) (72, -2.80808043479919433594e+00) (73, -2.42343759536743164062e+00) (74, -4.01204645633697509766e-01) (75, -1.98693788051605224609e+00) (76, 1.26115036010742187500e+00) (77, 3.77072072029113769531e+00) (78, 3.58856678009033203125e+00) (79, -1.08696639537811279297e+00) (80, -5.89034986495971679688e+00) (81, 2.80279088020324707031e+00) (82, 2.28195738792419433594e+00) (83, -2.54491233825683593750e+00) (84, 2.79370099306106567383e-01) (85, -3.83893430233001708984e-01) (86, 4.20185565948486328125e+00) (87, 4.58985853195190429688e+00) (88, 1.74549967050552368164e-01) (89, -2.59058165550231933594e+00) (90, -7.02786564826965332031e-01) (91, 3.07336139678955078125e+00) (92, -1.18825578689575195312e+00) (93, -3.39786005020141601562e+00) (94, -8.60743618011474609375e+00) (95, -7.49801206588745117188e+00) (96, 4.76135635375976562500e+00) (97, 4.46198129653930664062e+00) (98, -7.23568773269653320312e+00) (99, 1.25818252563476562500e+00) (100, 4.37453359365463256836e-01) (101, 4.39700810238718986511e-03) (102, 3.50726509094238281250e+00) (103, -3.59287381172180175781e+00) (104, -2.52246189117431640625e+00) (105, 3.16862964630126953125e+00) (106, -1.93832492828369140625e+00) (107, -2.02692127227783203125e+00) (108, -1.55419886112213134766e+00) (109, 1.30421149730682373047e+00) (110, 5.64842033386230468750e+00) (111, 5.60675573348999023438e+00) (112, 5.09198904037475585938e+00) (113, 5.16197776794433593750e+00) (114, 1.42039384841918945312e+01) (115, -4.52816277742385864258e-01) (116, 1.29365503787994384766e+00) (117, 3.19657516479492187500e+00) (118, 2.99590325355529785156e+00) (119, 1.46398007869720458984e+00) (120, 4.99766635894775390625e+00) (121, 5.58850228786468505859e-01) (122, 1.85751068592071533203e+00) (123, 2.07652711868286132812e+00) (124, -1.70108187198638916016e+00) (125, 2.99579232931137084961e-01) (126, 4.75029617547988891602e-01) (127, -2.03842115402221679688e+00) (128, 2.78273433446884155273e-01) (129, 1.96892154216766357422e+00) (130, -1.92923021316528320312e+00) (131, 1.41639634966850280762e-01) (132, -1.98550379276275634766e+00) (133, -9.93396759033203125000e-01) (134, -1.97428679466247558594e+00) (135, -1.97764670848846435547e+00) (136, -3.07667088508605957031e+00) (137, -8.69977235794067382812e-01) (138, -2.96898984909057617188e+00) (139, 5.09118497371673583984e-01) (140, -2.94929695129394531250e+00) (141, 3.34116888046264648438e+00) (142, 7.71772623062133789062e+00) (143, 1.30563223361968994141e+00) (144, 4.46424388885498046875e+00) (145, -1.97439575195312500000e+00) (146, 5.70285797119140625000e+00) (147, -1.10863193869590759277e-01) (148, -2.52603578567504882812e+00) (149, 4.36109924316406250000e+00) (150, -2.78947305679321289062e+00) (151, -2.78788638114929199219e+00) (152, -2.47371482849121093750e+00) (153, -2.75513195991516113281e+00) (154, 7.19125568866729736328e-01) (155, -2.40350675582885742188e+00) (156, -1.72505307197570800781e+00) (157, -2.84539771080017089844e+00) (158, -2.91908574104309082031e+00) (159, -2.82702684402465820312e+00) (160, -2.48591685295104980469e+00) (161, -2.88001108169555664062e+00) (162, -2.80989646911621093750e+00) (163, -2.90081810951232910156e+00) (164, 2.20761790871620178223e-01) (165, 1.91739213466644287109e+00) (166, 1.70461371541023254395e-01) (167, -2.92616605758666992188e+00) (168, 3.40884834527969360352e-01) (169, 7.38043934106826782227e-02) (170, 2.14608311653137207031e+00) (171, 1.99205577373504638672e+00) (172, 5.16814172267913818359e-01) (173, 3.87319058179855346680e-01) (174, -2.72617697715759277344e+00) (175, 1.89788019657135009766e+00) (176, 1.93883955478668212891e+00) (177, 2.38439941406250000000e+00) (178, 7.04693889617919921875e+00) (179, 7.04871702194213867188e+00) (180, 2.14781188964843750000e+00) (181, 3.78951144218444824219e+00) (182, 2.22276210784912109375e+00) (183, -8.26035201549530029297e-01) (184, 2.30930662155151367188e+00) (185, -9.47490036487579345703e-01) (186, 2.18322253227233886719e+00) (187, -8.97580742835998535156e-01) (188, 2.17308759689331054688e+00) (189, 2.29815936088562011719e+00) (190, 2.22055029869079589844e+00) (191, 2.24476742744445800781e+00) (192, 2.16939806938171386719e+00) (193, 2.13696503639221191406e+00) (194, 2.23876976966857910156e+00) (195, 2.15337610244750976562e+00) (196, 2.15460419654846191406e+00) (197, 2.24128270149230957031e+00) (198, 2.16398763656616210938e+00) (199, 2.29453706741333007812e+00) (200, 2.17253136634826660156e+00) (201, 2.30746841430664062500e+00) (202, -2.87901616096496582031e+00) (203, 1.50000000000000000000e+03) (204, 9.39183330535888671875e+00) (0, 4.94525384902954101562e+00) (1, 3.02345991134643554688e+00) (2, 4.97087192535400390625e+00) (3, 4.92154598236083984375e+00) (4, 3.07702827453613281250e+00) (5, 3.06802606582641601562e+00) (6, 4.93017721176147460938e+00) (7, 5.01724815368652343750e+00) (8, 5.00932550430297851562e+00) (9, 4.96028280258178710938e+00) (10, 5.05195569992065429688e+00) (11, 4.93515777587890625000e+00) (12, 5.09334707260131835938e+00) (13, 5.00266075134277343750e+00) (14, 4.91141319274902343750e+00) (15, 4.89156818389892578125e+00) (16, 3.13357877731323242188e+00) (17, 5.04783678054809570312e+00) (18, 5.02851295471191406250e+00) (19, 5.03100681304931640625e+00) (20, 4.95107269287109375000e+00) (21, 4.98546266555786132812e+00) (22, 4.92979669570922851562e+00) (23, 4.93846035003662109375e+00) (24, 4.98070383071899414062e+00) (25, 5.07859420776367187500e+00) (26, 4.92368650436401367188e+00) (27, 5.00965309143066406250e+00) (28, 4.93652343750000000000e+00) (29, 4.93967151641845703125e+00) (30, 4.97545289993286132812e+00) (31, 4.87364816665649414062e+00) (32, 4.92961788177490234375e+00) (33, 4.97714948654174804688e+00) (34, 4.82168292999267578125e+00) (35, 4.83304023742675781250e+00) (36, 4.82655191421508789062e+00) (37, 4.83742904663085937500e+00) (38, 4.85880374908447265625e+00) (39, 4.90686225891113281250e+00) (40, 4.91209459304809570312e+00) (41, 4.93420648574829101562e+00) (42, 4.94784116744995117188e+00) (43, 4.83809089660644531250e+00) (44, 4.90076303482055664062e+00) (45, 4.86005020141601562500e+00) (46, 4.89243984222412109375e+00) (47, 1.88754415512084960938e+00) (48, 4.90430259704589843750e+00) (49, 1.86955523490905761719e+00) (50, 4.84128856658935546875e+00) (51, 1.87532484531402587891e+00) (52, 4.91901111602783203125e+00) (53, 4.88462591171264648438e+00) (54, 5.11266660690307617188e+00) (55, 4.97947263717651367188e+00) (56, 4.89174318313598632812e+00) (57, 5.52605867385864257812e+00) (58, 5.07723188400268554688e+00) (59, 1.41711044311523437500e+00) (60, 4.50217390060424804688e+00) (61, 7.95946955680847167969e-01) (62, 4.93903219699859619141e-01) (63, 8.41532945632934570312e-01) (64, -5.15934586524963378906e-01) (65, 8.45600247383117675781e-01) (66, 8.72574329376220703125e-01) (67, 9.83568668365478515625e-01) (68, -1.13238918781280517578e+00) (69, 9.93474125862121582031e-01) (70, 1.29702162742614746094e+00) (71, 1.69199705123901367188e+00) (72, 5.69195568561553955078e-01) (73, 5.73794126510620117188e-01) (74, 2.27098631858825683594e+00) (75, -9.48130786418914794922e-01) (76, 4.64591789245605468750e+00) (77, -1.02849578857421875000e+01) (78, 4.31525278091430664062e+00) (79, 1.55645217895507812500e+02) (80, 5.97187232971191406250e+00) (81, 4.31771087646484375000e+00) (82, 4.20273256301879882812e+00) (83, -2.40952911376953125000e+01) (84, 4.39074134826660156250e+00) (85, -1.13488273620605468750e+01) (86, 4.93029737472534179688e+00) (87, 1.61844655871391296387e-01) (88, 4.15770578384399414062e+00) (89, 4.52619934082031250000e+00) (90, 5.00411748886108398438e+00) (91, 4.53815698623657226562e+00) (92, 5.70334672927856445312e+00) (93, 3.88690638542175292969e+00) (94, 9.76795554161071777344e-01) (95, 3.68152070045471191406e+00) (96, 3.22439384460449218750e+00) (97, 4.23834514617919921875e+00) (98, 3.97823858261108398438e+00) (99, 4.75572013854980468750e+00) (100, 1.13141651153564453125e+01) (101, 5.89300823211669921875e+00) (102, 5.57962265014648437500e+01) (103, 1.05014753341674804688e+01) (104, 3.73652610778808593750e+01) (105, 2.23876304626464843750e+01) (106, 1.55782308578491210938e+01) (107, 7.27735107421875000000e+02) (108, 2.39065170288085937500e+02) (109, -1.19737719726562500000e+03) (110, -1.53827224731445312500e+02) (111, 2.02076202392578125000e+02) (112, 1.66321611404418945312e+00) (113, 3.02837228775024414062e+00) (114, -2.00923976898193359375e+01) (115, -2.10002765655517578125e+01) (116, -1.58257034301757812500e+02) (117, -1.87278785705566406250e+01) (118, -2.51469659805297851562e+00) (119, -7.35494756698608398438e+00) (120, -5.18692731857299804688e-01) (121, 2.19619321823120117188e+00) (122, 9.38810884952545166016e-01) (123, 5.61422424316406250000e+01) (124, 1.74182910919189453125e+01) (125, 2.09800451993942260742e-01) (126, 2.79133200645446777344e-01) (127, 2.78522467613220214844e+00) (128, 2.78404688835144042969e+00) (129, -6.60217881202697753906e-01) (130, 5.93046069145202636719e-01) (131, -4.23912376165390014648e-01) (132, -4.91675704717636108398e-01) (133, 3.84418785572052001953e-01) (134, -1.04112613201141357422e+00) (135, -5.94625890254974365234e-01) (136, 4.74202007055282592773e-01) (137, 1.11642241477966308594e+00) (138, 1.29325592517852783203e+00) (139, 2.29727745056152343750e+00) (140, 2.27137589454650878906e+00) (141, 1.04331624507904052734e+00) (142, 1.38730919361114501953e+00) (143, 2.24726009368896484375e+00) (144, 1.97453689575195312500e+00) (145, 2.27348828315734863281e+00) (146, 2.69955778121948242188e+00) (147, 2.36780238151550292969e+00) (148, 2.37219333648681640625e+00) (149, 2.27491736412048339844e+00) (150, 2.41287994384765625000e+00) (151, 2.25132989883422851562e+00) (152, 2.42214465141296386719e+00) (153, 2.40833497047424316406e+00) (154, 5.07365655899047851562e+00) (155, 2.57164835929870605469e+00) (156, 2.39280176162719726562e+00) (157, 2.19908380508422851562e+00) (158, 3.09002733230590820312e+00) (159, 2.07410049438476562500e+00) (160, 3.15147542953491210938e+00) (161, 2.17750811576843261719e+00) (162, 2.17767381668090820312e+00) (163, 2.09901762008666992188e+00) (164, 2.12562966346740722656e+00) (165, 2.08268809318542480469e+00) (166, 2.09705328941345214844e+00) (167, 2.16669893264770507812e+00) (168, 2.12865090370178222656e+00) (169, 2.13202428817749023438e+00) (170, 1.42182219028472900391e+00) (171, 2.07265329360961914062e+00) (172, 2.05369019508361816406e+00) (173, 1.99673676490783691406e+00) (174, 4.87579965591430664062e+00) (175, 2.05002999305725097656e+00) (176, 1.99194860458374023438e+00) (177, 2.10326075553894042969e+00) (178, 4.86789989471435546875e+00) (179, 2.08010578155517578125e+00) (180, 4.78433895111083984375e+00) (181, 4.82568216323852539062e+00) (182, 4.95722007751464843750e+00) (183, 4.80062484741210937500e+00) (184, 4.94139766693115234375e+00) (185, 4.87460422515869140625e+00) (186, 4.84213590621948242188e+00) (187, 4.94030714035034179688e+00) (188, 4.86358737945556640625e+00) (189, 4.88314247131347656250e+00) (190, 4.78639793395996093750e+00) (191, 4.87607336044311523438e+00) (192, 4.93360424041748046875e+00) (193, 4.84928464889526367188e+00) (194, 4.78434276580810546875e+00) (195, 4.78342533111572265625e+00) (196, 4.96437120437622070312e+00) (197, 4.86391305923461914062e+00) (198, 4.80924987792968750000e+00) (199, 4.92513751983642578125e+00) (200, 4.86745691299438476562e+00) (201, 4.86998414993286132812e+00) (202, 4.94626665115356445312e+00) (203, 1.50000000000000000000e+03) (204, 1.44755876064300537109e+00) (0, -2.54795169830322265625e+00) (1, 1.77803707122802734375e+00) (2, -2.58928823471069335938e+00) (3, -2.56386113166809082031e+00) (4, -2.56190490722656250000e+00) (5, 2.82167792320251464844e+00) (6, -2.53062534332275390625e+00) (7, -2.59306645393371582031e+00) (8, 2.96514511108398437500e+00) (9, -2.48230266571044921875e+00) (10, -2.54422760009765625000e+00) (11, 2.83345127105712890625e+00) (12, -2.60594534873962402344e+00) (13, -2.62402772903442382812e+00) (14, 2.69009828567504882812e+00) (15, -2.54394888877868652344e+00) (16, 2.37298274040222167969e+00) (17, 2.74879789352416992188e+00) (18, 2.61674523353576660156e+00) (19, 2.76063990592956542969e+00) (20, -2.38984942436218261719e+00) (21, -2.40048027038574218750e+00) (22, 2.79345417022705078125e+00) (23, -2.47276568412780761719e+00) (24, 2.81079363822937011719e+00) (25, 2.85326790809631347656e+00) (26, 2.99424481391906738281e+00) (27, 5.87573194503784179688e+00) (28, -2.41427612304687500000e+00) (29, 2.67468380928039550781e+00) (30, 6.02462720870971679688e+00) (31, 2.81368851661682128906e+00) (32, -2.50713849067687988281e+00) (33, 7.86407041549682617188e+00) (34, 2.69168138504028320312e+00) (35, 8.96849918365478515625e+00) (36, 2.82538104057312011719e+00) (37, 7.84835243225097656250e+00) (38, 7.73602724075317382812e+00) (39, 2.82962918281555175781e+00) (40, 2.95616245269775390625e+00) (41, -2.73097777366638183594e+00) (42, 2.95297384262084960938e+00) (43, -2.46146035194396972656e+00) (44, 6.07732152938842773438e+00) (45, 2.89079022407531738281e+00) (46, -2.65346169471740722656e+00) (47, -2.28413152694702148438e+00) (48, -2.40757894515991210938e+00) (49, 3.92607522010803222656e+00) (50, 5.70623588562011718750e+00) (51, 5.78185224533081054688e+00) (52, -2.71717119216918945312e+00) (53, 3.14213454723358154297e-01) (54, -1.24891901016235351562e+00) (55, -1.01804947853088378906e+00) (56, -2.62292432785034179688e+00) (57, -2.49811959266662597656e+00) (58, -1.37350594997406005859e+00) (59, -1.34375333786010742188e+00) (60, 1.79802846908569335938e+00) (61, 1.79531311988830566406e+00) (62, 1.73502254486083984375e+00) (63, 2.47090339660644531250e+00) (64, 2.36304402351379394531e+00) (65, -2.59248042106628417969e+00) (66, -2.41966056823730468750e+00) (67, -1.39790809154510498047e+00) (68, 4.03374731540679931641e-01) (69, 1.85332572460174560547e+00) (70, -2.62116479873657226562e+00) (71, 6.08514881134033203125e+00) (72, 7.55586445331573486328e-01) (73, -2.67311692237854003906e+00) (74, 1.35043621063232421875e-01) (75, 2.09438383579254150391e-01) (76, -3.05627584457397460938e+00) (77, -1.03646335601806640625e+01) (78, -1.34393990039825439453e+00) (79, 2.35273575782775878906e+00) (80, -1.01585471630096435547e+00) (81, -2.85943245887756347656e+00) (82, -2.69544124603271484375e+00) (83, -5.02397346496582031250e+00) (84, -1.87565875053405761719e+00) (85, -1.76188111305236816406e+00) (86, 3.23100042343139648438e+00) (87, 2.56065440177917480469e+00) (88, 4.43060922622680664062e+00) (89, 2.88679027557373046875e+00) (90, 1.72059321403503417969e+00) (91, 1.23746477067470550537e-01) (92, 5.77360868453979492188e-01) (93, 5.66947102546691894531e-01) (94, -4.33653020858764648438e+00) (95, 1.46333932876586914062e+00) (96, -2.44315695762634277344e+00) (97, -1.36230206489562988281e+00) (98, -9.26431298255920410156e-01) (99, -7.99774900078773498535e-02) (100, 8.75152492523193359375e+00) (101, 6.72740459442138671875e-01) (102, -4.99654293060302734375e+00) (103, -2.10231280326843261719e+00) (104, -9.23176765441894531250e-01) (105, 2.80281925201416015625e+00) (106, 2.82306122779846191406e+00) (107, 2.58033418655395507812e+00) (108, 7.17135429382324218750e-01) (109, -1.30162763595581054688e+00) (110, 8.00112366676330566406e-01) (111, 1.61863267421722412109e+00) (112, -2.23719048500061035156e+00) (113, -1.28475313186645507812e+01) (114, -1.63779938220977783203e+00) (115, -5.40603017807006835938e+00) (116, -5.47637605667114257812e+00) (117, -1.59028768539428710938e+00) (118, 7.16120481491088867188e-01) (119, 4.21817827224731445312e+00) (120, 3.83676147460937500000e+00) (121, -8.48125934600830078125e-01) (122, -6.83579397201538085938e+00) (123, 1.92703318595886230469e+00) (124, -2.54650115966796875000e+00) (125, -4.07165813446044921875e+00) (126, 4.82413673400878906250e+00) (127, 3.31601595878601074219e+00) (128, -3.22578102350234985352e-01) (129, 1.22558975219726562500e+00) (130, -2.53348183631896972656e+00) (131, -1.82602405548095703125e+00) (132, 4.94867658615112304688e+00) (133, 4.11235618591308593750e+00) (134, 2.09697556495666503906e+00) (135, 1.52940869331359863281e+00) (136, -5.86721324920654296875e+00) (137, 1.34718847274780273438e+00) (138, -2.75542950630187988281e+00) (139, 1.15813338756561279297e+00) (140, 1.09263408184051513672e+00) (141, -4.33570194244384765625e+00) (142, 3.62369203567504882812e+00) (143, -3.84622144699096679688e+00) (144, -2.55456733703613281250e+00) (145, 1.21348237991333007812e+00) (146, -4.06748723983764648438e+00) (147, -1.01334595680236816406e+00) (148, -1.79902088642120361328e+00) (149, -3.51112842559814453125e+00) (150, 1.09738864004611968994e-01) (151, 1.00236177444458007812e+00) (152, -3.75511932373046875000e+00) (153, -3.87849020957946777344e+00) (154, 3.55579161643981933594e+00) (155, -2.85277843475341796875e+00) (156, 3.89166712760925292969e-01) (157, -4.71923446655273437500e+00) (158, -1.36057960987091064453e+00) (159, 3.76375770568847656250e+00) (160, -2.88682365417480468750e+00) (161, -2.13395786285400390625e+00) (162, -2.53890705108642578125e+00) (163, -9.65513110160827636719e-01) (164, 3.54095190763473510742e-01) (165, -7.07817649841308593750e+00) (166, -1.54400241374969482422e+00) (167, 9.05582904815673828125e-01) (168, 8.86329054832458496094e-01) (169, -1.60393559932708740234e+00) (170, 1.47200345993041992188e+00) (171, -3.03707218170166015625e+00) (172, 1.32202059030532836914e-01) (173, 5.30971384048461914062e+00) (174, 5.33824014663696289062e+00) (175, -2.85862994194030761719e+00) (176, 1.12769424915313720703e-01) (177, 4.75058615207672119141e-01) (178, -2.42595434188842773438e+00) (179, -4.26997244358062744141e-01) (180, 4.05553865432739257812e+00) (181, -2.36665296554565429688e+00) (182, -7.30198860168457031250e-01) (183, -5.69073200225830078125e-01) (184, -2.47337269783020019531e+00) (185, -6.68050050735473632812e-01) (186, -2.56298899650573730469e+00) (187, -3.96556943655014038086e-01) (188, -5.34780204296112060547e-01) (189, -4.57431048154830932617e-01) (190, -6.83898568153381347656e-01) (191, -6.15005493164062500000e-01) (192, -5.15508353710174560547e-01) (193, -8.72727155685424804688e-01) (194, -1.02328610420227050781e+00) (195, -2.54539680480957031250e+00) (196, -7.24059939384460449219e-01) (197, -8.92887532711029052734e-01) (198, -2.70668673515319824219e+00) (199, -7.99059212207794189453e-01) (200, -7.27342784404754638672e-01) (201, -8.96386981010437011719e-01) (202, -9.07229602336883544922e-01) (203, 1.50000000000000000000e+03) (204, 8.97611141204833984375e+00) (0, -2.79339003562927246094e+00) (1, 3.35002088546752929688e+00) (2, -2.80938959121704101562e+00) (3, -2.89691734313964843750e+00) (4, 3.47134017944335937500e+00) (5, -1.70180356502532958984e+00) (6, -2.78400397300720214844e+00) (7, 3.34762239456176757812e+00) (8, -1.75270020961761474609e+00) (9, -2.87396550178527832031e+00) (10, 3.49582552909851074219e+00) (11, 3.43021512031555175781e+00) (12, -2.77771854400634765625e+00) (13, 2.29714250564575195312e+00) (14, 2.25927948951721191406e+00) (15, -1.84579193592071533203e+00) (16, 2.24704122543334960938e+00) (17, 2.43362855911254882812e+00) (18, 3.45746445655822753906e+00) (19, 3.37081623077392578125e+00) (20, 2.35732936859130859375e+00) (21, 2.32967638969421386719e+00) (22, -2.73840355873107910156e+00) (23, 2.45767450332641601562e+00) (24, 3.36751413345336914062e+00) (25, 2.36907267570495605469e+00) (26, 2.29200005531311035156e+00) (27, 2.47241115570068359375e+00) (28, 2.32997393608093261719e+00) (29, 2.38696432113647460938e+00) (30, 2.34053230285644531250e+00) (31, 2.36354422569274902344e+00) (32, 2.33978772163391113281e+00) (33, 2.41416740417480468750e+00) (34, 2.49218726158142089844e+00) (35, 2.52593159675598144531e+00) (36, 2.29596304893493652344e+00) (37, 2.28863096237182617188e+00) (38, 2.28743386268615722656e+00) (39, 2.60105133056640625000e+00) (40, 2.57767629623413085938e+00) (41, 2.60656547546386718750e+00) (42, 2.58672904968261718750e+00) (43, 2.34186148643493652344e+00) (44, 2.64247655868530273438e+00) (45, 2.53642106056213378906e+00) (46, 2.55378842353820800781e+00) (47, 2.46225166320800781250e+00) (48, 2.47063469886779785156e+00) (49, 2.43774461746215820312e+00) (50, 2.42740321159362792969e+00) (51, 2.28905367851257324219e+00) (52, 2.48262000083923339844e+00) (53, -9.46741402149200439453e-01) (54, 2.52761030197143554688e+00) (55, 2.46734976768493652344e+00) (56, -1.12042880058288574219e+00) (57, -1.01771914958953857422e+00) (58, 2.40650439262390136719e+00) (59, -2.81633067131042480469e+00) (60, -2.28531384468078613281e+00) (61, 2.61081790924072265625e+00) (62, 2.54274034500122070312e+00) (63, -2.01951360702514648438e+00) (64, -1.94070506095886230469e+00) (65, 2.45429873466491699219e+00) (66, -2.67398858070373535156e+00) (67, 2.62125253677368164062e+00) (68, -2.92460298538208007812e+00) (69, 2.59688639640808105469e+00) (70, -2.93090939521789550781e+00) (71, -3.24892520904541015625e+00) (72, -2.81362986564636230469e+00) (73, -2.93584203720092773438e+00) (74, 2.27247643470764160156e+00) (75, 1.99202227592468261719e+00) (76, -2.67189145088195800781e+00) (77, 1.83344435691833496094e+00) (78, -2.88886690139770507812e+00) (79, 2.05116295814514160156e+00) (80, 2.07454228401184082031e+00) (81, 2.42937183380126953125e+00) (82, 2.24432325363159179688e+00) (83, 3.07403087615966796875e+00) (84, 2.34901666641235351562e+00) (85, -7.66313982009887695312e+00) (86, 3.05259990692138671875e+00) (87, 1.54986166954040527344e+00) (88, 2.16840624809265136719e+00) (89, 1.15265345573425292969e+00) (90, 1.90645909309387207031e+00) (91, -6.57340478897094726562e+00) (92, -1.44103074073791503906e+00) (93, -5.07531404495239257812e+00) (94, 1.12073469161987304688e+00) (95, -6.37906980514526367188e+00) (96, -4.45635128021240234375e+00) (97, 1.26124918460845947266e+00) (98, -1.22302114963531494141e+00) (99, -2.38303486257791519165e-02) (100, 3.47276616096496582031e+00) (101, -1.19124908447265625000e+01) (102, -8.74420738220214843750e+00) (103, -1.08019924163818359375e+01) (104, -1.21144742965698242188e+01) (105, -1.29214258193969726562e+01) (106, -2.49774861335754394531e+00) (107, -2.80482864379882812500e+00) (108, -6.79869294166564941406e-01) (109, 8.28534364700317382812e-01) (110, 2.54193568229675292969e+00) (111, 8.59343290328979492188e-01) (112, -4.36017155647277832031e-01) (113, -2.75494122505187988281e+00) (114, 2.65187025070190429688e+00) (115, 2.12973618507385253906e+00) (116, 1.99106693267822265625e+00) (117, 7.98333311080932617188e+00) (118, 2.31593203544616699219e+00) (119, 8.92683625221252441406e-01) (120, -1.06142604351043701172e+00) (121, 2.44009923934936523438e+00) (122, 2.21749162673950195312e+00) (123, 1.50491905212402343750e+00) (124, 1.15286326408386230469e+00) (125, 2.08297157287597656250e+00) (126, 1.94086122512817382812e+00) (127, 1.84452342987060546875e+00) (128, 1.95553994178771972656e+00) (129, 1.94817066192626953125e+00) (130, 1.87581992149353027344e+00) (131, 1.85392594337463378906e+00) (132, 1.88574910163879394531e+00) (133, 1.85824465751647949219e+00) (134, 1.45133757591247558594e+00) (135, 1.72317123413085937500e+00) (136, 1.77395725250244140625e+00) (137, 2.03432393074035644531e+00) (138, 2.11726212501525878906e+00) (139, 2.19746470451354980469e+00) (140, -2.65016126632690429688e+00) (141, 3.24633359909057617188e+00) (142, -2.48018264770507812500e+00) (143, -1.56421923637390136719e+00) (144, -2.14671874046325683594e+00) (145, -1.80975651741027832031e+00) (146, -1.86638188362121582031e+00) (147, -1.58004915714263916016e+00) (148, -1.70449721813201904297e+00) (149, -1.86627566814422607422e+00) (150, -1.83479559421539306641e+00) (151, -2.02577352523803710938e+00) (152, -1.77472615242004394531e+00) (153, -1.84933865070343017578e+00) (154, -1.80664944648742675781e+00) (155, -1.86436724662780761719e+00) (156, -2.29035592079162597656e+00) (157, -3.05771708488464355469e+00) (158, -1.86526346206665039062e+00) (159, -1.85010874271392822266e+00) (160, -1.77180027961730957031e+00) (161, -1.87269592285156250000e+00) (162, -1.78458940982818603516e+00) (163, -1.83282089233398437500e+00) (164, -1.72462856769561767578e+00) (165, -1.68421971797943115234e+00) (166, -1.77390027046203613281e+00) (167, -1.69355642795562744141e+00) (168, -1.75179553031921386719e+00) (169, -1.15815669298171997070e-01) (170, -1.86934065818786621094e+00) (171, -1.80842661857604980469e+00) (172, -1.70595431327819824219e+00) (173, -1.70949900150299072266e+00) (174, -1.78152322769165039062e+00) (175, -1.71177303791046142578e+00) (176, -1.71516740322113037109e+00) (177, -1.84558105468750000000e+00) (178, -1.66614878177642822266e+00) (179, -1.80391645431518554688e+00) (180, -1.80631351470947265625e+00) (181, -1.75510692596435546875e+00) (182, -1.73225998878479003906e+00) (183, -1.71944808959960937500e+00) (184, -1.82327663898468017578e+00) (185, -1.80540835857391357422e+00) (186, -1.79663550853729248047e+00) (187, -7.24331513047218322754e-02) (188, -1.82341539859771728516e+00) (189, -1.85198390483856201172e+00) (190, -1.75572264194488525391e+00) (191, -1.76583051681518554688e+00) (192, -1.81264638900756835938e+00) (193, -1.73600518703460693359e+00) (194, -1.75623607635498046875e+00) (195, -1.75378489494323730469e+00) (196, -1.85746192932128906250e+00) (197, -2.94316029548645019531e+00) (198, -2.92384982109069824219e+00) (199, -1.05825150012969970703e+00) (200, -1.85930490493774414062e+00) (201, -2.89083433151245117188e+00) (202, -2.89197397232055664062e+00) (203, 1.50000000000000000000e+03) (204, 9.25662803649902343750e+00) (0, 2.12527132034301757812e+00) (1, 2.05372190475463867188e+00) (2, 2.08794999122619628906e+00) (3, 2.04107427597045898438e+00) (4, 2.07920169830322265625e+00) (5, 2.30068302154541015625e+00) (6, 2.01986265182495117188e+00) (7, 2.14221239089965820312e+00) (8, 2.04505777359008789062e+00) (9, 2.11570596694946289062e+00) (10, 2.16519594192504882812e+00) (11, 1.92757308483123779297e+00) (12, 2.17027091979980468750e+00) (13, 2.00739645957946777344e+00) (14, 2.06114912033081054688e+00) (15, 2.08999705314636230469e+00) (16, 2.38104772567749023438e+00) (17, 1.95848405361175537109e+00) (18, 1.95111334323883056641e+00) (19, 1.87393248081207275391e+00) (20, -2.74588584899902343750e+00) (21, 1.88050186634063720703e+00) (22, 1.82152187824249267578e+00) (23, -2.90505957603454589844e+00) (24, -2.96154618263244628906e+00) (25, -3.02225661277770996094e+00) (26, -2.90082335472106933594e+00) (27, -2.98322534561157226562e+00) (28, -2.96313452720642089844e+00) (29, -2.74109768867492675781e+00) (30, -2.98516201972961425781e+00) (31, -2.94719386100769042969e+00) (32, -3.04184031486511230469e+00) (33, -1.82459986209869384766e+00) (34, -3.02712750434875488281e+00) (35, -1.88640475273132324219e+00) (36, -1.96090376377105712891e+00) (37, -2.86278247833251953125e+00) (38, -1.81443989276885986328e+00) (39, -1.89839279651641845703e+00) (40, -2.97227406501770019531e+00) (41, -2.95794320106506347656e+00) (42, -2.88431334495544433594e+00) (43, -2.95605063438415527344e+00) (44, -3.01501917839050292969e+00) (45, -2.95681047439575195312e+00) (46, -2.86113476753234863281e+00) (47, -1.78788077831268310547e+00) (48, -1.86501574516296386719e+00) (49, -1.83363783359527587891e+00) (50, -2.90435338020324707031e+00) (51, -1.51205050945281982422e+00) (52, -8.82266700267791748047e-01) (53, -2.65886878967285156250e+00) (54, -3.00391316413879394531e+00) (55, -1.89375913143157958984e+00) (56, 6.52730524539947509766e-01) (57, -1.90846824645996093750e+00) (58, -1.81018590927124023438e+00) (59, -1.89118742942810058594e+00) (60, 1.44904649257659912109e+00) (61, -1.77296018600463867188e+00) (62, -1.78515374660491943359e+00) (63, -1.59034681320190429688e+00) (64, -2.17754340171813964844e+00) (65, -1.65329658985137939453e+00) (66, -2.23798227310180664062e+00) (67, -1.61225378513336181641e+00) (68, 3.68613123893737792969e+00) (69, 8.24419784545898437500e+00) (70, 3.75593376159667968750e+00) (71, 7.15842342376708984375e+00) (72, 6.85432529449462890625e+00) (73, 7.46025609970092773438e+00) (74, 6.15159654617309570312e+00) (75, 1.01819670200347900391e+00) (76, 3.47999978065490722656e+00) (77, 2.66863751411437988281e+00) (78, 4.78716045618057250977e-01) (79, 2.06135678291320800781e+00) (80, 3.81658494472503662109e-01) (81, -2.94195294380187988281e+00) (82, -3.58452987670898437500e+00) (83, -2.45711565017700195312e+00) (84, 1.10065750777721405029e-01) (85, 2.01122593879699707031e+00) (86, 5.51058912277221679688e+00) (87, -1.33232259750366210938e+00) (88, 1.27659702301025390625e+00) (89, 6.07335376739501953125e+00) (90, 5.94011688232421875000e+00) (91, -2.78704380989074707031e+00) (92, -3.65602493286132812500e+00) (93, 2.08896136283874511719e+00) (94, -5.49354016780853271484e-01) (95, -3.08796143531799316406e+00) (96, 9.64397609233856201172e-01) (97, 5.59284877777099609375e+00) (98, 5.61483716964721679688e+00) (99, 4.47189140319824218750e+00) (100, -3.40037822723388671875e+00) (101, -4.09812599420547485352e-01) (102, 1.22659549713134765625e+01) (103, 3.89404034614562988281e+00) (104, 4.87175941467285156250e+00) (105, 7.93688118457794189453e-01) (106, 8.07916164398193359375e+00) (107, -1.96813833713531494141e+00) (108, -2.76527309417724609375e+00) (109, 3.23998880386352539062e+00) (110, 1.78030133247375488281e+00) (111, 9.91986691951751708984e-01) (112, 4.85570335388183593750e+00) (113, -1.12328624725341796875e+00) (114, 8.03720057010650634766e-01) (115, 2.88389301300048828125e+00) (116, 3.24095964431762695312e+00) (117, -2.62049055099487304688e+00) (118, 7.28383302688598632812e+00) (119, 5.70641946792602539062e+00) (120, 6.60405233502388000488e-02) (121, 2.16160726547241210938e+00) (122, -2.22492432594299316406e+00) (123, 3.23195791244506835938e+00) (124, 2.13823342323303222656e+00) (125, 4.05906677246093750000e+00) (126, 2.28545975685119628906e+00) (127, 2.97738289833068847656e+00) (128, 3.02677273750305175781e+00) (129, -1.24408054351806640625e+00) (130, -2.08208298683166503906e+00) (131, -9.82854068279266357422e-01) (132, -1.56813776493072509766e+00) (133, -1.83313965797424316406e+00) (134, -1.76183879375457763672e-01) (135, 1.81539580225944519043e-01) (136, -3.07941474020481109619e-02) (137, 3.42216229438781738281e+00) (138, 1.40345704555511474609e+00) (139, 7.96064913272857666016e-01) (140, 2.58133196830749511719e+00) (141, 2.46884569525718688965e-01) (142, 1.58764374256134033203e+00) (143, -3.60102444887161254883e-01) (144, -1.27188944816589355469e+00) (145, 4.23138618469238281250e+00) (146, -4.96207761764526367188e+00) (147, 4.05575990676879882812e+00) (148, 2.30287647247314453125e+00) (149, 4.32984590530395507812e+00) (150, -9.06044125556945800781e-01) (151, -1.31273961067199707031e+00) (152, -1.17004632949829101562e-01) (153, -3.91805577278137207031e+00) (154, 2.54930949211120605469e+00) (155, -2.88559007644653320312e+00) (156, -1.72407245635986328125e+00) (157, -2.78468155860900878906e+00) (158, -8.76379191875457763672e-01) (159, -7.63789951801300048828e-01) (160, -2.46631360054016113281e+00) (161, 2.78086495399475097656e+00) (162, 6.24701356887817382812e+00) (163, 1.28582584857940673828e+00) (164, -6.14663660526275634766e-01) (165, -2.84441709518432617188e+00) (166, -1.14235445857048034668e-01) (167, 2.34171533584594726562e+00) (168, -8.44953835010528564453e-01) (169, 2.82281923294067382812e+00) (170, 4.49945306777954101562e+00) (171, -2.48903727531433105469e+00) (172, -2.51228141784667968750e+00) (173, 2.62955212593078613281e+00) (174, -2.83012914657592773438e+00) (175, 2.41799759864807128906e+00) (176, -2.49220848083496093750e+00) (177, -2.44829821586608886719e+00) (178, -2.70785331726074218750e+00) (179, -2.40263962745666503906e+00) (180, -2.39759707450866699219e+00) (181, -1.38169300556182861328e+00) (182, -2.65385413169860839844e+00) (183, -2.72636055946350097656e+00) (184, -2.63815641403198242188e+00) (185, -2.55975794792175292969e+00) (186, -2.61509108543395996094e+00) (187, -2.65326046943664550781e+00) (188, -2.73054242134094238281e+00) (189, -2.75206017494201660156e+00) (190, 5.64478337764739990234e-01) (191, -2.58695983886718750000e+00) (192, 2.16453838348388671875e+00) (193, -2.58910059928894042969e+00) (194, -2.69343972206115722656e+00) (195, -2.76173329353332519531e+00) (196, -2.75329422950744628906e+00) (197, 2.27665591239929199219e+00) (198, -2.65505814552307128906e+00) (199, -2.73514771461486816406e+00) (200, -2.96842551231384277344e+00) (201, -2.58086299896240234375e+00) (202, -2.99711108207702636719e+00) (203, 1.50000000000000000000e+03) (204, 9.18241977691650390625e+00) (0, 3.22070956230163574219e+00) (1, 3.25792050361633300781e+00) (2, 3.28390240669250488281e+00) (3, 3.35425186157226562500e+00) (4, 3.36048674583435058594e+00) (5, 3.42991638183593750000e+00) (6, 3.41194868087768554688e+00) (7, 3.41804909706115722656e+00) (8, 3.38461256027221679688e+00) (9, 4.58233261108398437500e+00) (10, 3.38454651832580566406e+00) (11, 3.37213587760925292969e+00) (12, 4.60661554336547851562e+00) (13, 4.54287767410278320312e+00) (14, 4.59132146835327148438e+00) (15, 3.24564433097839355469e+00) (16, 4.69370889663696289062e+00) (17, 4.64883089065551757812e+00) (18, 4.56364011764526367188e+00) (19, 4.67771053314208984375e+00) (20, 4.62829399108886718750e+00) (21, 4.65308904647827148438e+00) (22, 4.63516616821289062500e+00) (23, 4.70506381988525390625e+00) (24, 4.54120540618896484375e+00) (25, 4.67644643783569335938e+00) (26, 4.66658687591552734375e+00) (27, 4.70965480804443359375e+00) (28, 4.67294549942016601562e+00) (29, 4.64483547210693359375e+00) (30, 4.48027563095092773438e+00) (31, 4.60735464096069335938e+00) (32, 4.45904827117919921875e+00) (33, 4.72071790695190429688e+00) (34, 4.59869909286499023438e+00) (35, 4.62451267242431640625e+00) (36, 3.77431917190551757812e+00) (37, 4.51522827148437500000e+00) (38, 2.78500747680664062500e+00) (39, 2.77979278564453125000e+00) (40, 3.71883058547973632812e+00) (41, 3.74854874610900878906e+00) (42, 4.55796384811401367188e+00) (43, 2.84682369232177734375e+00) (44, 3.91033625602722167969e+00) (45, 2.87719082832336425781e+00) (46, 4.48997306823730468750e+00) (47, 4.78795576095581054688e+00) (48, 4.59043884277343750000e+00) (49, 3.85489130020141601562e+00) (50, 4.74972629547119140625e+00) (51, 3.03692674636840820312e+00) (52, 2.86597537994384765625e+00) (53, 3.02410817146301269531e+00) (54, 4.71627855300903320312e+00) (55, 2.85083770751953125000e+00) (56, 2.84050488471984863281e+00) (57, 2.76121377944946289062e+00) (58, 4.48462343215942382812e+00) (59, 2.40127182006835937500e+00) (60, -1.71918106079101562500e+01) (61, 2.28342080116271972656e+00) (62, 2.27173161506652832031e+00) (63, 9.37796533107757568359e-01) (64, 1.12125229835510253906e+00) (65, 3.27309179306030273438e+00) (66, 1.11640202999114990234e+00) (67, 1.68792819976806640625e+00) (68, 3.23651957511901855469e+00) (69, 1.92793321609497070312e+00) (70, 1.48085629940032958984e+00) (71, -8.67151451110839843750e+00) (72, 2.73373174667358398438e+00) (73, 2.21869468688964843750e+00) (74, -9.39868509769439697266e-01) (75, 1.11228339374065399170e-01) (76, 3.22111034393310546875e+00) (77, -5.22266197204589843750e+00) (78, 4.27642726898193359375e+00) (79, -6.33552436828613281250e+01) (80, -2.58435077667236328125e+01) (81, 4.14064836502075195312e+00) (82, 1.27522730827331542969e+00) (83, -1.33529639244079589844e+00) (84, 1.97039031982421875000e+00) (85, -1.65612548828125000000e+02) (86, 3.33746361732482910156e+00) (87, 3.50353479385375976562e+00) (88, 3.84961390495300292969e+00) (89, 5.09584045410156250000e+00) (90, 6.04381275177001953125e+00) (91, 5.33769655227661132812e+00) (92, -6.26412987709045410156e-01) (93, 4.37021493911743164062e+00) (94, 4.14790582656860351562e+00) (95, 1.59187090396881103516e+00) (96, 3.32897424697875976562e+00) (97, 3.68771171569824218750e+00) (98, 4.80893468856811523438e+00) (99, 1.54481010437011718750e+01) (100, 1.36241092681884765625e+01) (101, 3.73949470520019531250e+01) (102, 2.35197048187255859375e+01) (103, 1.28821296691894531250e+01) (104, 3.19818058013916015625e+01) (105, 1.28850903320312500000e+03) (106, 1.49882702636718750000e+03) (107, 6.88349990844726562500e+01) (108, -5.26011047363281250000e+02) (109, 1.49819714355468750000e+03) (110, 7.26490478515625000000e+02) (111, 1.40531555175781250000e+03) (112, 1.36871139526367187500e+02) (113, -4.89621673583984375000e+02) (114, -4.97685913085937500000e+02) (115, 6.79829650878906250000e+02) (116, 1.37258529663085937500e+02) (117, 2.81685607910156250000e+02) (118, -4.01414108276367187500e+01) (119, 1.49772705078125000000e+03) (120, 2.02657028198242187500e+02) (121, 2.75447249412536621094e+00) (122, 6.10792779922485351562e+00) (123, 2.24275024414062500000e+02) (124, -2.08488128662109375000e+02) (125, 3.06380605697631835938e+00) (126, 2.76664328575134277344e+00) (127, 5.20415687561035156250e+00) (128, 5.04569435119628906250e+00) (129, 5.09308624267578125000e+00) (130, 3.40711760520935058594e+00) (131, 5.16887283325195312500e+00) (132, 5.22746706008911132812e+00) (133, 4.73377990722656250000e+00) (134, 1.18775129318237304688e+00) (135, 5.20504713058471679688e+00) (136, 3.58904719352722167969e+00) (137, 4.60875701904296875000e+00) (138, 4.64354658126831054688e+00) (139, 4.73707580566406250000e+00) (140, 4.84499311447143554688e+00) (141, 5.24561786651611328125e+00) (142, 1.28652029037475585938e+01) (143, 5.64990282058715820312e+00) (144, 1.68064193725585937500e+01) (145, 4.75878143310546875000e+00) (146, 6.19312286376953125000e+00) (147, 5.00697374343872070312e+00) (148, 4.67425203323364257812e+00) (149, 4.75967884063720703125e+00) (150, 4.61400413513183593750e+00) (151, 4.78537368774414062500e+00) (152, 4.70991230010986328125e+00) (153, 4.72321844100952148438e+00) (154, 4.59483051300048828125e+00) (155, 4.88290882110595703125e+00) (156, 4.80930137634277343750e+00) (157, 4.97163248062133789062e+00) (158, 4.72930908203125000000e+00) (159, 4.94301223754882812500e+00) (160, 4.69653463363647460938e+00) (161, 4.82269239425659179688e+00) (162, 4.83430147171020507812e+00) (163, 4.81779909133911132812e+00) (164, 4.83905982971191406250e+00) (165, 4.61799287796020507812e+00) (166, 4.82234525680541992188e+00) (167, 3.28731131553649902344e+00) (168, 3.32988119125366210938e+00) (169, 3.26636147499084472656e+00) (170, 3.34805941581726074219e+00) (171, 3.40447640419006347656e+00) (172, 3.32694411277770996094e+00) (173, 3.27709579467773437500e+00) (174, 3.31619071960449218750e+00) (175, 3.44759416580200195312e+00) (176, 3.35846018791198730469e+00) (177, 3.37803149223327636719e+00) (178, 3.33217859268188476562e+00) (179, 3.25330662727355957031e+00) (180, 3.45151972770690917969e+00) (181, 3.41449284553527832031e+00) (182, 3.36428523063659667969e+00) (183, 3.44856357574462890625e+00) (184, 3.28386378288269042969e+00) (185, 3.42358398437500000000e+00) (186, 3.28330636024475097656e+00) (187, 3.29908609390258789062e+00) (188, 3.40012383460998535156e+00) (189, 3.33024454116821289062e+00) (190, 3.22641134262084960938e+00) (191, 3.40023565292358398438e+00) (192, 3.35927963256835937500e+00) (193, 3.17640233039855957031e+00) (194, 3.38564944267272949219e+00) (195, 3.31212925910949707031e+00) (196, 3.33052277565002441406e+00) (197, 3.28920292854309082031e+00) (198, 3.26144599914550781250e+00) (199, 3.28398036956787109375e+00) (200, 3.34815669059753417969e+00) (201, 3.35805630683898925781e+00) (202, 3.38495278358459472656e+00) (203, 1.50000000000000000000e+03) (204, 3.06695508956909179688e+00) (0, 7.77353000640869140625e+00) (1, 7.95577096939086914062e+00) (2, 7.81913614273071289062e+00) (3, 7.88703012466430664062e+00) (4, 7.98967790603637695312e+00) (5, 8.06167411804199218750e+00) (6, 7.86098003387451171875e+00) (7, 8.09308242797851562500e+00) (8, 8.06492328643798828125e+00) (9, 7.83560466766357421875e+00) (10, 7.91968345642089843750e+00) (11, 8.12900447845458984375e+00) (12, 7.88838100433349609375e+00) (13, 7.98295116424560546875e+00) (14, 7.93940067291259765625e+00) (15, 7.92103195190429687500e+00) (16, 8.08204650878906250000e+00) (17, 8.01177597045898437500e+00) (18, 8.09989547729492187500e+00) (19, 8.07104969024658203125e+00) (20, 8.03094482421875000000e+00) (21, 8.11464214324951171875e+00) (22, 8.09560966491699218750e+00) (23, 8.15822982788085937500e+00) (24, 7.99826431274414062500e+00) (25, 8.04847145080566406250e+00) (26, 8.15089607238769531250e+00) (27, 8.15313053131103515625e+00) (28, 8.10315132141113281250e+00) (29, 8.14083766937255859375e+00) (30, 8.06948566436767578125e+00) (31, 8.14024734497070312500e+00) (32, 8.17714881896972656250e+00) (33, 7.71658372879028320312e+00) (34, 9.06447315216064453125e+00) (35, 9.09552955627441406250e+00) (36, 8.52473831176757812500e+00) (37, 8.33536243438720703125e+00) (38, 8.01209640502929687500e+00) (39, 9.32736968994140625000e+00) (40, 9.29716491699218750000e+00) (41, 8.68513774871826171875e+00) (42, 8.44911384582519531250e+00) (43, 8.45984268188476562500e+00) (44, 8.51374530792236328125e+00) (45, 8.51710319519042968750e+00) (46, 8.44449520111083984375e+00) (47, 8.56316661834716796875e+00) (48, 9.30872726440429687500e+00) (49, 8.74394798278808593750e+00) (50, 1.06413106918334960938e+01) (51, 8.58196926116943359375e+00) (52, 8.43349647521972656250e+00) (53, 8.88108444213867187500e+00) (54, 8.39825344085693359375e+00) (55, 8.57452964782714843750e+00) (56, 8.64635181427001953125e+00) (57, 9.97903537750244140625e+00) (58, 8.16730213165283203125e+00) (59, 9.03860092163085937500e+00) (60, 9.54545745849609375000e+01) (61, 8.84475517272949218750e+00) (62, 1.02798461914062500000e+01) (63, 9.81410884857177734375e+00) (64, 1.13090381622314453125e+01) (65, 8.13467025756835937500e+00) (66, 8.53037643432617187500e+00) (67, 8.37473201751708984375e+00) (68, 6.87015199661254882812e+00) (69, 7.87535810470581054688e+00) (70, 7.36524343490600585938e+00) (71, 4.42699279785156250000e+01) (72, 7.28892898559570312500e+00) (73, 8.15976047515869140625e+00) (74, 1.28871746063232421875e+01) (75, 1.22484121322631835938e+01) (76, 7.01260042190551757812e+00) (77, -5.27643823623657226562e+00) (78, 7.50536537170410156250e+00) (79, -3.62068634033203125000e+01) (80, -4.09854054450988769531e-01) (81, 4.04244613647460937500e+00) (82, 3.15519833564758300781e+00) (83, -5.26154212951660156250e+01) (84, 2.75841808319091796875e+00) (85, 8.14462566375732421875e+00) (86, 5.33184862136840820312e+00) (87, 3.60207748413085937500e+00) (88, 8.02552223205566406250e+00) (89, -1.43357050418853759766e+00) (90, 9.65100002288818359375e+00) (91, 4.66474246978759765625e+00) (92, 1.43759870529174804688e+01) (93, 4.43969917297363281250e+00) (94, -2.16633739471435546875e+01) (95, -1.20834341049194335938e+01) (96, 4.47403573989868164062e+00) (97, 7.00047397613525390625e+00) (98, 7.99651479721069335938e+00) (99, 7.84885787963867187500e+00) (100, 7.36172246932983398438e+00) (101, 7.70607662200927734375e+00) (102, 1.68858909606933593750e+01) (103, -1.70662174224853515625e+01) (104, 1.05344457626342773438e+01) (105, 4.39019966125488281250e+01) (106, 7.71789703369140625000e+01) (107, 4.88843955993652343750e+01) (108, 3.08903503417968750000e+02) (109, 1.19914819335937500000e+03) (110, 3.03280391693115234375e+01) (111, 3.97073822021484375000e+02) (112, 7.66240997314453125000e+01) (113, 2.46121387481689453125e+01) (114, 2.40086097717285156250e+01) (115, 3.14372196197509765625e+01) (116, 1.19184875488281250000e+02) (117, 1.25653976440429687500e+02) (118, -9.90359252929687500000e+02) (119, 2.56016769409179687500e+01) (120, 1.40996065139770507812e+01) (121, 1.28972921371459960938e+01) (122, 1.04332551956176757812e+01) (123, -1.08522243499755859375e+01) (124, 4.07621097564697265625e+00) (125, 7.25536584854125976562e+00) (126, -7.79575061798095703125e+00) (127, 5.82097959518432617188e+00) (128, 5.64084196090698242188e+00) (129, 5.86271047592163085938e+00) (130, -1.38340783119201660156e+00) (131, 6.86752080917358398438e+00) (132, 6.88263845443725585938e+00) (133, 3.26979160308837890625e+00) (134, 1.11478128433227539062e+01) (135, 1.29602985382080078125e+01) (136, 1.12056179046630859375e+01) (137, -9.82312107086181640625e+00) (138, 7.81678152084350585938e+00) (139, 1.63765029907226562500e+01) (140, 7.25717258453369140625e+00) (141, 8.14853477478027343750e+00) (142, 1.01835708618164062500e+01) (143, 9.98874664306640625000e+00) (144, 2.84132629394531250000e+02) (145, 6.66884231567382812500e+00) (146, 3.80262985229492187500e+01) (147, 7.33338451385498046875e+00) (148, 6.83766126632690429688e+00) (149, 8.17812156677246093750e+00) (150, 7.86746454238891601562e+00) (151, 7.95737695693969726562e+00) (152, 8.18706226348876953125e+00) (153, 7.93910169601440429688e+00) (154, 7.73854589462280273438e+00) (155, 7.94275903701782226562e+00) (156, 7.96901702880859375000e+00) (157, 8.59230041503906250000e+00) (158, 7.80772256851196289062e+00) (159, 7.68270111083984375000e+00) (160, 7.82695055007934570312e+00) (161, 7.79648828506469726562e+00) (162, 7.60682010650634765625e+00) (163, 7.75863933563232421875e+00) (164, 7.85052013397216796875e+00) (165, 7.35728359222412109375e+00) (166, 7.27128887176513671875e+00) (167, 7.22150278091430664062e+00) (168, 7.14447164535522460938e+00) (169, 7.28882408142089843750e+00) (170, 7.81022167205810546875e+00) (171, 7.81619691848754882812e+00) (172, 7.91005039215087890625e+00) (173, 7.44424343109130859375e+00) (174, 8.56287956237792968750e+00) (175, 7.93192338943481445312e+00) (176, 8.57711601257324218750e+00) (177, 8.59954261779785156250e+00) (178, 8.59742832183837890625e+00) (179, 7.97828483581542968750e+00) (180, 8.72678470611572265625e+00) (181, 8.55329799652099609375e+00) (182, 7.86413908004760742188e+00) (183, 8.64407253265380859375e+00) (184, 7.94285297393798828125e+00) (185, 7.87483453750610351562e+00) (186, 7.94415855407714843750e+00) (187, 8.65344715118408203125e+00) (188, 8.48548984527587890625e+00) (189, 8.58413600921630859375e+00) (190, 7.84822797775268554688e+00) (191, 7.90760564804077148438e+00) (192, 7.93088340759277343750e+00) (193, 7.80730342864990234375e+00) (194, 7.96944427490234375000e+00) (195, 7.82406187057495117188e+00) (196, 7.84214305877685546875e+00) (197, 7.82929563522338867188e+00) (198, 7.91995382308959960938e+00) (199, 8.00637435913085937500e+00) (200, 8.00981712341308593750e+00) (201, 7.87749290466308593750e+00) (202, 7.79585838317871093750e+00) (203, 1.50000000000000000000e+03) (204, -1.27351951599121093750e+00) (0, -1.97683310508728027344e+00) (1, -1.96433269977569580078e+00) (2, -6.89314305782318115234e-01) (3, -8.05457413196563720703e-01) (4, -1.70582818984985351562e+00) (5, -2.62946438789367675781e+00) (6, -7.20710992813110351562e-01) (7, -1.67005109786987304688e+00) (8, -1.56988847255706787109e+00) (9, -7.66128301620483398438e-01) (10, -1.93625521659851074219e+00) (11, -1.60668790340423583984e+00) (12, -8.37190210819244384766e-01) (13, -7.33770430088043212891e-01) (14, -6.49119615554809570312e-01) (15, -1.92926120758056640625e+00) (16, -5.89472591876983642578e-01) (17, -1.96219813823699951172e+00) (18, -1.85317015647888183594e+00) (19, -8.31671237945556640625e-01) (20, -6.94346249103546142578e-01) (21, -7.47480034828186035156e-01) (22, -7.56513535976409912109e-01) (23, -1.91503238677978515625e+00) (24, -6.94282054901123046875e-01) (25, -1.82452166080474853516e+00) (26, -6.35881364345550537109e-01) (27, -1.61124062538146972656e+00) (28, -7.22137093544006347656e-01) (29, -7.94133663177490234375e-01) (30, -6.36496245861053466797e-01) (31, -7.74763762950897216797e-01) (32, -8.18473637104034423828e-01) (33, -6.16020560264587402344e-01) (34, -1.75945127010345458984e+00) (35, -2.51965188980102539062e+00) (36, -5.83450913429260253906e-01) (37, -6.91029071807861328125e-01) (38, -2.49580645561218261719e+00) (39, -6.83604180812835693359e-01) (40, -6.61221385002136230469e-01) (41, -1.70199871063232421875e+00) (42, -1.67418217658996582031e+00) (43, -1.70412313938140869141e+00) (44, -6.71966433525085449219e-01) (45, -1.79113042354583740234e+00) (46, -7.08348453044891357422e-01) (47, -1.76138985157012939453e+00) (48, -1.63525807857513427734e+00) (49, -6.43073260784149169922e-01) (50, -2.70611429214477539062e+00) (51, -1.17648041248321533203e+00) (52, -4.85597848892211914062e-01) (53, -1.86747312545776367188e+00) (54, -2.54429745674133300781e+00) (55, -1.75771176815032958984e+00) (56, -1.88502979278564453125e+00) (57, -1.52483117580413818359e+00) (58, 4.72130727767944335938e+00) (59, -1.56682598590850830078e+00) (60, -1.07553851604461669922e+00) (61, 6.01279067993164062500e+00) (62, -2.19741392135620117188e+00) (63, 3.00119638442993164062e+00) (64, 2.56561374664306640625e+00) (65, 3.56819224357604980469e+00) (66, 2.45183253288269042969e+00) (67, 4.54969835281372070312e+00) (68, 4.62729215621948242188e+00) (69, 4.67198038101196289062e+00) (70, -6.28238320350646972656e-01) (71, 1.09660589694976806641e+00) (72, 9.05494630336761474609e-01) (73, -6.22987091541290283203e-01) (74, 7.30294525623321533203e-01) (75, 3.46407580375671386719e+00) (76, 1.88442051410675048828e+00) (77, 7.73899495601654052734e-01) (78, -3.03950238227844238281e+00) (79, -1.66243231296539306641e+00) (80, 1.21314251422882080078e+00) (81, -2.35627603530883789062e+00) (82, -4.50401639938354492188e+00) (83, 6.14457225799560546875e+00) (84, 2.53527671098709106445e-01) (85, 4.52794694900512695312e+00) (86, -2.93740224838256835938e+00) (87, 2.81602573394775390625e+00) (88, 2.77754759788513183594e+00) (89, 9.60019397735595703125e+00) (90, 4.40671110153198242188e+00) (91, 1.54043781757354736328e+00) (92, -5.29111206531524658203e-01) (93, 2.28373080492019653320e-01) (94, -4.10289192199707031250e+00) (95, 1.12320557236671447754e-01) (96, -3.83395695686340332031e+00) (97, 3.62133908271789550781e+00) (98, 4.19794178009033203125e+00) (99, 7.43535852432250976562e+00) (100, 8.18625545501708984375e+00) (101, 1.12798237800598144531e+00) (102, 9.88003444671630859375e+00) (103, 1.66393315792083740234e+00) (104, 2.82212615013122558594e+00) (105, 7.51252079010009765625e+00) (106, 6.84232187271118164062e+00) (107, -1.64329040050506591797e+00) (108, 8.61848068237304687500e+00) (109, -7.19114065170288085938e-01) (110, -2.24767804145812988281e+00) (111, 6.43583774566650390625e-01) (112, 1.24053013324737548828e+00) (113, -4.46843728423118591309e-02) (114, 9.06592750549316406250e+00) (115, -2.93675041198730468750e+00) (116, 3.32204127311706542969e+00) (117, 3.26196885108947753906e+00) (118, -7.19499397277832031250e+00) (119, -1.45091414451599121094e-01) (120, 4.23285865783691406250e+00) (121, -8.29154396057128906250e+00) (122, 3.73783135414123535156e+00) (123, 1.85025727748870849609e+00) (124, 5.95166146755218505859e-01) (125, -2.14676642417907714844e+00) (126, 7.23906230926513671875e+00) (127, -5.23721337318420410156e-01) (128, 5.04522562026977539062e+00) (129, -2.40281319618225097656e+00) (130, 2.28531336784362792969e+00) (131, 6.67334222793579101562e+00) (132, -1.29329049587249755859e+00) (133, -2.70426654815673828125e+00) (134, 1.57299554347991943359e+00) (135, -4.30756270885467529297e-01) (136, -1.55042994022369384766e+00) (137, -2.42157649993896484375e+00) (138, 3.06976938247680664062e+00) (139, -2.55690169334411621094e+00) (140, 4.22819423675537109375e+00) (141, 3.82986873388290405273e-01) (142, 6.12737274169921875000e+00) (143, -2.20856380462646484375e+00) (144, -3.10069143772125244141e-01) (145, 8.36597442626953125000e+00) (146, -3.16051697731018066406e+00) (147, -3.27906322479248046875e+00) (148, 4.61293131113052368164e-01) (149, -3.20331430435180664062e+00) (150, -8.98755311965942382812e-01) (151, -3.17464065551757812500e+00) (152, -6.38384401798248291016e-01) (153, 3.16339778900146484375e+00) (154, -3.12360572814941406250e+00) (155, -5.33379852771759033203e-01) (156, 2.54309082031250000000e+00) (157, 3.89769387245178222656e+00) (158, -9.03057515621185302734e-01) (159, -1.03165769577026367188e+00) (160, 2.50293850898742675781e+00) (161, 2.39518094062805175781e+00) (162, 2.41222429275512695312e+00) (163, -2.83171415328979492188e+00) (164, 6.98437166213989257812e+00) (165, -2.86389565467834472656e+00) (166, 3.48778915405273437500e+00) (167, 7.01070213317871093750e+00) (168, 5.98928308486938476562e+00) (169, -1.74909222126007080078e+00) (170, 6.23828029632568359375e+00) (171, 2.41336202621459960938e+00) (172, 3.56712961196899414062e+00) (173, 3.36181879043579101562e+00) (174, -2.95054316520690917969e+00) (175, 3.52342677116394042969e+00) (176, 3.40150856971740722656e+00) (177, -1.75404310226440429688e+00) (178, -2.95167946815490722656e+00) (179, -2.64901947975158691406e+00) (180, -2.94601941108703613281e+00) (181, 3.60641169548034667969e+00) (182, -2.66681623458862304688e+00) (183, -2.85192894935607910156e+00) (184, -2.88621592521667480469e+00) (185, -1.72842073440551757812e+00) (186, -2.85771274566650390625e+00) (187, -2.82100749015808105469e+00) (188, -1.58125710487365722656e+00) (189, -2.73825001716613769531e+00) (190, -2.81576633453369140625e+00) (191, -1.81863963603973388672e+00) (192, -2.79364466667175292969e+00) (193, -2.80652832984924316406e+00) (194, -2.87630319595336914062e+00) (195, -2.73171138763427734375e+00) (196, -2.67105770111083984375e+00) (197, -2.76795578002929687500e+00) (198, -2.79351735115051269531e+00) (199, -2.80171227455139160156e+00) (200, -2.96841335296630859375e+00) (201, -2.73422288894653320312e+00) (202, -2.82216954231262207031e+00) (203, 1.50000000000000000000e+03) (204, 8.31630039215087890625e+00) (0, 1.88764321804046630859e+00) (1, 1.83416235446929931641e+00) (2, -2.97471862286329269409e-02) (3, 1.85312926769256591797e+00) (4, 1.87296712398529052734e+00) (5, 2.42348289489746093750e+00) (6, 1.84101545810699462891e+00) (7, 1.82392108440399169922e+00) (8, 1.92779815196990966797e+00) (9, 1.82744324207305908203e+00) (10, 1.83056056499481201172e+00) (11, -4.45642545819282531738e-02) (12, 1.88358962535858154297e+00) (13, 2.27188801765441894531e+00) (14, 1.92976629734039306641e+00) (15, -1.37741476297378540039e-01) (16, 2.27733588218688964844e+00) (17, -1.50630235671997070312e-01) (18, -5.60879819095134735107e-02) (19, 1.83023893833160400391e+00) (20, -4.51090224087238311768e-02) (21, 1.82339489459991455078e+00) (22, -3.37138772010803222656e-02) (23, -9.38043072819709777832e-02) (24, -1.70978516340255737305e-01) (25, -4.80834767222404479980e-02) (26, -1.77123978734016418457e-01) (27, -5.63428178429603576660e-02) (28, 1.93713700771331787109e+00) (29, -9.53836143016815185547e-02) (30, 4.73598003387451171875e+00) (31, 2.85771226882934570312e+00) (32, -2.91995048522949218750e+00) (33, -2.94559979438781738281e+00) (34, 1.32573318481445312500e+00) (35, 1.48900008201599121094e+00) (36, 3.04477882385253906250e+00) (37, 1.18926072120666503906e+00) (38, 1.38494396209716796875e+00) (39, 3.04672670364379882812e+00) (40, 6.05009508132934570312e+00) (41, 3.82309287786483764648e-01) (42, 1.65280413627624511719e+00) (43, 2.95136427879333496094e+00) (44, 4.76298719644546508789e-01) (45, 3.27906894683837890625e+00) (46, -2.69895482063293457031e+00) (47, 5.31127452850341796875e-01) (48, -1.62983179092407226562e+00) (49, 8.44649970531463623047e-01) (50, 4.93957325816154479980e-02) (51, 5.39053869247436523438e+00) (52, 4.18633550405502319336e-01) (53, -2.90494036674499511719e+00) (54, 6.06366813182830810547e-01) (55, 1.66208183765411376953e+00) (56, -2.60334515571594238281e+00) (57, 2.82525444030761718750e+00) (58, -6.18909537792205810547e-01) (59, -1.04975318908691406250e+00) (60, -1.11617696285247802734e+00) (61, -2.66529726982116699219e+00) (62, -3.51213186979293823242e-01) (63, -4.53522682189941406250e+00) (64, -1.91325223445892333984e+00) (65, -2.49571657180786132812e+00) (66, -3.09264874458312988281e+00) (67, -9.17374372482299804688e-01) (68, -3.75219130516052246094e+00) (69, 2.08868217468261718750e+00) (70, -2.73532652854919433594e+00) (71, 1.86586368083953857422e+00) (72, 1.66618955135345458984e+00) (73, 1.43317854404449462891e+00) (74, -2.47157359123229980469e+00) (75, 4.58686530590057373047e-01) (76, -2.61110329627990722656e+00) (77, -1.16325020790100097656e+00) (78, 1.01406657695770263672e+00) (79, 4.29026037454605102539e-01) (80, -2.14664483070373535156e+00) (81, -1.01268303394317626953e+00) (82, -2.14551639556884765625e+00) (83, 7.61162042617797851562e-01) (84, 1.38684427738189697266e+00) (85, 1.48391532897949218750e+00) (86, 2.73758202791213989258e-01) (87, -1.28450262546539306641e+00) (88, 1.98951268196105957031e+00) (89, -1.63936901092529296875e+00) (90, 8.06572139263153076172e-02) (91, -4.51122713088989257812e+00) (92, 1.84508216381072998047e+00) (93, 3.83903384208679199219e+00) (94, 1.89284574985504150391e+00) (95, 1.93911635875701904297e+00) (96, -2.98994731903076171875e+00) (97, -4.02695035934448242188e+00) (98, -3.55466747283935546875e+00) (99, -5.85272836685180664062e+00) (100, -1.05877637863159179688e+00) (101, -2.48834133148193359375e+00) (102, 4.46852207183837890625e+00) (103, 4.84481620788574218750e+00) (104, -2.45283007621765136719e+00) (105, 2.69328904151916503906e+00) (106, -9.31489691138267517090e-02) (107, 3.82420372962951660156e+00) (108, -3.78401374816894531250e+00) (109, -7.25324964523315429688e+00) (110, -1.40865468978881835938e+00) (111, -2.22066974639892578125e+00) (112, 1.85475540161132812500e+00) (113, -3.97408962249755859375e-01) (114, -1.22312903404235839844e+00) (115, -1.97741174697875976562e+00) (116, -4.42303037643432617188e+00) (117, -9.47502851486206054688e-01) (118, -1.88297438621520996094e+00) (119, 2.39571523666381835938e+00) (120, 2.21670913696289062500e+00) (121, 3.75111699104309082031e+00) (122, 3.69628214836120605469e+00) (123, 3.48908972740173339844e+00) (124, -1.22440624237060546875e+00) (125, 1.19482791423797607422e+00) (126, 7.84534752368927001953e-01) (127, -1.80771148204803466797e+00) (128, -8.92301917076110839844e-01) (129, -3.47023892402648925781e+00) (130, -4.67928707599639892578e-01) (131, 6.74032688140869140625e-01) (132, 1.76825273036956787109e+00) (133, -2.52663791179656982422e-01) (134, -1.18207752704620361328e+00) (135, -7.15399265289306640625e-01) (136, 1.83573782444000244141e+00) (137, -3.20117354393005371094e+00) (138, 3.43395441770553588867e-01) (139, -1.55491435527801513672e+00) (140, -2.23348426818847656250e+00) (141, 9.98433828353881835938e-01) (142, -6.20540082454681396484e-02) (143, -8.80968570709228515625e-01) (144, -2.96121835708618164062e+00) (145, 9.42643105983734130859e-01) (146, 1.17078161239624023438e+00) (147, -1.26722276210784912109e+00) (148, 2.42846786975860595703e-01) (149, -1.32430636882781982422e+00) (150, 7.99169838428497314453e-01) (151, 5.21773004531860351562e+00) (152, -2.47919845581054687500e+00) (153, 3.28996086120605468750e+00) (154, 3.22027969360351562500e+00) (155, 6.57863616943359375000e-01) (156, -2.16288161277770996094e+00) (157, -1.54242217540740966797e+00) (158, -3.72461557388305664062e+00) (159, -1.20244860649108886719e+00) (160, -2.28167533874511718750e+00) (161, -2.66178703308105468750e+00) (162, -1.27601861953735351562e-01) (163, -3.18030881881713867188e+00) (164, -3.07564020156860351562e+00) (165, -2.81828570365905761719e+00) (166, 1.77986514568328857422e+00) (167, -1.07695746421813964844e+00) (168, -1.19676971435546875000e+00) (169, 2.21405252814292907715e-01) (170, 2.07670474052429199219e+00) (171, 4.04808491468429565430e-01) (172, 1.96471893787384033203e+00) (173, 3.83512473106384277344e+00) (174, -3.03377771377563476562e+00) (175, 3.65065646171569824219e+00) (176, -1.14072239398956298828e+00) (177, -1.19069194793701171875e+00) (178, -1.03700852394104003906e+00) (179, 3.55282974243164062500e+00) (180, -2.61674141883850097656e+00) (181, 1.81597697734832763672e+00) (182, -8.47873210906982421875e-01) (183, -2.94708275794982910156e+00) (184, 3.69617581367492675781e+00) (185, 3.62813925743103027344e+00) (186, -8.43494310975074768066e-02) (187, -5.78344613313674926758e-02) (188, -2.94041800498962402344e+00) (189, 1.97834956645965576172e+00) (190, 1.84280788898468017578e+00) (191, -2.93930912017822265625e+00) (192, 3.52800297737121582031e+00) (193, -1.19200646877288818359e+00) (194, -1.25736057758331298828e+00) (195, -3.02922916412353515625e+00) (196, -2.95313358306884765625e+00) (197, -1.22726547718048095703e+00) (198, -2.94287753105163574219e+00) (199, -2.90991616249084472656e+00) (200, -2.91881990432739257812e+00) (201, -3.04632544517517089844e+00) (202, -3.01094651222229003906e+00) (203, 1.50000000000000000000e+03) (204, 4.51656293869018554688e+00) (0, -2.37915873527526855469e+00) (1, -2.36005854606628417969e+00) (2, -2.34874105453491210938e+00) (3, -2.32804799079895019531e+00) (4, -2.27369928359985351562e+00) (5, -2.12744307518005371094e+00) (6, -2.44459915161132812500e+00) (7, -2.33879256248474121094e+00) (8, -2.27750325202941894531e+00) (9, -2.30213785171508789062e+00) (10, -2.35755896568298339844e+00) (11, -2.47785925865173339844e+00) (12, -2.44445729255676269531e+00) (13, -1.35025072097778320312e+00) (14, -2.37739920616149902344e+00) (15, -2.36099338531494140625e+00) (16, -2.19763755798339843750e+00) (17, -2.35498857498168945312e+00) (18, -2.28495788574218750000e+00) (19, -2.30704665184020996094e+00) (20, -2.21080851554870605469e+00) (21, -2.30030059814453125000e+00) (22, -2.39991569519042968750e+00) (23, -2.26906228065490722656e+00) (24, -2.88253355026245117188e+00) (25, -2.81297564506530761719e+00) (26, -2.96342921257019042969e+00) (27, -2.93318724632263183594e+00) (28, -2.34604859352111816406e+00) (29, -2.67381572723388671875e+00) (30, -2.31499433517456054688e+00) (31, -2.89675188064575195312e+00) (32, -2.96052098274230957031e+00) (33, -3.18502211570739746094e+00) (34, -2.99282670021057128906e+00) (35, -2.91099882125854492188e+00) (36, -2.97212386131286621094e+00) (37, -2.84874963760375976562e+00) (38, -2.91121816635131835938e+00) (39, -3.07229018211364746094e+00) (40, -2.98695111274719238281e+00) (41, -3.22408390045166015625e+00) (42, -2.98846650123596191406e+00) (43, 3.57097625732421875000e+00) (44, -3.02064681053161621094e+00) (45, 1.94731891155242919922e+00) (46, 1.88098227977752685547e+00) (47, 1.92341649532318115234e+00) (48, -3.05559587478637695312e+00) (49, 9.29273441433906555176e-02) (50, -1.68326962739229202271e-02) (51, 6.45861959457397460938e+00) (52, -4.50939941406250000000e+00) (53, 2.79612183570861816406e+00) (54, -3.49058747291564941406e+00) (55, 1.40955996513366699219e+00) (56, 1.35437834262847900391e+00) (57, 1.56158199310302734375e+01) (58, 1.88754594326019287109e+00) (59, 7.49516344070434570312e+00) (60, 2.08626317977905273438e+00) (61, -3.10788488388061523438e+00) (62, -2.98011803627014160156e+00) (63, 9.11708450317382812500e+00) (64, 8.31845760345458984375e+00) (65, 2.15202116966247558594e+00) (66, 8.21340084075927734375e+00) (67, 2.27206254005432128906e+00) (68, 8.35641098022460937500e+00) (69, -1.84555339813232421875e+00) (70, 1.97258841991424560547e+00) (71, -2.15384364128112792969e+00) (72, 2.53684854507446289062e+00) (73, -2.75895285606384277344e+00) (74, 7.03138351440429687500e+00) (75, 1.94251048564910888672e+00) (76, 3.08593845367431640625e+00) (77, -3.26548838615417480469e+00) (78, -8.40122848749160766602e-02) (79, 5.54470539093017578125e+00) (80, 2.02716712951660156250e+01) (81, 2.87050437927246093750e+00) (82, 6.92965412139892578125e+00) (83, 1.20983180999755859375e+01) (84, 9.84213829040527343750e+00) (85, 7.73044443130493164062e+00) (86, 7.00339174270629882812e+00) (87, -1.35053908824920654297e+00) (88, 3.53533984161913394928e-03) (89, -5.50944471359252929688e+00) (90, 2.54982995986938476562e+00) (91, -1.30819892883300781250e+00) (92, 8.56083583831787109375e+00) (93, 2.11290874481201171875e+01) (94, 2.06003570556640625000e+00) (95, 1.75395810604095458984e+00) (96, 3.88478112220764160156e+00) (97, 1.08439318835735321045e-01) (98, 2.98455500602722167969e+00) (99, 8.55389499664306640625e+00) (100, 2.07059359550476074219e+00) (101, 8.88483047485351562500e+00) (102, -2.85323762893676757812e+00) (103, -2.86516547203063964844e+00) (104, 8.75286388397216796875e+00) (105, 1.32405138015747070312e+01) (106, 8.93530750274658203125e+00) (107, 8.22947788238525390625e+00) (108, 1.07106695175170898438e+01) (109, 6.22856199741363525391e-01) (110, -4.55496883392333984375e+00) (111, -2.13076567649841308594e+00) (112, -5.41145467758178710938e+00) (113, 3.74737071990966796875e+00) (114, 2.21162867546081542969e+00) (115, 2.18369340896606445312e+00) (116, -2.46800348162651062012e-01) (117, 9.22000694274902343750e+00) (118, 6.91726112365722656250e+00) (119, 2.06800889968872070312e+00) (120, 6.94140386581420898438e+00) (121, 3.63387322425842285156e+00) (122, -8.59048187732696533203e-01) (123, 2.47699642181396484375e+00) (124, 1.39138352870941162109e+00) (125, 5.27780151367187500000e+00) (126, 1.39285314083099365234e+00) (127, 4.77264165878295898438e+00) (128, 1.34865331649780273438e+00) (129, 6.24883031845092773438e+00) (130, 5.80161666870117187500e+00) (131, 2.56420183181762695312e+00) (132, 9.09154701232910156250e+00) (133, 2.48758459091186523438e+00) (134, 1.00004100799560546875e+01) (135, 6.37595939636230468750e+00) (136, 8.37755978107452392578e-01) (137, 4.65494441986083984375e+00) (138, 5.65659427642822265625e+00) (139, -3.87004685401916503906e+00) (140, -2.33005928993225097656e+00) (141, 6.13689565658569335938e+00) (142, -2.53372693061828613281e+00) (143, -2.86696147918701171875e+00) (144, 2.75068330764770507812e+00) (145, 2.54601192474365234375e+00) (146, 2.21183013916015625000e+00) (147, 6.72834515571594238281e-01) (148, 4.00048685073852539062e+00) (149, 3.42304325103759765625e+00) (150, -2.88420248031616210938e+00) (151, -2.69532966613769531250e+00) (152, 4.08567857742309570312e+00) (153, -2.95113062858581542969e+00) (154, -2.74514031410217285156e+00) (155, 2.44609785079956054688e+00) (156, 3.45816683769226074219e+00) (157, 2.51194262504577636719e+00) (158, -2.70061397552490234375e+00) (159, -2.72108078002929687500e+00) (160, -2.93400287628173828125e+00) (161, -2.97629570960998535156e+00) (162, -1.91932880878448486328e+00) (163, -2.72059917449951171875e+00) (164, -2.84252977371215820312e+00) (165, -3.00157928466796875000e+00) (166, -3.01854109764099121094e+00) (167, -3.12401056289672851562e+00) (168, -2.98343133926391601562e+00) (169, -2.94832873344421386719e+00) (170, -2.86399817466735839844e+00) (171, -2.98198175430297851562e+00) (172, -2.85052561759948730469e+00) (173, -2.89193272590637207031e+00) (174, -2.84082603454589843750e+00) (175, -2.85239267349243164062e+00) (176, -2.92670369148254394531e+00) (177, -2.91393423080444335938e+00) (178, -2.90354061126708984375e+00) (179, -2.99284005165100097656e+00) (180, -2.92680239677429199219e+00) (181, -2.95987200736999511719e+00) (182, -2.91035676002502441406e+00) (183, -2.84538698196411132812e+00) (184, -2.89891791343688964844e+00) (185, -2.99439907073974609375e+00) (186, -2.90816068649291992188e+00) (187, -2.91151404380798339844e+00) (188, -2.83714699745178222656e+00) (189, -2.89957880973815917969e+00) (190, -2.94157218933105468750e+00) (191, -2.84718275070190429688e+00) (192, -2.90898823738098144531e+00) (193, -2.84299135208129882812e+00) (194, -2.97168374061584472656e+00) (195, -2.97010684013366699219e+00) (196, -2.87467885017395019531e+00) (197, -2.95291757583618164062e+00) (198, -2.43257594108581542969e+00) (199, -2.94013404846191406250e+00) (200, -2.84523916244506835938e+00) (201, -2.38473510742187500000e+00) (202, -2.38953089714050292969e+00) (203, 1.50000000000000000000e+03) (204, 8.90412521362304687500e+00) (0, -2.95101952552795410156e+00) (1, -2.88094162940979003906e+00) (2, -1.23665499687194824219e+00) (3, -2.74792408943176269531e+00) (4, -2.72583365440368652344e+00) (5, 3.52507090568542480469e+00) (6, -2.93971323966979980469e+00) (7, -2.75351881980895996094e+00) (8, 2.40921926498413085938e+00) (9, -2.89958381652832031250e+00) (10, -2.79860281944274902344e+00) (11, 2.52825117111206054688e+00) (12, -2.80381202697753906250e+00) (13, -2.74045228958129882812e+00) (14, 2.43306541442871093750e+00) (15, -2.73893189430236816406e+00) (16, 2.35603618621826171875e+00) (17, 2.44558548927307128906e+00) (18, 4.13818597793579101562e+00) (19, -1.05904579162597656250e+00) (20, -1.03826320171356201172e+00) (21, -2.92181086540222167969e+00) (22, 2.42327046394348144531e+00) (23, -1.11552989482879638672e+00) (24, -9.67458009719848632812e-01) (25, 4.25388860702514648438e+00) (26, -1.21843481063842773438e+00) (27, -1.05409383773803710938e+00) (28, -1.03240454196929931641e+00) (29, 4.19775629043579101562e+00) (30, -2.84303927421569824219e+00) (31, -5.39208054542541503906e-01) (32, -2.25325012207031250000e+00) (33, -1.13565754890441894531e+00) (34, 1.68626189231872558594e+00) (35, -4.12780141830444335938e+00) (36, 7.31342673301696777344e-01) (37, 4.89925289154052734375e+00) (38, -1.69809269905090332031e+00) (39, 2.25832557678222656250e+00) (40, 4.74633169174194335938e+00) (41, 2.70302534103393554688e-01) (42, 1.30275249481201171875e+00) (43, -2.69675612449645996094e+00) (44, 5.48200941085815429688e+00) (45, -1.40872335433959960938e+00) (46, 3.17762494087219238281e-01) (47, 3.36899852752685546875e+00) (48, 1.00898909568786621094e+00) (49, -8.00789177417755126953e-01) (50, -4.43297052383422851562e+00) (51, 3.50203216075897216797e-01) (52, 5.02754354476928710938e+00) (53, -2.09164881706237792969e+00) (54, 1.43195140361785888672e+00) (55, -2.36971616744995117188e+00) (56, -2.91620016098022460938e+00) (57, 1.53055834770202636719e+00) (58, 6.87922716140747070312e-01) (59, -5.08751953020691871643e-03) (60, 3.31732988357543945312e+00) (61, -3.88233447074890136719e+00) (62, 1.30776643753051757812e+00) (63, -1.16434526443481445312e+00) (64, 1.57107496261596679688e+00) (65, 3.29734539985656738281e+00) (66, -1.89422631263732910156e+00) (67, 6.44720315933227539062e-01) (68, -2.57623344659805297852e-01) (69, 4.12000846862792968750e+00) (70, -1.83418500423431396484e+00) (71, 4.26395225524902343750e+00) (72, -1.83382570743560791016e+00) (73, -2.85071182250976562500e+00) (74, -2.60198783874511718750e+00) (75, 4.28695726394653320312e+00) (76, -3.16629219055175781250e+00) (77, -6.12548971176147460938e+00) (78, -1.06619918346405029297e+00) (79, -1.22864866256713867188e+00) (80, -3.34443974494934082031e+00) (81, 1.10964560508728027344e+00) (82, 4.23650217056274414062e+00) (83, 2.56225156784057617188e+00) (84, -6.72787189483642578125e-01) (85, 2.13300609588623046875e+00) (86, -3.98881226778030395508e-01) (87, 1.68422102928161621094e+00) (88, 2.88844990730285644531e+00) (89, 4.20623731613159179688e+00) (90, 4.13516998291015625000e+00) (91, -1.21364727616310119629e-01) (92, 1.36866128444671630859e+00) (93, -9.36355769634246826172e-01) (94, -3.59192323684692382812e+00) (95, -4.38560009002685546875e+00) (96, 1.52503097057342529297e+00) (97, 1.18848552703857421875e+01) (98, -1.93398439884185791016e+00) (99, -1.87802183628082275391e+00) (100, 8.11966037750244140625e+00) (101, -2.06839442253112792969e+00) (102, -1.03716182708740234375e+01) (103, -1.59456384181976318359e+00) (104, 4.56479549407958984375e+00) (105, -2.27721405029296875000e+00) (106, -5.49067449569702148438e+00) (107, -4.47206878662109375000e+00) (108, -5.71363830566406250000e+00) (109, -1.50328183174133300781e+00) (110, -6.39425659179687500000e+00) (111, -7.20112419128417968750e+00) (112, 4.93783891201019287109e-01) (113, -1.31993114948272705078e+00) (114, -1.82406064122915267944e-02) (115, -9.73799884319305419922e-01) (116, -5.52525743842124938965e-02) (117, -2.10635709762573242188e+00) (118, 2.60055613517761230469e+00) (119, 1.93327808380126953125e+00) (120, 3.26131176948547363281e+00) (121, 4.21150255203247070312e+00) (122, 5.28815537691116333008e-02) (123, 9.15682315826416015625e-01) (124, 1.07975804805755615234e+00) (125, 7.28242993354797363281e-01) (126, -1.46950888633728027344e+00) (127, 2.19218820333480834961e-01) (128, 3.45999622344970703125e+00) (129, -2.04140973091125488281e+00) (130, -4.95284110307693481445e-01) (131, -3.07602000236511230469e+00) (132, 7.71722614765167236328e-01) (133, 5.67651689052581787109e-01) (134, 1.76356875896453857422e+00) (135, -7.61665165424346923828e-01) (136, -3.45260882377624511719e+00) (137, -4.45550775527954101562e+00) (138, 7.03568458557128906250e-01) (139, 2.49764180183410644531e+00) (140, 1.34576290845870971680e-01) (141, 2.34323453903198242188e+00) (142, -3.34280204772949218750e+00) (143, -1.09416151046752929688e+00) (144, -1.59221875667572021484e+00) (145, -2.98235368728637695312e+00) (146, 3.67739439010620117188e+00) (147, 2.27906131744384765625e+00) (148, -3.35499954223632812500e+00) (149, -6.14101696014404296875e+00) (150, 1.01193571090698242188e+00) (151, -1.24617588520050048828e+00) (152, 3.88920116424560546875e+00) (153, -1.83739766478538513184e-01) (154, 1.79452560842037200928e-02) (155, 4.77793550491333007812e+00) (156, -2.36353445053100585938e+00) (157, 6.85867738723754882812e+00) (158, 3.70476102828979492188e+00) (159, 2.29452729225158691406e+00) (160, 5.46516132354736328125e+00) (161, -1.81369945406913757324e-01) (162, -2.42230728268623352051e-01) (163, -3.01864445209503173828e-01) (164, -2.36875462532043457031e+00) (165, -1.70623373985290527344e+00) (166, 1.48584914207458496094e+00) (167, -1.05841353535652160645e-01) (168, -1.24360762536525726318e-01) (169, -2.71971344947814941406e+00) (170, -1.16782695055007934570e-01) (171, -2.92448139190673828125e+00) (172, -7.65527039766311645508e-02) (173, 1.44561856985092163086e-01) (174, -1.10183858871459960938e+00) (175, -2.80244803428649902344e+00) (176, 8.47609713673591613770e-02) (177, -9.96301114559173583984e-01) (178, -2.84987401962280273438e+00) (179, -7.32969641685485839844e-01) (180, -1.05074584484100341797e+00) (181, -2.84738755226135253906e+00) (182, -1.02892947196960449219e+00) (183, 4.13641309738159179688e+00) (184, -1.42483115196228027344e+00) (185, -9.84244525432586669922e-01) (186, -1.63287889957427978516e+00) (187, 4.16407012939453125000e+00) (188, 4.21018552780151367188e+00) (189, 4.21942567825317382812e+00) (190, 3.72057342529296875000e+00) (191, 7.32628488540649414062e+00) (192, -1.10824501514434814453e+00) (193, -3.00677609443664550781e+00) (194, 2.83218007534742355347e-02) (195, 6.18375015258789062500e+00) (196, 4.23874950408935546875e+00) (197, -2.72254753112792968750e+00) (198, 1.75494670867919921875e+00) (199, 7.33425092697143554688e+00) (200, 2.00606393814086914062e+00) (201, 1.82836198806762695312e+00) (202, 1.69489288330078125000e+00) (203, 1.50000000000000000000e+03) (204, 6.61723613739013671875e+00) (0, 2.65424728393554687500e+00) (1, 2.64439344406127929688e+00) (2, 2.61660838127136230469e+00) (3, 2.60308814048767089844e+00) (4, 2.56492066383361816406e+00) (5, 2.60845780372619628906e+00) (6, 2.65412497520446777344e+00) (7, 2.51110410690307617188e+00) (8, 2.44602155685424804688e+00) (9, 2.61778831481933593750e+00) (10, 2.62892270088195800781e+00) (11, 2.40955853462219238281e+00) (12, 2.48753046989440917969e+00) (13, 2.54785847663879394531e+00) (14, 2.63534498214721679688e+00) (15, 2.54558801651000976562e+00) (16, 2.66072201728820800781e+00) (17, 2.61849021911621093750e+00) (18, 2.55947351455688476562e+00) (19, 2.61874556541442871094e+00) (20, 2.61483955383300781250e+00) (21, 2.55839133262634277344e+00) (22, 2.63754701614379882812e+00) (23, 2.53727722167968750000e+00) (24, 2.50350213050842285156e+00) (25, 2.52658939361572265625e+00) (26, 2.58140635490417480469e+00) (27, 2.58019804954528808594e+00) (28, 2.55701923370361328125e+00) (29, 2.50051546096801757812e+00) (30, 2.56594014167785644531e+00) (31, 2.49961924552917480469e+00) (32, 2.62409377098083496094e+00) (33, 2.51398921012878417969e+00) (34, 2.51969075202941894531e+00) (35, 2.62284731864929199219e+00) (36, 2.75052928924560546875e+00) (37, 2.70363998413085937500e+00) (38, 2.69198751449584960938e+00) (39, 2.68379497528076171875e+00) (40, 2.62352323532104492188e+00) (41, 2.65757441520690917969e+00) (42, 2.49488806724548339844e+00) (43, 2.67563533782958984375e+00) (44, 2.63110876083374023438e+00) (45, 2.72673606872558593750e+00) (46, 2.65336132049560546875e+00) (47, 2.84527325630187988281e+00) (48, 2.66678833961486816406e+00) (49, 2.95663976669311523438e+00) (50, 2.47520017623901367188e+00) (51, 2.80385684967041015625e+00) (52, 2.68481683731079101562e+00) (53, 2.62264800071716308594e+00) (54, 2.56522870063781738281e+00) (55, 2.73024916648864746094e+00) (56, 2.61489868164062500000e+00) (57, 3.09951496124267578125e+00) (58, 2.63280606269836425781e+00) (59, 2.93191647529602050781e+00) (60, 3.04385542869567871094e+00) (61, 2.95247364044189453125e+00) (62, 2.97379994392395019531e+00) (63, 2.78718566894531250000e+00) (64, -6.47853231430053710938e+00) (65, 2.41784787178039550781e+00) (66, 2.58898520469665527344e+00) (67, 2.81614923477172851562e+00) (68, -1.21970438957214355469e+00) (69, 3.97045040130615234375e+00) (70, 3.10428142547607421875e+00) (71, 6.13739633560180664062e+00) (72, 4.17190599441528320312e+00) (73, 4.71896028518676757812e+00) (74, 5.07618761062622070312e+00) (75, 5.41989660263061523438e+00) (76, 4.04735565185546875000e+00) (77, 6.65912723541259765625e+00) (78, 3.85007214546203613281e+00) (79, 3.68815469741821289062e+00) (80, 8.24773788452148437500e+00) (81, 3.35438895225524902344e+00) (82, 3.90453910827636718750e+00) (83, 8.10966300964355468750e+00) (84, 4.82990503311157226562e+00) (85, 6.98929166793823242188e+00) (86, 4.25375890731811523438e+00) (87, 5.65700626373291015625e+00) (88, 3.69947814941406250000e+00) (89, 5.03454637527465820312e+00) (90, 1.43581497669219970703e+00) (91, -1.37838399410247802734e+00) (92, 3.02530837059020996094e+00) (93, -7.37018823623657226562e+00) (94, -9.38888778686523437500e+01) (95, -4.21707267761230468750e+01) (96, -3.40628004074096679688e+00) (97, -5.83972501754760742188e+00) (98, -9.77838158607482910156e-01) (99, 7.84485340118408203125e+00) (100, 1.37638339996337890625e+01) (101, -3.77151412963867187500e+01) (102, 2.04161224365234375000e+01) (103, -3.46269683837890625000e+01) (104, -2.96987667083740234375e+01) (105, -1.70662724971771240234e+00) (106, -3.03479270935058593750e+01) (107, 5.49728759765625000000e+02) (108, 1.27218542480468750000e+03) (109, 1.50000000000000000000e+03) (110, 4.99965087890625000000e+02) (111, 1.41159851074218750000e+03) (112, 1.00910133361816406250e+02) (113, 5.85697975158691406250e+01) (114, 5.22771415710449218750e+01) (115, 2.72279663085937500000e+01) (116, -6.56066954135894775391e-01) (117, 1.47625589370727539062e+01) (118, -2.34691200256347656250e+01) (119, -2.83090648651123046875e+01) (120, 1.02629661560058593750e+01) (121, 1.18227043151855468750e+01) (122, 6.34948364257812500000e+02) (123, 3.19045200347900390625e+01) (124, -1.46045284271240234375e+01) (125, 3.64076209068298339844e+00) (126, 4.74766016006469726562e+00) (127, 2.99711155891418457031e+00) (128, 8.08930099010467529297e-02) (129, 4.35833692550659179688e+00) (130, 4.07491254806518554688e+00) (131, 3.28304743766784667969e+00) (132, 3.10326504707336425781e+00) (133, 3.58891987800598144531e+00) (134, 2.80824398994445800781e+00) (135, 2.67891979217529296875e+00) (136, 2.16415858268737792969e+00) (137, -6.45057916641235351562e-01) (138, -7.93394386768341064453e-01) (139, 5.41322565078735351562e+00) (140, -7.96613454818725585938e-01) (141, 2.98865509033203125000e+00) (142, 2.25921840667724609375e+01) (143, -6.58825218677520751953e-01) (144, 2.65124845504760742188e+00) (145, -5.67097246646881103516e-01) (146, 3.89079070091247558594e+00) (147, 1.49814283847808837891e+00) (148, 2.96188044548034667969e+00) (149, 2.70865297317504882812e+00) (150, -7.64352202415466308594e-01) (151, -8.21976006031036376953e-01) (152, -6.32682681083679199219e-01) (153, -5.32614409923553466797e-01) (154, 2.58173847198486328125e+00) (155, 3.44688630104064941406e+00) (156, -3.94391566514968872070e-01) (157, -6.22047245502471923828e-01) (158, -9.16120946407318115234e-01) (159, -8.40539932250976562500e-01) (160, -9.47076916694641113281e-01) (161, -8.63168716430664062500e-01) (162, 2.77417683601379394531e+00) (163, -9.09399151802062988281e-01) (164, -9.04509603977203369141e-01) (165, -8.89838159084320068359e-01) (166, 2.65887641906738281250e+00) (167, -9.88110482692718505859e-01) (168, 2.65216636657714843750e+00) (169, 2.52245974540710449219e+00) (170, 2.54532766342163085938e+00) (171, 2.54156136512756347656e+00) (172, 2.62584972381591796875e+00) (173, 2.47274637222290039062e+00) (174, 2.47190380096435546875e+00) (175, 2.57695150375366210938e+00) (176, 2.44061756134033203125e+00) (177, 2.51748347282409667969e+00) (178, 2.53047657012939453125e+00) (179, 2.58840680122375488281e+00) (180, 2.53562140464782714844e+00) (181, 2.57733702659606933594e+00) (182, 2.15229511260986328125e+00) (183, 2.53651690483093261719e+00) (184, 2.57497262954711914062e+00) (185, 2.21549201011657714844e+00) (186, 2.47661256790161132812e+00) (187, 2.41503620147705078125e+00) (188, 2.46843433380126953125e+00) (189, 2.47235441207885742188e+00) (190, 2.45418238639831542969e+00) (191, 2.43271470069885253906e+00) (192, 2.61340785026550292969e+00) (193, 2.62793374061584472656e+00) (194, 2.60520529747009277344e+00) (195, 2.51025414466857910156e+00) (196, 2.48634481430053710938e+00) (197, 2.56593346595764160156e+00) (198, 2.44565701484680175781e+00) (199, 2.53349518775939941406e+00) (200, 2.49932098388671875000e+00) (201, 2.56492209434509277344e+00) (202, 2.50240039825439453125e+00) (203, 1.50000000000000000000e+03) (204, 3.75385999679565429688e+00) (0, -2.79842519760131835938e+00) (1, -1.59567868709564208984e+00) (2, -2.61628079414367675781e+00) (3, -2.72938036918640136719e+00) (4, -1.67161154747009277344e+00) (5, -1.68588089942932128906e+00) (6, -1.63567233085632324219e+00) (7, -1.55324780941009521484e+00) (8, -2.74361205101013183594e+00) (9, -2.75603842735290527344e+00) (10, -2.78683209419250488281e+00) (11, 3.53386521339416503906e+00) (12, -2.61520481109619140625e+00) (13, -2.68337225914001464844e+00) (14, -2.68628573417663574219e+00) (15, -1.56065058708190917969e+00) (16, 2.47012710571289062500e+00) (17, 3.63694882392883300781e+00) (18, 3.67597174644470214844e+00) (19, 3.53332495689392089844e+00) (20, -2.75600242614746093750e+00) (21, -2.64335441589355468750e+00) (22, 2.49988961219787597656e+00) (23, -2.72448921203613281250e+00) (24, 2.43024015426635742188e+00) (25, 2.46132206916809082031e+00) (26, -2.78735065460205078125e+00) (27, 2.50267672538757324219e+00) (28, 2.41658878326416015625e+00) (29, 2.44258093833923339844e+00) (30, 2.59460425376892089844e+00) (31, -1.65962994098663330078e+00) (32, -2.77453064918518066406e+00) (33, 1.95571136474609375000e+00) (34, 2.52131652832031250000e+00) (35, 3.63130593299865722656e+00) (36, -2.71392703056335449219e+00) (37, 2.42248487472534179688e+00) (38, 2.47025680541992187500e+00) (39, -1.37793552875518798828e+00) (40, -2.75010061264038085938e+00) (41, 2.52688646316528320312e+00) (42, 2.53665709495544433594e+00) (43, -2.74990129470825195312e+00) (44, 2.49789309501647949219e+00) (45, 2.55639886856079101562e+00) (46, -2.71595835685729980469e+00) (47, 2.44671630859375000000e+00) (48, 2.48418450355529785156e+00) (49, -4.22522163391113281250e+00) (50, 2.58140826225280761719e+00) (51, 2.41797709465026855469e+00) (52, 1.94542407989501953125e-01) (53, -6.39593064785003662109e-01) (54, 5.49216985702514648438e+00) (55, 5.77000379562377929688e+00) (56, 4.35216093063354492188e+00) (57, 5.21157681941986083984e-01) (58, 2.41933202743530273438e+00) (59, 3.54356479644775390625e+00) (60, -4.09628033638000488281e-01) (61, 3.70281434059143066406e+00) (62, 1.17328047752380371094e+00) (63, 3.76363658905029296875e+00) (64, 3.17228698730468750000e+00) (65, 1.96036028861999511719e+00) (66, 2.19908142089843750000e+00) (67, 3.11783134937286376953e-01) (68, 1.43220472335815429688e+00) (69, 4.39427793025970458984e-01) (70, 3.60874438285827636719e+00) (71, -7.42736101150512695312e+00) (72, 1.68514132499694824219e+00) (73, 1.35738015174865722656e+00) (74, 6.01521015167236328125e+00) (75, 3.25972056388854980469e+00) (76, 7.17754650115966796875e+00) (77, 7.28183412551879882812e+00) (78, 7.48221778869628906250e+00) (79, 9.46846008300781250000e-01) (80, 7.31438636779785156250e+00) (81, 8.61174678802490234375e+00) (82, 9.83999252319335937500e+00) (83, 3.09222173690795898438e+00) (84, 3.74801063537597656250e+00) (85, 3.92316699028015136719e+00) (86, 2.48007559776306152344e+00) (87, -2.66647005081176757812e+00) (88, 1.01565790176391601562e+00) (89, -1.13452231884002685547e+00) (90, -2.02357053756713867188e+00) (91, -8.23498070240020751953e-01) (92, -9.37086582183837890625e+00) (93, -2.90939950942993164062e+00) (94, 6.12900781631469726562e+00) (95, -1.04842591285705566406e+00) (96, -1.97999262809753417969e+00) (97, -2.34490227699279785156e+00) (98, 2.60044860839843750000e+00) (99, 4.10299253463745117188e+00) (100, -3.34692907333374023438e+00) (101, -5.11741733551025390625e+00) (102, 2.64991426467895507812e+00) (103, -2.84213995933532714844e+00) (104, 3.30985760688781738281e+00) (105, 2.74157190322875976562e+00) (106, 1.41096878051757812500e+00) (107, 4.97925758361816406250e+00) (108, -1.06776213645935058594e+00) (109, 2.80882263183593750000e+00) (110, -3.35472226142883300781e+00) (111, -7.75011491775512695312e+00) (112, -1.32534370422363281250e+01) (113, -6.18141222000122070312e+00) (114, -2.19248466491699218750e+01) (115, -1.98908271789550781250e+01) (116, -2.74303722381591796875e+00) (117, 4.07105493545532226562e+00) (118, 4.03440380096435546875e+00) (119, 2.68850088119506835938e+00) (120, 3.32219767570495605469e+00) (121, -9.66406726837158203125e+00) (122, 5.15769624710083007812e+00) (123, -2.02140855789184570312e+00) (124, -3.06734585762023925781e+00) (125, -5.00422239303588867188e-01) (126, -1.49194121360778808594e+00) (127, -2.14441800117492675781e+00) (128, 1.07306098937988281250e+00) (129, 2.13881897926330566406e+00) (130, -2.04036951065063476562e+00) (131, -2.41400909423828125000e+00) (132, -1.24596285820007324219e+00) (133, 9.12887811660766601562e-01) (134, 2.09119057655334472656e+00) (135, 5.44785833358764648438e+00) (136, 1.95219373703002929688e+00) (137, 2.78576040267944335938e+00) (138, 5.82297229766845703125e+00) (139, 2.41886734962463378906e+00) (140, -3.43654417991638183594e+00) (141, 1.12963569164276123047e+00) (142, 2.23493933677673339844e+00) (143, 2.03528332710266113281e+00) (144, -3.47298169136047363281e+00) (145, -7.76097416877746582031e-01) (146, 6.69481992721557617188e+00) (147, 2.22566747665405273438e+00) (148, -8.38282585144042968750e-01) (149, 2.09402990341186523438e+00) (150, -2.62128043174743652344e+00) (151, -2.57810544967651367188e+00) (152, -8.68754506111145019531e-01) (153, -1.20510745048522949219e+00) (154, -1.32857096195220947266e+00) (155, -1.19744133949279785156e+00) (156, -7.33134865760803222656e-01) (157, -8.38658928871154785156e-01) (158, -7.67110228538513183594e-01) (159, -7.10655689239501953125e-01) (160, -2.55844020843505859375e+00) (161, -2.61662054061889648438e+00) (162, -2.51900434494018554688e+00) (163, 1.90586447715759277344e+00) (164, -2.54588031768798828125e+00) (165, -2.53719115257263183594e+00) (166, -2.60658049583435058594e+00) (167, -2.74344205856323242188e+00) (168, -2.59576034545898437500e+00) (169, -2.63523674011230468750e+00) (170, -2.53959631919860839844e+00) (171, 2.57867121696472167969e+00) (172, -2.48483252525329589844e+00) (173, -2.82133388519287109375e+00) (174, 2.55670952796936035156e+00) (175, -2.66843533515930175781e+00) (176, -2.79199409484863281250e+00) (177, 2.62083196640014648438e+00) (178, 1.58319377899169921875e+00) (179, -2.59611535072326660156e+00) (180, -2.78799343109130859375e+00) (181, 2.73448586463928222656e+00) (182, 2.76184225082397460938e+00) (183, 3.83767867088317871094e+00) (184, -1.38736593723297119141e+00) (185, 2.64992594718933105469e+00) (186, -2.54529976844787597656e+00) (187, -2.49828600883483886719e+00) (188, 