FANN_FLO_2.1
num_layers=3
learning_rate=0.700000
connection_rate=1.000000
network_type=0
learning_momentum=0.000000
training_algorithm=2
train_error_function=1
train_stop_function=0
cascade_output_change_fraction=0.010000
quickprop_decay=-0.000100
quickprop_mu=1.750000
rprop_increase_factor=1.200000
rprop_decrease_factor=0.500000
rprop_delta_min=0.000000
rprop_delta_max=50.000000
rprop_delta_zero=0.100000
cascade_output_stagnation_epochs=12
cascade_candidate_change_fraction=0.010000
cascade_candidate_stagnation_epochs=12
cascade_max_out_epochs=150
cascade_min_out_epochs=50
cascade_max_cand_epochs=150
cascade_min_cand_epochs=50
cascade_num_candidate_groups=2
bit_fail_limit=3.49999994039535522461e-01
cascade_candidate_limit=1.00000000000000000000e+03
cascade_weight_multiplier=4.00000005960464477539e-01
cascade_activation_functions_count=10
cascade_activation_functions=3 5 7 8 10 11 14 15 16 17 
cascade_activation_steepnesses_count=4
cascade_activation_steepnesses=2.50000000000000000000e-01 5.00000000000000000000e-01 7.50000000000000000000e-01 1.00000000000000000000e+00 
layer_sizes=203 51 2 
scale_included=0
neurons (num_inputs, activation_function, activation_steepness)=(0, 0, 0.00000000000000000000e+00) (0, 0, 0.00000000000000000000e+00) (0, 0, 0.00000000000000000000e+00) (0, 0, 0.00000000000000000000e+00) (0, 0, 0.00000000000000000000e+00) (0, 0, 0.00000000000000000000e+00) (0, 0, 0.00000000000000000000e+00) (0, 0, 0.00000000000000000000e+00) (0, 0, 0.00000000000000000000e+00) (0, 0, 0.00000000000000000000e+00) (0, 0, 0.00000000000000000000e+00) (0, 0, 0.00000000000000000000e+00) (0, 0, 0.00000000000000000000e+00) (0, 0, 0.00000000000000000000e+00) (0, 0, 0.00000000000000000000e+00) (0, 0, 0.00000000000000000000e+00) (0, 0, 0.00000000000000000000e+00) (0, 0, 0.00000000000000000000e+00) (0, 0, 0.00000000000000000000e+00) (0, 0, 0.00000000000000000000e+00) (0, 0, 0.00000000000000000000e+00) (0, 0, 0.00000000000000000000e+00) (0, 0, 0.00000000000000000000e+00) (0, 0, 0.00000000000000000000e+00) (0, 0, 0.00000000000000000000e+00) (0, 0, 0.00000000000000000000e+00) (0, 0, 0.00000000000000000000e+00) (0, 0, 0.00000000000000000000e+00) (0, 0, 0.00000000000000000000e+00) (0, 0, 0.00000000000000000000e+00) (0, 0, 0.00000000000000000000e+00) (0, 0, 0.00000000000000000000e+00) (0, 0, 0.00000000000000000000e+00) (0, 0, 0.00000000000000000000e+00) (0, 0, 0.00000000000000000000e+00) (0, 0, 0.00000000000000000000e+00) (0, 0, 0.00000000000000000000e+00) (0, 0, 0.00000000000000000000e+00) (0, 0, 0.00000000000000000000e+00) (0, 0, 0.00000000000000000000e+00) (0, 0, 0.00000000000000000000e+00) (0, 0, 0.00000000000000000000e+00) (0, 0, 0.00000000000000000000e+00) (0, 0, 0.00000000000000000000e+00) (0, 0, 0.00000000000000000000e+00) (0, 0, 0.00000000000000000000e+00) (0, 0, 0.00000000000000000000e+00) (0, 0, 0.00000000000000000000e+00) (0, 0, 0.00000000000000000000e+00) (0, 0, 0.00000000000000000000e+00) (0, 0, 0.00000000000000000000e+00) (0, 0, 0.00000000000000000000e+00) (0, 0, 0.00000000000000000000e+00) (0, 0, 0.00000000000000000000e+00) (0, 0, 0.00000000000000000000e+00) (0, 0, 0.00000000000000000000e+00) (0, 0, 0.00000000000000000000e+00) (0, 0, 0.00000000000000000000e+00) (0, 0, 0.00000000000000000000e+00) (0, 0, 0.00000000000000000000e+00) (0, 0, 0.00000000000000000000e+00) (0, 0, 0.00000000000000000000e+00) (0, 0, 0.00000000000000000000e+00) (0, 0, 0.00000000000000000000e+00) (0, 0, 0.00000000000000000000e+00) (0, 0, 0.00000000000000000000e+00) (0, 0, 0.00000000000000000000e+00) (0, 0, 0.00000000000000000000e+00) (0, 0, 0.00000000000000000000e+00) (0, 0, 0.00000000000000000000e+00) (0, 0, 0.00000000000000000000e+00) (0, 0, 0.00000000000000000000e+00) (0, 0, 0.00000000000000000000e+00) (0, 0, 0.00000000000000000000e+00) (0, 0, 0.00000000000000000000e+00) (0, 0, 0.00000000000000000000e+00) (0, 0, 0.00000000000000000000e+00) (0, 0, 0.00000000000000000000e+00) (0, 0, 0.00000000000000000000e+00) (0, 0, 0.00000000000000000000e+00) (0, 0, 0.00000000000000000000e+00) (0, 0, 0.00000000000000000000e+00) (0, 0, 0.00000000000000000000e+00) (0, 0, 0.00000000000000000000e+00) (0, 0, 0.00000000000000000000e+00) (0, 0, 0.00000000000000000000e+00) (0, 0, 0.00000000000000000000e+00) (0, 0, 0.00000000000000000000e+00) (0, 0, 0.00000000000000000000e+00) (0, 0, 0.00000000000000000000e+00) (0, 0, 0.00000000000000000000e+00) (0, 0, 0.00000000000000000000e+00) (0, 0, 0.00000000000000000000e+00) (0, 0, 0.00000000000000000000e+00) (0, 0, 0.00000000000000000000e+00) (0, 0, 0.00000000000000000000e+00) (0, 0, 0.00000000000000000000e+00) (0, 0, 0.00000000000000000000e+00) (0, 0, 0.00000000000000000000e+00) (0, 0, 0.00000000000000000000e+00) (0, 0, 0.00000000000000000000e+00) (0, 0, 0.00000000000000000000e+00) (0, 0, 0.00000000000000000000e+00) (0, 0, 0.00000000000000000000e+00) (0, 0, 0.00000000000000000000e+00) (0, 0, 0.00000000000000000000e+00) (0, 0, 0.00000000000000000000e+00) (0, 0, 0.00000000000000000000e+00) (0, 0, 0.00000000000000000000e+00) (0, 0, 0.00000000000000000000e+00) (0, 0, 0.00000000000000000000e+00) (0, 0, 0.00000000000000000000e+00) (0, 0, 0.00000000000000000000e+00) (0, 0, 0.00000000000000000000e+00) (0, 0, 0.00000000000000000000e+00) (0, 0, 0.00000000000000000000e+00) (0, 0, 0.00000000000000000000e+00) (0, 0, 0.00000000000000000000e+00) (0, 0, 0.00000000000000000000e+00) (0, 0, 0.00000000000000000000e+00) (0, 0, 0.00000000000000000000e+00) (0, 0, 0.00000000000000000000e+00) (0, 0, 0.00000000000000000000e+00) (0, 0, 0.00000000000000000000e+00) (0, 0, 0.00000000000000000000e+00) (0, 0, 0.00000000000000000000e+00) (0, 0, 0.00000000000000000000e+00) (0, 0, 0.00000000000000000000e+00) (0, 0, 0.00000000000000000000e+00) (0, 0, 0.00000000000000000000e+00) (0, 0, 0.00000000000000000000e+00) (0, 0, 0.00000000000000000000e+00) (0, 0, 0.00000000000000000000e+00) (0, 0, 0.00000000000000000000e+00) (0, 0, 0.00000000000000000000e+00) (0, 0, 0.00000000000000000000e+00) (0, 0, 0.00000000000000000000e+00) (0, 0, 0.00000000000000000000e+00) (0, 0, 0.00000000000000000000e+00) (0, 0, 0.00000000000000000000e+00) (0, 0, 0.00000000000000000000e+00) (0, 0, 0.00000000000000000000e+00) (0, 0, 0.00000000000000000000e+00) (0, 0, 0.00000000000000000000e+00) (0, 0, 0.00000000000000000000e+00) (0, 0, 0.00000000000000000000e+00) (0, 0, 0.00000000000000000000e+00) (0, 0, 0.00000000000000000000e+00) (0, 0, 0.00000000000000000000e+00) (0, 0, 0.00000000000000000000e+00) (0, 0, 0.00000000000000000000e+00) (0, 0, 0.00000000000000000000e+00) (0, 0, 0.00000000000000000000e+00) (0, 0, 0.00000000000000000000e+00) (0, 0, 0.00000000000000000000e+00) (0, 0, 0.00000000000000000000e+00) (0, 0, 0.00000000000000000000e+00) (0, 0, 0.00000000000000000000e+00) (0, 0, 0.00000000000000000000e+00) (0, 0, 0.00000000000000000000e+00) (0, 0, 0.00000000000000000000e+00) (0, 0, 0.00000000000000000000e+00) (0, 0, 0.00000000000000000000e+00) (0, 0, 0.00000000000000000000e+00) (0, 0, 0.00000000000000000000e+00) (0, 0, 0.00000000000000000000e+00) (0, 0, 0.00000000000000000000e+00) (0, 0, 0.00000000000000000000e+00) (0, 0, 0.00000000000000000000e+00) (0, 0, 0.00000000000000000000e+00) (0, 0, 0.00000000000000000000e+00) (0, 0, 0.00000000000000000000e+00) (0, 0, 0.00000000000000000000e+00) (0, 0, 0.00000000000000000000e+00) (0, 0, 0.00000000000000000000e+00) (0, 0, 0.00000000000000000000e+00) (0, 0, 0.00000000000000000000e+00) (0, 0, 0.00000000000000000000e+00) (0, 0, 0.00000000000000000000e+00) (0, 0, 0.00000000000000000000e+00) (0, 0, 0.00000000000000000000e+00) (0, 0, 0.00000000000000000000e+00) (0, 0, 0.00000000000000000000e+00) (0, 0, 0.00000000000000000000e+00) (0, 0, 0.00000000000000000000e+00) (0, 0, 0.00000000000000000000e+00) (0, 0, 0.00000000000000000000e+00) (0, 0, 0.00000000000000000000e+00) (0, 0, 0.00000000000000000000e+00) (0, 0, 0.00000000000000000000e+00) (0, 0, 0.00000000000000000000e+00) (0, 0, 0.00000000000000000000e+00) (0, 0, 0.00000000000000000000e+00) (0, 0, 0.00000000000000000000e+00) (0, 0, 0.00000000000000000000e+00) (0, 0, 0.00000000000000000000e+00) (0, 0, 0.00000000000000000000e+00) (0, 0, 0.00000000000000000000e+00) (0, 0, 0.00000000000000000000e+00) (0, 0, 0.00000000000000000000e+00) (0, 0, 0.00000000000000000000e+00) (0, 0, 0.00000000000000000000e+00) (0, 0, 0.00000000000000000000e+00) (203, 5, 5.00000000000000000000e-01) (203, 5, 5.00000000000000000000e-01) (203, 5, 5.00000000000000000000e-01) (203, 5, 5.00000000000000000000e-01) (203, 5, 5.00000000000000000000e-01) (203, 5, 5.00000000000000000000e-01) (203, 5, 5.00000000000000000000e-01) (203, 5, 5.00000000000000000000e-01) (203, 5, 5.00000000000000000000e-01) (203, 5, 5.00000000000000000000e-01) (203, 5, 5.00000000000000000000e-01) (203, 5, 5.00000000000000000000e-01) (203, 5, 5.00000000000000000000e-01) (203, 5, 5.00000000000000000000e-01) (203, 5, 5.00000000000000000000e-01) (203, 5, 5.00000000000000000000e-01) (203, 5, 5.00000000000000000000e-01) (203, 5, 5.00000000000000000000e-01) (203, 5, 5.00000000000000000000e-01) (203, 5, 5.00000000000000000000e-01) (203, 5, 5.00000000000000000000e-01) (203, 5, 5.00000000000000000000e-01) (203, 5, 5.00000000000000000000e-01) (203, 5, 5.00000000000000000000e-01) (203, 5, 5.00000000000000000000e-01) (203, 5, 5.00000000000000000000e-01) (203, 5, 5.00000000000000000000e-01) (203, 5, 5.00000000000000000000e-01) (203, 5, 5.00000000000000000000e-01) (203, 5, 5.00000000000000000000e-01) (203, 5, 5.00000000000000000000e-01) (203, 5, 5.00000000000000000000e-01) (203, 5, 5.00000000000000000000e-01) (203, 5, 5.00000000000000000000e-01) (203, 5, 5.00000000000000000000e-01) (203, 5, 5.00000000000000000000e-01) (203, 5, 5.00000000000000000000e-01) (203, 5, 5.00000000000000000000e-01) (203, 5, 5.00000000000000000000e-01) (203, 5, 5.00000000000000000000e-01) (203, 5, 5.00000000000000000000e-01) (203, 5, 5.00000000000000000000e-01) (203, 5, 5.00000000000000000000e-01) (203, 5, 5.00000000000000000000e-01) (203, 5, 5.00000000000000000000e-01) (203, 5, 5.00000000000000000000e-01) (203, 5, 5.00000000000000000000e-01) (203, 5, 5.00000000000000000000e-01) (203, 5, 5.00000000000000000000e-01) (203, 5, 5.00000000000000000000e-01) (0, 5, 0.00000000000000000000e+00) (51, 5, 5.00000000000000000000e-01) (0, 5, 0.00000000000000000000e+00) 
connections (connected_to_neuron, weight)=(0, 9.28388881683349609375e+00) (1, -2.74826097488403320312e+00) (2, 5.40951299667358398438e+00) (3, 2.00356006622314453125e+00) (4, 3.37604618072509765625e+00) (5, -3.10898160934448242188e+00) (6, -4.20716476440429687500e+00) (7, -4.58501672744750976562e+00) (8, -1.03946924209594726562e+01) (9, 1.99120923876762390137e-01) (10, 7.84247207641601562500e+00) (11, 3.59861111640930175781e+00) (12, 8.76503467559814453125e+00) (13, -2.16987824440002441406e+00) (14, 6.51820182800292968750e+00) (15, -4.21939432621002197266e-01) (16, 3.87566924095153808594e+00) (17, -1.01228976249694824219e+00) (18, -4.06073617935180664062e+00) (19, 2.43922686576843261719e+00) (20, 5.36641025543212890625e+00) (21, 3.41247630119323730469e+00) (22, 3.09604454040527343750e+00) (23, 6.99256134033203125000e+00) (24, 1.77224540710449218750e+01) (25, -1.96839320659637451172e+00) (26, -1.53905658721923828125e+01) (27, 2.73817479610443115234e-01) (28, 1.68961868286132812500e+01) (29, -1.01089167594909667969e+00) (30, -1.08616209030151367188e+00) (31, -1.20890235900878906250e+00) (32, -1.85016784667968750000e+01) (33, -9.48037815093994140625e+00) (34, 2.87120962142944335938e+00) (35, 4.76328790187835693359e-01) (36, 1.25700843334197998047e+00) (37, -1.08333325386047363281e+00) (38, -9.56657028198242187500e+00) (39, -4.82970327138900756836e-01) (40, 1.46847782135009765625e+01) (41, -1.74361383914947509766e+00) (42, 1.68544273376464843750e+01) (43, -1.53104674816131591797e+00) (44, -4.68313026428222656250e+01) (45, 9.30948317050933837891e-01) (46, 2.61178016662597656250e+01) (47, 1.77982997894287109375e+00) (48, -2.64757156372070312500e+00) (49, -1.31889760494232177734e+00) (50, 1.11488103866577148438e+01) (51, 5.78130865097045898438e+00) (52, -6.86169290542602539062e+00) (53, 3.31440776586532592773e-01) (54, -1.76700458526611328125e+01) (55, 1.83220672607421875000e+00) (56, 8.28372383117675781250e+00) (57, -2.06124901771545410156e+00) (58, -9.76369762420654296875e+00) (59, -5.83622694015502929688e-01) (60, 2.37731018066406250000e+01) (61, -1.55864071846008300781e+00) (62, -3.47287139892578125000e+01) (63, 9.75638151168823242188e-01) (64, 5.47138988971710205078e-01) (65, 4.38036155700683593750e+00) (66, 1.28350839614868164062e+01) (67, -7.31713867187500000000e+00) (68, -1.70206432342529296875e+01) (69, -6.29855585098266601562e+00) (70, 2.40262184143066406250e+01) (71, 2.02227115631103515625e+00) (72, -1.47324810028076171875e+01) (73, 8.73563587665557861328e-01) (74, -1.21609439849853515625e+01) (75, 1.17725729942321777344e+00) (76, -9.80486989021301269531e-01) (77, -4.62335729598999023438e+00) (78, 1.92109718322753906250e+01) (79, -2.00733566284179687500e+00) (80, 4.19550085067749023438e+00) (81, 4.81161642074584960938e+00) (82, -5.25277137756347656250e+00) (83, -1.97658002376556396484e+00) (84, -5.66092205047607421875e+00) (85, -2.15221357345581054688e+00) (86, -2.63938546180725097656e+00) (87, -1.22879743576049804688e-01) (88, 2.59869251251220703125e+01) (89, 3.29320883750915527344e+00) (90, -1.30735168457031250000e+01) (91, 4.60526752471923828125e+00) (92, 9.94865131378173828125e+00) (93, 1.13450253009796142578e+00) (94, -2.32475566864013671875e+01) (95, -4.34871149063110351562e+00) (96, -1.97019410133361816406e+00) (97, 1.24522042274475097656e+00) (98, 6.18636703491210937500e+00) (99, -4.93501138687133789062e+00) (100, 1.11860837936401367188e+01) (101, -9.38051044940948486328e-02) (102, -9.65307426452636718750e+00) (103, 2.71038770675659179688e-01) (104, -2.35396361351013183594e+00) (105, 7.35047340393066406250e-01) (106, -2.98590302467346191406e+00) (107, 1.89308619499206542969e+00) (108, 1.11068069934844970703e+00) (109, -2.00003504753112792969e-01) (110, -2.68259406089782714844e+00) (111, 5.30407905578613281250e+00) (112, 7.54876136779785156250e+00) (113, 7.86571264266967773438e-01) (114, -1.10157613754272460938e+01) (115, -4.51049280166625976562e+00) (116, -7.00746822357177734375e+00) (117, -8.65098893642425537109e-01) (118, 3.04581127166748046875e+01) (119, 2.37356257438659667969e+00) (120, -4.41664743423461914062e+00) (121, 1.75138568878173828125e+00) (122, -2.71115188598632812500e+01) (123, -1.68949711322784423828e+00) (124, 2.37627830505371093750e+01) (125, 1.44539225101470947266e+00) (126, -4.50876283645629882812e+00) (127, -3.78366351127624511719e+00) (128, 2.17838668823242187500e+00) (129, -1.79079520702362060547e+00) (130, -1.17019069194793701172e+00) (131, -1.25199937820434570312e+00) (132, -1.06296720504760742188e+01) (133, -3.68677765130996704102e-01) (134, 7.94486474990844726562e+00) (135, 4.73989057540893554688e+00) (136, -1.46528396606445312500e+01) (137, 2.22562146186828613281e+00) (138, -2.21092915534973144531e+00) (139, -6.52096843719482421875e+00) (140, 2.41857795715332031250e+01) (141, 3.70640486478805541992e-01) (142, 2.52377128601074218750e+00) (143, 2.83833682537078857422e-01) (144, -1.54653620719909667969e+00) (145, -4.25746774673461914062e+00) (146, 1.99885330200195312500e+01) (147, 3.09766113758087158203e-01) (148, -9.63447666168212890625e+00) (149, -3.46891331672668457031e+00) (150, -6.37042140960693359375e+00) (151, 1.29844141006469726562e+00) (152, -3.72212486267089843750e+01) (153, -3.76102733612060546875e+00) (154, 1.02314281463623046875e+01) (155, 1.13482904434204101562e+00) (156, -7.84699487686157226562e+00) (157, -2.24275231361389160156e+00) (158, 1.21941471099853515625e+01) (159, 5.45056486129760742188e+00) (160, -1.94037902355194091797e+00) (161, -6.00928831100463867188e+00) (162, 9.70829105377197265625e+00) (163, 2.77236342430114746094e+00) (164, -6.15537643432617187500e+00) (165, -1.08549356460571289062e+00) (166, 7.45118856430053710938e+00) (167, 3.36839032173156738281e+00) (168, -1.05166940689086914062e+01) (169, -7.49400556087493896484e-01) (170, 1.73583259582519531250e+01) (171, -6.55750930309295654297e-02) (172, -8.76244544982910156250e+00) (173, 4.22553062438964843750e+00) (174, -5.75910139083862304688e+00) (175, 8.96853506565093994141e-01) (176, 2.90467524528503417969e+00) (177, 6.33263683319091796875e+00) (178, -1.12256917953491210938e+01) (179, -4.78708222508430480957e-02) (180, 5.05443334579467773438e-01) (181, -6.20818090438842773438e+00) (182, -1.50391292572021484375e+01) (183, 2.10149669647216796875e+00) (184, -3.38037848472595214844e+00) (185, 7.00852647423744201660e-02) (186, 2.33197212219238281250e+01) (187, -1.85978937149047851562e+00) (188, 1.57797241210937500000e+00) (189, 7.26775646209716796875e-01) (190, 2.22674160003662109375e+01) (191, -1.09141327440738677979e-01) (192, -3.01907444000244140625e+01) (193, -1.70170402526855468750e+00) (194, 2.06987828016281127930e-01) (195, 4.93643856048583984375e+00) (196, 1.50000000000000000000e+03) (197, 1.50000000000000000000e+03) (198, 1.50000000000000000000e+03) (199, 1.50000000000000000000e+03) (200, 1.13096916675567626953e+00) (201, 6.71725320816040039062e+00) (202, 1.86830177307128906250e+01) (0, -1.50000000000000000000e+03) (1, 1.48920935058593750000e+03) (2, -1.50000000000000000000e+03) (3, 1.49841333007812500000e+03) (4, -1.47902612304687500000e+03) (5, 1.48660009765625000000e+03) (6, -1.50000000000000000000e+03) (7, 1.49665710449218750000e+03) (8, -1.49929174804687500000e+03) (9, 1.48666918945312500000e+03) (10, -1.49999914550781250000e+03) (11, 1.49999987792968750000e+03) (12, -1.49999987792968750000e+03) (13, 1.46016784667968750000e+03) (14, -1.49993444824218750000e+03) (15, 1.40751416015625000000e+03) (16, -1.50000000000000000000e+03) (17, 1.50000000000000000000e+03) (18, -1.49999853515625000000e+03) (19, 1.48673828125000000000e+03) (20, -2.01985763549804687500e+02) (21, 1.49644677734375000000e+03) (22, -1.50000000000000000000e+03) (23, 1.40786987304687500000e+03) (24, -1.50000000000000000000e+03) (25, 1.47063513183593750000e+03) (26, -1.49996105957031250000e+03) (27, 1.44651452636718750000e+03) (28, -7.87358016967773437500e+01) (29, 1.49999987792968750000e+03) (30, -1.49892700195312500000e+03) (31, 1.37127600097656250000e+03) (32, -8.50563964843750000000e+02) (33, 1.49999987792968750000e+03) (34, 1.49371728515625000000e+03) (35, 1.45561193847656250000e+03) (36, 1.50000000000000000000e+03) (37, 1.45511816406250000000e+03) (38, -1.00853851318359375000e+03) (39, 1.49576916503906250000e+03) (40, -1.50000000000000000000e+03) (41, 1.49768823242187500000e+03) (42, -1.50000000000000000000e+03) (43, 2.87675506591796875000e+02) (44, -1.50000000000000000000e+03) (45, -1.50000000000000000000e+03) (46, -1.49391882324218750000e+03) (47, -1.50000000000000000000e+03) (48, -1.50000000000000000000e+03) (49, 3.07546417236328125000e+02) (50, 3.19991035461425781250e+01) (51, -9.00910522460937500000e+02) (52, 1.49310009765625000000e+03) (53, -1.49334118652343750000e+03) (54, -1.47178869628906250000e+03) (55, 1.47402246093750000000e+03) (56, -1.48248571777343750000e+03) (57, 1.46205859375000000000e+03) (58, 1.50000000000000000000e+03) (59, 1.45056701660156250000e+03) (60, 1.38426696777343750000e+03) (61, 1.45167675781250000000e+03) (62, -1.30712353515625000000e+03) (63, 1.40564453125000000000e+03) (64, 8.55816589355468750000e+02) (65, 1.40866516113281250000e+03) (66, 6.56782409667968750000e+02) (67, -1.38813293457031250000e+03) (68, 1.15501025390625000000e+03) (69, 1.40982556152343750000e+03) (70, -1.49307128906250000000e+03) (71, 1.49246289062500000000e+03) (72, 1.50000000000000000000e+03) (73, 1.46116345214843750000e+03) (74, -1.49695141601562500000e+03) (75, -1.50000000000000000000e+03) (76, 1.32671386718750000000e+03) (77, -1.50000000000000000000e+03) (78, -6.96155624389648437500e+01) (79, -1.50000000000000000000e+03) (80, -9.87375854492187500000e+02) (81, 1.42846508789062500000e+03) (82, 1.50000000000000000000e+03) (83, -1.37854980468750000000e+03) (84, 1.50000000000000000000e+03) (85, -1.46026586914062500000e+03) (86, 1.44910644531250000000e+03) (87, -1.49850817871093750000e+03) (88, -1.39027539062500000000e+03) (89, 1.49999987792968750000e+03) (90, 1.41332678222656250000e+03) (91, -1.50000000000000000000e+03) (92, 8.42309387207031250000e+02) (93, 1.48439807128906250000e+03) (94, 1.50000000000000000000e+03) (95, 1.48926733398437500000e+03) (96, 1.49799926757812500000e+03) (97, 1.49028039550781250000e+03) (98, 1.49999951171875000000e+03) (99, 1.46986083984375000000e+03) (100, -1.49999951171875000000e+03) (101, -1.37848229980468750000e+03) (102, -1.49942285156250000000e+03) (103, -1.50000000000000000000e+03) (104, -5.03408386230468750000e+02) (105, -1.49999597167968750000e+03) (106, 1.49814038085937500000e+03) (107, -1.50000000000000000000e+03) (108, 1.49999841308593750000e+03) (109, -1.50000000000000000000e+03) (110, -1.46936669921875000000e+03) (111, -1.50000000000000000000e+03) (112, 7.86834335327148437500e+01) (113, -1.50000000000000000000e+03) (114, 1.50000000000000000000e+03) (115, 1.48669262695312500000e+03) (116, 1.50000000000000000000e+03) (117, 1.48845690917968750000e+03) (118, 1.50000000000000000000e+03) (119, -1.50000000000000000000e+03) (120, 1.50000000000000000000e+03) (121, -1.50000000000000000000e+03) (122, 1.54080383300781250000e+02) (123, -1.50000000000000000000e+03) (124, 1.49985241699218750000e+03) (125, -1.50000000000000000000e+03) (126, 1.49404089355468750000e+03) (127, -1.47718713378906250000e+03) (128, 1.50000000000000000000e+03) (129, -1.50000000000000000000e+03) (130, 5.19201782226562500000e+02) (131, -1.49916101074218750000e+03) (132, -2.51260345458984375000e+02) (133, -1.49910986328125000000e+03) (134, -1.50000000000000000000e+03) (135, 1.48718603515625000000e+03) (136, -1.49985766601562500000e+03) (137, 1.45880297851562500000e+03) (138, -1.49810937500000000000e+03) (139, 1.45898937988281250000e+03) (140, 9.37960144042968750000e+02) (141, 1.49891662597656250000e+03) (142, 1.48796911621093750000e+03) (143, 1.37930810546875000000e+03) (144, 1.42330737304687500000e+03) (145, 1.49915832519531250000e+03) (146, -1.40149731445312500000e+03) (147, -1.49999609375000000000e+03) (148, -1.37203564453125000000e+03) (149, 1.39793286132812500000e+03) (150, -2.58003509521484375000e+02) (151, -1.49999426269531250000e+03) (152, 1.50000000000000000000e+03) (153, -1.46122692871093750000e+03) (154, 1.50000000000000000000e+03) (155, 1.44038208007812500000e+03) (156, -1.47836169433593750000e+03) (157, -1.11590893554687500000e+03) (158, -1.14295263671875000000e+03) (159, -1.38999743652343750000e+03) (160, 1.02667358398437500000e+03) (161, 1.47500988769531250000e+03) (162, 1.04956115722656250000e+03) (163, -1.49992858886718750000e+03) (164, -9.03748229980468750000e+02) (165, -1.37156848144531250000e+03) (166, 1.44950183105468750000e+03) (167, -1.50000000000000000000e+03) (168, 1.50000000000000000000e+03) (169, -1.50000000000000000000e+03) (170, 1.49999987792968750000e+03) (171, -1.03931591796875000000e+03) (172, 4.09526580810546875000e+02) (173, -6.34224853515625000000e+02) (174, -1.10646003723144531250e+02) (175, -1.45766394042968750000e+03) (176, -8.46667724609375000000e+02) (177, -1.50000000000000000000e+03) (178, 1.30337048339843750000e+03) (179, -1.49996960449218750000e+03) (180, 4.53543457031250000000e+02) (181, -1.50000000000000000000e+03) (182, 1.41909802246093750000e+03) (183, -1.50000000000000000000e+03) (184, 8.21855773925781250000e+02) (185, -1.42633312988281250000e+03) (186, 1.49996752929687500000e+03) (187, -1.43070520019531250000e+03) (188, 1.50000000000000000000e+03) (189, -1.42618408203125000000e+03) (190, -1.38756347656250000000e+02) (191, -1.49642333984375000000e+03) (192, 1.49527392578125000000e+03) (193, -1.49994445800781250000e+03) (194, 1.49906933593750000000e+03) (195, -1.49995056152343750000e+03) (196, 1.50000000000000000000e+03) (197, 1.50000000000000000000e+03) (198, 1.50000000000000000000e+03) (199, 1.50000000000000000000e+03) (200, 1.49681591796875000000e+03) (201, -1.50000000000000000000e+03) (202, -1.76693553924560546875e+01) (0, -1.50000000000000000000e+03) (1, -1.49991491699218750000e+03) (2, -1.50000000000000000000e+03) (3, -1.49985607910156250000e+03) (4, -1.50000000000000000000e+03) (5, -1.49962316894531250000e+03) (6, 1.47004626464843750000e+03) (7, -1.49996569824218750000e+03) (8, -1.50000000000000000000e+03) (9, -1.49492749023437500000e+03) (10, -1.49143029785156250000e+03) (11, -1.49978210449218750000e+03) (12, -1.43171728515625000000e+03) (13, -1.50000000000000000000e+03) (14, 1.48755786132812500000e+03) (15, -1.48621337890625000000e+03) (16, 1.19556433105468750000e+03) (17, -1.49906457519531250000e+03) (18, 1.01436700439453125000e+03) (19, -1.50000000000000000000e+03) (20, -1.48068627929687500000e+03) (21, -1.49961816406250000000e+03) (22, -1.43886450195312500000e+03) (23, -1.49917150878906250000e+03) (24, -1.50000000000000000000e+03) (25, -1.49523242187500000000e+03) (26, -6.84776367187500000000e+02) (27, -1.49182116699218750000e+03) (28, -1.49877014160156250000e+03) (29, -1.49840771484375000000e+03) (30, 1.49975415039062500000e+03) (31, -1.22377563476562500000e+03) (32, -1.49945166015625000000e+03) (33, -1.49977502441406250000e+03) (34, 1.38023120117187500000e+03) (35, -1.49859033203125000000e+03) (36, 1.50000000000000000000e+03) (37, -1.48633837890625000000e+03) (38, -1.49991149902343750000e+03) (39, -1.50000000000000000000e+03) (40, -1.50000000000000000000e+03) (41, -7.74145019531250000000e+02) (42, -1.50000000000000000000e+03) (43, -1.49239807128906250000e+03) (44, -1.50000000000000000000e+03) (45, -1.12899072265625000000e+03) (46, 1.49982824707031250000e+03) (47, -1.43574291992187500000e+03) (48, 1.49756555175781250000e+03) (49, -1.48819299316406250000e+03) (50, 1.50000000000000000000e+03) (51, 6.82145309448242187500e+01) (52, -1.49990039062500000000e+03) (53, -2.90012847900390625000e+02) (54, 1.46595751953125000000e+03) (55, -3.10821819305419921875e+01) (56, -1.50000000000000000000e+03) (57, -1.49742797851562500000e+03) (58, 1.50000000000000000000e+03) (59, 1.49833996582031250000e+03) (60, -1.49010388183593750000e+03) (61, -1.47459509277343750000e+03) (62, -1.49019689941406250000e+03) (63, -1.49887207031250000000e+03) (64, -1.50000000000000000000e+03) (65, -1.49998571777343750000e+03) (66, -1.50000000000000000000e+03) (67, -1.47023449707031250000e+03) (68, -1.48450427246093750000e+03) (69, -1.49715307617187500000e+03) (70, 1.12923803710937500000e+03) (71, -1.49646655273437500000e+03) (72, 1.50000000000000000000e+03) (73, -1.49414343261718750000e+03) (74, 1.35451379394531250000e+03) (75, 1.39076806640625000000e+03) (76, 4.19424072265625000000e+02) (77, -1.43782324218750000000e+03) (78, -1.48500048828125000000e+03) (79, 1.43222671508789062500e+02) (80, 1.49999841308593750000e+03) (81, -5.65561035156250000000e+02) (82, 1.50000000000000000000e+03) (83, -1.50000000000000000000e+03) (84, 3.10843872070312500000e+02) (85, -1.49984680175781250000e+03) (86, 1.49978015136718750000e+03) (87, -1.86587722778320312500e+02) (88, 1.38691601562500000000e+03) (89, -1.49968115234375000000e+03) (90, -7.46838806152343750000e+02) (91, -1.29191357421875000000e+03) (92, 7.58459777832031250000e+02) (93, -1.50000000000000000000e+03) (94, 1.50000000000000000000e+03) (95, -1.49962658691406250000e+03) (96, 1.50000000000000000000e+03) (97, -1.49937194824218750000e+03) (98, 1.49061230468750000000e+03) (99, -1.48601196289062500000e+03) (100, -1.42859582519531250000e+03) (101, -1.50000000000000000000e+03) (102, -1.50000000000000000000e+03) (103, -1.50000000000000000000e+03) (104, -1.40858996582031250000e+03) (105, -1.50000000000000000000e+03) (106, -1.43975183105468750000e+03) (107, 1.00533636474609375000e+03) (108, -5.87556945800781250000e+02) (109, -1.48889050292968750000e+03) (110, 1.30575659179687500000e+03) (111, -1.47253381347656250000e+03) (112, 1.49999841308593750000e+03) (113, 1.38003686523437500000e+03) (114, 1.50000000000000000000e+03) (115, -1.49965832519531250000e+03) (116, 1.50000000000000000000e+03) (117, -1.49981591796875000000e+03) (118, 1.50000000000000000000e+03) (119, 1.31443103027343750000e+03) (120, -1.49720202636718750000e+03) (121, -1.43672680664062500000e+03) (122, 1.49999841308593750000e+03) (123, -1.31600537109375000000e+03) (124, 1.50000000000000000000e+03) (125, -1.49892590332031250000e+03) (126, -1.49619677734375000000e+03) (127, -1.49999987792968750000e+03) (128, 1.50000000000000000000e+03) (129, -1.50000000000000000000e+03) (130, -1.50000000000000000000e+03) (131, -1.50000000000000000000e+03) (132, -1.49736669921875000000e+03) (133, -1.39455920410156250000e+03) (134, -1.50000000000000000000e+03) (135, -1.49030603027343750000e+03) (136, -1.14485937500000000000e+03) (137, -1.49988867187500000000e+03) (138, -1.50000000000000000000e+03) (139, -1.50000000000000000000e+03) (140, -1.49879467773437500000e+03) (141, -1.50000000000000000000e+03) (142, 1.24147851562500000000e+03) (143, -9.06705139160156250000e+02) (144, 1.00360015869140625000e+03) (145, -1.50000000000000000000e+03) (146, -1.48771447753906250000e+03) (147, -1.50000000000000000000e+03) (148, 1.49986206054687500000e+03) (149, -1.50000000000000000000e+03) (150, -1.50000000000000000000e+03) (151, -1.50000000000000000000e+03) (152, 1.50000000000000000000e+03) (153, -1.49599865722656250000e+03) (154, 1.50000000000000000000e+03) (155, -3.66589874267578125000e+02) (156, -1.35704772949218750000e+03) (157, -1.50000000000000000000e+03) (158, -1.49478747558593750000e+03) (159, 1.32531677246093750000e+03) (160, 6.22985076904296875000e+01) (161, -1.50000000000000000000e+03) (162, -1.43966870117187500000e+03) (163, 1.49817578125000000000e+03) (164, -1.50000000000000000000e+03) (165, -1.50000000000000000000e+03) (166, -1.49965649414062500000e+03) (167, -1.15108154296875000000e+03) (168, -8.43918884277343750000e+02) (169, -1.32598718261718750000e+03) (170, 1.44991894531250000000e+03) (171, -1.50000000000000000000e+03) (172, 1.50000000000000000000e+03) (173, -1.50000000000000000000e+03) (174, -1.11048179626464843750e+02) (175, -1.50000000000000000000e+03) (176, -1.49928723144531250000e+03) (177, -1.46195947265625000000e+03) (178, -1.45242089843750000000e+03) (179, 9.91841308593750000000e+02) (180, -1.45243762207031250000e+03) (181, -1.44039367675781250000e+03) (182, 1.50000000000000000000e+03) (183, 1.07590417480468750000e+03) (184, -1.49800976562500000000e+03) (185, -1.49870703125000000000e+03) (186, 1.50000000000000000000e+03) (187, -1.49219909667968750000e+03) (188, 1.50000000000000000000e+03) (189, -1.49870703125000000000e+03) (190, 1.50000000000000000000e+03) (191, -1.49850317382812500000e+03) (192, 1.49999987792968750000e+03) (193, -1.48880249023437500000e+03) (194, 1.50000000000000000000e+03) (195, -1.48904504394531250000e+03) (196, 1.50000000000000000000e+03) (197, 1.50000000000000000000e+03) (198, 1.50000000000000000000e+03) (199, 1.50000000000000000000e+03) (200, -1.49904589843750000000e+03) (201, -1.50000000000000000000e+03) (202, 7.37508916854858398438e+00) (0, -1.50000000000000000000e+03) (1, -1.50000000000000000000e+03) (2, -1.50000000000000000000e+03) (3, -1.49995935058593750000e+03) (4, -1.50000000000000000000e+03) (5, -1.50000000000000000000e+03) (6, -1.49976770019531250000e+03) (7, -1.50000000000000000000e+03) (8, -1.50000000000000000000e+03) (9, -1.49922045898437500000e+03) (10, -1.49143029785156250000e+03) (11, -1.50000000000000000000e+03) (12, -1.43171728515625000000e+03) (13, -1.50000000000000000000e+03) (14, -1.50000000000000000000e+03) (15, -1.49605041503906250000e+03) (16, -1.49928125000000000000e+03) (17, -1.49894580078125000000e+03) (18, -1.49868359375000000000e+03) (19, -1.50000000000000000000e+03) (20, -1.48051281738281250000e+03) (21, -1.49973437500000000000e+03) (22, -1.50000000000000000000e+03) (23, -1.49977795410156250000e+03) (24, -1.50000000000000000000e+03) (25, -1.49545471191406250000e+03) (26, -1.49999987792968750000e+03) (27, -1.30789025878906250000e+03) (28, -1.49889843750000000000e+03) (29, -1.49897741699218750000e+03) (30, -1.49999987792968750000e+03) (31, -4.08694061279296875000e+02) (32, -1.49945166015625000000e+03) (33, -1.50000000000000000000e+03) (34, -6.30036621093750000000e+02) (35, -1.49972351074218750000e+03) (36, 1.50000000000000000000e+03) (37, -1.49672717285156250000e+03) (38, -9.49249328613281250000e+02) (39, -1.50000000000000000000e+03) (40, -1.50000000000000000000e+03) (41, -1.50000000000000000000e+03) (42, -1.50000000000000000000e+03) (43, -1.50000000000000000000e+03) (44, -1.50000000000000000000e+03) (45, -1.49545104980468750000e+03) (46, 1.47824499511718750000e+03) (47, -1.50000000000000000000e+03) (48, -1.50000000000000000000e+03) (49, -1.48903002929687500000e+03) (50, 1.50000000000000000000e+03) (51, -9.31451965332031250000e+02) (52, -1.48231579589843750000e+03) (53, -1.49836169433593750000e+03) (54, -1.50000000000000000000e+03) (55, -9.64812133789062500000e+02) (56, -1.46548266601562500000e+03) (57, -1.49755444335937500000e+03) (58, 1.50000000000000000000e+03) (59, -1.50000000000000000000e+03) (60, -1.49964440917968750000e+03) (61, -1.50000000000000000000e+03) (62, -1.48857189941406250000e+03) (63, -1.50000000000000000000e+03) (64, -1.50000000000000000000e+03) (65, -1.50000000000000000000e+03) (66, -1.50000000000000000000e+03) (67, -1.50000000000000000000e+03) (68, -1.48450427246093750000e+03) (69, -1.49784924316406250000e+03) (70, 1.87610427856445312500e+02) (71, -1.49287268066406250000e+03) (72, 1.50000000000000000000e+03) (73, -1.49896520996093750000e+03) (74, -1.50000000000000000000e+03) (75, -1.49996618652343750000e+03) (76, -1.49920007324218750000e+03) (77, -1.50000000000000000000e+03) (78, -1.47160070800781250000e+03) (79, -1.49993701171875000000e+03) (80, 1.49999841308593750000e+03) (81, -1.45221838378906250000e+03) (82, 1.50000000000000000000e+03) (83, -1.50000000000000000000e+03) (84, 1.49999841308593750000e+03) (85, -1.50000000000000000000e+03) (86, 4.82495025634765625000e+02) (87, -1.19347570800781250000e+03) (88, 1.34229028320312500000e+03) (89, -1.49960876464843750000e+03) (90, 1.51004531860351562500e+02) (91, -1.50000000000000000000e+03) (92, 1.49996179199218750000e+03) (93, -1.50000000000000000000e+03) (94, 1.50000000000000000000e+03) (95, -1.49985644531250000000e+03) (96, 1.50000000000000000000e+03) (97, -1.49938146972656250000e+03) (98, 1.49981750488281250000e+03) (99, -1.48612902832031250000e+03) (100, -1.42859582519531250000e+03) (101, -1.50000000000000000000e+03) (102, -1.50000000000000000000e+03) (103, 7.21184082031250000000e+02) (104, -1.49993188476562500000e+03) (105, -1.48581298828125000000e+03) (106, -1.49990637207031250000e+03) (107, -1.49934558105468750000e+03) (108, -1.24830322265625000000e+03) (109, -1.48538366699218750000e+03) (110, 5.31448913574218750000e+02) (111, -1.50000000000000000000e+03) (112, -1.49979199218750000000e+03) (113, -1.49984216308593750000e+03) (114, 1.50000000000000000000e+03) (115, -1.50000000000000000000e+03) (116, 1.50000000000000000000e+03) (117, -1.50000000000000000000e+03) (118, 1.50000000000000000000e+03) (119, -1.50000000000000000000e+03) (120, -1.49723510742187500000e+03) (121, -1.50000000000000000000e+03) (122, 1.41040979003906250000e+03) (123, -1.49968347167968750000e+03) (124, 1.50000000000000000000e+03) (125, -1.49907055664062500000e+03) (126, -1.49625671386718750000e+03) (127, -1.50000000000000000000e+03) (128, 1.50000000000000000000e+03) (129, -1.50000000000000000000e+03) (130, -1.50000000000000000000e+03) (131, 1.46893115234375000000e+03) (132, -1.49736669921875000000e+03) (133, -1.49564758300781250000e+03) (134, -1.50000000000000000000e+03) (135, -1.49912426757812500000e+03) (136, -1.50000000000000000000e+03) (137, -1.49964746093750000000e+03) (138, -1.49913830566406250000e+03) (139, -1.50000000000000000000e+03) (140, -1.49879467773437500000e+03) (141, -1.50000000000000000000e+03) (142, -1.49990649414062500000e+03) (143, -1.04564428710937500000e+03) (144, -1.49918005371093750000e+03) (145, -1.50000000000000000000e+03) (146, -1.49677404785156250000e+03) (147, -1.50000000000000000000e+03) (148, 1.49963769531250000000e+03) (149, -1.49782006835937500000e+03) (150, -1.50000000000000000000e+03) (151, -1.49891772460937500000e+03) (152, 1.50000000000000000000e+03) (153, -1.50000000000000000000e+03) (154, 1.50000000000000000000e+03) (155, -1.49819177246093750000e+03) (156, -1.35708117675781250000e+03) (157, -1.47828759765625000000e+03) (158, -1.49972326660156250000e+03) (159, -1.49981811523437500000e+03) (160, -1.49970214843750000000e+03) (161, -1.50000000000000000000e+03) (162, -1.49999353027343750000e+03) (163, -1.50000000000000000000e+03) (164, -1.50000000000000000000e+03) (165, -1.50000000000000000000e+03) (166, -1.49911694335937500000e+03) (167, -1.49290454101562500000e+03) (168, -1.49952148437500000000e+03) (169, -1.49933496093750000000e+03) (170, 1.49999792480468750000e+03) (171, -1.50000000000000000000e+03) (172, 1.50000000000000000000e+03) (173, -1.50000000000000000000e+03) (174, 1.49976513671875000000e+03) (175, -1.50000000000000000000e+03) (176, -1.49997534179687500000e+03) (177, -1.43413000488281250000e+03) (178, -1.42302355957031250000e+03) (179, -1.49819396972656250000e+03) (180, -1.42304260253906250000e+03) (181, 1.37532958984375000000e+02) (182, -1.49969372558593750000e+03) (183, -1.49928503417968750000e+03) (184, -1.19756677246093750000e+03) (185, -1.49870703125000000000e+03) (186, 1.50000000000000000000e+03) (187, -1.50000000000000000000e+03) (188, 1.50000000000000000000e+03) (189, -1.49870703125000000000e+03) (190, 1.50000000000000000000e+03) (191, -1.49850317382812500000e+03) (192, 1.49999987792968750000e+03) (193, -1.49563842773437500000e+03) (194, -1.49631835937500000000e+03) (195, -1.49586120605468750000e+03) (196, 1.50000000000000000000e+03) (197, 1.50000000000000000000e+03) (198, 1.50000000000000000000e+03) (199, 1.50000000000000000000e+03) (200, -1.50000000000000000000e+03) (201, -1.50000000000000000000e+03) (202, 3.24500923156738281250e+01) (0, 3.22751220703125000000e+02) (1, -1.49982849121093750000e+03) (2, 2.74289916992187500000e+02) (3, -1.20616809082031250000e+03) (4, 1.50000000000000000000e+03) (5, -1.49996960449218750000e+03) (6, -1.40123071289062500000e+03) (7, -1.49983605957031250000e+03) (8, 1.50000000000000000000e+03) (9, -1.49997521972656250000e+03) (10, 1.02461572265625000000e+03) (11, -1.49978491210937500000e+03) (12, -1.42746093750000000000e+03) (13, -1.49997131347656250000e+03) (14, -1.49992761230468750000e+03) (15, -1.49861022949218750000e+03) (16, -1.49911743164062500000e+03) (17, -1.49865478515625000000e+03) (18, -8.63129425048828125000e+01) (19, -1.49995849609375000000e+03) (20, -1.48041296386718750000e+03) (21, -1.49951245117187500000e+03) (22, 1.48064770507812500000e+03) (23, -1.49981896972656250000e+03) (24, 1.50000000000000000000e+03) (25, -1.49867431640625000000e+03) (26, -7.75243896484375000000e+02) (27, -1.85481552124023437500e+02) (28, -1.49910681152343750000e+03) (29, -1.49816186523437500000e+03) (30, -4.89425262451171875000e+02) (31, -1.49996911621093750000e+03) (32, -1.49980822753906250000e+03) (33, -1.49977954101562500000e+03) (34, 1.49873071289062500000e+03) (35, -1.44682153320312500000e+03) (36, -1.81989562988281250000e+02) (37, -1.49997460937500000000e+03) (38, -1.45005883789062500000e+03) (39, -1.49996887207031250000e+03) (40, 2.74289916992187500000e+02) (41, -1.49995031738281250000e+03) (42, 2.74289916992187500000e+02) (43, -1.02338000488281250000e+03) (44, 8.03328247070312500000e+02) (45, -1.49505163574218750000e+03) (46, -1.16803271484375000000e+03) (47, 1.48030615234375000000e+03) (48, -1.49995996093750000000e+03) (49, -1.48136560058593750000e+03) (50, -1.49975634765625000000e+03) (51, -1.27233863830566406250e+02) (52, -1.49899035644531250000e+03) (53, -1.49778979492187500000e+03) (54, -1.49995495605468750000e+03) (55, -2.19909713745117187500e+02) (56, -1.46451049804687500000e+03) (57, -1.49732165527343750000e+03) (58, -1.02600024414062500000e+03) (59, -5.40305419921875000000e+02) (60, -1.49986315917968750000e+03) (61, -1.48687207031250000000e+03) (62, -1.48797839355468750000e+03) (63, -1.43363000488281250000e+03) (64, 3.98912963867187500000e+02) (65, -1.49994470214843750000e+03) (66, 1.09808654785156250000e+03) (67, -1.49093444824218750000e+03) (68, -1.48286791992187500000e+03) (69, -1.49983618164062500000e+03) (70, -1.29182873535156250000e+03) (71, -1.49244458007812500000e+03) (72, -1.50000000000000000000e+03) (73, -1.49955334472656250000e+03) (74, -1.49996118164062500000e+03) (75, -1.49985424804687500000e+03) (76, -1.49931628417968750000e+03) (77, 1.48074584960937500000e+03) (78, -1.45555456542968750000e+03) (79, -8.55765747070312500000e+02) (80, 1.49999572753906250000e+03) (81, -9.17749450683593750000e+02) (82, 1.49998156738281250000e+03) (83, -1.46513586425781250000e+03) (84, 3.09118133544921875000e+02) (85, -1.49978503417968750000e+03) (86, -1.26046984863281250000e+03) (87, -3.37231933593750000000e+02) (88, -1.45331512451171875000e+02) (89, -1.49959802246093750000e+03) (90, 1.70294662475585937500e+02) (91, 1.34308435058593750000e+03) (92, 8.12413330078125000000e+02) (93, -1.48600585937500000000e+03) (94, -1.50000000000000000000e+03) (95, -1.49964660644531250000e+03) (96, 7.62688232421875000000e+02) (97, -1.49950720214843750000e+03) (98, -5.77399780273437500000e+02) (99, -1.48596447753906250000e+03) (100, -1.42622167968750000000e+03) (101, -1.49996691894531250000e+03) (102, 1.50000000000000000000e+03) (103, -1.49271069335937500000e+03) (104, -1.49990380859375000000e+03) (105, -7.46797912597656250000e+02) (106, -1.49986999511718750000e+03) (107, -1.49918591308593750000e+03) (108, 9.45318481445312500000e+02) (109, -1.49628430175781250000e+03) (110, -1.05431079101562500000e+03) (111, -1.31246899414062500000e+03) (112, 1.49999890136718750000e+03) (113, -1.49967993164062500000e+03) (114, -1.50000000000000000000e+03) (115, -6.17512390136718750000e+02) (116, -1.50000000000000000000e+03) (117, -1.49983093261718750000e+03) (118, 4.83210449218750000000e+01) (119, -2.71162902832031250000e+02) (120, 8.38576538085937500000e+02) (121, 1.47651110839843750000e+03) (122, 2.32982025146484375000e+02) (123, -1.49879919433593750000e+03) (124, -1.49923400878906250000e+03) (125, -1.49986291503906250000e+03) (126, -1.49443420410156250000e+03) (127, -1.49996655273437500000e+03) (128, 4.53366912841796875000e+02) (129, -1.49996606445312500000e+03) (130, -1.49997497558593750000e+03) (131, -1.45893066406250000000e+03) (132, -1.41829382324218750000e+03) (133, -1.49831982421875000000e+03) (134, 1.50000000000000000000e+03) (135, -1.49972888183593750000e+03) (136, 1.25585449218750000000e+03) (137, -1.49997302246093750000e+03) (138, -1.49927282714843750000e+03) (139, -1.49997302246093750000e+03) (140, -1.39337829589843750000e+03) (141, -1.49984204101562500000e+03) (142, -1.46187475585937500000e+03) (143, -1.48872143554687500000e+03) (144, -1.49971655273437500000e+03) (145, -1.49991284179687500000e+03) (146, 1.36561950683593750000e+03) (147, -1.49996606445312500000e+03) (148, -1.29243493652343750000e+03) (149, -1.49996081542968750000e+03) (150, 1.50000000000000000000e+03) (151, -1.49996044921875000000e+03) (152, 1.49995520019531250000e+03) (153, 1.49619628906250000000e+03) (154, 1.46503649902343750000e+03) (155, -1.49797009277343750000e+03) (156, -1.49844848632812500000e+03) (157, -1.45594433593750000000e+03) (158, -1.49879956054687500000e+03) (159, -1.49967382812500000000e+03) (160, -1.19096215820312500000e+03) (161, -1.24938745117187500000e+03) (162, 1.47942736816406250000e+03) (163, -4.57950256347656250000e+02) (164, 2.74289916992187500000e+02) (165, -1.49997131347656250000e+03) (166, -1.49927343750000000000e+03) (167, -1.49168115234375000000e+03) (168, -1.49923303222656250000e+03) (169, -1.13241287231445312500e+02) (170, 1.01399096679687500000e+03) (171, -1.49993066406250000000e+03) (172, 1.49994335937500000000e+03) (173, -1.49996691894531250000e+03) (174, 5.40507934570312500000e+02) (175, -1.49996508789062500000e+03) (176, -1.49970764160156250000e+03) (177, -1.42651550292968750000e+03) (178, -1.42275415039062500000e+03) (179, -1.49800708007812500000e+03) (180, -1.42274340820312500000e+03) (181, -8.77522430419921875000e+01) (182, 7.05122375488281250000e+02) (183, -1.49916198730468750000e+03) (184, -1.49401220703125000000e+03) (185, -1.42580712890625000000e+03) (186, -1.49775463867187500000e+03) (187, 3.76691650390625000000e+02) (188, -1.14465100097656250000e+03) (189, -1.42152062988281250000e+03) (190, -1.20412438964843750000e+03) (191, -1.42156140136718750000e+03) (192, 1.49996667480468750000e+03) (193, -1.49477343750000000000e+03) (194, 1.49871044921875000000e+03) (195, -1.49485888671875000000e+03) (196, 1.50000000000000000000e+03) (197, 1.50000000000000000000e+03) (198, 1.50000000000000000000e+03) (199, 1.50000000000000000000e+03) (200, -1.49990881347656250000e+03) (201, 5.41604431152343750000e+02) (202, -1.45611467361450195312e+01) (0, -1.50000000000000000000e+03) (1, -1.49988867187500000000e+03) (2, -1.50000000000000000000e+03) (3, -1.49968090820312500000e+03) (4, 2.11830978393554687500e+02) (5, -1.49941320800781250000e+03) (6, -9.83009948730468750000e+02) (7, -1.49984399414062500000e+03) (8, 6.51092468261718750000e+02) (9, -1.49953662109375000000e+03) (10, 1.49217456054687500000e+03) (11, -1.49989599609375000000e+03) (12, -1.17745227050781250000e+03) (13, -1.49952075195312500000e+03) (14, -1.79870208740234375000e+02) (15, -1.49953686523437500000e+03) (16, 4.74043060302734375000e+02) (17, -1.49960888671875000000e+03) (18, -1.48004980468750000000e+03) (19, -1.49961108398437500000e+03) (20, -1.48143029785156250000e+03) (21, -1.49964294433593750000e+03) (22, -1.49961303710937500000e+03) (23, -1.49858093261718750000e+03) (24, 6.36892700195312500000e+02) (25, -1.48050146484375000000e+03) (26, -7.46207214355468750000e+02) (27, -1.49976940917968750000e+03) (28, -1.49928295898437500000e+03) (29, -1.49892944335937500000e+03) (30, -1.25020141601562500000e+03) (31, -1.49925610351562500000e+03) (32, -6.69093505859375000000e+02) (33, -1.49982238769531250000e+03) (34, 1.13636926269531250000e+03) (35, -1.49673156738281250000e+03) (36, 1.50000000000000000000e+03) (37, -1.49945727539062500000e+03) (38, 1.23759338378906250000e+03) (39, -1.49946716308593750000e+03) (40, -1.50000000000000000000e+03) (41, -1.49959484863281250000e+03) (42, -1.50000000000000000000e+03) (43, -7.99528747558593750000e+02) (44, -1.50000000000000000000e+03) (45, 1.34155517578125000000e+03) (46, -1.49956713867187500000e+03) (47, -1.49830773925781250000e+03) (48, 2.40849151611328125000e+02) (49, -1.47648388671875000000e+03) (50, 1.50000000000000000000e+03) (51, -1.49142883300781250000e+03) (52, -1.44005627441406250000e+03) (53, 1.45404370117187500000e+03) (54, 1.49998181152343750000e+03) (55, -1.49726574707031250000e+03) (56, 5.04179321289062500000e+02) (57, -1.49674938964843750000e+03) (58, 1.36925073242187500000e+03) (59, -1.48836889648437500000e+03) (60, 1.47211853027343750000e+03) (61, -1.49615246582031250000e+03) (62, -3.71985656738281250000e+02) (63, -1.44309899902343750000e+03) (64, -1.50000000000000000000e+03) (65, -1.49967639160156250000e+03) (66, -1.50000000000000000000e+03) (67, -1.49947119140625000000e+03) (68, 1.33405126953125000000e+03) (69, -1.49684594726562500000e+03) (70, -9.96002197265625000000e+02) (71, -1.49716528320312500000e+03) (72, 1.50000000000000000000e+03) (73, -1.49982250976562500000e+03) (74, -3.59445159912109375000e+02) (75, -1.09802465820312500000e+03) (76, -1.29020837402343750000e+03) (77, -1.49982873535156250000e+03) (78, 1.46357043457031250000e+03) (79, -3.35623748779296875000e+02) (80, 1.50000000000000000000e+03) (81, -1.49219421386718750000e+03) (82, 7.23236465454101562500e+01) (83, -1.49980358886718750000e+03) (84, 3.40048370361328125000e+02) (85, -1.49925024414062500000e+03) (86, -8.84414550781250000000e+02) (87, -1.49960705566406250000e+03) (88, 2.83539855957031250000e+02) (89, -1.49959155273437500000e+03) (90, 1.62420364379882812500e+02) (91, -1.48271472167968750000e+03) (92, 1.49993347167968750000e+03) (93, -1.48535766601562500000e+03) (94, 1.50000000000000000000e+03) (95, -1.49965209960937500000e+03) (96, -1.07183300781250000000e+03) (97, -1.49927648925781250000e+03) (98, -4.01670715332031250000e+02) (99, -1.48689074707031250000e+03) (100, 1.46495336914062500000e+03) (101, -1.49944152832031250000e+03) (102, -3.79356933593750000000e+02) (103, -1.40487316894531250000e+03) (104, 1.44776281738281250000e+03) (105, -1.49984167480468750000e+03) (106, -1.41808935546875000000e+03) (107, -5.33698913574218750000e+02) (108, -1.45250463867187500000e+03) (109, -1.48758068847656250000e+03) (110, -7.58794799804687500000e+02) (111, -1.49947412109375000000e+03) (112, 1.36546936035156250000e+03) (113, -3.34838073730468750000e+02) (114, 1.50000000000000000000e+03) (115, -1.49990026855468750000e+03) (116, 1.50000000000000000000e+03) (117, -1.49979272460937500000e+03) (118, 1.50000000000000000000e+03) (119, -1.48788391113281250000e+03) (120, -1.49751147460937500000e+03) (121, -1.49946887207031250000e+03) (122, 6.52630859375000000000e+02) (123, 1.28515649414062500000e+03) (124, 1.49977197265625000000e+03) (125, -1.49984985351562500000e+03) (126, -1.49565209960937500000e+03) (127, -1.49951367187500000000e+03) (128, -9.54394409179687500000e+02) (129, -1.49902099609375000000e+03) (130, -1.49946032714843750000e+03) (131, 7.67381958007812500000e+02) (132, 1.41988281250000000000e+03) (133, -1.49967919921875000000e+03) (134, -1.08864978027343750000e+03) (135, -1.49977185058593750000e+03) (136, -9.34107482910156250000e+02) (137, -1.49948828125000000000e+03) (138, 1.99881958007812500000e+02) (139, -1.49916369628906250000e+03) (140, 1.45667224121093750000e+03) (141, -1.49958203125000000000e+03) (142, -1.21959729003906250000e+03) (143, -1.43791064453125000000e+03) (144, 7.92923400878906250000e+02) (145, -1.49974279785156250000e+03) (146, 7.44796447753906250000e+02) (147, -1.49957507324218750000e+03) (148, 5.39012145996093750000e+02) (149, -1.49862487792968750000e+03) (150, 1.91494216918945312500e+02) (151, -1.49859790039062500000e+03) (152, -1.49955139160156250000e+03) (153, -1.49981640625000000000e+03) (154, 1.20369592285156250000e+03) (155, 1.47118469238281250000e+03) (156, -1.35762072753906250000e+03) (157, -1.49979370117187500000e+03) (158, -1.49978125000000000000e+03) (159, 2.65291595458984375000e+02) (160, 6.31477355957031250000e+02) (161, -1.49984997558593750000e+03) (162, -1.49901123046875000000e+03) (163, -1.48794482421875000000e+03) (164, -1.50000000000000000000e+03) (165, -1.49951354980468750000e+03) (166, -2.30596359252929687500e+02) (167, 1.40752209472656250000e+03) (168, -1.49973645019531250000e+03) (169, -1.17194328308105468750e+02) (170, 1.46909729003906250000e+03) (171, -1.49877697753906250000e+03) (172, -1.49519738769531250000e+03) (173, -1.49941467285156250000e+03) (174, 1.49977404785156250000e+03) (175, -1.49962927246093750000e+03) (176, -1.49967907714843750000e+03) (177, -1.17303759765625000000e+03) (178, -8.64964843750000000000e+02) (179, 3.99086853027343750000e+02) (180, -8.64304321289062500000e+02) (181, 2.71046234130859375000e+02) (182, -1.49971435546875000000e+03) (183, 5.52549133300781250000e+02) (184, 1.49064318847656250000e+03) (185, -8.08206787109375000000e+02) (186, 1.50000000000000000000e+03) (187, 1.10844677734375000000e+03) (188, 5.80304016113281250000e+02) (189, -1.20253222656250000000e+03) (190, 1.50000000000000000000e+03) (191, -1.20495947265625000000e+03) (192, -1.49255358886718750000e+03) (193, 9.14523742675781250000e+02) (194, -1.49693664550781250000e+03) (195, 7.51739685058593750000e+02) (196, 1.50000000000000000000e+03) (197, 1.50000000000000000000e+03) (198, 1.50000000000000000000e+03) (199, 1.50000000000000000000e+03) (200, -1.49940307617187500000e+03) (201, -1.50000000000000000000e+03) (202, 7.61625823974609375000e+01) (0, -1.50000000000000000000e+03) (1, -1.49990478515625000000e+03) (2, -1.50000000000000000000e+03) (3, -1.49991357421875000000e+03) (4, -1.50000000000000000000e+03) (5, -1.50000000000000000000e+03) (6, -1.49976770019531250000e+03) (7, -1.49993115234375000000e+03) (8, -1.50000000000000000000e+03) (9, -1.47336816406250000000e+03) (10, -1.49160168457031250000e+03) (11, -1.49985205078125000000e+03) (12, -1.43172851562500000000e+03) (13, -1.50000000000000000000e+03) (14, -1.50000000000000000000e+03) (15, -1.36026538085937500000e+03) (16, -1.49928125000000000000e+03) (17, -1.49870800781250000000e+03) (18, -1.49869470214843750000e+03) (19, -1.49361193847656250000e+03) (20, -1.48014685058593750000e+03) (21, -1.49742065429687500000e+03) (22, -1.50000000000000000000e+03) (23, -1.49976525878906250000e+03) (24, -1.50000000000000000000e+03) (25, -1.49731726074218750000e+03) (26, -1.49999987792968750000e+03) (27, -1.49921044921875000000e+03) (28, -1.49871520996093750000e+03) (29, -1.49894299316406250000e+03) (30, -1.49999987792968750000e+03) (31, -1.50000000000000000000e+03) (32, -1.49945166015625000000e+03) (33, -1.49991564941406250000e+03) (34, 1.38075036621093750000e+03) (35, -1.50000000000000000000e+03) (36, 1.50000000000000000000e+03) (37, -1.26318090820312500000e+03) (38, 5.67140625000000000000e+02) (39, -1.50000000000000000000e+03) (40, -1.50000000000000000000e+03) (41, -6.01993225097656250000e+02) (42, -1.50000000000000000000e+03) (43, -1.49850500488281250000e+03) (44, -1.50000000000000000000e+03) (45, -1.49543200683593750000e+03) (46, 1.19307238769531250000e+03) (47, -1.50000000000000000000e+03) (48, -1.50000000000000000000e+03) (49, -1.48896203613281250000e+03) (50, -1.49972277832031250000e+03) (51, 6.66192260742187500000e+02) (52, -1.48231579589843750000e+03) (53, -1.49836206054687500000e+03) (54, -1.49929211425781250000e+03) (55, 5.67628845214843750000e+02) (56, -1.46548217773437500000e+03) (57, -1.49772949218750000000e+03) (58, 1.50000000000000000000e+03) (59, -1.50000000000000000000e+03) (60, -1.49781640625000000000e+03) (61, -1.50000000000000000000e+03) (62, -1.49780432128906250000e+03) (63, -1.50000000000000000000e+03) (64, -1.50000000000000000000e+03) (65, -1.49876074218750000000e+03) (66, -1.50000000000000000000e+03) (67, -1.50000000000000000000e+03) (68, -1.48450451660156250000e+03) (69, -1.49784582519531250000e+03) (70, 1.13969177246093750000e+03) (71, -1.49249487304687500000e+03) (72, 1.50000000000000000000e+03) (73, -1.43621252441406250000e+03) (74, -1.50000000000000000000e+03) (75, -1.49996618652343750000e+03) (76, -1.49920007324218750000e+03) (77, -1.50000000000000000000e+03) (78, -1.47161889648437500000e+03) (79, -1.49993701171875000000e+03) (80, 1.49999841308593750000e+03) (81, 3.68045501708984375000e+02) (82, 1.50000000000000000000e+03) (83, 1.55614746093750000000e+02) (84, -1.49598010253906250000e+03) (85, -1.47821679687500000000e+03) (86, 1.49962280273437500000e+03) (87, 4.12957092285156250000e+02) (88, 1.34223718261718750000e+03) (89, -1.49953784179687500000e+03) (90, 1.40718460083007812500e+02) (91, -1.50000000000000000000e+03) (92, 1.49972595214843750000e+03) (93, -1.50000000000000000000e+03) (94, 1.50000000000000000000e+03) (95, -1.49961022949218750000e+03) (96, 1.50000000000000000000e+03) (97, -1.49930444335937500000e+03) (98, 1.49999816894531250000e+03) (99, -1.48563977050781250000e+03) (100, -1.42859497070312500000e+03) (101, -1.50000000000000000000e+03) (102, -1.50000000000000000000e+03) (103, -1.49583703613281250000e+03) (104, -1.62311996459960937500e+02) (105, -1.50000000000000000000e+03) (106, -1.49990649414062500000e+03) (107, -1.49934558105468750000e+03) (108, -1.11746032714843750000e+03) (109, -1.49064697265625000000e+03) (110, 1.30808056640625000000e+03) (111, -1.50000000000000000000e+03) (112, 1.49999230957031250000e+03) (113, -1.49984277343750000000e+03) (114, 1.50000000000000000000e+03) (115, -1.50000000000000000000e+03) (116, 1.50000000000000000000e+03) (117, -1.50000000000000000000e+03) (118, 1.50000000000000000000e+03) (119, -1.50000000000000000000e+03) (120, -1.49676672363281250000e+03) (121, -1.50000000000000000000e+03) (122, 1.49999841308593750000e+03) (123, -1.49968347167968750000e+03) (124, 1.49988610839843750000e+03) (125, -1.50000000000000000000e+03) (126, -1.49644885253906250000e+03) (127, -1.50000000000000000000e+03) (128, 1.50000000000000000000e+03) (129, -1.50000000000000000000e+03) (130, -1.50000000000000000000e+03) (131, -1.50000000000000000000e+03) (132, -1.49736669921875000000e+03) (133, -7.11682617187500000000e+02) (134, -1.50000000000000000000e+03) (135, -1.46170581054687500000e+03) (136, 6.25147338867187500000e+02) (137, -1.50000000000000000000e+03) (138, -1.49188720703125000000e+03) (139, -1.38258166503906250000e+03) (140, -1.49879443359375000000e+03) (141, -1.40961328125000000000e+03) (142, -1.49990625000000000000e+03) (143, -1.49312512207031250000e+03) (144, -6.80476623535156250000e+02) (145, -1.50000000000000000000e+03) (146, -1.48706628417968750000e+03) (147, -1.50000000000000000000e+03) (148, 1.49985559082031250000e+03) (149, -1.50000000000000000000e+03) (150, -1.50000000000000000000e+03) (151, -1.50000000000000000000e+03) (152, -1.49877197265625000000e+03) (153, 1.42628015136718750000e+03) (154, 1.50000000000000000000e+03) (155, -1.49819177246093750000e+03) (156, -1.35352124023437500000e+03) (157, -1.49754980468750000000e+03) (158, -1.32557824707031250000e+03) (159, -1.49981811523437500000e+03) (160, -1.49970227050781250000e+03) (161, -1.50000000000000000000e+03) (162, -1.49999316406250000000e+03) (163, -1.50000000000000000000e+03) (164, -1.50000000000000000000e+03) (165, -1.49957043457031250000e+03) (166, -1.49911706542968750000e+03) (167, -1.49290454101562500000e+03) (168, -1.49881262207031250000e+03) (169, 9.73720947265625000000e+02) (170, 1.47039147949218750000e+03) (171, -1.41663073730468750000e+03) (172, 1.50000000000000000000e+03) (173, -1.50000000000000000000e+03) (174, -7.89266967773437500000e+01) (175, -1.50000000000000000000e+03) (176, -1.49960070800781250000e+03) (177, -1.43413000488281250000e+03) (178, -1.42302355957031250000e+03) (179, -1.49817028808593750000e+03) (180, -1.42304260253906250000e+03) (181, -1.39633468627929687500e+02) (182, 7.05298095703125000000e+02) (183, -1.49928503417968750000e+03) (184, -1.25849609375000000000e+03) (185, -1.49598242187500000000e+03) (186, 1.50000000000000000000e+03) (187, -1.50000000000000000000e+03) (188, 1.50000000000000000000e+03) (189, -1.49598242187500000000e+03) (190, 1.50000000000000000000e+03) (191, -1.49577856445312500000e+03) (192, 1.49456579589843750000e+03) (193, -1.49561865234375000000e+03) (194, 1.50000000000000000000e+03) (195, -1.49586120605468750000e+03) (196, 1.50000000000000000000e+03) (197, 1.50000000000000000000e+03) (198, 1.50000000000000000000e+03) (199, 1.50000000000000000000e+03) (200, -1.47801330566406250000e+03) (201, -1.50000000000000000000e+03) (202, -9.70603210449218750000e+02) (0, 1.50000000000000000000e+03) (1, -8.24901855468750000000e+02) (2, 1.50000000000000000000e+03) (3, 6.89992919921875000000e+02) (4, 1.50000000000000000000e+03) (5, -1.49966503906250000000e+03) (6, 1.36553735351562500000e+03) (7, -9.81539550781250000000e+02) (8, 1.50000000000000000000e+03) (9, -1.49974279785156250000e+03) (10, 1.50000000000000000000e+03) (11, -3.28122894287109375000e+02) (12, -6.89389953613281250000e+02) (13, -1.49971667480468750000e+03) (14, 1.31938317871093750000e+03) (15, -1.49978894042968750000e+03) (16, -1.49419042968750000000e+03) (17, -6.18512268066406250000e+02) (18, 1.48659790039062500000e+03) (19, -1.49969152832031250000e+03) (20, -1.48082202148437500000e+03) (21, -1.49954602050781250000e+03) (22, 1.49974353027343750000e+03) (23, -1.49909045410156250000e+03) (24, 1.50000000000000000000e+03) (25, -1.49517724609375000000e+03) (26, -1.49980041503906250000e+03) (27, -1.49855541992187500000e+03) (28, -1.49899938964843750000e+03) (29, -1.49893676757812500000e+03) (30, 1.49302514648437500000e+03) (31, -1.49956958007812500000e+03) (32, 3.24709381103515625000e+02) (33, -1.49954943847656250000e+03) (34, 1.49901306152343750000e+03) (35, -1.49682312011718750000e+03) (36, -1.50000000000000000000e+03) (37, -1.49969567871093750000e+03) (38, -1.41529870605468750000e+03) (39, -1.49966809082031250000e+03) (40, 1.50000000000000000000e+03) (41, -1.49967041015625000000e+03) (42, 1.50000000000000000000e+03) (43, -1.49963940429687500000e+03) (44, 1.50000000000000000000e+03) (45, -1.47410473632812500000e+03) (46, -1.26400756835937500000e+03) (47, 1.49990368652343750000e+03) (48, 1.38938232421875000000e+03) (49, -1.48840148925781250000e+03) (50, -1.49990258789062500000e+03) (51, -1.49309619140625000000e+03) (52, -1.34391101074218750000e+03) (53, -1.48663403320312500000e+03) (54, 1.22330761718750000000e+03) (55, -1.49942102050781250000e+03) (56, 1.50000000000000000000e+03) (57, -1.49789672851562500000e+03) (58, -1.50000000000000000000e+03) (59, 1.42727893066406250000e+03) (60, -1.48066711425781250000e+03) (61, -1.47377001953125000000e+03) (62, 5.98032775878906250000e+02) (63, -1.49907568359375000000e+03) (64, 1.50000000000000000000e+03) (65, -1.49980920410156250000e+03) (66, 1.50000000000000000000e+03) (67, -1.48871301269531250000e+03) (68, 1.50000000000000000000e+03) (69, -1.49734460449218750000e+03) (70, -1.34037976074218750000e+03) (71, -1.49730786132812500000e+03) (72, -1.50000000000000000000e+03) (73, -1.49955957031250000000e+03) (74, -1.49964562988281250000e+03) (75, -5.04526916503906250000e+02) (76, -5.85972778320312500000e+02) (77, 1.49991369628906250000e+03) (78, 1.50000000000000000000e+03) (79, -1.38021557617187500000e+03) (80, 1.49988171386718750000e+03) (81, -1.49318518066406250000e+03) (82, -1.49984167480468750000e+03) (83, -1.32958593750000000000e+03) (84, 1.49793518066406250000e+03) (85, -1.49972900390625000000e+03) (86, -1.31052197265625000000e+03) (87, -1.49994213867187500000e+03) (88, -4.24889190673828125000e+02) (89, -1.49979138183593750000e+03) (90, 2.62842956542968750000e+02) (91, 1.49800854492187500000e+03) (92, 1.49971313476562500000e+03) (93, -1.49972753906250000000e+03) (94, -1.50000000000000000000e+03) (95, -1.49966235351562500000e+03) (96, 7.68614746093750000000e+02) (97, -7.86791259765625000000e+02) (98, 1.49998986816406250000e+03) (99, -1.48663989257812500000e+03) (100, 1.50000000000000000000e+03) (101, -1.49970227050781250000e+03) (102, 1.50000000000000000000e+03) (103, -1.48576379394531250000e+03) (104, -1.49434509277343750000e+03) (105, -1.49667419433593750000e+03) (106, -1.43578051757812500000e+03) (107, -8.23833068847656250000e+02) (108, -1.13929809570312500000e+03) (109, -1.48546618652343750000e+03) (110, -1.07201501464843750000e+03) (111, -1.46838781738281250000e+03) (112, 1.49989099121093750000e+03) (113, -1.49728979492187500000e+03) (114, -1.50000000000000000000e+03) (115, 1.49632983398437500000e+03) (116, -1.50000000000000000000e+03) (117, 2.03956848144531250000e+02) (118, -1.50000000000000000000e+03) (119, 1.49939465332031250000e+03) (120, -1.49721899414062500000e+03) (121, 1.49638024902343750000e+03) (122, 1.62127365112304687500e+02) (123, -1.49366601562500000000e+03) (124, -1.49999987792968750000e+03) (125, -1.49778466796875000000e+03) (126, -1.49654333496093750000e+03) (127, -1.49972595214843750000e+03) (128, -9.58077774047851562500e+01) (129, -1.49969641113281250000e+03) (130, -1.49972290039062500000e+03) (131, -1.45832006835937500000e+03) (132, 1.50000000000000000000e+03) (133, -1.49962585449218750000e+03) (134, 1.50000000000000000000e+03) (135, -1.49954833984375000000e+03) (136, 1.30228063964843750000e+03) (137, -1.49858447265625000000e+03) (138, -1.49449194335937500000e+03) (139, -1.49976135253906250000e+03) (140, 1.50000000000000000000e+03) (141, -1.49953100585937500000e+03) (142, -1.36542810058593750000e+03) (143, -1.48735961914062500000e+03) (144, -1.49447851562500000000e+03) (145, -9.98672668457031250000e+02) (146, -1.48640930175781250000e+03) (147, -1.49968518066406250000e+03) (148, -3.79359161376953125000e+02) (149, -1.49958520507812500000e+03) (150, 1.50000000000000000000e+03) (151, -1.49967651367187500000e+03) (152, 1.49966479492187500000e+03) (153, 1.49986645507812500000e+03) (154, -8.18481933593750000000e+02) (155, -1.48884289550781250000e+03) (156, -1.35643469238281250000e+03) (157, -1.47011840820312500000e+03) (158, -1.49956457519531250000e+03) (159, -1.49732629394531250000e+03) (160, -1.49760559082031250000e+03) (161, -8.26939758300781250000e+02) (162, 1.49770227050781250000e+03) (163, 1.49949365234375000000e+03) (164, 1.50000000000000000000e+03) (165, -1.49976806640625000000e+03) (166, -1.49456396484375000000e+03) (167, -1.45651062011718750000e+03) (168, -1.49925439453125000000e+03) (169, -3.49556121826171875000e+02) (170, 1.04756848144531250000e+03) (171, -1.49971691894531250000e+03) (172, 7.59696411132812500000e+02) (173, -1.49973278808593750000e+03) (174, 1.49992114257812500000e+03) (175, -1.20619766235351562500e+02) (176, -5.24537231445312500000e+02) (177, -9.83586730957031250000e+02) (178, -3.28338439941406250000e+02) (179, -1.48893542480468750000e+03) (180, -3.27254180908203125000e+02) (181, 6.93095350265502929688e+00) (182, 7.68814819335937500000e+02) (183, -1.49437023925781250000e+03) (184, 1.35539611816406250000e+03) (185, 2.70468383789062500000e+02) (186, -1.50000000000000000000e+03) (187, 1.50000000000000000000e+03) (188, -5.10686431884765625000e+02) (189, -5.07438415527343750000e+02) (190, -1.50000000000000000000e+03) (191, -1.41021713256835937500e+02) (192, 1.49783703613281250000e+03) (193, -1.47392736816406250000e+03) (194, 1.49812915039062500000e+03) (195, -1.47356982421875000000e+03) (196, 1.50000000000000000000e+03) (197, 1.50000000000000000000e+03) (198, 1.50000000000000000000e+03) (199, 1.50000000000000000000e+03) (200, -1.49969140625000000000e+03) (201, 1.50000000000000000000e+03) (202, 5.74970102310180664062e+00) (0, 7.66267347335815429688e+00) (1, 1.31140649318695068359e+00) (2, 3.42652487754821777344e+00) (3, -1.85193431377410888672e+00) (4, -1.15908837318420410156e+00) (5, -1.81675958633422851562e+00) (6, -8.97379112243652343750e+00) (7, -7.09543600678443908691e-02) (8, -5.15799331665039062500e+00) (9, 1.89956915378570556641e+00) (10, 6.98746633529663085938e+00) (11, -3.54928016662597656250e+00) (12, 4.66277837753295898438e+00) (13, -2.87448555231094360352e-01) (14, -2.18418521881103515625e+01) (15, 3.90504002571105957031e+00) (16, -1.75644159317016601562e+00) (17, -6.16644263267517089844e-01) (18, -8.66121387481689453125e+00) (19, -5.96516311168670654297e-01) (20, 3.76656055450439453125e+00) (21, -2.33372896909713745117e-01) (22, 3.31071734428405761719e+00) (23, 6.33025836944580078125e+00) (24, 8.90208530426025390625e+00) (25, 1.50679433345794677734e+00) (26, -7.13060426712036132812e+00) (27, -1.44100022315979003906e+00) (28, -1.54204092025756835938e+01) (29, -1.17434844970703125000e+01) (30, -6.60868024826049804688e+00) (31, 1.95512723922729492188e+00) (32, 5.28575801849365234375e+00) (33, -4.47150617837905883789e-01) (34, 2.48242225646972656250e+01) (35, -1.25111925601959228516e+00) (36, 1.97901554107666015625e+01) (37, -3.37792181968688964844e+00) (38, 4.79102659225463867188e+00) (39, 3.58107417821884155273e-01) (40, -9.85903549194335937500e+00) (41, -4.28960132598876953125e+00) (42, -4.72931003570556640625e+00) (43, 5.03582763671875000000e+00) (44, 2.59754409790039062500e+01) (45, 1.93844974040985107422e+00) (46, -5.46712636947631835938e+00) (47, -1.21691858768463134766e+00) (48, -3.86158585548400878906e+00) (49, -2.66685581207275390625e+00) (50, -1.05256903171539306641e+00) (51, 3.78164601325988769531e+00) (52, -7.72678327560424804688e+00) (53, 2.06379747390747070312e+00) (54, -4.69787454605102539062e+00) (55, -4.19439363479614257812e+00) (56, 6.95095586776733398438e+00) (57, -3.24911546707153320312e+00) (58, -1.09053719043731689453e+00) (59, -1.78365731239318847656e+00) (60, -1.68202552795410156250e+01) (61, 9.49525928497314453125e+00) (62, -3.00705356597900390625e+01) (63, -4.89087247848510742188e+00) (64, 2.17008419036865234375e+01) (65, 1.06343972682952880859e+00) (66, -4.98815488815307617188e+00) (67, 1.08879160881042480469e+00) (68, 3.54141330718994140625e+00) (69, -1.24214029312133789062e+00) (70, -6.93666696548461914062e+00) (71, 2.57549881935119628906e+00) (72, 8.55038452148437500000e+00) (73, -8.84420931339263916016e-01) (74, 3.64244008064270019531e+00) (75, -2.52664732933044433594e+00) (76, -2.74527168273925781250e+00) (77, 3.93587636947631835938e+00) (78, 8.46023941040039062500e+00) (79, -8.99374261498451232910e-02) (80, -6.38424301147460937500e+00) (81, -1.14936161041259765625e+00) (82, -1.96600472927093505859e+00) (83, 3.44826269149780273438e+00) (84, 9.82614231109619140625e+00) (85, 1.98333215713500976562e+00) (86, -1.34853353500366210938e+01) (87, 6.07252120971679687500e-01) (88, -1.47083282470703125000e+00) (89, -2.97588086128234863281e+00) (90, 9.52233505249023437500e+00) (91, 2.17496705055236816406e+00) (92, 5.37535095214843750000e+00) (93, 1.67849266529083251953e+00) (94, 4.44883012771606445312e+00) (95, 3.43665242195129394531e+00) (96, 9.05134582519531250000e+00) (97, -9.60301101207733154297e-01) (98, -2.35518169403076171875e+01) (99, 6.24841809272766113281e-01) (100, 5.68696117401123046875e+00) (101, -5.65191555023193359375e+00) (102, 1.65373916625976562500e+01) (103, 1.15986704826354980469e+00) (104, 8.56254768371582031250e+00) (105, -1.07225942611694335938e+00) (106, 3.49646306037902832031e+00) (107, -1.30310165882110595703e+00) (108, 1.72486829757690429688e+00) (109, -5.59869110584259033203e-01) (110, -5.88710451126098632812e+00) (111, 6.24045085906982421875e+00) (112, 9.18053817749023437500e+00) (113, 2.35530471801757812500e+00) (114, 2.78544259071350097656e+00) (115, -2.25260114669799804688e+00) (116, 4.48862671852111816406e-01) (117, 3.26725411415100097656e+00) (118, -4.96682882308959960938e+00) (119, 4.17466402053833007812e+00) (120, 1.04205932617187500000e+01) (121, 3.92939829826354980469e+00) (122, 3.48905324935913085938e-02) (123, -3.88978052139282226562e+00) (124, 8.31958770751953125000e+00) (125, 1.99567389488220214844e+00) (126, -2.08892898559570312500e+01) (127, -1.18545222282409667969e+00) (128, 1.20051698684692382812e+01) (129, 3.82035923004150390625e+00) (130, 5.76536273956298828125e+00) (131, 2.26128959655761718750e+00) (132, 1.53067770004272460938e+01) (133, -7.66193723678588867188e+00) (134, 1.02056419849395751953e+00) (135, -3.25724077224731445312e+00) (136, -1.00126714706420898438e+01) (137, 6.83438956737518310547e-01) (138, -9.95400810241699218750e+00) (139, 1.60845756530761718750e+00) (140, -1.57870693206787109375e+01) (141, -2.75098347663879394531e+00) (142, 8.88628578186035156250e+00) (143, 6.76616811752319335938e+00) (144, 1.16157646179199218750e+01) (145, -9.91028428077697753906e-01) (146, 3.55442070960998535156e+00) (147, -2.10687041282653808594e+00) (148, -1.77464294433593750000e+01) (149, 3.11943650245666503906e+00) (150, -6.30154657363891601562e+00) (151, 1.21281039714813232422e+00) (152, -1.08853073120117187500e+01) (153, 1.83412924408912658691e-01) (154, 1.92870407104492187500e+01) (155, -1.80948531627655029297e+00) (156, -1.19852380752563476562e+01) (157, -3.69611668586730957031e+00) (158, -1.06862032413482666016e+00) (159, -3.81893485784530639648e-01) (160, -7.49469327926635742188e+00) (161, 5.13795280456542968750e+00) (162, 1.51437597274780273438e+01) (163, 4.95282649993896484375e+00) (164, 1.23802604675292968750e+01) (165, -1.20121133327484130859e+00) (166, -7.79052782058715820312e+00) (167, -1.97757756710052490234e+00) (168, 2.29603528976440429688e+00) (169, -8.18357086181640625000e+00) (170, -5.83818817138671875000e+00) (171, 1.95903241634368896484e-01) (172, -2.33489775657653808594e+00) (173, -1.09918003082275390625e+01) (174, -5.28993988037109375000e+00) (175, 1.99492740631103515625e+00) (176, 4.90583300590515136719e-01) (177, -3.04661095142364501953e-02) (178, -2.34008598327636718750e+01) (179, 9.24310505390167236328e-01) (180, 5.66580295562744140625e-01) (181, 1.45581877231597900391e+00) (182, 2.48487262725830078125e+01) (183, 3.39976859092712402344e+00) (184, 4.56537038087844848633e-01) (185, -2.11641192436218261719e+00) (186, -2.43853740692138671875e+01) (187, -1.08700200915336608887e-01) (188, 2.08770179748535156250e+00) (189, 2.37698340415954589844e+00) (190, -5.93427371978759765625e+00) (191, -1.15804564952850341797e+00) (192, 1.49316053390502929688e+01) (193, 7.53347349166870117188e+00) (194, -9.15213680267333984375e+00) (195, 1.27318727970123291016e+00) (196, 1.50000000000000000000e+03) (197, 1.50000000000000000000e+03) (198, 1.50000000000000000000e+03) (199, 1.50000000000000000000e+03) (200, 2.06287193298339843750e+00) (201, 1.03150520324707031250e+01) (202, 1.06927843093872070312e+01) (0, 5.53293895721435546875e+00) (1, -6.12665033340454101562e+00) (2, -2.29004526138305664062e+00) (3, 1.16032266616821289062e+00) (4, -6.29880607128143310547e-01) (5, 2.04479742050170898438e+00) (6, -1.15835785865783691406e+00) (7, 1.42873138189315795898e-01) (8, 5.38627862930297851562e+00) (9, -2.18093132972717285156e+00) (10, 2.23165845870971679688e+00) (11, -1.58031260967254638672e+00) (12, -6.11481368541717529297e-02) (13, -3.80654245615005493164e-01) (14, -1.75900614261627197266e+00) (15, -4.60340529680252075195e-01) (16, -5.88205623626708984375e+00) (17, 2.73501098155975341797e-01) (18, -2.07477259635925292969e+00) (19, 1.48473262786865234375e+00) (20, 2.25897622108459472656e+00) (21, -4.20945310592651367188e+00) (22, 4.04066705703735351562e+00) (23, 5.51426267623901367188e+00) (24, -6.43385314941406250000e+00) (25, -1.98749709129333496094e+00) (26, -6.87590551376342773438e+00) (27, -6.08092784881591796875e+00) (28, 9.25763797760009765625e+00) (29, 5.53980636596679687500e+00) (30, 8.83875083923339843750e+00) (31, 1.85692274570465087891e+00) (32, -5.35306549072265625000e+00) (33, 5.17212533950805664062e+00) (34, -1.48148412704467773438e+01) (35, 3.06259655952453613281e+00) (36, 3.50925445556640625000e+00) (37, -3.50522160530090332031e+00) (38, 3.65427660942077636719e+00) (39, 2.66653776168823242188e+00) (40, 1.26502027511596679688e+01) (41, -1.80101668834686279297e+00) (42, -3.81622958183288574219e+00) (43, 9.81375575065612792969e-02) (44, 8.07287120819091796875e+00) (45, 4.46978473663330078125e+00) (46, -1.30539131164550781250e+01) (47, -1.31894171237945556641e+00) (48, 5.85546159744262695312e+00) (49, -4.20261573791503906250e+00) (50, 7.83828198909759521484e-01) (51, -6.27951085567474365234e-01) (52, -5.97948980331420898438e+00) (53, 3.22834515571594238281e+00) (54, -6.69874000549316406250e+00) (55, -2.30810952186584472656e+00) (56, 2.43396353721618652344e+00) (57, -3.69589328765869140625e+00) (58, 1.14543380737304687500e+01) (59, 3.61387848854064941406e+00) (60, 3.74980998039245605469e+00) (61, 5.53053617477416992188e+00) (62, -3.13308095932006835938e+00) (63, -1.40432584285736083984e+00) (64, -1.01274261474609375000e+01) (65, -1.98023748397827148438e+00) (66, 9.01835560798645019531e-01) (67, 4.47409915924072265625e+00) (68, 9.39007759094238281250e+00) (69, -3.17561817169189453125e+00) (70, -4.19349002838134765625e+00) (71, -2.46898961067199707031e+00) (72, 1.63601887226104736328e+00) (73, -2.15544176101684570312e+00) (74, -7.04667758941650390625e+00) (75, 3.89837813377380371094e+00) (76, 4.42308807373046875000e+00) (77, 2.05629676580429077148e-01) (78, -2.02883553504943847656e+00) (79, -1.79570242762565612793e-01) (80, -5.53409957885742187500e+00) (81, 2.49395775794982910156e+00) (82, 4.61220645904541015625e+00) (83, 4.40630865097045898438e+00) (84, -5.23341989517211914062e+00) (85, -6.53410851955413818359e-01) (86, 1.39208240509033203125e+01) (87, 1.37314307689666748047e+00) (88, 4.08082771301269531250e+00) (89, -1.59392106533050537109e+00) (90, 1.59727621078491210938e+00) (91, -5.19738458096981048584e-02) (92, -3.82167506217956542969e+00) (93, -1.71583592891693115234e+00) (94, 5.28750228881835937500e+00) (95, -5.69815206527709960938e+00) (96, -3.57697987556457519531e+00) (97, -1.10891771316528320312e+00) (98, -2.77803921699523925781e+00) (99, 8.91076850891113281250e+00) (100, -7.12006616592407226562e+00) (101, -3.00454282760620117188e+00) (102, 1.93696653842926025391e+00) (103, -1.03190505504608154297e+00) (104, 6.65986680984497070312e+00) (105, 2.74152904748916625977e-01) (106, -2.99098920822143554688e+00) (107, -2.25987696647644042969e+00) (108, 4.10740041732788085938e+00) (109, -6.10402375459671020508e-02) (110, -4.30920886993408203125e+00) (111, 5.29854930937290191650e-02) (112, 4.72770881652832031250e+00) (113, -2.01975607872009277344e+00) (114, 7.43887090682983398438e+00) (115, 2.31177878379821777344e+00) (116, -5.62862634658813476562e+00) (117, 1.00380635261535644531e+00) (118, 8.21154117584228515625e+00) (119, -5.33577859401702880859e-01) (120, 4.20273780822753906250e-01) (121, -2.14299035072326660156e+00) (122, -1.01293659210205078125e+00) (123, 1.27821671962738037109e+00) (124, 1.24286546707153320312e+01) (125, -3.39397311210632324219e+00) (126, -8.26582193374633789062e-01) (127, 4.17139148712158203125e+00) (128, 1.65311539173126220703e+00) (129, -4.44659411907196044922e-01) (130, 3.55694800615310668945e-01) (131, 3.24794006347656250000e+00) (132, -9.77994680404663085938e-01) (133, -8.41709196567535400391e-01) (134, -1.38667213916778564453e+00) (135, -1.88758552074432373047e+00) (136, 2.92248892784118652344e+00) (137, 3.11419939994812011719e+00) (138, 5.13466596603393554688e+00) (139, 2.55969691276550292969e+00) (140, -1.41479358673095703125e+01) (141, 3.09789571911096572876e-02) (142, -4.27294588088989257812e+00) (143, -9.03502941131591796875e+00) (144, 2.27735900878906250000e+00) (145, 2.92411565780639648438e+00) (146, -5.52453756332397460938e-01) (147, -3.78906321525573730469e+00) (148, 2.92896389961242675781e+00) (149, -1.72463166713714599609e+00) (150, -4.37927150726318359375e+00) (151, -1.56271141022443771362e-02) (152, 9.30442035198211669922e-01) (153, 2.74287819862365722656e+00) (154, 7.73540973663330078125e+00) (155, -3.78790879249572753906e+00) (156, 1.10558271408081054688e+00) (157, 8.53361308574676513672e-01) (158, -9.52394247055053710938e-01) (159, 1.08782422542572021484e+00) (160, -6.34234285354614257812e+00) (161, 1.70124554634094238281e+00) (162, 6.29954385757446289062e+00) (163, -1.58830606937408447266e+00) (164, -1.28668518066406250000e+01) (165, 4.49653267860412597656e-01) (166, 3.90311098098754882812e+00) (167, 3.89008498191833496094e+00) (168, -8.86636555194854736328e-01) (169, 7.99172580242156982422e-01) (170, -1.77380490303039550781e+00) (171, -3.17543578147888183594e+00) (172, -8.62035930156707763672e-01) (173, -8.17496180534362792969e-01) (174, 2.90645551681518554688e+00) (175, -4.72646093368530273438e+00) (176, -1.05899562835693359375e+01) (177, 5.25419807434082031250e+00) (178, 1.19661414623260498047e+00) (179, -5.16882705688476562500e+00) (180, 7.17275440692901611328e-01) (181, 4.22554779052734375000e+00) (182, 1.60388317108154296875e+01) (183, -4.39592218399047851562e+00) (184, -2.05385875701904296875e+01) (185, 1.17492399215698242188e+01) (186, 5.69479417800903320312e+00) (187, -1.12987883388996124268e-01) (188, 2.22279191017150878906e-01) (189, -4.43109005689620971680e-01) (190, 9.97846841812133789062e-01) (191, -3.82732582092285156250e+00) (192, 5.23338747024536132812e+00) (193, -1.31630003452301025391e+00) (194, 1.26310861110687255859e+00) (195, 1.73362708091735839844e+00) (196, 1.50000000000000000000e+03) (197, 1.50000000000000000000e+03) (198, 1.50000000000000000000e+03) (199, 1.50000000000000000000e+03) (200, 7.05631315708160400391e-01) (201, -2.81019473075866699219e+00) (202, 1.05472898483276367188e+01) (0, 1.10246586799621582031e+00) (1, 2.10060858726501464844e+00) (2, 6.88110923767089843750e+00) (3, -1.04129199981689453125e+01) (4, 9.02330458164215087891e-01) (5, -4.51674222946166992188e+00) (6, 9.21809005737304687500e+00) (7, -4.09418916702270507812e+00) (8, -1.28116397857666015625e+01) (9, 3.48806333541870117188e+00) (10, 4.14318895339965820312e+00) (11, 8.32152485847473144531e-01) (12, 8.54720687866210937500e+00) (13, 4.47047424316406250000e+00) (14, 1.87246286869049072266e+00) (15, -4.37898159027099609375e+00) (16, 1.65413022041320800781e+00) (17, -1.70661365985870361328e+00) (18, 9.10820674896240234375e+00) (19, 5.27711296081542968750e+00) (20, -3.11336016654968261719e+00) (21, -1.69048833847045898438e+00) (22, -7.61941957473754882812e+00) (23, -1.23819959163665771484e+00) (24, -1.68128471374511718750e+01) (25, -5.15792417526245117188e+00) (26, 1.01939220428466796875e+01) (27, 7.77635002136230468750e+00) (28, -1.40438175201416015625e+01) (29, -1.15484595298767089844e+00) (30, 1.88206920623779296875e+01) (31, 5.07560396194458007812e+00) (32, 5.90177268981933593750e+01) (33, -6.64769029617309570312e+00) (34, 1.99208545684814453125e+01) (35, 3.97254776954650878906e+00) (36, 4.36249828338623046875e+00) (37, -3.55655622482299804688e+00) (38, -7.57019472122192382812e+00) (39, -5.59174966812133789062e+00) (40, 1.37524347305297851562e+01) (41, -6.86528682708740234375e+00) (42, 1.22830009460449218750e+01) (43, -3.70851278305053710938e+00) (44, 7.96055030822753906250e+00) (45, 3.61332917213439941406e+00) (46, -3.44825315475463867188e+00) (47, -3.08369636535644531250e+00) (48, 1.71446704864501953125e+01) (49, -1.03789567947387695312e+01) (50, 7.43021678924560546875e+00) (51, 1.10195028781890869141e+00) (52, -1.51148252487182617188e+01) (53, 2.80253052711486816406e+00) (54, -2.76371841430664062500e+01) (55, 6.09984517097473144531e-01) (56, 6.45627593994140625000e+00) (57, 5.27064561843872070312e-01) (58, 1.30196638107299804688e+01) (59, 3.67516207695007324219e+00) (60, 7.17429542541503906250e+00) (61, 5.24889469146728515625e+00) (62, -2.20523910522460937500e+01) (63, 9.16811180114746093750e+00) (64, -6.20570278167724609375e+00) (65, -3.17136138677597045898e-01) (66, -1.69616203308105468750e+01) (67, 4.65726524591445922852e-01) (68, 2.41882266998291015625e+01) (69, 9.33695137500762939453e-01) (70, -1.79181079864501953125e+01) (71, -3.13414263725280761719e+00) (72, 9.58406448364257812500e+00) (73, -2.86655640602111816406e+00) (74, 1.52294511795043945312e+01) (75, 8.41110801696777343750e+00) (76, -1.31027717590332031250e+01) (77, -2.08228373527526855469e+00) (78, 5.19583702087402343750e+00) (79, -2.47656178474426269531e+00) (80, -2.70998897552490234375e+01) (81, -9.41919898986816406250e+00) (82, -1.95007915496826171875e+01) (83, 2.61865067481994628906e+00) (84, 1.70588397979736328125e+00) (85, -1.73582720756530761719e+00) (86, -9.13169288635253906250e+00) (87, 1.64254045486450195312e+00) (88, 2.56735491752624511719e+00) (89, -1.86105883121490478516e+00) (90, -1.55786161422729492188e+01) (91, 2.79173302650451660156e+00) (92, -7.52180671691894531250e+00) (93, 2.86379247903823852539e-01) (94, -1.83560886383056640625e+01) (95, -2.06208086013793945312e+00) (96, 1.09806718826293945312e+01) (97, 7.22087740898132324219e-01) (98, 1.31308221817016601562e+01) (99, -2.28476333618164062500e+00) (100, -1.01303863525390625000e+01) (101, -4.85887765884399414062e-01) (102, 9.99394989013671875000e+00) (103, 7.47839260101318359375e+00) (104, -1.91711311340332031250e+01) (105, 9.04342532157897949219e-01) (106, -8.00394821166992187500e+00) (107, -3.84925752878189086914e-02) (108, -3.64466166496276855469e+00) (109, -3.05373597145080566406e+00) (110, -1.32274322509765625000e+01) (111, 3.82832765579223632812e+00) (112, 4.16874456405639648438e+00) (113, -1.10198891162872314453e+00) (114, 4.86636009216308593750e+01) (115, 1.61580085754394531250e+00) (116, -7.88282775878906250000e+00) (117, 1.81180810928344726562e+00) (118, -5.89412784576416015625e+00) (119, -2.53846907615661621094e+00) (120, 6.72139215469360351562e+00) (121, 4.46728229522705078125e+00) (122, -3.90740990638732910156e+00) (123, 3.33510756492614746094e+00) (124, -7.95203256607055664062e+00) (125, -1.85819435864686965942e-02) (126, 1.01246519088745117188e+01) (127, -1.24302024841308593750e+01) (128, -1.37634868621826171875e+01) (129, -3.85601568222045898438e+00) (130, 5.46440839767456054688e+00) (131, 1.27410316467285156250e+00) (132, 1.21960229873657226562e+01) (133, 2.23160672187805175781e+00) (134, -3.57029762268066406250e+01) (135, -4.22844552993774414062e+00) (136, -9.81688308715820312500e+00) (137, -6.61762285232543945312e+00) (138, -4.65759420394897460938e+00) (139, -1.24209289550781250000e+01) (140, 2.21104698181152343750e+01) (141, -1.73295497894287109375e+00) (142, 1.02175247669219970703e+00) (143, -4.15807199478149414062e+00) (144, 1.92089118957519531250e+01) (145, 1.11795365810394287109e+00) (146, -7.98856353759765625000e+00) (147, 4.89007616043090820312e+00) (148, 1.36649255752563476562e+01) (149, 4.21378463506698608398e-01) (150, 7.29819059371948242188e+00) (151, 1.75218188762664794922e+00) (152, 5.17599372863769531250e+01) (153, -4.03655290603637695312e+00) (154, -6.82227706909179687500e+01) (155, 1.95819997787475585938e+00) (156, -2.15918025970458984375e+01) (157, 3.55083036422729492188e+00) (158, -3.83952164649963378906e+00) (159, 3.88948798179626464844e+00) (160, -2.01137981414794921875e+01) (161, 2.12442532181739807129e-01) (162, 9.54700469970703125000e+00) (163, 2.77508854866027832031e+00) (164, 4.07539138793945312500e+01) (165, -1.87413692474365234375e-02) (166, -2.71460323333740234375e+01) (167, 1.11746847629547119141e+00) (168, -7.69251012802124023438e+00) (169, -2.30534958839416503906e+00) (170, 2.53189468383789062500e+00) (171, 3.07202816009521484375e+00) (172, -1.58402338027954101562e+01) (173, -3.30444478988647460938e+00) (174, 2.89911117553710937500e+01) (175, -2.70612382888793945312e+00) (176, 6.34933567047119140625e+00) (177, 4.31684255599975585938e+00) (178, 1.50424070358276367188e+01) (179, -2.85465550422668457031e+00) (180, -1.20726480484008789062e+01) (181, 3.92689704895019531250e+00) (182, -1.24758014678955078125e+01) (183, -4.50578880310058593750e+00) (184, 1.50968427658081054688e+01) (185, 4.64954614639282226562e-01) (186, 1.70283222198486328125e+01) (187, 2.27090525627136230469e+00) (188, -1.03628015518188476562e+01) (189, 2.25082898139953613281e+00) (190, 7.00277633666992187500e+01) (191, 5.95015192031860351562e+00) (192, -4.11694869995117187500e+01) (193, 4.81048536300659179688e+00) (194, -8.54440689086914062500e+01) (195, 1.59847021102905273438e+01) (196, 1.50000000000000000000e+03) (197, 1.50000000000000000000e+03) (198, 1.50000000000000000000e+03) (199, 1.50000000000000000000e+03) (200, 5.06980943679809570312e+00) (201, 6.63020172119140625000e+01) (202, 1.03482185363769531250e+02) (0, -1.50000000000000000000e+03) (1, -1.50000000000000000000e+03) (2, -1.50000000000000000000e+03) (3, -1.50000000000000000000e+03) (4, -1.50000000000000000000e+03) (5, -1.49683557128906250000e+03) (6, -1.49976770019531250000e+03) (7, -1.50000000000000000000e+03) (8, -1.50000000000000000000e+03) (9, -1.48361157226562500000e+03) (10, -1.49143029785156250000e+03) (11, -1.50000000000000000000e+03) (12, -1.43171728515625000000e+03) (13, -1.50000000000000000000e+03) (14, -1.50000000000000000000e+03) (15, -1.45922204589843750000e+03) (16, -1.49928125000000000000e+03) (17, -1.49962817382812500000e+03) (18, -1.49868359375000000000e+03) (19, -1.49599462890625000000e+03) (20, -1.49962060546875000000e+03) (21, -1.49972290039062500000e+03) (22, -1.50000000000000000000e+03) (23, -1.49763269042968750000e+03) (24, -1.50000000000000000000e+03) (25, -1.48770751953125000000e+03) (26, -1.19538659667968750000e+03) (27, -1.50000000000000000000e+03) (28, -1.49915551757812500000e+03) (29, -1.49933361816406250000e+03) (30, -1.49999987792968750000e+03) (31, -1.49795166015625000000e+03) (32, -1.49934191894531250000e+03) (33, -1.50000000000000000000e+03) (34, -1.37256213378906250000e+03) (35, -1.43364636230468750000e+03) (36, 1.50000000000000000000e+03) (37, -1.45995422363281250000e+03) (38, -1.49997521972656250000e+03) (39, -1.44093176269531250000e+03) (40, -1.50000000000000000000e+03) (41, -8.63975952148437500000e+02) (42, -1.50000000000000000000e+03) (43, -1.44774047851562500000e+03) (44, -1.50000000000000000000e+03) (45, -1.49545104980468750000e+03) (46, 1.47824450683593750000e+03) (47, -1.50000000000000000000e+03) (48, -1.50000000000000000000e+03) (49, -1.48350329589843750000e+03) (50, 1.50000000000000000000e+03) (51, -5.32859741210937500000e+02) (52, -1.48231616210937500000e+03) (53, -1.49836169433593750000e+03) (54, -1.50000000000000000000e+03) (55, -7.75809997558593750000e+02) (56, -1.46548303222656250000e+03) (57, -1.49980541992187500000e+03) (58, 1.50000000000000000000e+03) (59, -1.50000000000000000000e+03) (60, -1.49964477539062500000e+03) (61, -1.50000000000000000000e+03) (62, -1.48857336425781250000e+03) (63, -1.43729895019531250000e+03) (64, -1.50000000000000000000e+03) (65, -1.25715698242187500000e+03) (66, -1.50000000000000000000e+03) (67, -1.50000000000000000000e+03) (68, -1.48450463867187500000e+03) (69, -1.49933337402343750000e+03) (70, 1.06360705566406250000e+03) (71, -1.49337744140625000000e+03) (72, 1.50000000000000000000e+03) (73, -1.48336804199218750000e+03) (74, -1.50000000000000000000e+03) (75, -1.49996618652343750000e+03) (76, -1.49920043945312500000e+03) (77, -1.50000000000000000000e+03) (78, -1.47160107421875000000e+03) (79, -1.49993701171875000000e+03) (80, -1.49931286621093750000e+03) (81, -1.12028857421875000000e+03) (82, 1.50000000000000000000e+03) (83, -1.45666809082031250000e+03) (84, 1.49999841308593750000e+03) (85, -1.50000000000000000000e+03) (86, 1.49965429687500000000e+03) (87, -1.00979284667968750000e+03) (88, 3.25378509521484375000e+02) (89, -1.49979541015625000000e+03) (90, 1.49253280639648437500e+02) (91, -1.50000000000000000000e+03) (92, 1.49956994628906250000e+03) (93, -1.49601806640625000000e+03) (94, 1.50000000000000000000e+03) (95, -1.49983959960937500000e+03) (96, 1.50000000000000000000e+03) (97, -1.49963305664062500000e+03) (98, 1.49055395507812500000e+03) (99, -1.48674926757812500000e+03) (100, -1.42859582519531250000e+03) (101, -1.49996423339843750000e+03) (102, -1.50000000000000000000e+03) (103, -1.50000000000000000000e+03) (104, -1.49993115234375000000e+03) (105, -1.50000000000000000000e+03) (106, -1.49990588378906250000e+03) (107, -1.49934533691406250000e+03) (108, -5.87533996582031250000e+02) (109, -1.48757775878906250000e+03) (110, 8.57033203125000000000e+02) (111, -1.42459399414062500000e+03) (112, -1.49971850585937500000e+03) (113, -1.49984216308593750000e+03) (114, 1.50000000000000000000e+03) (115, -1.50000000000000000000e+03) (116, 1.50000000000000000000e+03) (117, -1.50000000000000000000e+03) (118, 1.50000000000000000000e+03) (119, -1.50000000000000000000e+03) (120, -1.49756250000000000000e+03) (121, -1.50000000000000000000e+03) (122, 1.49999841308593750000e+03) (123, -1.49968347167968750000e+03) (124, 1.50000000000000000000e+03) (125, -1.46288269042968750000e+03) (126, -1.49711669921875000000e+03) (127, -1.50000000000000000000e+03) (128, 1.50000000000000000000e+03) (129, -1.50000000000000000000e+03) (130, -1.09245361328125000000e+03) (131, 6.20306701660156250000e+02) (132, -1.49082678222656250000e+03) (133, -1.45372216796875000000e+03) (134, -1.50000000000000000000e+03) (135, -1.46505468750000000000e+03) (136, -1.50000000000000000000e+03) (137, -1.50000000000000000000e+03) (138, -1.49913867187500000000e+03) (139, -1.49955383300781250000e+03) (140, -1.49610498046875000000e+03) (141, -1.49854833984375000000e+03) (142, -6.75831909179687500000e+02) (143, -1.42185302734375000000e+03) (144, -1.49918041992187500000e+03) (145, -1.50000000000000000000e+03) (146, -1.48003295898437500000e+03) (147, -1.45604760742187500000e+03) (148, 1.49949401855468750000e+03) (149, -1.49946179199218750000e+03) (150, -1.50000000000000000000e+03) (151, -1.49930456542968750000e+03) (152, 1.50000000000000000000e+03) (153, -1.50000000000000000000e+03) (154, 1.50000000000000000000e+03) (155, -1.49819140625000000000e+03) (156, -1.35763378906250000000e+03) (157, -1.50000000000000000000e+03) (158, -1.48386816406250000000e+03) (159, -1.49981811523437500000e+03) (160, -1.49970251464843750000e+03) (161, -1.50000000000000000000e+03) (162, -1.49999377441406250000e+03) (163, -1.50000000000000000000e+03) (164, -1.50000000000000000000e+03) (165, -1.50000000000000000000e+03) (166, -1.49911694335937500000e+03) (167, -1.49290454101562500000e+03) (168, -1.49997619628906250000e+03) (169, -1.49933496093750000000e+03) (170, 1.46598840332031250000e+03) (171, -1.50000000000000000000e+03) (172, 1.50000000000000000000e+03) (173, -1.50000000000000000000e+03) (174, 1.49957336425781250000e+03) (175, -1.50000000000000000000e+03) (176, -1.49976794433593750000e+03) (177, -1.43413000488281250000e+03) (178, -1.42302355957031250000e+03) (179, -1.49819396972656250000e+03) (180, -1.42304260253906250000e+03) (181, -1.55421234130859375000e+02) (182, -1.49892846679687500000e+03) (183, -1.49928503417968750000e+03) (184, -1.19757775878906250000e+03) (185, -1.49870703125000000000e+03) (186, 1.50000000000000000000e+03) (187, -1.50000000000000000000e+03) (188, 1.50000000000000000000e+03) (189, -1.49870703125000000000e+03) (190, 1.50000000000000000000e+03) (191, -1.49850317382812500000e+03) (192, 1.49999987792968750000e+03) (193, -1.49561779785156250000e+03) (194, -1.48750048828125000000e+03) (195, -1.49586120605468750000e+03) (196, 1.50000000000000000000e+03) (197, 1.50000000000000000000e+03) (198, 1.50000000000000000000e+03) (199, 1.50000000000000000000e+03) (200, -1.49570336914062500000e+03) (201, -1.50000000000000000000e+03) (202, 7.65521163940429687500e+01) (0, -1.50000000000000000000e+03) (1, 1.49994750976562500000e+03) (2, -1.50000000000000000000e+03) (3, -3.14452056884765625000e+02) (4, -1.50000000000000000000e+03) (5, 1.49976318359375000000e+03) (6, -1.49973962402343750000e+03) (7, 1.49993298339843750000e+03) (8, -1.50000000000000000000e+03) (9, 1.49984350585937500000e+03) (10, -1.49143029785156250000e+03) (11, 1.49992175292968750000e+03) (12, -3.07208251953125000000e+02) (13, 1.49982299804687500000e+03) (14, -1.50000000000000000000e+03) (15, 1.49989318847656250000e+03) (16, -1.49925317382812500000e+03) (17, 1.49974291992187500000e+03) (18, -1.09429275512695312500e+02) (19, 1.49968542480468750000e+03) (20, 1.48717907714843750000e+03) (21, 1.49989367675781250000e+03) (22, 1.45449340820312500000e+03) (23, 1.49992236328125000000e+03) (24, -1.50000000000000000000e+03) (25, 1.49979638671875000000e+03) (26, 9.25055603027343750000e+02) (27, -1.21586517333984375000e+02) (28, 1.49999816894531250000e+03) (29, 1.49967260742187500000e+03) (30, -5.53644836425781250000e+02) (31, 4.44427856445312500000e+02) (32, -1.38881103515625000000e+03) (33, 1.49992785644531250000e+03) (34, -1.16454260253906250000e+03) (35, 8.11362243652343750000e+02) (36, 1.50000000000000000000e+03) (37, 1.49984216308593750000e+03) (38, -1.32024145507812500000e+03) (39, 1.49988562011718750000e+03) (40, -1.50000000000000000000e+03) (41, 1.49991540527343750000e+03) (42, -1.50000000000000000000e+03) (43, 3.65756530761718750000e+01) (44, -1.50000000000000000000e+03) (45, -1.49566186523437500000e+03) (46, -1.25096350097656250000e+03) (47, 1.45335021972656250000e+03) (48, -1.50000000000000000000e+03) (49, 1.48745275878906250000e+03) (50, -1.49975634765625000000e+03) (51, 1.49872033691406250000e+03) (52, 1.24779125976562500000e+03) (53, -1.49239233398437500000e+03) (54, -1.49969677734375000000e+03) (55, 1.49989709472656250000e+03) (56, -1.46554602050781250000e+03) (57, 1.49987011718750000000e+03) (58, -8.25911804199218750000e+02) (59, -7.26104614257812500000e+02) (60, -1.49210571289062500000e+03) (61, -9.77740478515625000000e+00) (62, 4.22854919433593750000e+02) (63, -2.75168731689453125000e+02) (64, -1.50000000000000000000e+03) (65, 1.49985522460937500000e+03) (66, -1.50000000000000000000e+03) (67, 1.14077661132812500000e+03) (68, -1.48453674316406250000e+03) (69, 1.49990783691406250000e+03) (70, -6.38525756835937500000e+02) (71, 1.49967834472656250000e+03) (72, 1.50000000000000000000e+03) (73, 1.49983630371093750000e+03) (74, -1.50000000000000000000e+03) (75, -1.49996618652343750000e+03) (76, -1.49920581054687500000e+03) (77, 1.45467468261718750000e+03) (78, -1.47190502929687500000e+03) (79, -8.29658386230468750000e+02) (80, 1.49597131347656250000e+03) (81, 1.49983764648437500000e+03) (82, -1.49955041503906250000e+03) (83, 1.49970056152343750000e+03) (84, 1.48109777832031250000e+03) (85, 1.49863696289062500000e+03) (86, -1.50000000000000000000e+03) (87, 1.49987463378906250000e+03) (88, -5.98055175781250000000e+02) (89, 1.49988989257812500000e+03) (90, 1.24219421386718750000e+03) (91, 1.35220471191406250000e+03) (92, 1.49999841308593750000e+03) (93, 7.77450195312500000000e+02) (94, 1.50000000000000000000e+03) (95, 1.49991674804687500000e+03) (96, 1.38471520996093750000e+03) (97, 1.49960205078125000000e+03) (98, -1.38310766601562500000e+03) (99, 1.49680847167968750000e+03) (100, -1.43056176757812500000e+03) (101, 1.49981079101562500000e+03) (102, -1.50000000000000000000e+03) (103, -1.47279528808593750000e+03) (104, -1.49728454589843750000e+03) (105, -6.31095031738281250000e+02) (106, 1.38629785156250000000e+03) (107, -1.49930529785156250000e+03) (108, -1.49955187988281250000e+03) (109, 1.49978503417968750000e+03) (110, -1.49982739257812500000e+03) (111, 3.16348907470703125000e+02) (112, -1.49993908691406250000e+03) (113, -1.49984277343750000000e+03) (114, 1.50000000000000000000e+03) (115, -1.48098608398437500000e+03) (116, 1.50000000000000000000e+03) (117, 1.01946649169921875000e+03) (118, 1.50000000000000000000e+03) (119, -3.55956878662109375000e+02) (120, -1.49941625976562500000e+03) (121, 1.44971826171875000000e+03) (122, -1.49967712402343750000e+03) (123, -1.47871105957031250000e+03) (124, -1.49791979980468750000e+03) (125, 1.49962817382812500000e+03) (126, -1.49906567382812500000e+03) (127, 1.49981237792968750000e+03) (128, 1.50000000000000000000e+03) (129, 1.49979077148437500000e+03) (130, 1.49984375000000000000e+03) (131, 1.49961364746093750000e+03) (132, -1.49736669921875000000e+03) (133, 1.49989343261718750000e+03) (134, -1.50000000000000000000e+03) (135, 1.49989794921875000000e+03) (136, 8.53189025878906250000e+02) (137, 1.49986096191406250000e+03) (138, -1.39911486816406250000e+03) (139, 1.49698303222656250000e+03) (140, -1.49610498046875000000e+03) (141, 1.49978491210937500000e+03) (142, 1.23640454101562500000e+03) (143, 1.30901123046875000000e+03) (144, -9.71069335937500000000e+02) (145, 1.49988952636718750000e+03) (146, -3.11843200683593750000e+02) (147, 1.30262658691406250000e+03) (148, -1.06735449218750000000e+03) (149, 1.49375085449218750000e+03) (150, -1.50000000000000000000e+03) (151, 1.49969274902343750000e+03) (152, 1.50000000000000000000e+03) (153, 1.49621276855468750000e+03) (154, 1.50000000000000000000e+03) (155, -1.49819177246093750000e+03) (156, -1.35843945312500000000e+03) (157, 8.09624816894531250000e+02) (158, 1.49994311523437500000e+03) (159, -1.49981811523437500000e+03) (160, -1.49970727539062500000e+03) (161, 1.49967053222656250000e+03) (162, 1.45321081542968750000e+03) (163, -6.15785461425781250000e+02) (164, -1.50000000000000000000e+03) (165, 1.49987402343750000000e+03) (166, -1.49719946289062500000e+03) (167, -1.49290539550781250000e+03) (168, 1.49986279296875000000e+03) (169, -1.19336112976074218750e+02) (170, -7.27431274414062500000e+02) (171, 1.49979479980468750000e+03) (172, 1.40914147949218750000e+03) (173, 1.49984997558593750000e+03) (174, -1.49985473632812500000e+03) (175, 9.91705078125000000000e+02) (176, 1.49993481445312500000e+03) (177, 4.51898193359375000000e+02) (178, -1.42304211425781250000e+03) (179, -1.49819396972656250000e+03) (180, -1.42306115722656250000e+03) (181, 1.43636230468750000000e+03) (182, 1.49990490722656250000e+03) (183, -1.49928503417968750000e+03) (184, -1.19757165527343750000e+03) (185, -1.49870703125000000000e+03) (186, 1.50000000000000000000e+03) (187, -1.50000000000000000000e+03) (188, -2.63385101318359375000e+02) (189, -1.48743542480468750000e+03) (190, 1.50000000000000000000e+03) (191, -1.49850317382812500000e+03) (192, 1.49999987792968750000e+03) (193, -1.49346130371093750000e+03) (194, -1.44834240722656250000e+03) (195, -1.48479357910156250000e+03) (196, 