FANN_FLO_2.1
num_layers=3
learning_rate=0.700000
connection_rate=1.000000
network_type=0
learning_momentum=0.000000
training_algorithm=2
train_error_function=1
train_stop_function=0
cascade_output_change_fraction=0.010000
quickprop_decay=-0.000100
quickprop_mu=1.750000
rprop_increase_factor=1.200000
rprop_decrease_factor=0.500000
rprop_delta_min=0.000000
rprop_delta_max=50.000000
rprop_delta_zero=0.100000
cascade_output_stagnation_epochs=12
cascade_candidate_change_fraction=0.010000
cascade_candidate_stagnation_epochs=12
cascade_max_out_epochs=150
cascade_min_out_epochs=50
cascade_max_cand_epochs=150
cascade_min_cand_epochs=50
cascade_num_candidate_groups=2
bit_fail_limit=3.49999994039535522461e-01
cascade_candidate_limit=1.00000000000000000000e+03
cascade_weight_multiplier=4.00000005960464477539e-01
cascade_activation_functions_count=10
cascade_activation_functions=3 5 7 8 10 11 14 15 16 17 
cascade_activation_steepnesses_count=4
cascade_activation_steepnesses=2.50000000000000000000e-01 5.00000000000000000000e-01 7.50000000000000000000e-01 1.00000000000000000000e+00 
layer_sizes=203 52 101 
scale_included=0
neurons (num_inputs, activation_function, activation_steepness)=(0, 0, 0.00000000000000000000e+00) (0, 0, 0.00000000000000000000e+00) (0, 0, 0.00000000000000000000e+00) (0, 0, 0.00000000000000000000e+00) (0, 0, 0.00000000000000000000e+00) (0, 0, 0.00000000000000000000e+00) (0, 0, 0.00000000000000000000e+00) (0, 0, 0.00000000000000000000e+00) (0, 0, 0.00000000000000000000e+00) (0, 0, 0.00000000000000000000e+00) (0, 0, 0.00000000000000000000e+00) (0, 0, 0.00000000000000000000e+00) (0, 0, 0.00000000000000000000e+00) (0, 0, 0.00000000000000000000e+00) (0, 0, 0.00000000000000000000e+00) (0, 0, 0.00000000000000000000e+00) (0, 0, 0.00000000000000000000e+00) (0, 0, 0.00000000000000000000e+00) (0, 0, 0.00000000000000000000e+00) (0, 0, 0.00000000000000000000e+00) (0, 0, 0.00000000000000000000e+00) (0, 0, 0.00000000000000000000e+00) (0, 0, 0.00000000000000000000e+00) (0, 0, 0.00000000000000000000e+00) (0, 0, 0.00000000000000000000e+00) (0, 0, 0.00000000000000000000e+00) (0, 0, 0.00000000000000000000e+00) (0, 0, 0.00000000000000000000e+00) (0, 0, 0.00000000000000000000e+00) (0, 0, 0.00000000000000000000e+00) (0, 0, 0.00000000000000000000e+00) (0, 0, 0.00000000000000000000e+00) (0, 0, 0.00000000000000000000e+00) (0, 0, 0.00000000000000000000e+00) (0, 0, 0.00000000000000000000e+00) (0, 0, 0.00000000000000000000e+00) (0, 0, 0.00000000000000000000e+00) (0, 0, 0.00000000000000000000e+00) (0, 0, 0.00000000000000000000e+00) (0, 0, 0.00000000000000000000e+00) (0, 0, 0.00000000000000000000e+00) (0, 0, 0.00000000000000000000e+00) (0, 0, 0.00000000000000000000e+00) (0, 0, 0.00000000000000000000e+00) (0, 0, 0.00000000000000000000e+00) (0, 0, 0.00000000000000000000e+00) (0, 0, 0.00000000000000000000e+00) (0, 0, 0.00000000000000000000e+00) (0, 0, 0.00000000000000000000e+00) (0, 0, 0.00000000000000000000e+00) (0, 0, 0.00000000000000000000e+00) (0, 0, 0.00000000000000000000e+00) (0, 0, 0.00000000000000000000e+00) (0, 0, 0.00000000000000000000e+00) (0, 0, 0.00000000000000000000e+00) (0, 0, 0.00000000000000000000e+00) (0, 0, 0.00000000000000000000e+00) (0, 0, 0.00000000000000000000e+00) (0, 0, 0.00000000000000000000e+00) (0, 0, 0.00000000000000000000e+00) (0, 0, 0.00000000000000000000e+00) (0, 0, 0.00000000000000000000e+00) (0, 0, 0.00000000000000000000e+00) (0, 0, 0.00000000000000000000e+00) (0, 0, 0.00000000000000000000e+00) (0, 0, 0.00000000000000000000e+00) (0, 0, 0.00000000000000000000e+00) (0, 0, 0.00000000000000000000e+00) (0, 0, 0.00000000000000000000e+00) (0, 0, 0.00000000000000000000e+00) (0, 0, 0.00000000000000000000e+00) (0, 0, 0.00000000000000000000e+00) (0, 0, 0.00000000000000000000e+00) (0, 0, 0.00000000000000000000e+00) (0, 0, 0.00000000000000000000e+00) (0, 0, 0.00000000000000000000e+00) (0, 0, 0.00000000000000000000e+00) (0, 0, 0.00000000000000000000e+00) (0, 0, 0.00000000000000000000e+00) (0, 0, 0.00000000000000000000e+00) (0, 0, 0.00000000000000000000e+00) (0, 0, 0.00000000000000000000e+00) (0, 0, 0.00000000000000000000e+00) (0, 0, 0.00000000000000000000e+00) (0, 0, 0.00000000000000000000e+00) (0, 0, 0.00000000000000000000e+00) (0, 0, 0.00000000000000000000e+00) (0, 0, 0.00000000000000000000e+00) (0, 0, 0.00000000000000000000e+00) (0, 0, 0.00000000000000000000e+00) (0, 0, 0.00000000000000000000e+00) (0, 0, 0.00000000000000000000e+00) (0, 0, 0.00000000000000000000e+00) (0, 0, 0.00000000000000000000e+00) (0, 0, 0.00000000000000000000e+00) (0, 0, 0.00000000000000000000e+00) (0, 0, 0.00000000000000000000e+00) (0, 0, 0.00000000000000000000e+00) (0, 0, 0.00000000000000000000e+00) (0, 0, 0.00000000000000000000e+00) (0, 0, 0.00000000000000000000e+00) (0, 0, 0.00000000000000000000e+00) (0, 0, 0.00000000000000000000e+00) (0, 0, 0.00000000000000000000e+00) (0, 0, 0.00000000000000000000e+00) (0, 0, 0.00000000000000000000e+00) (0, 0, 0.00000000000000000000e+00) (0, 0, 0.00000000000000000000e+00) (0, 0, 0.00000000000000000000e+00) (0, 0, 0.00000000000000000000e+00) (0, 0, 0.00000000000000000000e+00) (0, 0, 0.00000000000000000000e+00) (0, 0, 0.00000000000000000000e+00) (0, 0, 0.00000000000000000000e+00) (0, 0, 0.00000000000000000000e+00) (0, 0, 0.00000000000000000000e+00) (0, 0, 0.00000000000000000000e+00) (0, 0, 0.00000000000000000000e+00) (0, 0, 0.00000000000000000000e+00) (0, 0, 0.00000000000000000000e+00) (0, 0, 0.00000000000000000000e+00) (0, 0, 0.00000000000000000000e+00) (0, 0, 0.00000000000000000000e+00) (0, 0, 0.00000000000000000000e+00) (0, 0, 0.00000000000000000000e+00) (0, 0, 0.00000000000000000000e+00) (0, 0, 0.00000000000000000000e+00) (0, 0, 0.00000000000000000000e+00) (0, 0, 0.00000000000000000000e+00) (0, 0, 0.00000000000000000000e+00) (0, 0, 0.00000000000000000000e+00) (0, 0, 0.00000000000000000000e+00) (0, 0, 0.00000000000000000000e+00) (0, 0, 0.00000000000000000000e+00) (0, 0, 0.00000000000000000000e+00) (0, 0, 0.00000000000000000000e+00) (0, 0, 0.00000000000000000000e+00) (0, 0, 0.00000000000000000000e+00) (0, 0, 0.00000000000000000000e+00) (0, 0, 0.00000000000000000000e+00) (0, 0, 0.00000000000000000000e+00) (0, 0, 0.00000000000000000000e+00) (0, 0, 0.00000000000000000000e+00) (0, 0, 0.00000000000000000000e+00) (0, 0, 0.00000000000000000000e+00) (0, 0, 0.00000000000000000000e+00) (0, 0, 0.00000000000000000000e+00) (0, 0, 0.00000000000000000000e+00) (0, 0, 0.00000000000000000000e+00) (0, 0, 0.00000000000000000000e+00) (0, 0, 0.00000000000000000000e+00) (0, 0, 0.00000000000000000000e+00) (0, 0, 0.00000000000000000000e+00) (0, 0, 0.00000000000000000000e+00) (0, 0, 0.00000000000000000000e+00) (0, 0, 0.00000000000000000000e+00) (0, 0, 0.00000000000000000000e+00) (0, 0, 0.00000000000000000000e+00) (0, 0, 0.00000000000000000000e+00) (0, 0, 0.00000000000000000000e+00) (0, 0, 0.00000000000000000000e+00) (0, 0, 0.00000000000000000000e+00) (0, 0, 0.00000000000000000000e+00) (0, 0, 0.00000000000000000000e+00) (0, 0, 0.00000000000000000000e+00) (0, 0, 0.00000000000000000000e+00) (0, 0, 0.00000000000000000000e+00) (0, 0, 0.00000000000000000000e+00) (0, 0, 0.00000000000000000000e+00) (0, 0, 0.00000000000000000000e+00) (0, 0, 0.00000000000000000000e+00) (0, 0, 0.00000000000000000000e+00) (0, 0, 0.00000000000000000000e+00) (0, 0, 0.00000000000000000000e+00) (0, 0, 0.00000000000000000000e+00) (0, 0, 0.00000000000000000000e+00) (0, 0, 0.00000000000000000000e+00) (0, 0, 0.00000000000000000000e+00) (0, 0, 0.00000000000000000000e+00) (0, 0, 0.00000000000000000000e+00) (0, 0, 0.00000000000000000000e+00) (0, 0, 0.00000000000000000000e+00) (0, 0, 0.00000000000000000000e+00) (0, 0, 0.00000000000000000000e+00) (0, 0, 0.00000000000000000000e+00) (0, 0, 0.00000000000000000000e+00) (0, 0, 0.00000000000000000000e+00) (0, 0, 0.00000000000000000000e+00) (0, 0, 0.00000000000000000000e+00) (0, 0, 0.00000000000000000000e+00) (0, 0, 0.00000000000000000000e+00) (0, 0, 0.00000000000000000000e+00) (0, 0, 0.00000000000000000000e+00) (0, 0, 0.00000000000000000000e+00) (0, 0, 0.00000000000000000000e+00) (0, 0, 0.00000000000000000000e+00) (0, 0, 0.00000000000000000000e+00) (0, 0, 0.00000000000000000000e+00) (0, 0, 0.00000000000000000000e+00) (0, 0, 0.00000000000000000000e+00) (0, 0, 0.00000000000000000000e+00) (0, 0, 0.00000000000000000000e+00) (0, 0, 0.00000000000000000000e+00) (203, 5, 5.00000000000000000000e-01) (203, 5, 5.00000000000000000000e-01) (203, 5, 5.00000000000000000000e-01) (203, 5, 5.00000000000000000000e-01) (203, 5, 5.00000000000000000000e-01) (203, 5, 5.00000000000000000000e-01) (203, 5, 5.00000000000000000000e-01) (203, 5, 5.00000000000000000000e-01) (203, 5, 5.00000000000000000000e-01) (203, 5, 5.00000000000000000000e-01) (203, 5, 5.00000000000000000000e-01) (203, 5, 5.00000000000000000000e-01) (203, 5, 5.00000000000000000000e-01) (203, 5, 5.00000000000000000000e-01) (203, 5, 5.00000000000000000000e-01) (203, 5, 5.00000000000000000000e-01) (203, 5, 5.00000000000000000000e-01) (203, 5, 5.00000000000000000000e-01) (203, 5, 5.00000000000000000000e-01) (203, 5, 5.00000000000000000000e-01) (203, 5, 5.00000000000000000000e-01) (203, 5, 5.00000000000000000000e-01) (203, 5, 5.00000000000000000000e-01) (203, 5, 5.00000000000000000000e-01) (203, 5, 5.00000000000000000000e-01) (203, 5, 5.00000000000000000000e-01) (203, 5, 5.00000000000000000000e-01) (203, 5, 5.00000000000000000000e-01) (203, 5, 5.00000000000000000000e-01) (203, 5, 5.00000000000000000000e-01) (203, 5, 5.00000000000000000000e-01) (203, 5, 5.00000000000000000000e-01) (203, 5, 5.00000000000000000000e-01) (203, 5, 5.00000000000000000000e-01) (203, 5, 5.00000000000000000000e-01) (203, 5, 5.00000000000000000000e-01) (203, 5, 5.00000000000000000000e-01) (203, 5, 5.00000000000000000000e-01) (203, 5, 5.00000000000000000000e-01) (203, 5, 5.00000000000000000000e-01) (203, 5, 5.00000000000000000000e-01) (203, 5, 5.00000000000000000000e-01) (203, 5, 5.00000000000000000000e-01) (203, 5, 5.00000000000000000000e-01) (203, 5, 5.00000000000000000000e-01) (203, 5, 5.00000000000000000000e-01) (203, 5, 5.00000000000000000000e-01) (203, 5, 5.00000000000000000000e-01) (203, 5, 5.00000000000000000000e-01) (203, 5, 5.00000000000000000000e-01) (203, 5, 5.00000000000000000000e-01) (0, 5, 0.00000000000000000000e+00) (52, 5, 5.00000000000000000000e-01) (52, 5, 5.00000000000000000000e-01) (52, 5, 5.00000000000000000000e-01) (52, 5, 5.00000000000000000000e-01) (52, 5, 5.00000000000000000000e-01) (52, 5, 5.00000000000000000000e-01) (52, 5, 5.00000000000000000000e-01) (52, 5, 5.00000000000000000000e-01) (52, 5, 5.00000000000000000000e-01) (52, 5, 5.00000000000000000000e-01) (52, 5, 5.00000000000000000000e-01) (52, 5, 5.00000000000000000000e-01) (52, 5, 5.00000000000000000000e-01) (52, 5, 5.00000000000000000000e-01) (52, 5, 5.00000000000000000000e-01) (52, 5, 5.00000000000000000000e-01) (52, 5, 5.00000000000000000000e-01) (52, 5, 5.00000000000000000000e-01) (52, 5, 5.00000000000000000000e-01) (52, 5, 5.00000000000000000000e-01) (52, 5, 5.00000000000000000000e-01) (52, 5, 5.00000000000000000000e-01) (52, 5, 5.00000000000000000000e-01) (52, 5, 5.00000000000000000000e-01) (52, 5, 5.00000000000000000000e-01) (52, 5, 5.00000000000000000000e-01) (52, 5, 5.00000000000000000000e-01) (52, 5, 5.00000000000000000000e-01) (52, 5, 5.00000000000000000000e-01) (52, 5, 5.00000000000000000000e-01) (52, 5, 5.00000000000000000000e-01) (52, 5, 5.00000000000000000000e-01) (52, 5, 5.00000000000000000000e-01) (52, 5, 5.00000000000000000000e-01) (52, 5, 5.00000000000000000000e-01) (52, 5, 5.00000000000000000000e-01) (52, 5, 5.00000000000000000000e-01) (52, 5, 5.00000000000000000000e-01) (52, 5, 5.00000000000000000000e-01) (52, 5, 5.00000000000000000000e-01) (52, 5, 5.00000000000000000000e-01) (52, 5, 5.00000000000000000000e-01) (52, 5, 5.00000000000000000000e-01) (52, 5, 5.00000000000000000000e-01) (52, 5, 5.00000000000000000000e-01) (52, 5, 5.00000000000000000000e-01) (52, 5, 5.00000000000000000000e-01) (52, 5, 5.00000000000000000000e-01) (52, 5, 5.00000000000000000000e-01) (52, 5, 5.00000000000000000000e-01) (52, 5, 5.00000000000000000000e-01) (52, 5, 5.00000000000000000000e-01) (52, 5, 5.00000000000000000000e-01) (52, 5, 5.00000000000000000000e-01) (52, 5, 5.00000000000000000000e-01) (52, 5, 5.00000000000000000000e-01) (52, 5, 5.00000000000000000000e-01) (52, 5, 5.00000000000000000000e-01) (52, 5, 5.00000000000000000000e-01) (52, 5, 5.00000000000000000000e-01) (52, 5, 5.00000000000000000000e-01) (52, 5, 5.00000000000000000000e-01) (52, 5, 5.00000000000000000000e-01) (52, 5, 5.00000000000000000000e-01) (52, 5, 5.00000000000000000000e-01) (52, 5, 5.00000000000000000000e-01) (52, 5, 5.00000000000000000000e-01) (52, 5, 5.00000000000000000000e-01) (52, 5, 5.00000000000000000000e-01) (52, 5, 5.00000000000000000000e-01) (52, 5, 5.00000000000000000000e-01) (52, 5, 5.00000000000000000000e-01) (52, 5, 5.00000000000000000000e-01) (52, 5, 5.00000000000000000000e-01) (52, 5, 5.00000000000000000000e-01) (52, 5, 5.00000000000000000000e-01) (52, 5, 5.00000000000000000000e-01) (52, 5, 5.00000000000000000000e-01) (52, 5, 5.00000000000000000000e-01) (52, 5, 5.00000000000000000000e-01) (52, 5, 5.00000000000000000000e-01) (52, 5, 5.00000000000000000000e-01) (52, 5, 5.00000000000000000000e-01) (52, 5, 5.00000000000000000000e-01) (52, 5, 5.00000000000000000000e-01) (52, 5, 5.00000000000000000000e-01) (52, 5, 5.00000000000000000000e-01) (52, 5, 5.00000000000000000000e-01) (52, 5, 5.00000000000000000000e-01) (52, 5, 5.00000000000000000000e-01) (52, 5, 5.00000000000000000000e-01) (52, 5, 5.00000000000000000000e-01) (52, 5, 5.00000000000000000000e-01) (52, 5, 5.00000000000000000000e-01) (52, 5, 5.00000000000000000000e-01) (52, 5, 5.00000000000000000000e-01) (52, 5, 5.00000000000000000000e-01) (52, 5, 5.00000000000000000000e-01) (52, 5, 5.00000000000000000000e-01) (52, 5, 5.00000000000000000000e-01) (0, 5, 0.00000000000000000000e+00) 
connections (connected_to_neuron, weight)=(0, -1.37744067382812500000e+03) (1, -1.50000000000000000000e+03) (2, -1.49931701660156250000e+03) (3, -1.50000000000000000000e+03) (4, -1.48773107910156250000e+03) (5, -1.50000000000000000000e+03) (6, -1.48510131835937500000e+03) (7, -1.50000000000000000000e+03) (8, -1.49999987792968750000e+03) (9, -1.50000000000000000000e+03) (10, -1.49999987792968750000e+03) (11, -1.50000000000000000000e+03) (12, -1.50000000000000000000e+03) (13, -1.50000000000000000000e+03) (14, -1.50000000000000000000e+03) (15, -1.50000000000000000000e+03) (16, -1.49999987792968750000e+03) (17, -1.50000000000000000000e+03) (18, -1.49405151367187500000e+03) (19, -1.50000000000000000000e+03) (20, 1.25915698242187500000e+03) (21, -1.50000000000000000000e+03) (22, 1.45642126464843750000e+03) (23, -1.50000000000000000000e+03) (24, 3.90474578857421875000e+02) (25, -1.49999987792968750000e+03) (26, 1.49603381347656250000e+03) (27, -1.48539697265625000000e+03) (28, 1.49756933593750000000e+03) (29, -1.45241455078125000000e+03) (30, 1.49477075195312500000e+03) (31, -1.49696557617187500000e+03) (32, -1.45255749511718750000e+03) (33, -1.50000000000000000000e+03) (34, -1.47500000000000000000e+03) (35, -1.50000000000000000000e+03) (36, 1.49923657226562500000e+03) (37, -1.50000000000000000000e+03) (38, -1.02744165039062500000e+03) (39, -1.50000000000000000000e+03) (40, -1.49993554687500000000e+03) (41, -1.50000000000000000000e+03) (42, -1.49816137695312500000e+03) (43, -1.46569274902343750000e+03) (44, -1.42423132324218750000e+03) (45, -1.49997485351562500000e+03) (46, -1.49206628417968750000e+03) (47, -1.49983959960937500000e+03) (48, 1.50000000000000000000e+03) (49, -1.49994970703125000000e+03) (50, -1.49034167480468750000e+03) (51, -1.49851745605468750000e+03) (52, -1.49655456542968750000e+03) (53, -1.50000000000000000000e+03) (54, 1.49973327636718750000e+03) (55, -1.47624951171875000000e+03) (56, 1.49859606933593750000e+03) (57, -1.49807287597656250000e+03) (58, -1.48707678222656250000e+03) (59, -1.49674011230468750000e+03) (60, -1.50000000000000000000e+03) (61, -1.49871496582031250000e+03) (62, 1.43708374023437500000e+03) (63, -1.40886364746093750000e+03) (64, 1.49999987792968750000e+03) (65, 1.49872338867187500000e+03) (66, 1.49697875976562500000e+03) (67, 1.49822094726562500000e+03) (68, 1.49930029296875000000e+03) (69, -1.50000000000000000000e+03) (70, -1.49999987792968750000e+03) (71, -1.50000000000000000000e+03) (72, -1.48256005859375000000e+03) (73, -1.50000000000000000000e+03) (74, -1.49937329101562500000e+03) (75, -1.49984631347656250000e+03) (76, 1.33944580078125000000e+03) (77, -1.49966333007812500000e+03) (78, -1.49907373046875000000e+03) (79, -1.49999987792968750000e+03) (80, -1.47687194824218750000e+03) (81, -1.50000000000000000000e+03) (82, -1.49746069335937500000e+03) (83, -1.50000000000000000000e+03) (84, 2.91633514404296875000e+02) (85, -1.50000000000000000000e+03) (86, 1.49254504394531250000e+03) (87, -1.49651025390625000000e+03) (88, -1.49599035644531250000e+03) (89, -1.50000000000000000000e+03) (90, -1.49940026855468750000e+03) (91, -1.49999987792968750000e+03) (92, -1.49999987792968750000e+03) (93, -1.50000000000000000000e+03) (94, -1.49896618652343750000e+03) (95, -1.50000000000000000000e+03) (96, -6.98995910644531250000e+02) (97, -1.50000000000000000000e+03) (98, 3.31661148071289062500e+01) (99, -1.49493640136718750000e+03) (100, -1.49999987792968750000e+03) (101, -1.50000000000000000000e+03) (102, -1.35214428710937500000e+03) (103, -1.49973510742187500000e+03) (104, -7.60118675231933593750e+00) (105, -1.50000000000000000000e+03) (106, 1.49980468750000000000e+03) (107, -1.48258703613281250000e+03) (108, 1.49839501953125000000e+03) (109, -1.16628341674804687500e+01) (110, 1.49452575683593750000e+03) (111, 7.55689147949218750000e+02) (112, -2.19601318359375000000e+02) (113, -1.49929467773437500000e+03) (114, 6.06329803466796875000e+01) (115, -1.49780395507812500000e+03) (116, 1.49580639648437500000e+03) (117, -1.47067077636718750000e+03) (118, -1.47500000000000000000e+03) (119, -1.49690332031250000000e+03) (120, 1.49839477539062500000e+03) (121, -1.49907788085937500000e+03) (122, 1.49978735351562500000e+03) (123, -1.49721728515625000000e+03) (124, 1.49671545410156250000e+03) (125, -1.48366674804687500000e+03) (126, -1.50000000000000000000e+03) (127, -1.45932971191406250000e+03) (128, -1.49987268066406250000e+03) (129, 3.61053371429443359375e+00) (130, -1.50000000000000000000e+03) (131, -1.49980993652343750000e+03) (132, 1.49999890136718750000e+03) (133, -1.49994689941406250000e+03) (134, -1.49999987792968750000e+03) (135, -1.50000000000000000000e+03) (136, 1.49017211914062500000e+03) (137, -1.50000000000000000000e+03) (138, 8.34680114746093750000e+02) (139, -1.50000000000000000000e+03) (140, -1.46821472167968750000e+03) (141, -1.50000000000000000000e+03) (142, -1.01948187255859375000e+03) (143, -7.78568077087402343750e+00) (144, -1.48432751464843750000e+03) (145, -1.49999987792968750000e+03) (146, -1.49580175781250000000e+03) (147, -1.50000000000000000000e+03) (148, -1.32402453613281250000e+03) (149, -1.49457055664062500000e+03) (150, 8.29871643066406250000e+02) (151, -1.50000000000000000000e+03) (152, 1.50000000000000000000e+03) (153, -1.49913342285156250000e+03) (154, 1.46920629882812500000e+03) (155, -1.50000000000000000000e+03) (156, -1.49847375488281250000e+03) (157, -1.49997729492187500000e+03) (158, -1.49816308593750000000e+03) (159, -1.49702575683593750000e+03) (160, 1.49733972167968750000e+03) (161, -1.49995996093750000000e+03) (162, -4.57398986816406250000e+01) (163, -1.46214135742187500000e+03) (164, 1.50000000000000000000e+03) (165, -1.50000000000000000000e+03) (166, 1.49999865722656250000e+03) (167, -1.50000000000000000000e+03) (168, -1.49999731445312500000e+03) (169, -1.50000000000000000000e+03) (170, -1.50000000000000000000e+03) (171, -1.50000000000000000000e+03) (172, -1.43294165039062500000e+03) (173, -1.50000000000000000000e+03) (174, -1.26222875976562500000e+03) (175, -1.49999987792968750000e+03) (176, -1.49999987792968750000e+03) (177, -1.49999987792968750000e+03) (178, -1.41744921875000000000e+03) (179, -1.50000000000000000000e+03) (180, -1.47500000000000000000e+03) (181, -1.50000000000000000000e+03) (182, 1.49942712402343750000e+03) (183, -1.50000000000000000000e+03) (184, -1.49999975585937500000e+03) (185, -1.49999987792968750000e+03) (186, 1.41666442871093750000e+03) (187, -1.50000000000000000000e+03) (188, 1.49841503906250000000e+03) (189, -1.49999987792968750000e+03) (190, 1.49998461914062500000e+03) (191, -1.50000000000000000000e+03) (192, 1.19639953613281250000e+03) (193, -1.50000000000000000000e+03) (194, -1.45924328613281250000e+03) (195, -1.50000000000000000000e+03) (196, 1.50000000000000000000e+03) (197, 1.50000000000000000000e+03) (198, 1.50000000000000000000e+03) (199, 1.50000000000000000000e+03) (200, -1.42200097656250000000e+03) (201, -1.50000000000000000000e+03) (202, 1.50000000000000000000e+03) (0, -1.09944906234741210938e+01) (1, 8.30012038350105285645e-02) (2, -2.26109170913696289062e+00) (3, -6.91533863544464111328e-01) (4, -2.11680374145507812500e+01) (5, -3.19491147994995117188e+00) (6, 1.47674226760864257812e+01) (7, -7.14961171150207519531e-01) (8, -1.83562183380126953125e+00) (9, -1.41156709194183349609e+00) (10, -9.87457466125488281250e+00) (11, -2.51884198188781738281e+00) (12, -3.11231880187988281250e+01) (13, -6.76305055618286132812e-01) (14, -2.00577373504638671875e+01) (15, 2.39423012733459472656e+00) (16, 1.09655857086181640625e+00) (17, 4.30986315011978149414e-01) (18, 6.06076145172119140625e+00) (19, -1.27152252197265625000e+00) (20, 1.15809278488159179688e+01) (21, -2.72132849693298339844e+00) (22, 7.57378292083740234375e+00) (23, -2.51828730106353759766e-01) (24, 6.47280550003051757812e+00) (25, 1.67800831794738769531e+00) (26, 2.57429447174072265625e+01) (27, 1.64831876754760742188e+00) (28, 6.51691913604736328125e+00) (29, -2.06292486190795898438e+00) (30, 7.48749351501464843750e+00) (31, 3.21773022413253784180e-01) (32, 1.21761786937713623047e+00) (33, -2.97903013229370117188e+00) (34, 1.58054876327514648438e+00) (35, -5.24962377548217773438e+00) (36, 4.74773263931274414062e+00) (37, -2.45132946968078613281e+00) (38, -1.82441091537475585938e+00) (39, -1.74516773223876953125e+00) (40, -3.70491772890090942383e-01) (41, -1.40314137935638427734e+00) (42, 3.12238883972167968750e+00) (43, -2.28098416328430175781e+00) (44, 3.21293544769287109375e+00) (45, -1.22801947593688964844e+00) (46, 4.59174060821533203125e+00) (47, -2.19953693449497222900e-02) (48, 6.01439332962036132812e+00) (49, -2.06613779067993164062e+00) (50, -5.09306144714355468750e+00) (51, 9.77553129196166992188e-02) (52, -1.07032048702239990234e+00) (53, -1.28902368545532226562e+01) (54, 4.45283603668212890625e+00) (55, -1.01560868322849273682e-01) (56, -8.38891208171844482422e-01) (57, -2.84252494573593139648e-01) (58, -2.17532277107238769531e+00) (59, 1.06720316410064697266e+00) (60, -1.18047151565551757812e+01) (61, -2.41598224639892578125e+00) (62, -8.44228267669677734375e+00) (63, -1.89631164073944091797e+00) (64, -2.09392509460449218750e+01) (65, 1.38165652751922607422e+00) (66, -9.22750854492187500000e+00) (67, -3.36790531873703002930e-01) (68, -5.97758388519287109375e+00) (69, 1.15817737579345703125e+00) (70, -8.15034198760986328125e+00) (71, -4.99726057052612304688e+00) (72, -2.60499191284179687500e+00) (73, -1.70565807819366455078e+00) (74, -3.15926599502563476562e+00) (75, -2.50747489929199218750e+00) (76, -4.20307884216308593750e+01) (77, -1.94065999984741210938e+00) (78, -1.16782207489013671875e+01) (79, 3.78950834274291992188e+00) (80, -6.65605592727661132812e+00) (81, 4.53193724155426025391e-01) (82, -3.93348193168640136719e+00) (83, -4.22919178009033203125e+00) (84, -3.82612848281860351562e+00) (85, 1.58985185623168945312e+00) (86, -1.90935935974121093750e+01) (87, -2.18043112754821777344e+00) (88, -1.53112993240356445312e+01) (89, 1.04813706874847412109e+00) (90, -5.70194959640502929688e+00) (91, -4.86666870117187500000e+00) (92, -1.56827630996704101562e+01) (93, -2.43174839019775390625e+00) (94, -4.22183799743652343750e+00) (95, -2.10782766342163085938e+00) (96, 2.54279637336730957031e+00) (97, -1.65390837192535400391e+00) (98, 5.14937877655029296875e-01) (99, -4.41779971122741699219e-01) (100, -3.56583213806152343750e+00) (101, 1.95934844017028808594e+00) (102, -3.83451938629150390625e+00) (103, 3.93520653247833251953e-01) (104, 1.48957824707031250000e+00) (105, -6.96975278854370117188e+00) (106, 1.60214376449584960938e+00) (107, -5.50115299224853515625e+00) (108, -1.78040027618408203125e+00) (109, -1.42248356342315673828e+00) (110, -8.90773963928222656250e+00) (111, -3.46530437469482421875e+00) (112, 8.21749687194824218750e+00) (113, -1.51867914199829101562e+00) (114, 2.96923708915710449219e+00) (115, -3.14424991607666015625e+00) (116, -1.22242975234985351562e+00) (117, -5.19736480712890625000e+00) (118, -2.23952770233154296875e+01) (119, -9.38347637653350830078e-01) (120, -3.87057542800903320312e-01) (121, 2.06460213661193847656e+00) (122, -4.21444463729858398438e+00) (123, 3.96512389183044433594e+00) (124, -3.23847794532775878906e+00) (125, -4.19505262374877929688e+00) (126, -8.80446434020996093750e-01) (127, -8.30462515354156494141e-01) (128, -1.26034231185913085938e+01) (129, 2.48586964607238769531e+00) (130, -1.33082723617553710938e+00) (131, 6.49598646163940429688e+00) (132, -2.83640122413635253906e+00) (133, 6.12529635429382324219e-01) (134, -7.79284143447875976562e+00) (135, -2.96389675140380859375e+00) (136, 5.33038854598999023438e-01) (137, 1.19173550605773925781e+00) (138, 1.07493960857391357422e+00) (139, -3.89400273561477661133e-01) (140, -4.73071146011352539062e+00) (141, 5.34777832031250000000e+00) (142, -2.43562150001525878906e+00) (143, -3.11448383331298828125e+00) (144, -2.56370315551757812500e+01) (145, -4.41780060529708862305e-01) (146, -5.30630826950073242188e+00) (147, -4.75625157356262207031e-01) (148, 9.31679964065551757812e-01) (149, 2.83626842498779296875e+00) (150, -2.40396165847778320312e+00) (151, -2.66879707574844360352e-01) (152, 1.44125490188598632812e+01) (153, -2.69709378480911254883e-01) (154, 9.84058094024658203125e+00) (155, 7.97240555286407470703e-01) (156, 1.59056782722473144531e+00) (157, -2.67840504646301269531e-01) (158, -2.83083176612854003906e+00) (159, 4.60138857364654541016e-01) (160, -6.65136766433715820312e+00) (161, 8.50767672061920166016e-01) (162, -1.05611104965209960938e+01) (163, 2.67856287956237792969e+00) (164, 4.74692732095718383789e-01) (165, -3.30222725868225097656e+00) (166, 1.37201115489006042480e-01) (167, -4.36163902282714843750e+00) (168, -1.57421622425317764282e-02) (169, -5.27750790119171142578e-01) (170, -1.61136484146118164062e+00) (171, -1.60030043125152587891e+00) (172, -5.30679002404212951660e-02) (173, -9.13783311843872070312e-01) (174, 5.33401668071746826172e-01) (175, 6.06787872314453125000e+00) (176, 2.26700448989868164062e+00) (177, -2.75753998756408691406e+00) (178, 9.00780856609344482422e-01) (179, -8.21465015411376953125e+00) (180, 4.20816183090209960938e+00) (181, -7.74247646331787109375e-01) (182, 1.52202472686767578125e+01) (183, 1.25405564904212951660e-01) (184, -7.70605039596557617188e+00) (185, 1.50111842155456542969e+00) (186, -6.03196763992309570312e+00) (187, 3.95096921920776367188e+00) (188, -1.36796254664659500122e-02) (189, -2.20172715187072753906e+00) (190, -1.36755638122558593750e+01) (191, -1.43108534812927246094e+00) (192, 3.50407142639160156250e+01) (193, -6.83380544185638427734e-01) (194, 4.54827079772949218750e+01) (195, 2.23520922660827636719e+00) (196, 1.50000000000000000000e+03) (197, 1.50000000000000000000e+03) (198, 1.50000000000000000000e+03) (199, 1.50000000000000000000e+03) (200, -5.92689704895019531250e+00) (201, -4.53742790222167968750e+01) (202, 9.31987476348876953125e+00) (0, -1.48982958984375000000e+03) (1, 1.49934545898437500000e+03) (2, -1.49847827148437500000e+03) (3, 1.49887927246093750000e+03) (4, 9.43943908691406250000e+02) (5, 1.49546044921875000000e+03) (6, 1.49751953125000000000e+03) (7, 1.49604406738281250000e+03) (8, -2.15120620727539062500e+02) (9, 1.49679479980468750000e+03) (10, -1.49999987792968750000e+03) (11, 1.13841210937500000000e+03) (12, -1.47580615234375000000e+03) (13, 1.49694653320312500000e+03) (14, -1.50000000000000000000e+03) (15, 1.49739343261718750000e+03) (16, -1.50000000000000000000e+03) (17, 1.29278039550781250000e+03) (18, 7.41194725036621093750e-01) (19, 1.49580102539062500000e+03) (20, 9.24789199829101562500e+01) (21, 1.41839184570312500000e+03) (22, 2.69773411750793457031e+00) (23, 4.44690948486328125000e+02) (24, 1.49987011718750000000e+03) (25, 2.64548072814941406250e+01) (26, 1.49941271972656250000e+03) (27, 1.49917565917968750000e+03) (28, 1.49952636718750000000e+03) (29, 1.38190454101562500000e+03) (30, 1.49967382812500000000e+03) (31, 1.49674475097656250000e+03) (32, -1.43958923339843750000e+02) (33, 1.49518066406250000000e+03) (34, 1.48525415039062500000e+03) (35, 1.49511523437500000000e+03) (36, 1.49696264648437500000e+03) (37, 1.49674536132812500000e+03) (38, -1.20164233398437500000e+03) (39, 1.49393615722656250000e+03) (40, 5.47048950195312500000e+00) (41, 1.49691857910156250000e+03) (42, 4.48350369930267333984e-01) (43, 1.49809948730468750000e+03) (44, 7.41021499633789062500e+01) (45, 1.49755249023437500000e+03) (46, -1.49888879394531250000e+03) (47, 1.49795068359375000000e+03) (48, 1.49999865722656250000e+03) (49, 1.49761364746093750000e+03) (50, -1.49778601074218750000e+03) (51, 1.49891760253906250000e+03) (52, -1.49907177734375000000e+03) (53, 2.98085308074951171875e+01) (54, -1.49617932128906250000e+03) (55, 1.49911865234375000000e+03) (56, -1.49891784667968750000e+03) (57, 1.49892980957031250000e+03) (58, -1.49987963867187500000e+03) (59, 1.49902099609375000000e+03) (60, -1.49913684082031250000e+03) (61, 1.49944812011718750000e+03) (62, -1.47690173339843750000e+03) (63, 1.49949023437500000000e+03) (64, -1.49104174804687500000e+03) (65, 1.32203894042968750000e+03) (66, 1.50000000000000000000e+03) (67, 2.16689610481262207031e+00) (68, 1.49995214843750000000e+03) (69, 6.50104736328125000000e+02) (70, -1.49960742187500000000e+03) (71, -2.59795045852661132812e+00) (72, -1.49773364257812500000e+03) (73, 1.49620764160156250000e+03) (74, -1.49372875976562500000e+03) (75, 1.34472808837890625000e+01) (76, -1.50000000000000000000e+03) (77, 1.48480151367187500000e+03) (78, -1.50000000000000000000e+03) (79, -1.50000000000000000000e+03) (80, -1.50000000000000000000e+03) (81, 4.12679107666015625000e+02) (82, -2.45706653594970703125e+00) (83, -7.65162086486816406250e+00) (84, 1.49484716796875000000e+03) (85, 9.04930343627929687500e+01) (86, 3.99988670349121093750e+01) (87, -1.00432128906250000000e+02) (88, -1.48500439453125000000e+03) (89, 1.49786816406250000000e+03) (90, -5.84224271774291992188e+00) (91, 1.49599841308593750000e+03) (92, -5.58117926120758056641e-01) (93, 1.49533972167968750000e+03) (94, 7.49561357498168945312e+00) (95, 1.49408422851562500000e+03) (96, 1.49950402832031250000e+03) (97, 1.49618493652343750000e+03) (98, 4.00733566284179687500e+01) (99, 1.49721728515625000000e+03) (100, -2.28947854042053222656e+00) (101, 1.49840637207031250000e+03) (102, -3.09935998916625976562e+00) (103, 1.49914501953125000000e+03) (104, -2.12325310707092285156e+00) (105, 7.48845581054687500000e+02) (106, 2.84101438522338867188e+00) (107, 1.49784545898437500000e+03) (108, -2.30598497390747070312e+00) (109, 1.49848925781250000000e+03) (110, -2.42948379516601562500e+01) (111, -9.10601094365119934082e-02) (112, 5.23568038940429687500e+01) (113, 3.29107284545898437500e+01) (114, 4.34567260742187500000e+01) (115, 6.57133817672729492188e+00) (116, -3.31807494163513183594e+00) (117, 2.78887176513671875000e+02) (118, -1.49999987792968750000e+03) (119, 2.85912895202636718750e+01) (120, 3.44267773628234863281e+00) (121, 1.05407276153564453125e+01) (122, -1.17102465820312500000e+03) (123, 5.63007812500000000000e+01) (124, -2.12153553962707519531e+00) (125, 2.13987708091735839844e+00) (126, -4.36463785171508789062e+00) (127, 4.65007686614990234375e+00) (128, -2.45997166633605957031e+00) (129, 3.55834126472473144531e+00) (130, -5.54982233047485351562e+00) (131, 3.17923583984375000000e+01) (132, -1.49333654785156250000e+03) (133, 1.49822668457031250000e+03) (134, -1.50000000000000000000e+03) (135, 7.29941955566406250000e+02) (136, -3.59407544136047363281e-01) (137, 1.11739873886108398438e+00) (138, 4.10062760114669799805e-01) (139, 7.07408523559570312500e+01) (140, -2.61192107200622558594e+00) (141, 2.35868053436279296875e+01) (142, -3.43344306945800781250e+01) (143, 8.21061849594116210938e-01) (144, -1.49787719726562500000e+03) (145, 1.16582040786743164062e+01) (146, -1.48815954589843750000e+03) (147, 3.92495942115783691406e+00) (148, 2.75042915344238281250e+00) (149, 3.74322414398193359375e+00) (150, -2.43099395751953125000e+02) (151, -1.61438560485839843750e+00) (152, 1.50000000000000000000e+03) (153, 1.14115562438964843750e+02) (154, 1.48671142578125000000e+03) (155, 1.49769372558593750000e+03) (156, 4.46132385253906250000e+02) (157, 1.00821899414062500000e+02) (158, -1.68790960311889648438e+00) (159, 8.74396438598632812500e+01) (160, -2.46974539756774902344e+00) (161, 1.06517343521118164062e+01) (162, -7.52496957778930664062e+00) (163, 1.80286159515380859375e+01) (164, 1.49065856933593750000e+03) (165, 1.49301647949218750000e+03) (166, 1.49909082031250000000e+03) (167, 1.49557019042968750000e+03) (168, -8.45375359058380126953e-01) (169, 1.49832531738281250000e+03) (170, 5.05705952644348144531e-01) (171, 5.04158163070678710938e+00) (172, 4.11195898056030273438e+00) (173, 3.73200012207031250000e+02) (174, 9.15006542205810546875e+00) (175, 1.49483300781250000000e+03) (176, 3.60382246971130371094e+00) (177, 1.47293017578125000000e+03) (178, 1.04402360916137695312e+01) (179, 1.49808642578125000000e+03) (180, 1.49999987792968750000e+03) (181, 1.20966577148437500000e+03) (182, -1.49278881835937500000e+03) (183, -8.21157097816467285156e-01) (184, -1.50000000000000000000e+03) (185, 3.37889343261718750000e+02) (186, -1.50000000000000000000e+03) (187, 1.49230651855468750000e+03) (188, -1.48173876953125000000e+03) (189, 1.48959582519531250000e+03) (190, 1.49946728515625000000e+03) (191, 1.74928634643554687500e+02) (192, -1.48972338867187500000e+03) (193, 1.49399780273437500000e+03) (194, -1.35539721679687500000e+03) (195, 1.49260986328125000000e+03) (196, 1.50000000000000000000e+03) (197, 1.50000000000000000000e+03) (198, 1.50000000000000000000e+03) (199, 1.50000000000000000000e+03) (200, 1.49171362304687500000e+03) (201, -1.50000000000000000000e+03) (202, -1.48579919433593750000e+03) (0, 7.47337818145751953125e-01) (1, -2.28502362966537475586e-01) (2, -5.09156763553619384766e-01) (3, -4.88607197999954223633e-01) (4, -4.04193967580795288086e-01) (5, -7.90514230728149414062e-01) (6, 4.08901363611221313477e-01) (7, -6.92978918552398681641e-01) (8, 1.10643362998962402344e+00) (9, 1.22516191005706787109e+00) (10, -5.53277552127838134766e-01) (11, -3.69002707302570343018e-02) (12, 8.31651806831359863281e-01) (13, -1.18654942512512207031e+00) (14, 3.24541151523590087891e-01) (15, 7.47302472591400146484e-01) (16, -2.21969604492187500000e+00) (17, 2.50743299722671508789e-01) (18, 2.02819776535034179688e+00) (19, -7.34426677227020263672e-01) (20, -1.25573635101318359375e+00) (21, -2.37525627017021179199e-01) (22, -1.38741672039031982422e-01) (23, 2.65128910541534423828e-01) (24, 4.58327591419219970703e-01) (25, 1.16248667240142822266e+00) (26, -1.04408109188079833984e+00) (27, 6.86533689498901367188e-01) (28, 4.53041136264801025391e-01) (29, 3.24926488101482391357e-02) (30, 4.55898612737655639648e-01) (31, -9.44321379065513610840e-02) (32, -2.89355349540710449219e+00) (33, -8.82188603281974792480e-02) (34, -6.25215023756027221680e-02) (35, 2.94776976108551025391e-01) (36, -1.86386108398437500000e-01) (37, -6.37820303440093994141e-01) (38, -2.93894320726394653320e-01) (39, 6.34349346160888671875e-01) (40, 9.81636464595794677734e-01) (41, 3.90829682350158691406e-01) (42, 4.71694860607385635376e-03) (43, -1.94316223263740539551e-01) (44, 8.92356812953948974609e-01) (45, 6.45722150802612304688e-01) (46, -2.67360091209411621094e+00) (47, -2.08971455693244934082e-01) (48, 1.99765121936798095703e+00) (49, 1.72405406832695007324e-01) (50, 2.31808170676231384277e-01) (51, -5.22841751575469970703e-01) (52, 7.64945566654205322266e-01) (53, 2.23709344863891601562e-01) (54, -2.46311187744140625000e+00) (55, 6.28660857677459716797e-01) (56, 1.65921866893768310547e+00) (57, -4.39222663640975952148e-01) (58, 4.64205384254455566406e-01) (59, -7.26232349872589111328e-01) (60, 3.56813669204711914062e-01) (61, -7.32123672962188720703e-01) (62, -3.85079562664031982422e-01) (63, -3.26264172792434692383e-01) (64, 1.48781573772430419922e+00) (65, 3.13732266426086425781e-01) (66, -1.97023761272430419922e+00) (67, 5.18305301666259765625e-01) (68, -1.83441650867462158203e+00) (69, -2.44273412972688674927e-02) (70, 1.31709802150726318359e+00) (71, 8.57797041535377502441e-02) (72, -1.46690714359283447266e+00) (73, 2.20116943120956420898e-01) (74, 1.33176982402801513672e+00) (75, 6.86649918556213378906e-01) (76, 7.80994296073913574219e-02) (77, 2.99280613660812377930e-01) (78, -4.12815123796463012695e-01) (79, 1.30286455154418945312e-01) (80, 5.03061175346374511719e-01) (81, -7.56300166249275207520e-02) (82, -3.25936675071716308594e-01) (83, 3.29452492296695709229e-02) (84, 1.06216764450073242188e+00) (85, -3.59112113714218139648e-01) (86, 2.53238379955291748047e-01) (87, -6.19835376739501953125e-01) (88, -1.92320311069488525391e+00) (89, 3.80096524953842163086e-01) (90, 1.61333298683166503906e+00) (91, -5.18880724906921386719e-01) (92, 9.79408770799636840820e-02) (93, 3.08068871498107910156e-01) (94, 9.01403352618217468262e-02) (95, 5.03702163696289062500e-01) (96, 2.12164491415023803711e-01) (97, -2.74683237075805664062e-01) (98, -3.30497413873672485352e-01) (99, 6.96424067020416259766e-01) (100, -7.58403912186622619629e-02) (101, -1.18838705122470855713e-01) (102, -1.44957192242145538330e-02) (103, 3.80538403987884521484e-01) (104, 2.44233906269073486328e-01) (105, -2.59296689182519912720e-02) (106, 4.32291328907012939453e-01) (107, 4.53331410884857177734e-01) (108, -6.44254684448242187500e-02) (109, -3.76544207334518432617e-01) (110, -1.07413697242736816406e+00) (111, -2.12168902158737182617e-01) (112, 9.32322800159454345703e-01) (113, 2.33982354402542114258e-01) (114, 7.33068346977233886719e-01) (115, 2.78442919254302978516e-01) (116, -9.33773636817932128906e-01) (117, 4.58185896277427673340e-02) (118, -3.32607126235961914062e+00) (119, 2.44258821010589599609e-01) (120, 9.37728703022003173828e-01) (121, 2.62114852666854858398e-01) (122, 8.94773602485656738281e-01) (123, 4.59196478128433227539e-01) (124, 3.18632513284683227539e-01) (125, 8.59298184514045715332e-02) (126, -1.02923713624477386475e-01) (127, -3.52396070957183837891e-01) (128, 2.84320682287216186523e-01) (129, 1.05808451771736145020e-01) (130, -4.38963592052459716797e-01) (131, 4.34072226285934448242e-01) (132, -6.55256628990173339844e-01) (133, -5.18199428915977478027e-02) (134, 8.22490453720092773438e-01) (135, -5.73820054531097412109e-01) (136, -5.25630079209804534912e-02) (137, -4.72966060042381286621e-02) (138, 9.44906771183013916016e-01) (139, 3.48016768693923950195e-01) (140, 7.40567564964294433594e-01) (141, -2.01263390481472015381e-02) (142, 4.26961369812488555908e-02) (143, 1.92923426628112792969e-01) (144, -2.40697240829467773438e+00) (145, 8.31545516848564147949e-02) (146, -1.42359149456024169922e+00) (147, 6.35160326957702636719e-01) (148, -6.64353817701339721680e-02) (149, -4.38790768384933471680e-01) (150, -1.76838862895965576172e+00) (151, -5.38091838359832763672e-01) (152, 3.99019986391067504883e-01) (153, 5.62868654727935791016e-01) (154, -2.77235358953475952148e-01) (155, 2.36296787858009338379e-01) (156, 1.01423740386962890625e+00) (157, -1.31077617406845092773e-01) (158, 2.77507543563842773438e-01) (159, 7.80809640884399414062e-01) (160, 1.33438959717750549316e-01) (161, 3.56954872608184814453e-01) (162, -2.44599357247352600098e-01) (163, -1.17270745337009429932e-01) (164, 4.41265642642974853516e-01) (165, 1.90760195255279541016e-01) (166, -3.85332226753234863281e-01) (167, -4.77564744651317596436e-02) (168, -1.37152016162872314453e-01) (169, 7.74997472763061523438e-01) (170, 5.78480899333953857422e-01) (171, -5.45920670032501220703e-01) (172, 1.40485942363739013672e+00) (173, -8.02320763468742370605e-02) (174, 1.72435209155082702637e-01) (175, 1.73536956310272216797e-01) (176, 6.00356400012969970703e-01) (177, -1.10479950904846191406e-01) (178, 2.71973371505737304688e-01) (179, -9.00615528225898742676e-02) (180, -1.08118140697479248047e+00) (181, 3.86552304029464721680e-01) (182, 3.95573288202285766602e-01) (183, 2.93114542961120605469e-01) (184, -2.02087545394897460938e+00) (185, 7.48539149761199951172e-01) (186, 1.77363204956054687500e+00) (187, 7.73825526237487792969e-01) (188, 1.37410593032836914062e+00) (189, -8.14339146018028259277e-02) (190, -2.66227185726165771484e-01) (191, -9.37280878424644470215e-02) (192, -1.45722508430480957031e-01) (193, -1.55121028423309326172e-01) (194, 4.12842363119125366211e-01) (195, -5.65195083618164062500e-01) (196, 1.50000000000000000000e+03) (197, 1.50000000000000000000e+03) (198, 1.50000000000000000000e+03) (199, 1.50000000000000000000e+03) (200, -3.31282556056976318359e-01) (201, 4.71706390380859375000e-01) (202, 5.00387144088745117188e+00) (0, -3.65928955078125000000e+01) (1, 1.52016687393188476562e+01) (2, -2.14670028686523437500e+01) (3, 5.59449386596679687500e+00) (4, -8.94200980663299560547e-01) (5, 1.78195786476135253906e+00) (6, 4.41554718017578125000e+01) (7, 2.92869520187377929688e+00) (8, 1.61128520965576171875e-01) (9, 4.51600027084350585938e+00) (10, -2.40264701843261718750e+01) (11, 5.52710485458374023438e+00) (12, -1.19776372909545898438e+01) (13, 2.16749382019042968750e+00) (14, -1.45166215896606445312e+01) (15, 1.96894690394401550293e-01) (16, -4.65763977050781250000e+02) (17, 2.29353809356689453125e+00) (18, 1.94894237518310546875e+01) (19, 2.94767165184020996094e+00) (20, 1.04691772460937500000e+01) (21, 1.39028251171112060547e+00) (22, 6.82505369186401367188e+00) (23, 1.64773046970367431641e+00) (24, 3.81110763549804687500e+01) (25, -7.96964492797851562500e+01) (26, 9.55186080932617187500e+01) (27, 3.92313432693481445312e+00) (28, 3.19871177673339843750e+01) (29, 4.01095104217529296875e+00) (30, -4.23082160949707031250e+01) (31, 2.19056610107421875000e+02) (32, -7.39819192886352539062e+00) (33, 8.12089294433593750000e+02) (34, -1.03291503906250000000e+02) (35, 1.26992034912109375000e+00) (36, 1.56910438537597656250e+01) (37, 3.68690156936645507812e+00) (38, -1.22712745666503906250e+01) (39, 2.90917563438415527344e+00) (40, -1.99907362461090087891e+00) (41, -6.14781320095062255859e-01) (42, 5.07319986820220947266e-01) (43, 9.35725390911102294922e-01) (44, 4.80489540100097656250e+00) (45, 1.48872053623199462891e+00) (46, -6.62784576416015625000e+01) (47, 4.26187562942504882812e+00) (48, 2.43132534027099609375e+01) (49, 7.69383955001831054688e+00) (50, -4.73791618347167968750e+01) (51, 1.52276067733764648438e+01) (52, -5.51378130912780761719e-01) (53, 4.59013175964355468750e+00) (54, -1.91210540771484375000e+02) (55, 2.66151279211044311523e-01) (56, 1.55330171585083007812e+01) (57, 4.82251644134521484375e+00) (58, 9.28383712768554687500e+01) (59, 7.68693971633911132812e+00) (60, 5.04115390777587890625e+00) (61, 5.88494634628295898438e+00) (62, -4.42636146545410156250e+01) (63, 5.71377563476562500000e+00) (64, 2.76709671020507812500e+01) (65, 5.94725894927978515625e+00) (66, 8.05014324188232421875e+00) (67, 4.37501764297485351562e+00) (68, 2.14464702606201171875e+01) (69, 4.73897695541381835938e+00) (70, -5.15853822231292724609e-01) (71, 2.03246235847473144531e+00) (72, 2.40937213897705078125e+01) (73, 8.42713236808776855469e-01) (74, 3.26827583312988281250e+01) (75, 2.92379879951477050781e+00) (76, -2.00127825140953063965e-01) (77, 3.36377358436584472656e+00) (78, -3.75654959678649902344e+00) (79, 3.38697719573974609375e+00) (80, -1.93662490844726562500e+01) (81, 6.70128870010375976562e+00) (82, -3.03043842315673828125e+00) (83, 1.77641925811767578125e+01) (84, -3.94541931152343750000e+00) (85, -1.08531150817871093750e+01) (86, 8.18065226078033447266e-01) (87, 7.27154910564422607422e-01) (88, -5.06571674346923828125e+00) (89, 1.91535496711730957031e+00) (90, 1.60519390106201171875e+01) (91, -1.70589148998260498047e+00) (92, 1.78566312789916992188e+00) (93, -2.10319495201110839844e+00) (94, 6.57781457901000976562e+00) (95, 4.24809646606445312500e+00) (96, 2.78596649169921875000e+01) (97, 2.25828695297241210938e+00) (98, 9.21607303619384765625e+00) (99, 4.25754642486572265625e+00) (100, -3.53773593902587890625e+00) (101, 3.35234713554382324219e+00) (102, -1.78308372497558593750e+01) (103, 7.64528179168701171875e+00) (104, -4.40660190582275390625e+00) (105, -1.78964269161224365234e+00) (106, -6.31296873092651367188e-01) (107, 3.45806999206542968750e+01) (108, -7.90298223495483398438e+00) (109, 5.14338541030883789062e+00) (110, -9.39217681884765625000e+01) (111, 1.37826168537139892578e+00) (112, 9.69572067260742187500e+01) (113, 3.13605880737304687500e+00) (114, 8.52050170898437500000e+01) (115, 5.52568912506103515625e+00) (116, -3.82485890388488769531e+00) (117, 2.24076962471008300781e+00) (118, -1.09315600585937500000e+03) (119, 5.86544418334960937500e+00) (120, 3.42314600944519042969e+00) (121, -2.85558795928955078125e+00) (122, -2.36611957550048828125e+01) (123, -1.77500343322753906250e+00) (124, 3.05866599082946777344e+00) (125, 9.77385103702545166016e-01) (126, 5.11448919773101806641e-01) (127, 8.39897155761718750000e+00) (128, -1.19485378265380859375e+01) (129, 7.35614395141601562500e+00) (130, -3.98258590698242187500e+00) (131, 9.26269817352294921875e+00) (132, 1.27041759490966796875e+01) (133, 8.38057041168212890625e+00) (134, 1.74612134695053100586e-01) (135, -1.06937438964843750000e+02) (136, 1.28140554428100585938e+01) (137, 2.19687104225158691406e+00) (138, -4.66554412841796875000e+01) (139, -3.67910623550415039062e-01) (140, -1.48843032836914062500e+02) (141, 1.84140908718109130859e+00) (142, 3.12887191772460937500e+00) (143, 1.32767879962921142578e+00) (144, -7.15046264648437500000e+02) (145, 9.84399557113647460938e-01) (146, -1.81243610382080078125e+01) (147, 6.73987627029418945312e+00) (148, 3.64258837699890136719e+00) (149, 2.81492543220520019531e+00) (150, 5.84437608718872070312e+00) (151, 9.49618339538574218750e-01) (152, 4.49291763305664062500e+01) (153, 1.12018432617187500000e+01) (154, 6.43029846191406250000e+02) (155, 7.55938816070556640625e+00) (156, -7.00857421875000000000e+02) (157, 8.83225822448730468750e+00) (158, 4.38211011886596679688e+00) (159, 1.35863170623779296875e+01) (160, 2.64241981506347656250e+00) (161, 8.76189708709716796875e+00) (162, 8.04701900482177734375e+00) (163, -3.68442687988281250000e+01) (164, -1.10246047973632812500e+01) (165, -2.06913852691650390625e+00) (166, -2.84873270988464355469e+00) (167, 6.26939630508422851562e+00) (168, -3.28132581710815429688e+00) (169, 9.05381298065185546875e+00) (170, 7.23507595062255859375e+00) (171, 3.03440761566162109375e+00) (172, 3.30189585685729980469e+00) (173, 7.20883131027221679688e+00) (174, 3.12434983253479003906e+00) (175, 9.12451648712158203125e+00) (176, 3.76551017761230468750e+01) (177, 9.48965930938720703125e+00) (178, -3.51884436607360839844e+00) (179, 1.96589803695678710938e+00) (180, 2.52729888916015625000e+02) (181, 4.50918531417846679688e+00) (182, 6.35818237304687500000e+02) (183, 2.84099578857421875000e+00) (184, -1.97121139526367187500e+02) (185, 9.05164539813995361328e-01) (186, 2.35911808013916015625e+01) (187, 2.63775587081909179688e+00) (188, 1.33744583129882812500e+02) (189, -2.57943987846374511719e+00) (190, 2.16523303985595703125e+01) (191, -8.83295345306396484375e+00) (192, 2.94524749755859375000e+02) (193, -2.41375708580017089844e+00) (194, 7.18739807128906250000e+02) (195, -9.69458866119384765625e+00) (196, 1.50000000000000000000e+03) (197, 1.50000000000000000000e+03) (198, 1.50000000000000000000e+03) (199, 1.50000000000000000000e+03) (200, -7.23416626453399658203e-01) (201, -1.50000000000000000000e+03) (202, 7.06006956100463867188e+00) (0, 2.62048614501953125000e+02) (1, -1.48599255371093750000e+03) (2, 1.49417504882812500000e+03) (3, -1.49464172363281250000e+03) (4, -1.50000000000000000000e+03) (5, -1.44302685546875000000e+03) (6, 1.27990063476562500000e+03) (7, -1.47336865234375000000e+03) (8, 1.49999658203125000000e+03) (9, -1.50000000000000000000e+03) (10, 1.49999780273437500000e+03) (11, -1.43235351562500000000e+03) (12, 1.49999316406250000000e+03) (13, -1.44326477050781250000e+03) (14, 1.49999096679687500000e+03) (15, -1.50000000000000000000e+03) (16, -1.87333114624023437500e+02) (17, -1.49909033203125000000e+03) (18, 3.97217773437500000000e+02) (19, -1.50000000000000000000e+03) (20, -1.33156494140625000000e+03) (21, -1.49760742187500000000e+03) (22, -1.48649243164062500000e+03) (23, -1.42388049316406250000e+03) (24, -1.46435742187500000000e+03) (25, -1.46311059570312500000e+03) (26, 1.49999987792968750000e+03) (27, -1.48752746582031250000e+03) (28, 8.96767211914062500000e+02) (29, -1.45341320800781250000e+03) (30, 1.49987609863281250000e+03) (31, -1.42254846191406250000e+03) (32, 1.35401733398437500000e+03) (33, -1.43266040039062500000e+03) (34, -1.50000000000000000000e+03) (35, -1.49384130859375000000e+03) (36, 1.48936010742187500000e+03) (37, -1.49999987792968750000e+03) (38, -1.49999987792968750000e+03) (39, -1.50000000000000000000e+03) (40, -1.47129370117187500000e+03) (41, -1.50000000000000000000e+03) (42, -1.50000000000000000000e+03) (43, -1.49083398437500000000e+03) (44, -1.50000000000000000000e+03) (45, -1.50000000000000000000e+03) (46, -1.44959350585937500000e+03) (47, -1.44944616699218750000e+03) (48, -1.49959204101562500000e+03) (49, -1.50000000000000000000e+03) (50, -1.50000000000000000000e+03) (51, -1.48678210449218750000e+03) (52, -1.50000000000000000000e+03) (53, -1.50000000000000000000e+03) (54, -1.49503381347656250000e+03) (55, -1.49303894042968750000e+03) (56, 2.49120788574218750000e+02) (57, -1.50000000000000000000e+03) (58, 1.49999951171875000000e+03) (59, -1.50000000000000000000e+03) (60, 1.50000000000000000000e+03) (61, -1.48933081054687500000e+03) (62, -1.46116552734375000000e+03) (63, -1.48733715820312500000e+03) (64, -3.41028137207031250000e+02) (65, -1.48651635742187500000e+03) (66, 1.50000000000000000000e+03) (67, -1.50000000000000000000e+03) (68, 1.49999926757812500000e+03) (69, -4.10479187011718750000e+02) (70, 1.49997045898437500000e+03) (71, -7.70908889770507812500e+01) (72, 1.49997680664062500000e+03) (73, -1.50000000000000000000e+03) (74, 1.50000000000000000000e+03) (75, -1.48656335449218750000e+03) (76, -1.48813171386718750000e+03) (77, -1.50000000000000000000e+03) (78, 1.49908142089843750000e+03) (79, -1.47524890136718750000e+03) (80, 1.49533264160156250000e+03) (81, -1.46171850585937500000e+03) (82, -1.03639550781250000000e+03) (83, -1.15400028228759765625e+01) (84, -1.49999987792968750000e+03) (85, -1.50000000000000000000e+03) (86, -1.50000000000000000000e+03) (87, -1.39676904296875000000e+03) (88, -1.45246264648437500000e+03) (89, -1.49653820800781250000e+03) (90, -1.41768774414062500000e+03) (91, -1.49056750488281250000e+03) (92, 1.49984436035156250000e+03) (93, -1.48613623046875000000e+03) (94, 1.49998278808593750000e+03) (95, -6.43988891601562500000e+02) (96, -1.49467529296875000000e+03) (97, -1.49983300781250000000e+03) (98, -1.49944677734375000000e+03) (99, -7.91548767089843750000e+02) (100, -1.46355517578125000000e+03) (101, -1.50000000000000000000e+03) (102, -1.50000000000000000000e+03) (103, -1.50000000000000000000e+03) (104, -1.50000000000000000000e+03) (105, -1.62561133503913879395e-01) (106, -1.50000000000000000000e+03) (107, -1.50000000000000000000e+03) (108, -1.50000000000000000000e+03) (109, -1.50000000000000000000e+03) (110, -1.47316125488281250000e+03) (111, -1.49148034667968750000e+03) (112, 1.49931054687500000000e+03) (113, -1.46573620605468750000e+03) (114, 1.49925109863281250000e+03) (115, -1.49020935058593750000e+03) (116, 1.49999902343750000000e+03) (117, -1.48064526367187500000e+03) (118, 1.49721826171875000000e+03) (119, -1.49842102050781250000e+03) (120, -1.47910656738281250000e+03) (121, -7.85927248001098632812e+00) (122, -1.49867211914062500000e+03) (123, -1.50000000000000000000e+03) (124, -1.50000000000000000000e+03) (125, -1.50000000000000000000e+03) (126, -1.46955895996093750000e+03) (127, -1.50000000000000000000e+03) (128, -1.49797265625000000000e+03) (129, -1.50000000000000000000e+03) (130, 1.49962561035156250000e+03) (131, -8.09714721679687500000e+02) (132, -1.50000000000000000000e+03) (133, -1.49997790527343750000e+03) (134, -1.49885583496093750000e+03) (135, -1.45017016601562500000e+03) (136, -1.49978540039062500000e+03) (137, -1.49752221679687500000e+03) (138, -1.49718566894531250000e+03) (139, -1.49936572265625000000e+03) (140, -4.43596405029296875000e+02) (141, -1.49335205078125000000e+03) (142, -1.48734741210937500000e+03) (143, -1.46938940429687500000e+03) (144, 1.50000000000000000000e+03) (145, -1.39889208984375000000e+03) (146, 1.49999890136718750000e+03) (147, -1.43891503906250000000e+03) (148, -1.17254648208618164062e+01) (149, -1.49934716796875000000e+03) (150, 1.49983264160156250000e+03) (151, 1.49899243164062500000e+03) (152, 1.50000000000000000000e+03) (153, -1.49582250976562500000e+03) (154, 1.50000000000000000000e+03) (155, -1.18477026367187500000e+03) (156, 1.49942297363281250000e+03) (157, 1.49818359375000000000e+03) (158, -1.48788171386718750000e+03) (159, 1.15863195800781250000e+03) (160, -1.49999987792968750000e+03) (161, 1.49583642578125000000e+03) (162, -1.49999987792968750000e+03) (163, 1.49606750488281250000e+03) (164, -1.47837194824218750000e+03) (165, 1.49166552734375000000e+03) (166, -1.49799951171875000000e+03) (167, 5.69678405761718750000e+02) (168, -1.49968859863281250000e+03) (169, -1.49169250488281250000e+03) (170, -1.48789465332031250000e+03) (171, 2.50424911499023437500e+02) (172, -5.16897697448730468750e+01) (173, -3.61730499267578125000e+02) (174, 1.49996472167968750000e+03) (175, 1.49966162109375000000e+03) (176, 1.49994604492187500000e+03) (177, 1.49966198730468750000e+03) (178, -1.49863049316406250000e+03) (179, -6.60422424316406250000e+02) (180, 1.49583032226562500000e+03) (181, 1.49941491699218750000e+03) (182, -1.45429272460937500000e+03) (183, 4.25168121337890625000e+02) (184, -1.49948278808593750000e+03) (185, -1.49897656250000000000e+03) (186, -1.49710595703125000000e+03) (187, -1.49991333007812500000e+03) (188, 1.49990258789062500000e+03) (189, -1.49289233398437500000e+03) (190, 7.19227172851562500000e+02) (191, 1.49628295898437500000e+03) (192, 1.50000000000000000000e+03) (193, -1.50000000000000000000e+03) (194, 1.50000000000000000000e+03) (195, -1.50000000000000000000e+03) (196, 1.50000000000000000000e+03) (197, 1.50000000000000000000e+03) (198, 1.50000000000000000000e+03) (199, 1.50000000000000000000e+03) (200, -1.50000000000000000000e+03) (201, -1.48923657226562500000e+03) (202, 1.50000000000000000000e+03) (0, -1.49624121093750000000e+03) (1, 1.49909716796875000000e+03) (2, -9.93862792968750000000e+02) (3, 1.49499475097656250000e+03) (4, -1.50000000000000000000e+03) (5, -1.50000000000000000000e+03) (6, -1.50000000000000000000e+03) (7, -1.50000000000000000000e+03) (8, -1.50000000000000000000e+03) (9, -1.50000000000000000000e+03) (10, -1.49999987792968750000e+03) (11, 1.14622106933593750000e+03) (12, -1.49965563964843750000e+03) (13, -1.50000000000000000000e+03) (14, -1.49999987792968750000e+03) (15, -1.50000000000000000000e+03) (16, -1.49999987792968750000e+03) (17, -1.50000000000000000000e+03) (18, -1.46793859863281250000e+03) (19, -1.50000000000000000000e+03) (20, -1.46932983398437500000e+03) (21, -1.50000000000000000000e+03) (22, -1.46899182128906250000e+03) (23, -1.50000000000000000000e+03) (24, 1.49970666503906250000e+03) (25, -1.49957446289062500000e+03) (26, 4.85146148681640625000e+02) (27, -1.49930712890625000000e+03) (28, 1.49758032226562500000e+03) (29, -1.50000000000000000000e+03) (30, -1.50000000000000000000e+03) (31, -1.50000000000000000000e+03) (32, 1.49969934082031250000e+03) (33, -1.50000000000000000000e+03) (34, -1.50000000000000000000e+03) (35, -1.50000000000000000000e+03) (36, -1.48894836425781250000e+03) (37, -1.50000000000000000000e+03) (38, -1.50000000000000000000e+03) (39, -1.50000000000000000000e+03) (40, -1.50000000000000000000e+03) (41, -1.50000000000000000000e+03) (42, -1.50000000000000000000e+03) (43, -1.50000000000000000000e+03) (44, 1.92700836181640625000e+02) (45, -1.50000000000000000000e+03) (46, -1.49822412109375000000e+03) (47, -1.49998242187500000000e+03) (48, 1.49926086425781250000e+03) (49, -1.46146582031250000000e+03) (50, -1.50000000000000000000e+03) (51, -1.49998742675781250000e+03) (52, 1.49714208984375000000e+03) (53, 1.49567797851562500000e+03) (54, 1.49947302246093750000e+03) (55, -4.89779083251953125000e+02) (56, 1.49725793457031250000e+03) (57, 1.49887609863281250000e+03) (58, 1.49737207031250000000e+03) (59, -2.68212219238281250000e+02) (60, 1.50000000000000000000e+03) (61, 1.49997363281250000000e+03) (62, 1.50000000000000000000e+03) (63, 1.49998254394531250000e+03) (64, 1.50000000000000000000e+03) (65, 8.47643798828125000000e+02) (66, -4.30179412841796875000e+02) (67, 8.09042724609375000000e+02) (68, 1.50000000000000000000e+03) (69, -1.49973217773437500000e+03) (70, -1.43725158691406250000e+03) (71, 1.49912194824218750000e+03) (72, 1.50000000000000000000e+03) (73, 1.49796301269531250000e+03) (74, 1.48999169921875000000e+03) (75, 1.49948669433593750000e+03) (76, -1.49928210449218750000e+03) (77, 1.49720495605468750000e+03) (78, -1.49885278320312500000e+03) (79, 1.49548217773437500000e+03) (80, -1.49999987792968750000e+03) (81, 1.49319995117187500000e+03) (82, 1.49818286132812500000e+03) (83, 1.49848071289062500000e+03) (84, -1.46003698730468750000e+03) (85, -1.49908972167968750000e+03) (86, -1.44203125000000000000e+03) (87, -1.49785595703125000000e+03) (88, 1.50000000000000000000e+03) (89, -1.22609375000000000000e+03) (90, 1.49980053710937500000e+03) (91, -1.49999987792968750000e+03) (92, 1.49994042968750000000e+03) (93, -1.44153771972656250000e+03) (94, 1.49897070312500000000e+03) (95, 1.49860864257812500000e+03) (96, 1.49878674316406250000e+03) (97, -1.50000000000000000000e+03) (98, 1.49936791992187500000e+03) (99, 1.49999365234375000000e+03) (100, -1.49999987792968750000e+03) (101, 1.49868237304687500000e+03) (102, -1.50000000000000000000e+03) (103, -1.48780871582031250000e+03) (104, -1.50000000000000000000e+03) (105, -1.49150903320312500000e+03) (106, -1.50000000000000000000e+03) (107, -9.45085144042968750000e+02) (108, -1.50000000000000000000e+03) (109, -1.50000000000000000000e+03) (110, -1.50000000000000000000e+03) (111, -1.50000000000000000000e+03) (112, -1.50000000000000000000e+03) (113, -4.12894994020462036133e-01) (114, 9.45062683105468750000e+02) (115, 1.49960339355468750000e+03) (116, 1.50000000000000000000e+03) (117, -2.36264562606811523438e+00) (118, -1.49760131835937500000e+03) (119, -1.50000000000000000000e+03) (120, -1.48867822265625000000e+03) (121, 4.25088470458984375000e+02) (122, -1.49249291992187500000e+03) (123, -4.81852905273437500000e+02) (124, -1.50000000000000000000e+03) (125, -1.50000000000000000000e+03) (126, -1.50000000000000000000e+03) (127, -1.50000000000000000000e+03) (128, -1.50000000000000000000e+03) (129, -1.50000000000000000000e+03) (130, -1.49769348144531250000e+03) (131, -1.50000000000000000000e+03) (132, -1.48052551269531250000e+03) (133, -1.50000000000000000000e+03) (134, -1.47927111816406250000e+03) (135, -1.50000000000000000000e+03) (136, -1.49999987792968750000e+03) (137, -1.50000000000000000000e+03) (138, -1.48907238769531250000e+03) (139, 1.08846105957031250000e+03) (140, -1.37426062011718750000e+03) (141, -1.50000000000000000000e+03) (142, -1.49835327148437500000e+03) (143, -1.50000000000000000000e+03) (144, 1.50000000000000000000e+03) (145, -1.49999987792968750000e+03) (146, 1.50000000000000000000e+03) (147, 7.32976440429687500000e+02) (148, -1.26579467773437500000e+03) (149, -1.49822973632812500000e+03) (150, 1.49999987792968750000e+03) (151, 1.49912756347656250000e+03) (152, 1.50000000000000000000e+03) (153, -1.49672253417968750000e+03) (154, 1.50000000000000000000e+03) (155, -1.46622802734375000000e+03) (156, 1.49998999023437500000e+03) (157, 1.47228430175781250000e+03) (158, -1.44982128906250000000e+03) (159, -1.50000000000000000000e+03) (160, -1.49999987792968750000e+03) (161, -1.41993420410156250000e+03) (162, -1.49999987792968750000e+03) (163, -1.50000000000000000000e+03) (164, -1.49998828125000000000e+03) (165, -1.47911633300781250000e+03) (166, -1.49867712402343750000e+03) (167, -1.50000000000000000000e+03) (168, -1.49440490722656250000e+03) (169, -3.98756835937500000000e+02) (170, 1.49999938964843750000e+03) (171, 1.53881240844726562500e+02) (172, 1.49999804687500000000e+03) (173, -1.68406715393066406250e+01) (174, -1.48998120117187500000e+03) (175, 1.49659533691406250000e+03) (176, 1.48707910156250000000e+03) (177, 1.49836437988281250000e+03) (178, 1.49445117187500000000e+03) (179, 1.49752380371093750000e+03) (180, 1.50000000000000000000e+03) (181, 1.49614855957031250000e+03) (182, 1.50000000000000000000e+03) (183, 5.12636779785156250000e+02) (184, -1.49111059570312500000e+03) (185, -7.66737426757812500000e+02) (186, -1.45981555175781250000e+03) (187, -1.50000000000000000000e+03) (188, -1.47874987792968750000e+03) (189, -1.49999987792968750000e+03) (190, -1.49958666992187500000e+03) (191, -1.46236572265625000000e+03) (192, 1.50000000000000000000e+03) (193, -1.50000000000000000000e+03) (194, 1.50000000000000000000e+03) (195, -1.50000000000000000000e+03) (196, 1.50000000000000000000e+03) (197, 1.50000000000000000000e+03) (198, 1.50000000000000000000e+03) (199, 1.50000000000000000000e+03) (200, -1.50000000000000000000e+03) (201, -1.49792321777343750000e+03) (202, 1.50000000000000000000e+03) (0, 8.15256977081298828125e+00) (1, -1.49100333452224731445e-01) (2, 4.81191539764404296875e+00) (3, 6.54569149017333984375e-01) (4, -9.67924535274505615234e-01) (5, -7.53387808799743652344e-02) (6, -7.70798206329345703125e+00) (7, -1.22219279408454895020e-01) (8, 7.49104261398315429688e-01) (9, 4.10178959369659423828e-01) (10, -1.11759245395660400391e+00) (11, -2.44933255016803741455e-02) (12, -8.99915313720703125000e+00) (13, -1.54757595062255859375e+00) (14, -1.97735810279846191406e+00) (15, -3.23860973119735717773e-01) (16, 2.84462022781372070312e+00) (17, 1.81269323825836181641e+00) (18, 1.34344601631164550781e+00) (19, 1.52398371696472167969e+00) (20, 6.90063762664794921875e+00) (21, -5.44905841350555419922e-01) (22, 4.98276472091674804688e+00) (23, -4.05007272958755493164e-01) (24, 5.47719764709472656250e+00) (25, -2.90466874837875366211e-01) (26, 3.28194117546081542969e+00) (27, 1.71590673923492431641e+00) (28, -3.22782015800476074219e+00) (29, -2.13727331161499023438e+00) (30, 1.72882485389709472656e+00) (31, -9.25055623054504394531e-01) (32, -3.80932354927062988281e+00) (33, -5.99270701408386230469e-01) (34, -3.51732659339904785156e+00) (35, -3.01938414573669433594e+00) (36, -2.17207193374633789062e+00) (37, -2.81312704086303710938e+00) (38, 2.49690890312194824219e+00) (39, -2.92150473594665527344e+00) (40, -1.91453075408935546875e+00) (41, -9.21831011772155761719e-01) (42, 1.59113049507141113281e+00) (43, -3.79718318581581115723e-02) (44, -4.92657631635665893555e-01) (45, -2.10130691528320312500e+00) (46, -6.63717985153198242188e+00) (47, -1.28950572013854980469e+00) (48, 1.14996814727783203125e+00) (49, -3.29831480979919433594e-01) (50, -2.98279857635498046875e+00) (51, -5.44584035873413085938e-01) (52, -4.85920143127441406250e+00) (53, 1.65419709682464599609e+00) (54, -3.80771112442016601562e+00) (55, 2.85222363471984863281e+00) (56, -6.94886970520019531250e+00) (57, 1.12367898225784301758e-01) (58, -6.22897267341613769531e-01) (59, 4.91286963224411010742e-01) (60, 6.61901903152465820312e+00) (61, -2.90612041950225830078e-01) (62, -6.32805585861206054688e+00) (63, 1.69366395473480224609e+00) (64, 1.89998606219887733459e-03) (65, 1.82694184780120849609e+00) (66, -2.23927307128906250000e+00) (67, -2.05966091156005859375e+00) (68, -1.84548699855804443359e+00) (69, -1.03517556190490722656e+00) (70, -2.32329678535461425781e+00) (71, 4.20205444097518920898e-01) (72, -2.50904035568237304688e+00) (73, 2.59360814094543457031e+00) (74, -8.44665706157684326172e-01) (75, 1.24667799472808837891e+00) (76, 3.82044506072998046875e+00) (77, -7.99999296665191650391e-01) (78, -5.05952119827270507812e-01) (79, -4.58067774772644042969e-01) (80, 9.34395849704742431641e-01) (81, -6.72982990741729736328e-01) (82, 1.60915982723236083984e+00) (83, 2.87807440757751464844e+00) (84, 1.09341990947723388672e+00) (85, 3.58712911605834960938e+00) (86, -2.21495652198791503906e+00) (87, 5.36227285861968994141e-01) (88, 8.43380093574523925781e-01) (89, -1.65811151266098022461e-01) (90, 1.07059144973754882812e+00) (91, -2.00353717803955078125e+00) (92, 2.03056287765502929688e+00) (93, -1.00312471389770507812e+00) (94, 4.19627475738525390625e+00) (95, -7.90800034999847412109e-01) (96, 2.19235825538635253906e+00) (97, -5.34492246806621551514e-02) (98, 1.83503818511962890625e+00) (99, 7.17230558395385742188e-01) (100, 2.95923399925231933594e+00) (101, -3.31595242023468017578e-01) (102, 4.36967283487319946289e-01) (103, 4.45878833532333374023e-01) (104, -4.06998157501220703125e+00) (105, 1.95119127631187438965e-01) (106, 3.95341098308563232422e-01) (107, -1.90995737910270690918e-01) (108, 8.98918330669403076172e-01) (109, 1.61650609970092773438e+00) (110, 1.14526963233947753906e+00) (111, 2.63707828521728515625e+00) (112, 3.17496895790100097656e+00) (113, 5.73512673377990722656e-01) (114, 8.23410892486572265625e+00) (115, 5.72460964322090148926e-02) (116, -3.98276710510253906250e+00) (117, -4.49130922555923461914e-01) (118, 2.08179783821105957031e+00) (119, 5.24548470973968505859e-01) (120, 2.58524805307388305664e-01) (121, -6.15809857845306396484e-01) (122, -1.58129680156707763672e+00) (123, 5.28081834316253662109e-01) (124, -1.44924437999725341797e+00) (125, -5.60311317443847656250e-01) (126, -6.95898950099945068359e-01) (127, 1.03386521339416503906e+00) (128, -9.44247627258300781250e+00) (129, 2.24112248420715332031e+00) (130, -4.60150289535522460938e+00) (131, -4.58614796400070190430e-01) (132, 3.18441271781921386719e+00) (133, 1.42094385623931884766e+00) (134, -2.39574503898620605469e+00) (135, 1.48334956169128417969e+00) (136, 2.18141332268714904785e-01) (137, 1.36274576187133789062e+00) (138, 3.53957593441009521484e-01) (139, -1.48715388774871826172e+00) (140, 3.23510146141052246094e+00) (141, -5.90973854064941406250e-01) (142, -4.91174161434173583984e-01) (143, -5.46053946018218994141e-01) (144, -9.56438601016998291016e-01) (145, 2.01616907119750976562e+00) (146, 3.85868239402770996094e+00) (147, 3.59557926654815673828e-01) (148, 1.10003948211669921875e+00) (149, 1.86065483093261718750e+00) (150, 8.92371654510498046875e-01) (151, -9.62549209594726562500e-01) (152, -3.61199069023132324219e+00) (153, -8.12318846583366394043e-02) (154, -3.05769181251525878906e+00) (155, 1.61262094974517822266e-01) (156, 2.05966755747795104980e-01) (157, 1.03903436660766601562e+00) (158, 1.74255929887294769287e-02) (159, 2.20140695571899414062e-01) (160, 1.25806069374084472656e+00) (161, 2.29296416044235229492e-01) (162, 9.60253536701202392578e-01) (163, 6.12775273621082305908e-02) (164, 4.64560842514038085938e+00) (165, -5.19087612628936767578e-01) (166, -3.65812110900878906250e+00) (167, -1.64133894443511962891e+00) (168, -1.29701983928680419922e+00) (169, 7.03090369701385498047e-01) (170, 2.95073598623275756836e-01) (171, 1.56709814071655273438e+00) (172, 1.74512696266174316406e+00) (173, 2.96875596046447753906e-01) (174, -3.77372652292251586914e-01) (175, 1.33964776992797851562e+00) (176, -2.16088190674781799316e-01) (177, 3.29536437988281250000e-01) (178, 1.82473039627075195312e+00) (179, 8.20120692253112792969e-01) (180, -8.07973480224609375000e+00) (181, 6.63800537586212158203e-01) (182, 2.48377680778503417969e+00) (183, 3.01256942749023437500e+00) (184, -1.50172799825668334961e-01) (185, 7.23934590816497802734e-01) (186, -1.43631958961486816406e+00) (187, 1.94197729229927062988e-01) (188, 4.59144639968872070312e+00) (189, 2.04431444406509399414e-01) (190, -9.56765747070312500000e+00) (191, 1.43645071983337402344e+00) (192, 8.13312911987304687500e+00) (193, -2.29468345642089843750e+00) (194, -1.16892790794372558594e+00) (195, 6.54124319553375244141e-01) (196, 1.50000000000000000000e+03) (197, 1.50000000000000000000e+03) (198, 1.50000000000000000000e+03) (199, 1.50000000000000000000e+03) (200, -1.63369461894035339355e-01) (201, -6.14364290237426757812e+00) (202, 6.90815210342407226562e+00) (0, -1.48256005859375000000e+03) (1, -1.48972448730468750000e+03) (2, -1.49999951171875000000e+03) (3, -1.50000000000000000000e+03) (4, -1.49969104003906250000e+03) (5, -1.50000000000000000000e+03) (6, -1.49063183593750000000e+03) (7, -1.50000000000000000000e+03) (8, -1.48327087402343750000e+03) (9, -1.47339746093750000000e+03) (10, -1.49109216308593750000e+03) (11, -3.92001509666442871094e+00) (12, -1.47380139160156250000e+03) (13, -9.99580955505371093750e+00) (14, -1.47944067382812500000e+03) (15, -1.25973176956176757812e+01) (16, -1.39877233886718750000e+03) (17, -4.53009300231933593750e+01) (18, -1.48143432617187500000e+03) (19, -1.49470007324218750000e+03) (20, -1.47476843261718750000e+03) (21, -1.47672998046875000000e+03) (22, -1.46379846191406250000e+03) (23, -1.50000000000000000000e+03) (24, -1.29146264648437500000e+03) (25, -1.48948681640625000000e+03) (26, 1.50000000000000000000e+03) (27, -4.95274925231933593750e+01) (28, -1.50000000000000000000e+03) (29, -1.15371936035156250000e+03) (30, -1.49743957519531250000e+03) (31, -1.50000000000000000000e+03) (32, -1.49635815429687500000e+03) (33, -1.50000000000000000000e+03) (34, -5.54098815917968750000e+02) (35, -1.50000000000000000000e+03) (36, 1.50000000000000000000e+03) (37, -1.49943237304687500000e+03) (38, 1.50000000000000000000e+03) (39, -1.49583410644531250000e+03) (40, -1.42569921875000000000e+03) (41, -1.45333959960937500000e+03) (42, -1.49960339355468750000e+03) (43, -1.50000000000000000000e+03) (44, -1.50000000000000000000e+03) (45, 5.84577941894531250000e+01) (46, -1.49840515136718750000e+03) (47, -1.49239416503906250000e+03) (48, -1.49999987792968750000e+03) (49, -1.50000000000000000000e+03) (50, -1.49999987792968750000e+03) (51, -1.50000000000000000000e+03) (52, -1.49958422851562500000e+03) (53, -1.50000000000000000000e+03) (54, -3.08555114746093750000e+02) (55, -1.49999987792968750000e+03) (56, 1.50000000000000000000e+03) (57, -1.50000000000000000000e+03) (58, 1.50000000000000000000e+03) (59, -1.50000000000000000000e+03) (60, 1.49999926757812500000e+03) (61, 7.84241867065429687500e+01) (62, 9.97871704101562500000e+02) (63, -6.52780437469482421875e+00) (64, 1.49849792480468750000e+03) (65, -1.03032379150390625000e+01) (66, 1.49862036132812500000e+03) (67, 2.79437232017517089844e+00) (68, 1.50000000000000000000e+03) (69, -3.12195987701416015625e+01) (70, 1.49881872558593750000e+03) (71, -1.50000000000000000000e+03) (72, 1.50000000000000000000e+03) (73, -1.50000000000000000000e+03) (74, 1.50000000000000000000e+03) (75, -1.50000000000000000000e+03) (76, 1.49997387695312500000e+03) (77, -1.50000000000000000000e+03) (78, -1.49978393554687500000e+03) (79, -1.47891943359375000000e+03) (80, -1.49999987792968750000e+03) (81, -2.97790622711181640625e+00) (82, -1.49503540039062500000e+03) (83, 1.49253442382812500000e+03) (84, -1.49564953613281250000e+03) (85, -1.49133874511718750000e+03) (86, -1.49999987792968750000e+03) (87, -1.49407373046875000000e+03) (88, -1.49938610839843750000e+03) (89, 1.64389591217041015625e+01) (90, -1.49978576660156250000e+03) (91, -5.56663846969604492188e+00) (92, -1.49999987792968750000e+03) (93, -7.56116516113281250000e+02) (94, -4.61426177978515625000e+02) (95, 1.49999865722656250000e+03) (96, -1.50000000000000000000e+03) (97, -1.50000000000000000000e+03) (98, -1.49262744140625000000e+03) (99, -1.49908056640625000000e+03) (100, -1.50000000000000000000e+03) (101, -1.47277929687500000000e+03) (102, -1.50000000000000000000e+03) (103, -1.50000000000000000000e+03) (104, -1.50000000000000000000e+03) (105, -1.50000000000000000000e+03) (106, -1.50000000000000000000e+03) (107, -1.50000000000000000000e+03) (108, -5.01899902343750000000e+02) (109, -1.50000000000000000000e+03) (110, -1.50000000000000000000e+03) (111, -1.49254040527343750000e+03) (112, 1.50000000000000000000e+03) (113, 4.35622138977050781250e+01) (114, 1.50000000000000000000e+03) (115, 1.49991381835937500000e+03) (116, 1.50000000000000000000e+03) (117, -1.50000000000000000000e+03) (118, 1.50000000000000000000e+03) (119, -1.50000000000000000000e+03) (120, -1.49875830078125000000e+03) (121, -1.50000000000000000000e+03) (122, 1.49808117675781250000e+03) (123, -4.89920711517333984375e+00) (124, -1.49434240722656250000e+03) (125, -1.50000000000000000000e+03) (126, -1.50000000000000000000e+03) (127, -1.50000000000000000000e+03) (128, -1.49996313476562500000e+03) (129, -8.00276660919189453125e+00) (130, -1.49759204101562500000e+03) (131, -1.49003112792968750000e+03) (132, 1.49999938964843750000e+03) (133, -1.03395397949218750000e+03) (134, -1.49861584472656250000e+03) (135, 1.28561599731445312500e+02) (136, -1.49734680175781250000e+03) (137, -1.49549218750000000000e+03) (138, -1.49618688964843750000e+03) (139, -1.49657714843750000000e+03) (140, -1.49396435546875000000e+03) (141, 1.49999963378906250000e+03) (142, -1.49991687011718750000e+03) (143, 3.91214538574218750000e+02) (144, -1.49999963378906250000e+03) (145, -1.49709008789062500000e+03) (146, -1.49999987792968750000e+03) (147, -1.63670104980468750000e+02) (148, -1.49226220703125000000e+03) (149, -1.50000000000000000000e+03) (150, -1.49999987792968750000e+03) (151, -1.49792138671875000000e+03) (152, 1.50000000000000000000e+03) (153, -2.43700546264648437500e+02) (154, 1.50000000000000000000e+03) (155, -1.49976342773437500000e+03) (156, 1.49998461914062500000e+03) (157, -1.49280151367187500000e+03) (158, 1.48948217773437500000e+03) (159, 1.51223921775817871094e+00) (160, 1.50000000000000000000e+03) (161, -1.49698962402343750000e+03) (162, 1.50000000000000000000e+03) (163, -1.49524645996093750000e+03) (164, -1.49830395507812500000e+03) (165, -1.49528845214843750000e+03) (166, 1.50000000000000000000e+03) (167, -1.48621765136718750000e+03) (168, -1.49994042968750000000e+03) (169, -1.49898461914062500000e+03) (170, -1.49986547851562500000e+03) (171, -1.49967761230468750000e+03) (172, -9.11708984375000000000e+01) (173, -1.50000000000000000000e+03) (174, -1.44281372070312500000e+03) (175, -1.49702038574218750000e+03) (176, 1.49999853515625000000e+03) (177, -1.49532531738281250000e+03) (178, -1.50000000000000000000e+03) (179, -1.66869445800781250000e+02) (180, 1.50000000000000000000e+03) (181, 1.49999987792968750000e+03) (182, 1.50000000000000000000e+03) (183, -2.96492791175842285156e+00) (184, -1.46126403808593750000e+03) (185, -1.49734448242187500000e+03) (186, 1.50000000000000000000e+03) (187, -6.01408386230468750000e+00) (188, 1.50000000000000000000e+03) (189, -1.49999987792968750000e+03) (190, 1.50000000000000000000e+03) (191, -1.50000000000000000000e+03) (192, 1.50000000000000000000e+03) (193, -1.50000000000000000000e+03) (194, 1.50000000000000000000e+03) (195, -1.50000000000000000000e+03) (196, 1.50000000000000000000e+03) (197, 1.50000000000000000000e+03) (198, 1.50000000000000000000e+03) (199, 1.50000000000000000000e+03) (200, -1.50000000000000000000e+03) (201, -1.50000000000000000000e+03) (202, 1.50000000000000000000e+03) (0, -7.93741798400878906250e+00) (1, 4.52746629714965820312e+00) (2, 6.84337186813354492188e+00) (3, 8.06171798706054687500e+00) (4, -1.02537250518798828125e+01) (5, 9.71155643463134765625e-01) (6, 5.21679401397705078125e+00) (7, -9.04911577701568603516e-01) (8, 9.33296442031860351562e-01) (9, 1.39779615402221679688e+00) (10, 3.43733048439025878906e+00) (11, 2.92269682884216308594e+00) (12, -5.19888103008270263672e-03) (13, 4.17356300354003906250e+00) (14, -7.85116195678710937500e+00) (15, 2.61375951766967773438e+00) (16, -1.42447769165039062500e+02) (17, -6.24693036079406738281e-01) (18, 1.32998018264770507812e+01) (19, 2.69999480247497558594e+00) (20, 4.01505004882812500000e+02) (21, -8.32030868530273437500e+00) (22, 2.10974903106689453125e+01) (23, -3.83904767036437988281e+00) (24, 1.66821539402008056641e+00) (25, 1.32172441482543945312e+00) (26, 4.21722640991210937500e+01) (27, 2.88655734062194824219e+00) (28, 1.68044147491455078125e+01) (29, 1.78641900420188903809e-01) (30, 1.21659307479858398438e+01) (31, 1.08854225158691406250e+02) (32, -1.15939682006835937500e+02) (33, 2.63497104644775390625e+01) (34, 2.14365768432617187500e+02) (35, -1.38991403579711914062e+00) (36, 5.82574796676635742188e+00) (37, 1.39314007759094238281e+00) (38, 6.00395107269287109375e+00) (39, -6.63220584392547607422e-01) (40, 5.44720697402954101562e+00) (41, -1.16455030441284179688e+00) (42, 1.36726715087890625000e+02) (43, -8.30575406551361083984e-01) (44, 8.21934604644775390625e+00) (45, -1.68751966953277587891e+00) (46, -3.00745620727539062500e+01) (47, 3.71325588226318359375e+00) (48, 1.21655426025390625000e+01) (49, 9.16794204711914062500e+00) (50, 4.82376670837402343750e+01) (51, 2.11873031616210937500e+02) (52, 8.86509776115417480469e-01) (53, 5.24282455444335937500e-01) (54, -5.14030532836914062500e+01) (55, 1.94479680061340332031e+00) (56, 5.79219961166381835938e+00) (57, 6.17513465881347656250e+00) (58, -4.29217262268066406250e+01) (59, 1.43365287780761718750e+01) (60, -3.59040374755859375000e+01) (61, 1.19472322463989257812e+01) (62, 2.01836986541748046875e+01) (63, 7.84178209304809570312e+00) (64, -4.48507308959960937500e+00) (65, 8.74380207061767578125e+00) (66, 4.53462553024291992188e+00) (67, 2.42550134658813476562e+00) (68, -8.59455680847167968750e+00) (69, 2.77881336212158203125e+00) (70, 1.99222278594970703125e+01) (71, 2.83611714839935302734e-01) (72, -2.22688446044921875000e+01) (73, 1.18101310729980468750e+00) (74, -1.83000564575195312500e+02) (75, 1.97814965248107910156e+00) (76, -2.54263496398925781250e+00) (77, 2.75450825691223144531e+00) (78, -2.01709594726562500000e+01) (79, 1.22224640846252441406e+00) (80, -1.34425344467163085938e+01) (81, 3.19973850250244140625e+00) (82, 2.14520311355590820312e+00) (83, 5.76333665847778320312e+00) (84, 2.48685836791992187500e+00) (85, 6.16296958923339843750e+00) (86, 7.96267449855804443359e-01) (87, 2.56330323219299316406e+00) (88, -3.41572570800781250000e+01) (89, 1.95538568496704101562e+00) (90, 1.31632828712463378906e+00) (91, -6.67034149169921875000e+00) (92, 4.77317094802856445312e+00) (93, -2.68417739868164062500e+00) (94, 1.85608158111572265625e+01) (95, 6.87529468536376953125e+00) (96, 1.14958095550537109375e+01) (97, 5.49042463302612304688e+00) (98, 5.22682476043701171875e+00) (99, 6.88371276855468750000e+00) (100, 2.97257900238037109375e+00) (101, 4.82557535171508789062e+00) (102, 2.21646118164062500000e+00) (103, 7.95415401458740234375e+00) (104, 1.00410401821136474609e+00) (105, 3.70882964134216308594e+00) (106, -6.09123468399047851562e-01) (107, 2.79678134918212890625e+01) (108, 8.73612642288208007812e-01) (109, 1.43715190887451171875e+01) (110, -2.75666952133178710938e-01) (111, 2.74133014678955078125e+00) (112, 1.05377388000488281250e+00) (113, 1.80225348472595214844e+00) (114, 3.48231256008148193359e-01) (115, 4.69194459915161132812e+00) (116, 3.14600563049316406250e+01) (117, 1.90714216232299804688e+00) (118, -2.40785491943359375000e+02) (119, 4.53832745552062988281e-01) (120, 7.44584751129150390625e+00) (121, 3.02484107017517089844e+00) (122, 5.96085071563720703125e+00) (123, 4.86376571655273437500e+00) (124, 1.54067707061767578125e+00) (125, 2.89203238487243652344e+00) (126, 5.86973786354064941406e-01) (127, 1.18425178527832031250e+01) (128, -2.89344847202301025391e-01) (129, 2.01712970733642578125e+01) (130, 5.23655675351619720459e-02) (131, 9.32102680206298828125e+00) (132, -1.91797101497650146484e+00) (133, 5.27984762191772460938e+00) (134, -1.72328891754150390625e+01) (135, 1.63804900646209716797e+00) (136, 1.90241611003875732422e+00) (137, 5.17664909362792968750e+00) (138, 7.25891053676605224609e-01) (139, 2.97919416427612304688e+00) (140, -1.90631103515625000000e+00) (141, 5.22514724731445312500e+00) (142, -3.66617512702941894531e+00) (143, 1.34833872318267822266e+00) (144, -2.49971633911132812500e+02) (145, 2.06098785400390625000e+01) (146, -2.49079322814941406250e+00) (147, 3.13265204429626464844e+00) (148, 9.23887538909912109375e+00) (149, 4.93499612808227539062e+00) (150, -2.71250963211059570312e+00) (151, 1.84930098056793212891e+00) (152, 1.21290957927703857422e+00) (153, 1.53706741333007812500e+01) (154, -4.17230651855468750000e+02) (155, 3.92692708969116210938e+00) (156, 2.03519683837890625000e+02) (157, 2.97352123260498046875e+00) (158, 2.47292852401733398438e+00) (159, 9.65069484710693359375e+00) (160, -3.73053878545761108398e-01) (161, 7.24229454994201660156e-01) (162, -1.04902992248535156250e+01) (163, -3.93625879287719726562e+00) (164, 9.80498123168945312500e+00) (165, -2.43054318428039550781e+00) (166, 3.25642442703247070312e+00) (167, 5.40349602699279785156e-01) (168, 7.30269718170166015625e+00) (169, 8.76925945281982421875e+00) (170, 9.40443325042724609375e+00) (171, 4.95026636123657226562e+00) (172, 1.02461290359497070312e+01) (173, 7.89114809036254882812e+00) (174, 5.13097715377807617188e+00) (175, 1.02783746719360351562e+01) (176, 9.07445716857910156250e+00) (177, 1.07386302947998046875e+01) (178, 2.78619918823242187500e+01) (179, 1.13931951522827148438e+01) (180, 1.45063400268554687500e+02) (181, 2.07509231567382812500e+00) (182, -4.22781036376953125000e+02) (183, 7.15811777114868164062e+00) (184, -1.18936103820800781250e+02) (185, 6.51050424575805664062e+00) (186, -2.30588562011718750000e+02) (187, 8.19169616699218750000e+00) (188, -3.63859405517578125000e+01) (189, 3.01303625106811523438e+00) (190, 9.83230686187744140625e+00) (191, 3.67409110069274902344e-01) (192, 4.77565979003906250000e+02) (193, -2.72857880592346191406e+00) (194, 3.29225730895996093750e+01) (195, -1.60285413265228271484e+00) (196, 1.50000000000000000000e+03) (197, 1.50000000000000000000e+03) (198, 1.50000000000000000000e+03) (199, 1.50000000000000000000e+03) (200, -5.49540579319000244141e-01) (201, -3.36255950927734375000e+02) (202, 5.87002372741699218750e+00) (0, -5.31482410430908203125e+00) (1, 4.76079910993576049805e-01) (2, 4.70879030227661132812e+00) (3, 1.01399195194244384766e+00) (4, 4.92786884307861328125e-01) (5, -4.48865890502929687500e-01) (6, -4.00927352905273437500e+00) (7, -2.47652471065521240234e-01) (8, 1.04471862316131591797e+00) (9, -1.58657193183898925781e+00) (10, -6.80964279174804687500e+00) (11, 7.21616625785827636719e-01) (12, 2.13182425498962402344e+00) (13, 5.17129600048065185547e-01) (14, 6.12637090682983398438e+00) (15, 4.09324504435062408447e-02) (16, 3.63620257377624511719e+00) (17, -3.52954357862472534180e-01) (18, 7.86328434944152832031e-01) (19, -2.75168108940124511719e+00) (20, -7.40516328811645507812e+00) (21, 7.95247733592987060547e-01) (22, -5.22418618202209472656e-01) (23, 7.26254045963287353516e-01) (24, 2.67831683158874511719e-01) (25, 2.57976675033569335938e+00) (26, -9.31408691406250000000e+00) (27, 3.82479143142700195312e+00) (28, 1.86244392395019531250e+00) (29, 2.83405601978302001953e-01) (30, 1.24181377887725830078e+00) (31, 8.56764256954193115234e-01) (32, 9.06256735324859619141e-01) (33, 1.52442678809165954590e-02) (34, 1.49813902378082275391e+00) (35, 8.56890261173248291016e-01) (36, 2.43230357766151428223e-01) (37, -1.33036911487579345703e+00) (38, 2.72716045379638671875e+00) (39, -1.29685246944427490234e+00) (40, 1.11539292335510253906e+00) (41, 6.08470976352691650391e-01) (42, 3.06293278932571411133e-01) (43, 1.49570763111114501953e+00) (44, 4.45133590698242187500e+00) (45, -1.11375582218170166016e+00) (46, -6.31218671798706054688e+00) (47, -2.05305528640747070312e+00) (48, 2.35439825057983398438e+00) (49, 1.04757659137248992920e-02) (50, -6.06692433357238769531e-02) (51, -8.27573597431182861328e-01) (52, 4.79359388351440429688e-01) (53, 4.85296010971069335938e-01) (54, 5.34688420593738555908e-02) (55, -3.90319705009460449219e-01) (56, 1.06878146529197692871e-01) (57, -1.47895008325576782227e-01) (58, 7.25471067428588867188e+00) (59, -2.03221392631530761719e+00) (60, -8.31364917755126953125e+00) (61, 2.29963615536689758301e-01) (62, 1.66163313388824462891e+00) (63, -1.39586210250854492188e+00) (64, 7.37197339534759521484e-01) (65, -6.84534847736358642578e-01) (66, -2.07778692245483398438e+00) (67, -6.05002999305725097656e-01) (68, -6.76568746566772460938e-01) (69, -3.27025353908538818359e-01) (70, 5.29723882675170898438e+00) (71, 4.32213366031646728516e-01) (72, -1.74046778678894042969e+00) (73, -9.41926598548889160156e-01) (74, 9.33334529399871826172e-01) (75, 4.96063172817230224609e-01) (76, -3.60804200172424316406e-01) (77, 2.27461004257202148438e+00) (78, -7.38337159156799316406e-01) (79, -2.03626170754432678223e-01) (80, 1.50373592972755432129e-01) (81, 1.58009254932403564453e+00) (82, -2.90280193090438842773e-01) (83, -4.03198748826980590820e-01) (84, -6.51773214340209960938e-01) (85, 1.86189603805541992188e+00) (86, 1.92366838455200195312e+00) (87, 1.51434659957885742188e+00) (88, -5.90084934234619140625e+00) (89, -6.33603369351476430893e-04) (90, -9.95044171810150146484e-01) (91, -1.94484758377075195312e+00) (92, 6.65506601333618164062e-01) (93, 2.25875973701477050781e+00) (94, -2.96764254570007324219e+00) (95, 1.81361532211303710938e+00) (96, 2.53647595643997192383e-01) (97, 1.17434874176979064941e-01) (98, 9.07045900821685791016e-01) (99, 6.70380890369415283203e-01) (100, -8.91708582639694213867e-02) (101, -2.85623997449874877930e-01) (102, 1.99852240085601806641e+00) (103, 1.80609330534934997559e-01) (104, -4.19832515716552734375e+00) (105, -3.55215430259704589844e-01) (106, -1.94721877574920654297e+00) (107, 3.39997589588165283203e-01) (108, 4.19367790222167968750e-01) (109, -3.80116790533065795898e-01) (110, 1.82929897308349609375e+00) (111, 6.23593711853027343750e+00) (112, 3.72675156593322753906e+00) (113, -2.35373139381408691406e+00) (114, -4.73248600959777832031e-01) (115, -5.24047374725341796875e-01) (116, -4.64513540267944335938e+00) (117, 1.46288156509399414062e+00) (118, 1.61801207065582275391e+00) (119, 2.50080370903015136719e+00) (120, 1.55748748779296875000e+00) (121, 1.35629546642303466797e+00) (122, -1.28833866119384765625e+00) (123, -2.14016631245613098145e-01) (124, -4.75484758615493774414e-01) (125, -2.92452216148376464844e-01) (126, -1.43000328540802001953e+00) (127, 1.03811788558959960938e+00) (128, 2.21670913696289062500e+00) (129, -3.48707109689712524414e-01) (130, 8.08197259902954101562e-01) (131, -8.13291013240814208984e-01) (132, 1.05101773515343666077e-02) (133, 6.10549449920654296875e-01) (134, -7.69046604633331298828e-01) (135, -2.44864419102668762207e-01) (136, 2.04407048225402832031e+00) (137, 1.49458706378936767578e+00) (138, -9.82896536588668823242e-02) (139, -3.97960066795349121094e-01) (140, 5.01209831237792968750e+00) (141, 4.31485861539840698242e-01) (142, 2.53091096878051757812e+00) (143, -1.54427862167358398438e+00) (144, -1.02200937271118164062e+01) (145, 4.59352552890777587891e-01) (146, 4.58828747272491455078e-01) (147, 2.81211757659912109375e+00) (148, 2.77348423004150390625e+00) (149, -8.07361245155334472656e-01) (150, -1.62124741077423095703e+00) (151, 1.91792404651641845703e+00) (152, -4.03850936889648437500e+00) (153, 5.99970340728759765625e-01) (154, 5.93810319900512695312e-01) (155, -4.82710242271423339844e-01) (156, -1.91536402702331542969e+00) (157, -1.96354544162750244141e+00) (158, 9.24112200736999511719e-01) (159, 1.83666634559631347656e+00) (160, -3.51992011070251464844e+00) (161, 1.63198435306549072266e+00) (162, -2.18344315886497497559e-01) (163, -1.92593502998352050781e+00) (164, -2.38555598258972167969e+00) (165, 1.94673061370849609375e+00) (166, -2.40209245681762695312e+00) (167, 1.50542354583740234375e+00) (168, -2.14752936363220214844e+00) (169, 8.32764923572540283203e-01) (170, 2.09614634513854980469e+00) (171, 4.50195878744125366211e-01) (172, 2.90812778472900390625e+00) (173, -1.38411366939544677734e+00) (174, 2.85200452804565429688e+00) (175, -4.98675644397735595703e-01) (176, -2.86777373403310775757e-02) (177, -3.04727286100387573242e-01) (178, -2.64959633350372314453e-01) (179, 4.42787766456604003906e-01) (180, -4.16540431976318359375e+00) (181, 9.63640689849853515625e-01) (182, 8.30790102481842041016e-01) (183, 9.25869345664978027344e-01) (184, -5.63157653808593750000e+00) (185, 1.54267144203186035156e+00) (186, 1.38730502128601074219e+00) (187, 3.77804350852966308594e+00) (188, 2.58447360992431640625e+00) (189, -3.85826039314270019531e+00) (190, 2.97841763496398925781e+00) (191, 9.12906408309936523438e-01) (192, -8.57695865631103515625e+00) (193, -6.85094475746154785156e-01) (194, 6.78955698013305664062e+00) (195, 1.34144163131713867188e+00) (196, 1.50000000000000000000e+03) (197, 1.50000000000000000000e+03) (198, 1.50000000000000000000e+03) (199, 1.50000000000000000000e+03) (200, -1.13481211662292480469e+00) (201, -6.88830184936523437500e+00) (202, 8.05491733551025390625e+00) (0, 3.51646804809570312500e+00) (1, -7.35577642917633056641e-02) (2, 7.16179704666137695312e+00) (3, 4.36982452869415283203e-01) (4, -5.14303088188171386719e-01) (5, 5.85978746414184570312e-01) (6, -7.96093225479125976562e+00) (7, 3.66839557886123657227e-01) (8, 4.00723665952682495117e-01) (9, 6.72872245311737060547e-01) (10, -1.31982135772705078125e+00) (11, 1.61442971229553222656e+00) (12, 3.96850037574768066406e+00) (13, -1.21419024467468261719e+00) (14, 4.28883934020996093750e+00) (15, 5.15324652194976806641e-01) (16, -3.16592907905578613281e+00) (17, 1.87385952472686767578e+00) (18, 1.46909086033701896667e-02) (19, -5.59434592723846435547e-01) (20, 3.18115139007568359375e+00) (21, -8.31250131130218505859e-01) (22, -1.29357612133026123047e+00) (23, -3.61689418554306030273e-01) (24, 2.02150821685791015625e+00) (25, 5.38802921772003173828e-01) (26, -3.58181715011596679688e-01) (27, 1.18806302547454833984e+00) (28, -1.85574620962142944336e-01) (29, -8.18639636039733886719e-01) (30, -2.67004561424255371094e+00) (31, 7.48219117522239685059e-02) (32, 1.33385825157165527344e+00) (33, -1.16660892963409423828e-01) (34, -3.20969271659851074219e+00) (35, -8.05730164051055908203e-01) (36, 1.10281682014465332031e+00) (37, 4.35576528310775756836e-01) (38, 5.01200616359710693359e-01) (39, 1.42778491973876953125e+00) (40, 1.49714887142181396484e+00) (41, 3.10587733983993530273e-02) (42, 7.94007718563079833984e-01) (43, -1.23957954347133636475e-01) (44, 6.45654857158660888672e-01) (45, -1.34187710285186767578e+00) (46, 3.73458504676818847656e-01) (47, 1.49996772408485412598e-01) (48, 1.93916904926300048828e+00) (49, -1.20601475238800048828e+00) (50, -6.52809333801269531250e+00) (51, -1.66792225837707519531e+00) (52, 1.11508175730705261230e-01) (53, -8.73143911361694335938e-01) (54, -1.29264581203460693359e+00) (55, 1.16135358810424804688e+00) (56, 2.58995747566223144531e+00) (57, 1.30336254835128784180e-01) (58, -2.35050940513610839844e+00) (59, 1.45367980003356933594e+00) (60, -2.68992006778717041016e-01) (61, 5.70085763931274414062e-01) (62, 2.19562101364135742188e+00) (63, 2.90436983108520507812e-01) (64, -2.47000527381896972656e+00) (65, 8.91299486160278320312e-01) (66, -7.48912334442138671875e-01) (67, 5.76505362987518310547e-01) (68, -1.24721527099609375000e+00) (69, 6.63420140743255615234e-01) (70, 3.10710906982421875000e+00) (71, 2.87011718750000000000e+00) (72, 5.25467097759246826172e-01) (73, -3.53024840354919433594e-01) (74, -1.66862094402313232422e+00) (75, 1.45708656311035156250e+00) (76, 2.84012365341186523438e+00) (77, 9.29527044296264648438e-01) (78, 3.85374712944030761719e+00) (79, 2.25945949554443359375e-01) (80, 8.83457660675048828125e-01) (81, 4.91888999938964843750e-01) (82, -1.84149062633514404297e+00) (83, -1.91386312246322631836e-01) (84, 3.48950481414794921875e+00) (85, 1.13089120388031005859e+00) (86, -2.63769894838333129883e-01) (87, -8.53053331375122070312e-01) (88, 1.24918766319751739502e-01) (89, 1.43663072586059570312e+00) (90, 3.96976852416992187500e+00) (91, -2.57098078727722167969e+00) (92, -2.07800531387329101562e+00) (93, -1.10691472887992858887e-01) (94, 2.87512159347534179688e+00) (95, -1.41166806221008300781e+00) (96, -7.85895645618438720703e-01) (97, 3.27850162982940673828e-01) (98, -1.80704712867736816406e-01) (99, -7.50798821449279785156e-01) (100, 5.54049134254455566406e-01) (101, -1.93267083168029785156e+00) (102, -5.40017306804656982422e-01) (103, 5.57529091835021972656e-01) (104, -4.87239480018615722656e-01) (105, -7.55308210849761962891e-01) (106, 1.00676023960113525391e+00) (107, -1.13365983963012695312e+00) (108, 8.37807655334472656250e-01) (109, -4.81753289699554443359e-01) (110, 7.09902644157409667969e-01) (111, 1.35194289684295654297e+00) (112, -3.19751352071762084961e-01) (113, -1.09467720985412597656e+00) (114, 2.58660167455673217773e-01) (115, 2.88150906562805175781e-01) (116, 8.69503915309906005859e-01) (117, 1.66282284259796142578e+00) (118, -3.64952945709228515625e+00) (119, 1.60260319709777832031e+00) (120, 1.86353003978729248047e+00) (121, 5.01771211624145507812e-01) (122, -3.31214576959609985352e-01) (123, 7.24394857883453369141e-01) (124, -3.25246644020080566406e+00) (125, 1.69294452667236328125e+00) (126, -4.34915900230407714844e-01) (127, -1.62897598743438720703e+00) (128, -1.39110192656517028809e-01) (129, 1.32862731814384460449e-01) (130, -4.18549680709838867188e+00) (131, 3.80778610706329345703e-01) (132, 1.26041507720947265625e+00) (133, 5.70451557636260986328e-01) (134, -2.32823157310485839844e+00) (135, 1.12638425827026367188e+00) (136, 2.47145503759384155273e-01) (137, -2.06598830223083496094e+00) (138, 2.27871656417846679688e+00) (139, -4.60140824317932128906e-01) (140, 3.92948937416076660156e+00) (141, 2.48116254806518554688e+00) (142, 1.76929247379302978516e+00) (143, 4.42349314689636230469e-01) (144, -1.57261121273040771484e+00) (145, 1.31908047199249267578e+00) (146, 2.00291737914085388184e-01) (147, 1.49188607931137084961e-01) (148, 1.45102906227111816406e+00) (149, 3.22614073753356933594e-01) (150, -2.28809550404548645020e-01) (151, 6.95071995258331298828e-01) (152, -4.55695915222167968750e+00) (153, -9.90748882293701171875e-01) (154, 5.76610851287841796875e+00) (155, 1.13061082363128662109e+00) (156, -3.95116358995437622070e-02) (157, -4.02371108531951904297e-01) (158, 1.03138375282287597656e+00) (159, -9.72779989242553710938e-01) (160, 7.28925168514251708984e-01) (161, -6.82256817817687988281e-01) (162, -1.51210474967956542969e+00) (163, 5.61256147921085357666e-02) (164, -2.27355694770812988281e+00) (165, 7.99306631088256835938e-01) (166, 1.81747114658355712891e+00) (167, -1.42142820358276367188e+00) (168, 2.97428756952285766602e-01) (169, -4.11928929388523101807e-02) (170, -5.07707118988037109375e-01) (171, 5.22651255130767822266e-01) (172, -2.62973093986511230469e+00) (173, 1.28001403808593750000e+00) (174, 4.14159625768661499023e-01) (175, -4.31591033935546875000e-01) (176, -2.75311470031738281250e-01) (177, -2.82750463485717773438e+00) (178, -2.29158949851989746094e+00) (179, 1.53946980834007263184e-01) (180, -3.39804196357727050781e+00) (181, -8.35366547107696533203e-01) (182, -1.73070120811462402344e+00) (183, 6.73981487751007080078e-01) (184, -4.63620281219482421875e+00) (185, 2.17472028732299804688e+00) (186, 2.81305885314941406250e+00) (187, 1.40145516395568847656e+00) (188, 3.88535201549530029297e-01) (189, -8.72954845428466796875e-01) (190, -1.52120113372802734375e+00) (191, 8.10304760932922363281e-01) (192, 7.77038279920816421509e-03) (193, -1.08163154125213623047e+00) (194, 1.95000767707824707031e+00) (195, 7.90991127490997314453e-01) (196, 1.50000000000000000000e+03) (197, 1.50000000000000000000e+03) (198, 1.50000000000000000000e+03) (199, 1.50000000000000000000e+03) (200, -4.74024951457977294922e-01) (201, -1.31887483596801757812e+00) (202, 6.48724508285522460938e+00) (0, 1.12618847656250000000e+03) (1, -1.42976928710937500000e+03) (2, 1.49999389648437500000e+03) (3, -1.49807617187500000000e+03) (4, -1.49999987792968750000e+03) (5, -1.50000000000000000000e+03) (6, -1.49999987792968750000e+03) (7, -1.49999987792968750000e+03) (8, 1.49401281738281250000e+03) (9, -1.12543859863281250000e+03) (10, -1.94492065429687500000e+02) (11, -1.97339391708374023438e+00) (12, -1.49999975585937500000e+03) (13, -1.50000000000000000000e+03) (14, -1.49999963378906250000e+03) (15, -1.50000000000000000000e+03) (16, 1.49796032714843750000e+03) (17, -1.49999987792968750000e+03) (18, -1.49999987792968750000e+03) (19, -1.50000000000000000000e+03) (20, -1.47840002441406250000e+03) (21, -1.50000000000000000000e+03) (22, -1.49999987792968750000e+03) (23, -1.49999987792968750000e+03) (24, -1.49999987792968750000e+03) (25, -1.49999987792968750000e+03) (26, -1.47500000000000000000e+03) (27, -1.49999963378906250000e+03) (28, -1.49999987792968750000e+03) (29, -1.49999987792968750000e+03) (30, -1.49999328613281250000e+03) (31, -1.49999987792968750000e+03) (32, -1.27294641113281250000e+03) (33, -1.49999987792968750000e+03) (34, -1.49999987792968750000e+03) (35, -1.49999987792968750000e+03) (36, -1.49999340820312500000e+03) (37, -1.49999987792968750000e+03) (38, -1.49999975585937500000e+03) (39, -1.49999987792968750000e+03) (40, 1.49846362304687500000e+03) (41, -1.49999987792968750000e+03) (42, -1.49938122558593750000e+03) (43, -1.50000000000000000000e+03) (44, -1.49999987792968750000e+03) (45, -1.50000000000000000000e+03) (46, 1.48753906250000000000e+03) (47, -1.84455413818359375000e+02) (48, -1.49998376464843750000e+03) (49, -1.49999987792968750000e+03) (50, -1.49998596191406250000e+03) (51, -1.50000000000000000000e+03) (52, -1.49999328613281250000e+03) (53, 1.09170079231262207031e+00) (54, -1.47500000000000000000e+03) (55, -1.49999987792968750000e+03) (56, 1.46625830078125000000e+03) (57, -1.63212127685546875000e+01) (58, 1.49998913574218750000e+03) (59, -1.49999975585937500000e+03) (60, 1.49999987792968750000e+03) (61, -9.18603897094726562500e-01) (62, 1.49931799316406250000e+03) (63, -2.16688156127929687500e+00) (64, 1.30635314941406250000e+02) (65, -9.11778151988983154297e-01) (66, -1.49341455078125000000e+03) (67, -1.01548731327056884766e+00) (68, 1.49999987792968750000e+03) (69, -3.24969458580017089844e+00) (70, -1.49999987792968750000e+03) (71, 1.32931971549987792969e+00) (72, -1.46062988281250000000e+03) (73, -1.49999987792968750000e+03) (74, -1.47963720703125000000e+03) (75, -8.85952987670898437500e+01) (76, -1.49999987792968750000e+03) (77, -1.49999987792968750000e+03) (78, -1.49999987792968750000e+03) (79, -1.58931839466094970703e+00) (80, -8.83478637695312500000e+02) (81, 2.28827619552612304688e+00) (82, -1.49999987792968750000e+03) (83, 6.26071166992187500000e+01) (84, -1.49999987792968750000e+03) (85, -1.49999987792968750000e+03) (86, -1.49911572265625000000e+03) (87, -8.75910110473632812500e+01) (88, -1.49999987792968750000e+03) (89, -2.81813079833984375000e+02) (90, 1.68544097900390625000e+02) (91, -6.34436279296875000000e+02) (92, -1.49999987792968750000e+03) (93, -2.96877294778823852539e-01) (94, 9.81023254394531250000e+02) (95, 4.98045015335083007812e+00) (96, -1.49999987792968750000e+03) (97, -1.49999975585937500000e+03) (98, -1.49999987792968750000e+03) (99, 